112 64
110 -0.084493615 -0.2094643 -0.7745725 0.3112866 0.2595937 0.47974244 0.00088493904 -0.712516 -0.012473183 -0.6678604 -0.47690916 -0.11921974 0.12562403 -0.15283038 0.24189617 -0.03933906 0.040932108 -0.09722266 -0.042928796 -0.14227921 0.38581654 0.3059018 0.4806971 0.01806715 -0.42397243 0.11011401 -0.3909299 0.2684033 -0.051423877 -0.14247797 -0.03908355 0.37846443 0.4374711 -0.0018183641 0.024265748 0.2895573 0.18172333 0.4086635 0.18750577 0.026291547 0.06639454 0.23706678 -0.2556939 0.12112655 -0.2172253 -0.11809484 -0.52085406 0.15002665 0.15058571 0.57571805 -0.05510652 0.1389347 0.0028121695 -0.7029408 0.22698054 -0.11018421 0.07193288 0.08817921 -0.07345338 0.22186016 0.16604917 -0.10036134 0.49199077 -0.38908735
105 0.064173386 -0.03668383 -0.57374716 0.36345515 0.4823806 0.2557926 0.25084424 -0.59232014 0.14035393 -0.13745697 -0.5771178 -0.043434855 0.73422205 -0.22853357 -0.06360015 -0.5585823 0.3731773 0.5462578 0.29287088 0.08151086 0.334455 0.06388587 0.32021764 -0.15837358 -0.3391747 0.24868707 0.018796073 -0.21583991 0.07557897 -0.22395857 0.2847404 0.07609033 0.3416764 0.09973533 0.23644952 0.20191684 0.27302244 0.21483943 0.45311067 0.29172072 0.44174272 0.35338575 0.034202162 0.48460412 -0.52282125 -0.08043589 -0.35793585 0.017072193 -0.30125985 -0.10696633 -0.5182346 -0.11355709 -0.39142084 -0.46879938 0.18502378 -0.16272727 0.4451051 -0.101073876 -0.16052406 0.17285445 0.13672222 -0.22903574 0.49200937 -0.27914947
59 -0.33547 0.20989923 -0.1486299 0.5886847 -0.3745166 0.47825274 0.15146998 -0.9926785 0.6272088 0.37638426 -0.24389376 -0.21915075 -0.13360636 -0.3335829 -0.17456974 -0.014403677 0.4575878 0.3162644 0.6813944 -0.26068607 0.29055625 -0.31343466 -0.45907426 0.33753362 -0.106489554 0.10668973 -0.19801064 -0.08127356 -0.59380275 -0.22305493 0.015435079 0.025109105 0.1567776 0.036494993 -0.31167194 0.464625 -1.082328 -0.38286713 -0.06361143 -0.24971603 -0.45480454 0.44842133 -0.13073209 0.03693997 -0.66071373 0.17259428 -0.35510135 -0.46091646 0.1504795 0.8671684 -0.017630352 0.34156218 -1.0160996 -0.7445409 -0.2575605 -0.67117065 0.31650075 0.8136649 -0.40353924 -0.07851944 0.26491943 0.45301625 0.25751832 0.3437001
96 0.4450652 0.09702594 -0.8371667 0.114411645 0.19091503 0.05344937 0.11576553 -0.57248914 -0.07615371 0.031991135 -0.08210708 0.14780737 0.1832673 -0.049839146 0.059289828 -0.48227954 0.77063763 0.040194403 -0.70803595 0.17620382 0.3913302 0.21855639 0.5024313 0.25019142 0.19692492 0.57845134 -0.24865258 -0.6342298 0.15834565 -0.5225615 0.17952655 -0.08784693 -0.048483055 0.6707432 -0.24244983 0.621021 0.5072089 0.49095097 0.039996892 0.13340035 0.15487838 0.3472065 -0.50231266 -0.078764066 -0.7106475 0.23297717 -0.17173602 0.23170522 0.14545415 0.20544271 -0.61248446 0.00429807 0.2929113 -0.4186044 0.4336909 -0.35962534 -0.064809464 0.5235988 0.30610296 0.03231172 -0.200948 0.41279173 0.074783064 -0.37444922
94 0.3801633 0.30170205 -0.8683721 0.11936313 0.06745103 -0.18878129 0.19621383 -0.4584784 -0.1230437 -0.17934407 0.033336133 0.12398183 0.3007724 0.1885507 0.027534625 -0.3538116 0.6967865 0.059717555 -0.7601799 0.27581826 0.3641616 0.21205911 0.36090642 0.069671266 -0.019438434 0.5637152 -0.32648447 -0.60091645 0.114792526 -0.4065213 0.19421396 -0.082758985 0.16580181 0.72919756 -0.21600738 0.6537043 0.53101367 0.41994995 0.115739815 0.03039331 0.09415615 0.46720055 -0.54106015 -0.10281462 -0.7092086 0.28029838 -0.20166016 0.10382933 0.035097707 0.23385355 -0.41545463 0.05852247 0.052152105 -0.21243519 0.32333404 -0.29903802 -0.024131564 0.43119588 0.33022416 0.025583703 -0.14415629 0.5772918 0.06523301 -0.37588194
104 0.49134323 0.008557909 -0.3974133 0.24144626 -0.19055355 0.022321887 0.07828842 -0.28368762 0.18709548 -0.032825902 -0.03548243 0.05786121 -0.07885242 -0.01820183 -0.24092637 -0.38110003 0.4341184 -0.4213423 -0.014755556 -0.0056816745 0.3576152 -0.06281562 0.37763217 -0.024148893 -0.10841906 0.52172595 -0.4076897 -0.0017230599 0.3642048 -0.75945425 -0.046681505 -0.09043348 0.09432719 0.0059744082 -0.27714998 0.4665588 0.09224148 0.48467243 -0.20841679 -0.19450921 0.29179862 0.24457991 -0.2572327 -0.1316543 -0.7448817 0.0608759 0.27914524 -0.21955773 -0.084520146 0.27189767 -0.25013864 -0.029322408 0.24918035 -0.27458927 0.22153237 -0.24522316 0.07399176 0.16498202 0.044812333 0.117541134 -0.16965203 0.38962722 -0.6210212 -0.67648053
6 -0.073496915 0.39121515 -0.5015795 0.6694416 -0.37503394 0.048682816 0.28524357 -1.0126594 0.3811217 0.67176086 0.18116547 0.4019047 -0.28485608 -0.4252231 -0.098090656 0.20669603 0.58657086 0.27214175 0.17282996 -0.32339704 0.46437144 -0.121255904 0.21048984 0.44125712 0.09528126 0.3595792 0.013665241 -0.23639303 -0.2415885 -0.5583701 0.036954436 -0.25349998 0.15908508 -0.281391 -0.09746854 0.38102806 -0.3887926 -0.39543828 -0.33747777 -0.060805902 -0.031110462 0.79899853 0.18833613 0.44049984 -0.58177745 0.17136835 -0.31128722 0.07029168 -0.12010305 0.8344101 -0.33158085 0.26025128 -0.31113514 -0.619852 -0.15819225 -0.10070452 -0.27202132 0.6998596 0.4436392 -0.27821702 0.23342127 0.5961718 0.3154592 0.48631373
112 0.14524531 0.26885957 -0.86635745 0.18403122 0.67445326 -0.20500638 -0.13925697 -0.3328427 -0.003537424 -0.37628034 -0.4638898 -0.19075252 0.17082372 -0.131925 0.2970525 -0.520203 0.43770668 -0.102066256 -0.008547078 -0.035327494 0.36993158 -0.19201879 0.6317631 -0.2768579 0.15374127 0.8868419 -0.5861048 -0.1742088 -0.15165763 -0.08152931 0.40999475 0.32444975 0.0746666 -0.092166506 0.03157702 0.365719 0.94198245 0.31084776 0.2225936 0.44851846 0.6366571 0.06401465 -0.14159651 0.30517423 -0.39869353 0.103057995 -0.9335492 -0.058313336 -0.14255829 0.3785619 -0.4439446 0.36119008 0.023343101 0.03625824 0.7219012 0.15292405 -0.13689716 0.19155772 -0.031116365 0.08183571 -0.20161936 0.03887617 0.5223944 -0.2679033
111 0.26970667 0.25160486 -0.67244446 0.18129198 0.029247703 -0.1344968 -0.035700094 -0.47111267 0.037854712 -0.031679757 -0.30306908 0.05383067 0.42353067 0.11753032 0.20702054 -0.45743573 0.7238549 0.27976057 -0.7507504 0.3903934 0.298638 0.32542112 0.18347849 -0.07005009 0.08308735 0.59381366 -0.29805893 -0.7423871 -0.03941564 -0.23993129 0.38542888 -0.1124905 0.059676677 0.44352978 0.10496466 0.3230987 0.52256733 0.29488736 -0.10995717 -0.0037239299 0.13134871 0.118953966 -0.52067876 -0.24937066 -0.48707864 0.13677168 -0.36344412 0.041320845 0.33653083 0.32359332 -0.3242362 -0.023562258 -0.016228756 -0.04162293 0.23693773 -0.13032074 -0.108500466 0.3945814 0.17030935 0.088831596 -0.21637805 0.21777494 0.04479807 -0.27361983
101 0.28928703 -0.048005898 -0.42769426 0.3318661 -0.14656056 -0.2256714 0.0029363106 -0.13350128 0.17507552 0.087626964 -0.15086347 0.19979692 -0.07800814 -0.05598837 -0.24963684 -0.31123677 0.64318085 -0.32130072 0.034020446 -0.02788252 -0.00058686454 -0.074328735 0.3214089 -0.07917705 -0.10655495 0.3879051 -0.18493623 0.16307329 0.33014247 -0.73460186 -0.1821529 -0.020232335 0.21117254 0.08021966 -0.08615739 0.2982617 0.061769854 0.48390782 -0.036638994 0.0017490297 0.2168587 0.058944725 -0.006761964 -0.13019894 -0.7122364 0.27385727 -0.08670182 0.068665534 0.050257657 0.2639739 -0.22624862 -0.062144928 0.05162145 -0.18114348 0.4515408 -0.33615234 0.08244594 0.4036155 0.16057743 -0.0016439501 0.34979352 0.39551598 -0.60937 -0.44003105
14 0.028098252 0.275183 -0.343372 0.6969742 -0.32552013 0.26218024 0.37223583 -0.68200433 0.5460971 0.65654725 0.062532485 0.29432136 -0.3903437 -0.3604039 0.1733928 0.017336847 0.4337298 0.2841369 0.4061364 -0.26337007 0.3886373 -0.22923426 0.05938064 0.313094 0.22068295 0.35832572 0.042027358 -0.07964049 -0.2995232 -0.4618977 0.10640401 -0.110765584 0.108375676 -0.2795729 -0.010858882 0.16831891 -0.59173054 -0.24126017 -0.17124926 0.018723428 -0.13255909 0.6227668 0.08707841 0.21163283 -0.5561382 0.15502547 -0.3855663 -0.0143062845 0.037986185 0.7339812 -0.43585378 0.301477 -0.35148475 -0.48475558 0.1644971 -0.29393494 -0.25366905 0.80042034 0.19761989 -0.16502544 0.12828955 0.5422881 0.07719309 0.35301676
71 -0.24673015 0.40118355 -0.19281514 0.64559174 -0.20465584 0.41289788 0.13223042 -0.92699987 0.5430783 0.33873513 -0.1593965 -0.025300214 -0.24799886 -0.3137826 -0.12804316 -0.03713247 0.38026157 0.1873091 0.5356651 -0.12713018 0.46606863 -0.33428603 -0.30680835 0.30137864 -0.034045517 0.19120894 -0.2061976 0.038965825 -0.53575593 -0.114973195 -0.09878975 0.13128634 0.16766578 -0.14518435 -0.41407722 0.17521304 -0.8849568 -0.2632816 -0.05261707 -0.17781524 -0.26772603 0.54065067 0.12160773 0.25489914 -0.51667565 0.09328708 -0.35803804 -0.467659 -0.08997031 0.90642303 -0.24457526 0.29857665 -0.91655225 -0.8538784 -0.31567577 -0.6088711 -0.04031981 0.58256197 -0.20070331 -0.08463953 0.27705932 0.39042237 0.15144019 0.44859344
13 -0.23775785 0.29318377 -0.47694227 0.6084217 -0.47423014 -0.002848497 0.18965371 -0.8076748 0.54689795 0.5807374 0.02472475 0.14525244 -0.39458355 -0.1669741 0.0104145175 0.054071862 0.31983054 0.057422888 0.30124348 -0.45834556 0.29655102 -0.2480479 0.066218436 0.39228186 0.17076088 0.40812033 -0.00045469595 -0.17837931 -0.28383097 -0.5080557 0.1842118 -0.19682483 -0.050829396 -0.3122191 -0.05731526 0.23876768 -0.4602904 -0.11528696 -0.20276493 0.038629398 0.044725552 0.50987136 -0.09220683 0.37499106 -0.62834275 0.07297206 -0.4106028 -0.068419814 -0.16545497 0.6966365 -0.38362542 0.15598333 -0.33674243 -0.55610913 0.008160642 -0.33019572 -0.2248449 0.80338144 0.19609703 -0.195814 0.2222489 0.5520145 -0.016908916 0.37710842
79 0.64821637 0.2874139 -0.54898983 0.12244507 0.1922297 -0.4038364 -0.048784036 -0.2124172 0.1279395 0.075037755 0.14424296 0.319596 0.10780359 0.18260701 -0.43696067 -0.3820596 0.6186005 -0.059189275 -0.5735727 0.3014523 -0.072541915 -0.19884409 0.24831381 0.25653127 0.002103693 0.23876762 -0.52226746 -0.06838476 0.41273302 -0.36026928 0.006951604 -0.30703095 0.26314464 0.719197 0.01181028 0.7468484 0.24736115 0.40077347 0.362437 -0.38205588 0.027736925 0.35972896 -0.13301401 -0.45648268 -0.5176983 0.08936283 -0.2716837 -0.33991283 0.2854075 0.24234258 -0.0014665795 -0.054856505 0.09155605 -0.56915486 0.49894288 -0.055388357 0.21399969 0.4324213 0.42518708 0.30676258 0.038424302 0.63722193 -0.15791696 -0.6193818
73 0.7367776 0.20510624 -0.51704895 0.33763853 -0.0055700582 -0.5481249 -0.13305537 0.12356804 0.28509277 0.041648906 -0.023443399 -0.0357018 0.42886406 -0.19399373 -0.6355882 -0.4142778 0.20757309 -0.16567515 -0.15083092 0.2551678 0.015755774 -0.40354988 0.22648513 -0.35763848 0.101669244 0.6898765 -0.21718056 -0.08467004 0.33011264 -0.31660277 -0.0910691 -0.32172218 0.29417294 -0.06639138 0.15521589 0.4080485 -0.08535353 0.36252737 0.2963784 -0.25313038 0.11001061 -0.072107956 0.06660023 -0.10994313 -0.49433726 -0.2352551 -0.04394806 -0.10846747 0.057780426 0.34153247 -0.101681426 0.08607743 -0.1773229 -0.38313833 0.3795342 0.22947025 0.441389 0.4324062 -0.3203241 -0.0069518667 -0.27712458 0.10878967 -0.43128452 -0.53176504
9 0.12772107 0.6315186 -0.8904853 0.8465997 -0.6442752 -0.063495345 -0.076875515 -0.78696406 0.74417865 0.5222006 0.29469752 0.4195895 -0.1741924 -0.5082768 -0.046523314 -0.13967189 0.60106045 0.13251121 0.47889787 -0.58810645 0.16077629 -0.60161906 0.2812997 0.18406746 0.3067636 1.0025316 -0.06715603 0.09483123 -0.07010338 -0.61122686 0.12285185 -0.27554768 0.23358974 -0.5909541 0.12081909 0.43229792 -0.35621107 -0.51995826 -0.11748371 0.1805576 0.008202106 0.49550837 0.26345748 0.64158165 -0.5875034 0.03466846 -0.80636364 0.56724995 0.09471484 1.0363383 -0.19973432 0.21313238 -0.13970432 -0.6099439 0.34875 0.2990167 -0.43582547 1.0203036 0.35811692 -0.22066608 0.15010934 0.55286235 -0.10002209 0.46095693
72 -0.26638848 0.394705 -0.32813084 0.5771119 -0.15331909 0.52002895 -0.011940098 -0.9600716 0.5828693 0.05739731 -0.35403174 -0.3070443 0.028116597 -0.38629135 -0.1702332 -0.20011729 0.2591188 0.16969231 0.6677277 -0.17178597 0.3735651 -0.4706357 -0.31780413 0.061901245 -0.14747928 0.2968995 -0.32915694 0.09510557 -0.6924794 -0.14878792 -0.023436524 0.21798632 0.2933944 -0.13721497 -0.32856148 0.3046948 -0.93910426 -0.30049187 0.110512614 -0.08469644 -0.19384344 0.3200119 0.019398756 0.33922553 -0.6122633 0.06624142 -0.52364945 -0.37614387 -0.00087964605 0.874898 -0.15845492 0.3260803 -1.0700389 -0.8637699 -0.27612004 -0.654966 0.16705081 0.6328352 -0.51159066 0.00882637 0.23420608 0.23182753 0.22875704 0.34093776
90 0.55157673 0.24907249 -0.45848405 0.22694018 -0.028231654 -0.26116073 0.06872985 -0.24361251 -0.1256916 0.061403807 0.03623723 0.0037290961 0.041320942 -0.050311863 -0.30290526 -0.2908378 0.5759634 -0.21945737 -0.42607537 0.20821759 0.048080917 -0.11007386 0.23901477 -0.23580547 -0.026234388 0.50652903 -0.2065095 -0.13429292 0.16477865 -0.6278885 0.048912678 -0.047458563 0.28159747 0.5579033 -0.39300534 0.38626733 0.32298753 0.5262167 0.080719315 0.09188809 0.19289708 -0.13798445 -0.26266006 -0.37103474 -0.50597674 -0.0077338666 0.12663008 -0.46999958 -0.00080448337 0.32401255 -0.14682847 -0.08490454 -0.0006810775 -0.51846826 0.4103481 -0.21369247 -0.20340936 0.420441 -0.019749016 -0.07295885 -0.20522298 0.42431974 -0.54174685 -0.41655344
89 0.6330073 0.21399663 -0.5393412 0.26666063 -0.15106623 -0.24922524 0.113488674 -0.32685426 -0.025396163 0.10367208 -0.1259397 0.0497611 0.03594956 0.014494218 -0.33684677 -0.26199046 0.5595618 -0.27109358 -0.23790935 0.17201409 0.12492894 -0.16756703 0.31612357 -0.1783424 -0.12445624 0.58942866 -0.10345569 -0.22962953 0.20202602 -0.727455 -0.006484549 0.017678414 0.32888278 0.38621047 -0.45199415 0.4696992 0.36966258 0.7275488 -0.093034014 0.15180382 0.024411812 0.046481878 -0.24463704 -0.3606611 -0.77366096 0.0452658 0.319246 -0.38263485 -0.053612344 0.2504015 -0.2634279 0.015498492 -0.06723532 -0.42826828 0.30978948 -0.35500035 0.03389855 0.29379013 -0.020065267 -0.14851469 -0.044090092 0.4735322 -0.6097923 -0.6095826
91 0.6000717 0.1495646 -0.60326 0.44876215 -0.21438673 -0.23795542 -0.05042565 -0.120385915 0.099292815 -0.1461128 -0.15118705 -0.011859414 0.2001855 -0.24442877 -0.3205074 -0.4635918 0.50023836 -0.18055502 0.118189774 0.07294117 0.15640707 -0.25552425 0.2600256 -0.54111505 -0.16905735 0.8938015 -0.12724335 0.07302008 0.3097226 -0.65224934 -0.014503861 -0.04356062 0.55031997 -0.14452794 -0.19096611 0.26342493 0.09058308 0.45344126 -0.04151527 0.12984437 0.39073738 -0.10757552 -0.09504901 -0.03683134 -0.74407756 -0.048564486 0.06212347 0.056825306 -0.054669555 0.32233778 -0.20135312 -0.04679637 -0.12460399 -0.2514993 0.333399 -0.021175485 -0.0659085 0.23831707 -0.41535342 -0.088726416 -0.1463911 0.100603916 -0.8563281 -0.46397862
28 0.26741964 0.83545333 -0.2869861 0.51056504 -0.16905239 0.1779173 -0.69394124 -0.5018845 0.76783746 -0.74582314 -0.4118262 0.09332042 0.6376142 -0.44181502 0.29190004 -0.6811541 0.7288301 0.22207129 0.10536034 0.16157939 0.03115131 -0.6199658 -0.4898148 -0.13855326 -0.15672863 0.8946606 -0.9138883 0.25251576 0.20840332 0.24273455 0.5198069 0.039435253 0.7015579 -0.5010339 -0.004452267 0.27481082 0.38406968 -0.6275768 0.11021228 -0.14848207 -0.14191946 -0.42686006 0.62681717 0.01611045 -0.5400289 0.27534693 -1.0697128 0.25537732 0.6720948 0.7499706 0.5164945 -0.22235301 -0.37394646 -0.2936417 0.28588748 0.671363 -0.4823988 0.0750666 -0.48769787 0.4064497 -0.060168542 0.11631979 0.2014021 -0.14957257
76 0.44046056 0.09825034 -0.5031637 0.32642186 -0.11723581 -0.09261891 0.18490946 -0.2848766 -0.10779312 -0.099860124 -0.078065425 -0.029502362 0.094188854 -0.11575151 -0.16650741 -0.32228583 0.56427747 -0.11701696 -0.33796087 0.13809587 0.17646597 -0.0024012337 0.12521723 -0.2886818 -0.095835134 0.5964223 -0.096629776 -0.17850223 0.22522375 -0.6105525 0.08591696 -0.043961167 0.34533557 0.41716298 -0.3432648 0.28941074 0.27814397 0.44222033 -0.010868533 0.18563561 0.2098525 -0.041849483 -0.25376338 -0.18663503 -0.63713825 0.031022767 0.15579504 -0.1726445 -0.09317208 0.23376791 -0.24650405 -0.12860484 -0.023899334 -0.41525438 0.3078071 -0.19146018 -0.16414137 0.33705094 -0.14562564 -0.0634593 -0.14393432 0.25750816 -0.5557587 -0.3449354
60 -0.14233147 0.27680716 -0.08523564 0.6360338 -0.13250954 0.4655944 0.2814578 -0.9270068 0.501521 0.30589688 -0.29162046 -0.0669854 -0.14496882 -0.28031102 -0.24425602 -0.06819232 0.32049575 0.17197147 0.58296657 0.014671396 0.5457111 -0.24333374 -0.35069954 0.22908865 -0.14340249 0.09432406 -0.22721244 0.04093585 -0.6008137 -0.14666326 -0.17577799 0.21706972 0.24546663 0.005519519 -0.4755598 0.21131746 -0.95551085 -0.034472533 0.033364847 -0.19479911 -0.18750384 0.5145086 0.021406204 0.09792056 -0.61174387 0.0588186 -0.13647462 -0.7353974 -0.1314583 0.9130658 -0.22452635 0.3322904 -1.090307 -0.976115 -0.32342896 -0.8485109 0.15080784 0.53839135 -0.3438293 -0.034201775 0.31432563 0.3871171 0.06924774 0.23415694
16 -0.022931196 0.24180469 -0.4618074 0.557255 -0.28776863 -0.05263108 0.29712948 -0.32038897 0.36904526 0.51199013 -0.11358103 0.21254402 -0.62342036 -0.17325614 0.10271334 0.0027201718 0.40127042 -0.07526952 0.2570166 -0.19663736 0.3107211 -0.16322373 0.09886668 0.26169077 0.29602712 0.36799556 0.028955068 -0.09707484 -0.48739025 -0.39135227 0.102119006 0.12209633 0.01419945 -0.12374377 -0.13354205 0.032255568 -0.3521788 0.16964035 -0.1543766 -0.0015545242 -0.01751767 0.470032 0.040469225 0.2656478 -0.4465044 0.21166483 -0.30862048 -0.35005686 -0.2107167 0.69747835 -0.5978147 0.21863511 -0.23553182 -0.25615677 0.26136595 -0.38187882 -0.054736126 0.7875845 0.12845398 -0.22047818 0.094118714 0.61819994 -0.043633386 0.30359724
61 -0.226946 0.35160655 -0.09015062 0.62718815 -0.07329316 0.54780054 0.1746225 -1.1034645 0.59609646 0.29863006 -0.310922 -0.11744564 -0.14742887 -0.33748144 -0.13285083 -0.103981644 0.3060248 0.27146307 0.57458454 -0.05662588 0.56311727 -0.28267518 -0.43128303 0.36634505 -0.10635105 0.1722713 -0.2901932 0.03927578 -0.62213856 -0.010080486 -0.0656999 0.24212162 0.19626214 -0.049105756 -0.48146498 0.26807302 -0.913834 -0.26583478 0.07431173 -0.16599841 -0.19391653 0.5116056 0.06040729 0.19853358 -0.61542624 0.054705024 -0.37067798 -0.67083204 -0.08355208 0.97612333 -0.19713518 0.3517295 -1.084568 -0.9813947 -0.31403205 -0.7665116 0.044732563 0.52260953 -0.3415853 -0.010920587 0.3743261 0.3149246 0.20358916 0.38834023
21 0.04945341 0.16924724 -0.49295864 0.7666494 -0.4670491 0.030290434 0.28687632 -0.9309926 0.3782861 0.5323542 0.36946562 0.22976784 0.040425263 -0.36382332 -0.15379119 0.016970849 0.412516 0.19048418 0.41499022 -0.29943913 0.24063118 -0.033858657 0.105259 0.24854627 -0.03564674 0.3619061 0.107045546 0.010482837 -0.0292757 -0.6852966 -0.12053086 -0.069543414 0.087450884 -0.11328316 0.047643803 0.4704298 -0.48389205 -0.36113542 -0.09125245 0.04401484 0.11555003 0.6198262 -0.06024785 0.33653608 -0.4820932 -0.045289136 -0.14064828 0.22471014 0.06667875 0.7595625 -0.2093395 0.23724554 -0.23084344 -0.6494482 0.04839066 -0.23603708 -0.21873459 0.736712 0.41517955 -0.22958694 0.14803687 0.39744598 0.014289241 0.15006173
62 -0.22331588 0.33295113 -0.048834786 0.6187741 -0.1983631 0.4522015 0.16637886 -0.9359223 0.6176257 0.2995286 -0.2278647 -0.12529528 -0.20413604 -0.3795046 -0.15571511 -0.060053393 0.3236562 0.26697955 0.6305766 -0.13799796 0.49657536 -0.33477572 -0.41664767 0.28825137 -0.03271741 0.23191495 -0.25289878 0.05494339 -0.5753744 -0.06045132 -0.040193688 0.14814349 0.21108432 -0.14511581 -0.42277429 0.26069385 -0.9069056 -0.32849607 0.05025691 -0.18678549 -0.18652767 0.45257407 0.0861555 0.14450231 -0.57900906 0.079055056 -0.36293134 -0.5751856 -0.011957269 0.94587946 -0.13423985 0.3597791 -0.99244964 -0.8137589 -0.23368847 -0.6620241 0.032340482 0.63171154 -0.3925023 -0.06685249 0.3018133 0.3642863 0.09725377 0.39800248
70 -0.23879868 0.3644083 -0.25589252 0.5786413 -0.17507577 0.4692702 0.042091276 -0.9034445 0.5655957 0.071543545 -0.3345921 -0.27445203 0.004776522 -0.3914534 -0.19780827 -0.1423934 0.23337768 0.19319895 0.65289795 -0.17115441 0.38184375 -0.43757683 -0.31504717 0.092858166 -0.11491803 0.27584472 -0.31080043 0.11997609 -0.66693693 -0.14967391 -0.023165042 0.17274985 0.30350807 -0.13212058 -0.28123653 0.25726515 -0.9461212 -0.29373387 0.11715356 -0.12565212 -0.18641034 0.31803954 0.043740418 0.2936048 -0.5832202 0.07378014 -0.4585008 -0.3779953 0.032572825 0.8440037 -0.13046196 0.34581608 -1.0269405 -0.8351537 -0.25840095 -0.59883213 0.19695292 0.6347567 -0.48115867 0.013941579 0.24138896 0.2425484 0.1970361 0.32920697
19 -0.10560279 0.23708843 -0.561224 0.6909733 -0.49086744 0.31418386 0.22069977 -1.1028211 0.52355516 0.57812506 0.19855654 0.2660471 -0.12815078 -0.33398658 0.14680244 -0.0145051135 0.42686558 0.27520204 0.33198813 -0.42281008 0.35783303 -0.010439378 0.08486296 0.419755 0.019788837 0.40685403 0.07638421 -0.14801206 -0.03822829 -0.53884286 0.07590665 -0.08082781 0.056861192 -0.29570723 -0.035897654 0.41807815 -0.4152092 -0.3877115 -0.20058186 0.07571447 0.0044822632 0.664949 -0.04715859 0.38404968 -0.5718482 0.016706513 -0.4513277 0.25153965 0.054567903 0.81875646 -0.26539475 0.09328446 -0.16713798 -0.63443667 0.052114863 -0.21815377 -0.36396703 0.68855006 0.36346254 -0.2203425 0.2302276 0.36049953 0.1523699 0.29571164
80 0.5718477 0.26603144 -0.543826 0.110552125 0.25622144 -0.24322736 0.02561343 -0.47045025 0.3709704 0.15221499 0.12986365 0.2532066 0.20279263 0.2148301 -0.27489936 -0.39677587 0.6633456 0.11717156 -0.872222 0.36984482 0.026945194 -0.13227533 0.1477246 0.53571117 0.10361132 0.19155677 -0.60510033 -0.27526447 0.5286681 -0.31451127 0.10279796 -0.39605433 0.06966314 0.699107 0.04292249 0.7987095 0.35625315 0.38386166 0.23175682 -0.4125223 -0.28416365 0.5680008 -0.10101494 -0.39396465 -0.5531686 0.08067858 -0.32609212 -0.3088111 0.25507656 0.37568486 -0.071842685 -0.01834189 0.1814881 -0.66164094 0.52796054 0.02296334 0.2049079 0.39378896 0.649671 0.31176797 0.028010655 0.8003294 0.16446915 -0.5671626
83 0.68823606 0.2773077 -0.61320674 0.13652787 0.3263255 -0.2697497 0.040446285 -0.4793947 0.37362048 0.18446334 0.054656036 0.32215098 0.2883418 0.26397565 -0.29473838 -0.46415508 0.68402576 0.13998856 -0.888951 0.39368102 0.05780729 -0.15267971 0.18345447 0.5263233 0.11704963 0.13905855 -0.59494805 -0.252313 0.49711818 -0.30869013 0.12231426 -0.43134725 0.1062948 0.79526675 0.092741534 0.9073926 0.43297866 0.4128484 0.27620193 -0.4144388 -0.27491018 0.65402997 -0.10830652 -0.39302328 -0.59739846 0.064524844 -0.4140228 -0.2614309 0.32493535 0.38879782 -0.12785664 -0.021605717 0.09520836 -0.76223445 0.5767587 -0.04786256 0.3330025 0.379935 0.6432483 0.36092284 0.039166313 0.7614428 0.27870235 -0.6420014
18 0.14170894 0.28335947 -0.4072693 0.5438081 -0.49130803 -0.107956484 0.22190593 -0.70623726 0.21809295 0.51578534 0.32910028 0.38064665 -0.0064297793 -0.33272725 -0.35479802 0.18118325 0.2995383 0.09257691 0.24868818 -0.15001339 0.25930372 -0.11445334 0.17385755 0.21733457 0.008448346 0.36388472 0.1382086 -0.060446814 -0.16957189 -0.5313006 -0.17858742 -0.080831654 0.22529157 -0.12436405 -0.07665487 0.382242 -0.4082949 -0.21842088 -0.1441441 0.055129964 0.036413316 0.53256434 0.077582486 0.28033122 -0.3145998 -0.06516909 0.08601749 0.07205886 -0.05555087 0.69632465 -0.091990754 0.18784913 -0.24727364 -0.7369042 -0.11285371 -0.1412014 -0.042675097 0.5559367 0.26083222 -0.19538657 0.21229465 0.39505026 0.07718881 0.22406337
99 0.67101216 0.34123856 -0.5006823 0.22046143 -0.13404618 -0.4729735 0.29525968 -0.2755265 0.007003422 0.21916845 -0.1010343 -0.0808323 0.062563404 0.19080822 -0.37029433 -0.32753572 0.667149 -0.3171753 -0.6216343 0.25735778 0.066326454 -0.20021342 0.028101502 -0.30453965 -0.14911798 0.46331996 -0.23344322 -0.27015826 0.20404446 -0.8338565 0.105848335 -0.13510884 0.3802574 0.797282 -0.52452487 0.4969166 0.457593 0.9244105 -0.1243732 0.19485278 -0.09486496 0.09801157 -0.37092543 -0.5489299 -0.7740129 0.04222716 0.26168633 -0.6255297 -0.12503856 0.32325754 -0.19847928 -0.06885228 -0.18313888 -0.69282013 0.5180156 -0.42484224 0.08908473 0.3537042 -0.008854548 -0.15050335 -0.091374315 0.7248441 -0.7401622 -0.6338727
97 0.55688655 0.25394198 -0.60914123 0.5735109 -0.44105056 -0.25860915 0.1450669 -0.13778804 0.037617233 -0.13195243 -0.07933575 0.021788703 0.17020911 -0.4297532 -0.3332269 -0.248217 0.4207234 -0.31667838 0.1858341 -0.09324906 0.21102901 -0.20428662 0.30663288 -0.6231183 -0.04846166 0.92480403 0.029350398 -0.05170419 0.2024745 -0.7631505 -0.04246994 -0.07572888 0.49195546 -0.1978038 -0.22495028 0.21483622 -0.027356407 0.31862664 -0.026403103 0.12245142 0.4131689 -0.051016 -0.09144746 0.06972328 -0.7549854 -0.048019283 0.117277645 0.173925 -0.10113038 0.38208953 -0.2629665 0.007216635 -0.08340031 -0.30027795 0.276115 -0.059952397 -0.017970614 0.47499317 -0.41197687 -0.17216836 -0.2079126 0.10532908 -0.8253522 -0.3730348
100 0.6329206 0.1315472 -0.48776934 0.2310285 -0.18841057 -0.31592584 0.1918318 -0.1811565 -0.01798761 0.22131166 -0.22721127 0.069724165 0.028942773 0.22597596 -0.2624037 -0.3370337 0.71970016 -0.3135049 -0.36682913 0.2571689 0.20581716 -0.1392475 0.1254736 -0.25075334 -0.18544681 0.38827816 -0.20123188 -0.19541098 0.16416867 -0.76409036 0.0029647686 -0.03120153 0.33007234 0.5163471 -0.40582874 0.5415633 0.42904624 0.7736966 -0.17152032 0.1584327 0.07815186 0.06999298 -0.2795244 -0.40818703 -0.7999943 0.1363966 0.21178985 -0.45505953 -0.114740774 0.32957906 -0.18528853 -0.026185159 -0.15792692 -0.46061787 0.418663 -0.43968782 0.12662588 0.31801796 0.035836168 -0.107173875 -0.005416043 0.55919987 -0.5709927 -0.62555945
85 0.87700003 0.3077525 -0.6440172 0.25840178 0.21244848 -0.49699798 -0.07473874 -0.22308649 0.4573748 0.057752952 0.013492449 0.35833383 0.40604928 0.18564452 -0.53296095 -0.52766395 0.62156475 0.04479197 -0.6513584 0.4327189 -0.049524132 -0.35960174 0.22246826 0.22488269 0.040018186 0.31316826 -0.6152421 0.003622896 0.6245168 -0.34185094 0.0109692225 -0.47774312 0.3897247 0.46454397 0.24009125 0.8688401 0.2548339 0.49951413 0.34503955 -0.4941233 -0.12972042 0.48761463 0.046582475 -0.40900168 -0.6325496 -0.06611931 -0.38689426 -0.21252568 0.3568587 0.42318264 -0.010849553 -0.021821994 -0.009632043 -0.7453955 0.6253966 0.13218315 0.4737936 0.3275999 0.37985304 0.3856575 0.003225621 0.6503151 -0.08719705 -0.80818987
1 0.64185923 0.5440097 0.037872057 -0.30873913 0.683816 0.3569164 -0.24907738 0.009494988 0.11174638 -0.5086191 -0.40735674 -0.24951765 0.65592486 -0.18694767 -0.7292357 -0.21398287 0.56208664 0.07498526 0.122238696 0.26989684 0.32554483 -0.6176346 -0.24813761 -0.28581256 -0.18755488 0.1573907 -0.88784647 0.19894464 -0.33724266 0.049166515 -0.27065498 0.04588956 0.6523646 0.42185763 -0.73917824 0.76541966 -0.71457905 0.121792026 0.701537 -0.3338513 -0.16073163 -0.031121694 0.34218422 -0.7745466 -0.5472214 -0.40228775 -0.47885585 -1.1054362 0.34829703 0.76911616 0.66450316 0.06858691 -1.2340034 -0.40233424 0.08035649 -0.3375738 0.5666829 0.092593946 -0.5631037 0.39932495 0.34039637 0.5045149 0.21473031 -0.24476367
15 -0.17532314 0.41478837 -0.4143533 0.67484206 -0.383635 0.09923472 0.21927527 -0.6997301 0.5457553 0.6361241 0.06423492 0.21926537 -0.5239338 -0.23391005 0.13115838 0.05024364 0.52133167 0.10686582 0.24424346 -0.39979553 0.39974347 -0.27879232 0.08875744 0.4293089 0.29355404 0.38215032 -0.09724666 -0.21726517 -0.22977246 -0.41544446 0.21652289 -0.29953447 0.020993471 -0.4189232 -0.020651827 0.11677944 -0.5227773 -0.19028498 -0.34226304 -0.09725881 -0.15086836 0.63847125 0.077350244 0.32425377 -0.62533736 0.19256452 -0.52302164 0.0016000025 -0.07984774 0.79940534 -0.45739245 0.20445788 -0.36003023 -0.43093008 0.038085494 -0.18426675 -0.3691186 0.79996043 0.26041862 -0.2165675 0.0891039 0.63772786 0.11192095 0.47228745
78 0.56740934 0.18063399 -0.38725558 0.24915312 -0.012848485 -0.3293791 -0.091665484 -0.11808975 0.19400682 0.1637746 0.031027047 0.11016641 0.01128792 0.0019146808 -0.48365405 -0.3750776 0.46191418 -0.08968857 -0.22128893 0.21994637 -0.060509544 -0.24118371 0.19218403 -0.023067173 -0.07906456 0.5328218 -0.1993478 -0.06263162 0.38468313 -0.51453406 -0.021303343 -0.1401356 0.2613729 0.2078516 -0.16532943 0.341303 0.1964311 0.49276784 0.032791086 -0.1373766 -0.011817068 0.035836805 -0.056300513 -0.323054 -0.5729656 0.024887152 0.10600895 -0.34265247 0.0583356 0.2760635 -0.13263808 -0.11264755 0.029933086 -0.30172047 0.32620218 0.003093686 -0.016444309 0.18913259 0.00080297014 -0.014053543 -0.058836654 0.37942794 -0.52224445 -0.42165178
87 0.46019208 0.21639562 -0.33457482 0.39468303 -0.12301455 -0.29657698 0.2367848 -0.22899266 -0.030347167 0.18812801 -0.01368408 -0.17035162 -0.10483604 -0.084440276 -0.47239205 -0.24081554 0.47004494 -0.2647845 -0.3267805 0.05064257 0.048911553 -0.12281576 0.054000188 -0.30456188 -0.0424069 0.56189394 -0.074569196 -0.24966662 0.16105726 -0.8060374 0.056079604 -0.08239563 0.16599846 0.6056278 -0.5201668 0.21514058 0.19334117 0.6243254 0.020245181 0.14325283 -0.043707225 -0.1510071 -0.20320155 -0.42402574 -0.68811756 0.025332665 0.38918412 -0.6137786 -0.19097413 0.24959101 -0.23107445 -0.057140008 -0.11048647 -0.6245183 0.3092362 -0.28817782 -0.08036997 0.5069908 -0.20392454 -0.24017537 -0.13767034 0.3816887 -0.63809735 -0.35091275
23 1.0604914 1.0858129 -0.025040738 -0.1957006 0.24204545 0.56250936 -0.41860098 -0.5936614 0.9868068 0.08739225 -0.28487352 -0.18713 0.62540305 -0.47120047 -0.30461496 -0.3127735 0.05081016 -0.28781042 -0.34172475 0.23283504 0.056445528 -1.2007747 -0.32322332 -0.41996595 0.33760738 0.44221592 -0.5716509 -0.017266123 -0.11976095 0.14093521 -0.45574635 -0.489079 0.17275885 -0.10462388 -0.4414361 0.35434395 -0.21028331 -0.59542704 0.048758198 -0.5530727 -0.5778327 0.14075056 0.13780269 -0.078023456 -0.76195544 0.31281748 -0.5793583 0.004335163 0.22388043 0.6750423 0.4959481 0.6520655 -0.8736605 -0.62405825 0.04902348 -0.02672747 -0.38207892 0.4477695 -0.23398055 0.43014008 -0.46238858 0.5556524 -0.78004456 -0.28736573
82 0.5907426 0.2376424 -0.52846277 0.08892323 0.25631866 -0.27851927 0.043740317 -0.41472793 0.34213495 0.20115791 0.06679701 0.25490975 0.22393863 0.21904002 -0.2773012 -0.42811126 0.67013544 0.10260183 -0.7532425 0.3819175 0.031255927 -0.14290223 0.17432982 0.43572176 0.09675272 0.19419144 -0.54611945 -0.28661394 0.48680907 -0.3395273 0.079010904 -0.3528965 0.06538821 0.6548925 0.03307524 0.7828497 0.35191134 0.41027468 0.21667145 -0.35407075 -0.19870007 0.52438676 -0.0936568 -0.33770755 -0.5725472 0.069005884 -0.26812968 -0.3051677 0.19799194 0.3235921 -0.103307925 0.010718067 0.13555834 -0.57954085 0.5027314 -0.03810594 0.24456227 0.35145888 0.5851066 0.2984733 0.011966342 0.7400582 0.118235104 -0.5962702
92 0.40584674 0.32947457 -0.6583402 0.11948026 0.15837422 -0.073695146 0.057087693 -0.5581912 -0.25946647 -0.10653182 -0.0095451875 -0.20685092 0.03832859 -0.09278058 -0.15015638 -0.40306768 0.61113286 -0.076818995 -0.61595035 0.11118409 0.19923207 0.05220386 0.26579618 -0.061454885 0.008607465 0.925423 -0.14162768 -0.5428694 0.0730996 -0.68516266 0.20425434 0.18599494 0.055589795 0.87160254 -0.70096606 0.39111176 0.64646995 0.4645409 0.039452568 0.39216778 -0.002410321 -0.09587726 -0.4467187 -0.24359182 -0.7083063 0.17132828 0.17178805 -0.21581705 -0.06359041 0.15894914 -0.39553142 -0.013506736 0.04859168 -0.36199224 0.35571688 -0.37006155 -0.4045706 0.45077622 -0.02710281 -0.259046 -0.1571973 0.39292452 -0.26970133 -0.19204058
12 -0.065011166 0.191973 -0.29801136 0.39931732 -0.34353697 -0.09480766 0.19749872 -0.44597915 0.2388131 0.042342633 0.20563158 0.02433709 -0.21540104 -0.19736375 -0.28152204 0.14310856 0.10925107 -0.012536663 0.0996375 -0.1754067 0.0827088 -0.16699287 0.074512936 0.20082565 0.12237793 0.22044347 -0.044997856 0.017623652 -0.39036575 -0.4055455 -0.057469822 0.02673607 0.017316235 0.20317449 -0.02316491 0.19992076 -0.362878 0.03852662 0.10975657 -0.062810704 -0.007521063 0.30334496 -0.078280635 0.12790313 -0.2525596 0.09055258 -0.024438474 -0.2131932 -0.05896531 0.38365173 -0.23238964 0.20602468 -0.20672132 -0.5270887 0.054907665 -0.42542103 0.08405563 0.7620739 0.15992565 0.027100567 0.07554997 0.51891744 0.058677968 0.13001114
77 0.6767615 0.3097762 -0.48489392 0.18041757 0.11687468 -0.44590583 -0.10959683 -0.24951717 0.32209417 0.13424475 0.20533486 0.059813228 0.12021229 0.1059769 -0.54595214 -0.4183369 0.40777105 -0.044097133 -0.683961 0.3139453 -0.13949713 -0.29658106 0.19721594 0.18586528 0.080831096 0.5416804 -0.35252324 -0.085397296 0.4920675 -0.5932114 0.033018257 -0.25006035 0.09120857 0.5166397 -0.10694875 0.5293516 0.42634955 0.5160045 0.114260614 -0.19353895 -0.27887088 0.1571376 -0.014917082 -0.3428767 -0.4987451 -0.050890587 0.12637427 -0.39781314 0.11723765 0.32820052 -0.076969065 -0.042077158 0.14639589 -0.57736737 0.50143754 0.03614097 0.016633552 0.3377271 0.34538084 0.036049 -0.06955451 0.64656204 -0.27918875 -0.4958234
40 0.27341595 0.111642964 -0.5477066 0.43012694 -0.1018589 0.36655158 -0.104493126 -0.5323274 0.0038829793 -0.37670657 -0.111127794 0.2977248 -0.16958591 0.022853568 -0.03438332 -0.57863706 0.9305839 0.49310675 -0.41701484 0.13715494 0.22252329 -0.18994053 -0.45211107 0.078599215 -0.31497294 0.67785686 0.05923008 0.15290534 0.2611438 0.07914128 0.5386382 0.027962582 0.8192042 0.30543417 -0.48229626 0.07228373 0.41780964 0.3400053 -0.2559238 0.27225953 0.07461314 -0.20879506 -0.011758544 -0.49517778 -0.6373168 0.07416509 -0.23517284 -0.20700663 0.14679554 0.1569673 -0.13946366 -0.4888084 -0.31983754 -0.464048 0.08501948 0.13762243 -0.8881414 -0.25905865 -0.5228615 -0.13579233 0.035007864 0.3201271 -0.5302107 -0.13060515
43 -0.066412896 0.4459157 -0.27809447 0.5274765 -0.39444727 0.03776149 -0.18479905 -0.3746723 0.38354525 -0.20664208 -0.012401469 0.20317951 0.07490791 -0.26286286 0.036052562 -0.15440893 0.38170198 0.25163728 0.07592813 -0.033575542 0.0015467954 -0.19750327 -0.19390737 0.070274875 -0.039889015 0.51350623 -0.20628954 0.13100916 0.06935191 -0.05483034 0.27224478 -0.0074403533 0.36165458 -0.2431109 0.089348644 0.03841299 0.16702081 -0.29893944 0.029769152 0.029417815 -0.074272 0.014577661 0.4256506 0.18436056 -0.2635012 0.16374673 -0.5558784 0.19718845 0.32298642 0.4832 0.10926961 -0.17443691 -0.08669771 -0.3324554 0.12732242 0.35937923 -0.27348447 0.2702495 -0.02386244 0.076182164 0.06534576 0.1619084 0.20823468 0.19800046
81 0.61190623 0.34470546 -0.6170569 0.0029248097 0.40110302 -0.17502633 0.018436475 -0.5757346 0.31566936 0.09411735 0.10178536 0.2671466 0.2645173 0.20543002 -0.23787846 -0.43048534 0.69376975 0.11866716 -0.96746165 0.39797562 0.059351124 -0.12155679 0.22117865 0.5952496 0.19076423 0.22929959 -0.68420064 -0.35290396 0.4228387 -0.28407422 0.11414039 -0.34087834 -0.0009858352 0.88168764 0.017492613 0.85717803 0.45210776 0.3677555 0.30865803 -0.3635437 -0.25559953 0.6256373 -0.1464734 -0.35501277 -0.5483866 0.11748719 -0.4074074 -0.29616487 0.28586638 0.35183963 -0.11653454 0.043575644 0.16058467 -0.6956532 0.57851845 -0.10144367 0.17424421 0.47491616 0.7459139 0.39980167 -0.02297639 0.8732658 0.34081182 -0.57238793
75 1.2759031 1.1299539 0.06236335 -0.3207226 0.3751872 0.60105926 -0.5871955 -0.50203484 1.0174499 0.16361396 -0.09414694 -0.2765197 0.39411816 -0.69894874 -0.4195824 -0.38771203 0.025853328 -0.37063453 -0.5026846 0.36943787 -0.07425385 -1.0724863 -0.32308674 -0.21856202 0.5885799 0.527821 -0.8676135 -0.15257075 -0.0047476944 0.11826057 -0.45524225 -0.3984604 0.20540416 0.092913985 -0.49570683 0.62391806 -0.47412634 -0.6367622 -0.01874063 -0.5232223 -0.31357542 -0.026876995 0.17264764 0.2007677 -0.68521845 0.07814656 -0.52166164 -0.2305606 0.24553086 0.5765037 0.60847753 0.65994817 -0.99713826 -0.52096355 0.052049365 -0.18161659 -0.37467661 0.5842096 -0.21604897 0.17620748 -0.45841324 0.25644657 -0.6259034 -0.1506599
84 0.6201826 0.3125723 -0.43138063 0.052920766 0.2363068 -0.3253924 -0.037675776 -0.30289498 0.34926632 0.15759806 0.20010883 0.22019202 0.14980991 0.22671154 -0.38373175 -0.36354762 0.5325998 -0.028935991 -0.7917153 0.34849975 -0.049771924 -0.23459437 0.13299756 0.42214328 0.16454513 0.25551566 -0.56672484 -0.15421653 0.44424725 -0.356704 0.04702925 -0.34603482 -0.0029929949 0.7028395 0.0088594975 0.74228245 0.3377069 0.3402037 0.21469255 -0.3836033 -0.2550549 0.41344 -0.07370092 -0.40924343 -0.46077326 0.075487904 -0.19098336 -0.3647537 0.26365238 0.33521014 -0.025500478 -0.024557225 0.12420598 -0.5989666 0.5174035 -0.031830236 0.15982851 0.42070958 0.5858826 0.28241712 -0.004671446 0.7981872 0.02823102 -0.51487267
106 -0.045707643 0.10827446 -0.18376516 0.252104 0.28952882 0.9531422 0.026591554 -1.0492297 0.16693181 -0.16985324 -0.5307528 -0.1073887 0.13242733 -0.055844717 0.4134161 -0.5149757 0.81320506 0.52788556 -0.17283924 0.113868654 0.51068586 0.19145995 -0.6114071 0.31130344 -0.51722 0.035663366 -0.37311077 -0.1712788 0.32370156 0.2764759 0.38891596 0.022359595 0.41394457 0.34164444 -0.74015164 0.34256706 0.22337334 -0.09477557 -0.13397516 -0.13520189 -0.46761596 0.32565665 -0.051111337 -0.38125265 -0.7591895 0.12941739 -0.54602474 -0.32254827 0.22635944 0.48637256 -0.01882197 -0.2837559 -0.46469337 -0.46127403 -0.111799926 -0.18469511 -0.30540317 -0.37523055 -0.3627982 0.15001854 0.20481412 -0.035659686 0.22974162 -0.11115598
53 0.529029 0.61050236 -0.23374218 0.066728815 -0.11824049 0.046055418 -0.009393891 -0.612291 -0.2632831 0.0849947 -0.30110154 0.19331625 0.27560893 0.24293531 0.30292317 -0.28631216 0.8498245 0.07461581 -0.06354896 -0.094441056 0.25807637 0.09850341 -0.30286312 -0.27158588 -0.5038796 0.5109713 -0.241045 -0.10986788 0.5075085 -0.32209426 0.29413915 0.16046752 0.4763832 0.26911068 -0.5065926 0.2633117 0.6241289 -0.048531324 -0.31478342 -0.056515757 -0.04703728 0.24817833 -0.012797466 -0.34125924 -0.51686674 -0.2758185 -0.50141424 0.01981025 0.17670423 0.6803396 0.11800902 -0.3562981 -0.32759097 0.23584779 0.2900631 -0.22660913 -0.12381987 -0.41843423 -0.10669921 -0.13389169 0.05565096 -0.1865842 -0.452256 -0.1956935
37 0.52770007 0.09837181 -0.43672267 -0.3517247 0.26337934 -0.17707677 -0.6879988 -0.23506059 0.4268372 0.7577369 -0.26348835 0.09215466 -0.12526271 0.51192147 -0.19010013 -0.6399852 0.6653924 -0.34569255 -0.17853948 0.45643133 0.2963301 -0.41574386 0.35035163 0.086597644 -0.10221786 0.4852293 -0.47805598 -0.23254657 -0.0339073 -0.5245067 -0.18645188 0.40484393 -0.18526195 0.08329706 -0.52666086 0.7967689 0.57199484 0.32104763 -0.40517923 0.058718007 -0.048887532 -0.037218574 -0.31469786 -0.12335271 -0.6391567 0.29635063 -0.062918864 -0.7545209 0.0035319957 0.65830725 -0.04804216 0.18031088 -0.001441545 0.24273176 0.2329581 -0.41195893 -0.17705204 0.08016006 0.22317235 -0.3668536 0.07876547 0.54848003 -0.41768333 -0.38654205
57 -0.37681955 0.4079083 -0.06947728 0.08833117 0.69650567 -0.14401765 -0.03590436 -0.8305957 -0.00035115823 0.47499952 -0.20402484 -0.50543064 -0.32977143 0.08742912 0.07302471 -0.4750691 0.8312919 0.18034533 0.012196103 -0.068224475 0.24214078 -0.46427104 -0.42366233 0.61055094 0.17041464 0.7653085 -0.73949134 -0.4748698 0.0139765795 0.40050513 0.72735816 0.14942779 -0.37712246 0.5114448 -1.0222757 1.0547274 0.5100972 -0.28591442 0.14052846 0.39665607 -0.15131931 -0.09560273 0.029244764 -0.52358735 -0.49796385 -0.018193142 -0.8704411 -0.934856 0.28475043 0.7173532 0.18182598 0.4640196 -0.57959235 -0.49611008 0.44425115 0.24646606 -0.2736521 0.008589892 -0.38697278 -0.35062003 0.20678586 0.32997498 0.7554588 0.36967742
109 0.0076190135 0.16594124 -0.3156114 0.30501732 0.22721086 0.8768253 0.09177608 -1.1296809 0.15700944 0.0028185525 -0.44186106 0.050808858 0.1399109 -0.08299611 0.45304143 -0.49063155 0.9260085 0.59535015 -0.2439535 0.00758306 0.509658 0.23418516 -0.49711472 0.3636267 -0.4636281 0.11450676 -0.27155834 -0.27375385 0.48331153 0.15634805 0.46309242 -0.09095071 0.3902234 0.30475637 -0.6925576 0.4095801 0.3683112 -0.15656488 -0.19447632 -0.10744384 -0.41967776 0.45091772 -0.025310036 -0.3490332 -0.81139797 0.12564202 -0.6016196 -0.15097553 0.22359608 0.52345765 -0.077613436 -0.35029963 -0.29043707 -0.41800624 -0.0193499 -0.044092756 -0.40707022 -0.34143132 -0.17619798 0.07812641 0.16963214 -0.0020700544 0.23853673 -0.09664497
107 0.53949404 0.2890329 -0.40891978 0.32484224 -0.2524309 -0.24281822 -0.116947725 -0.14700666 0.13938478 -0.015969329 0.055522572 0.16453995 0.11679564 -0.15023604 -0.3396737 -0.3299284 0.44813395 -0.117380835 -0.018035721 0.02963493 -0.016789401 -0.29923275 0.13106045 -0.2695035 -0.110796735 0.6384917 -0.14737974 0.16672061 0.40833038 -0.502868 0.011955971 -0.100317426 0.44581023 -0.08756113 -0.15410435 0.2770709 0.15286218 0.19100757 -0.036098544 -0.05038617 0.15306489 -0.020863215 0.12328286 -0.094539 -0.5114476 -0.09894328 -0.092831776 0.047842797 0.1031902 0.3690516 0.025510393 -0.1475497 -0.033288255 -0.23030327 0.3173244 0.10329179 -0.14288853 0.16361581 -0.121306814 -0.06668653 -0.04577317 0.21074797 -0.6139755 -0.33196828
8 0.14303385 0.4200018 -0.41187456 0.58923393 -0.52368 -0.12893547 -0.031017106 -0.6469917 0.4233659 0.54462236 0.47179997 0.303272 -0.025255475 -0.3249858 -0.21511325 0.022578321 0.43103638 0.102184854 0.26771215 -0.33636555 0.13068983 -0.3325807 0.15656966 0.2583811 0.17020358 0.54541737 -0.048036244 -0.012449794 0.078006625 -0.52185994 -0.083498865 -0.26241228 0.17726357 -0.37987256 0.035185046 0.49647233 -0.29807478 -0.50554615 -0.18409982 0.081782945 -0.064136274 0.4350678 0.18201095 0.34409702 -0.39766252 -0.049003385 -0.31923696 0.33473945 0.12755485 0.7786545 0.077712856 0.20026237 -0.07517907 -0.51520276 0.1137889 0.2126171 -0.3746088 0.6451428 0.38765824 -0.2352596 0.12902653 0.4221294 -0.03598952 0.28737324
20 0.060825642 0.11622062 -0.3615374 0.53783804 -0.3631062 -0.24361198 0.31010494 -0.39233616 0.36369893 0.43864608 0.20077345 0.25846183 -0.24245654 -0.089373775 -0.3255068 0.1212376 0.24666265 -0.0027199702 0.19963951 -0.107283644 0.09734 -0.21783532 0.1571076 0.3412941 0.11537527 0.093527265 -0.023176473 0.026636658 -0.21152577 -0.5091658 -0.11352198 -0.13373102 0.05560728 0.03005459 0.21123318 0.30120033 -0.5396774 0.14025106 0.01990419 -0.23452692 -0.043395463 0.52888113 -0.008646052 0.12590282 -0.38059306 0.03107048 -0.008568283 -0.283074 -0.080282666 0.517912 -0.31504598 0.27414492 -0.27069926 -0.62161535 0.08459368 -0.32689103 0.24912134 0.8023522 0.3180235 0.01548487 0.14373836 0.670811 -0.01122412 0.037547145
17 -0.29421055 0.23320848 -0.38115573 0.37244943 -0.33162254 -0.18619001 0.1273523 -0.4978738 0.41579422 0.4684064 -0.18378904 -0.01022422 -0.6799139 -0.031903032 0.11682677 0.0048756693 0.35158342 -0.073116966 0.17344685 -0.37921986 0.2793317 -0.2403655 0.022573186 0.4478413 0.32381168 0.50312024 -0.111513205 -0.2979471 -0.62955904 -0.36349005 0.37634975 0.019662015 -0.24606305 -0.09990664 -0.1914829 0.1893732 -0.2643944 0.09547794 -0.22359233 0.15923266 0.19785649 0.16532767 -0.18858637 0.30643234 -0.6307331 0.22001335 -0.41566148 -0.41413617 -0.25526285 0.5817092 -0.5381899 0.18370476 -0.3091027 -0.09612259 0.16627619 -0.44752565 -0.12604848 0.86807466 -0.013983478 -0.22276166 0.18356268 0.6531719 -0.10133136 0.5046488
58 -0.31588435 0.5774956 -0.13450935 -0.00673726 0.7096143 -0.12896022 -0.12979656 -0.84929156 -0.057247177 0.48979613 -0.2639668 -0.474888 -0.3424587 0.21936047 0.15754522 -0.5085564 0.82348394 0.12372495 -0.05113408 -0.037873786 0.37309623 -0.4567082 -0.2931796 0.6656482 0.16352724 0.8647083 -0.83269787 -0.56974655 -0.1320071 0.38714677 0.7460315 0.1736595 -0.34757277 0.5695217 -0.96531075 1.0343754 0.5323944 -0.39626724 0.18650004 0.3867052 -0.0620362 -0.15902635 -0.08102218 -0.49204317 -0.54867804 -0.012877941 -0.98908 -0.85107696 0.4070324 0.6196084 0.14643551 0.40030771 -0.5516719 -0.5107691 0.53656095 0.24814694 -0.24851733 0.12343013 -0.39691183 -0.28563592 0.23707037 0.37194958 0.73083645 0.40713823
36 0.50169504 0.21929954 -0.22835346 0.24251346 0.040604807 -0.47013932 -0.05112146 0.100418985 0.36219683 0.023623947 -0.07019687 0.25015348 0.14169343 -0.15242915 -0.6030076 -0.4056514 0.40477696 -0.43489408 0.17059085 0.13144498 -0.056273203 -0.4587551 0.029250234 -0.24474953 0.18939859 0.52827764 -0.32093474 0.2141608 0.24018914 -0.26398286 -0.17557272 -0.15931478 0.1663304 -0.021439157 -0.20434982 0.5572937 -0.30506593 0.26771516 0.32617554 -0.3033807 0.06140316 -0.16872476 0.26013368 -0.4765439 -0.6468509 0.13128 -0.11997385 -0.14049047 0.327569 0.36896488 0.13151082 0.289041 -0.2065264 -0.39834046 0.2847263 -0.06180657 0.27245766 0.5492331 -0.27453497 0.11726439 0.13801508 0.42639416 -0.47108102 -0.57990885
108 0.1069953 0.11450755 -0.24788855 0.38282815 0.21695702 1.0360043 0.047319885 -1.1822473 0.18671882 -0.19131167 -0.69670784 -0.08690597 0.14871112 -0.070176065 0.45803225 -0.5293163 0.9625549 0.6925215 -0.16171849 0.03835998 0.35104278 0.2726596 -0.51422215 0.30159032 -0.68795323 0.35177764 -0.40417904 -0.13004139 0.5549171 -0.046965342 0.55543816 0.12776089 0.6176372 0.38739428 -0.7113444 0.26190397 0.36273825 0.028257519 -0.105735555 0.03094713 -0.38962483 0.31149 0.023294251 -0.40642345 -0.8416346 0.04264711 -0.6118999 -0.13194522 0.2123392 0.49687204 0.027779862 -0.44081226 -0.41237321 -0.5299975 0.085921586 -0.18517739 -0.42701748 -0.5430457 -0.4017399 0.07789686 0.37892047 -0.19705988 -0.052174363 -0.09201878
34 0.10437245 0.6697626 -0.43215346 -0.13146514 0.4772769 0.2692848 -0.31519398 -0.662064 0.06469068 -0.01897273 -0.21184006 -0.28625613 0.40350828 -0.25042582 0.33420503 -0.3804809 0.43531287 0.20756592 -0.23998228 0.060353175 0.30850744 -0.11222204 0.12110289 -0.11658278 0.11931113 0.66479516 -0.5325272 -0.41925508 -0.3423062 0.15595786 0.218899 0.19675872 -0.183186 0.16987981 -0.31017452 0.3350712 0.34365708 -0.3635989 0.002531727 0.19771269 -0.001028191 0.05921103 -0.30056477 0.08871783 -0.33969736 0.15848072 -0.74108773 0.14184411 0.27655885 0.38272315 -0.081235036 0.26593882 -0.35306263 0.115363955 0.16447465 -0.15001972 -0.48479554 0.30768734 -0.010556548 -0.0059684897 -0.1500491 0.13154702 0.42029688 0.12141039
10 0.34567982 0.75672233 -0.4202612 0.671251 -0.4942142 -0.2313217 -0.18526816 -0.58788484 0.54968613 0.537749 0.61426175 0.34380138 0.0073072417 -0.4219237 -0.23958437 0.019907527 0.6002155 0.057707917 0.07789515 -0.34985512 0.121930525 -0.6185735 0.1690939 0.27036318 0.32773024 0.7589489 -0.2261255 0.01098552 0.32172722 -0.540664 0.033873536 -0.5476598 0.23865293 -0.6287015 0.11405598 0.50516164 -0.21284963 -0.79538816 -0.21022172 -0.075409174 -0.060224965 0.5257786 0.37114233 0.4071865 -0.557083 -0.089240104 -0.6339286 0.55303925 0.3511219 0.8659266 0.14473465 0.22310837 -0.061038338 -0.37748095 0.2165497 0.5628469 -0.6448528 0.64352685 0.47698793 -0.23371264 0.014570364 0.49919438 -0.14173461 0.4019626
86 0.2805779 0.28226426 -0.42726865 0.21471182 -0.143253 0.0013298165 0.15706885 -0.44583032 -0.2090425 -0.08054175 0.051748905 -0.08666274 -0.107352816 -0.14998701 -0.16270706 -0.13139743 0.43481657 -0.20822787 -0.40380263 0.010007227 0.081327 0.016952004 0.1582323 -0.16159165 -0.015672874 0.6251251 -0.046192117 -0.23243617 -0.023461094 -0.6330924 0.12884884 0.13144961 0.13544153 0.6377918 -0.58447653 0.16169976 0.3891572 0.36266145 -0.066973805 0.30152228 0.05137358 -0.09709572 -0.30200225 -0.27707505 -0.50314623 0.16419739 0.18516016 -0.26114765 -0.028604358 0.21180387 -0.23044567 -0.07868034 -0.030884007 -0.42104867 0.24326316 -0.35743472 -0.46957985 0.44373053 -0.0003532188 -0.15144782 -0.11957201 0.3996436 -0.37242526 -0.14207691
41 0.15883295 0.21425788 -0.37823606 0.44701025 -0.17228974 0.4357705 -0.1049633 -0.60221726 0.021268453 -0.24639525 0.0062241117 0.076911494 -0.19676629 -0.07029374 0.0024364952 -0.54855835 0.84215105 0.53439885 -0.31743392 0.10717921 0.12146932 -0.12148644 -0.45188448 0.21607107 -0.2051228 0.79230887 -0.076235086 0.064743206 0.6164002 0.06456991 0.46909353 -0.123874776 0.7115352 0.24689582 -0.6173975 0.17530419 0.32624766 0.05204056 -0.02632543 0.10977014 -0.20050128 0.058572814 0.24895427 -0.37073937 -0.66553897 -0.013442944 -0.35523763 -0.073761836 0.39357546 0.20967655 -0.05188703 -0.54385287 -0.07331999 -0.3986731 0.14328077 0.289025 -0.7044617 -0.1997503 -0.35787302 -0.042070027 0.13627654 0.046948854 -0.49578062 0.113790266
93 0.43615282 0.058443226 -0.16865046 0.02587638 -0.12608697 -0.18346466 0.22478561 -0.20273075 -0.013331839 0.1304433 -0.10198188 0.17703752 0.04995777 0.2640786 -0.5240587 -0.1665512 0.424154 -0.11386889 -0.08102894 0.38333496 0.08849467 -0.11289478 -0.024378343 -0.0068136742 -0.27655146 0.00926499 -0.18524504 -0.08246773 -0.10944942 -0.39123672 -0.2165632 0.11670309 0.3392992 0.53435814 -0.38485682 0.4177185 -0.07322516 0.6972843 -0.06775575 -0.1642424 -0.12515011 0.24862151 -0.24739397 -0.45324412 -0.4838409 0.04773622 0.29836926 -0.6873443 -0.029845268 0.4121325 -0.044627156 0.009002132 -0.50725514 -0.39040256 0.05136883 -0.72874016 0.30604193 0.20729683 -0.0051492443 0.026213828 0.06961584 0.6422018 -0.28050733 -0.47514942
38 0.5019511 0.30517408 -0.39723727 -0.41839254 0.4871738 -0.10597155 -0.8904557 -0.37212703 0.42508793 0.78278786 -0.29815054 -0.06856224 0.026071006 0.48100328 -0.20166703 -0.81852525 0.8249378 -0.3596044 -0.23381364 0.5040496 0.27908126 -0.5273167 0.35891095 0.10319088 0.009161075 0.57137275 -0.58616054 -0.27278298 -0.055262897 -0.35685602 -0.18893722 0.37948453 -0.2903849 0.10769607 -0.6100556 0.8441324 0.510603 0.1797584 -0.39736468 0.11867021 0.0745002 -0.24831504 -0.36249992 0.026793398 -0.65403414 0.26515067 -0.15983003 -0.7488434 0.1062643 0.5379945 -0.011341437 0.090881675 -0.2362952 0.3897474 0.2123131 -0.39399248 -0.27758688 0.11924941 0.13521713 -0.42970237 0.15313771 0.48596618 -0.5112525 -0.19592875
88 0.6385823 0.33186805 -0.3079122 0.24645066 0.11270992 -0.22138828 0.1226001 -0.30144253 -0.098648556 0.007619291 -0.026965488 -0.21944079 -0.037713494 -0.16745842 -0.52133834 -0.24819922 0.3855382 -0.34051767 -0.44401723 0.16675924 -0.10584519 -0.20415302 0.1119337 -0.22841704 0.00038046666 0.64321154 -0.17683682 -0.13680802 0.16060027 -0.75588703 0.045008257 0.03818549 0.16491562 0.8369996 -0.63028574 0.26876515 0.27999765 0.5470756 0.18087503 0.081288755 -0.09533334 -0.27436563 -0.19497502 -0.55615824 -0.6021785 -0.012016843 0.42230693 -0.76690143 -0.04281921 0.21622507 -0.11108057 -0.049099524 -0.13780068 -0.6531003 0.36992767 -0.33873963 -0.15695843 0.5243593 -0.14052823 -0.095582865 -0.10007783 0.46422482 -0.6219841 -0.44091618
32 0.19222097 0.49649468 -0.21018547 0.07572052 -0.024697885 -0.016460354 -0.03995663 -0.34089231 0.07923913 0.09057741 0.0652745 0.00085086 0.16176254 -0.26004356 0.035099115 -0.07556975 0.20404737 -0.07411746 -0.014999717 -0.11953064 0.035710458 -0.24786757 0.11107678 -0.15365627 0.07379633 0.48568413 -0.18475962 -0.14041765 -0.061712846 -0.12668547 0.08457991 -0.04630272 0.05552954 -0.101412304 -0.1693339 0.17477344 0.19892956 -0.30758765 -0.04950781 0.08819379 0.029718481 0.032176152 0.043014333 0.11167177 -0.21690345 0.067525394 -0.38495573 0.2283199 0.088637896 0.34386346 0.09088143 0.1900414 -0.1637816 -0.08681926 0.11782374 0.11026764 -0.40750143 0.24476324 0.04279173 -0.1067866 -0.14100254 0.1527571 -0.014981634 0.109495565
95 0.23038264 0.21583644 -0.59728384 0.09591964 0.13899738 0.16411872 0.13577656 -0.63015854 -0.24405973 -0.10638493 -0.17672764 -0.15318026 0.089767225 -0.004402258 0.10947111 -0.355565 0.69268864 0.009666617 -0.609905 0.18650915 0.33389455 0.21847238 0.2066927 -0.03669921 -0.054811575 0.57104284 -0.1788951 -0.555387 -0.06327255 -0.4610033 0.26416674 0.19992992 0.06858011 0.80425876 -0.65101403 0.37246102 0.63710976 0.45002538 -0.023490626 0.3712637 0.090742074 0.019298365 -0.52217084 -0.23474015 -0.6345507 0.26417574 -0.02156707 -0.27576593 -0.026361631 0.19748753 -0.4075894 -0.04567457 -0.041154977 -0.32888067 0.26862785 -0.47848648 -0.36852843 0.31136012 0.0066298665 -0.12604561 -0.13532738 0.3608422 -0.08518879 -0.20345818
30 0.6747596 0.28566447 -0.5720279 0.19660662 -0.46334743 -0.37602076 0.15454099 -0.26680914 -0.018060917 0.24091935 0.2418487 0.55512005 -0.045191806 0.14038329 -0.3085306 -0.19769934 0.5966455 -0.09936596 -0.29906914 0.14356272 0.09518984 -0.18433596 0.19002238 0.014015776 -0.1012207 0.5967194 -0.016292246 -0.11096759 0.2581298 -0.5722837 0.09640419 -0.14638329 0.41557983 0.15341333 -0.16694611 0.44776523 0.3241013 0.46357498 -0.38368043 -0.0546429 0.13451353 0.33318383 -0.18837716 -0.24082282 -0.54802865 -0.031304393 0.026039317 0.04879595 0.084877744 0.4970411 -0.14256527 -0.13384116 0.0009871605 -0.14819273 0.243012 -0.13933313 -0.29512033 0.22645305 0.22172694 -0.09611488 -0.18233262 0.66138464 -0.49085534 -0.359921
42 0.18046066 0.1838026 -0.4115007 0.28838232 0.024732538 0.35782632 -0.20349221 -0.61135453 -0.09340447 -0.24832988 -0.20180203 -0.026706545 -0.38747442 0.10935392 0.23235433 -0.6620786 0.97749746 0.3843338 -0.36738673 0.1759545 0.20142043 -0.14558761 -0.33774012 0.2970437 -0.18439116 1.0346448 -0.27486077 -0.07451826 0.2902645 0.0052258037 0.63503385 0.053468894 0.5391481 0.4439062 -0.744201 0.18945837 0.49634466 0.28719956 -0.23026502 0.43921828 -0.00555068 -0.2821957 0.0070870426 -0.43943155 -0.78279096 0.11038388 -0.2879344 -0.28058207 0.25479034 0.15798339 -0.21255538 -0.3997125 -0.2529005 -0.21806887 0.2606395 0.12791088 -0.93098503 -0.14758031 -0.43107903 -0.055097017 0.132271 0.2528902 -0.5831456 0.15786164
24 0.26108283 0.33943158 -0.27880123 0.30450442 -0.17969327 0.15764211 -0.0023715033 -0.4350013 0.02193729 0.055927143 0.08915374 0.08153403 0.0726546 -0.25609455 0.1317093 -0.10253832 0.432534 0.0006273433 0.089632496 -0.18036395 0.106040016 -0.031076327 0.19644134 -0.099654905 -0.10652886 0.5667176 -0.11353873 -0.0476171 0.17078327 -0.40488547 0.08759777 -0.04314843 0.21232837 -0.11530567 -0.18532887 0.031402286 0.11295947 -0.05263925 -0.19011906 0.15477982 0.06761679 0.0770484 -0.01539451 0.019065067 -0.40696555 0.034127843 -0.178812 0.38908207 0.05516345 0.34228668 -0.11274076 -0.06189361 -0.053231604 -0.097595885 0.18115893 -0.009587694 -0.4612931 0.14437401 0.029826839 -0.09351731 -0.028293326 0.06304617 -0.280501 0.028744943
29 -0.07818893 0.5813368 -0.34504488 0.0020468447 0.08953266 0.25153327 -0.29539388 -0.5715927 0.03927024 0.03834204 0.12484932 -0.09159894 -0.10627731 -0.00018880067 0.26481202 -0.34651133 0.6875317 0.20861152 -0.39733824 -0.11574374 0.20838073 -0.13237184 -0.20009153 0.36669582 0.1541719 0.6422663 -0.34026834 -0.3120106 0.26074952 0.13543384 0.37756407 0.00840596 -0.051802274 0.26792526 -0.6422326 0.4840375 0.46322832 -0.47574684 0.05193461 0.065361574 -0.24920139 0.15657705 0.021178119 -0.0064678057 -0.379659 0.11424096 -0.76120126 0.12891725 0.42283073 0.40965787 -0.02505873 -0.16278607 0.12545195 -0.011640081 0.27501637 0.1764929 -0.46632978 0.073033035 0.01109322 -0.21802145 0.08846249 0.13209029 0.1605027 0.37290013
54 0.41730723 0.61384755 -0.12840609 0.009184384 0.12142433 0.31736714 -0.1399227 -0.6310354 -0.16679712 0.05999645 -0.26363227 -0.12174006 0.1449879 0.18176053 0.478691 -0.357035 0.98839396 0.00631454 -0.18163574 -0.10302707 0.30365473 0.13680157 -0.23730811 0.021964725 -0.36601853 0.5794129 -0.54636925 -0.28496784 0.47191197 -0.2973712 0.40796953 0.20676006 0.123855196 0.4680467 -0.866652 0.4040541 0.68318796 -0.116414465 -0.24468258 0.04623339 -0.17965573 0.07881982 -0.21395227 -0.393721 -0.6822117 0.03139802 -0.44488198 0.053405777 0.14914958 0.5771085 0.03097632 -0.23851256 -0.1496353 0.17547186 0.35481146 -0.24942873 -0.22169988 -0.36067504 -0.18374413 -0.19924295 0.13018765 -0.11017014 -0.26998645 -0.09471449
50 -0.043869685 0.5283334 -0.24432029 0.30474722 -0.23457208 0.29099363 -0.17469004 -0.56997275 0.2648426 0.109668985 0.24890645 0.09211213 -0.08182091 -0.11007318 -0.03744466 -0.270703 0.6465871 0.44675595 -0.25787386 -0.10280037 0.086469665 -0.17933801 -0.4750152 0.31889677 0.055374112 0.4620372 -0.15021266 -0.06996638 0.5087765 0.1737863 0.26545277 -0.2044278 0.2858456 0.05733266 -0.47669506 0.36683178 0.10456362 -0.54181045 0.09345475 -0.23960783 -0.45059708 0.4097698 0.29303405 -0.11295756 -0.36167362 -0.0042068497 -0.69210744 0.118935116 0.5470571 0.5108493 0.15986358 -0.31004116 0.039314196 -0.29644677 0.08264649 0.3065643 -0.35375768 0.023046732 -0.040568642 -0.18871547 0.16849482 0.03964231 -0.0095668 0.33382055
5 0.1640138 0.25949615 -0.31650853 0.42632952 -0.37221044 0.13436528 0.0512861 -0.4033093 0.07149476 -0.108784854 0.13864294 0.16445933 -0.0827714 -0.33555126 0.01000872 -0.075774215 0.4134658 0.08979996 0.049565688 -0.19137792 0.09448702 -0.122976914 -0.0504297 -0.08272941 -0.0618377 0.63022 0.029601922 0.063842185 0.17199323 -0.29868042 0.14590606 -0.102844685 0.36144066 -0.13551915 -0.21612328 0.009570927 0.018334849 -0.10696284 -0.1899796 0.12329511 0.14527795 0.033748973 0.06753723 0.037234254 -0.4340214 0.03993075 -0.14764147 0.353057 0.050835546 0.3049249 -0.10063433 -0.11487853 -0.07950154 -0.22098482 0.1088115 0.09035678 -0.5170185 0.18137532 -0.15413831 -0.09531749 0.005048428 0.11483282 -0.41659772 0.12063678
56 0.48204327 0.33011222 -0.41389018 0.2917342 -0.44168976 -0.41203138 0.081735745 -0.1495225 -0.0159707 0.11623274 0.23434426 0.3008869 -0.11274371 0.05630584 -0.43084165 -0.14745744 0.52551687 -0.11871222 -0.31638482 0.11827631 -0.119508594 -0.27222532 0.0429006 -0.0554461 -0.037311774 0.53175783 -0.013625305 0.016903333 0.18846595 -0.53569347 0.063513085 -0.1406931 0.40190682 0.34306595 -0.22048096 0.26209995 0.29264846 0.39270514 -0.10660241 0.04869629 0.01876131 0.08106676 0.024095846 -0.32319176 -0.46703622 0.04643743 0.047247652 -0.15289344 0.09555012 0.301305 -0.030762043 -0.14992377 -0.051747553 -0.3379145 0.3118714 -0.08979462 -0.27450207 0.37569046 0.1539545 -0.09849974 0.0048764893 0.594944 -0.53392714 -0.22301148
33 0.17686073 0.6046598 -0.37317258 -0.10741533 0.16195047 0.10738329 -0.12619257 -0.49605283 -0.051363923 0.047129977 0.09320006 -0.117516614 0.18747343 -0.2171903 0.23847115 -0.14235888 0.2737049 -0.015185729 -0.23207754 -0.11236255 0.15745826 -0.06831933 0.21710713 -0.10621489 0.12620561 0.5326123 -0.2762815 -0.29931965 -0.23087306 -0.19814743 0.11091018 0.16582832 -0.23637822 0.3688512 -0.38015163 0.2687582 0.2689218 -0.24883233 -0.044866353 0.23855463 -0.021116585 0.05594746 -0.2699503 0.077762045 -0.30173117 0.18006335 -0.2751556 0.22451313 0.109100476 0.27804133 -0.09691111 0.14599887 -0.12892975 0.019036705 0.1823717 -0.21713915 -0.5258443 0.3902316 0.16103277 -0.11190745 -0.19470645 0.30559632 0.13470644 0.13543542
11 0.10946074 0.10976866 -0.2442663 0.51926684 -0.2927955 -0.19212353 0.30503303 -0.35816374 0.4323096 0.52022886 0.120930746 0.27234158 -0.30776393 -0.12154554 -0.29136512 0.11464411 0.21566573 0.00010629198 0.17062804 -0.10118867 0.19676006 -0.20751454 0.119949445 0.3551203 0.1519146 0.04939254 -0.020625317 -0.009235176 -0.12964436 -0.45138767 -0.043027565 -0.27906626 0.069457255 -0.13915753 0.1322453 0.20566735 -0.49544686 0.1577601 -0.10029772 -0.20880485 -0.046315897 0.5592921 0.053888813 0.11659328 -0.44598368 0.03743491 -0.021295018 -0.26973668 -0.121999994 0.53130525 -0.2842666 0.18225187 -0.22953945 -0.564657 0.06207469 -0.2504369 0.09916202 0.6307222 0.28530437 -0.002799085 0.14516422 0.6098548 -0.015343495 0.0436751
7 0.0434704 0.14881939 -0.32432663 0.45694056 -0.25664523 -0.14691067 0.26443455 -0.36943793 0.36490986 0.34520373 0.063088074 0.16629416 -0.23023367 -0.12127239 -0.20237476 0.09063959 0.11916571 -0.05386492 0.15700608 -0.085099615 0.24052541 -0.15297678 0.18357748 0.28172505 0.20613192 0.13779545 -0.08583053 -0.07774503 -0.3335045 -0.4041516 -0.032036092 -0.12944624 -0.010294711 -0.030293815 0.14204651 0.17672448 -0.45616296 0.18488528 -0.025993874 -0.1389185 0.03233386 0.47852507 -0.11374009 0.18447296 -0.36771804 0.06146786 -0.048515048 -0.2344157 -0.120812 0.5239207 -0.3437483 0.26621643 -0.26916593 -0.53254807 0.08298596 -0.39576432 0.14091468 0.7363139 0.23882508 0.042221025 0.06184529 0.57501644 0.09301774 0.057565816
49 0.1634421 0.81615496 -0.28925237 0.29469976 -0.21074444 0.18984403 -0.3406225 -0.43786207 0.21842086 -0.05224441 0.24086113 -0.046859294 0.0506801 -0.25104555 -0.15445878 -0.357908 0.5889325 0.24399489 -0.1483494 -0.14829904 0.0506017 -0.45327905 -0.40748018 -0.013129076 0.14484335 0.8629218 -0.23176354 0.06075676 0.51191497 0.119508095 0.21943226 -0.119072765 0.38434815 -0.08012497 -0.56670666 0.3567286 0.10614427 -0.6170318 0.19386174 -0.17556648 -0.27850983 0.198732 0.37127924 -0.03677479 -0.39021552 -0.13301264 -0.7819361 0.20027442 0.5831547 0.55104893 0.22694299 -0.26507267 -0.07288208 -0.22700545 0.21846022 0.3823751 -0.367894 0.043533713 -0.3080218 -0.25022385 0.06574872 -0.07785195 -0.3069663 0.3314421
44 -0.057316143 0.34178337 -0.33306894 0.360584 -0.25286835 0.032698404 -0.071817994 -0.46171218 0.29623434 0.1401467 0.13327149 0.18657447 -0.046488613 -0.1813399 0.046708092 -0.062048543 0.37126637 0.18891487 0.028301012 -0.20149106 0.16698435 -0.16204423 -0.012309783 0.23878443 0.105583124 0.4090636 -0.102128506 -0.058325835 0.061561752 -0.13454594 0.19827783 -0.104191564 0.15791644 -0.25439942 -0.022845123 0.2305212 -0.024761528 -0.35394216 -0.04476381 -0.031136112 -0.0010082133 0.3463976 0.14312531 0.26991457 -0.28240648 0.022391897 -0.5174607 0.23233205 0.1834358 0.5021324 -0.062093344 -0.05428814 -0.018371947 -0.21235451 0.105634086 0.161187 -0.24152814 0.30385837 0.1503646 -0.13123527 0.12519383 0.19351713 0.1292338 0.29322752
35 0.043521088 0.6638655 -0.2639634 -0.34662145 0.4664712 0.21307585 -0.37924868 -0.56580776 -0.0004445 0.12561072 -0.035429563 -0.3020133 0.1699878 -0.082560726 0.41033894 -0.34018835 0.42716622 0.080707364 -0.27789304 -0.05389492 0.29452565 -0.14546187 0.07408684 0.16783358 0.20030513 0.5031333 -0.579834 -0.42126253 -0.3083604 0.10987257 0.2161536 0.23789647 -0.44073668 0.4967807 -0.57748383 0.52316684 0.3034695 -0.41657215 0.05811284 0.27260718 -0.13859794 -0.016193619 -0.22100925 0.0348498 -0.35094923 0.26285627 -0.6035938 0.02270484 0.27542606 0.34526008 -0.0013548271 0.18973194 -0.24402365 0.06335335 0.24025841 -0.17774756 -0.4475278 0.2573023 0.02995557 -0.13667743 -0.1211962 0.31216624 0.4163072 0.30121297
26 0.39454678 0.497217 -0.22970752 0.15664989 -0.2686983 0.087552994 -0.07510067 -0.30378446 0.19663845 0.109753266 0.17797333 0.071957655 0.12063651 -0.30558753 0.0022193699 -0.061161563 0.21963102 -0.10992934 0.040629447 -0.15665306 0.046332315 -0.27664557 0.09899981 -0.18518108 0.1175466 0.5410498 -0.08517006 -0.058137666 0.074614465 -0.2755231 -0.05330031 -0.14654002 0.13007031 -0.210082 -0.15882707 0.14254595 0.0014670554 -0.28858408 -0.18230979 0.013672278 0.06263639 0.085242495 0.022782477 0.16722296 -0.350791 0.028702546 -0.19523078 0.40480873 0.06116975 0.34512463 0.06268631 0.13545841 -0.10531797 -0.053474713 0.11052596 0.067294285 -0.41198587 0.26922706 0.018229235 -0.09842568 -0.18998574 0.13529599 -0.37461394 0.045879476
51 0.19496375 0.2898597 -0.22179972 0.26540813 -0.14505255 0.06910948 -0.013903654 -0.34654897 0.18697748 0.03406514 -0.01512549 0.03468422 0.01849087 -0.16325794 -0.09620089 -0.16483884 0.3299051 0.029606117 0.05646306 -0.03390885 0.115955494 -0.22710589 -0.0769328 -0.022100175 -0.03027592 0.40725413 -0.14938046 0.011342334 0.030159796 -0.20880078 0.05523045 -0.047501817 0.24184684 -0.033028062 -0.20366625 0.18904628 -0.086692914 -0.05011265 -0.05095823 -0.014849228 -0.018430805 0.09670704 0.056260075 -0.031795766 -0.37908152 0.011575717 -0.20408604 -0.045645412 0.08295266 0.38193616 -0.012861244 0.025103573 -0.2491171 -0.27938145 0.09406494 -0.0667046 -0.16608737 0.21432108 -0.13627455 -0.04883954 -0.0021010495 0.18823804 -0.20438385 0.0054890024
68 0.16824023 0.024016008 0.16787232 0.034318898 0.35239556 0.14544007 0.04090837 -0.37670836 0.1623794 0.11716365 -0.46519706 -0.27399874 0.097156525 0.09474976 -0.281251 -0.3807245 0.27057603 0.15717974 -0.16533408 0.40355197 0.16115993 -0.117028154 -0.59986085 0.25798827 -0.15759607 -0.057424992 -0.4994516 0.002575475 -0.052818567 -0.10766074 0.06452981 -0.018862298 0.15621318 0.45209876 -0.5222971 0.41784006 -0.44194356 -0.07672596 0.015791142 -0.20321602 -0.4134815 0.08438907 0.04418848 -0.67121214 -0.435462 0.16704549 -0.014337309 -0.86349 0.14155206 0.3174259 0.27162823 0.16841775 -0.5975715 -0.56308573 -0.15723217 -0.40148497 0.26561487 0.05168485 -0.34829357 0.16249627 0.26119366 0.35473776 0.07637762 -0.16827294
63 -0.14405385 0.30797037 0.075898744 0.51850075 -0.087153494 0.39327088 0.15109155 -0.8128253 0.54056275 0.3317783 -0.24608178 -0.11983671 -0.15769649 -0.27702218 -0.17924115 -0.054425977 0.26785785 0.21005803 0.5268053 -0.008922912 0.43178144 -0.3206506 -0.4621854 0.310433 -0.015486387 0.17181164 -0.29985234 0.036648273 -0.5073689 0.012605267 -0.07298465 0.15659612 0.14280917 -0.0048744115 -0.41376537 0.2466522 -0.8621885 -0.24386913 0.06339981 -0.21901529 -0.21946375 0.38093838 0.049271416 -0.020575808 -0.48995674 0.057845008 -0.23483247 -0.6756565 0.011282371 0.8464314 -0.057077494 0.3635745 -0.98142433 -0.81863284 -0.20847268 -0.6264283 0.11943061 0.52773666 -0.35713014 -0.028421462 0.29640323 0.3715502 0.08959316 0.2969456
39 0.23953672 0.31139928 -0.2341331 0.062110037 -0.069893055 0.07183779 -0.34153375 -0.39310136 0.2816566 0.47754622 -0.020123675 0.030977001 0.0492023 -0.0988011 0.018963033 -0.20250145 0.35727927 -0.18373613 0.24528515 -0.15692851 0.22504191 -0.25024006 0.2648257 -0.07324736 -0.025926348 0.46748364 -0.1541913 -0.0677064 0.08277004 -0.41267386 -0.11125465 0.088060334 -0.065787174 -0.39351732 -0.26632804 0.3360178 0.07156729 -0.3226381 -0.32184342 0.080624625 0.14198868 0.07574994 -0.07490874 0.31469753 -0.40238416 0.052919894 -0.20904544 0.1792164 -0.008020944 0.5029731 -0.007602669 0.11569608 -0.056321 0.17189427 0.06099446 -0.03378572 -0.28273967 0.098282374 0.077038325 -0.33908248 0.06235056 0.015822474 -0.3498108 0.09751285
48 0.1337272 0.78132564 -0.24426621 0.29953888 -0.22452179 0.16420686 -0.311605 -0.4198063 0.21944094 0.0016338881 0.26986417 -0.040641937 -0.015610531 -0.19450386 -0.2009143 -0.3229631 0.5795468 0.26280347 -0.121222995 -0.14765802 0.040395036 -0.45313334 -0.4496838 0.0349697 0.1455661 0.8083914 -0.20139672 0.095016874 0.49342683 0.12645614 0.18778811 -0.12246646 0.38569131 -0.07433159 -0.5664085 0.33864185 0.024152497 -0.59486896 0.20985897 -0.20921348 -0.30278453 0.23673655 0.38327974 -0.051255267 -0.3673966 -0.15498333 -0.7572346 0.112211 0.5791741 0.5637225 0.23423502 -0.2707237 -0.08329063 -0.24613616 0.20097455 0.3478598 -0.29833755 0.042053953 -0.28797254 -0.26699194 0.110780925 -0.06364418 -0.31786874 0.37030658
45 -0.08607369 0.46825948 -0.21171783 0.36079776 -0.3321602 0.271115 -0.17511532 -0.5370283 0.27960196 0.041453473 0.24881403 0.07246097 -0.064289756 -0.21650955 -0.044951975 -0.17037447 0.5199255 0.31413823 -0.057857733 -0.20416857 0.12564312 -0.18206775 -0.36288187 0.22013016 0.015616065 0.4705957 -0.09602633 -0.0127178915 0.3799047 0.021742975 0.19954844 -0.10172769 0.30084753 -0.13082355 -0.40149468 0.2718894 -0.022651237 -0.53219134 0.044153992 -0.12828954 -0.30616125 0.27023885 0.27347234 0.03734584 -0.33326134 -0.009786144 -0.5840789 0.19361083 0.43309078 0.5031144 0.13037977 -0.28047842 0.035588726 -0.28783578 0.05820895 0.27837652 -0.36445132 0.06595691 -0.08939978 -0.21665138 0.17450055 0.028945854 -0.043983255 0.33848307
67 0.1942638 -0.084484205 0.06277673 0.23740514 -0.013674881 0.012600028 0.24908535 -0.32418922 0.06962534 0.020014849 -0.45318913 -0.1997845 0.060532305 0.02236798 -0.5259552 -0.26369563 0.10844797 -0.06637428 0.20717716 0.34967202 0.2970098 -0.06084118 -0.25918084 0.04934772 -0.28998405 -0.023687173 -0.26591757 0.14768134 -0.30538446 -0.3626744 -0.24515383 0.2145336 0.304588 0.4013899 -0.32467213 0.24125054 -0.64786595 0.3955319 0.030790936 -0.21077651 -0.03944655 0.18766056 -0.19684313 -0.4138035 -0.49212158 0.12387138 0.336766 -0.8154105 -0.069532774 0.3501784 -0.040550143 0.2878504 -0.7874351 -0.7412786 -0.1831783 -0.8931553 0.49067858 0.21875638 -0.4149441 0.15753941 0.19108619 0.36500025 -0.27289268 -0.38439855
47 0.052066427 0.2955944 -0.23014309 0.07004199 0.12033208 0.42141628 -0.19996515 -0.56008744 0.13242272 -0.116015054 -0.29593003 -0.023789348 0.16416001 0.050283313 0.1677172 -0.36010295 0.5564422 0.42583 -0.31107152 0.064401 0.11310008 0.01938974 -0.26912868 0.20095342 -0.23229839 0.36472902 -0.2710815 -0.14938088 0.3355705 0.08433237 0.3832741 0.09209099 0.30166325 0.22952984 -0.37731925 0.2638369 0.37980872 -0.15210772 0.057937857 -0.020713042 -0.2297255 0.19674699 0.060869478 -0.15099658 -0.35407335 0.00053422945 -0.61138797 0.008955559 0.3275319 0.30973774 0.116975926 -0.33369645 -0.09780645 -0.1909579 0.14163236 0.05505831 -0.21894908 -0.256686 -0.15399173 -0.047298662 0.20233123 -0.064019985 0.062262382 0.050649136
52 1.1091883 1.0823396 0.05770054 -0.30037895 0.25616223 0.57120293 -0.5204246 -0.57714045 0.93084836 0.054579936 -0.25568786 -0.19333327 0.57062906 -0.564105 -0.3205201 -0.27025458 -0.006307457 -0.24825211 -0.34701496 0.20693941 -0.08137945 -1.1257696 -0.22341788 -0.37155455 0.4432375 0.45982355 -0.64124036 -0.07413254 -0.083945855 0.065824956 -0.44468457 -0.4500982 0.1709871 -0.05539139 -0.39425722 0.468501 -0.26385367 -0.5767432 -0.037408024 -0.50810456 -0.4917478 0.085729964 0.14602186 0.059150994 -0.6271408 0.21796457 -0.5280835 -0.010194569 0.18161777 0.5629897 0.5270009 0.66419935 -0.8610381 -0.5020663 0.11021789 -0.06987077 -0.41903242 0.44291207 -0.2179094 0.37512845 -0.5026915 0.3755437 -0.7390452 -0.16678979
46 -0.04841196 0.4312918 -0.26645944 0.21175686 -0.14972395 0.22200938 -0.13783187 -0.4700627 0.17860742 -0.024321418 0.20547284 0.03660293 -0.025121203 -0.11739193 0.02916986 -0.21974656 0.52823764 0.2943709 -0.26762804 -0.11825212 0.13012443 -0.09801273 -0.26270416 0.26164022 0.08118713 0.42993858 -0.14259249 -0.14644821 0.37105748 0.042856585 0.2474949 -0.0907111 0.1901503 0.079240404 -0.40550634 0.30091003 0.20075062 -0.3892058 0.101578675 -0.08724777 -0.28229135 0.27662233 0.16414975 0.0050398135 -0.30886585 0.047155045 -0.56148565 0.17018525 0.38231924 0.35482672 0.032283112 -0.27284163 0.12769197 -0.22131248 0.14969671 0.20518938 -0.34166571 0.05513466 0.010805282 -0.16299 0.09866756 0.092326395 0.07327926 0.25716648
55 0.09468046 0.19910489 -0.25119033 0.4116266 -0.15820308 0.031408086 -0.074860506 -0.28202885 0.3044603 -0.2549684 0.21060325 0.1388807 0.1318182 -0.22351219 -0.14365147 -0.15451099 0.19454549 0.13188016 -0.058446147 -0.03159628 -0.017401058 -0.20485419 -0.10522 0.16506179 0.08390697 0.3943197 -0.16229364 0.20175685 0.23836708 -0.0008293496 0.10814493 -0.14119332 0.23316403 -0.049157128 0.10479875 0.18186702 -0.10776915 -0.14630494 0.20496412 -0.15720637 -0.023528464 0.094530925 0.18432733 -0.006528441 -0.1451481 -0.067800745 -0.24819878 0.18501335 0.27048585 0.27299345 0.020196753 -0.0677378 0.022708518 -0.48872712 0.19752821 0.29987314 -0.12526084 0.23516607 -0.04527291 0.12661564 -0.011511995 0.1641098 -0.01586129 -0.039622456
4 0.108470015 0.15498044 -0.1315439 0.13122217 -0.023701638 0.034315627 -0.017362239 -0.22962117 0.111926556 0.02541669 -0.041797187 0.0039227805 0.030034238 -0.068705305 -0.0676816 -0.12236373 0.20617972 0.02138918 0.006288685 0.0020583693 0.08390238 -0.12975448 -0.036855433 0.015441856 -0.012403684 0.21965101 -0.13556942 -0.018012479 -0.001613502 -0.11004423 0.04192662 -0.01145254 0.114603035 0.042627156 -0.1361562 0.16253348 -0.047007456 -0.0043902 -0.0054846313 -0.018480456 -0.026627935 0.069085315 0.010455673 -0.04079475 -0.23726831 0.024119198 -0.12403001 -0.091927685 0.046774905 0.23540774 -0.008942936 0.038258743 -0.16799563 -0.19449033 0.06421945 -0.07421679 -0.04899072 0.13971378 -0.07576784 -0.011435478 0.009872752 0.14025293 -0.07989245 -0.02863339
98 0.3817491 0.22330475 -0.34712613 0.14724423 -0.12605745 -0.1546974 0.11013512 -0.2965073 -0.06085268 0.09254534 0.06214669 0.1299026 -0.049794838 0.06410422 -0.2338737 -0.21198198 0.49019673 -0.06891982 -0.38131586 0.1489994 0.050703764 -0.06589435 0.06967008 0.027636334 -0.04085235 0.45546284 -0.08842863 -0.21501407 0.097911075 -0.46439478 0.14614588 -0.02947144 0.17384435 0.5035947 -0.3348392 0.26428375 0.32880247 0.40099514 -0.0916504 0.07631543 -0.011334221 0.05181645 -0.18774015 -0.32551795 -0.47078076 0.102820784 0.11808516 -0.30030206 0.012182687 0.19657326 -0.18216185 -0.11802693 -0.04000179 -0.307424 0.2215799 -0.2538568 -0.2429617 0.29113746 0.117611855 -0.065185346 -0.07583569 0.4963965 -0.33025548 -0.24131909
25 0.047436886 0.3189794 -0.3314135 0.4952716 -0.42410013 -0.043025382 0.105165526 -0.39650998 0.12835191 0.19567792 0.23484519 0.113014475 -0.19823815 -0.29095116 -0.18275025 0.04552428 0.29010487 -0.018525237 0.15219271 -0.29341495 0.08084222 -0.1890314 0.057155658 -0.019984068 0.04113386 0.5103157 0.13492998 0.071924314 0.044716608 -0.4772474 0.018852778 -0.052837666 0.2569586 -0.14326349 -0.1662733 0.083069675 -0.15367614 -0.136549 -0.08339142 0.11358261 0.031613253 0.1732182 0.15584408 0.1620608 -0.3252879 -0.021429665 -0.13056518 0.11552548 0.025190465 0.4189286 -0.12409264 -0.040009886 -0.079616055 -0.3923784 0.104868546 0.014818396 -0.28911287 0.4304867 0.042152263 -0.27352312 0.111097045 0.22036052 -0.22950204 0.21691242
27 0.11854999 0.15864508 -0.13480505 0.10432391 -0.019721143 0.029323958 -0.014915967 -0.19446017 0.10245944 0.028265985 -0.014454089 0.0028698726 0.03784452 -0.058900565 -0.056095023 -0.09053089 0.18532184 0.017708264 -0.030465217 0.015034242 0.06869708 -0.10053149 -0.009474802 0.011588002 0.012320979 0.19697759 -0.10811413 -0.02744704 0.029092556 -0.10133629 0.01957028 -0.031318124 0.09070287 0.036061253 -0.10967898 0.15445304 0.006109393 -0.015746513 -0.006607191 -0.02935452 -0.02797284 0.070923164 -0.0025463118 -0.024820518 -0.20491333 0.014987434 -0.11520866 -0.03949189 0.04904122 0.19957052 -0.0013851121 0.022872848 -0.11849779 -0.15808305 0.07065354 -0.04273915 -0.058222022 0.124263644 -0.013168816 -0.004977068 0.007580306 0.1208911 -0.058594093 -0.020236852
31 0.737259 0.15259743 -0.031868566 -0.05392463 -0.069360465 -0.7034757 0.0032025825 0.25786883 -0.079809055 0.27535388 0.052125245 0.2955978 0.29336384 0.098584816 -0.66783535 -0.21818303 0.022727413 -0.30652004 0.095013484 0.40929413 -0.058308236 -0.5643764 0.14632134 0.025608335 -0.0093806805 0.49501088 -0.4568741 0.14059837 0.03680841 -0.106082425 0.030522216 -0.027536383 0.4073634 -0.018754154 -0.108357735 0.54957986 0.023398435 0.18842666 -0.013835392 -0.39052492 0.2816329 0.115071975 -0.04907511 -0.20663878 -0.22573695 -0.085185446 -0.05949628 -0.48026875 -0.0396283 0.55145943 0.10389137 0.039872672 -0.42914686 -0.41115338 -0.002898071 0.19230479 -0.00056802947 0.37400216 -0.28225207 -0.11390463 -0.17079417 0.7233601 -0.44395387 -0.18012819
102 0.5253044 0.18815875 -0.5054126 0.17501439 -0.30285746 -0.43994474 0.18849899 -0.20570026 -0.043952566 0.29802638 0.0654334 0.3797864 -0.08045318 0.2278341 -0.37060815 -0.17953102 0.60113 -0.13952352 -0.343902 0.20833828 0.05394903 -0.11510326 0.15227313 0.046101976 -0.09772527 0.4194164 -0.029053707 -0.15652546 0.09169035 -0.62563306 0.027596712 -0.028755978 0.3319045 0.43353066 -0.22968312 0.43057272 0.31431383 0.603723 -0.21214788 0.052415192 0.04152234 0.2563272 -0.22382727 -0.29546577 -0.5784532 0.1072114 0.08422871 -0.2520746 -0.013965405 0.41012937 -0.19258696 -0.08862004 -0.11827144 -0.26629505 0.30013853 -0.3735299 -0.09299029 0.36789635 0.26108772 -0.13694869 0.038149517 0.73392063 -0.41132647 -0.33935937
103 0.71473277 0.24859966 -0.49647236 0.2296175 -0.13486259 -0.28135 0.19723548 -0.23203824 -0.077422716 0.06872119 -0.17493294 -0.051000006 0.0758457 0.16005193 -0.33718854 -0.30855596 0.6758266 -0.32018474 -0.496936 0.29828253 0.16648066 -0.20326507 0.11560991 -0.2616187 -0.104250036 0.49415004 -0.23475802 -0.2794915 0.1862532 -0.7112757 0.021127654 -0.05800139 0.35604095 0.72385794 -0.5446205 0.60555905 0.4740105 0.82365644 -0.015843151 0.15373689 -0.02953681 -0.022122225 -0.28429076 -0.5663918 -0.80065346 0.05421893 0.31908232 -0.59146875 -0.06303133 0.2674472 -0.16458522 0.0042734095 -0.16869882 -0.67128044 0.42387795 -0.40892544 0.12134245 0.3854227 -0.03722402 -0.077081785 -0.13561784 0.56088674 -0.5689155 -0.71682435
2 0.4214452 0.1899273 0.19438523 0.08875888 0.4057799 -0.15697385 -0.08377978 -0.14039555 0.21019903 0.04364054 -0.5142999 -0.35824543 0.25430557 -0.02204816 -0.51118356 -0.49907726 0.15519676 0.011522713 -0.02884334 0.4953799 0.06496328 -0.41760737 -0.59448856 0.036796056 -0.06234844 0.23072484 -0.6488421 0.23310034 -0.07074142 -0.27078226 0.011509075 -0.07568453 0.27156797 0.25719774 -0.41955477 0.4140083 -0.60153604 -0.1815268 0.09083529 -0.16410552 -0.2302226 -0.10936591 0.26216158 -0.6770557 -0.46903417 0.11886643 -0.046211798 -0.90229505 0.14560997 0.34691027 0.399239 0.31524438 -0.7179607 -0.57296187 -0.047420964 -0.29274645 0.33750644 0.18593359 -0.5380948 0.24399975 0.25583172 0.41690442 -0.13517548 -0.21593104
22 0.12981458 0.22341356 -0.067959145 0.32346508 -0.18444741 0.123586684 0.050937545 -0.21603926 0.030516027 -0.03242912 -0.08354639 -0.01294344 -0.07742864 -0.16922052 0.039679825 -0.078885235 0.30612105 -0.011285673 0.29200634 -0.10557145 0.10860944 -0.15420386 -0.10945891 -0.12805246 -0.09124874 0.4737096 -0.08584463 0.1197027 0.0094548315 -0.18499134 0.09856932 0.06733043 0.2701287 -0.09595917 -0.25362813 -0.054549333 -0.13922426 -0.011615476 -0.11556818 0.08432321 0.09245592 -0.051662892 0.05618473 -0.069736145 -0.35874325 -0.0049388497 -0.07821461 0.049610168 0.023145732 0.28726533 -0.07440922 0.017284593 -0.31641692 -0.13179317 0.077168606 -0.10573516 -0.22639123 0.11302064 -0.32366893 -0.07956952 0.04624505 0.032696024 -0.38247797 0.08371136
69 -0.15173644 0.17645471 0.11873724 0.3230169 0.18294513 0.7201556 0.10225965 -0.92112327 0.4090224 0.0527835 -0.50580126 -0.2170819 0.028956508 -0.15571547 0.025651064 -0.19952765 0.3158724 0.43213886 0.31115273 0.083831705 0.40851727 -0.08085863 -0.5413911 0.3276524 -0.28854865 -0.010350112 -0.32128274 -0.00020844472 -0.29338467 0.21150495 0.05257386 0.24885459 0.23440526 0.21885167 -0.4797266 0.198784 -0.5418183 -0.18621123 0.108654246 -0.17968686 -0.3252412 0.34845942 0.013040841 -0.11629133 -0.45228848 0.05170959 -0.3384846 -0.61091036 0.062063266 0.59553224 0.023340905 0.16028662 -0.93222773 -0.75324637 -0.24116603 -0.6056569 0.09462417 0.05714379 -0.44963306 0.08545048 0.3336652 0.0716957 0.19690898 0.1618618
66 0.04071244 0.13423039 0.22651172 0.19010444 0.2394201 0.32136732 0.11394647 -0.47249803 0.2808302 0.07371609 -0.45050475 -0.25207996 0.1244073 -0.11761549 -0.33112347 -0.21509397 0.1955148 0.17085014 0.32613552 0.23598969 0.31507584 -0.21238218 -0.4815307 0.14648972 -0.17369398 -0.04194984 -0.3816072 0.06553476 -0.3757428 0.031355254 -0.11888371 0.16215253 0.20552278 0.2618255 -0.44142702 0.27136466 -0.6994996 -0.055118952 0.17419188 -0.22445536 -0.22383527 0.18189892 0.038224224 -0.3058653 -0.41765606 0.026586037 -0.044849876 -0.87845606 -0.0016276307 0.48031527 0.11837193 0.2834469 -0.9674002 -0.656917 -0.20905855 -0.63479453 0.36314172 0.18067789 -0.4819402 0.1412729 0.27016583 0.2631501 0.07392497 -0.025779424
64 -0.15775661 0.22732063 0.14159895 0.3680795 0.06094314 0.51444 0.13011526 -0.8202459 0.44948396 0.255855 -0.3175743 -0.16197427 -0.089001365 -0.183297 -0.11626915 -0.107709534 0.2981404 0.29581302 0.3849652 0.0716943 0.4185189 -0.22111003 -0.5148522 0.33360907 -0.11104667 0.013167151 -0.31146178 -0.019639313 -0.4235309 0.1351699 -0.049642753 0.17872891 0.1269377 0.1572191 -0.49008617 0.2691071 -0.70637196 -0.21442197 0.06840535 -0.2141973 -0.32210043 0.35642123 0.015456174 -0.120783046 -0.45613936 0.07232318 -0.22524236 -0.714939 0.028250812 0.6938873 0.0027867323 0.28741807 -0.94345367 -0.7442695 -0.2624686 -0.62178826 0.097811475 0.28721142 -0.36598384 0.020902455 0.2908546 0.26053128 0.16075115 0.22812535
65 -0.10381848 0.27571929 0.1725677 0.38541287 0.031405494 0.4938547 0.09278667 -0.8012896 0.47443596 0.24852195 -0.29990402 -0.19255278 -0.11213519 -0.21473595 -0.16546988 -0.07666772 0.26580518 0.21085548 0.45717907 0.07282174 0.41750222 -0.27758828 -0.5354303 0.29570407 -0.097200796 0.056487497 -0.33204716 0.06024959 -0.47406593 0.11308705 -0.11167179 0.19733177 0.14349122 0.08957376 -0.52991295 0.2495014 -0.79491025 -0.25934616 0.059026275 -0.23230569 -0.3122613 0.30556944 0.06145469 -0.10652812 -0.46260446 0.06857233 -0.21020463 -0.7439775 0.024087554 0.7679121 0.045552164 0.34479317 -1.021393 -0.7824549 -0.27118987 -0.6367263 0.08984694 0.33913922 -0.4287891 0.009431902 0.29416406 0.27591464 0.07214335 0.24986108
3 0.4286586 0.19786271 0.19237341 0.090587206 0.4084468 -0.13445003 -0.08205158 -0.156153 0.2470515 0.036588367 -0.50596213 -0.34510806 0.26716948 -0.04522506 -0.5069624 -0.47990957 0.13880517 0.0086860275 -0.029559748 0.47678873 0.053786185 -0.43462422 -0.5763605 0.05064131 -0.047233768 0.1971137 -0.6426881 0.23430975 -0.091467045 -0.2485893 0.0066344826 -0.083067134 0.2674973 0.23797093 -0.400516 0.41827184 -0.6236476 -0.20517997 0.11454237 -0.19183141 -0.2487354 -0.073350325 0.27208552 -0.6352969 -0.44859195 0.11449204 -0.08583398 -0.88848954 0.14877512 0.3521497 0.4075727 0.3228233 -0.72847164 -0.5793131 -0.04168805 -0.2803718 0.35943738 0.19718675 -0.51977164 0.25609708 0.24512863 0.415824 -0.10573148 -0.20292759
74 0.51449805 0.2851977 -0.022687545 0.1758605 -0.027435219 -0.31217086 -0.06839692 -0.0043980256 0.34338102 0.18438268 0.13469818 0.077853754 -0.151475 -0.0033024973 -0.61440086 -0.14750786 0.1826064 -0.33474842 -0.11922381 0.11581105 -0.23371132 -0.5096726 -0.08532885 0.021740722 0.052027933 0.27233246 -0.3344917 0.29336694 0.21109873 -0.43478495 -0.11973498 -0.16831812 0.11782861 0.31891665 -0.12667938 0.3055384 -0.14799589 0.20147279 0.124970265 -0.3024916 -0.16878279 -0.07114785 0.16419652 -0.4390107 -0.3331467 -0.03414379 0.14417963 -0.6437141 0.09657394 0.3169696 0.1755181 -0.021186065 -0.17565386 -0.5688954 0.29101095 -0.064164616 0.06351162 0.42191312 0.08918174 0.12832555 0.03295497 0.55684566 -0.50299215 -0.33407047
