111 64
104 0.20597047 -0.09418013 0.070798986 0.47313064 -0.534817 0.46262786 0.22707136 -0.73063415 0.29931605 -0.464659 0.26320344 0.032980934 -0.19189018 0.14371122 0.32636216 -0.5411774 0.18369424 -0.02800917 0.2053789 0.059345663 0.2265986 0.27950683 0.22683881 0.41395554 0.12174566 0.08419062 -0.30593598 -0.3067483 -0.40170935 -0.08366198 0.0049770074 0.25261593 -0.14664434 0.042642046 -0.31583107 0.25412703 0.030368837 0.29530266 -0.47336474 -0.21462165 0.3166764 -0.03358107 -0.48417646 0.2661945 -0.27812383 -0.0007004965 -0.08053066 -0.27219966 0.55798763 -0.14164461 -0.3173695 0.14994477 -0.14333478 -0.20566693 -0.29351246 -0.40731496 -0.10102994 0.031194277 -0.028619058 0.23496613 -0.35118324 0.2725581 0.039122645 -0.5884467
59 -0.498419 0.16760252 -0.21604216 0.3516942 -0.27616656 0.5881109 -0.0056134537 -1.0532376 0.7468902 0.60523576 -0.6978558 -0.29303846 -0.34529138 0.04246965 0.097553484 -0.03159 -0.058574494 0.46133128 0.28777522 -0.17943954 0.78084373 -0.16489984 -0.3611957 0.40818807 -0.10780888 0.24700493 -0.16003022 -0.18401425 -0.8118023 -0.2386126 -0.022663144 0.032273978 -0.18021956 0.05968947 -0.26924446 0.41785204 -1.0950614 -0.19490631 -0.16690442 -0.1982928 -0.22284384 0.4464507 -0.23279595 0.17182936 -0.3338959 0.2887761 -0.31714472 -0.39919987 0.06316196 0.74096876 0.11494393 0.36537978 -0.6141335 -0.735313 -0.49893928 -0.6007798 0.3043221 0.7311427 0.023580102 -0.3379061 0.4392943 0.14927098 0.28651693 0.34006295
72 0.051022194 0.32702374 -0.1174891 0.05319362 -0.31456625 0.47596845 -0.26431474 -0.49925458 -0.32702696 -0.14581063 0.023073016 0.09457075 0.009548891 0.020204829 0.18871479 -0.32737046 -0.06619878 0.13731442 -0.065102465 0.15805994 -0.057573635 -0.16409506 0.2972536 -0.2781691 0.31935978 -0.19944414 -0.048134726 -0.4500689 -0.44624665 0.12732488 -0.46819696 0.08415514 0.27612486 -0.19977507 -0.39006987 0.28962737 0.024565298 0.39939696 -0.5613328 0.063779585 -0.09836604 -0.14701867 0.10520042 0.05208828 0.13198283 0.09785147 -0.20654236 -0.27991557 0.2797521 0.3264777 -0.40591198 -0.2218121 -0.2714948 -0.21065375 -0.5480754 -0.48707488 -0.44876906 0.2267129 0.10391927 0.36344108 -0.5470923 0.2529561 0.12504044 -0.24040383
95 0.7017804 0.53781873 -0.32136673 0.47757336 -0.70137775 -0.059359714 0.2577541 -0.45767006 0.16365667 0.30782148 0.5181786 -0.16619352 -0.25609028 -0.2957847 -0.07030834 0.13390099 0.53204256 -0.064978085 0.0155328335 0.10426627 -0.5491671 0.10801585 0.36315382 0.72553277 0.14348637 0.022128135 0.17161211 -0.06203492 0.033173837 -0.45237094 -0.040069163 -0.18002026 0.15929373 0.23367855 -0.75619626 0.28945127 -0.0018226788 0.34847707 -0.17768094 0.48738617 0.046809863 -0.23111115 -0.008544458 0.17171077 -0.3021753 0.21924219 -0.006216859 -0.6456594 0.32020825 0.4647731 -0.6497945 -0.35001948 -0.33129334 -0.17348792 0.26546225 -0.55375314 -0.39031497 0.56171954 0.54491943 0.37108922 -0.15979388 0.7405174 -0.34366208 -0.025098577
103 0.56737226 0.43182743 -0.5137294 0.38904297 -0.29056263 0.1437048 -0.1717014 -0.11488114 0.20170653 0.22215241 -0.020111542 -0.11463419 -0.22650157 0.20208552 0.05137117 -0.13228154 0.7190334 -0.33085677 0.094695374 0.008140979 -0.022159023 -0.10256554 0.46682873 0.15648153 0.33001038 0.37160584 0.09624026 -0.10253887 -0.01298762 -0.53541195 -0.09970638 -0.09562937 0.4466471 0.04526558 -0.28380132 0.40061846 -0.09429547 0.25914672 -0.18184021 0.15644921 -0.08807321 -0.38409498 0.18229428 -0.1271657 -0.4905775 -0.07412311 0.4299855 -0.1763976 0.04102272 0.18975404 -0.31403488 -0.1058193 -0.06741846 -0.0853608 -0.14268966 -0.2704531 -0.11809845 0.67765343 0.54602545 -0.11576021 -0.04591569 -0.06304106 -0.48598772 -0.4420439
93 0.68228775 0.5684995 -0.44944397 0.23758207 -0.43335536 -0.13820535 0.3243136 -0.6494049 0.11953553 0.24647433 0.42330608 -0.09724959 -0.18142465 0.0041474295 -0.039105926 -0.07243353 0.64388037 0.024700077 0.10000774 0.2505414 -0.5837762 -0.026339369 0.51302284 0.59930754 0.20891565 -0.016005274 -0.06506051 -0.28847322 0.027662601 -0.3689992 -0.077658474 -0.2095341 0.44568473 0.2952876 -0.6712949 0.22227366 0.11145957 0.4846008 -0.24574402 0.41724032 -0.055041015 -0.025062356 -0.08561385 0.21600156 -0.3638169 0.11715952 -0.033873264 -0.60590506 0.31303185 0.41116062 -0.6537742 -0.29313102 -0.35795906 0.026564669 0.3478818 -0.57683295 -0.27340838 0.6933233 0.64149064 0.17029999 -0.058880255 0.7472091 -0.33188736 -0.099659525
6 -0.1871696 0.34299523 -0.39646113 0.6294616 -0.5262219 0.09669135 0.08595377 -0.86331207 0.51177007 0.74608874 0.048683085 0.05058324 -0.58706844 -0.36676928 -0.031223798 0.22254749 0.16957845 0.42335662 0.24830793 -0.38693956 0.39149898 -0.3193596 0.11205933 0.35451883 -0.015991548 0.400362 0.0069950134 -0.1233073 -0.5167121 -0.6188056 0.0021463628 -0.21380845 0.15137221 -0.49210545 -0.12567855 0.3838723 -0.64057076 -0.45780516 -0.15960032 0.13012856 0.089481235 0.5764398 0.15546346 0.5055322 -0.35406536 0.21615063 -0.49318826 0.057132617 0.03526422 0.8007793 -0.22488885 0.26483583 -0.2888527 -0.4748887 -0.2959177 -0.20896016 -0.23395123 0.6163631 0.32609546 -0.35132724 0.3336251 0.2288193 0.16463123 0.5582421
109 0.008665162 0.32829657 -0.033557385 0.0828003 -0.37306252 0.42133284 -0.19037 -0.56400037 -0.21454018 -0.113916986 0.08079202 0.1355846 0.08466369 0.085267164 0.207258 -0.37554082 -0.036824316 0.31374004 0.07007234 0.17270441 -0.0051409965 -0.11847417 0.21511666 -0.14422996 0.2245216 -0.32548302 -0.032586362 -0.37728617 -0.5033681 0.17926307 -0.50366443 0.04863667 0.26440495 -0.19522595 -0.37197474 0.2123917 -0.013144137 0.3126023 -0.5248707 0.12952548 -0.041603107 -0.052016806 -0.017013695 0.13780451 0.1440292 0.21754026 -0.27618858 -0.24607944 0.30865967 0.31648704 -0.4462279 -0.17315507 -0.3320918 -0.14258914 -0.45668858 -0.5528651 -0.34204546 0.13839386 0.14792262 0.4170004 -0.45279393 0.32055828 0.07165827 -0.08534534
111 0.4283402 0.54701656 0.12416194 0.17998025 -0.28096497 -0.0041237017 -0.06970229 -0.31307465 0.24565521 -0.13707456 0.116651826 0.28458786 -0.20701103 0.3578631 0.5267868 -0.6634318 0.647444 -0.060950067 -0.13832828 0.08294284 -0.21985978 -0.2157606 0.0117226755 0.405952 0.6609032 0.51625425 -0.060545933 -0.68627656 -0.39703885 0.09077914 0.29695785 0.09144089 -0.24255028 -0.21699312 -0.23783733 0.0274063 0.5397618 0.2693311 -0.67996156 0.018020779 -0.10682724 -0.56061935 -0.15700136 -0.12684068 -0.23912537 -0.02584673 -0.6478325 -0.49384144 0.4831494 0.23373042 -0.8970784 -0.12339874 -0.1379459 0.46492487 0.24070908 -0.29651886 -0.5718802 0.2435862 0.21008423 0.4518186 -0.48937476 0.9145713 -0.15733933 -0.035153992
110 0.41449243 0.39650834 -0.29402766 0.41041547 -0.39938027 -0.039612073 0.16116308 -0.697754 0.14716402 -0.12704639 0.06764112 -0.03481055 -0.15024072 -0.10251622 0.24740614 0.021705458 0.5112488 0.04636289 -0.058197565 0.10656465 -0.69179267 -0.03965182 0.14892133 0.5724061 0.07180287 -0.07807932 -0.22448882 -0.067672566 0.124046095 -0.16846609 -0.06541507 0.06505649 0.26104796 0.038470928 -0.46684417 -0.005501446 0.31206632 0.510469 -0.2898187 0.286034 -0.32118043 -0.1440179 -0.12754326 0.07121765 -0.29175824 0.04040473 -0.3197087 -0.39811382 0.6556354 0.5142571 -0.44278234 -0.20325291 -0.17734443 -0.0765067 0.34127137 -0.28094572 -0.38654563 0.34890115 0.2772468 0.3619236 -0.15579529 0.620108 -0.22659628 -0.19190617
100 0.458194 0.25688505 -0.49313065 0.28499472 -0.5335513 0.067876205 -0.22618762 -0.29497194 0.20197876 0.2024581 0.052880466 0.06834201 -0.4748231 0.058297034 0.024168162 -0.22160313 0.28753808 -0.40114293 -0.17740138 0.03662293 -0.076194756 0.054179195 0.25549588 0.018861944 0.11267851 0.31212488 0.029279014 -0.08898991 -0.09533281 -0.52126503 -0.02377603 -0.17259441 0.24228433 -0.14006586 -0.30267093 0.21161318 -0.21333584 0.3974157 -0.38642764 0.22024429 -0.051195405 -0.37068725 0.19119193 0.20803083 -0.4389453 0.002563734 0.35026902 -0.123601854 -0.058595546 0.13339464 -0.10243898 -0.21893936 0.18789646 -0.21435913 -0.12833475 -0.22050662 -0.3445066 0.6151759 0.63261706 0.11767345 0.049627356 0.14204419 -0.3994806 -0.2161299
70 -0.41242766 0.17590678 -0.2983773 0.28660193 -0.2456267 0.5982191 -0.038133025 -0.953289 0.71342635 0.5840742 -0.70829 -0.19537991 -0.29267457 0.14515257 0.14094149 -0.11981481 -0.14744627 0.47744918 0.24113965 -0.2504926 0.8778005 -0.22451958 -0.31836173 0.30738825 -0.009789133 0.2816914 -0.10155204 -0.08993308 -0.8182635 -0.16168241 0.047271077 0.030065862 -0.031684596 -0.07097845 -0.2743914 0.23843631 -0.9463897 -0.07970008 -0.07083301 -0.09715842 -0.14980468 0.40167707 -0.12280998 0.28196785 -0.22206654 0.30302668 -0.44835985 -0.19010106 0.072091855 0.8389368 -0.12025394 0.23258087 -0.5302807 -0.7370252 -0.49152938 -0.46054688 0.15167424 0.5983973 0.11496398 -0.39660832 0.38712242 0.14263317 0.17453222 0.3367628
14 -0.1581909 0.32083112 -0.29694742 0.5458087 -0.3504674 0.23330677 0.20501737 -0.6818368 0.57658553 0.607354 -0.062476162 0.052704226 -0.55514514 -0.19126283 0.1929456 0.12214124 0.0060988953 0.39555106 0.16107064 -0.22327021 0.51964986 -0.192759 0.047665663 0.31524983 0.21381955 0.4955558 -0.00040394234 -0.19868116 -0.5064055 -0.38143945 0.1689521 -0.07194889 0.0664435 -0.3890362 0.055345073 0.28349653 -0.6954366 -0.27563834 -0.08224577 0.15259556 0.026907884 0.43398649 0.13665701 0.37594536 -0.35631788 0.11927741 -0.4713215 -0.08969087 0.07068231 0.63985926 -0.24733776 0.25634935 -0.18277234 -0.38976964 -0.16083977 -0.23594967 -0.22311075 0.7693039 0.28256685 -0.32006454 0.31196278 0.22640751 0.17889236 0.46752417
13 -0.27503803 0.28505623 -0.43938732 0.5283751 -0.46255878 0.024503198 0.102362454 -0.76614034 0.53102106 0.65185446 -0.09319871 -0.029072737 -0.3822374 -0.10701643 0.22947508 0.14165929 0.10865783 0.2895833 0.27455896 -0.40870705 0.19934748 -0.1849922 0.009844637 0.43174446 0.24812675 0.43718898 0.18986899 -0.24210727 -0.48359883 -0.3222333 0.28668085 -0.077306226 -0.078146316 -0.39413652 -0.059606086 0.24558114 -0.52100873 -0.14634262 -0.03176564 0.27297395 0.09336388 0.24367177 -0.039096065 0.45194983 -0.32691112 0.01683024 -0.508055 -0.03559762 0.07992717 0.7228169 -0.2821634 0.12797065 -0.08347945 -0.32904518 -0.13606112 -0.1505235 -0.17654964 0.8127243 0.32981893 -0.32555705 0.3472866 0.28321734 0.08824252 0.5014011
78 0.6147923 0.5906474 -0.5923013 0.28782257 -0.30696315 -0.20987216 0.18695514 -0.33676237 0.19037518 0.20640677 0.385241 -0.0989105 -0.15820798 -0.11358081 -0.39091974 -0.05725647 0.47421163 -0.08688525 -0.2808766 0.37889105 -0.48586345 0.019281976 0.30433834 0.36628872 0.1065443 0.4323818 -0.25989738 -0.51634556 0.12497911 -0.4220635 -0.19176283 0.015679456 0.41504186 0.34603631 -0.19586809 0.2849413 -0.24814373 0.5129978 0.13455853 -0.11954936 0.02077249 0.20809814 -0.0391437 -0.003866953 -0.46479732 -0.022519065 0.12646578 -0.63428295 -0.07879509 0.44702137 -0.27336007 -0.16758096 -0.05998507 -0.38974437 0.024918068 -0.07716033 -0.17807336 0.6030275 0.64422625 0.2609781 -0.33174103 0.6786646 -0.14535648 -0.35091048
89 0.5341448 0.55263686 -0.5338302 0.2836738 -0.3074603 -0.06498475 -0.12481389 -0.40002418 -0.0049914042 0.18239641 0.1301377 -0.13137773 -0.30945456 -0.030904481 -0.2934132 0.07647388 0.31073606 -0.21889259 -0.18477394 0.1639505 -0.33288068 -0.054411065 0.22408813 0.16371928 0.29834837 0.6027983 0.07239872 -0.33526444 0.002034196 -0.32651418 0.35378748 -0.07151007 0.35894415 0.2728473 -0.66534746 0.2189792 -0.015210671 0.36611933 -0.081129506 0.33836803 -0.17025344 -0.34450984 0.18111603 -0.115028635 -0.43281686 -0.16873807 0.32565796 -0.74856997 0.20723099 0.14053644 -0.26578388 -0.40346456 -0.17444551 -0.21797325 -0.19463895 -0.29839036 -0.37144423 0.6531208 0.3357535 -0.21110265 -0.10073908 0.2592966 -0.32416806 -0.27771175
9 -0.07660547 0.82572556 -0.6442064 0.7895462 -0.803459 0.18279421 -0.07265438 -0.79237616 0.87345195 0.22454995 0.1898155 0.30189967 -0.3015317 -0.48118255 0.11540143 -0.12883995 0.26526013 0.2659083 0.46209583 -0.73864555 0.12124199 -0.6030496 -0.102785304 0.16375932 0.15052626 1.0216551 0.02038021 -0.08246802 -0.6216765 -0.63327855 0.22816548 -0.00843134 0.12513381 -0.63267267 0.10520927 0.11949041 -0.7384505 -0.62826216 -0.09002179 0.1614456 -0.19432397 0.36832836 -0.05424455 0.6414586 -0.49482468 0.0049983007 -0.5967339 0.55518067 -0.15004295 1.163203 -0.30705562 0.23008013 0.11743707 -0.6191705 -0.1983118 0.14861201 -0.5269613 0.87985986 0.36790115 -0.080744386 -0.01995053 0.46544507 -0.31526318 0.7371405
88 0.5072907 0.49820626 -0.53305405 0.25535175 -0.22897165 -0.014988957 -0.075877555 -0.40518573 -0.09853398 0.28984538 -0.08100623 -0.15556721 -0.2514874 0.016417518 -0.3509459 0.16668843 0.38552067 -0.32122016 -0.17856158 -0.009804221 -0.20436142 0.01770383 0.23405291 0.20462035 0.24377276 0.6468498 0.1382244 -0.18015154 -0.07035488 -0.44806698 0.35636067 -0.19762549 0.5125256 0.3565481 -0.674064 0.32885444 -0.06877233 0.2634893 -0.074231684 0.2694385 -0.26643312 -0.4066161 0.28364053 -0.12484608 -0.3649026 -0.2079008 0.34900677 -0.64394176 0.14388917 0.23787639 0.023084885 -0.50417644 -0.10277858 -0.22877651 -0.23941077 -0.18972439 -0.34465 0.8623252 0.5646237 -0.284389 0.14217344 0.24927366 -0.21495712 -0.34748012
71 -0.42563447 0.27666533 -0.19750577 0.26854098 -0.14901721 0.6919302 -0.1360843 -1.0856051 0.7994798 0.19115132 -0.85380846 -0.16754931 -0.14380212 0.197527 0.34217197 -0.26883227 -0.19259724 0.35145193 0.2363527 -0.24013425 1.0020472 -0.2483878 -0.37139708 0.2687693 0.050505094 0.44687536 -0.19947088 -0.11877356 -0.99754786 -0.11807326 0.057951197 0.16926624 -0.16158278 -0.14943415 -0.2388501 0.22693256 -1.006052 -0.11113046 -0.34029052 -0.2131174 -0.19397068 0.30561984 -0.2181225 0.2408236 -0.20122495 0.22831878 -0.48362726 -0.260574 0.15688796 0.77575505 -0.119898684 0.27714878 -0.51029176 -0.7463555 -0.7006053 -0.57078236 0.100804344 0.71472967 0.08074407 -0.26195526 0.2033393 0.29218203 0.1996942 0.27137202
90 0.48649856 0.529557 -0.47453278 0.26442903 -0.4357624 0.2045584 -0.51228595 -0.34199652 0.013877075 -0.24729557 -0.1647765 0.18308702 -0.18983144 0.027893791 0.15499254 -0.13950029 0.23736933 -0.41605964 -0.24710515 0.0076982924 0.039839175 -0.15140541 0.16075222 -0.26769844 0.299532 0.76215535 0.082957596 -0.08068749 -0.25448605 -0.4393794 0.27091435 -0.023547594 0.62276614 -0.27321747 -0.2906283 0.082903616 -0.13804092 0.29398763 -0.5531954 0.21022858 -0.1903921 -0.5564314 0.26979282 0.028277734 -0.31277305 -0.27931708 0.25596154 -0.062171225 0.06977599 0.22215971 -0.21585421 -0.37571374 0.115325786 -0.25556546 -0.45072645 -0.19520307 -0.668655 0.60312974 0.40658706 -0.021123292 -0.2787263 0.11862495 -0.47841412 -0.2751045
28 0.015267525 0.7901017 0.109671146 0.5806854 -0.60889685 0.2578345 -0.9660213 -0.40163797 0.79481137 -1.2860309 -0.47183412 0.34158546 0.027631743 0.13502087 0.19519608 -0.7086227 0.4375331 0.23253539 -0.11350449 0.22359799 0.25849047 -0.81133544 -0.81690323 -0.28669143 -0.18707208 0.9147657 -1.0113817 -0.0028005964 -0.37521365 -0.026073717 0.45915198 0.33526346 0.42220938 -0.45360607 -0.12488006 -0.12920594 -0.29076806 -0.07536779 -0.45808125 -0.306621 -0.2917359 -0.3389069 0.095037326 -0.09869911 -0.7190531 0.32999033 -0.55899596 0.2222871 0.34888586 0.47776508 -0.092143685 -0.24987319 -0.49920756 -0.3810741 -0.2719633 -0.10822525 -0.38555604 -0.029052129 -0.56608266 0.40337113 -0.3270272 0.62900656 -0.23965667 -0.019368703
75 0.47036415 0.40163198 -0.4276223 0.30145162 -0.4020976 0.051872067 -0.16144179 -0.38907424 0.027512727 0.005578877 0.10964129 -0.049540166 -0.34037077 -0.007886046 -0.13459022 0.0071310042 0.32065818 -0.17199466 -0.12942886 0.14018443 -0.26699665 -0.075121105 0.15475817 0.17547163 0.27813953 0.4458637 0.09087274 -0.12851645 -0.0236093 -0.26013932 0.3120993 -0.13783391 0.4358736 0.17729157 -0.6629883 0.12225138 -0.046704628 0.32626092 -0.19662021 0.4297804 -0.123956814 -0.3970437 0.1656319 0.02931971 -0.3540492 -0.100826286 0.26325628 -0.4702226 0.25329342 0.0795699 -0.2788737 -0.425101 -0.17790905 -0.20754497 -0.13377504 -0.32306358 -0.4228303 0.5921649 0.32561642 -0.101419695 -0.041503944 0.2091114 -0.36327016 -0.16564333
16 -0.054091994 0.3211137 -0.34621778 0.40984008 -0.24618876 0.03122258 0.20675682 -0.39616543 0.41553825 0.78916407 -0.13979459 0.018009908 -0.49084908 -0.13345723 0.31898406 0.0824111 0.24487092 0.120118394 -0.06471301 -0.19934171 0.29551774 -0.10494916 0.01157463 0.462807 0.45817003 0.4176373 0.23305315 -0.35985467 -0.48849297 -0.2297913 0.22955409 -0.010968451 -0.042755254 -0.22946501 -0.042098396 0.07304241 -0.43638954 0.008634237 -0.06804973 0.18933865 -0.04924858 0.24845909 0.09949371 0.42663434 -0.14613165 0.036815282 -0.53137875 -0.18041527 0.038248625 0.6634624 -0.40755165 0.06378624 -0.060167275 -0.117984645 0.09866099 -0.13549158 -0.11807305 0.7963618 0.30676204 -0.42242852 0.40092605 0.37753424 0.16468023 0.49088937
60 -0.31703344 0.13321765 -0.32121643 0.26075086 -0.19480371 0.75063795 -0.022535084 -0.982783 0.7049402 0.5313035 -0.76314 -0.2246311 -0.20247532 0.20426603 0.1059418 -0.22544825 -0.26731113 0.37438512 0.21520169 -0.091542915 1.0014058 -0.052687664 -0.28916112 0.26217538 0.02630413 0.31649506 -0.14767714 -0.13023186 -0.8974592 -0.09121418 -0.08125172 0.19484219 0.0418769 0.081712134 -0.3712443 0.4047039 -1.0090792 0.072410226 0.00538979 -0.13970822 -0.074560024 0.3310105 -0.112154186 0.2556407 -0.19419006 0.24710892 -0.2799963 -0.42574674 0.085807584 0.8338151 0.029536216 0.21789917 -0.56744236 -0.8818937 -0.61151093 -0.592936 0.17548782 0.6770408 0.078166366 -0.46671483 0.3890751 0.061449524 0.18910243 0.057082493
21 -0.08237316 0.34857038 -0.617425 0.6840354 -0.547711 0.191828 0.13400692 -0.7404064 0.49926287 0.5750236 0.20452236 -0.026106086 -0.15787877 -0.35382223 -0.058524568 -0.02852992 0.114661865 0.17760067 0.3686123 -0.33707452 0.18043052 -0.13295162 0.07138231 0.20185849 0.011354369 0.37181035 0.101654075 -0.094736345 -0.39385363 -0.61375564 -0.14158227 0.039599955 0.18150246 -0.22640699 0.007635233 0.39185232 -0.7012739 -0.40622398 0.13915665 0.09366034 0.044213343 0.496099 -0.00017885599 0.5455761 -0.30789334 0.014496485 -0.17583622 0.13519779 -0.037377212 0.7857334 -0.091051176 0.23052916 -0.01661172 -0.641821 -0.2970928 -0.20876613 -0.20702897 0.7700302 0.35561293 -0.29489046 0.14133048 -0.006669194 -0.07470919 0.22092536
62 -0.428209 0.19019322 -0.2060858 0.32629284 -0.22895788 0.6686874 -0.05244855 -0.9837368 0.7813257 0.47106954 -0.7295353 -0.17210874 -0.2902326 0.14006181 0.15985645 -0.18142307 -0.1785563 0.4977687 0.21312849 -0.17993063 1.007923 -0.17039554 -0.39478317 0.28779927 0.043850522 0.41839343 -0.20860822 -0.14414424 -0.9043986 -0.07028195 0.05220261 0.11597005 -0.039223354 -0.12234636 -0.25762984 0.3544999 -1.0324929 -0.10349967 -0.058556125 -0.1491709 -0.059526574 0.38050562 -0.11661442 0.21867494 -0.2676745 0.24943116 -0.4682457 -0.30340788 0.08790026 0.89986247 -0.011466846 0.302315 -0.5836387 -0.80107677 -0.5175689 -0.5157209 0.10603509 0.65565073 -0.016115978 -0.40817305 0.39271718 0.19218461 0.20278239 0.29319084
69 -0.34286708 0.27735275 -0.2158341 0.23595092 -0.148849 0.7061958 -0.08208722 -1.0153116 0.74000144 0.2222162 -0.78712267 -0.11911307 -0.14955983 0.17904504 0.32825705 -0.26759556 -0.24126807 0.3279176 0.20544243 -0.22744523 0.9709149 -0.18161526 -0.29722008 0.23920569 0.07954153 0.45423296 -0.18380773 -0.1474461 -0.9796533 -0.11953106 0.02187824 0.18455192 -0.12081092 -0.1653946 -0.18765643 0.273271 -0.9863429 -0.10923501 -0.29135764 -0.19204329 -0.14429224 0.3077658 -0.18240915 0.22871448 -0.20118737 0.21570054 -0.46366146 -0.25516066 0.14897753 0.78789026 -0.07853157 0.29534617 -0.47073317 -0.71164733 -0.66598606 -0.51613533 0.06254234 0.6971997 0.10254258 -0.26554188 0.19536306 0.27118847 0.21298842 0.21822456
61 -0.35360527 0.11550297 -0.26160654 0.24819034 -0.18639046 0.7018788 0.0393092 -1.0257512 0.75258124 0.5528004 -0.74832904 -0.215493 -0.24252248 0.205454 0.1346367 -0.22124454 -0.25109914 0.5179735 0.2403097 -0.108817846 0.9560371 -0.10183534 -0.32238433 0.36276773 -0.021526756 0.25462824 -0.20217139 -0.1130659 -0.8696444 -0.05955643 -0.05734654 0.14683121 -0.02997318 0.025845287 -0.31015044 0.35710433 -1.0228577 0.020167872 -0.016151002 -0.1279582 -0.055402786 0.42684886 -0.16137592 0.24564959 -0.24107178 0.32113874 -0.41599604 -0.3950179 0.083566144 0.8712247 -0.083977915 0.2659914 -0.6176983 -0.828385 -0.5232299 -0.573972 0.19323426 0.5814833 0.09368256 -0.3511778 0.3837587 0.17084885 0.19074267 0.18853652
79 0.61646277 0.5958429 -0.5667576 0.18674213 -0.28076303 -0.19556925 0.23706777 -0.33127972 0.16163336 0.5121176 0.45126605 -0.06529681 -0.18811406 -0.068689905 -0.52944887 -0.1246369 0.5784994 -0.001655896 -0.29628775 0.42148933 -0.54478073 -0.06263873 0.2517282 0.5307522 0.07247855 0.14209461 -0.34103408 -0.5398183 0.19156098 -0.3335461 -0.44751012 -0.13258094 0.35577694 0.4642827 -0.3202864 0.460045 -0.30080253 0.45073515 0.19706558 -0.1425344 -0.07887197 0.40083736 -0.0238695 0.016421705 -0.39802667 0.13395873 -0.030830294 -0.74884623 -0.11163531 0.62654513 -0.24958877 -0.19550116 -0.1795394 -0.4247752 0.14766078 -0.17240183 -0.052600127 0.6300112 0.6713302 0.33170015 -0.2569003 0.83112985 -0.11740503 -0.27438524
19 -0.093018755 0.37072212 -0.54591006 0.67648613 -0.5833933 0.31196022 0.10683998 -0.8801314 0.5955807 0.66499454 0.1961847 0.014254484 -0.31205714 -0.2812619 0.08711125 -0.107804045 0.100519255 0.39564693 0.45900875 -0.4103452 0.27936968 -0.19627598 0.12447953 0.29378626 0.01941691 0.3531569 0.089879915 -0.12053576 -0.41524705 -0.5383419 -0.008503378 0.031967927 0.13274436 -0.44749013 -0.09763181 0.40834197 -0.65981025 -0.39688078 0.008085123 0.24271305 0.16048627 0.4942566 0.0017505432 0.5867966 -0.38878635 0.06952245 -0.46186537 0.12167241 0.05993195 0.81330764 -0.29773128 0.14422241 -0.14550258 -0.5328936 -0.18560183 -0.25992638 -0.3188318 0.61505336 0.26942208 -0.2886505 0.2133151 0.052212782 -0.057681087 0.3893106
96 0.34961295 0.5455227 -0.4316882 0.23416989 -0.35878584 0.21225172 -0.58480406 -0.34616083 0.008367164 -0.12673377 -0.22515629 0.07598582 -0.1339871 -0.0578228 0.035000324 -0.07864394 0.17283899 -0.43334106 -0.14144006 -0.14464125 0.09410129 -0.25577193 0.22898737 -0.2820678 0.32504264 0.7266734 0.18736048 -0.059651326 -0.3481858 -0.52223426 0.31516564 -0.0068960763 0.46923992 -0.27573222 -0.50347537 0.19479668 -0.041924194 0.11949688 -0.5065359 0.36521953 -0.17828368 -0.6703889 0.25003314 0.09287653 -0.28139886 -0.2278199 0.21148649 -0.06909049 0.17456256 0.25920394 -0.1903147 -0.3476954 0.0973113 -0.18425679 -0.46710542 -0.30436727 -0.57437134 0.6583828 0.20935392 -0.291903 -0.058008872 -0.07896798 -0.41923276 -0.11298157
99 0.546839 0.49714363 -0.55880237 0.18119335 -0.38861808 -0.14522989 -0.028144695 -0.4406657 -0.059875388 0.37506413 -0.11680586 -0.10219485 -0.117891274 0.0069674863 -0.21433327 0.1806898 0.32054493 -0.431567 -0.18216811 0.09527142 -0.18535458 0.097094744 0.16513288 0.14457491 0.082215264 0.5143369 0.14054905 -0.20277943 -0.13285536 -0.47331575 0.26707718 -0.15681057 0.5615035 0.31133386 -0.58380467 0.3609726 -0.06592703 0.35194597 -0.16968147 0.24616794 -0.26915938 -0.33260638 0.23318848 -0.017458837 -0.27238664 -0.19080253 0.2790062 -0.60098463 0.023632018 0.31460625 0.06757621 -0.42677253 -0.060718697 -0.2791457 -0.17711487 -0.26590565 -0.2632036 0.766856 0.62084514 -0.16408229 0.08791334 0.33215797 -0.2138451 -0.4279957
98 0.55088454 0.4559083 -0.5779869 0.23781466 -0.50667894 -0.19824576 -0.009801245 -0.5243263 -0.08020351 0.31889188 -0.12191466 -0.13120021 -0.14823137 0.0006955755 -0.2925004 0.31062764 0.3781631 -0.37470135 -0.11198386 0.16303845 -0.25150895 0.10201661 0.095589414 0.22645542 0.014841511 0.691382 0.18521214 -0.24851929 -0.051171653 -0.40822092 0.417307 -0.23634417 0.6406654 0.4078924 -0.6183708 0.3038647 -0.08390387 0.334619 -0.040934116 0.22316802 -0.31830853 -0.36362818 0.36037418 -0.10379582 -0.29966444 -0.19956282 0.3346011 -0.75984967 0.01246615 0.21700129 0.050900184 -0.56580186 -0.13068192 -0.3484457 -0.1623907 -0.2260209 -0.29818085 0.833967 0.7071947 -0.06640279 0.024221867 0.4079627 -0.24546164 -0.48919618
77 0.5280713 0.46674636 -0.56469333 0.32235938 -0.34145257 -0.064358406 -0.22812168 -0.28930128 0.09697419 0.19042037 0.1269388 -0.089409165 -0.33046454 -0.08613904 -0.31618336 0.01720666 0.42748123 -0.25329456 -0.24834715 0.11618255 -0.30289048 -0.07834004 0.24264555 0.057564016 0.15322872 0.68975586 -0.052689474 -0.29322308 0.16993894 -0.53571457 0.17246729 -0.09428723 0.35419858 0.118861996 -0.42428118 0.24055222 -0.09378848 0.30506808 -0.10332612 0.08050859 -0.14712113 -0.19870013 0.25128573 -0.06352473 -0.46054286 -0.19372797 0.37190443 -0.4230269 -0.00030870838 0.29349202 -0.083717555 -0.36423585 0.056626298 -0.28297096 -0.17887524 -0.066187635 -0.3037168 0.5416378 0.4356729 -0.07629658 -0.06667761 0.13667247 -0.32314786 -0.36565593
18 -0.068574995 0.39976075 -0.5103467 0.4931106 -0.5457246 -0.035232455 0.043756913 -0.6197935 0.27614915 0.48483583 0.12164802 0.07722627 -0.17716654 -0.46686342 -0.21346733 0.19892062 0.07774297 0.03112292 0.065872595 -0.22766197 0.14579797 -0.18950781 0.06959233 0.105819464 0.040046513 0.44487587 0.047898423 -0.22449383 -0.5253151 -0.4990623 -0.20806304 -0.021384904 0.30292475 -0.24176803 -0.11680743 0.39667088 -0.56511295 -0.3382134 0.012614672 0.04817045 -0.0016560588 0.41747248 0.080231674 0.502287 -0.13010445 0.03276869 -0.13402693 0.10365392 -0.09691599 0.819177 0.10389412 0.21464244 0.01372059 -0.6872215 -0.45821694 0.00641959 -0.120831095 0.64096904 0.27293625 -0.29864708 0.15646972 0.11629589 0.11479275 0.26869112
84 0.7924161 0.75085336 -0.6895422 0.20800442 -0.24985567 -0.14896989 0.108871706 -0.24844997 0.26773065 0.16546084 0.36453483 -0.006158344 -0.042831894 -0.14817551 -0.5406598 -0.17878085 0.5641548 -0.37337032 -0.5318476 0.43482476 -0.4824498 -0.13519031 0.18092255 0.25810236 0.19406743 0.58508146 -0.45668697 -0.5939619 0.24353963 -0.51092327 -0.5025549 0.04758793 0.43408036 0.36463875 -0.112844795 0.5342279 -0.35833022 0.44329184 0.11303601 -0.48019198 -0.22922534 0.25106168 0.08149097 -0.10107475 -0.5091706 -0.08603531 0.11652367 -0.6231592 -0.21096508 0.75741404 -0.115840286 -0.1794658 0.07018022 -0.58433354 -0.08303504 0.03910638 -0.26345673 0.76246315 0.7377323 0.4209363 -0.60309875 0.88787055 -0.1523233 -0.59805
82 0.7352462 0.589435 -0.5368009 0.29120183 -0.3738449 -0.15766244 0.31237957 -0.33159494 0.36433235 0.41161078 0.5359622 -0.078819044 -0.21574357 -0.10670534 -0.44256583 -0.19521442 0.675228 -0.07263797 -0.32609347 0.4321072 -0.5494493 -0.047149796 0.19406648 0.5594459 0.10358538 0.1764588 -0.38503295 -0.5234508 0.2648511 -0.41259634 -0.5215809 0.010106997 0.23090792 0.4246252 -0.32845014 0.52448046 -0.28163102 0.4739337 0.11168252 -0.25989172 -0.09942032 0.31771433 -0.06576137 0.05986832 -0.509347 0.10528228 -0.02928752 -0.6796725 -0.08466142 0.7354787 -0.3327804 -0.11874916 -0.12233887 -0.41145205 0.16542934 -0.1600086 -0.14934182 0.53259444 0.6304191 0.45668676 -0.40556502 0.9068422 -0.1388826 -0.3836599
1 0.5394727 0.6129741 -0.19020641 -0.7365598 0.63045496 0.6882046 -0.45609885 -0.23251002 0.10075933 -0.5088787 -0.9137091 -0.17390183 0.5055474 0.2623459 -0.56302583 -0.17155583 0.26298037 0.08689925 -0.24634716 0.21019876 0.919752 -0.22763233 -0.22004706 -0.13009141 -0.31180853 0.5787 -0.90578616 -0.07423642 -0.650099 -0.19986923 -0.22841398 0.23373371 0.37207285 0.6122336 -0.88009566 0.6624428 -0.8470085 0.3758218 0.22360283 -0.40663522 -0.048568014 0.053697906 0.097688064 -0.82440954 -0.4426403 -0.18910626 -0.45456403 -1.2081448 0.16019642 0.8527203 0.5469694 -0.17487969 -1.0771703 -0.20825666 -0.26296866 -0.4118979 0.35856846 0.1806334 -0.009214294 0.18816549 0.26913387 0.90687305 0.28960428 -0.2674763
86 0.36753246 0.33285493 -0.5132233 0.24824494 -0.3657731 0.06787006 -0.26795378 -0.52668375 -0.011023709 0.21235837 -0.18248664 -0.2475597 -0.4680418 0.08807549 -0.2919226 0.17432183 0.30540454 -0.2357111 -0.18142633 0.2135948 -0.20251207 -0.06273851 0.12102961 0.0635861 0.23022126 0.7026011 0.049983166 -0.30719993 0.052307352 -0.27569747 0.49634808 -0.11200894 0.2743715 0.40063122 -0.93361497 0.23948473 -0.026518134 0.32930863 -0.12875323 0.40412223 -0.20434111 -0.45131516 0.2863702 -0.16862132 -0.4353787 -0.12204229 0.4494876 -0.83794534 0.21412809 0.06482194 -0.026643695 -0.5942463 -0.27380958 -0.3527946 -0.29892576 -0.26958883 -0.32577342 0.61863554 0.29476398 -0.20819864 0.0811041 0.016624186 -0.21436717 -0.39269915
15 -0.21431042 0.41015947 -0.32873607 0.4905113 -0.3441595 0.13803968 0.09371581 -0.6561064 0.51735944 0.5674112 -0.065928414 0.029565213 -0.4241475 -0.13925497 0.11021692 0.15090494 0.14208668 0.35950184 0.09050733 -0.42504966 0.4170748 -0.3209343 0.012711094 0.36724186 0.17986304 0.38370347 0.046363283 -0.19010118 -0.41509584 -0.42166758 0.19016044 -0.21487914 0.042681135 -0.46853 0.069364585 0.06482715 -0.63776296 -0.2557382 -0.06880476 0.05204193 -0.036840502 0.49939945 0.04087155 0.37502295 -0.32164195 0.101196125 -0.641469 0.15843688 0.05794163 0.73925734 -0.37197694 0.14019437 -0.21214952 -0.36720654 -0.14690301 -0.15886633 -0.2924993 0.6493457 0.37331676 -0.23127022 0.23243453 0.38672534 0.15997829 0.5504633
23 0.6481135 0.8857109 -0.32957187 -0.5493502 0.2140423 0.81492966 -0.21497715 -0.7037779 0.9768433 -0.3016029 -0.98641145 -0.03080213 0.50777465 0.10011524 -0.20721458 -0.19196998 -0.13089564 -0.39369765 -0.31514505 -0.06561127 0.37931854 -0.6339458 -0.5056318 -0.14506128 -0.3685208 0.9122363 -0.46405998 0.0768488 -0.20545772 -0.37553653 0.009589171 -0.0554175 0.0072248527 0.1421643 -0.1680971 0.04352294 -0.3208887 -0.49130216 -0.25090387 -0.71815777 -0.74668485 0.13785669 -0.21084163 -0.46881834 -0.7385909 0.3267581 -0.15580486 -0.24706204 -0.4515628 0.9332671 0.03325713 0.035088897 -0.3975997 -0.5193572 -0.27272072 -0.12270706 -0.4510028 0.39044583 0.37416178 0.53676474 -0.7742592 0.8627442 -0.76757115 -0.2556416
81 0.636122 0.5667974 -0.5484625 0.208925 -0.3032099 -0.17863558 0.15934516 -0.311574 0.19123325 0.42846656 0.49327675 -0.00138178 -0.15232606 -0.06938441 -0.51960284 -0.15693091 0.6154988 -0.019388953 -0.31037024 0.412812 -0.51717836 -0.076461665 0.23674597 0.48489234 0.039280426 0.18391697 -0.34431794 -0.5007455 0.2279547 -0.33579907 -0.44679323 -0.08922803 0.3839811 0.38038296 -0.2645435 0.42515594 -0.2837283 0.4312047 0.156325 -0.14964534 -0.05723208 0.3748949 -0.0072327266 0.024853282 -0.42096975 0.07440316 -0.009178257 -0.6596751 -0.1362138 0.59512985 -0.23648481 -0.17643973 -0.131592 -0.3870177 0.13171378 -0.116316445 -0.0960708 0.53176117 0.63027424 0.32823902 -0.29658785 0.81108594 -0.15835816 -0.30809778
91 0.48458385 0.44114792 -0.3292026 0.36252406 -0.5036922 -0.07370432 -0.021776551 -0.62638485 -0.03966767 0.123750426 0.16316436 -0.2189094 -0.41197574 0.008625309 -0.038814053 0.14474548 0.5368669 0.013900483 0.023730578 0.10303684 -0.4825503 -0.054883506 0.20606981 0.45462444 0.2752247 0.398003 0.14188622 -0.17153466 0.043261603 -0.21481067 0.55591345 -0.30517253 0.23369904 0.28855184 -1.0166025 0.100143254 0.17904411 0.33496687 -0.2900536 0.71211755 -0.11064046 -0.4661693 0.14142895 -0.028082177 -0.3747749 0.010833906 0.0883576 -0.7397148 0.45554814 0.14920966 -0.46735328 -0.6045431 -0.42524785 -0.06458668 0.1626756 -0.44890594 -0.46614575 0.62083 0.36506528 0.029430045 0.08135619 0.47274846 -0.33241642 -0.02855203
12 -0.17532225 0.21628499 -0.19067746 0.3626607 -0.2915842 -0.007987768 0.23342139 -0.46922266 0.3183759 0.20026213 -0.03158059 -0.123310015 -0.12548548 -0.09854115 0.027555235 0.20254499 0.052353017 0.074188806 -0.025032917 -0.08691594 0.20658916 0.021717798 -0.054366108 0.36909485 0.30492005 0.28073567 0.11010331 -0.2591961 -0.43987805 -0.13891599 0.087126136 -0.08675049 -0.13990128 0.07847977 -0.012729655 0.0771056 -0.4354974 -0.06338026 0.06389315 0.0028445278 -0.067828834 0.14511967 -0.0038607526 0.20007741 -0.09719961 0.06080409 -0.082686916 -0.24571843 0.06768671 0.36493275 -0.08186806 0.12123802 -0.06688629 -0.38931426 -0.20912752 -0.22087024 0.024197076 0.8313147 0.34500334 -0.111235715 0.18010904 0.34322256 0.19824575 0.16095132
76 0.6426583 0.56078696 -0.60984164 0.40990067 -0.40215194 -0.25117418 0.08278448 -0.28782082 0.02351555 0.30223066 0.43531403 -0.11245385 -0.4146034 -0.12354047 -0.41999835 0.03348085 0.62880564 -0.32806537 -0.46506774 0.32491782 -0.5663224 -0.09871205 0.17032431 0.3344645 0.34621453 0.6115719 -0.19596183 -0.5370543 0.31407112 -0.40785575 0.0056925076 -0.1609065 0.26508293 0.4153521 -0.48704228 0.35995224 -0.16376203 0.36631826 0.054910567 0.002794119 -0.19605109 0.010470769 0.21507302 -0.037159827 -0.46648893 -0.18420357 0.26524994 -0.71818155 0.019385194 0.44374946 -0.111744866 -0.390271 0.007197244 -0.45275003 -0.020481028 0.017309044 -0.28526512 0.8378504 0.5578248 0.06656252 -0.19916911 0.56784225 -0.15745632 -0.3878415
40 0.49354663 0.03599123 -0.3105014 0.41698834 -0.23350535 0.2587374 -0.5327733 -0.35073423 0.22633928 -0.470255 0.17817429 0.37161905 -0.54202926 0.34954908 -0.49379382 -0.42034808 0.59935045 0.5413318 -0.47768366 0.27083132 0.0103985295 -0.3054369 -0.47079164 0.34126735 -0.15662824 0.55773133 -0.091642685 0.29071328 0.090100415 0.124577545 0.52203494 -0.0469197 0.81872886 0.20470321 -0.48502916 0.0061210906 -0.35639495 0.4929129 -0.3009254 0.14480902 0.08739321 -0.2766802 0.1067902 -0.30042985 -0.45079425 -0.21524377 0.124744646 -0.3828941 0.04166767 0.019976903 -0.25254917 -0.5464404 -0.5669761 -0.4109347 -0.22105351 -0.05845063 -0.6956013 -0.17205827 -0.25783983 -0.07302001 -0.0027573877 0.56919444 -0.5957541 -0.12479715
43 -0.16507953 0.42828217 -0.076326534 0.66565996 -0.60934776 -0.00899489 -0.42535296 -0.29919744 0.39206204 -0.42980143 0.048585046 0.23548786 -0.30070394 -0.088465236 -0.03937809 -0.08874873 0.24839525 0.33350828 0.032159388 0.005050528 0.019350342 -0.43315044 -0.38874656 -0.10222765 -0.0774237 0.62734425 -0.2431267 0.06124397 -0.12333357 -0.15105475 0.36273095 0.029101789 0.31819797 -0.31478593 -0.07807727 -0.14481765 -0.18292023 -0.13165465 -0.11040006 0.15626286 -0.118775986 -0.0028700982 0.17712036 0.1852522 -0.42041764 0.11957999 -0.3512744 0.26659214 0.25169554 0.3015472 -0.05116632 -0.14313681 -0.14668934 -0.28348008 -0.13375813 0.04209963 -0.2578139 0.17394084 -0.2389279 -0.01175099 0.04977559 0.16466926 -0.10697941 0.33667699
74 0.6037617 0.8489741 -0.32247618 -0.6337747 0.32875368 0.816018 -0.105306745 -0.6013478 1.1073034 -0.3427668 -0.9937804 0.052594814 0.2903516 0.041743886 -0.32758933 -0.27952325 -0.1209911 -0.5092279 -0.15416229 -0.19628812 0.3191656 -0.42876157 -0.5654672 0.12753406 -0.48562133 1.0871295 -0.631288 0.25035223 -0.072475635 -0.6138804 0.18433194 0.1601037 -0.041552365 0.28535867 0.07772784 0.018324612 -0.48777813 -0.56994724 -0.38241893 -0.7372153 -0.6095537 0.09621465 -0.24005543 -0.52957857 -0.6910928 0.16054244 -0.11374302 -0.46080193 -0.6245665 1.0094869 -0.13477865 -0.19350559 -0.46413183 -0.43708795 -0.10508753 -0.26083735 -0.47333896 0.4353849 0.45906934 0.46577677 -0.78571683 0.8511738 -0.6940555 -0.050071985
83 0.6585763 0.5455187 -0.49579138 0.24190971 -0.30442965 -0.17554203 0.26829258 -0.31526947 0.23737167 0.34815434 0.41367427 -0.093436986 -0.18766898 -0.060149033 -0.4437996 -0.123664945 0.5682431 -0.109488726 -0.32097375 0.38669762 -0.50866556 -0.025330761 0.17210451 0.53361875 0.091539145 0.22808206 -0.32802814 -0.46048838 0.23859368 -0.32615414 -0.31368896 -0.08241169 0.24181123 0.48991114 -0.32721618 0.40189305 -0.24454448 0.42483664 0.15754782 -0.18383472 -0.10442996 0.265533 -0.019589268 -0.04972387 -0.4487876 0.07050867 0.028065924 -0.71477824 -0.04477022 0.5416934 -0.23625177 -0.17587864 -0.14547376 -0.42057908 0.16210341 -0.12501885 -0.068114534 0.5751542 0.60558826 0.32506895 -0.2917564 0.7960577 -0.13175096 -0.37065965
80 0.7161621 0.6573603 -0.5035769 0.22304028 -0.28964755 -0.2344789 0.41111007 -0.3975726 0.30041373 0.43209758 0.50523615 -0.07688659 -0.11746431 -0.08786554 -0.48051667 -0.12584917 0.69838834 0.02086193 -0.30724955 0.41919845 -0.631687 -0.043038998 0.17324072 0.7785192 0.043967243 0.14667691 -0.3997293 -0.53011596 0.23838355 -0.30161652 -0.39614177 -0.11510314 0.2558987 0.5490493 -0.30419266 0.4088397 -0.26170152 0.43879792 0.23254365 -0.19634923 -0.0980638 0.44195062 -0.11799556 -0.04549737 -0.46714061 0.15416464 -0.17425595 -0.82631797 -0.057715148 0.6985488 -0.33386993 -0.14699852 -0.24086967 -0.3879282 0.34016955 -0.1437255 -0.046771187 0.6251758 0.7157375 0.47457543 -0.3108463 1.1137404 -0.11988279 -0.28508696
57 -0.087206155 0.4880738 0.18063115 0.12986611 0.13443892 -0.050458178 0.018389653 -0.7900375 0.35077667 0.5571012 -0.38373238 -0.50988245 -0.32464623 0.4939946 -0.05815424 -0.56880176 0.7672513 0.4998516 0.2747895 -0.009397942 0.00797905 -0.57402974 -0.60554063 0.79353607 -0.20726933 0.5703298 -0.71485317 -0.36304095 -0.08347246 0.21288584 0.4919383 0.039696205 -0.39007768 0.36907277 -0.96917534 0.7077314 0.02956214 -0.010430412 -0.07522769 0.2595709 -0.05224881 -0.15074746 -0.12995726 -0.5172553 -0.5896825 0.16302216 -1.0198636 -1.0448306 0.33790547 0.82925016 -0.2088129 0.10518174 -1.1372674 -0.34030804 0.6772143 0.01699356 -0.08967811 -0.1953955 -0.36123422 -0.0042480384 0.16821168 0.88233966 0.050809756 0.50238323
53 0.7416304 0.689117 -0.060970403 0.10901458 -0.3895671 0.16272157 -0.35867932 -0.6838736 -0.08852834 -0.057612248 -0.084791616 0.015135192 0.017715737 0.31669295 0.06189225 -0.30918512 0.5591389 0.021765364 0.067349814 -0.014327664 -0.045229852 -0.12659104 -0.15817282 -0.06412578 -0.6088011 0.13618004 -0.37306023 0.2885644 0.18076795 -0.47690144 -0.014442996 0.11581703 0.62321246 0.27310437 -0.72026193 0.24610233 0.13272232 0.14271924 -0.39530066 -0.0017424198 -0.12413107 -0.047616545 0.068005756 -0.04587439 -0.33276844 -0.34856963 -0.19464149 -0.22893134 0.19294228 0.56160814 -0.041339662 -0.39686128 -0.50625086 0.07926218 0.14809191 -0.6289311 -0.02911212 -0.38147384 0.013008931 0.10215257 0.08226086 -0.096347496 -0.7925213 -0.17032142
37 0.6109611 0.31507644 -0.49638775 -0.08681978 -0.20016712 -0.28215182 -0.53643197 -0.09617948 0.38060528 1.0179398 0.13227485 -0.06990124 -0.3673271 0.2675164 -0.47842023 -0.39647317 0.74702036 -0.3654143 -0.08827472 0.29230145 -0.25807187 -0.4824412 0.30981418 0.23618491 -0.19427536 0.50284 -0.24279976 -0.4359139 0.09718207 -0.6657732 -0.16593379 0.15171205 0.036319703 -0.09058659 -0.6658531 0.7874983 0.2548995 0.23653713 -0.3248153 0.31384858 -0.047187768 -0.14168245 -0.14918955 0.19789977 -0.7297552 -0.00324752 0.104688756 -0.77898884 -0.21603203 0.6181918 -0.15021025 -0.07611719 -0.04980063 0.24885443 0.13366249 -0.14557438 -0.1895441 0.08604949 0.050876826 -0.29764506 0.12006991 0.38615748 -0.6605959 -0.086937085
106 0.42262948 0.59207433 -0.4206741 0.2735852 -0.3889976 0.0025532567 -0.46173587 -0.24175045 0.07994038 -0.050318994 0.030053025 0.10160663 -0.19390094 -0.04451995 -0.10672661 -0.08887171 0.34568346 -0.40985936 -0.16655226 -0.032053266 -0.07411319 -0.32326794 0.08826265 -0.24787395 0.12872402 0.79466146 -0.0010572358 -0.12635915 -0.067454904 -0.50056434 0.27862346 -0.031215124 0.4389836 -0.21598594 -0.36103788 0.1838215 -0.031214654 0.025601922 -0.33636984 0.21905226 -0.20035093 -0.37001806 0.20925 0.06342173 -0.43082082 -0.26262856 0.15616095 -0.10166379 0.038555864 0.2814229 -0.10372422 -0.3276495 0.09200738 -0.14808871 -0.28816512 -0.059128687 -0.5317988 0.47612616 0.22968245 -0.17066886 -0.14340822 0.107945375 -0.48160902 -0.11183541
107 0.51162976 0.05699443 -0.033673942 0.2102511 -0.42543474 0.9017218 -0.36702836 -0.9304928 0.40639263 -0.3702336 -0.10021516 -0.029345645 -0.5575428 0.4863602 -0.2162042 -0.7052817 0.25578687 0.8355546 -0.015814442 0.34194872 0.17791846 -0.1294965 -0.32878107 0.32659125 -0.5809911 -0.23878452 -0.7474108 0.3433722 0.11440804 0.12634064 -0.047998406 0.059376713 0.596415 0.37194797 -0.97257495 0.15487169 -0.4976353 0.6122077 -0.42257586 -0.18615161 -0.02365223 0.21274975 -0.1211456 -0.19098963 -0.61830646 0.22256891 -0.12666202 -0.42544267 0.1598842 0.30877098 -0.36527124 -0.404985 -1.0995429 -0.45230404 -0.12577935 -0.77919775 -0.2024139 -0.58524466 -0.26229724 0.5136836 -0.113026135 0.3657465 -0.62585366 -0.32803127
108 0.36424986 0.09592917 -0.041784417 0.2865822 -0.38289496 0.6659207 -0.11713009 -0.8328758 0.43053648 -0.006226752 -0.09060262 -0.0433237 -0.4405385 0.35858455 -0.20258372 -0.51510954 0.38283044 0.8222668 0.166381 0.24462153 0.046934344 -0.1258342 -0.2971951 0.41310552 -0.5843713 -0.19903763 -0.55409795 0.2324485 0.17994422 -0.039469264 -0.10716386 0.01894827 0.52088267 0.3783094 -0.7707459 0.19881378 -0.39382526 0.49136606 -0.16886878 -0.05105328 0.0072768047 0.31043252 -0.09023372 -0.13594197 -0.5309808 0.25175965 -0.18493123 -0.46455577 0.1625548 0.36790124 -0.33720273 -0.32546952 -0.88155323 -0.47805196 0.031046288 -0.64293563 -0.005878908 -0.51082903 -0.21121256 0.34649977 0.0673648 0.21176012 -0.5282067 -0.15378158
8 -0.1253936 0.5533967 -0.40527195 0.5593638 -0.46000275 0.054341022 -0.072013386 -0.51636446 0.53708553 0.32594392 0.17001362 0.049772866 -0.04242544 -0.34330642 -0.24763192 -0.00068575365 0.20246734 0.16677989 0.2728311 -0.4439828 0.24443397 -0.40935037 -0.06487504 0.09190486 -0.1053719 0.6444656 -0.21630058 -0.0687808 -0.37969986 -0.6630426 -0.11273231 -0.041262824 0.17364752 -0.3914412 0.16664639 0.3601392 -0.6071208 -0.6523757 0.06068735 0.01515174 -0.10322124 0.4794104 0.03713263 0.39529228 -0.42057326 0.05355789 -0.269416 0.34106484 -0.2781993 0.88975114 0.13055238 0.31480843 -0.036457848 -0.68818706 -0.24110071 0.14383414 -0.30490425 0.50638634 0.16366094 -0.13620554 0.033214882 0.1848606 -0.13878293 0.42588374
20 -0.12344554 0.23447458 -0.5641391 0.514124 -0.36797118 0.08609706 0.23423538 -0.50631726 0.27718613 0.5054759 0.016075969 -0.050725862 -0.24819274 -0.18625893 -0.04097594 0.23160897 0.08123167 0.033762272 0.06160345 -0.24083745 0.24252823 -0.034684524 0.1340402 0.3396743 0.3002426 0.44613355 0.1874056 -0.23874858 -0.43182817 -0.41497874 0.08458635 -0.04119677 0.14835654 -0.07198642 0.0728311 0.24040233 -0.6113045 -0.07479135 0.12968796 0.06213832 -0.07435921 0.27407673 0.11973906 0.34017238 -0.2102652 -0.05981562 -0.0077439435 -0.11414867 -0.03456936 0.5553799 -0.04604981 0.18377672 0.046161883 -0.6161481 -0.37099788 -0.044239167 -0.106588006 0.9908455 0.4250692 -0.33199894 0.23365083 0.17654184 0.16960897 0.13297038
17 -0.18026939 0.224985 -0.24671899 0.35873726 -0.21013662 -0.25283417 0.1389282 -0.59157044 0.4676778 0.79914594 -0.15306768 -0.14907494 -0.5203223 0.0785286 0.31892812 0.1824299 0.33926204 0.16497087 0.015804222 -0.3064758 0.15488344 -0.14291523 -0.004852447 0.7268182 0.29844972 0.4067584 0.08996423 -0.27902633 -0.39813566 -0.21072192 0.42432776 -0.09036486 -0.27232352 -0.31848645 -0.11779325 0.2536311 -0.2869349 0.06612456 -0.17520659 0.452017 0.14996839 0.0239596 -0.048065964 0.3893636 -0.3717695 -0.018645938 -0.59558874 -0.33896473 0.061833482 0.6538491 -0.29530016 0.122976825 -0.1575649 -0.026289867 0.23577261 -0.019908959 -0.116158806 0.7123808 0.26561245 -0.37359983 0.5843551 0.5532579 0.04095349 0.7002715
36 0.4676131 0.5176885 -0.4991366 -0.087547064 0.05912443 0.09417307 -0.28218898 -0.09291884 0.31769451 -0.069152035 -0.47720733 0.005377118 0.029086255 0.1703199 -0.20125565 -0.31300637 0.3624703 -0.67465967 -0.07895196 0.055882752 0.11179831 -0.16153465 0.05690199 -0.16606422 0.07700774 0.7256879 -0.1767737 -0.057740938 -0.05023275 -0.43708834 0.03452453 0.023369133 0.19585311 0.097814895 -0.36369878 0.42987555 -0.23003592 0.18192601 -0.11056378 -0.16194601 -0.32934526 -0.5041999 0.23683983 -0.45902342 -0.5780658 0.02952564 0.319615 -0.29110244 -0.076659895 0.38700175 0.035021774 -0.044416048 0.014640171 -0.29733765 -0.1974628 -0.12713444 -0.14179447 0.6594759 0.3345012 0.011411196 -0.16644078 0.23446149 -0.3612568 -0.5067414
58 -0.040275447 0.62403965 0.1777532 0.110809006 0.11043385 -0.092159785 -0.049906183 -0.7793485 0.2931917 0.5790736 -0.392915 -0.47329733 -0.39230603 0.611909 -0.025925545 -0.5561012 0.8023283 0.39600152 0.19240752 0.00787851 0.07396783 -0.61406505 -0.609956 0.85109127 -0.22837268 0.7230688 -0.75882447 -0.45228767 -0.14361647 0.22004674 0.5628635 0.053923663 -0.359415 0.33223152 -0.9523236 0.6715249 0.01080873 -0.07126111 -0.09133418 0.24790114 -0.029578527 -0.22802855 -0.18113625 -0.5640294 -0.6667734 0.08747809 -1.0878247 -1.0490248 0.40257707 0.7765979 -0.18349314 0.032532163 -1.0832882 -0.37790388 0.7284631 0.16733645 -0.14472245 -0.13519876 -0.38862303 0.0011025812 0.18151279 1.0177194 -0.016892347 0.56732756
10 0.044723466 0.9594439 -0.36724424 0.6366199 -0.45227697 -0.093718246 -0.30512816 -0.42291972 0.53130335 0.07541961 0.22841977 0.15118821 -0.09294745 -0.38096666 -0.29233184 0.120355904 0.46804667 0.012764778 -0.07697274 -0.5237741 0.20234647 -0.7545178 -0.16499297 8.507727e-05 -0.080652274 0.99865395 -0.3017233 -0.0831033 -0.21959141 -0.90035844 0.1604499 -0.19769534 0.25790167 -0.68484324 0.22792898 0.15529035 -0.52203673 -0.89778984 -0.06801128 -0.0087381685 -0.21620263 0.4597353 0.12608905 0.30598372 -0.69429326 -0.091818385 -0.5734834 0.55503 -0.16464154 0.94429034 -0.047097098 0.17117307 -0.076465376 -0.4843701 -0.16920264 0.25517082 -0.7267447 0.4603747 0.25753495 -0.03629928 -0.108437255 0.47307378 -0.33158377 0.676086
87 0.45313004 0.33291245 -0.40227196 0.34383363 -0.3591893 0.11600882 -0.12482523 -0.6165688 -0.020265425 0.10451543 -0.0062915427 -0.27692991 -0.5184449 0.12400956 -0.36971882 0.10135376 0.37913656 -0.05942426 -0.16044508 0.17618412 -0.31357434 0.025091069 0.08784826 0.29480308 0.2671595 0.57067335 0.023046637 -0.2883855 0.105783716 -0.19833213 0.5724233 -0.15659279 0.22702926 0.5956453 -1.139777 0.1636389 0.06727052 0.42665535 -0.097540595 0.45000076 -0.22863607 -0.5115948 0.22964092 -0.2238529 -0.44354567 -0.08872898 0.38752916 -0.9940845 0.4187689 0.032816593 -0.18523017 -0.65696627 -0.35001564 -0.3390644 -0.18380332 -0.39444453 -0.34155363 0.62217605 0.18706337 -0.21408117 0.06973323 0.11517184 -0.23366718 -0.3718429
105 0.30475396 0.018594148 -0.1093866 0.32029355 -0.36425757 0.62376064 -0.1954891 -0.7658869 0.4123248 -0.049438525 -0.051000703 0.03839452 -0.54619277 0.36983028 -0.30444726 -0.5325763 0.37066498 0.9123278 0.035245165 0.30878615 0.05446079 -0.17197098 -0.37074363 0.43540394 -0.4770093 -0.08003568 -0.47882792 0.2018005 0.15490222 0.08394814 -0.012413939 -0.020260043 0.5942445 0.3427996 -0.7302172 0.1483146 -0.4802226 0.54723746 -0.12942971 0.008013567 0.022868657 0.26215833 -0.010987647 -0.15660243 -0.5279351 0.23502739 -0.15952522 -0.4929805 0.15350376 0.29286864 -0.3608709 -0.39031565 -0.87194633 -0.5580398 -0.043393318 -0.522084 -0.128422 -0.44004858 -0.23326358 0.31987935 0.06095063 0.31351212 -0.4774843 -0.103485025
34 0.2694195 0.6741861 0.11346177 -0.06895012 -0.03317723 0.24346972 0.052340895 -0.5796664 0.5699707 -0.12011219 -0.13268566 -0.0017991937 0.084962755 -0.05493602 0.2331788 -0.23198764 0.2273063 0.28297162 0.1800981 -0.23507781 -0.14843692 -0.34620836 -0.22285008 0.39192683 -0.08005937 0.2243109 -0.30473042 0.11560164 -0.27483502 0.00666763 0.15217888 0.022960372 -0.34260345 -0.13104859 -0.23444508 -0.15704232 -0.04645195 -0.20932385 -0.37037763 0.0009835913 -0.29405525 0.014779602 -0.34964648 -0.16506709 -0.33278957 0.18663551 -0.70528 -0.18826424 0.36411974 0.52945936 -0.5852451 -0.032675583 -0.6048817 0.21196502 0.3570574 -0.39820805 -0.45335427 0.071619324 0.074994296 0.5133534 -0.25984913 0.95092446 -0.31189567 0.29526863
92 0.4401157 0.2093685 -0.38480094 -0.047367 -0.15075111 0.0031488657 -0.0954605 -0.33206174 0.031641614 0.5171429 -0.17132992 -0.18687579 -0.0913295 0.12200776 -0.42826134 -0.034109984 0.18156111 -0.2880223 -0.15629157 0.31477833 0.06459673 0.01618511 0.16095005 0.19460599 -0.12896419 0.16478579 0.025771426 -0.13570195 -0.1957181 -0.41970867 -0.21845153 0.066341415 0.4346655 0.5564812 -0.6407104 0.555472 -0.18936352 0.45699993 -0.04198947 0.04657768 -0.1177757 -0.15672393 0.083149 0.064204544 -0.14109628 -0.098673254 0.36311886 -0.829006 -0.076147765 0.34666148 0.20225008 -0.19837533 -0.29047698 -0.23359215 -0.2285786 -0.4994467 0.11125735 0.55219984 0.2947686 -0.38422188 0.32811594 0.1744281 -0.10497313 -0.37899426
41 0.33829832 0.214201 -0.21013354 0.39460954 -0.29937366 0.38154396 -0.545365 -0.40092558 0.26139113 -0.3584518 0.16127102 0.18488215 -0.64986634 0.23801413 -0.49389815 -0.40551355 0.34449983 0.57464814 -0.25536814 0.15564033 0.03293156 -0.3743228 -0.48819688 0.2123005 -0.20850979 0.6571741 -0.20651741 0.3757271 0.25355408 0.07501977 0.38231143 -0.03517598 0.73977226 0.12993863 -0.63228893 -0.0874384 -0.5515397 0.2773891 0.01425946 0.080941394 -0.05450047 -0.022287874 0.24786372 -0.22002335 -0.52950424 -0.20170274 0.014303583 -0.19379267 0.10858196 0.16320643 -0.2409704 -0.56900305 -0.45224476 -0.5143501 -0.14135872 -0.07115634 -0.51218855 -0.2346913 -0.19667175 0.07812146 0.069162026 0.22782063 -0.70525014 0.14371443
38 0.63427204 0.5889654 -0.502154 -0.16157025 0.04983313 -0.2417738 -0.65220076 -0.21504004 0.38983846 0.98147327 0.08291915 -0.19468488 -0.15714425 0.32909417 -0.44332096 -0.52503866 0.9814709 -0.48142406 -0.25301048 0.30377683 -0.22971968 -0.5485557 0.3233102 0.20459187 -0.1690491 0.529322 -0.3961568 -0.42143393 0.15931815 -0.603556 -0.22841889 0.104649134 -0.07718324 -0.15889476 -0.6377531 0.79096866 0.2067414 0.18693164 -0.4470978 0.434791 0.03345878 -0.23434527 -0.30144334 0.2729323 -0.819749 -0.038994957 0.032611683 -0.70685655 -0.209872 0.6198958 -0.10687163 -0.17530403 -0.23611082 0.33110094 0.25619313 -0.03307369 -0.36374366 0.08735965 0.17120679 -0.2931932 0.12872764 0.5515522 -0.8427449 0.1702944
85 0.3739576 0.3595645 -0.2808537 0.35209268 -0.41008544 0.033970658 -0.032848213 -0.47001022 0.0931154 0.059690483 -0.013442656 -0.15084882 -0.3412153 0.023234846 -0.14980783 0.1367131 0.3204948 -0.06801623 0.07031403 -0.03445439 -0.23799208 -0.041755665 0.08196964 0.2971602 0.11452938 0.44802842 0.1846908 0.04429442 0.0032044158 -0.26158673 0.5458546 -0.1997359 0.22901636 0.32230335 -0.79110456 0.11280661 0.08073026 0.10138019 -0.11337438 0.48976853 -0.16102181 -0.4685097 0.18069325 -0.121573 -0.35069075 -0.022979802 0.23845474 -0.53839886 0.3190298 0.034706883 -0.25715518 -0.4597479 -0.34566936 -0.16693936 0.0012887208 -0.36014748 -0.3268212 0.47762623 0.23240368 -0.111943364 0.105468586 0.13141084 -0.33607355 -0.095925964
29 0.20468697 0.61610556 0.09298761 0.27651983 -0.30371785 0.11734782 -0.2798637 -0.31058893 0.3884595 -0.23341231 0.26035953 -0.053589135 -0.27511647 0.10392385 -0.25223982 -0.3765604 0.51564413 0.5015391 -0.025117122 0.038825154 -0.09590821 -0.4731332 -0.47050327 0.23992863 -0.24768136 0.34921837 -0.36421037 0.13630243 0.25312054 0.057685003 0.24609253 -0.07248804 0.17810334 0.04329842 -0.63704795 -0.007857079 -0.24358307 -0.0887613 0.1259421 0.06269515 -0.0044470984 0.13540824 -0.056772884 -0.054705575 -0.5366571 0.11013325 -0.5677477 -0.09968518 0.18835722 0.3590532 -0.41376293 -0.3784822 -0.49526998 -0.1362347 0.43765068 -0.18771228 -0.12785901 -0.3657788 -0.28786826 0.25611866 0.06972426 0.48702356 -0.5916277 0.44484022
32 0.17816225 0.4781067 -0.073812 0.030217582 -0.15308066 0.08566865 0.055168927 -0.2926101 0.24051297 -0.060665485 -0.064574674 0.019826101 0.10331399 -0.17955917 -0.06824166 -0.036572807 0.040275358 -0.12498342 0.15273161 -0.27980927 -0.10054649 -0.30241665 -0.07554251 0.027657153 -0.14246123 0.3659959 -0.044693064 0.08595719 -0.1046371 -0.22382905 0.16400829 -0.07412205 -0.006913734 -0.06277936 -0.16551203 0.07712879 0.065617554 -0.4574062 -0.043896016 -0.063136645 -0.18848918 -0.053706344 -0.013484145 -0.077338256 -0.22296421 0.07686694 -0.27373886 0.054953013 -0.015176339 0.40390354 -0.14604412 -0.0053801807 -0.15396601 -0.14630033 0.056399383 -0.020224258 -0.304351 0.17633393 0.08851896 0.14437087 -0.2646834 0.25633103 -0.25960806 0.17415133
94 0.44242463 0.37420616 -0.23660226 0.42258972 -0.60390913 0.07232955 0.17233117 -0.7409897 0.10401503 0.11753106 0.29477397 -0.09439117 -0.39576292 0.051610354 -0.040742308 0.026207892 0.47357354 0.34499353 0.1903509 0.12362979 -0.43425664 0.021990519 0.23661986 0.639968 0.17883964 0.013552106 0.21991105 -0.07278059 -0.07991614 -0.11369782 0.3889403 -0.2651411 0.30350882 0.34645048 -1.0200739 0.03487178 0.19028115 0.3626631 -0.24119633 0.7087514 -0.057914793 -0.30969983 0.0025479484 0.08581573 -0.31054515 0.21316832 -0.019813685 -0.74095964 0.5592245 0.11753508 -0.7228263 -0.52736497 -0.5928873 0.02919759 0.19565763 -0.74739134 -0.37089407 0.45287195 0.29896957 0.07895136 0.12557316 0.512785 -0.347207 0.055126626
42 0.5508157 0.119912066 -0.22352113 0.27460667 -0.17285827 0.23640744 -0.5797342 -0.4047197 0.230906 -0.32639042 0.11006323 0.16488485 -0.68196005 0.41380605 -0.31320706 -0.42916033 0.6012505 0.5247573 -0.3606755 0.2708149 -0.11722894 -0.3133141 -0.4012752 0.51876736 -0.2590715 0.60744804 -0.3793131 0.38014424 0.29999086 0.091134585 0.5173834 -0.073428534 0.6738496 0.1327055 -0.62646 -0.0547266 -0.39294 0.5351588 -0.3384637 0.35434383 0.038200382 -0.20712197 0.1783975 -0.2514049 -0.6128109 -0.21610513 0.001286127 -0.3992135 0.04135683 0.18653579 -0.311475 -0.58689743 -0.68329626 -0.28223503 0.10609578 0.030696819 -0.7437103 -0.24840143 -0.10088398 0.21690468 0.11111048 0.68619996 -0.76396906 0.20059931
50 0.01337575 0.42795113 -0.099453256 0.4093878 -0.31211916 0.2333432 -0.24966812 -0.40763855 0.4432383 -0.045498658 0.19208431 0.0126306 -0.39692467 0.014220062 -0.4582109 -0.32089663 0.31648457 0.58590883 0.0065834573 -0.03472915 0.07455413 -0.44143853 -0.52445495 0.11820427 -0.3126619 0.39017704 -0.32329515 0.17558603 0.2338935 -0.012107995 0.06788277 0.0010166995 0.348823 0.04493956 -0.4953747 0.07328627 -0.53981966 -0.12815928 0.34067014 -0.14023674 -0.064849176 0.39726484 0.020441221 -0.024370072 -0.5043176 0.03984905 -0.41280994 -0.0069645215 0.122276105 0.45473513 -0.15632683 -0.23308465 -0.33757365 -0.52066684 0.09799497 -0.073073626 -0.035549577 -0.30245098 -0.3013534 0.010169938 0.12500687 0.09544794 -0.43787235 0.31465814
54 0.8244494 0.790755 0.08469146 0.18948053 -0.3341312 0.21497364 -0.3188971 -0.5391463 0.08787738 0.046429235 -0.013325022 -0.3057128 -0.066792294 0.31793875 0.17885995 -0.24774982 0.78967273 0.10253727 0.21827546 -0.02110536 -0.07675709 -0.11714061 -0.04589332 0.21719657 -0.5076226 0.014368453 -0.50743854 0.2996294 0.26284885 -0.41806582 0.15205029 -0.030479994 0.3578595 0.28608477 -1.0395089 0.23162223 0.051665235 0.18911418 -0.4623526 0.25676027 -0.044134907 -0.18076208 -0.05854668 -0.14967367 -0.5296359 -0.051653065 -0.20487821 -0.28576255 0.13318498 0.5693576 -0.2931422 -0.40302598 -0.8070542 0.134983 0.45932835 -0.6663946 0.015153391 -0.3427359 0.013465516 0.16444294 0.24498717 0.18387276 -0.76118135 0.0128024295
30 0.5993005 0.49088866 -0.50234425 0.30177656 -0.43248636 -0.19010222 -0.10106041 -0.26911965 0.08091761 0.3539541 0.19025715 0.061591588 -0.20553479 -0.13768926 -0.37515727 0.049972877 0.4147068 -0.2514375 -0.052083574 -0.0047934256 -0.24590203 -0.2747452 0.22521257 0.14587824 -0.09438783 0.5014655 0.2173637 0.10749105 0.010714732 -0.68372834 0.20539463 -0.11079931 0.6266157 0.16156101 -0.46917692 0.35477808 -0.034288567 0.077093765 -0.15158664 0.2601532 -0.05500431 -0.20629193 0.24268039 0.12419671 -0.29386947 -0.2479586 0.20903084 -0.28384146 -0.04598304 0.44110897 -0.1579597 -0.29283795 -0.12109783 -0.1290976 -0.04589873 -0.2822402 -0.30675066 0.55763006 0.25982332 -0.34750596 0.17559244 0.15693976 -0.4743402 -0.07259297
33 0.27161783 0.54377663 -0.048146416 -0.037643787 -0.090568475 0.12424251 0.26960903 -0.4797269 0.49883553 0.0086412 0.019775001 0.00076148706 0.096757405 -0.19328961 0.15490907 0.03912604 0.13210273 0.15445523 0.34553516 -0.35283986 -0.21331647 -0.21431282 -0.023555938 0.3365221 -0.102863565 0.1332473 -0.02035678 0.23181151 -0.07619265 -0.15746057 0.2597261 -0.12499837 -0.22682053 0.027459953 -0.184336 -0.17700772 0.025557213 -0.3858641 -0.11332473 0.15811487 -0.2075552 0.120569445 -0.20208278 -0.009458002 -0.30215988 0.20256041 -0.39187497 -0.007370993 0.17595246 0.38611853 -0.47946438 -0.07853056 -0.38877776 0.154614 0.4278687 -0.2963328 -0.33526474 0.1883593 0.1945726 0.27734303 -0.16635884 0.6043764 -0.3561466 0.33537298
24 0.31330845 0.37015754 -0.19257478 0.2591917 -0.29161376 0.21174733 -0.22119485 -0.3504643 0.2533641 -0.009506525 0.096346356 0.0771251 -0.16718714 -0.112585396 0.055322357 -0.05309496 0.20943971 0.03154634 0.12702708 -0.3197592 0.0060098623 -0.17686665 0.06766953 0.04182493 -0.109288596 0.300564 -0.03022804 0.25883693 -0.032520052 -0.42166597 0.11362826 -0.08319401 0.24946475 -0.23435281 -0.16319597 -0.00626148 -0.19118612 -0.13647439 -0.2434703 0.11633399 -0.10051879 -0.043438062 0.12400982 0.09053715 -0.26973164 -0.11387715 -0.025056494 0.2522641 0.0030836659 0.3461074 -0.17078 -0.13728672 -0.10183324 -0.08664903 -0.040804747 -0.16249909 -0.373788 0.12875305 0.17887476 0.010444514 0.029787136 0.022894105 -0.43601772 0.107637845
7 -0.1313586 0.23572595 -0.3425011 0.36656052 -0.2864266 0.060392372 0.16131978 -0.48847482 0.15096624 0.4718261 -0.15147409 -0.081970856 -0.23150249 -0.12845449 0.031232186 0.31044352 -0.0036253633 0.07932358 0.045374896 -0.15991391 0.2853857 -0.011216944 0.104361326 0.24445242 0.29896405 0.2875128 0.17558727 -0.272189 -0.43726605 -0.26445377 0.18079284 -0.17691928 0.11337401 -0.09249342 -0.10720642 0.14961411 -0.39602983 -0.04846227 -0.021236287 0.17725609 -0.12032536 0.16943683 0.10609676 0.23801103 -0.14089765 0.022075126 -0.08691643 -0.18168668 0.091547266 0.43958735 -0.043774776 0.07479446 -0.1188857 -0.39376885 -0.2845887 -0.17477298 -0.1600161 0.7841514 0.36260682 -0.28284347 0.23047142 0.16192532 0.25632137 0.17478678
11 -0.15030453 0.26059845 -0.43031245 0.44994622 -0.36465776 0.04621651 0.10136806 -0.5702908 0.241813 0.6428299 -0.08527504 -0.052334156 -0.3445341 -0.15988488 -0.017615931 0.26850677 0.06341625 0.14088748 0.11291006 -0.27429676 0.3126659 -0.102506995 0.12682895 0.24206935 0.19751935 0.35555825 0.18648076 -0.23359928 -0.43784386 -0.4126193 0.16290548 -0.18109412 0.14815977 -0.2407121 -0.09318659 0.2646042 -0.50706524 -0.1272412 -0.036323156 0.20183305 -0.034451954 0.2538082 0.15285297 0.33045208 -0.23805857 0.0036675348 -0.1825621 -0.07674703 0.004587309 0.55098397 -0.052291922 0.081124745 -0.0950887 -0.43589687 -0.29623714 -0.13482247 -0.19322732 0.7668203 0.35815537 -0.35074505 0.33283725 0.11557085 0.20063126 0.28094703
56 0.39731365 0.45155182 -0.46222278 0.37762263 -0.39039713 -0.15879406 -0.24331105 -0.28082496 0.025639357 0.119791776 0.056510042 -0.024594301 -0.31312895 -0.076585844 -0.3929876 0.09761249 0.36705583 -0.25273317 -0.15669814 -0.012222873 -0.17912982 -0.22205569 0.027626215 0.056724265 0.032492068 0.7374507 0.13750373 0.02260495 0.018021297 -0.48488244 0.41748658 -0.14744727 0.48601806 0.1913489 -0.52964634 0.19562857 -0.089460894 0.031299654 -0.024057062 0.26618057 -0.15589575 -0.3255624 0.36270133 -0.033935115 -0.37333792 -0.26022306 0.29752696 -0.304437 0.024967752 0.21250898 0.05709168 -0.38614252 -0.060129456 -0.27642784 -0.15238251 -0.07089967 -0.3467683 0.5922115 0.26915547 -0.32449934 0.22014765 0.07235918 -0.36212674 -0.08548116
49 0.11797321 0.77427757 -0.06171316 0.27189344 -0.15559626 0.27471104 -0.453072 -0.32442087 0.512174 -0.3612978 0.027797181 0.081624866 -0.16647166 0.017853672 -0.37187344 -0.40732896 0.30426812 0.3200488 -0.17633885 -0.12713817 0.2000044 -0.6265892 -0.67440355 -0.050917227 -0.21271066 0.80862623 -0.38889548 0.18616408 0.15024836 -0.052558314 0.17278302 0.08678807 0.2886024 -0.10812676 -0.35702467 -0.022495737 -0.58261025 -0.31224546 0.22364275 -0.3148762 -0.19919516 0.27338126 0.013861906 -0.14477657 -0.54279983 -0.113497645 -0.52549934 0.11375637 0.063434504 0.58820754 -0.15681882 -0.27594283 -0.22641705 -0.4645379 0.067254834 0.059420343 -0.18076012 -0.23431186 -0.27657545 0.074690305 -0.073730834 0.3007007 -0.5895909 0.37689656
35 0.26878774 0.64105076 0.12320774 -0.116545476 -0.060667872 0.022227699 0.10993205 -0.41728908 0.52291757 0.14497015 0.0924822 -0.16130318 0.070825964 -0.0756979 0.15065596 -0.130694 0.32722428 0.37474585 0.32215136 -0.23807669 -0.15228586 -0.30222452 -0.15223938 0.5415912 -0.19025528 -0.009177582 -0.32404298 0.16206129 -0.094904274 -0.06468639 0.1385525 -0.08672031 -0.39685243 0.1122131 -0.35428882 -0.008486552 -0.12594853 -0.22959213 -0.07340673 0.2278541 -0.13962454 0.18295917 -0.2298171 -0.068608984 -0.43902442 0.37926322 -0.6800006 -0.28851178 0.23305275 0.57762975 -0.5051998 -0.110777244 -0.7184765 0.15329523 0.6522791 -0.3580646 -0.19874553 -0.00707614 0.026826523 0.37112677 -0.0945753 0.99656063 -0.31040877 0.5534699
5 0.17855538 0.4386942 -0.22193366 0.31011626 -0.31913128 0.20814846 -0.29628623 -0.3068047 0.14548816 -0.17377077 -0.057851728 0.027528869 -0.04989063 -0.07947768 -0.01348733 -0.025475373 0.18488339 -0.059568558 0.081539966 -0.2409653 0.15220466 -0.20259072 -0.077970244 -0.18633787 -0.048239045 0.46957695 0.022296853 0.18474083 -0.1275484 -0.39255777 0.19878367 -0.055874582 0.34326 -0.10039564 -0.24893078 0.008040981 -0.24403346 -0.19118342 -0.1453549 0.07861186 -0.1337789 -0.15111305 0.15478778 0.045717057 -0.24512261 -0.170463 0.080753945 0.25003272 0.017627679 0.283031 -0.012719872 -0.14896494 -0.067037545 -0.2520203 -0.1908075 -0.18030359 -0.22469005 0.25434515 0.07644729 -0.14133942 0.079858966 -0.17848752 -0.37822515 0.060633227
68 0.15856431 0.042364314 -0.12417685 -0.122063756 0.23268309 0.13978833 -0.100705385 -0.3094632 0.13820976 0.33267456 -0.6509498 -0.26932445 -0.10940237 0.45673096 -0.40093184 -0.3981574 0.0047097066 0.32126224 -0.11322784 0.51830214 0.2517029 -0.021995869 -0.45572641 0.2683234 -0.21444683 0.15118438 -0.64304036 -0.07169542 -0.08250262 -0.11565236 -0.09562154 -0.012542401 0.15801148 0.43703413 -0.5202724 0.37775305 -0.7670613 0.18354923 -0.03520138 -0.16788849 -0.14120792 0.13335487 0.03625453 -0.57114804 -0.3126914 0.35120428 0.10344031 -0.8635243 -0.048896875 0.34179506 0.20722839 -0.0677413 -0.60984194 -0.51755 -0.29029208 -0.33271432 0.37878245 0.08901517 -0.004761956 0.10158581 0.16666119 0.38721493 0.080055356 -0.274842
51 0.1377341 0.3164933 -0.17763813 0.14442377 -0.17382374 0.18390392 -0.15179648 -0.35021564 0.23325126 0.001984134 -0.18134423 -0.029281184 -0.08402837 0.04258458 -0.04106872 -0.094303064 0.13584046 0.0052786497 -0.00190308 -0.043814633 0.1444067 -0.17093065 -0.1200303 0.061822448 -0.037355408 0.3650355 -0.116560966 0.0068578403 -0.18025064 -0.2200999 0.115632914 -0.0071682152 0.17873943 0.012334261 -0.24647635 0.11987832 -0.25734302 -0.020529225 -0.12487413 0.0038032113 -0.12656777 -0.047062248 0.047955703 -0.022523703 -0.24151456 -0.009072723 -0.060330417 -0.14561895 0.043802854 0.32930163 -0.03827509 -0.08692596 -0.20098086 -0.25308356 -0.14280029 -0.18123701 -0.1401183 0.26094085 0.085568964 -0.06276878 0.008972048 0.15300776 -0.18604112 0.0134314215
44 -0.11686068 0.36741784 -0.114637606 0.45219722 -0.3559019 0.06326297 -0.17896016 -0.38484368 0.33514443 -0.05232575 0.08510474 0.0734487 -0.15029994 -0.16111898 -0.0008726956 -0.06341547 0.17205629 0.19483107 0.071048744 -0.24011286 0.11175689 -0.33995312 -0.1860491 0.08103459 0.0019305925 0.434664 -0.09880703 -0.028021432 -0.18434535 -0.22459869 0.1756298 0.010845521 0.1330012 -0.34615207 -0.07272194 0.058460142 -0.3174018 -0.2874576 -0.035572376 0.036705874 0.011949798 0.18435504 0.0097145755 0.22552681 -0.28985575 -0.0074546207 -0.3797926 0.20016961 0.097747535 0.43758085 -0.1230284 -0.033845995 -0.06708224 -0.2962374 -0.085742846 0.011979351 -0.2043472 0.18489751 -0.07371656 -0.0816778 0.08361588 0.16178183 -0.13432291 0.3332391
63 -0.36628044 0.13303147 -0.16689052 0.16322897 -0.102216676 0.62514675 0.0035777816 -0.82568365 0.6510688 0.5085263 -0.773095 -0.2276409 -0.19675158 0.17375706 0.07706399 -0.1354971 -0.1737219 0.445434 0.14843367 -0.043269183 0.8632229 -0.13057315 -0.41497105 0.29185465 -0.011043963 0.27287236 -0.24699968 -0.1551124 -0.7410361 0.006640333 -0.01065215 0.10446712 -0.05284783 0.095643714 -0.27746376 0.300015 -0.916902 -0.0039620767 0.008872837 -0.18699597 -0.12780187 0.36287412 -0.14246787 0.070560366 -0.2200921 0.2897047 -0.3529496 -0.4086007 0.036538724 0.80175483 0.02725241 0.24539629 -0.6217144 -0.73926294 -0.39345834 -0.47403824 0.2201616 0.53609073 -0.007819627 -0.32531527 0.35256544 0.20757784 0.21118613 0.19894606
52 0.6351785 0.8850064 -0.24538955 -0.6127374 0.22766778 0.82552814 -0.23161292 -0.7036928 0.98663485 -0.32997525 -1.0103916 -0.004657573 0.5155988 0.043136418 -0.19681999 -0.14257982 -0.17236347 -0.3639223 -0.21847348 -0.17830689 0.28384158 -0.6026298 -0.43382135 -0.1116952 -0.36498857 0.89307034 -0.489286 0.13193344 -0.17254616 -0.49282783 0.02619328 -0.03829717 -0.034320116 0.13338132 -0.04090812 0.0691873 -0.31053948 -0.5266402 -0.3427968 -0.6896032 -0.7301299 0.15154667 -0.20973912 -0.4336414 -0.6468214 0.30728948 -0.15101714 -0.22163263 -0.5191654 0.8800422 0.013160247 0.041953262 -0.4017908 -0.43942213 -0.1500534 -0.14955947 -0.49150884 0.37059116 0.38233936 0.55972344 -0.80844194 0.800282 -0.7723713 -0.13744967
67 0.10667631 0.054953266 -0.3061483 -0.12020018 0.028443538 0.26975924 -0.084046766 -0.3501304 0.08916435 0.50313956 -0.81767696 -0.4061639 0.017147597 0.35276017 -0.101134144 -0.21947458 -0.19925703 -0.23427805 -0.19226974 0.4147655 0.5225559 0.16572654 -0.015098699 0.11469328 0.1174677 0.11051993 -0.110069625 -0.2166088 -0.51932675 -0.19050233 -0.24446715 0.05164751 0.15708208 0.4579576 -0.38954827 0.4475795 -0.5680643 0.41171083 -0.16736321 -0.112437524 -0.16829038 -0.13235527 0.0053666136 -0.17884205 -0.049292 0.23724249 0.41936442 -0.76310086 -0.012987735 0.29780027 0.22325782 0.069578744 -0.30895692 -0.61934376 -0.5891699 -0.5370203 0.34087336 0.66465354 0.3158859 -0.30956158 0.19650304 0.006573586 0.08658744 -0.5551646
45 -0.06460205 0.5117207 -0.107430734 0.48678166 -0.37619266 0.1718768 -0.34563679 -0.33858952 0.47404537 -0.1490047 0.18007676 0.11109232 -0.35240737 -0.1064882 -0.29842097 -0.22348136 0.2864827 0.42172134 -0.031764805 -0.20711988 0.17545578 -0.50448763 -0.45724937 0.0026259336 -0.12868263 0.5408965 -0.20810507 0.09189175 0.07934086 -0.13858965 0.202244 0.012661809 0.34888357 -0.24739529 -0.2744684 -0.01892522 -0.54105836 -0.2402589 0.20108573 -0.06922431 -0.08298471 0.24601787 0.098936945 0.120043494 -0.44470617 -0.020631721 -0.47579116 0.24581233 0.08972867 0.43990755 -0.2115027 -0.23731583 -0.12842365 -0.42954665 0.005297953 0.026973037 -0.19220814 -0.12005191 -0.21802793 -0.08941617 0.13808005 0.102348015 -0.3610715 0.40042856
46 -0.00053412927 0.47712365 -0.010485762 0.43434793 -0.3638394 0.16143472 -0.2521377 -0.3242933 0.46276653 -0.22558607 0.26095402 0.07964688 -0.28563872 -0.047137987 -0.22295256 -0.24658147 0.33180296 0.48814523 0.008586594 -0.10835573 0.10963212 -0.40677506 -0.43454468 0.14740929 -0.080559246 0.42145002 -0.21573643 0.07488621 0.069445886 -0.024444219 0.2169973 -0.005349061 0.24764654 -0.15736362 -0.330029 -0.059246942 -0.45180237 -0.18687108 0.1477373 0.016384961 0.005470001 0.21232665 0.013579056 0.09207662 -0.4054543 0.061576404 -0.4895303 0.12201796 0.16609634 0.35922554 -0.3247264 -0.26359835 -0.2718393 -0.31702098 0.1269938 -0.086737774 -0.19172153 -0.14390078 -0.22460936 0.038499225 0.08430874 0.2821264 -0.34549984 0.42991054
47 0.29924023 0.37378547 0.039890878 0.2248216 -0.232836 0.15563585 -0.3514248 -0.3345211 0.18205999 -0.34117454 0.05898819 0.038839873 -0.16547981 0.21063422 -0.20617427 -0.38616738 0.4285378 0.31929657 -0.19304247 0.17273894 -0.15934415 -0.37500829 -0.34446433 0.13953136 -0.3015601 0.2755971 -0.4040256 0.076347314 0.23771344 0.019262217 0.17728826 0.07032395 0.4245043 0.06505989 -0.51898104 0.039607715 -0.07410958 0.22922944 -0.114176326 -0.023249466 -0.03115672 0.056927025 -0.039545413 -0.13966292 -0.45475546 -0.05535342 -0.32566366 -0.21328816 0.17747849 0.24130185 -0.20265964 -0.44923073 -0.38345608 -0.19838576 0.15449584 -0.1021733 -0.184242 -0.3727591 -0.2934988 0.21325368 -0.040204972 0.4187014 -0.52839375 -0.004087168
39 0.24667688 0.42039397 -0.21412948 0.16114631 -0.2135961 0.15247262 -0.40169537 -0.27224788 0.32419792 0.3566904 0.0122760115 0.010201607 -0.060921405 0.027389219 0.09802937 -0.3000893 0.37049586 -0.20658676 0.12734713 -0.20291008 0.1906908 -0.29006365 0.24778302 -0.09549478 -0.059215482 0.28291282 -0.113606565 -0.055156138 -0.1929069 -0.5412167 -0.19433232 0.08281261 0.0156133035 -0.43937963 -0.1764045 0.3122534 -0.0666625 -0.22150503 -0.4098344 0.15824583 0.03433792 -0.011952717 -0.17381366 0.3409465 -0.3798337 -0.024002347 -0.07079451 0.19485164 -0.062577486 0.45357665 -0.16675131 0.09978965 0.011978784 0.08874569 -0.11588739 -0.18402193 -0.21163334 0.042813815 0.10879766 -0.17629933 0.039061587 -0.09326763 -0.52387756 0.15065272
26 0.22787185 0.52427006 -0.07970085 -0.012734354 -0.12524475 0.21484704 -0.059318565 -0.3265383 0.32438546 -0.039254934 -0.14432995 -0.009585785 0.13277745 -0.13895799 0.04166072 0.004978928 0.07789539 -0.09578589 0.18003337 -0.3613316 0.04893693 -0.2755407 -0.076775104 -0.011352139 -0.22222899 0.32943118 -0.084334865 0.23612893 -0.0750275 -0.40897262 0.10631468 -0.080690086 0.016017903 -0.1357224 -0.08082037 0.013649531 -0.05615786 -0.46828085 -0.20327304 -0.014659158 -0.19705221 0.026555046 -0.015732255 -0.020477187 -0.27736625 0.04405333 -0.1969379 0.18973444 -0.12622602 0.46126303 -0.12535146 -0.012232423 -0.18129319 -0.054085445 0.08279027 -0.14775327 -0.29502746 0.116897866 0.1453896 0.11249352 -0.16132244 0.1759125 -0.40653983 0.24690744
48 0.10255148 0.706396 -0.06581004 0.24900997 -0.11664136 0.2810948 -0.43525672 -0.30951175 0.4533946 -0.27809268 0.023237286 0.055570733 -0.16941902 0.06328459 -0.39830962 -0.40501907 0.27951777 0.33838013 -0.18959036 -0.08112506 0.24752788 -0.5721607 -0.6621513 -0.06923185 -0.21104616 0.74293345 -0.353865 0.16401836 0.1312965 -0.021705052 0.09972666 0.09231312 0.30887273 -0.06280517 -0.38240364 0.00426408 -0.63078755 -0.2437999 0.2792401 -0.33997855 -0.16397046 0.30807635 0.00198778 -0.1341117 -0.50199264 -0.13298196 -0.4672816 0.0580477 0.054890316 0.5610877 -0.09648359 -0.27144602 -0.20489241 -0.49120218 0.019746382 0.029987697 -0.0815618 -0.2528623 -0.27159786 0.016521083 -0.021038638 0.20949867 -0.5531825 0.32678324
4 0.06903579 0.20563698 -0.118547335 0.08908956 -0.10427409 0.1580327 -0.10140736 -0.30260012 0.20156872 0.044059727 -0.1708645 -0.027585834 -0.07165457 0.0559945 -0.027241386 -0.09636262 0.08763919 0.0623262 0.007961451 -0.03204875 0.14973246 -0.13040408 -0.09744991 0.08098925 -0.02147014 0.2491977 -0.1059281 -0.016472384 -0.16606899 -0.12979442 0.08217897 -0.00014231927 0.09630814 0.01821792 -0.19585574 0.11465349 -0.23053 -0.002677048 -0.09894711 -0.0018816683 -0.08488873 -0.0013362543 0.009485086 -0.015709318 -0.18380207 0.03488679 -0.08292286 -0.14622499 0.031095065 0.27676794 -0.048524 -0.038717028 -0.19823374 -0.20200105 -0.10439205 -0.15975176 -0.07760799 0.19115843 0.045710847 -0.041767582 0.020045877 0.15362385 -0.115976885 0.02381986
55 0.009802796 0.224063 -0.21647727 0.44818366 -0.2764692 0.16691986 -0.23190542 -0.20626558 0.23732671 -0.38447523 0.16322446 0.23290215 -0.19267721 -0.11636914 -0.11806522 -0.13588096 0.16555068 0.16427167 -0.18776108 -0.032656413 0.055971976 -0.22129318 -0.21019042 0.06679877 0.16302225 0.4814485 -0.11744395 -0.018317278 -0.086410515 -0.045331653 0.16887721 0.007751434 0.2964833 -0.15036291 0.060730595 -0.031820618 -0.41732004 -0.0056489957 -0.016679198 -0.10256241 -0.018377181 0.032784104 0.12975281 0.01882297 -0.21064793 -0.046745136 -0.06891839 0.14324528 0.026589632 0.20459883 -0.13880083 -0.100598715 -0.03812033 -0.4434247 -0.21575224 0.12380472 -0.3838617 0.26284504 -0.032421585 0.038905483 -0.17553565 0.2514803 -0.0786785 0.049823396
27 0.118666366 0.2536063 -0.14599408 0.1029536 -0.12432552 0.1025487 -0.054918222 -0.25642794 0.19321473 0.034228396 -0.074161254 -0.018114278 -0.04987454 -0.0049586804 -0.03978125 -0.043851264 0.11882608 0.006785672 0.012692124 -0.04968259 0.05341603 -0.122732624 -0.044350587 0.07401122 -0.0065382943 0.26284853 -0.074912086 -0.024171477 -0.0941489 -0.16974513 0.063121215 -0.015644362 0.08590288 -0.015695576 -0.1462721 0.097865 -0.13871242 -0.047558654 -0.08277164 -0.0040784013 -0.08692587 0.009582532 -0.0024156722 0.00896241 -0.19910227 0.0075578596 -0.07783878 -0.09053863 0.0027311405 0.27028957 -0.06750811 -0.05127132 -0.1343337 -0.15537702 -0.048244942 -0.09957286 -0.13073838 0.19460936 0.109877296 0.009373465 -0.027356165 0.17393892 -0.13211755 0.036801726
25 -0.06599979 0.3640386 -0.23954335 0.3541566 -0.2955117 0.073974416 -0.08401898 -0.35713083 0.20639414 0.13630839 0.0189849 0.011990601 -0.22554821 -0.162681 -0.058386974 0.07711522 0.041400887 0.023032743 -0.007905015 -0.24804044 0.1725614 -0.18138489 -0.07355102 0.03147563 0.19162744 0.49526122 0.19007428 -0.06968757 -0.23600762 -0.23364724 0.20809008 -0.05876248 0.12466184 -0.16431536 -0.17922749 0.0324091 -0.3352474 -0.20824559 0.03945534 0.115636595 -0.082190394 0.028522521 0.13916281 0.20041372 -0.1467424 -0.10253935 -0.15945886 0.04138541 0.095929965 0.32012904 -0.110264115 -0.11958734 0.041999277 -0.2972126 -0.18805891 -0.0898513 -0.19331282 0.46910596 0.15845528 -0.25896624 0.1773119 0.0062354184 -0.066319026 0.2230684
31 0.5423594 0.35805166 -0.4734217 -0.17275636 0.093482904 -0.39263916 -0.104147494 0.09605241 -0.12104178 0.30700555 -0.3236059 0.01918635 0.35325378 0.012053874 -0.5141483 -0.008069082 0.122426756 -0.56323826 -0.16932632 0.33529556 -0.04124812 -0.25875387 0.20123671 0.042987324 -0.18074398 0.6725675 -0.20675226 -0.035580207 -0.10085374 -0.35845816 0.20782359 0.111864716 0.57619005 0.23103313 -0.22563988 0.59054583 -0.0113075515 -0.02770899 0.06292674 -0.20736684 -0.026276663 -0.09259657 0.120382816 -0.065716 -0.21459666 -0.1797819 0.12454641 -0.58025295 -0.4074252 0.6011629 0.13048357 -0.17966823 -0.17763206 -0.3751353 -0.29100075 0.15347528 -0.1897032 0.69967204 0.167859 -0.37599668 0.012261316 0.45287225 -0.1687985 -0.15623061
97 0.4231108 0.27781537 -0.33795956 0.3098803 -0.36102706 -0.07466645 0.030161051 -0.39954093 0.05241667 0.23943578 0.15209131 -0.10555443 -0.32671666 0.0062639415 -0.25340813 0.05537408 0.39851815 0.04152871 -0.033032905 0.12367674 -0.28867394 -0.026354844 0.13735384 0.37265384 0.02499495 0.23039676 0.101856925 -0.053239 0.07051943 -0.2620096 0.24577154 -0.16553907 0.34091833 0.32838842 -0.65696526 0.18948695 -0.0080447635 0.2914572 -0.07044543 0.34824637 -0.060899973 -0.19825672 0.13289094 -0.0043470296 -0.3016464 -0.023053287 0.16557696 -0.55259234 0.17698517 0.1851291 -0.22935142 -0.36322966 -0.29673716 -0.14603566 0.06106375 -0.31854987 -0.20047693 0.41055015 0.2500127 -0.10625569 0.17977898 0.27125558 -0.27762356 -0.11169038
64 -0.27732334 -0.0028280136 -0.11776876 0.080264255 -0.058132067 0.64458674 -0.023346553 -0.79395914 0.55468386 0.47597793 -0.7428159 -0.2832958 -0.21294114 0.28120404 -0.055666607 -0.19392885 -0.16588828 0.4989016 0.15675236 0.07913322 0.7834437 -0.06976297 -0.38713136 0.2855961 -0.17549251 0.10066459 -0.30800113 -0.061364226 -0.5715439 0.06801607 -0.0753318 0.10773635 0.0115309395 0.2779503 -0.437885 0.36863893 -0.82485783 0.12236166 0.035899937 -0.16057532 -0.10291138 0.33102232 -0.14311565 -0.024004428 -0.22519812 0.31117088 -0.21950802 -0.53092617 0.04622693 0.62798023 0.09209491 0.16233188 -0.71538794 -0.7034229 -0.36869577 -0.5361223 0.28768557 0.27473602 -0.09618676 -0.28326732 0.36588052 0.078925684 0.12470578 0.03330249
65 -0.29994515 0.1057338 -0.14633262 0.023078384 0.0027087915 0.69847757 -0.12406015 -0.7876324 0.6132015 0.42896977 -0.9156734 -0.2840388 -0.13204327 0.30878457 -0.017672122 -0.19749789 -0.20750715 0.3944244 0.088148125 0.03901977 0.9418348 -0.13287239 -0.4855416 0.19152696 -0.12357508 0.29336518 -0.30868056 -0.08446728 -0.718456 0.0332398 -0.0072520096 0.11583419 -0.014145819 0.2057154 -0.35557428 0.3447404 -0.90347004 0.027130436 0.008529459 -0.2476325 -0.17412448 0.2655876 -0.10229948 -0.068790436 -0.2571205 0.29219794 -0.26229456 -0.4852263 -0.009008014 0.73239315 0.13860634 0.18778686 -0.7047139 -0.7673669 -0.4563432 -0.48363495 0.25202808 0.41034245 -0.07929453 -0.33327144 0.34609112 0.12680312 0.12893604 0.06689881
73 0.14938693 0.017084286 -0.21506418 0.20198579 -0.17038013 0.13752098 0.030858694 -0.33461443 0.27413988 0.23518614 -0.08078953 -0.13778329 -0.29386804 0.13108635 -0.23096079 -0.12255306 0.1837234 0.12827522 0.0077070612 0.110625364 0.07707275 0.0007639051 -0.10332232 0.27923578 -0.13603806 0.2010104 -0.17584161 -0.05263323 0.039008696 -0.12453001 0.096191175 0.0014548758 0.12240941 0.27397344 -0.34161362 0.2289524 -0.28477585 0.16860434 0.09174164 -0.047557086 0.0018169773 0.09224404 -0.029454974 -0.054341447 -0.3367516 0.043017946 0.071131706 -0.37027064 0.034808222 0.16350523 0.0068034017 -0.076368116 -0.27138978 -0.35448116 -0.042253952 -0.13840596 0.08861584 0.12464074 0.023375303 -0.10367113 0.12412742 0.0579195 -0.11496116 -0.16640969
66 -0.076851286 0.043006405 -0.11707227 -0.15350813 0.15653315 0.5242945 -0.1072754 -0.4919597 0.3069495 0.28735495 -0.8462105 -0.27203533 -0.006202218 0.34282324 -0.13434154 -0.22596353 -0.18088482 0.18942235 -0.046977833 0.23701479 0.7443365 0.027369238 -0.3268966 0.154975 -0.08568876 0.19020715 -0.3633081 -0.12638807 -0.5675106 -0.0073996345 -0.122133315 0.117302045 0.07077304 0.37363294 -0.40770864 0.39543724 -0.7658784 0.21069202 -0.019384721 -0.25170475 -0.13099642 0.13052145 -0.06569679 -0.24332418 -0.17457615 0.2142725 -0.021830218 -0.7123467 0.0053392453 0.4754777 0.2535144 0.10177439 -0.607169 -0.5569374 -0.4549053 -0.4799666 0.3428547 0.3663261 0.00955562 -0.21155052 0.2859102 0.19920686 0.19975917 -0.223578
3 0.24254496 0.21690439 -0.14701326 -0.151854 0.33460245 0.055661418 -0.22493717 -0.20358932 0.14881301 0.16603106 -0.83002913 -0.20772181 0.041388884 0.46366894 -0.32521695 -0.4571622 -0.026016997 0.05222 -0.2490236 0.5177266 0.3470225 -0.088031426 -0.54340595 0.15768655 -0.06887205 0.5442087 -0.7038002 -0.12519352 -0.21996199 -0.27211028 0.05233353 0.01099281 0.1202279 0.27128977 -0.36244595 0.33926204 -0.8564306 0.0072253863 -0.18477215 -0.2517612 -0.2248481 -0.016302358 0.09689636 -0.6759272 -0.35920727 0.26408952 0.13016698 -0.812079 -0.11192534 0.39517173 0.28673136 -0.033818506 -0.4333374 -0.4948649 -0.43555376 -0.21422319 0.26091382 0.3184713 0.07587705 0.10575185 0.06284217 0.54267734 0.07515768 -0.30626118
101 0.5735561 0.45186347 -0.53813696 0.30080912 -0.4228697 -0.28982782 0.005278734 -0.30006978 -0.0026654166 0.46160525 0.28312588 -0.039680466 -0.28049457 -0.10289285 -0.44656292 0.050728593 0.4624023 -0.22583178 -0.18995488 0.17892317 -0.3938211 -0.12119926 0.2373526 0.2809422 0.016012454 0.43456414 0.07069254 -0.20079505 0.088888526 -0.5356048 0.09411756 -0.1272287 0.50531 0.29354194 -0.52698827 0.38744092 -0.05326585 0.28513235 -0.025876628 0.22868986 -0.057738543 -0.10612799 0.21244286 0.10022376 -0.3383772 -0.15505114 0.18990733 -0.57377887 -0.025587711 0.39791912 -0.12103528 -0.3414846 -0.095962815 -0.23104033 0.013642677 -0.19338122 -0.24711445 0.6290863 0.42365366 -0.19034772 0.12772109 0.3764448 -0.2893752 -0.18092717
22 0.11792875 0.24763848 -0.06961584 0.14164457 -0.1438359 0.2950949 -0.19195469 -0.2924195 0.18526964 -0.045043427 -0.3118301 -0.057759587 -0.065936245 0.10176468 0.16937907 -0.02374637 0.07265673 -0.019503511 0.09203202 -0.15940711 0.302976 -0.106218524 -0.088364154 -0.014978928 -0.05465989 0.25616744 -0.028096773 0.22593813 -0.21733095 -0.21426038 0.20046742 -0.028782682 0.20266731 -0.04927812 -0.23288679 -0.010754996 -0.23519576 -0.01986084 -0.23002538 0.087865576 -0.10474258 -0.15695128 0.07584059 0.0013421465 -0.1609651 -0.048045084 0.017341767 0.07997465 0.049518846 0.24787523 -0.06032627 -0.050958645 -0.21921709 -0.1517781 -0.120233014 -0.26761243 -0.12240048 0.21729656 0.05741739 -0.1582176 0.16860074 -0.05810292 -0.27184308 0.076084234
102 0.5991177 0.52765566 -0.5869674 0.24384095 -0.27226353 -0.0805538 0.09387395 -0.4531422 -0.073006846 0.26651573 -0.11690781 -0.18046011 -0.16816857 0.03737146 -0.4041086 0.25842798 0.40230864 -0.34232804 -0.18684438 0.084134065 -0.28949377 0.12172463 0.09947343 0.31939003 0.18495092 0.60842705 0.13533276 -0.15553015 -0.025982805 -0.3640642 0.39162412 -0.22255468 0.57154 0.5910071 -0.7498329 0.34349138 -0.08104784 0.3321975 0.040617306 0.2630475 -0.3596885 -0.36692822 0.2455897 -0.2552559 -0.3715732 -0.16882747 0.3813364 -0.7842235 0.15196484 0.23964997 0.07816598 -0.5314795 -0.20074415 -0.36024803 -0.16283086 -0.23676106 -0.28012455 0.8907795 0.65214115 -0.17271818 0.0650246 0.39375427 -0.19558887 -0.5008977
2 0.26043195 0.25408646 -0.14966008 -0.19421256 0.36185005 0.057521135 -0.22781122 -0.19611366 0.13711762 0.15045737 -0.8702645 -0.22198364 0.07219905 0.47688594 -0.33966765 -0.45589316 -0.03714917 0.022224003 -0.26004896 0.53307724 0.3656586 -0.08041911 -0.5581997 0.14765787 -0.067537375 0.58123624 -0.73872524 -0.13315722 -0.22184154 -0.28558126 0.04219057 0.0037642568 0.11484857 0.30070534 -0.37134957 0.35117507 -0.8615808 0.010113446 -0.19217506 -0.28028727 -0.24000494 -0.044128515 0.10143961 -0.72723025 -0.37739572 0.26259938 0.14425267 -0.8483327 -0.112781696 0.42196897 0.30214384 -0.037227876 -0.43815574 -0.49831626 -0.45299873 -0.22938819 0.26065457 0.35203052 0.09860087 0.13024563 0.053044245 0.5810765 0.08572238 -0.3417921
