1563 64
1416 -0.056849115 0.25594777 0.6816852 0.3077149 -0.6328711 -0.023768935 0.21627387 -0.3726026 -0.6094125 0.20455925 -0.35480523 -0.85751355 -0.56191385 0.18790215 -0.15819097 -0.28107604 -0.09587297 -0.58211267 0.20001706 -0.5843839 -0.46714723 -0.34560105 0.09440821 0.3896983 0.26862645 -0.1598151 0.3619519 -0.08046893 -0.278053 0.29936492 0.26468638 -0.3749018 -0.3527779 -0.36994478 -0.30315602 0.62578624 0.5448748 0.18589415 -0.5243863 0.37635088 0.4314086 0.31969658 0.030959077 -0.1115207 -0.21547003 0.38624927 -0.31446868 0.27043113 0.021295207 0.15008579 -0.17760116 0.13510892 -0.18918577 0.87262017 -0.88469553 0.23776202 0.5936287 -0.22405349 -0.2487328 1.0854307 0.2259755 -0.27789363 0.35885194 0.9659776
123 0.3344972 -0.15346996 0.23842366 -0.1151147 0.34467298 -0.6801873 0.6556724 -0.82713807 -0.52473915 -0.37130004 0.58731383 -0.47467336 -1.1175642 0.17610307 -0.62898374 0.4467509 -0.22751655 0.16121155 0.31092262 -0.8701063 -0.34883144 0.19130653 -0.25898877 0.18384251 0.2490103 -0.41555858 0.047356073 -0.731294 0.48657426 -0.3143712 -0.055163436 -0.143259 -0.5019911 0.41665763 0.3372424 1.5193174 -0.6946962 -0.15680501 0.7663447 -0.26692706 -0.38261923 -0.5943545 0.88209945 -0.29157645 -0.12232936 0.51313823 0.3719315 -0.7673805 0.8573069 -0.21988171 -0.104733385 -0.28576648 -0.5570782 -0.16866314 -0.055400014 -0.27956563 0.20560016 -0.27302796 0.1544286 1.1098299 0.42392457 -0.74381596 -0.47214866 -0.42148605
95 0.043092303 -0.51237136 -0.4284168 0.32929584 0.054228477 -0.78821546 1.1300172 0.07992308 -0.17244777 -0.52386475 0.28976876 -0.65907997 0.08505357 -0.08695775 -0.8367603 -0.14296338 -0.38709515 -0.3429463 0.4406507 -1.2066114 -0.036213316 -0.3988415 -0.37114665 -0.27556232 0.23161343 -0.71648324 -0.2143594 -0.75523454 1.1017522 0.37970698 -0.37538743 0.40261364 -0.41467977 0.29028708 -0.38343558 0.86359495 -0.2929867 -0.39210546 0.54994285 -0.44170204 -0.16258757 -0.06947754 1.2648007 -0.32719818 0.04163569 0.61423826 -0.01473718 -0.7896963 0.90220666 -0.29843965 -0.39372423 -0.13058838 -0.17642425 -0.3596197 0.02186702 0.086714655 0.42631167 -0.33914343 0.039624456 0.90595967 0.5901859 -0.09638589 -0.7922873 -0.2587896
1407 0.012194476 -0.13916287 0.48634848 0.5419082 -0.9808681 -0.07680782 0.6501151 0.51013845 -1.0622829 -0.54798627 -0.54912925 -1.083635 -0.5775437 0.1369447 0.2397052 -0.06280752 -0.023908254 -0.470649 -0.28134912 -0.5014136 -0.28216 -0.5955108 -0.026560223 -0.25404128 0.6047934 -0.28651425 0.37326986 -0.15672897 -0.053992562 -0.021473989 0.5668953 0.48538753 -0.55016387 -0.5127153 -0.708577 0.4346428 0.5660339 0.28317752 -0.107839644 0.49457288 0.8031172 0.5823268 -0.14256568 -0.064695865 0.21943972 0.12628682 -0.42534137 0.22208215 -0.61278003 0.37030938 -0.12655295 -0.0359834 0.23466177 0.9606439 -0.6341927 0.64508694 0.9204572 -0.46140936 -0.6601523 0.8930041 0.86529344 0.061616093 0.30974412 1.0043435
1232 0.116466835 -0.24715996 -0.3115812 0.5797637 -0.32543215 -0.3029353 0.30348125 -0.29530627 0.037937928 -0.23196824 0.013348314 -0.994494 -0.9111918 0.26886132 -0.010152704 -0.43260503 -0.5544754 -0.4339466 0.4795488 -0.5557397 0.35897568 0.085374445 0.2582852 -0.18565397 0.48840892 -0.9518244 -0.013093985 0.2657501 -0.43329957 0.13833956 -0.21890937 -0.24613379 -0.40743 -0.41820988 0.63113123 -0.4214133 0.020855116 -0.108608186 -0.1598541 0.62808514 0.25184876 -0.88156146 -0.07540975 0.03812879 -0.56055856 0.14189604 0.31806087 -0.14016017 -0.39996386 0.8177861 -0.5685181 -0.26542506 0.0929369 -0.28031716 -0.5547848 -0.07785837 -0.030912822 0.018155042 0.059690043 0.64904875 0.45765683 -0.1322182 -0.34393603 -0.23165758
1235 0.0894501 -0.3410505 -0.18153952 0.63237226 -0.23131593 -0.29717726 0.2115132 -0.3480517 0.067410104 -0.13462915 0.07767559 -0.9866902 -0.802591 0.447414 0.039715145 -0.35062185 -0.28377455 -0.4545751 0.4463429 -0.5823045 0.34757838 -0.034026556 0.3454014 -0.33960035 0.23477261 -1.0013533 0.0020731082 0.30341002 -0.49418172 0.11626817 0.09369691 -0.32475853 -0.4106559 -0.079554684 0.5570525 -0.41348943 -0.058118574 -0.30609372 -0.19766164 0.47957966 0.26089102 -0.8050465 -0.036233753 0.13845393 -0.54352576 0.15892382 0.07600105 -0.13632655 -0.31849855 1.0050101 -0.75956225 -0.34582758 0.06631559 -0.34503338 -0.52674526 -0.042554263 -0.1253814 -0.07937258 0.12722678 0.6966488 0.3383471 -0.0079894215 -0.44210553 -0.042346355
1133 0.007757843 -0.55552197 0.02015932 0.6267929 -0.08556549 -0.0015232443 0.50132453 -0.3561243 -0.5567281 0.15991046 0.59018123 -1.0939531 -0.3314933 0.017812798 0.49339682 0.25768444 -0.015557813 -1.2006037 0.029876256 -0.4429803 -1.0090636 -0.033786282 -0.67622626 -0.23817348 0.98325825 -0.6353901 -0.229819 -0.15980478 -0.72966903 -0.053252757 0.13970724 0.2883425 0.39158636 -0.5269339 -0.2147795 0.5231915 -0.45298412 -0.48181757 -0.33152142 0.5160623 0.32955658 -0.46868667 0.12941608 0.414983 -0.042585783 0.6371947 0.20524639 0.5067439 0.043042388 -0.069406025 -0.03301206 0.3089807 -0.0649375 -0.80900806 -0.3707752 0.599303 0.005388323 -0.33031222 0.9020836 0.8891734 3.695604e-05 0.10454847 -0.1688564 0.3346813
427 -0.58824515 -0.2054342 0.3931653 0.15244763 -0.96774733 -0.2633238 0.38325524 0.27948812 0.4259922 -0.3563989 -0.33381203 -1.1885182 -0.7497621 -0.10651756 -0.3116614 -0.122612946 0.3613502 -0.36056444 -0.3897781 -0.8266722 0.16402718 0.36080414 0.7759454 0.028483914 -0.35584536 0.004854956 0.69990605 0.08470331 -0.067810535 0.970714 0.15373242 0.21926469 0.029499354 0.005831324 0.54375637 0.0909585 0.31917638 0.47905853 0.4942776 -0.056507908 0.9395123 -1.1426656 0.42117867 -0.187934 0.2911989 0.14513938 0.2206753 -0.678713 -0.048552927 0.22650006 -0.45774576 0.037147325 -0.7450311 0.20381749 -0.51066285 0.5005999 0.18265882 -0.14458469 -0.11980093 0.8624724 -0.1514593 -0.6207303 -0.3890161 0.14641522
126 0.53819394 0.18428 -0.20049706 0.06702181 0.30086923 -0.65367204 0.42355943 0.009714455 -0.16743363 -0.063425906 0.32812044 -0.7468841 -0.6703871 0.4727619 0.05247236 0.0343031 -0.20847635 -0.7684551 0.039956465 -0.50029105 -0.23128657 -0.17171729 -2.099018e-05 0.86838686 -0.102884725 -1.0141296 -0.24230608 -0.1339348 0.44053257 0.275284 0.08199302 0.1733048 -0.117639475 0.37857738 -0.3629607 0.5104858 -0.74807686 0.21898644 0.23284788 -0.28339815 -0.16860352 -0.85288465 0.45952213 -0.05237237 0.21656437 0.2541566 -0.5302464 -0.48943496 0.5260315 -0.16250697 -0.23869248 0.18878177 -0.06637236 -0.023372656 -0.109198816 0.5549996 0.050554156 -0.08175545 -0.24866249 0.5140957 0.34826854 -0.5018449 -0.3010656 -0.054037794
428 -0.47033885 -0.10955471 0.38682854 0.15282103 -0.9801721 -0.19975014 0.5295612 0.22006327 0.39298978 -0.41593984 -0.28137773 -1.332738 -0.5918808 -0.013133872 -0.27817777 -0.20259601 0.3866587 -0.4189484 -0.34334642 -0.7300439 0.1667327 0.38124305 0.5684902 0.10975051 -0.24876904 0.015699638 0.61774683 0.028738359 -0.09189573 0.97401184 0.052238807 0.08264642 0.103688024 -0.077052206 0.57983077 0.13137014 0.3243544 0.6715699 0.3910254 -0.17527647 1.0550133 -1.185414 0.48736042 -0.4038836 0.34543592 -0.095907584 0.20989798 -0.55611527 0.06502136 0.33723953 -0.32385883 0.0578581 -0.71693784 0.27197877 -0.44425708 0.48179126 0.21102281 -0.0018042945 -0.07195502 0.81935036 -0.047826458 -0.69349307 -0.26374248 0.00026599487
1417 -0.1371529 0.14450791 0.5554082 0.28661364 -0.6630286 0.09012641 0.04343475 -0.4367734 -0.51004803 0.06385591 -0.2796496 -0.84683853 -0.6283509 0.19686127 -0.2248159 -0.47349492 -0.30996758 -0.5258812 0.022587271 -0.7461051 -0.5729659 -0.44894436 0.2077188 0.5290315 0.03889332 -0.21127659 0.39767104 -0.34376317 -0.31538963 0.15709014 0.23833638 -0.4776503 -0.19251646 -0.61022556 -0.5028133 0.43610764 0.49502245 0.17255802 -0.37507272 0.2475462 0.55935425 0.34074482 0.18151003 -0.020894665 -0.14806499 0.49782375 -0.17586817 0.19996643 -0.18219213 0.24206576 -0.16660069 0.10910528 0.047457226 0.7651399 -0.83675075 0.377099 0.54765797 -0.44203737 -0.35139936 0.9200189 0.23783617 -0.2826381 0.52224755 0.7523886
1412 -0.35678998 0.61625195 0.63377607 0.6681597 -0.31557164 -0.14726573 0.09638447 -0.013492947 -0.27454838 0.57102484 -0.085250236 -0.9129916 -0.41185486 0.2945594 -0.0024298055 -0.39586982 -0.15944768 -0.5237003 -0.20398676 -0.7944035 -0.23224245 -0.46283922 0.016399268 0.2124189 0.10090106 -0.3144257 0.61858314 -0.3095503 -0.1559899 0.41595152 -0.036185708 -0.5792988 0.17870581 -0.8526138 -0.5837229 0.6392494 0.6836499 0.30202585 -0.423307 0.48429742 0.57600427 0.1589369 -0.32213432 0.25138867 0.011781975 0.59261554 0.07940303 -0.13612497 0.3310334 0.23120625 0.16963877 0.25973025 0.2038684 0.4764189 -0.8335643 0.30030447 0.053814635 -0.24881558 -0.8880217 1.162786 0.53615475 -0.12921172 0.5259286 0.68994254
1409 0.014697722 0.051595 0.80186915 0.5295948 -0.7091598 0.18235402 0.32262933 -0.21782328 -0.55975354 0.09067455 -0.3635328 -0.44326943 -0.5661184 0.24073403 -0.14061043 -0.48833314 -0.18654026 -0.92550486 0.15042622 -0.8085454 -0.732758 -0.6533161 0.017976783 0.5521329 0.22670124 -0.14142698 0.46658838 -0.15562539 -0.33011398 0.29057348 0.35771325 -0.5483496 -0.119811505 -0.33581868 -0.28894585 0.42096043 0.7052261 0.122005105 -0.14041692 0.39454633 0.45465058 0.24393857 -0.14778659 0.012957202 0.04227106 0.3458921 -0.2247736 0.06600262 -0.013000464 0.18316382 -0.31545195 -0.117014594 0.09835635 0.72752064 -0.69168675 0.5391756 0.5168103 -0.33367252 -0.23675936 1.007837 0.13576111 -0.3133341 0.38854378 0.7416128
131 0.38091117 0.268789 -0.12920637 -0.26350614 0.1548939 -0.6026467 0.67505884 -0.11108303 -0.5416976 -0.027070023 0.28348568 -0.7185247 -0.3455922 0.33940652 -0.050431337 0.043963492 -0.4302204 -0.75194985 0.53394145 -1.0278696 -0.041720193 -0.268224 0.03956952 0.61753917 -0.21769544 -0.7698533 0.030555487 0.14661537 0.43326622 0.16433606 -0.3124822 0.05259479 0.14382024 -0.22698517 -0.24025898 0.38286784 -1.0909238 -0.076120116 0.5509733 -0.25412846 -0.4088144 -1.0339109 0.78183126 -0.099504024 0.1986804 0.1358606 -0.3093612 -0.24681363 0.13733359 0.041012954 -0.23495458 0.5076227 0.13842395 0.19809648 0.24748226 0.76060224 0.2079251 -0.046316467 -0.14330858 0.6471592 -0.05599434 -0.694942 0.03326925 -0.00612564
1415 -0.05059586 -0.008343096 0.62140477 0.3583613 -0.65132415 0.25720486 0.15922543 -0.3374024 -0.5562642 0.19233082 -0.24854785 -0.7322473 -0.8229542 0.13444388 -0.15677837 -0.3583563 -0.2541881 -0.58517724 0.21718974 -0.6890427 -0.5871674 -0.33126283 0.096160695 0.64057916 0.25454465 -0.25421146 0.58865327 -0.20561637 -0.31538773 0.27561086 0.14897525 -0.30173203 -0.20065731 -0.46569055 -0.31980512 0.50230026 0.5666773 0.2541088 -0.50926733 0.31290767 0.48352823 0.4262885 0.045156214 0.0763857 8.67314e-05 0.32663047 0.027807733 0.3681452 -0.1428832 0.38871437 -0.2502297 0.21500199 0.14308809 0.88947856 -0.6464463 0.36810848 0.5758525 -0.08177114 -0.43563926 1.1159846 0.066905804 -0.32523632 0.4550389 0.9122502
1465 -0.5497482 -0.3028019 -0.06950253 -0.15655832 0.15703861 0.50353473 -0.25077406 -0.48100156 -0.67393625 0.04332068 0.61028475 -0.8010141 -0.42752972 0.39175943 -0.51828164 -0.061622914 -0.8265739 -0.7785298 -0.92581016 -0.039348636 -0.069660075 -0.8273888 0.6462418 0.9019707 0.98228806 0.41262928 -0.101911955 -0.35671982 0.23575091 1.0271201 0.098209634 -0.43631628 0.6315283 -1.0598313 -0.2504993 0.08451386 0.5056471 -0.45282432 0.47593817 0.58315146 0.6647029 0.27746996 0.48261392 -0.43058985 -0.56591463 0.10480494 -0.28957015 -0.34548923 0.7259533 0.66790617 0.2461435 0.4191069 -0.01795949 0.09569346 -1.3965856 0.51641685 -0.15335932 0.16931087 -0.27893108 1.7671775 1.3029894 0.07929438 -0.4591286 0.40332845
1221 0.057399422 -0.11598972 -0.3684309 0.4228278 -0.32004032 -0.30324355 0.25989857 -0.47928706 0.15812248 -0.047257923 -0.0417764 -1.2367816 -0.80050236 0.28846112 -0.09695706 -0.47956094 -0.5336625 -0.49932167 0.45645535 -0.71092945 0.22396487 0.12893964 0.20210809 -0.30472097 0.45221162 -0.88624203 -0.07359803 0.43678495 -0.5076159 0.22061877 0.23402052 -0.19365905 -0.25900948 -0.10048029 0.6864535 -0.38661695 0.061684094 -0.0962623 -0.04196179 0.5648797 0.0070488174 -0.8341518 -0.09253625 0.15098763 -0.562899 0.21555905 0.11613753 -0.0049527125 -0.4762988 0.8712793 -0.66375226 -0.23120211 0.19399448 -0.3289975 -0.36674705 0.058580596 -0.08038598 -0.1071485 -0.017663345 0.6913179 0.24163568 0.24717492 -0.36016095 -0.17750727
701 0.5577282 0.1701997 -0.37284726 0.17889506 0.30858925 -0.73370916 0.044394497 -0.10392297 0.35372868 -0.18099818 0.08591485 -1.0011922 -0.6407086 0.020423928 -0.17802407 0.36892575 -0.54992497 -1.0101249 0.14481963 -0.70188314 -0.14632349 -0.16605763 -0.14746945 0.99543154 0.40835094 -1.1516119 -0.04023135 0.024623176 0.49404413 0.034918927 0.030504318 0.54844177 -0.24381095 0.22430734 -0.3702533 1.097751 -0.8240165 -0.025905017 0.21080977 -0.5406187 -0.051270656 -0.64948076 0.24727741 0.019949103 0.107426085 0.23635998 -0.6051466 -0.5110159 -0.040483795 0.1515008 -0.33633968 0.34957847 -0.067187555 -0.15152167 0.12882704 0.27184722 0.19999717 -0.030487048 -0.278509 0.7186266 0.1474528 -0.7515469 -0.05615821 -0.07814117
438 -0.5010066 -0.24405262 0.41215086 0.129943 -0.9179641 -0.07166579 0.32097337 0.3110932 0.4291928 -0.50355536 -0.35588413 -1.1861075 -0.6419184 0.07965869 -0.38778752 -0.14037941 0.48664993 -0.448523 -0.40160647 -0.78295255 0.19693701 0.2746748 0.81477493 0.060718402 -0.28484 -0.06365545 0.75562626 0.1410574 -0.15524396 0.9212337 0.28082186 0.16073878 0.14903796 0.08407454 0.66792476 0.075435296 0.2222216 0.5657886 0.44572157 -0.08064892 1.016254 -1.1803542 0.4897784 -0.2678373 0.27017432 -0.13344559 0.13455468 -0.6233732 0.05651543 0.21606117 -0.4191344 0.092907004 -0.51759636 0.08746934 -0.42010695 0.36730093 0.24692059 -0.08084015 -0.15077141 0.9847646 0.014117202 -0.73753995 -0.26187733 0.314787
130 0.66408426 -0.27608106 -0.21443464 0.07812806 0.236299 -0.48511323 0.28516522 -0.13007508 -0.31738034 0.31116685 -0.012243023 -0.6667341 -0.41820014 0.44692206 0.13751397 0.33261275 -0.49276975 -0.7270409 0.33327162 -0.9350269 0.08653544 0.044754613 -0.0131077785 0.7061389 -0.20870025 -0.9177473 -0.21689889 -0.027373506 0.4693281 0.4091101 0.121601515 0.2310721 0.1346358 0.17999703 -0.4121633 0.31618273 -0.7892012 0.15139093 0.23068275 -0.27972892 -0.34514958 -0.8456554 0.78764915 -0.11314076 0.13243414 0.2954907 -0.30773973 -0.51422405 0.33629125 -0.0535064 -0.021883104 0.2899777 -2.270954e-05 0.09317954 0.19766581 0.5120879 0.0862457 -0.094777934 -0.11840966 0.88719404 0.21127467 -0.76942563 -0.018646738 0.28528434
764 0.19585529 -0.045898125 0.16821915 0.6611179 0.13198167 -0.36225274 0.96485704 -0.17454104 -1.0781684 0.2960609 0.51856065 -0.9783754 -0.9986203 0.19951001 0.35782608 -0.2410164 -0.7667491 -1.6413223 1.1423136 -0.45593527 -1.3695763 -0.8256913 -0.012912938 -0.20456176 1.047015 -1.0176809 0.19366671 -0.07173156 0.07851713 0.63685155 0.82197136 0.5128332 -0.49824324 0.40495878 1.2087808 -0.08458195 -0.021237973 -1.4854943 -0.3037972 -0.025740242 0.517528 -0.32673204 0.65224683 1.3000308 -0.72554046 -0.06525094 -0.28520545 -0.4578076 -0.33856252 0.56888086 0.5699915 0.5583956 0.31798536 0.15605988 -0.113629624 0.7847982 0.46044353 -0.13350204 -0.3424744 0.76254106 0.7562551 -0.6458447 0.3534785 0.15659715
763 0.15489598 2.4925994e-06 0.29591432 0.6907122 0.06510955 -0.25719225 0.8364033 -0.22471295 -1.0086346 0.1899761 0.4449489 -0.9590268 -1.0332779 0.1652992 0.4398879 -0.4121235 -0.7641177 -1.5846648 1.177332 -0.49760014 -1.2006855 -0.91866034 0.111929856 -0.14944571 0.9220061 -1.0025934 0.28515682 0.073117144 0.088515736 0.670434 0.6948459 0.30751532 -0.5645705 0.49070233 1.2598355 -0.2007156 0.114044376 -1.4633198 -0.1126335 -0.15682945 0.56784487 -0.36328208 0.6641368 1.2369514 -0.6982407 -0.06228523 -0.2324105 -0.7140528 -0.24795215 0.5949173 0.5381597 0.5738958 0.21708064 0.15999566 -0.13631333 0.88603574 0.5232122 -0.2747198 -0.52312297 0.7338544 0.7837822 -0.6200293 0.42690936 0.20934497
1403 -0.4074652 0.104852214 0.39169332 0.45883542 -0.5890029 -0.0017179974 0.071275994 -0.28732032 -0.42900297 0.19856429 -0.2455113 -0.568141 -0.50922877 0.2335168 -0.21999969 -0.45656663 -0.14050812 -0.51817757 -0.23964 -0.96628255 -0.34869593 -0.07170662 0.3552119 0.14201082 0.49737373 -0.3331488 0.423189 -0.47746143 -0.11389922 0.18497804 0.18387789 -0.29709676 0.08826692 -0.6640575 -0.52435744 0.74728614 0.93391734 0.2679537 -0.35625523 0.6238195 0.48912627 0.29882076 0.16435151 0.24987823 -0.41714475 0.37096018 -0.0109306965 0.32459575 0.12663852 -0.050307605 -0.24628586 0.27430812 0.124136485 0.75339717 -0.597887 0.16065864 -0.008533023 -0.5330201 -0.64066267 1.096587 0.35869342 -0.4943432 0.44058478 0.8138729
94 0.24965863 -0.39454818 -0.27634722 0.15824005 0.24920301 -0.34799653 0.5186431 -0.22458383 0.07472827 0.06045394 0.1657481 -0.7833969 -0.43306923 0.45800436 0.31825846 0.19345564 -0.44905695 -0.8654887 0.3760137 -0.5337337 -0.25385708 -0.045436878 0.07723923 0.9363328 -0.052143127 -1.1530435 -0.30275917 0.13007496 0.48954198 0.22739965 0.12557282 -0.04259489 0.080210514 0.09828235 -0.42287385 0.56263375 -0.7140904 0.37691808 0.32030165 0.122844346 -0.2778254 -0.7757565 0.3507605 -0.19852395 0.19290107 0.0496231 -0.17545785 -0.67244893 0.61027443 -0.043528896 0.0095046 0.3668427 0.18098827 0.0026079635 0.32028562 0.32725114 0.44848225 -0.27505848 -0.4731687 0.9070098 0.10593885 -0.39344504 -0.0752714 0.15834948
709 0.34917894 -0.009921431 0.55892456 -0.34622845 -0.017113624 -0.9243023 0.55375403 0.14876577 -0.2633361 0.39449644 -0.13016795 -0.6051586 -0.90706635 -0.8845193 -0.062477794 0.35983655 -0.15219 -0.9103397 0.15574981 -0.20834737 0.13580038 -0.30751827 0.07290674 0.56491977 0.18092935 -0.8382021 -0.39286208 -0.14929087 0.30722353 0.33353645 0.06395595 0.28236237 0.35927373 0.24469496 0.32644904 -0.019192778 -0.86935264 -0.008843866 0.06534426 -0.16260068 0.37023038 -0.44434246 0.033141837 0.12186546 -0.0066035343 0.32648394 -0.4347745 -0.387881 0.68942034 -0.29235286 -0.062020794 0.24063401 -0.39738572 -0.5993135 0.48765597 0.5320028 0.7991787 -0.41605696 -0.4956038 0.9273688 0.61772615 -0.66659594 -0.29840174 -0.1257626
695 -0.15149812 -0.8933477 0.1875228 0.0010649256 0.44003767 -0.58061826 0.78390574 -0.9464886 -0.5259198 0.58073854 0.7081957 -0.88311964 -0.09004931 -0.71654236 0.3813499 -0.21412043 -0.11914958 -1.0643725 -0.7853906 -1.0314934 -0.41902566 0.22277293 -0.52018905 -0.16965592 -0.40182444 -0.751839 1.3139591 0.25285262 -0.06841772 0.9862866 1.1492549 0.63896376 0.2908744 -0.16781943 0.06951067 1.704623 -0.8003065 -0.56953776 1.8023547 -0.6713832 1.6620846 -0.23875667 -0.10384377 -0.7050905 0.54060996 0.7554672 1.0947675 -0.91565984 1.1808617 -0.17561899 -1.7154442 -0.4165433 0.32690382 -0.8523104 -0.21589276 -0.29854962 0.28764242 1.0547465 0.42293498 0.2133104 1.4532186 0.24918243 -0.10221459 0.73276806
1236 0.028785726 -0.09634485 -0.21548189 0.6233628 -0.36871412 -0.29970366 0.06268133 -0.38702324 -0.050192684 -0.18362114 -0.16382077 -1.1559433 -0.6728852 0.28030825 -0.077597186 -0.34959635 -0.42271164 -0.47284052 0.37509018 -0.56694853 0.162768 0.11499754 0.22486606 -0.13545027 0.39250508 -0.8400051 -0.19919918 0.26186267 -0.37269837 0.25146568 0.020249244 -0.30215105 -0.374607 -0.15321976 0.63768464 -0.5978666 -0.007377502 -0.21159348 -0.22901864 0.5293971 0.20900951 -1.0023134 -0.047700677 -0.017331028 -0.37899056 0.14986071 0.21179761 -0.002361051 -0.300528 0.93511474 -0.6849288 -0.31039998 0.15432975 -0.28270245 -0.34753338 0.15737975 -0.17197624 -0.17975132 0.038731445 0.68578666 0.529685 0.21816376 -0.39523178 -0.23622155
425 -0.6055414 -0.2677534 0.47490513 0.16981319 -0.9193809 -0.20834133 0.35625893 0.24694575 0.38260153 -0.32381842 -0.4185914 -1.3407409 -0.63558966 -0.12186765 -0.26005194 -0.1515503 0.3937276 -0.43753776 -0.32260802 -0.7560142 0.18397732 0.28673047 0.6271101 0.0009895829 -0.19852898 -0.05701596 0.6267955 0.10313733 -0.22729346 1.0074453 0.04776286 0.2592973 0.15374611 0.06900399 0.62470067 0.069189794 0.30262554 0.6432884 0.5111405 0.022512995 0.85578537 -1.0945715 0.5353174 -0.21160826 0.2100486 -0.116387956 0.23173487 -0.79592955 0.038549215 0.26970503 -0.27608147 0.0192892 -0.6491311 0.2821944 -0.38739312 0.4186957 0.16612929 -0.0094975885 -0.13125344 0.8748271 -0.19442576 -0.7950363 -0.20946634 0.20199941
436 -0.565514 -0.30931294 0.41110742 0.13140455 -0.912282 -0.27075827 0.35561115 0.22469057 0.42940733 -0.40151158 -0.42081428 -1.2844083 -0.6548203 -0.07702858 -0.26311806 -0.1961308 0.3496217 -0.40601796 -0.29370338 -0.7650419 0.16747934 0.30257508 0.6859731 0.03665509 -0.22178093 -0.1264057 0.6588791 0.121959545 -0.25104773 1.0677059 0.02420312 0.16891412 0.03219306 0.00028801113 0.57264966 0.047613822 0.30132532 0.54661494 0.50434273 -0.012700616 0.88191605 -1.168459 0.55441374 -0.23982826 0.2825647 -0.058892556 0.268851 -0.80168635 0.04722551 0.2566507 -0.36128598 0.030974615 -0.6512434 0.23254481 -0.3532231 0.3512126 0.15706958 -0.0016753756 -0.09568531 0.82504135 -0.18826726 -0.7611538 -0.19550025 0.21041223
1240 -0.035526097 -0.07512312 -0.3701442 0.6842198 -0.46232644 -0.2815212 0.0025267412 -0.4277923 0.0012690532 -0.1317303 -0.06744217 -1.0441984 -0.67311656 0.37991038 -0.0069470215 -0.2219896 -0.30917653 -0.29484266 0.44222766 -0.7249959 0.25203174 0.17532398 0.2786414 -0.115096495 0.56115454 -1.0184171 0.11018488 0.34405842 -0.27553472 0.109660245 0.14637338 -0.25007382 -0.29359597 -0.061917834 0.6684513 -0.5063745 0.10106693 -0.3096078 -0.16998234 0.67356426 0.31510034 -0.7597573 -0.07412205 0.13868508 -0.47118133 0.12253145 0.15522046 0.13495846 -0.3775695 0.9163008 -0.57728195 -0.5178808 0.21711574 -0.2620967 -0.14266247 0.10765171 -0.106678866 -0.1008825 0.12970383 0.75701284 0.45867762 -0.13946491 -0.34153655 -0.13607474
127 0.4981372 0.036335975 -0.32921222 0.4901906 0.43536457 -0.5744769 0.3610085 0.23535593 0.08015026 -0.1561264 0.29006317 -0.41365117 -0.8140281 0.21421508 -0.4131461 0.20531495 -0.5902246 -0.78168964 0.141611 -0.90137637 -0.21712755 -0.34058413 -0.22871806 0.70459694 -0.15686283 -0.92225546 -0.0912699 -0.14474635 0.569955 0.16907746 -0.09086117 -0.12421835 0.10374151 -0.05638457 -0.06257994 0.46776548 -1.1013926 0.37736166 0.01672461 -0.26049998 -0.024443015 -0.8095151 0.46069553 -0.17400615 0.1444492 0.2812175 -0.2140752 -0.37345436 0.2281352 -0.16713116 -0.06593282 0.2499983 0.025630902 0.20990084 0.33630893 0.5082167 0.014188254 -0.19672227 -0.046160255 0.788634 0.28898758 -0.41259602 0.101181015 0.26268053
814 -0.4587727 0.48297504 -0.2120022 0.8910843 -0.34658253 -1.0021527 0.19218242 0.17539258 -0.9178403 0.896324 -0.7018965 -0.13222596 -0.5967901 0.8566217 -0.28755644 -0.557385 -1.3144039 -0.539983 -0.78331584 -0.5282321 -0.065902814 0.39614308 -1.4205221 -0.3877867 0.380818 0.12359191 0.76803946 0.13468102 -0.56491166 0.8407417 0.8300179 -0.5400657 -0.30746257 -0.71083176 0.02472393 0.42786252 0.20712313 0.40576658 0.75112426 0.088314705 0.27627653 -0.12915862 1.4284723 1.2153634 -0.81846386 0.53709394 0.30943516 -0.31356344 0.12972952 0.61415976 -0.49632156 0.92264235 -0.61290145 -0.21202545 -1.1274608 0.32352462 0.32038215 -0.022991978 -1.0811422 0.6872318 0.15483032 -0.14409803 0.29826632 0.24633533
1530 0.41346952 -0.046923306 -0.6349275 -0.2171275 0.6176217 -0.7428064 0.6261621 -0.9887321 0.5780719 0.5234616 -0.66695225 -1.7606496 -1.1108001 1.1964922 0.06330266 -0.50987065 -0.9977016 -0.8446155 0.43103203 -1.4909862 0.031668942 0.2060839 -0.3454595 -0.232545 0.883055 -0.8135636 0.7323883 0.14887963 -1.309405 1.0569606 -0.031055301 0.21961805 -1.2480171 -0.53421426 -0.5746954 0.26364186 -0.07111671 -0.7462614 0.24227494 -0.5998259 1.8204769 -1.0000813 0.17932414 -0.21220745 0.06583689 0.13071884 0.60018754 0.044733297 0.502899 -0.09602945 -0.6065178 -0.73425287 0.6786133 0.41806144 0.66361916 0.19111419 0.6304407 -0.11428544 -0.19622417 1.6664846 0.3040919 -0.11045373 -0.40776232 0.271816
1220 0.37044054 0.015546212 -0.02149375 0.8548721 -0.48864785 -0.34722278 0.17471047 -0.27858162 0.78438926 -0.35884234 -0.03568516 -0.97866327 -0.6772742 0.4635146 0.10986219 -0.38438922 -0.40799186 -0.36285546 0.82455987 -0.5907388 -0.13539304 0.0224779 0.05839693 -0.34840256 0.36859795 -1.1307336 -0.07976113 0.52959776 -0.65157354 0.38409185 0.54195136 -0.13229279 -0.6278312 -0.18739004 1.0282297 -0.81438875 -0.0041656164 -0.27835885 0.078327164 0.7942199 0.07698621 -0.9397984 0.010854665 -0.06494594 -0.035209034 -0.49639037 0.71369106 -0.20517997 -0.66083324 1.2676824 -0.46085382 -0.5138359 0.31109825 -0.20175916 -0.8671633 0.26665685 -0.24382035 -0.00058400846 -0.27659482 0.9669714 0.6644751 0.038644638 -0.24213924 0.4220493
1531 0.29671675 0.00016262894 -0.7300985 -0.19722432 0.77035815 -0.8229997 0.50582916 -1.0308813 0.5318222 0.58722234 -0.54379696 -1.6288583 -1.0514374 1.1041521 0.037109725 -0.5151643 -1.0060297 -0.7883916 0.26319712 -1.4636862 -0.17354318 0.099423416 -0.4624899 -0.2778617 0.84450406 -0.8821198 0.5076507 0.13786362 -1.3722161 0.96309847 -0.059786074 0.11273434 -1.3228779 -0.74397683 -0.46761844 0.3286331 -0.18536744 -0.70082945 0.18624231 -0.53695303 1.6474729 -0.8978485 0.061393168 -0.121612564 0.05173159 0.20416027 0.53743845 0.16168134 0.46253303 -0.17136309 -0.5630221 -0.6845268 0.709083 0.317846 0.6609754 0.1320593 0.6574439 -0.1652152 -0.22072306 1.7487627 0.41150346 -0.10827443 -0.5461472 0.35760975
1141 -0.07205271 -0.5670957 -0.05151288 0.5887861 0.048772186 -0.2067653 0.44682518 -0.47325984 -0.57225376 0.2828143 0.44004345 -1.1940328 -0.4405925 -0.13610797 0.54074526 0.064321764 0.020963063 -1.1659894 0.08785143 -0.33467948 -1.0416672 -0.018727813 -0.61209345 -0.12251344 0.8720671 -0.5574979 -0.18275534 -0.24305516 -0.6494454 -0.21195507 0.07232257 0.32908246 0.1150076 -0.52302974 -0.30480558 0.40977827 -0.41395113 -0.44005555 -0.40685156 0.55678654 0.5135909 -0.48017332 0.06179962 0.3766633 0.0026382017 0.6310805 0.31178477 0.46423286 -0.013827273 -0.1308586 0.17810345 0.35049957 -0.01848962 -0.80883807 -0.31231928 0.60644966 0.14045043 -0.6191905 0.8924114 0.9148016 -0.10968003 0.10636416 -0.16182734 0.32802895
1231 -0.10249659 -0.09530974 -0.3069079 0.71567833 -0.29954785 -0.23724216 -0.09004811 -0.25126734 0.01847463 -0.107973956 -0.1371561 -1.1712798 -0.7320657 0.29307675 0.008671632 -0.4869076 -0.44264042 -0.5000568 0.49336526 -0.5871186 0.23002276 0.035988174 0.3809472 -0.2848826 0.4795113 -0.97178245 0.17463167 0.37213308 -0.47930315 0.008254878 0.08410083 -0.16393729 -0.31698382 -0.08945929 0.6232319 -0.50224286 0.019236606 -0.20534758 -0.052565485 0.66245735 0.2466811 -0.6998461 -0.056403868 -0.044444308 -0.45849153 0.26989508 0.27862355 -0.1582055 -0.25339672 0.8684108 -0.57059574 -0.33355856 0.16654007 -0.33988485 -0.25469646 0.047261942 -0.022365712 0.046983227 0.21439286 0.7470889 0.2946208 0.044049032 -0.3439649 -0.27254403
134 0.3477848 -0.11197396 -0.2322717 -0.014357015 0.45873433 -0.4999356 0.4914761 -0.23372121 -0.39537257 0.4586057 0.4130059 -0.6245987 -0.37452763 0.15517066 -0.086001106 0.06875017 -0.33754784 -0.8081818 0.36056802 -0.97228086 -0.20510788 -0.21437256 0.12999573 0.7118312 -0.36651057 -0.8112202 -0.24116372 0.024473216 0.4454674 0.30580276 0.030135775 0.03195553 -0.33470276 -0.079615034 -0.33358005 0.36294058 -0.80362827 0.117948614 0.19489627 -0.15287305 -0.20028515 -0.71549743 0.49313197 -0.10140901 0.49513182 0.31644708 -0.25617737 -0.646427 0.34926906 0.19778495 -0.2550612 0.35921568 -0.20809466 0.22474198 0.22726615 0.6659295 -0.21879636 -0.39232978 -0.1997526 0.6580187 -0.14009337 -0.86407757 -0.31285152 -0.08526826
1447 -0.67977357 0.24807787 0.43275607 -0.1890541 0.37161896 0.17131202 0.83954155 -0.33240712 0.6459458 -0.46323296 -0.43310824 -1.3021017 -0.043721568 -0.9739604 0.84325665 -0.39063996 -0.54414445 -0.7762026 -0.45742297 -1.2949646 -0.12472632 0.2991923 -0.05403418 0.43709925 0.33083212 -0.70948166 0.12332307 -0.7163707 -0.77284217 0.43387717 0.44978988 -0.5056902 -1.0072583 0.21160547 0.23501849 0.59261876 0.33942014 -0.31808105 -0.4814548 0.38064155 1.6331573 -1.196545 0.04003277 0.39930108 -0.15444723 0.17281918 -0.47605714 0.13380416 -0.5593366 -0.123741366 -0.6513093 -0.30694827 0.42244974 0.93526936 0.5141322 0.98393434 0.7578526 0.26025644 -0.26898906 1.5711887 0.13136905 -0.7010546 -0.2576431 0.73021793
129 0.6901514 -0.06825342 -0.3203539 -0.056576435 0.22614758 -0.37119237 0.697721 0.007537526 -0.3559795 0.17650707 0.5348806 -0.5281487 -0.48240718 0.36254817 -0.08454465 0.10490577 -0.40817013 -0.68956816 0.47080266 -0.8089698 -0.10808601 -0.0052726897 0.036075406 0.96479213 -0.5053648 -0.7242206 -0.011374579 0.116960056 0.54444724 -0.061051235 -0.077283 0.20848693 -0.07690331 -0.18288635 -0.4341118 0.28750873 -0.75539947 -0.077091224 0.24827576 -0.35990757 0.0067192875 -1.1877778 0.87808174 -0.26807094 0.13539734 0.1844759 -0.25637844 -0.3436925 0.32951286 0.20480846 0.044536225 0.28440556 0.05140249 0.052935258 0.36321148 0.69709027 0.18349223 -0.20785038 -0.13014284 0.87962973 0.26801848 -0.45476943 -0.06981353 0.0474567
702 0.5535733 0.07212669 -0.46213043 0.13753772 0.53555995 -0.36394942 0.1115199 -0.19617316 -0.24004771 -0.22577134 0.32892656 -1.019731 -0.6958901 0.2255477 -0.6025632 0.2948547 -0.5767052 -0.41170478 0.467476 -1.1884848 -0.38822192 -0.14750694 0.0183497 0.82167286 0.8268045 -1.1333799 0.14457826 -0.15531969 0.95824087 0.61997795 0.17664184 0.29212353 -0.3508094 -0.04451862 -0.7538338 0.5897425 -1.2157594 0.011443006 0.42573807 -0.60971886 -0.025882374 -0.92518985 0.7312699 0.020916427 0.28641608 0.8344815 -0.386525 -0.6146653 0.5707719 -0.06974545 0.12393354 0.25151578 -0.25238973 0.04559474 -0.12095401 -0.5826397 0.65738696 -0.21555446 -0.35985172 0.9115003 -0.002018655 -0.67082196 -0.26729995 -0.5714056
1222 0.06790614 -0.28545442 -0.30091268 0.76623666 -0.32944134 -0.31922945 0.1590102 -0.2299222 0.17043138 -0.13195223 0.010412903 -1.1451799 -0.84587 0.43377748 0.07784006 -0.30560085 -0.4693425 -0.030474516 0.6655184 -0.49132594 0.093867585 0.2181743 0.2203795 -0.14796765 0.5123717 -0.9695185 0.16006187 0.0942155 -0.46560836 0.19088143 0.15228009 -0.5034078 -0.29617047 -0.18596217 0.32947904 -0.47812524 0.049512655 -0.06736887 -0.013862671 0.6004238 0.3627218 -0.8533075 -0.08956481 0.23221901 -0.38459817 0.06535186 0.25428122 -0.10965024 -0.34441423 1.0697653 -0.49345604 -0.05432997 0.1701388 -0.2466034 -0.34807447 0.028861115 0.07654958 0.12092926 0.12533043 0.6822347 0.65935165 0.05764395 -0.50380534 -0.2367406
1444 -0.653527 0.18256749 0.6083775 0.04016966 0.36402506 0.050531022 0.8039355 -0.4477926 0.6281828 -0.6083106 -0.14374602 -1.0189879 -0.12246073 -1.0110652 0.8728134 -0.22449644 -0.42359176 -0.8726554 -0.49419934 -1.154674 -0.2203802 0.42813662 -0.17137371 0.52949566 0.53734213 -0.572948 0.20468177 -0.72739536 -0.7797739 0.22936314 0.44085345 -0.6229114 -0.9195263 0.078292444 0.21789771 0.68112755 0.28871825 -0.3445013 -0.5150425 0.52629846 1.530853 -1.2942207 0.026291613 0.29943958 -0.022589168 0.20778216 -0.3669978 0.21063133 -0.4876853 -0.20426455 -0.55838877 -0.42779136 0.41444045 0.70399684 0.65797126 0.72491145 0.5896235 0.010023319 -0.17344768 1.531643 -0.012700407 -0.54511505 -0.5312619 0.888107
426 -0.3853371 -0.30006593 0.321862 0.041947655 -1.0537215 -0.22702678 0.3583358 0.098351285 0.5050676 -0.55495983 -0.46393713 -1.2261307 -0.52624375 0.009485587 -0.2545095 -0.2721415 0.5783534 -0.32466367 -0.3736201 -0.77317065 0.22111313 0.13794751 0.71565014 -0.15248054 -0.23620158 -0.18168533 0.47342104 0.13834225 -0.20472232 1.0301454 0.22505197 0.0024929172 0.10855985 -0.09410354 0.5395036 0.23410377 0.3040645 0.63801306 0.42188823 -0.15027688 0.96426994 -1.3016165 0.5679828 -0.42817557 0.31546623 0.24564022 0.06517871 -0.6478598 0.16412777 0.2575583 -0.4861348 0.18329482 -0.6128965 0.36264837 -0.3531521 0.4223439 0.23906715 -0.10220062 -0.20102493 0.83742464 -0.18476905 -0.60817885 -0.3367184 0.21452153
1234 -0.0698114 -0.059694 -0.24241138 0.7872791 -0.3886773 -0.3165844 -0.036185894 -0.17464061 0.059773397 -0.12793715 -0.029816689 -1.0439556 -0.74192935 0.2838833 0.015042364 -0.33012027 -0.49197364 -0.37011445 0.77449554 -0.5309519 0.25358787 0.083919786 0.17224964 -0.47795054 0.4538468 -1.0034068 0.12192285 0.23527627 -0.53011346 0.2069759 -0.09709589 -0.3638688 -0.2975848 -0.20492086 0.68075114 -0.39470705 -0.0696684 -0.33979237 -0.059289116 0.39971307 0.30108508 -0.8601089 -0.2791948 -0.010024768 -0.49237174 0.2832726 0.08328604 -0.20991428 -0.25996813 0.92148346 -0.4344333 -0.40183818 0.19229166 -0.30976114 -0.28981903 0.21845856 0.07340756 -0.031502962 0.028048506 0.84551823 0.2941636 0.123989195 -0.30943888 -0.29135677
1226 0.23499873 -0.33346805 -0.21154867 0.72068423 -0.30263174 -0.2819338 0.12513383 -0.2318063 0.24543385 -0.13166386 0.088652484 -0.95720196 -0.8416506 0.168829 0.18444937 -0.1718439 -0.4591461 -0.27059326 0.6063932 -0.5618767 0.19253212 0.059916798 0.39853302 -0.34681347 0.5316536 -1.017703 0.04582085 0.32421532 -0.38633263 0.17872342 0.07137379 -0.2927372 -0.4005117 -0.2647454 0.6219679 -0.56635886 0.062545925 -0.23097898 -0.05457009 0.4951123 0.5741164 -0.68931395 0.054077055 -0.156981 -0.44472864 0.20041269 0.09005921 -0.016345518 -0.1600857 1.0681281 -0.4743071 -0.3634533 -0.051669184 -0.3251678 -0.42989358 -0.058767553 -0.0125214765 -0.1782916 0.075607456 0.78351736 0.4403748 0.06825808 -0.43465313 -0.3702973
1358 -0.439286 0.46102062 0.49262947 -0.34222525 0.11888358 -0.5203718 0.8887855 -0.50913656 -0.1032266 0.025791733 -0.2888887 -0.41371396 0.05560012 0.3115058 0.55890214 -1.5928767 0.6725344 -0.17380735 1.3673921 -1.0670432 -1.202497 0.1477361 0.3010813 -0.7638499 0.59022355 -0.5526061 -0.48521164 -0.8781596 -1.197908 1.5088433 -0.34413502 0.8911765 -0.40813473 -0.8721121 0.87830675 -0.28829682 -0.47497812 0.41797337 -0.06389092 0.18100828 0.14557488 0.78108996 0.34571207 0.24860503 0.7441081 0.38101432 -0.5561035 0.37949657 0.06535452 1.4304882 0.24133225 -0.3387124 -0.006100161 -0.5410476 -0.19196655 0.6906132 -0.40056077 -0.6258639 -0.07917469 2.1846287 0.70632255 -0.5922508 0.22368753 0.4057325
1230 0.062114745 -0.16507794 -0.23207256 0.6920565 -0.20568544 -0.37745848 -0.07370706 -0.48710734 0.006677863 -0.37969774 0.0872794 -1.1418896 -0.79191655 0.16060719 -0.18172725 -0.42145306 -0.6299684 -0.38895196 0.5782138 -0.427875 0.3839622 0.019669918 0.30027694 -0.5496008 0.3352649 -1.0791858 0.12730962 0.32848972 -0.5899515 0.28135073 -0.03875634 -0.35241196 -0.34801129 -0.16462694 0.53883344 -0.6180147 -0.17576952 -0.2310241 -0.12589002 0.38707808 0.29854798 -0.7016709 0.11588157 0.076839164 -0.49955943 0.24154356 0.22402354 -0.03578 -0.25216237 0.9420983 -0.5465837 -0.16717392 0.003499408 -0.32070053 -0.34375215 0.31102476 -0.22201836 -0.06269888 0.16225669 0.6996329 0.42746884 -0.09000259 -0.1429476 -0.1326131
1223 0.16986723 -0.11560369 -0.090219185 0.58535063 -0.3104076 -0.20762755 0.18219851 -0.13858761 0.04484709 -0.17360938 0.22800702 -1.1039332 -0.7637297 0.24864577 -0.06400321 -0.3150491 -0.5255484 -0.54401827 0.7140303 -0.683765 0.19425657 0.32100418 0.39450657 -0.4992862 0.4274368 -0.93538207 0.2189189 0.3788838 -0.37154886 0.021257663 -0.11475377 -0.34802026 -0.16854078 -0.05051671 0.539043 -0.5926089 0.033923678 -0.36163855 -0.08934217 0.44694528 0.29252678 -0.87771034 -0.11100408 -0.09080098 -0.57503176 0.12947564 0.19195244 0.056888025 -0.35323703 0.82769996 -0.50719315 -0.17303078 0.1398758 -0.39515376 -0.48417464 0.1377077 -0.0648095 -0.016586417 0.03642942 0.76988417 0.4264844 0.047561944 -0.39109465 -0.1065847
1128 -0.15067145 -0.357408 0.023619842 0.76434547 0.03852594 -0.063520186 0.44704694 -0.3830424 -0.609538 0.24803945 0.53928286 -1.0981432 -0.2877974 0.0021084705 0.4136505 0.20609821 0.23243733 -1.2461997 0.22088453 -0.21392289 -1.0420059 0.08789778 -0.58221626 -0.051774375 0.86323786 -0.5993585 -0.1729645 -0.11198612 -0.75580597 -0.19051345 0.13406713 0.17252912 0.057058547 -0.48924848 -0.25526062 0.42233595 -0.48644093 -0.57446384 -0.45320722 0.41856447 0.43733644 -0.4946108 0.03622252 0.40624237 0.01378748 0.63015294 0.36784086 0.34247935 0.17680639 -0.08587809 0.049405254 0.2570617 -0.14481884 -0.67937547 -0.43801284 0.7779609 0.18753356 -0.5063881 0.8492713 0.8402442 0.048400268 0.21211158 -0.17180751 0.25539657
433 -0.54005 -0.24342482 0.2999103 0.12709919 -0.9941746 -0.18835601 0.45015165 0.25099006 0.41505215 -0.45502046 -0.3661858 -1.1901586 -0.67991877 0.012033487 -0.24688971 -0.11086596 0.46086386 -0.3691008 -0.31992742 -0.9082265 0.22783278 0.37619367 0.63998455 0.05949649 -0.22494325 0.01610892 0.66911995 0.12269422 -0.23305877 0.9634575 0.21085288 0.12516339 0.13286349 -0.053442676 0.5883059 0.1093856 0.30684617 0.65735525 0.3788234 -0.11613986 0.99467754 -1.2026873 0.40204528 -0.37821102 0.2569758 -0.0052127754 0.172969 -0.62017804 0.021455444 0.13386308 -0.35342112 0.13232237 -0.56708187 0.14720377 -0.4148813 0.3859039 0.2593567 -0.14873427 -0.12973064 0.8820624 -0.040766973 -0.6546816 -0.30161703 0.13409856
692 0.26966855 0.52879137 -0.17358956 0.27764982 0.50151783 -0.65816677 0.11517912 0.012151181 0.20283787 -0.043112323 0.41072077 -0.80124384 -0.80920553 0.013210205 0.25861973 -0.19921964 -0.47166923 -0.92537767 0.365036 -0.5761248 -0.061264843 -0.12191984 -0.3475582 0.9233016 0.19990145 -0.59302187 -0.25320938 -0.13797008 0.7962662 0.37398526 0.008096638 0.3934475 0.08869662 0.09216444 -0.48928198 0.44542027 -0.80711275 -0.21268551 0.09551529 -0.0025903794 -0.14678022 -0.9143274 0.16794327 0.027366957 0.06533016 0.6384057 -0.17895879 -0.6742076 0.46737242 -0.28205654 -0.32890967 -0.23545945 -0.0044994424 0.026117273 -0.1821448 0.27367017 0.56935763 -0.09605434 -0.17361093 0.573899 0.39245048 -1.0098648 0.22993115 -0.2589099
96 0.3056431 -0.2960477 -0.0013645027 0.19408324 0.22426331 -0.24197054 0.30200666 -0.0006394606 -0.1783766 0.044827323 0.35296142 -0.78234637 -0.7544175 0.27187303 0.41698062 0.40340838 -0.39723578 -0.51297855 0.17595066 -0.8966641 0.22080134 0.119025975 -0.12379118 0.8463743 -0.08802896 -1.3087848 -0.4759659 0.017824773 0.8612038 0.42900404 0.4344433 -0.0015034591 -0.16131459 0.15273796 -0.4040834 0.48376697 -0.5890955 0.24969774 0.57781386 -0.23665944 -0.009972484 -0.7298207 0.5387589 0.09425959 0.3924341 0.2826397 -0.10891406 0.028116103 0.2930844 -0.12765856 -0.059290644 0.07308095 0.20533916 0.13988021 0.26105994 0.7145709 0.18618196 -0.1538646 -0.37362945 0.68475324 0.20550458 -0.46056262 -0.13722798 0.0818498
1356 -0.38325787 -0.21504211 0.6844788 -0.15747653 -0.2846138 -0.45208856 0.62816244 -0.801212 0.23335192 0.9976018 -0.03225058 -0.34475183 -0.2004327 0.30723366 0.18767469 -1.3055296 0.3122632 -0.37676814 0.5864665 -0.9880638 -0.41968155 -0.47892025 0.85227764 -0.764753 1.0069678 -0.6294369 -0.05815213 0.3435149 -0.01468586 0.95122516 0.24067803 1.0794858 -1.3401996 -0.13709733 0.8062289 -0.59175944 -0.08999089 0.44316155 0.0831891 -0.3852099 0.9557727 -0.7162439 0.8939484 0.29456356 1.0312515 1.3215021 0.66240895 0.27669394 0.2574291 -0.19177546 1.0850573 -0.86933947 0.88907355 0.5476629 -0.75928646 1.0148026 -0.56167006 -0.6807655 0.61494386 2.0504224 0.8396104 0.6020849 -0.14955814 0.32944918
1543 -0.95184755 0.0067784865 -0.5334792 0.06489728 0.47321838 -0.41125384 0.74267644 0.028183099 -0.884831 0.79961973 -0.38275585 -0.9167178 -0.6608045 0.86460394 -1.2634974 -0.11955811 -0.7943544 -0.3772432 1.5590236 -1.5525314 -0.74811167 -0.759007 0.6316825 0.13319182 0.6518954 -1.333523 0.5623963 -0.796618 -1.5994875 0.36233258 0.60239655 0.45429376 0.010049471 -0.3630664 -0.55545235 0.06968501 -0.21910924 0.554001 0.830124 0.4039789 0.49527395 -0.6945309 0.22504075 1.0523423 -0.15644558 -1.4902602 -0.43284887 0.5949493 0.33192357 -0.61871 -0.23591645 -0.8695353 0.7118798 -0.64573956 -1.1771526 0.49897754 0.9159133 -0.5438132 0.20995201 1.0689267 0.5060662 -0.06348742 -0.3731851 0.3456718
430 -0.5418812 -0.2606418 0.3281239 0.13843533 -0.98210865 -0.20569603 0.47848156 0.24300782 0.43632677 -0.46974772 -0.38425642 -1.1787229 -0.69025165 -0.0012353277 -0.24281795 -0.15657699 0.4394643 -0.36631978 -0.318295 -0.8737927 0.24768583 0.38918197 0.6827732 0.08618187 -0.27261958 0.02230612 0.66154057 0.13212867 -0.19205719 0.9562925 0.16284087 0.09261516 0.06770041 -0.09727359 0.60012627 0.080165036 0.3078457 0.62969685 0.34989396 -0.13056043 0.9992034 -1.1985341 0.4410509 -0.35773718 0.26816073 0.01696758 0.21795328 -0.6224912 0.026626475 0.14266756 -0.3661516 0.12593174 -0.58172065 0.15074928 -0.41256833 0.39882886 0.25207105 -0.13381413 -0.11762399 0.84321725 -0.02807495 -0.67673063 -0.24848965 0.14547247
435 -0.57122093 -0.23200464 0.30647472 0.17584369 -0.9815257 -0.19879758 0.47568554 0.23159581 0.42909017 -0.47483054 -0.35047346 -1.1487353 -0.7068905 -0.01065824 -0.3021025 -0.17228752 0.4057473 -0.34111235 -0.3318998 -0.8842575 0.23295882 0.36678606 0.66234255 0.13000856 -0.28052956 -0.015697794 0.6755069 0.09992651 -0.20148043 0.97284555 0.12482569 0.06732974 0.07697579 -0.082408465 0.5838807 0.11915783 0.31433898 0.6568112 0.3809126 -0.1331543 0.9849024 -1.1894913 0.45498833 -0.33666477 0.2990248 0.011909905 0.21884902 -0.6327987 0.048295494 0.10621913 -0.38093364 0.09283515 -0.54945874 0.19306904 -0.43459976 0.40446624 0.21907388 -0.09850038 -0.11943324 0.8655377 -0.018009223 -0.7102198 -0.23359305 0.15993765
1012 -0.8265929 -0.38286096 0.47957847 0.56586224 0.025057424 -0.20577417 -0.26100054 -0.00836344 1.4001627 0.3041264 1.1534191 -0.6459497 -1.6564677 -0.6621189 -0.4390644 0.18478188 0.6859915 -1.7475065 0.3177196 -0.5421936 -0.32035303 0.56684494 -0.17944206 -0.1497634 0.8747928 -1.0334315 0.31463835 -0.13065799 -1.2277822 1.6235098 0.9676715 -0.22499862 0.008233098 -0.5106865 0.6753271 -0.78106743 0.6242168 -0.96984446 0.95309603 0.74499214 0.81958055 -0.73872584 0.7249594 -0.32532528 -0.578082 0.21054623 0.0533285 -0.9099366 1.2571142 1.081699 -1.258928 -0.7696715 0.4177777 0.17459626 -0.96369886 1.5100414 0.12855506 -0.06423924 -0.33454546 0.64831233 0.5401464 -0.39838147 0.5050105 -0.17959666
1013 -0.8220629 -0.1713079 0.40860003 0.5608409 0.13493758 -0.14886194 -0.23356724 0.15228398 1.2027067 0.36974943 1.0856564 -0.47964257 -1.8310708 -0.6267239 -0.49981108 0.12667002 0.7276527 -1.7377942 0.4689002 -0.77970386 -0.3944277 0.6465367 -0.326791 -0.39776543 0.909735 -1.1876076 0.49612284 0.07642501 -1.0030147 1.6574732 1.034449 -0.18406828 -0.13538304 -0.53865296 0.61565816 -0.7674469 0.6733639 -0.7839705 0.94378746 0.7540247 0.73747694 -0.5477258 0.63805515 -0.38780963 -0.63126343 0.054488044 0.07732785 -1.1358415 1.1243064 1.0300533 -1.191913 -0.8813427 0.3257618 0.19999574 -1.0294713 1.5414451 0.1576339 -0.16373049 -0.34192786 0.7032127 0.5604002 -0.63386166 0.5320801 -0.29701322
1555 -0.6224961 -0.107265584 -1.1050872 0.26675373 1.1665338 -0.44801334 0.11141722 -0.14609027 0.5659884 -0.18528138 -0.8580836 -1.1879044 -0.67263955 -0.063283086 0.5320511 -0.403102 0.33438522 -0.35250676 -0.670109 -1.7247692 -1.0029492 0.5660275 -0.8298817 0.4072855 -0.25729823 -0.98300344 -0.18000901 -0.15853083 -0.07416056 1.1249188 0.055040337 0.26358432 -1.5638301 -1.9737148 -0.30067012 0.016931016 -0.20402591 0.8637572 0.5541765 0.66563165 0.26468197 -0.63923293 0.6438969 0.27531046 -1.3931072 0.5235709 -0.6587592 -0.8384263 -0.44845346 0.35976753 -0.40421203 -0.43864527 0.005967772 -0.11737144 -1.3264109 0.609271 0.12689987 0.021588773 0.24271214 2.2211301 0.7660298 -0.9275587 0.5642156 0.9711614
1556 -0.7978885 -0.050141815 -0.9078637 0.42453906 0.8943992 -0.36117095 0.21000066 0.019215519 0.45391378 -0.3574523 -0.8312006 -1.2278804 -0.7103472 -0.20276691 0.5167543 -0.32023802 0.48442462 -0.24509919 -0.8049704 -1.6703407 -1.0275377 0.5149113 -0.68491495 0.5275463 -0.42646948 -0.813978 -0.16089189 -0.23627056 0.045691095 1.2087524 0.022776533 0.21258394 -1.4593514 -1.9232395 -0.090030126 0.04197524 -0.20242035 0.999663 0.6060939 0.7045165 0.20525222 -0.72062165 0.7931545 0.24484326 -1.3188082 0.42854258 -0.7472115 -0.90506095 -0.4945126 0.30416542 -0.36875403 -0.22019702 -0.09603566 -0.11122317 -1.3788606 0.7448874 0.27369717 -0.03660075 0.13947709 2.148515 0.6927178 -1.0463854 0.6886504 1.0105041
704 0.6953877 0.17919281 -0.5767818 -0.005584176 -0.005065593 -0.36242256 0.37429252 -0.028709562 0.035509825 -0.026230097 0.2763909 -0.78380984 -0.3427138 -0.071754724 -0.320845 0.31836134 -0.03997255 -0.6284643 0.18516462 -0.2730177 -0.14602649 -0.3294064 -0.2311817 1.0510226 0.51928544 -1.1240575 -0.07538732 0.21147837 0.38773146 0.2888495 0.2993436 0.051485755 -0.20685539 0.029537434 -0.29431966 0.9199284 -1.1047071 0.112830184 -0.10205437 -0.34609145 -0.09597385 -0.7838424 0.729575 0.30681086 0.1378403 0.3375681 -0.27693874 -0.6823164 -0.028191783 -0.20718774 -0.4071624 -0.04499443 0.30639717 -0.08788151 -0.080068804 0.36470696 0.012106879 0.2667578 -0.6524458 0.9169402 0.15699592 -0.78414595 -0.16042103 -0.11521171
687 -0.46578553 -0.3303714 0.12706068 0.068889126 -0.2213786 -0.90258205 1.0141464 0.64034235 -0.23931068 0.25395077 0.63168824 -0.5983994 -1.8444128 -0.3243866 0.686207 0.06914322 -0.10232027 -0.92144644 -0.6415861 -0.609194 -0.015587676 -0.3582376 0.40667102 0.06977857 -0.19449389 -1.131966 -0.0012376278 -0.08467017 0.093165986 0.04333871 0.2806037 0.77385235 0.2936337 -0.23128504 0.052663103 -0.08412756 -1.1242452 -1.0241206 -0.40165064 -0.38553286 0.045051835 0.26770523 0.5844764 0.31276122 -0.23643881 -0.31069815 -0.013406496 -0.57489 0.2623768 -0.13657823 -0.014549816 -0.14196233 -0.7006541 -0.35290915 0.26133916 -0.22828685 0.5758807 0.07007256 -0.8193784 0.7851992 -0.20727505 -0.83026767 0.35404745 -0.061037563
751 0.90296185 0.32492763 -0.26137677 -0.31801733 0.63327014 -0.53391564 -0.00055988465 0.18272945 0.4112184 0.006767406 -0.06801716 -1.065307 -0.2688719 0.21939753 0.04513616 -0.11842192 -0.41692793 -0.5112801 0.34792966 -0.8066988 -0.18252794 -0.1620952 0.37646264 0.89439183 0.13558044 -1.1503386 -0.23188917 -0.31690195 0.23987247 0.012069866 0.49044868 0.20953746 -0.15720448 0.070182405 -0.37243098 0.9930348 -0.984702 -0.25847593 0.20507383 -0.19301338 -0.08880731 -0.42526925 0.47600433 0.04783251 0.0077560525 0.5460096 -0.14408481 -0.5381672 -0.18309455 -0.07625205 -0.20489582 0.2074823 -0.16838798 -0.14248021 0.068212025 0.6342858 0.37588906 -0.076096155 -0.29753757 0.86475605 0.24522339 -0.5976142 0.08405171 -0.45579794
1135 -0.04751101 -0.4340254 -0.014652372 0.7285035 0.044109806 0.0015699976 0.45707822 -0.33238757 -0.5745574 0.32752812 0.54176784 -1.1086594 -0.28210458 0.008042186 0.40025342 0.18039127 0.05670788 -1.2847617 0.08932022 -0.34911725 -1.0353793 0.09767441 -0.60861653 -0.09527018 0.9370925 -0.6161221 -0.12977959 -0.21418782 -0.6672262 -0.17031129 0.1994382 0.30294248 0.08090659 -0.53352857 -0.25361007 0.44951773 -0.40524614 -0.4691347 -0.4345642 0.42073298 0.3570465 -0.44995245 0.08763205 0.40899032 -0.07910558 0.6176147 0.37477452 0.45956334 0.0860631 -0.05048625 0.11833298 0.2521174 -0.020599758 -0.77194726 -0.43231466 0.6795591 0.13912952 -0.36447436 0.90570724 0.8136137 0.01744029 0.0806953 -0.24900474 0.26405978
1138 -0.009359139 -0.44993794 -0.047824454 0.723038 0.07386618 -0.05389872 0.3811722 -0.3862023 -0.5928139 0.29810223 0.46845147 -1.1132344 -0.31777018 0.018014004 0.4905351 0.23689504 0.06917308 -1.1816119 0.09003924 -0.43807647 -1.0652463 0.06014329 -0.6562285 -0.13500693 0.9000691 -0.66110593 -0.16128302 -0.267688 -0.6786769 -0.14642587 0.15195034 0.33203194 0.050690223 -0.51529896 -0.265516 0.37038434 -0.42389026 -0.4293954 -0.41200882 0.43893716 0.37774837 -0.44910485 0.046334185 0.39314207 -0.07287305 0.6438208 0.37854975 0.48035544 0.0633034 -0.06615501 0.16935706 0.28874618 -0.037872903 -0.82954955 -0.51550096 0.65757436 0.19073533 -0.3841561 0.9257784 0.85192925 -0.061603207 0.047322232 -0.25167316 0.28454778
1136 0.01971874 -0.43058425 -0.059611447 0.6736165 0.05355284 0.00072118314 0.41771722 -0.41074896 -0.53556985 0.37255117 0.5437156 -1.1438487 -0.31076416 -0.0008360867 0.43149087 0.22241066 0.10029097 -1.2503552 0.08260074 -0.3468715 -1.0491946 0.079289414 -0.6597994 -0.15216768 0.9037057 -0.71342653 -0.14247917 -0.20504609 -0.6825086 -0.17180058 0.14447758 0.28430426 0.08743681 -0.5512949 -0.2979396 0.41602397 -0.39139622 -0.46535975 -0.42240846 0.4044218 0.39862776 -0.4395649 0.090775006 0.414102 0.0176158 0.5947597 0.35362425 0.44927153 0.08360711 -0.0781909 0.095569454 0.24505514 -0.0361784 -0.79480094 -0.42394456 0.56587523 0.17076422 -0.36603427 0.8939853 0.8899851 0.0129774315 0.09330947 -0.26123708 0.32321787
1142 -0.08107723 -0.3801306 -0.010724552 0.65487134 0.068210855 0.11267686 0.48436552 -0.33072594 -0.37538177 0.37895527 0.7130442 -1.1945992 -0.31301823 0.008653429 0.41165924 0.2364649 0.20346454 -1.31669 0.12987117 -0.34326664 -1.0959071 0.07470295 -0.6917522 -0.17315194 0.9099592 -0.5679561 -0.15064698 -0.13526668 -0.61015636 -0.098057225 0.28577453 0.28041062 0.047155168 -0.50860006 -0.37752 0.3733436 -0.48198998 -0.5333263 -0.4098252 0.48028252 0.41703445 -0.44060478 0.020029241 0.4315148 0.01529868 0.55756867 0.30250436 0.51782817 0.0024388367 -0.028733935 -0.14430489 0.35869783 0.06038649 -0.7779712 -0.34153843 0.45958605 0.22963212 -0.34814397 0.86170226 0.87230545 -0.0005438112 0.10213484 -0.1813616 0.3763794
1137 -0.05437566 -0.45595554 -0.003509554 0.7247074 0.032746106 0.006691454 0.4189361 -0.4355859 -0.54425263 0.26979265 0.5150728 -1.1054492 -0.33895823 0.016381333 0.4686937 0.22279792 0.055181753 -1.2385505 0.11150958 -0.32354134 -1.0402992 0.04596037 -0.6052144 -0.11876668 0.88991624 -0.61975783 -0.09674139 -0.254518 -0.6428256 -0.115420364 0.21080162 0.32503808 0.09579271 -0.5142717 -0.2713793 0.3883541 -0.4324409 -0.5091522 -0.33342725 0.44894728 0.37925076 -0.42366323 0.053265993 0.46228483 -0.0039395536 0.6261864 0.28538254 0.4323093 0.034699857 -0.087055154 0.1154533 0.28594726 -0.10067682 -0.84543926 -0.4900971 0.62569326 0.16180761 -0.40077904 0.87899584 0.8265502 -0.04575727 0.11859903 -0.20787473 0.2526195
960 0.33607912 -0.5657062 0.4801713 -0.15876639 0.122852504 0.14115156 0.42797145 -0.9356803 -0.5749402 -0.0045502246 -0.57535225 -1.3063991 -1.4133806 1.0573885 0.6073371 -0.7168635 -0.013521405 -1.2335721 0.29999605 -0.34418675 -0.4483215 0.6979757 -1.3200173 -1.0555582 1.020712 -1.2300107 0.4930226 0.54961914 -0.03698117 1.0212777 0.36842978 0.62257636 0.61060673 -0.5703458 -0.44032353 -0.11608375 -0.1801055 -0.6304766 -0.7138212 -0.19445153 1.3216685 -0.6973407 -0.21630009 -0.33368966 -0.3695467 0.642589 0.73520404 -0.97916234 -0.3704492 -0.12834203 -0.77969325 0.46668348 -0.46364588 0.17993125 -0.3176613 0.75246716 0.12912932 -0.24562603 -0.3263783 0.6850612 0.336129 -0.37406537 -0.92410666 0.5061428
1139 0.0039265524 -0.45473683 -0.039572924 0.70046 0.06435097 -0.035378776 0.35796702 -0.38356394 -0.5545062 0.3177015 0.47848412 -1.1210068 -0.33623427 0.036013935 0.4504558 0.23150332 0.106918655 -1.2050928 0.15297098 -0.35404176 -1.0428011 0.022627927 -0.6162179 -0.12112185 0.8911259 -0.644828 -0.16560735 -0.20116858 -0.68556255 -0.122011825 0.17157204 0.29817104 0.10012469 -0.5019707 -0.2790983 0.41521204 -0.43323722 -0.5042299 -0.40916967 0.4318796 0.39992383 -0.42076725 0.023217747 0.39448836 -0.016963348 0.62688637 0.32189474 0.4509059 0.08424783 -0.06008749 0.09744897 0.28823978 -0.038436264 -0.7994949 -0.44400677 0.6468595 0.18439366 -0.39758644 0.9092147 0.877037 0.015743062 0.110878445 -0.23886545 0.31026235
1140 -0.026739176 -0.44663456 -0.0022435603 0.73015046 0.05304063 -0.066354245 0.4044186 -0.34324533 -0.5806399 0.28875288 0.53138906 -1.0743523 -0.31914675 -0.036866575 0.42289016 0.23645498 0.057468258 -1.1977388 0.09397186 -0.3928909 -1.040714 0.10015895 -0.64228445 -0.122062005 0.94266665 -0.70507884 -0.14514816 -0.19884174 -0.74450856 -0.18901199 0.11057361 0.3020891 0.09221574 -0.52922004 -0.21273172 0.45374167 -0.40273318 -0.4613503 -0.4411611 0.42628133 0.36509898 -0.44218117 0.122966975 0.3553383 -0.04660023 0.6137938 0.427008 0.43251076 0.12578826 -0.047119103 0.14109877 0.26594722 -0.01020068 -0.7479862 -0.4589187 0.6883276 0.124812536 -0.41218045 0.9058655 0.86522853 -0.0013630354 0.10039929 -0.25201207 0.31822208
1036 0.33307943 0.080225274 0.08160341 0.81956613 -0.06735742 -1.432901 -0.11947895 -0.6762682 0.82729167 -0.83933014 -0.47660726 -1.2258489 0.050559893 0.5334948 0.009341929 -0.34282795 0.70059764 -0.5535069 0.17096354 -1.0626113 -0.88099575 0.8332275 0.18630731 -0.14231066 0.621476 0.30131143 -0.3983021 0.18347014 -0.4042885 1.2249448 -0.4478417 1.4233497 -1.3640435 -0.79869926 1.2804439 0.3780672 0.36161223 -0.2587558 0.67562884 0.4110901 1.5810137 -0.81103414 -0.29536185 0.5365007 -0.5095893 0.18777111 -0.12322758 -0.14153644 0.218774 1.9754359 -0.28355443 0.2661489 1.3321801 -0.43737832 -1.3900044 -0.18024622 0.43928185 -0.87135667 -0.25735807 0.40083262 0.16330418 -0.93251723 1.186716 0.6744495
1405 0.18048471 0.080507845 1.0929214 0.7947351 -1.054302 0.30829296 -0.08069825 -0.71781844 -0.44649398 0.44805416 0.008092893 -0.69606805 -0.35408315 0.022821138 -0.3077275 -0.33762974 -0.15682942 -0.5916987 0.08813715 -1.0170463 -0.766796 -0.57406235 -0.101499334 -0.040197622 0.29488707 -0.39738974 1.2746407 -0.10174984 -0.01308272 0.37969464 0.41118097 -0.64743304 -0.27025446 -0.4325102 -0.4890515 0.1536604 0.35528713 0.19080116 -0.29810682 0.6698047 0.8840408 -0.07400192 0.32419628 -0.18510546 -0.39316064 0.11542583 -0.45994064 0.15226926 -0.049236853 0.14260113 0.033609997 -0.014487743 0.12411506 1.1935672 -0.42396915 0.5811725 0.5450039 -0.39143407 -0.38050053 1.2586205 0.3127797 -0.4852783 0.71624875 0.74968266
1134 -0.024149813 -0.42877194 -0.03961469 0.7100432 0.07337522 -0.03455125 0.39513716 -0.42013395 -0.568246 0.3505664 0.48377308 -1.1585906 -0.324464 -0.011693957 0.4363149 0.1539851 0.05791273 -1.2471033 0.122324206 -0.30846208 -1.0206076 0.06107106 -0.60474104 -0.08540436 0.91783625 -0.58339846 -0.14796999 -0.21455379 -0.64566046 -0.15479244 0.20396282 0.27129075 0.07376037 -0.5300284 -0.29501742 0.43353215 -0.4245343 -0.46557885 -0.37840047 0.42318195 0.39658374 -0.40466908 0.06090029 0.3996667 6.019321e-05 0.63326246 0.3598402 0.46720663 0.08092833 -0.09514503 0.1537237 0.23621754 -0.057343904 -0.8345031 -0.40348426 0.64876276 0.13768372 -0.4473725 0.887434 0.8660366 -0.010728743 0.07324166 -0.28331164 0.28717634
1420 -0.21644382 -0.3700714 1.1816231 0.51561505 -0.5990492 -0.23673959 0.6020168 -0.5908732 -0.23717915 0.25878435 -0.31245652 -0.46866167 -0.61729175 0.11274099 0.34100968 0.14976975 -0.2058135 -0.6315396 0.2889678 -0.6731825 -1.100292 -0.4829937 0.39647764 0.37417352 -0.011796919 -0.29873946 0.6244211 -0.17542285 -0.084928066 0.74993986 0.49019757 -0.48148355 -0.35894278 -0.7771421 -0.70919114 0.7075179 0.7420745 0.13091767 -0.43072012 0.5417491 0.5682421 0.42179853 0.13102 -0.1742315 -0.7266779 0.015413247 -0.07845335 0.49618956 -0.09919028 0.3098129 -0.09694665 -0.20603912 0.2726558 0.51443666 -0.6386477 0.17878622 0.44767419 -0.47454968 -0.5225011 0.8301878 -0.066001646 -0.584315 0.46157634 0.4929036
1042 -0.14911439 0.8452013 0.067114934 0.19538401 -0.20884901 -0.7344507 -0.25450367 -0.31984785 0.7828199 -0.9580199 0.22800815 -0.86555636 -0.26486212 0.8447806 0.07367707 -0.50670433 0.31005687 -0.35174227 0.05406102 -1.3168917 -0.97492385 0.35208347 -0.0346741 0.21890837 0.18185458 -0.107520714 -0.10942665 0.77838784 -0.7657669 1.1988398 -0.5435062 1.125922 -0.931023 -1.1127466 1.4388908 0.3153607 -0.43088025 -0.99315363 1.2658706 0.13735259 1.471492 -0.49889436 0.2025429 0.83085805 -0.8795309 -0.4751102 1.0421157 0.42931843 0.8923593 1.2042876 -0.4050239 0.4904874 1.3386804 -0.03628089 -1.6587647 -0.43061352 0.20914981 -1.062921 -0.65228534 0.6561469 0.16152033 -0.9547961 0.94618356 0.17942382
713 0.51077974 0.036158912 0.07543591 0.4447509 0.56667536 -0.87335277 0.6963248 -0.4075185 0.46444872 0.0062080366 0.2027769 -0.87791765 -1.1343507 -0.060323667 -0.34477252 -0.08190258 -0.27399415 -0.6498914 0.029920751 -0.37687373 0.024537442 0.33351102 -0.22373556 0.61543167 0.06327143 -0.5525449 -0.3701726 0.42754984 0.6949284 0.21586 0.5596367 0.6193112 0.4145782 0.1849144 -0.45805493 0.06454152 -0.9578391 -0.23441966 0.20347403 0.2529918 -0.008990826 -0.64633274 0.14449726 0.16107327 0.031325575 0.3849451 -0.5302065 -0.97881883 0.2100842 -0.61861783 -0.32150444 0.35017988 -0.31556863 0.5256343 0.17438622 0.9196448 0.1945906 0.063445084 -0.4502933 0.86907446 0.4718817 -0.30882373 0.32818192 -0.6197526
1117 -0.4034036 -0.18077558 0.081424996 0.59068507 -0.44992688 -0.04546538 0.62122315 -0.16128735 -0.7855565 0.16244219 0.37548807 -1.5185062 0.19948986 0.18356155 0.4745578 0.07178069 0.6155038 -1.0749068 0.18211967 -0.3376736 -1.0521585 0.0043521184 -0.5442256 -0.019867344 0.915808 -0.37805012 -0.54719484 0.026923595 -0.89311266 0.22472227 0.36481145 -0.10107138 0.36949018 -0.07971546 -0.1879817 0.3636743 -0.36867812 -0.19020838 -0.35899 0.21069396 0.25572243 -0.88773745 0.19636324 0.3969899 -0.15491207 0.4932443 0.41743675 -0.051464703 0.16700721 -0.25219023 -0.029607465 0.6072659 -0.5166812 -0.44719765 -0.73478985 0.8945842 0.2643254 -0.25257552 0.95796174 0.6889364 0.012161193 0.2857294 0.28233328 -0.17475463
1411 -0.57479125 -0.09879422 1.0646435 0.88427615 -0.35255757 -0.15974171 0.25749397 -0.16324134 -0.22977991 0.35175785 -0.46437418 -0.7108558 -0.4874852 0.24075866 -0.41693556 -0.20370966 -0.18630272 -0.42893487 0.072675325 -0.9069606 -0.66111475 -0.21718381 -0.27640772 0.60809016 0.34458274 -0.3278649 0.6223559 -0.41592872 -0.21277837 0.4837357 0.1775692 -0.19061607 -0.17781746 -0.09174885 -0.5894195 0.3309793 0.9317555 -0.25196418 -0.43166727 0.11612065 0.47745368 0.28021884 0.26128843 0.10088311 0.1973428 0.49619237 -0.057899743 0.5796249 -0.008799974 0.5169373 -0.09634514 -0.27231202 -0.27269986 1.0496064 -0.39530292 0.2748017 0.3925851 -0.42979547 -0.13622902 0.81281 0.5183459 -0.568758 0.26901817 0.7382507
963 -0.064972326 -0.48876688 0.38655224 -0.17227478 0.09940779 0.089004524 0.30643395 -0.9424198 -0.40524566 -0.09105037 -0.619204 -1.5235637 -1.3284186 0.9980849 0.51729435 -0.5770154 0.053813264 -1.0736945 -0.015572216 -0.2819344 0.017945351 0.48903486 -1.1500229 -0.92092294 1.0099509 -0.8363473 0.4328777 0.41458124 -0.12966324 1.1910813 0.3608249 0.53412974 0.77414465 -0.5386705 -0.45761445 -0.08047634 -0.06606588 -0.23639892 -0.67754537 -0.048623122 1.368972 -0.8008961 -0.33402926 -0.4671133 -0.03701303 0.6813786 0.81880915 -1.0215439 -0.40721157 -0.20959851 -0.8759072 0.5868823 -0.6365302 -0.11028169 -0.49194133 0.77611965 -0.0048296256 -0.18706438 -0.40708032 0.8400324 0.3406255 -0.4467919 -1.0158113 0.45945966
1349 -0.785254 0.27751383 0.10717731 0.43708166 -0.78337157 -0.69134027 -0.20027281 0.02716538 0.07363423 -0.4717198 1.0839535 -0.18796681 -0.03629229 1.4694554 -0.35653737 -0.6107497 1.5706867 -2.1369727 1.0215384 -0.46648738 -0.48855448 0.36178982 1.0720879 0.10258169 0.8293688 -0.6761119 1.0032328 -0.5585367 -0.27545393 1.23503 0.04434754 1.4138479 -0.8399975 -0.98577577 0.79299253 -0.81596476 0.2673802 0.31648758 -0.18085779 0.7009612 0.11633614 -0.21827424 -0.018502243 -0.084371544 -0.7082936 0.21487083 0.93519634 -0.304962 0.85254437 0.7881751 0.3502815 -0.08697653 0.20660095 -0.02835647 0.3858602 -0.17145549 -1.0304098 -0.20397972 1.5226518 1.5943722 0.4093867 0.01714658 0.34963936 1.415469
1039 -0.5235182 0.34164116 -0.98478305 0.004651455 -0.30426583 -0.962643 -0.14694025 -0.69680035 0.8871 -0.7352992 -0.23039788 -1.1782064 -0.17760807 0.67487377 0.28333202 -1.1183096 0.5877969 -0.4503141 0.6941318 -1.3685765 -0.6286447 0.023527432 -0.05349637 -0.23970534 0.23576176 -0.03316448 -0.09902666 -0.0014830154 -0.5123969 1.1260899 -0.16449331 0.77710575 -0.86920035 -0.8099199 0.87802297 0.035656936 -0.097698756 -0.7690582 1.4887829 -0.006367066 1.6358833 -0.379958 0.144331 1.1841571 -0.67213583 -0.25008214 1.0507022 0.9316685 0.99683654 0.9992262 -0.89299434 0.33542377 0.49335006 -0.13413042 -1.1261225 0.5193534 0.6180163 -0.64931005 -0.35104722 0.51122963 0.025547273 -0.5932495 1.024568 1.0133765
92 0.2372496 0.025566433 -0.1176332 0.21036853 0.07656102 -0.25168666 0.31866857 0.37034526 -0.23223668 0.27587992 0.17863327 -0.7599024 -0.50503665 0.43441913 -0.085427806 0.7332631 -0.09681826 -0.68472576 0.15864116 -0.5631619 -0.4702633 0.30229494 0.17447998 0.46547413 -0.37596083 -0.86136895 -0.1568828 -0.033896305 0.5074249 0.0649182 0.14708045 -0.10006749 0.06563222 0.34334764 -0.5332555 0.29132977 -0.8563398 -0.0014487543 0.3641324 -0.3462193 -0.1001689 -0.5676759 0.20963544 -0.11389477 0.08813719 0.66914064 -0.5486225 -0.7384428 0.3576966 -0.056015424 -0.261755 0.13477033 0.25088567 -0.14221132 0.23659985 0.4841725 0.16124327 -0.2214999 -0.11974378 1.0687368 0.33158726 -0.79622084 -0.42229182 -0.3797541
1239 -0.045942802 0.09873085 -0.1701826 0.598102 -0.00900639 -0.47241354 0.55164444 -0.24334364 -0.1072897 -0.05131412 0.027595975 -1.2795738 -1.0758935 0.074734636 0.23660582 -0.17629758 -0.4889697 -0.4012592 0.53097975 -0.2268264 0.12255232 0.020466795 0.5770467 -0.4224021 0.4147263 -0.7842499 0.1436156 0.4170689 -0.3080946 0.36311534 -0.07048626 -0.17106555 -0.3152963 -0.09911586 0.6863843 -0.34569997 0.082513794 -0.1029504 -0.18671386 0.50826037 -0.020109493 -0.7338071 -0.032610804 0.0042549944 -0.64054894 0.06303392 0.34295553 0.1788627 -0.112517975 0.99452096 -1.0234629 -0.3902906 0.24108508 -0.08075998 -0.39360905 -0.010789623 0.024443839 -0.102020584 0.042129554 0.7291874 0.6273574 0.10381508 -0.30974016 -0.26142016
166 0.47153565 -0.35349053 -0.4303822 -0.08126369 0.2907512 -0.24556316 0.14095944 -0.33391398 -0.3723743 -0.0056535536 -0.053404056 -0.053333957 -0.57226115 0.36417273 -0.39575103 -0.09974688 -0.52672714 -0.57778466 -0.047681563 -1.021239 -0.5634442 0.14136697 -0.07733692 0.6033336 -0.116088934 -1.1948547 -0.1932958 -0.34212667 1.0158508 0.30615807 0.25919947 0.4800402 0.10258911 0.21479917 -0.8182437 0.14359498 -1.0693338 0.3383262 0.5597645 0.23521408 0.23577334 -1.1275423 0.18338718 0.24214824 -0.18029596 0.19327001 0.14310476 -0.015213867 0.27613926 -0.009514731 -0.5038103 0.5138215 0.32680228 -0.22954325 0.28155592 -0.25864154 0.08048735 0.0082347095 -0.6591201 1.1723403 0.15457289 -1.3860328 -0.48273978 -0.342752
891 -0.78343046 -0.001388275 0.5803257 -0.042135265 -0.47991917 0.2543691 1.1664373 -0.1396858 -0.038976487 0.41023555 0.1632154 0.007246887 -0.44025925 0.08914976 0.48917776 -0.31771708 -0.1357951 -0.4999115 -0.5700513 -0.4675446 -0.63682246 -0.02905736 -0.5155077 0.36369526 0.5841004 -0.19441101 0.090887874 -0.2268474 -0.6614165 0.557455 0.003456291 -0.8495642 -1.0995041 -0.101002775 0.2908378 -0.17325252 0.26180568 -0.20826453 -0.07654943 0.52608836 1.049419 -0.4506625 -0.44218624 -0.12827165 -0.5416611 0.3838418 -0.86351794 0.8030993 -0.34992528 0.5861328 -0.71784693 0.49087653 -0.56723946 0.63304615 0.043929048 0.66903955 -0.029876726 -0.004886611 -0.43504742 0.9893827 0.16801901 -0.5693422 0.06198554 0.3771395
735 -0.45662418 -0.16117442 -0.34666884 0.009075175 0.55637425 -1.7639389 -0.19166212 -0.51792943 0.024550168 0.8416848 0.791768 -0.14385533 0.014946397 -0.06260891 0.49801457 -0.3536399 -0.3821719 -1.3129956 -0.27138573 -0.9856871 -0.35871413 0.1630605 0.2873604 0.49101174 -0.082440324 -0.16680057 -1.0390536 -0.8286905 0.15857542 -0.25419182 0.23982933 0.5199455 -0.103485614 -0.8399228 0.37127507 0.9990349 -1.023632 -0.60103834 0.6359347 0.06816486 1.218208 -0.17810036 0.69833225 1.0037969 -0.5749545 0.82693905 -0.6037323 -0.6538056 1.382725 -0.6446484 -0.26303992 0.14933632 0.25523424 -0.4241842 -0.12940405 0.8910885 0.4244088 0.10431816 -0.67284745 1.8039501 0.5872838 -0.8535049 0.5279363 -0.25269532
133 0.5087903 -0.07457967 -0.29357466 -0.025271922 0.34854934 -0.37254855 0.32345882 0.3521259 -0.48670757 0.085182935 0.2285102 -0.47183144 -0.4629178 0.30539367 0.031033238 -0.09014633 -0.3014399 -0.87330073 0.49391994 -0.85518885 -0.29313242 0.18509637 0.28651014 0.9755566 -0.069046855 -0.68478644 0.02494596 0.22697441 0.64473116 -0.03451729 0.22591119 0.032184426 -0.008269694 0.124229096 -0.5393892 0.5283303 -0.74333423 -0.011450771 0.360367 -0.18916358 -0.24407735 -0.9488113 0.70303506 -0.17844667 0.14844832 -0.15138246 -0.16916715 -0.4016454 0.45690235 0.18191141 -0.26708645 0.09402093 0.0571935 0.019827474 0.2728715 0.7344022 0.22547637 -0.3115659 -0.07362882 1.164906 0.25849825 -0.47198078 -0.32795316 -0.055817556
1408 -0.037367996 -0.1854285 0.6856577 0.6229885 -0.6763726 -0.20744641 0.18773927 -0.3686893 -0.7918564 0.24377349 -0.7962435 -0.5068013 -0.46649128 0.33228603 -0.47619888 -0.097001866 -0.28211522 -0.613328 0.098875664 -0.5684131 -0.9378997 -0.114989586 0.41389602 0.20109436 0.3199351 -0.794905 0.30409306 -0.46493915 -0.54920036 0.2501727 0.061396766 -0.54482174 0.30783942 -0.04068358 -0.44257498 0.4247268 0.5783231 0.10959246 -0.4649203 0.15293969 0.9238399 -0.10112393 -0.0061365752 -0.1777584 -0.21093282 0.1874305 -0.056997657 0.5065299 0.08781755 0.4060635 0.27002925 -0.14979121 0.090256155 1.0920988 -0.46147892 0.6789528 0.7768609 0.079151474 -0.40553355 0.9820173 0.2167649 -0.101715155 0.5131729 0.62071335
703 0.66684 0.4787118 -0.5795597 0.031475157 0.13584128 -0.66778487 0.10659964 -0.059045464 0.18218833 -0.25370574 -0.029057482 -1.0444673 -0.50315607 0.1617316 -0.39888725 0.28956518 -0.23026815 -0.6101566 0.047603924 -0.80652714 -0.21140108 -0.18194826 -0.31393614 1.1951996 0.57965165 -1.2410218 0.09157047 0.039265763 0.50373536 0.30338725 0.298071 0.5054519 -0.26146618 0.11105717 -0.35733083 1.003425 -1.0735251 -0.19815628 -0.10119218 -0.2926735 0.12835295 -0.85442966 0.51252884 -0.09133562 0.198267 0.45117164 -0.42305127 -0.9274237 0.08606824 0.06885521 -0.2803751 0.11349411 0.060960848 -0.41616422 -0.0052719307 0.29383457 0.11412548 -0.25043383 -0.49200282 0.5564401 0.2078404 -0.7119003 0.247583 0.038398646
1238 -0.22735436 0.08900188 -0.4852737 0.9227645 -0.27676353 -0.18419112 0.09858438 -0.657676 0.112010375 -0.29471493 0.16030554 -0.810824 -0.757934 0.5716978 0.077499926 -0.5091707 -0.5067283 0.09494605 0.34505394 -0.62594646 0.2009433 0.13891895 0.36215 -0.16802403 0.33828446 -1.2159961 -0.06431608 0.20314208 -0.26202136 0.27144888 -0.041202858 -0.37366465 -0.12661989 -0.31863725 0.6302977 -0.5074167 0.200424 -0.36385876 -0.018416094 0.51972765 0.517277 -1.192307 -0.2161471 0.16027404 -0.44823077 0.1560358 -0.061685976 0.23423798 -0.45088616 0.8313283 -0.6922078 -0.056476273 0.1996862 -0.46007127 -0.5455144 -0.27918324 0.07192214 -0.34772694 0.10150468 0.9201872 -0.124784015 -0.21181794 0.051631548 0.11347282
47 -0.11777948 -0.35429087 0.36786824 -0.46272692 0.50166166 -0.16791812 0.30943954 -0.5767481 -0.389202 -0.16974762 0.045306444 -1.1698469 -0.7834074 -0.21614593 0.46595684 -0.068746865 0.26503745 -0.54670584 -0.65134245 -0.7437626 0.24336362 -0.36528456 0.75133705 0.8598014 1.7325146 0.69848853 0.5233734 -1.1779587 -0.043082193 0.927111 0.116163865 -0.9727974 -0.70661193 0.33099905 -0.18889426 -0.48317233 0.05204233 -0.46357659 0.3214122 -0.033749007 0.905401 0.19019024 0.18580067 0.014448793 -0.79113084 0.2022125 -0.27437115 -0.38712937 -0.14932983 0.07701853 0.19727746 0.15734744 -0.06610234 -0.4968061 -0.6350051 0.84839773 -0.09954372 0.34906864 -0.11425952 1.5193354 -0.18864177 0.23842034 0.2702158 1.057099
103 -0.047375567 -0.52668685 0.62024254 0.24980491 0.2136884 -1.0301884 0.34868592 0.21002868 -0.04636315 0.90734446 0.16603628 -1.3266901 -0.40142912 0.21207964 -0.52441794 -0.3740579 -0.17576098 -0.67437714 0.1079622 -0.9405751 -0.47481027 0.63439 0.49086145 1.3549721 0.0020484563 -0.42808157 -0.801014 0.09519795 0.37584728 -0.2668167 -0.12862308 0.0053129164 0.59030807 0.16753496 0.73553586 0.5375172 -1.5956826 -0.34752798 0.2304206 -0.17160316 1.1665655 0.2162706 0.460565 0.06954565 0.0698665 0.03111883 -0.9444325 -0.6413487 -0.41882816 -0.45678005 0.11292219 0.3783955 0.38364932 -0.22316591 -0.918086 -0.122634865 0.57858825 0.44018784 -0.41614005 0.21261366 0.7870928 -0.32492515 -0.51148194 -0.42889288
1225 0.23080887 0.1428197 -0.30699584 0.7345466 -0.08734313 -0.17563406 0.07960699 -0.19661742 0.12490399 -0.17320316 -0.2443936 -1.170032 -1.062521 0.20020606 0.33750632 -0.62342995 -0.29271334 -0.42426717 0.71441454 -0.54586035 0.1293333 0.082763866 0.28051275 -0.5030724 0.54236245 -0.6871751 -0.026724948 0.09855182 -0.16398732 -0.26794592 0.13970757 -0.43428084 -0.19569963 -0.01597488 0.49356088 -0.6143076 0.17509907 -0.14899354 -0.05012514 0.61118066 0.30642498 -1.0123074 0.28741172 0.20574833 -0.5612744 0.034303196 0.24552877 -0.12468087 -0.25500873 0.7202788 -0.55844367 -0.36454597 -0.016780468 -0.36513862 -0.5962616 -0.19731154 -0.14685126 0.09079429 0.16773689 0.916425 0.3968665 -0.18313523 -0.48323786 -0.04539993
1532 -0.299777 -0.4537117 -0.8426072 -0.8435549 0.58925855 0.058013212 0.39017773 -0.26960656 -1.0796342 0.16940598 -0.0371397 -1.1077969 -0.51232815 0.9763953 -0.45786318 0.5109367 -0.35696492 -1.0255796 1.110399 -1.2704043 -0.0019607544 0.096 0.62559277 0.6160233 0.5245331 -0.6553268 0.71512645 -0.76647836 0.3029369 0.028827747 0.74817336 0.020800767 0.4170792 -0.07612695 -0.3443807 -0.18802297 -0.88238364 0.30551845 1.2182337 -0.21750239 -0.90493876 -0.89047056 0.44841275 0.7531948 0.79243755 0.018302714 -0.33703262 0.011150118 0.58381456 -0.3684036 -0.17828688 0.24279867 -0.5970491 0.4160719 0.24115299 -0.47856483 -0.09365906 -0.010019362 0.2805022 1.4070578 -0.06721029 -0.34000754 -0.17214695 0.19407876
1347 -0.28185117 0.10779269 -0.5664525 0.038682625 -0.54997426 -0.5765188 0.26235268 -0.63454425 0.15768573 0.28742012 0.055962022 -0.12722655 -0.4133578 0.2141366 0.57614815 -1.9056524 0.61569613 -0.84961414 1.6108855 -0.64271027 -0.86183983 0.60316235 0.10589252 -0.48571065 0.6493071 -0.7192257 0.11151495 -1.3631184 -0.35654512 2.193004 0.61852247 0.96007234 -0.79793525 -1.4540211 0.23154247 -0.08896551 0.39594963 0.33088213 0.5580241 0.10334238 0.75460666 -0.89738786 0.22280312 0.6282111 0.15374525 0.39560854 0.24442041 0.03476509 0.41115892 0.9323626 1.3699232 0.045449637 0.3485822 0.5750616 0.0817687 0.13068517 -0.68076384 -0.34634498 0.627348 1.9606576 0.032724693 -0.029306836 0.7722743 1.4769372
48 -0.33208537 -0.7463128 0.3278458 -0.75807005 -0.16186722 0.31002003 0.94698244 0.3603402 0.03822377 -0.204639 0.005216228 -0.9629085 -0.9694054 -0.4370025 0.3357691 -0.11548806 0.32348707 -0.5384405 -0.8222755 -1.1304091 -0.09348349 -0.415893 -0.3417922 0.8206652 0.668587 0.2106236 0.12485516 -0.3077111 -0.055343688 0.463635 -0.10985132 -0.71361625 -0.6013547 -0.3499371 -0.03687616 -0.3682954 0.4399747 -0.7376716 -0.31023902 0.2505621 1.327833 0.1458263 0.06556522 -0.5326225 -0.9308399 0.35150012 -0.5189119 -0.03000379 0.29165435 0.14692438 0.42033288 0.037380047 0.4042431 0.33492884 -0.9766672 0.5628488 -0.50581485 0.49921274 0.5233937 1.6424842 -0.097352326 0.7341329 0.425574 0.21077521
851 -0.37821844 -0.33248433 0.2592806 0.27727547 0.78879476 -0.8598408 0.6893483 -0.5135164 -0.5378002 -0.36601272 -0.24642648 0.0682934 0.10874046 0.6694842 -0.003831506 -0.63038164 -1.2062432 -0.9939259 -1.3579158 -0.242974 -1.193786 0.423831 -0.7820484 0.17003857 0.85710263 0.028364979 1.0063645 -0.01646218 -0.53689003 1.3159946 0.822805 -0.41773418 -0.47358158 0.5036362 0.7321557 0.25034735 0.2536402 0.037903484 0.17556947 -0.013330724 0.96639544 -0.69618654 0.5674036 0.42283252 -0.5834416 0.7148528 -0.01266705 0.14072841 -0.11629656 0.46713215 0.02073326 -0.069979504 -0.849074 0.2732645 -0.15957703 1.0780939 0.88848627 0.15440463 -1.0271382 0.85471743 -0.18251888 -0.16847254 0.13361214 1.4357007
1446 -0.6928633 0.14345492 0.6591481 0.0035495108 0.4320422 0.024888303 0.9162258 -0.3184119 0.6536957 -0.357056 -0.011849643 -1.1024686 -0.15405425 -0.9467323 0.88331 -0.3516893 -0.40094742 -0.8835629 -0.50226235 -1.1179498 0.0039717415 0.32430005 -0.056141857 0.53447306 0.21730989 -0.5953099 0.4954921 -0.6503392 -0.5916767 0.5147284 0.33368725 -0.6283944 -0.9976326 0.098580085 0.284685 0.5984153 0.26556587 -0.4671404 -0.8453464 0.5207467 1.4204841 -1.1252381 -0.077980116 0.29157218 -0.22534874 0.009196097 -0.19844669 0.23963815 -0.4263134 -0.00047216582 -0.6022048 -0.23791176 0.31419852 0.9190862 0.59874785 0.82717586 0.6333231 0.29547027 -0.31546655 1.6157564 0.19272971 -0.7254227 -0.380512 0.69191104
707 -0.1673316 -0.30131468 0.22726187 0.28023416 0.3428701 -1.095864 0.3493877 0.29843056 1.1257252 0.3885883 -0.21878937 -0.8095488 -0.26188955 0.2930753 0.104133114 -0.4272772 0.09425392 -0.87209725 -1.4445789 -1.0652434 -0.8441109 0.34138134 0.15812387 1.0580362 0.6895295 0.2946097 0.649457 -0.12513153 0.26594135 0.15143509 -0.27490348 0.82749104 -0.80859923 -0.98413014 0.31273106 1.1199068 -0.81118315 -0.19941764 1.1353369 -0.028513275 0.7968537 -1.1435871 0.8317271 0.45084068 0.72149545 1.5108753 -0.29276535 -0.055947285 2.4080217 -0.11221488 0.0141696865 -0.12093378 -0.43707627 -0.023458395 0.42872903 0.82519007 0.75385994 0.88692963 -0.8471497 1.4798338 0.7597745 -0.54759395 -0.09790734 -1.0543894
686 -0.05982204 -0.5742699 0.3619586 -0.42802608 -0.493273 -0.7675828 0.19798373 0.6557396 -0.043046147 0.30649805 0.10737432 -1.2935207 -1.8012923 0.18701527 -0.10164006 -0.42568478 -0.3491633 -1.0717236 -0.21435274 -0.1023363 -0.09988879 -0.54868615 -0.23533945 -0.06518731 0.31282544 -0.6374122 -0.798547 -0.24378322 0.1467536 -0.053855635 0.77576256 0.040403318 0.3641398 -0.48985612 0.15945612 0.269241 -0.6920745 -1.0613927 -0.4503582 -0.18919148 0.6133246 -0.45483366 0.36135277 -0.37672868 -0.14677548 -0.20650409 -0.27734083 -0.17656182 1.0552993 -0.25307208 -0.06640331 0.29777992 0.10448212 -0.0207578 0.56528413 0.28464514 0.48360154 0.15552026 -0.27882236 0.6150132 -0.4242779 -0.9285304 0.08803149 -0.7544376
699 0.2912354 -0.43640664 -0.07892509 -0.23472916 0.18777709 -0.7017567 -0.36008558 0.7534454 -0.28004926 0.7458048 1.0031377 -0.8681953 -0.79276854 0.1116512 0.029617371 -0.33637622 0.13239436 -1.1699066 0.5023651 -0.9535406 -0.19003637 0.7173581 -0.61858964 0.31436014 0.05571488 -0.33883008 0.00573586 -0.54557383 0.1944653 0.032251958 -0.07968125 0.6362086 0.16199528 -0.43828583 0.6761456 0.374271 -0.7816587 0.33301452 0.70029944 0.12598902 0.19071066 -0.14581981 0.4740631 0.102976374 -0.2709039 0.401033 -0.7679035 -1.0422322 -0.023407212 -0.67478895 -0.55758405 -0.21649688 -0.035195313 -0.24832343 0.31559056 0.19286145 0.5671022 -0.19936727 -0.8427831 0.47448045 0.23929751 -0.40948772 -0.050966363 -0.38028052
1337 -0.62760437 -0.3059634 1.2921741 0.3646608 -1.6555669 0.029639013 0.79189205 -0.24857214 -0.1605867 -0.32891986 -0.17360018 -0.92297333 -0.20487761 0.1291273 -0.6151613 -0.8760887 0.5823306 0.07845306 1.1787454 -0.4637155 -0.65944433 0.56337625 0.5769404 -0.102697074 0.7567918 -1.5360022 0.40693027 0.37370512 -1.1972764 1.3861645 0.88615406 1.2238431 -0.9541509 -1.3831284 1.0258054 0.057356287 0.30546224 -0.28246626 1.0310763 -0.745089 0.05005512 0.079231955 0.9984099 0.65637195 -0.5708695 0.13786292 0.20632698 0.15999967 1.2830898 0.19786294 0.080010034 -0.47581962 1.1882225 0.31016508 -1.1043615 -0.016994173 -0.7808046 -1.2109795 -0.21982436 1.515103 1.1858956 -0.88269335 0.51377463 -0.17430723
1361 0.21464348 0.6145582 0.4462942 0.59981114 -1.0644151 -0.68858707 0.2770941 -1.4422333 0.21343043 0.6358857 0.45714134 -0.96846575 -0.7784863 1.7522371 -0.7504524 -0.46305278 0.8143753 -1.0318533 0.55771244 -0.743142 0.78030634 0.7320504 0.24784224 -1.0300096 1.1587013 -0.9231191 -0.08455899 0.6944076 -1.319906 1.3534087 -0.49006343 0.50600445 -0.7948368 -0.7237288 0.34511456 0.40480474 0.6094708 1.0064595 1.2160645 -0.8426832 1.012425 -0.34271616 0.98613006 0.26438588 0.7662504 0.6449085 0.45648447 -0.22498077 0.43783444 -0.4013273 -0.27884975 -0.66592646 0.9846555 -0.23450516 -0.35996288 0.9681256 -0.32202506 -0.15224272 0.14329338 1.788575 0.56371874 -0.31464276 0.064750165 -0.64915556
219 1.3693565 0.6998407 0.3721722 0.80175835 -1.1881888 -0.53602576 1.0971321 -0.42872998 -0.9108997 0.8651426 0.79919964 -1.3517692 -2.0228937 1.1532085 -0.7253308 -0.010824771 -0.6099737 -1.493858 0.13267891 -1.267422 0.38769692 -1.1286258 1.0742596 -0.34550112 0.5456935 0.1318111 0.3102018 -0.64324844 -0.37232754 0.03790812 0.055634957 0.6624179 0.30765313 0.07606887 -0.36077 1.095543 -0.99875116 -1.0083512 0.7224888 -0.6644209 0.43828025 0.15875663 1.0144025 1.1468757 -0.4604808 -0.66537416 0.8775779 -0.5264193 0.63182586 0.15416215 0.8408066 0.23493153 0.099592805 -0.5836524 0.4610889 0.28423673 0.981103 -0.4913435 -0.44907296 0.92249125 0.96068466 -1.1405764 -0.7652205 -0.9196908
1410 -0.42457563 -0.22724816 0.6761767 0.47743794 -0.6242874 0.16183294 -0.051505443 -0.13895041 -0.6288995 0.35541445 -0.1319489 -0.7814812 -0.52039343 0.10362423 -0.25706393 -0.1399775 -0.018093036 -0.019996328 -0.053293943 -0.8892283 -0.8727557 -0.43852535 -0.08805828 0.5032013 0.42915112 -0.5080542 0.6460132 0.22434744 -0.1865978 0.49672306 0.22418605 -0.4924147 -0.21722645 -0.4331592 -0.2722516 0.6415664 0.76914746 0.15404883 -0.43532905 0.38232297 0.26311278 0.28869414 -0.07224551 0.19214979 -0.42264032 0.42511243 -0.1457117 -0.1761686 -0.5840233 0.34565622 0.1029593 -0.3628586 0.031740695 0.44605228 -0.45052743 0.37121916 0.65170366 -0.20056792 -0.19828865 1.0828531 -0.13049069 -0.46027613 0.48943254 1.2083701
1445 -0.59246254 0.09420157 0.6431585 0.40640056 0.25693768 -0.764958 1.3391684 -0.39752302 0.45614836 -0.35742292 -0.21209769 -1.1098163 -0.7184527 -1.1379324 0.8467784 -0.56152743 -0.7575078 -1.0464389 -0.87607807 -1.1000043 -0.33091715 0.3283236 0.4234346 0.13466772 0.34338537 -0.3365276 0.18774918 -0.20017615 -0.6791398 0.15851228 0.4011769 -0.035470687 -1.5336742 -0.3549285 0.22221759 0.82282954 0.26869988 -0.55486214 -0.9689101 0.39785457 1.9203463 -0.6724385 -0.0968688 0.35001853 0.122546494 -0.028992195 -0.66266286 0.08364647 -0.5622297 -0.20646714 -0.6141232 -0.5361036 0.53250706 0.9245098 0.62659293 0.94774866 1.3099656 0.15002458 -0.5933907 1.4617789 0.09379411 -0.47583923 -0.24809922 0.7326453
167 0.17838313 -0.0719608 0.056966826 0.08625679 0.83477175 -0.3751842 0.55114466 0.3214055 -0.09433884 0.39930242 0.4487917 -1.3423516 -1.0628335 0.63678664 -1.0963013 -0.20061266 -0.27440238 -0.26382577 0.6998399 -0.9609186 0.23361892 -0.10062858 -0.32896563 0.8595015 -0.5946749 -1.2993006 0.44957483 -0.5519204 0.71654075 0.7907223 -0.35098782 -0.30415294 -0.6439394 0.602163 -0.8579089 1.1461971 -0.6603132 0.59266895 0.6044777 0.15047224 -0.46025074 -0.2620415 1.1987228 0.09747687 -0.62672037 0.48719737 0.28138813 -0.20558836 1.3166562 -0.31622952 -0.16748108 0.57685226 -0.23078257 -0.08480356 0.44829893 -0.050809518 0.023360556 0.3424859 -0.80031013 1.530876 0.7133308 -1.0943942 -0.31330737 -0.3316768
1336 0.055326015 -0.020775829 1.1036328 0.044334237 -1.1392847 0.57678145 0.6621472 -0.3506091 0.042436983 -0.032403547 0.2680156 -1.4023004 -0.47230044 0.74870473 -0.9930655 -1.1659944 0.5363008 0.10456683 0.57248986 -0.42043608 -0.39597937 0.74758726 -0.516084 0.043632753 1.0326259 -0.8497906 0.9836416 0.80190337 -0.45056233 1.4681094 0.6844189 0.57855105 -0.7631196 -1.8911821 1.3875811 0.1031942 0.02164885 -0.04633528 0.7269627 -0.5307753 -0.014582022 0.046455212 -0.28770056 1.3038181 -0.798464 -0.06515065 -0.303991 -0.15874304 1.1594666 -0.01866152 0.30387044 -1.0638112 0.49479872 0.07597552 -0.9673954 0.0011048936 -0.46670523 -1.1106005 0.9523691 1.9964103 0.23500583 -0.10543247 0.035624526 -0.15426154
1241 -0.051996026 0.124187484 -0.30243498 0.88379955 -0.47256252 -0.201368 0.2539658 -0.502272 0.007834454 -0.21934147 0.097791575 -0.9941214 -0.8314474 0.70319366 0.09226276 -0.518964 -0.70667785 -0.61181366 0.6535407 -0.8327146 0.48013705 0.48239768 0.1223077 -0.13671084 0.37828618 -0.7228389 0.16496603 0.2540805 -0.40108067 0.33788764 0.053675484 -0.628525 -0.44636732 -0.4279397 0.8401414 -0.33818606 -0.2273771 -0.28661215 -0.31027722 0.5950311 0.5378771 -0.6609789 0.20696856 -0.2144295 -0.7115416 0.06275755 -0.088971384 -0.15593532 -0.09462894 0.77491945 -0.5297448 -0.28019217 0.22253068 -0.25125203 -0.36528513 0.07138707 -0.035027664 -0.3585772 0.4858127 0.21826732 0.5343358 0.37387276 -0.5971951 -0.07258661
684 -0.1872907 -0.10706125 -0.6409388 -0.27369925 0.105397664 -0.30526453 -0.6542092 0.074575774 -0.47733507 0.8164648 0.6545817 -0.78348285 -1.1325208 -0.3250047 -0.20989467 -0.6296346 0.35309568 -0.8255453 -0.29988715 -0.97262084 -0.35594207 0.5950978 -0.17558447 -0.1948682 0.1650245 -0.9715727 -0.38601133 0.2749701 0.68416256 -0.0019744898 -0.22938204 0.47854906 0.58389074 -0.049635578 0.6187196 0.7233467 -0.31635126 0.026891682 0.25376025 0.11789632 0.27390796 -0.16655514 0.5627333 0.320487 0.077713095 0.21365587 -1.148602 -0.8394086 0.96264 -0.25856826 -0.028462732 0.03491826 -0.22167337 -0.674196 0.3120176 0.29312062 0.6311635 0.0005686978 -0.50417405 0.7622657 0.61285853 -0.75334376 0.1369599 0.030756377
1229 0.16977133 -0.5318684 -0.37456325 0.68561816 -0.4406269 0.004163838 0.30431098 -0.3382179 0.1787425 0.13477324 -0.08835095 -1.3393198 -0.72865987 0.27833593 -0.07652271 -0.46151185 -0.5812507 -0.43237892 0.35121074 -0.6385363 0.26799867 -0.058479786 0.60335684 -0.27676195 0.46169204 -1.0972462 0.06267928 0.25775784 -0.60640836 -0.1923909 -0.47514477 -0.5766623 -0.19619885 -0.07770329 0.8304423 -0.25798777 -0.1802996 -0.26295134 -0.08550397 0.23198731 0.23916656 -0.4638226 -0.009377698 -0.22809441 -0.20617574 0.21677868 0.21626046 -0.19689064 -0.33529082 1.0146583 -0.6878039 -0.21617572 0.16904438 -0.5932006 -0.46719828 0.12615342 -0.3447914 -0.23778974 0.05067821 0.7061933 0.40339035 -0.10927546 -0.27492207 0.034996122
1419 -0.3158575 -0.13437548 0.75999117 0.56747556 -0.5438791 0.15007837 0.21052337 -0.29469752 -0.6234734 0.015612246 -0.29087064 -0.65747416 -0.41333747 0.0502038 -0.4135014 -0.46619445 0.062707245 -0.27220395 -0.124475755 -0.8166529 -0.6413997 -0.53352547 0.26914987 0.6446884 0.20123841 -0.59358656 0.5772379 0.088408165 -0.39169586 0.4201429 0.18164302 -0.31672606 -0.25928766 -0.3700463 -0.6187166 0.49748048 0.6083572 0.18492216 -0.7033191 0.3205149 0.4329537 0.1945926 0.30584452 0.124984965 -0.54132617 0.67799383 -0.18560028 0.20050152 -0.04152377 0.15450837 -0.13283598 0.031811904 0.077492096 0.74684834 -0.35677102 0.45285946 0.3422619 -0.07064801 -0.37164304 0.86434764 0.34362248 -0.5322811 0.6495235 0.70627326
852 -0.20366028 -0.8197911 0.11674011 -0.18466312 -0.00097072904 0.051286917 0.7345184 0.33161062 0.14445198 -0.198431 -0.19261992 0.14679213 -0.14127314 0.6333925 0.39318922 -0.5414383 -0.8840502 -0.6339604 -0.9712607 -0.19500205 -0.9056703 0.76606226 -1.4122912 0.3200077 0.24137338 0.27703026 0.33764994 0.5035236 -0.40260413 0.63571346 0.62868726 -0.09779818 -0.21438734 0.21607584 0.6670732 0.29265225 0.5469138 -0.19695693 -0.6758668 0.8775158 0.95525515 -0.40683368 0.7029138 -0.020936832 -0.15918057 0.8112695 -0.2677163 0.6557868 -0.04897221 0.9835836 0.41773418 -0.5233651 -0.4246364 0.565905 -0.6537967 0.61974394 0.6852101 -0.02031232 -0.3062597 1.775012 -0.0076676346 -0.6741626 0.296211 0.33217648
1404 -0.048141357 0.120216064 0.39411667 0.30612022 -0.60450006 0.43326035 0.592936 -0.75086796 -0.6022468 0.41894326 -0.7110273 -0.38507342 -0.8028504 -0.4074139 -0.27303565 -0.17055503 0.048218727 -0.73865527 -0.053245723 -0.8707569 -0.6685455 -0.14511654 0.2291309 0.45693505 0.47695634 -0.38778263 0.9030149 0.5015406 0.06773061 0.22354978 0.2139672 -0.501918 -0.1253818 -0.21315014 -0.4542859 1.0229352 0.36787754 0.067216076 -0.3050122 0.43413335 0.7435782 0.13383 -0.0021245289 0.21994628 -0.035409622 0.11671209 -0.5936879 0.214623 -0.020686544 0.7186324 0.19904745 -0.11252077 -0.27789044 0.5583205 -0.61697376 0.4631003 0.31607744 -0.96963626 -0.41195902 0.7843418 0.42157516 -0.20462635 0.7463384 0.6385866
1414 -0.3161229 -0.17006686 0.80221546 0.4115701 -0.64893717 0.056389168 0.21418592 -0.34920013 -0.4434962 0.22773986 -0.28640848 -0.7724696 -0.4573489 -0.0675823 -0.43717158 -0.48015413 -0.18178748 -0.37603286 0.041837987 -0.6557108 -0.69449794 -0.4324428 0.11029219 0.5178049 0.2364425 -0.557311 0.64178675 -0.09375831 -0.21155804 0.42961282 0.30512717 -0.33996883 -0.18394144 -0.4449915 -0.5089807 0.37356395 0.5272032 0.095233336 -0.46480316 0.3140855 0.47579852 0.36138645 0.25040546 0.0057817223 -0.21015398 0.5772591 -0.20629229 0.20519987 -0.18477459 0.22379264 -0.00054206327 -0.16422579 0.034077715 0.62789226 -0.5695276 0.40612346 0.4755726 -0.20014323 -0.2662891 0.79356015 0.23800075 -0.4308149 0.585612 0.8382109
1406 -0.22051454 -0.35908437 0.77436936 0.29549685 -0.43844324 -0.1492015 0.36155346 -0.29601932 -0.6759662 0.3237301 -0.16264832 -0.5151797 -0.77662015 -0.17468414 -0.5171108 -0.3261905 0.08736858 -0.67891985 0.16695361 -0.5786007 -0.94952613 -0.11489421 0.5296008 0.56201637 -0.084679365 -0.41430438 0.7522672 0.12164074 0.10862699 0.7391751 0.19009721 -0.5154063 -0.5424412 -0.36587998 -0.71707714 0.50604653 0.64115405 0.3342045 -0.6537555 0.614439 0.5749648 0.26374218 -0.03081845 0.47609854 -0.26194024 0.3082957 -0.197168 0.23750499 -0.28691003 0.077209085 -0.30392453 -0.13646558 0.032248687 0.5581356 -0.5776823 0.2276403 0.7182128 -0.3182871 -0.47506922 0.87495995 0.5416109 -0.0656956 0.49544737 0.3632485
1368 -1.3278888 0.19234475 1.1435124 0.43956503 -0.39935172 -0.27729413 0.67024654 0.43711266 1.0134435 -0.35379913 -0.5429003 -0.41080856 -1.0378054 0.003261777 0.41119424 -0.74710464 0.14924055 -0.0005325039 -0.027686454 -0.5456277 -1.2864759 1.0285197 0.48254448 -1.3976847 1.0451099 -0.7164576 -0.24066707 0.20677444 -0.506751 1.1031691 -0.058140963 1.1299046 -1.2698199 -0.5649354 0.05568786 0.2944226 -0.6140893 0.5129484 0.5806812 -0.16286165 0.58356655 0.19492646 -0.34849334 0.08693779 -0.58656585 -0.023399666 0.02333269 -0.13990915 0.08607792 0.5695615 -0.9701902 -1.2789971 0.1276808 0.39583158 -0.7065199 0.55932325 -0.48536873 -0.6222907 0.90979666 2.3243768 1.2850673 -0.3761017 -0.12479684 0.41469204
930 -0.42513648 0.53954643 0.43443435 -0.040999427 -0.33024162 0.13157274 0.55575305 0.21068858 0.58876044 -0.15165453 0.01954244 -0.35507324 -0.41032544 -0.3227928 0.25525633 0.41891718 -0.56739247 -0.7512946 -1.07286 -0.7299511 -1.0983633 -0.047991425 -0.090781935 0.6152926 0.3393231 -0.8526844 0.17250778 -0.2365038 -0.83150476 0.36057723 -0.34816644 -0.8879639 -1.0114995 -0.066226676 -0.031567052 0.3321707 0.45196927 -0.49273723 -0.42294744 0.7016735 1.219529 -0.3505345 0.27625078 -0.07770837 -0.5951608 0.21885112 -0.7198537 0.53987664 -0.2651628 0.34335834 -0.7712207 0.24734178 -0.108172536 0.72137475 -0.37542152 0.8222634 -0.18561882 0.3650456 -0.07281803 0.8361368 0.23593383 -0.33178392 -0.081005186 0.7918332
1459 -0.54574835 -0.14537768 0.5430613 -0.08691882 0.12585463 0.6186589 0.057606682 -0.5753003 -0.34764805 1.1631422 0.21396542 -1.2497473 -0.97037274 -0.15642223 -0.6984029 0.84179115 0.117108926 -1.1943038 -1.3773855 -0.46672085 -0.6734901 -1.2469549 0.5680154 1.3292103 0.6993967 -0.5358067 0.37695405 -0.9217696 0.03829735 0.7823309 -0.5534636 -0.38854948 0.14238404 -0.93403655 0.2579267 -0.3927982 0.5286431 -0.2023937 1.3847694 0.70474327 0.036446776 0.39920583 0.25246656 -0.70271444 -0.6881446 0.2836066 -0.15999104 0.24598812 0.62039506 0.98681676 -0.25314778 0.4233584 -0.6538357 -0.042621 -0.72253364 0.3233131 0.2139341 0.7460352 0.01602559 0.95837 0.98991585 0.11315873 -0.0651016 0.6152233
1044 -0.09663329 -0.5289635 0.13166128 0.71255255 -0.641658 -0.55492586 0.43842924 -0.5439883 0.45982024 -0.61062485 -0.6356759 -1.4662721 0.006747126 0.8140638 -0.24002539 -0.45046976 0.85353386 -0.36970615 0.41556898 -0.68473357 0.6000332 0.026439656 0.22235467 -0.36205956 0.5135673 -0.2837782 -0.08758012 -0.35235786 0.36372012 0.21991855 -0.48854664 -0.08500362 -0.4242495 -0.8012852 0.53471136 -0.3326413 0.24160403 -0.35592628 0.09694367 0.9207967 0.6763583 -1.3102018 -0.20565121 0.6662577 -1.0767412 0.32390788 0.14563613 0.43872923 -0.32258722 1.148783 -0.70593417 -0.063320555 0.5769564 -0.71330184 -0.7355538 1.0737909 -0.3365265 -0.2464147 0.86950934 0.42630517 0.33390826 -0.37097347 0.039212763 0.41057295
1028 -0.74084264 0.60189706 -0.32290584 0.36282405 -0.5977552 -0.32426116 -0.3068298 0.43068528 0.80417883 0.10285028 0.29707742 -1.1510473 -1.2489448 0.6468863 0.48349372 0.15991327 2.1344543 -1.0252082 -0.4437083 -0.79149777 0.16237102 1.5592219 -0.06532776 -0.17729795 0.25858292 -0.61684465 -0.1374232 0.03965625 -1.106535 0.8338035 -0.2309156 -0.05136432 0.4105536 -1.4659357 0.4963907 0.21463071 -0.8562115 0.6865243 0.8016441 0.9750337 0.15586998 0.016449329 0.39525273 -0.88094026 -0.41491082 0.5763827 0.47554207 -0.1114204 0.46086207 1.1280466 -1.1402749 -0.5517433 0.06720319 -0.47327292 -1.2042787 0.7256898 0.78896487 0.18618464 0.8910818 1.1162045 0.32513687 0.75255686 -0.20655982 1.210414
1355 -0.09880839 0.29227418 -0.20199288 0.19298178 -0.19367068 0.48848292 0.46704203 -0.85690147 0.7378024 0.37240604 -0.25464183 -0.7590397 -0.7248043 1.433225 0.07793968 -0.8520689 0.25571162 -0.27574506 0.66795015 -1.4850215 -0.4912044 -0.772183 1.0967073 -0.72093445 1.1266543 0.12162991 -0.15664603 -0.7706757 -1.3357806 1.1428155 -0.3126615 1.1844646 -1.6545174 -0.9436328 0.15501978 -0.38879317 -0.80120736 -0.003624949 -0.020015957 -0.38363245 0.53146774 0.36822078 0.5740148 -0.07580352 0.3094725 0.049921967 0.22418606 0.076528415 -0.086186275 1.9200718 1.0634011 0.44768164 0.4676412 0.17215317 -0.037323397 0.23320802 -0.21334223 -0.8523581 0.5126094 2.6679127 0.12859267 -0.02371477 0.5013953 0.44128534
750 0.6127287 -0.41000584 -0.7208805 0.7502443 0.03141816 -0.8343453 -0.35634872 -0.20688045 0.14544131 -0.9094635 -0.00040211543 -0.6650005 -1.0255902 0.018486585 -0.52142817 -0.617791 0.21234788 -1.6613729 -0.3160207 -1.1297076 0.01500181 0.5200964 -0.12935579 0.6187393 -0.79490125 -0.7240192 -0.48146906 -0.30646572 -1.076242 0.53743255 0.6882869 0.75340116 -0.9254966 -0.8454187 0.6955732 0.3514707 -1.2338648 -0.020152042 0.020314569 -0.55669504 0.719614 0.9783939 0.5484197 0.033783965 -0.81116253 1.3484702 0.2134964 0.5661629 1.8121098 0.8335071 -0.31670764 0.78219765 -0.9691175 0.5291171 0.1092691 -0.74547577 1.0381033 1.1222872 -0.42258176 1.1924686 1.4438407 -1.0287133 -0.5993352 -0.44202644
1305 -0.83353156 -0.06857536 -1.0962758 0.15350589 -0.49637765 -0.9738492 0.5085456 0.24994372 0.74619114 0.4557186 0.34447145 -1.2090958 -1.5927392 -0.15173423 0.5059105 -0.5298491 0.35836205 -1.286408 0.5423906 0.075723946 -1.4437836 -0.05446741 0.013489028 -0.214803 0.4198516 -0.041586746 0.56456923 -1.4178078 0.26013315 1.5903527 1.0791314 0.16689645 -0.08151312 -0.8900882 -0.018700352 0.73273003 0.41768155 -0.16530949 0.69517887 -0.32528988 0.9970888 -1.3053215 1.0344287 0.66144747 -0.06950968 0.52323335 -0.3909721 -0.07865295 -0.17420667 0.1674453 1.1408675 0.763189 -0.011491042 0.24867973 0.21883757 0.1452068 0.6533307 -0.27869448 0.7066363 1.7003808 0.03691452 -0.95273143 0.67739934 1.1388074
107 0.029652614 0.6304537 0.07006846 0.3302725 0.38868028 -0.8265214 0.2554691 -0.18205468 -0.30835447 0.1476907 -0.11926905 -0.73920673 -0.7656588 0.36193183 0.9292718 0.33079422 -0.14776687 -0.88083446 0.03993718 -0.3743276 0.05525188 0.01700583 0.023358846 1.3180114 -0.3419221 -0.8490801 0.3516525 -0.21168618 0.43870807 0.22315131 0.2050195 -0.07891537 0.02523563 0.17984127 -0.2462966 0.2237078 -0.69224584 0.07256829 0.14964084 0.34662998 0.2066101 -0.41989315 0.95816636 -0.26167092 0.7814019 0.38936472 -0.89285886 -0.52333313 0.4042439 -0.18325211 -0.66571987 0.77442485 0.52570784 0.32600176 0.15638734 -0.24546568 -0.40221894 -0.5537285 0.44972983 1.2796115 0.05330674 -0.217889 -0.7131072 -0.24823949
1541 -0.9532041 0.49369976 -0.84153426 0.24495974 0.8920527 -0.5285872 0.3489555 -0.24756359 -0.50997025 0.9195921 -0.6021436 -1.0419527 -1.0388145 1.2677983 -0.81805545 0.18585694 -0.6204331 -0.09084947 0.8531915 -1.3706168 -0.8718308 -0.3238348 0.5183145 0.0077308016 0.7272413 -0.12870443 0.59266174 -1.2571174 -1.0452343 0.94217783 0.6274105 1.1229366 -0.36874494 -1.0007478 -1.1746613 0.2753135 -0.09812869 0.81490004 1.1248958 0.04461777 0.7856505 -1.0647228 0.37358558 0.36542255 0.11784702 -1.7717835 -0.633629 -0.25647187 0.68176955 0.35610533 -0.14507492 -0.11620189 0.5054936 -0.6015012 -0.47887775 0.6151851 0.6451525 -1.0673308 0.9014979 1.317103 -0.06283331 -0.23660232 0.24314484 1.0776563
1348 -0.5476383 -0.30154535 0.080911435 0.2765544 -0.66306317 0.41472638 0.8805999 0.036869235 0.07364212 -0.19599074 0.2949142 -0.11095009 0.14268616 0.9500608 -1.0171499 -0.81489486 1.1095427 -0.49683884 0.9568413 -1.4711465 -1.5136447 -0.33727896 0.105143666 0.26155138 0.6143431 -0.20346923 0.3890697 -0.05841698 -1.7117025 0.7826848 0.21290262 0.147534 -0.6937692 -1.4995332 0.9530807 -0.4957751 0.021443298 -0.69840163 0.17110598 0.31702772 0.37526566 -1.3718082 0.1543432 0.11684592 0.026237817 -0.061728016 1.326657 0.23347835 0.8474947 1.046431 0.33152294 -0.41413906 0.7917978 0.36147267 -0.7529341 -0.5556096 -0.8729077 -0.99627584 0.9861178 1.9428157 0.9819315 -0.41290095 1.3233715 0.35464007
1428 0.43261346 -0.4620354 -0.33411413 0.42867494 0.46762952 0.1729042 -0.54479754 -0.25930297 -0.36186722 0.14100206 -0.729592 -0.52753955 -1.2716558 0.21374403 0.37411615 0.2300719 0.75936866 -0.94187254 0.048911374 -0.8741649 -0.8816915 -0.11495803 -0.4532672 0.075971015 0.09346264 -0.3732075 0.4163786 0.22799239 -0.7716287 1.6482719 0.42297503 0.47070614 -0.44197968 -1.1057242 -0.33377615 -0.7980678 -0.16834146 0.19959225 0.45465258 -0.596856 1.2041439 -0.30452058 0.122308835 -0.9369011 -0.7472593 -0.32547522 0.8701281 -0.36423808 -0.7397975 0.8993676 -0.18070447 -0.46249208 -0.9448639 0.7602397 -1.7128582 1.0309501 0.10876841 0.2733673 -0.33713844 1.3893847 1.3493642 0.027187014 -0.23188686 0.6771519
1354 -0.7686894 0.019163769 -0.35933912 0.023009315 -0.65530264 -0.38456953 1.2448882 0.012772428 0.43774688 -0.0035894115 0.25114158 -0.14528023 -0.8805595 0.42780644 0.020846952 -0.62517905 0.52458155 -1.2265723 -0.24806032 0.065859 -1.2986106 0.96858793 0.08052681 -0.99291027 0.2401828 -0.3681382 0.7117695 0.22444813 -1.0511565 0.8250379 -0.022773888 0.34831768 -1.3270689 -0.69464123 0.60468763 -0.07225492 0.65469134 -0.19891417 -0.24760967 -0.49533933 1.068067 -0.7726485 0.9249629 0.5654103 -0.43497708 -0.46160388 -0.3097554 -0.21309778 -0.8276601 0.5885509 0.22719017 -0.32848817 0.7794997 0.23225434 0.7817635 0.37433502 0.1509552 -0.10073212 1.0615722 2.170866 0.9290817 -0.33182773 0.5871528 0.1832036
1092 0.37500468 -0.6522484 -0.03555826 0.40887058 0.48834157 -0.765887 0.9883884 -0.7071044 0.8605335 -0.60063696 -1.2438895 -1.8304116 -0.2050818 1.1540928 -0.09227176 0.24726126 0.11929348 -0.8886639 0.4412963 -1.9399571 -0.29335964 -0.50596344 -0.9630809 0.30652472 0.82506585 -0.21934204 0.7719096 -0.10947268 0.767956 0.27764377 -0.5770195 0.38866928 -1.0766205 -0.8735842 0.80692077 0.4875851 -0.068072096 -1.3417791 0.44537702 0.77894276 1.1588068 -0.72216207 0.012626715 1.0200984 -0.6004451 0.5337535 0.49371767 -0.226149 0.63529885 0.58389795 -0.71801484 0.06915444 0.44958445 0.079000175 -0.7581275 1.1102681 0.7406404 -0.5147284 -0.4429755 -0.7806658 0.14380151 -0.756683 1.2351153 1.2239999
715 0.8327818 -0.27741233 -0.19202335 0.50577646 0.5635766 -1.3309269 0.30489874 -0.09325788 0.23987573 0.66337174 1.0073258 -1.13837 -0.04760114 0.5699075 -0.7053276 -0.33019853 -0.26961014 -0.8512583 0.4709338 -1.220394 -0.30263412 0.4166988 1.4780649 0.93999213 -0.028531805 -0.7809762 0.024901213 -0.3796635 0.2752507 -0.1377091 0.44750148 -0.1587921 0.056970604 -0.39519092 0.5252249 0.6404151 -1.0785661 0.36993334 -0.024367357 -0.67081743 1.0500063 0.09249028 0.24266653 0.7138202 -0.80619574 0.8857894 -0.59745044 0.21058771 0.8210525 -0.89282465 -0.06387532 0.17738228 0.2860271 0.36548743 -0.44006377 0.2606787 1.3036613 0.6769345 -0.8499362 1.1232302 0.42586103 -0.6881324 0.07647645 -0.54134303
1468 -0.72106135 -0.2985379 0.71458423 -0.11399216 -0.88507783 0.1254924 0.07235669 -0.33213773 -0.90534765 0.7280389 0.65422976 -0.86586934 -1.3454334 -0.39507055 -0.024420673 0.4097037 0.63184583 -0.45192194 -0.24871975 -0.27654862 -0.06056059 -0.0885952 0.3256392 0.75463974 1.376704 0.1310274 0.24800435 -1.0411958 -0.9907059 0.48635116 -0.3713324 -0.9810267 -0.111487046 -1.1249089 -1.0465075 0.006295345 0.21588302 -0.16494808 0.92903626 0.044149186 0.2695806 -0.4122362 -0.084936365 -0.54731476 -0.779393 0.7213546 -0.70147514 -0.4854826 0.6892614 1.1566144 -0.8548036 0.72523147 -0.80535907 0.16110173 -1.024769 0.9751749 0.2508941 0.29476807 -0.016474772 0.43596002 0.1189335 -0.5632298 0.006758777 0.0708702
456 -0.951685 0.15876485 -0.3021924 -0.3780005 0.44812447 -0.8755993 0.93334204 0.22844404 0.6703294 1.106991 0.8405209 -1.2279284 -0.7911654 -0.0511534 -0.8285254 0.4736348 -0.530907 -1.5455544 0.58566046 -0.5177815 -0.11926653 0.22333205 -0.11436262 -0.071521096 0.4288507 -0.8191954 0.65325665 -0.15469252 -2.0474515 0.7749957 0.5009901 0.5190375 0.7991762 -0.35910007 0.6928976 -0.45552382 0.59608865 -0.53061676 0.5230768 0.5778297 0.9958741 -1.7429729 0.43994832 0.25099176 0.44649872 -0.46177974 -0.46970943 0.43144584 0.48619 0.00091781135 -0.70340693 -0.7872034 -0.5021493 -1.1680032 -0.19362591 0.786333 0.6721202 -0.7492561 1.1314217 1.0919949 -0.3914484 -0.42679158 4.49751e-05 0.3653122
593 0.011175172 0.52848023 0.02147427 1.1544579 -1.1866126 -0.50306875 1.1991692 -1.1070231 0.5766073 0.8919927 1.0198545 -0.015103251 -0.51719844 0.3997999 0.6217414 -0.47793266 -0.7473413 -1.1208762 0.2595175 -0.7773641 -0.4067788 -0.09023245 0.6215431 -0.33923903 -0.0062799538 -1.9052304 0.55963486 -0.13792405 -0.030589486 0.78256714 1.1963905 1.0922976 -1.1570513 0.95871216 0.8977899 0.8683685 -0.90456027 -0.30611184 0.21612929 -0.22740868 1.1372736 -0.40249473 0.904488 0.5741815 0.18551527 -0.6646733 1.097495 -0.50883 -0.56933933 0.21582413 -0.16832022 0.96744734 0.59713006 -1.0543071 -0.5120355 0.64280736 0.49765664 -0.511717 0.6203858 0.86977065 1.3200151 -1.1595439 -0.006929476 -0.59026873
924 -1.0545195 0.38531235 0.5422167 0.18178725 -0.08426714 -0.2621306 0.7447843 -0.59728044 -0.028391115 0.2946974 0.19085187 0.09030099 -0.04034028 -0.062264323 0.3467493 0.43638626 -0.39321768 -0.99744004 -0.97630644 -0.81366503 -0.6947881 0.21263702 -0.14612162 0.61514187 0.41426963 -0.12173034 0.266306 -0.64428496 -0.6134002 0.064254016 -0.057641055 -0.8652994 -0.9918549 -0.4939084 0.68942785 -0.15422395 0.33394125 -0.298076 -0.064467475 0.7845626 0.8184783 -0.6708065 -0.13275835 0.51143324 -0.55109984 0.4507472 -0.5015699 0.5475671 -0.09003167 1.0278819 -0.17481482 0.03164073 -0.41960925 0.6382525 -0.88344145 1.0295892 -0.20843194 0.41697973 -0.7758156 0.72267973 0.6686995 -0.101365216 0.35845318 0.8940997
688 -0.09646877 -0.38261542 0.3899913 -0.49634045 -0.4106328 -0.896274 0.1621993 0.6330331 -0.02214112 0.20997246 0.199214 -1.2259897 -1.9165523 -0.053251326 -0.13853484 -0.39874622 -0.37241748 -1.2990247 -0.18871893 -0.10352135 -0.38954973 -0.25790572 -0.053777456 -0.27600026 0.36067516 -0.6704027 -0.5668219 -0.32441223 0.28832164 -0.045176063 0.71363205 0.0060538976 0.34944266 -0.48671263 0.20157576 0.07615021 -0.6018767 -1.1593506 -0.4065172 -0.17203599 0.45080033 -0.41857287 0.36661074 -0.3493463 -0.114351094 -0.058440037 -0.11675845 -0.2757835 1.0299058 -0.22419964 -0.23037522 0.34173757 0.05892665 0.013399053 0.494508 0.27361453 0.4620362 0.30773643 -0.3996474 0.61240137 -0.40850902 -0.8564611 -0.046020217 -0.541669
