1564 64
1417 -0.3375494 0.14194319 0.09872917 0.49594504 -0.7000538 0.02463597 -0.43216154 -0.15520194 -0.66605127 0.53033984 -0.19314505 -0.020130726 -0.14250669 -0.5801245 -0.45383954 -0.246279 0.62487274 -0.3910133 -0.33548012 -0.25735253 0.17853402 -0.09837064 -0.24790862 0.30178228 -0.4910264 0.31325427 0.33434775 -0.43214244 -0.31689507 0.12079139 0.22204565 -0.55108523 0.18586658 -0.8229901 -0.40655503 0.03254579 0.18993074 0.5466238 0.37128544 -0.0013752681 0.5765069 0.5006788 -0.48396382 0.4227812 0.08993338 -0.025351314 -0.76205796 -0.1496752 -0.3612931 0.30477506 0.2979452 -0.27459785 -0.64147246 0.72086036 -0.59491664 0.16663717 0.52801895 -0.43041083 -0.06583814 1.0728096 0.40396315 -0.53632766 0.53304183 0.5937487
123 -0.40179715 -0.3880212 0.21441056 0.26400712 -0.34578207 -0.83309215 -0.23188265 0.2534567 -0.19066432 -0.02711002 0.94949543 -0.4668808 -0.53557384 -0.72485536 -0.49445692 0.9525186 -0.39085895 0.05890313 -0.45490482 -0.48626658 0.36298367 -0.2007052 -0.36117953 0.2900995 -0.3621146 -0.3092089 -0.028203407 -0.51870185 0.69461906 -0.1255238 -0.44874075 0.04220126 0.060457285 -0.23991935 0.18735936 0.63155353 -0.19443488 -0.3919893 1.2984515 0.0398073 -1.1542817 -0.40850243 0.14234336 -0.9216482 -0.44832295 -0.016005049 -1.030536 -0.86709964 0.011447734 0.07382468 -0.036580365 -0.33656716 -1.2462455 -0.31345242 -0.28198242 -0.29479685 0.3256585 0.45833695 0.5884351 0.4229423 -0.6928878 -0.5021779 0.05554324 -0.45373148
95 -0.70746124 -0.22019485 0.050515465 0.9434533 -0.05709885 -0.41698694 0.3839393 -0.034355342 0.026411703 -0.5083052 1.0884818 -0.22663602 -0.1101729 -0.8432643 -0.81185627 0.6166243 -0.010178692 0.21628395 0.68950903 -0.4971176 0.46818736 0.012237512 -0.55286926 -0.033908393 -0.37605155 -0.42129144 -0.08932765 -0.25336182 0.48981375 -0.76302016 -0.29458877 -0.48164073 -0.27259237 -0.40530136 -0.58690053 0.31410202 -0.43523937 0.55504656 0.8363154 0.4131838 -0.80073583 0.076915875 0.29946303 -1.1290559 -0.45424098 -0.19148783 -0.55471104 -1.5913323 0.30302072 -0.17529279 0.027754063 -0.40501854 -0.10407332 -0.26561484 0.08560114 -0.04941926 0.50149983 0.22164841 0.2805784 0.95890164 -0.559288 -0.21461716 -0.4657356 -0.501615
1408 -0.18238468 0.41858935 -0.32289848 0.68490744 -0.8493148 0.3369147 0.23961034 -0.106948525 -0.67683256 0.113973975 -0.23321602 -0.15170036 -0.44755685 -0.45348167 -0.8703946 -0.3311207 0.7723665 -0.59132963 -0.5076333 0.24030441 -0.21772827 -0.3768094 -0.08237339 -0.35226735 -0.024355203 0.034016773 0.31403556 -0.64434737 -0.23738067 -0.13907838 0.6178822 -0.60212135 0.73501533 -1.3910217 0.33623174 -0.106575646 -0.056429535 0.8067829 0.5716401 0.1524951 1.3464702 -0.46380946 0.019530466 0.36531243 0.47931576 0.14324038 -0.33698842 0.10798524 -0.43664545 0.2153564 0.45099217 -0.35299623 -0.43377167 0.9831479 -0.8962267 0.20112224 0.6656707 -0.3443599 -0.16133028 0.88623536 0.25450182 -0.40727323 0.80304986 0.41761562
1233 -0.62747234 -0.00019338481 -0.58642143 0.35111627 -0.34729218 -0.5498617 -0.07751902 -0.22721153 0.019572824 0.54900354 -0.14904146 0.07285016 -0.32626048 -0.11861098 -0.9670704 0.20552711 0.3655557 0.2563055 0.063511096 -0.31113726 0.82002854 -0.17669778 0.093352266 -0.0672303 -0.22903799 -0.154031 0.34307232 -0.55282897 -0.8722635 0.46910825 0.43324247 -0.5156232 0.31778958 -0.41423824 -0.005053595 -0.37985587 -0.0499814 0.00017632218 0.72590655 0.20466661 -0.25682166 -0.17105104 -0.62349576 -0.1291012 -0.08826309 -0.571394 -0.09791508 -0.09745129 0.2321717 1.2462144 -0.23482835 -0.90544814 0.27569133 -0.1289654 0.055559937 -0.052836586 -0.21959378 -0.39282534 0.32436696 0.14565396 0.16863151 0.09024996 0.13195302 -0.6902189
1236 -0.508489 0.1014822 -0.34884074 0.39437586 -0.44720098 -0.6456281 -0.16116036 -0.09152316 -0.014542503 0.59652215 0.005133557 0.17189121 -0.4194821 -0.054699548 -1.1421266 0.14025232 0.30389398 0.13652928 0.13218814 -0.23162922 0.91856456 -0.17709857 0.14713201 -0.2106638 -0.21567993 -0.22123279 0.4556749 -0.5023253 -0.92490643 0.19782734 0.3862606 -0.31710893 0.12103256 -0.5089229 0.07157987 -0.28488737 0.09561823 0.0048051514 0.6731674 0.3092298 0.00048345808 -0.24030682 -0.62720144 -0.1490545 -0.12840804 -0.56189275 -0.027704423 -0.23199749 0.32273155 1.0949038 -0.37231532 -0.99172723 0.09455107 -0.11228478 -0.0098962495 -0.026087416 -0.3278256 -0.53712237 0.3585817 0.0048411386 0.3533783 0.02766995 -0.02745947 -0.51867414
1134 -0.48066592 0.38575953 -0.2654394 0.75017905 0.14769003 -1.0661315 -0.0043418976 0.03347572 0.07345009 1.3456202 0.61385286 -0.35169354 -0.6966424 -0.4478754 -0.73988634 0.78337795 0.5018888 -0.44006115 0.0836668 0.542488 0.23036867 -0.17162326 -0.28577656 0.47281578 -0.29682606 -0.7130586 0.0908237 -0.47772077 -0.96948195 -0.17988531 0.5348884 0.012530221 -0.08156143 -0.48298728 -0.7762636 -0.4317058 -0.07460679 0.35807875 -0.15539798 -0.060740348 0.28907678 -0.09421613 -0.19300854 0.3551994 0.3837663 0.6605512 -0.32357404 0.07215739 -0.14560191 0.25428915 0.3683939 -0.3358055 -0.29775706 -0.7499157 -0.40969574 0.0963457 0.69933856 -0.3663697 0.60946816 0.576975 -0.41638902 -0.24030195 -0.44724336 -0.04357962
428 -0.34197477 -0.3533939 -0.1465155 0.37922233 -1.5667819 -0.3133825 0.19083817 0.39975157 0.10331778 0.07647556 -0.07798422 -0.95942515 0.12022275 -0.52632236 -0.37897447 -0.21621762 0.4963404 0.2024537 0.3781238 -0.26345268 1.0684631 0.3210479 0.5828931 0.34998432 -0.16570449 0.54818076 0.63594174 -0.17341423 -0.10630436 0.712713 -0.26086453 -0.27738935 -0.030797265 -0.5443107 -0.45412394 0.23709783 -0.20971946 0.86984396 0.45099965 -0.3471117 0.5858148 -0.76888955 -0.07554156 0.23925067 -0.5584513 -0.62842757 0.3614754 -0.5853178 0.10652716 0.9407775 -0.022806834 -0.05572939 -0.7240401 0.11161194 -0.11002655 0.44492176 -0.0010594232 0.5231458 0.21219604 0.6083933 -0.37115008 -0.295918 0.035866838 0.08125526
126 -0.27226162 0.4292563 -0.34809878 0.4348573 -0.2666269 -0.48985553 -0.100291856 0.057600453 0.31181714 0.26135397 0.24416605 -0.3067742 -0.5005061 -0.06406574 -0.4630799 0.68514943 -0.097196184 -0.23859113 0.29482394 -0.7259766 0.4249024 0.23314762 0.0411088 0.6197697 -0.39501032 -0.6804456 0.014339469 -0.09595468 0.2511014 0.284846 0.28195852 0.06391083 0.3825515 -0.3174141 -0.44434303 0.3415981 -0.43154457 0.5590807 0.46411142 0.49916837 -0.861745 -0.6032017 0.33915165 -0.78011763 0.034089766 -0.06526464 -0.54799646 -0.6410313 0.28296742 0.24986328 -0.38258585 0.123500116 -0.50489223 0.4283079 -0.23063017 0.4079049 0.046004567 0.1671299 -0.04792989 0.5454469 -0.482267 -0.2913036 -0.1767412 0.005733988
429 -0.28517655 -0.5124225 -0.23076826 0.2960858 -1.6813025 -0.36960873 0.14081518 0.25575477 0.100337416 0.03594075 -0.061625812 -0.9318836 0.16881923 -0.52610046 -0.36955193 -0.26143613 0.5733805 0.2956513 0.21188353 -0.2556274 1.1873338 0.26781064 0.6296102 0.34942323 -0.22382149 0.507576 0.55445945 -0.16232155 -0.122339144 0.6561424 0.021728268 -0.32319438 -0.08661428 -0.5677252 -0.6247153 0.11382891 -0.31169406 0.77549255 0.5372467 -0.36362192 0.4550307 -0.72995704 0.0041670664 0.15868178 -0.61104995 -0.62211347 0.30499804 -0.6052373 -0.013675679 0.8713915 0.18798225 0.09021617 -0.5434273 -0.020767065 -0.13778171 0.40032548 0.058176357 0.41997087 0.12527238 0.5504042 -0.45720574 -0.38047412 -0.106823176 0.18795502
1418 -0.15324494 0.030372428 0.17384525 0.42046756 -0.80388623 -0.009221621 -0.27820525 -0.10037457 -0.4727148 0.42319316 -0.251392 -0.26111487 -0.2599428 -0.5782111 -0.4715171 -0.22270738 0.5788 -0.36817604 -0.38102382 -0.29183632 0.071058534 -0.2264153 -0.05385302 0.17844795 -0.47893566 0.28708765 0.45730677 -0.40961787 -0.30197024 0.2550422 0.16530022 -0.48636508 0.41646734 -0.83207065 -0.4353171 0.08527087 0.09602086 0.3842335 0.5149161 0.11894328 0.3551297 0.45640993 -0.3460297 0.6885047 0.33878046 0.042141903 -0.7876837 -0.31212386 -0.10422892 0.15798724 0.38828492 -0.22262104 -0.62088645 0.61093765 -0.85904735 0.22143814 0.4932711 -0.6094757 0.14110243 0.8950855 0.32789364 -0.1534322 0.52682436 0.53850806
1413 -0.35549733 -0.19637421 0.10942241 0.26024485 -0.76492226 0.12321339 -0.12246134 -0.063576296 -0.36254936 0.7396326 -0.36990148 0.109269336 -0.17593586 -0.50132966 -0.605249 0.013717813 0.87997353 -0.80563235 -0.109477356 -0.04114555 -0.17121829 -0.37624604 0.24256642 0.22373718 -0.8011311 -0.066230804 0.23414534 -0.0050106244 -0.3727081 0.25962684 0.2572661 -0.772183 0.02912309 -0.8709819 -0.37457356 0.16085927 0.37530607 -0.049334407 0.38834202 0.122945264 0.36923593 0.30588746 -0.34514734 0.6101371 0.38297516 -0.40416443 -0.47698107 -0.7098856 0.03259181 -0.03644564 0.17807326 0.013611183 -0.3544493 0.5077958 -1.0626885 -0.39567935 0.029769318 -0.1090976 -0.12736914 1.4762131 0.07254941 -0.25762445 0.78915733 0.66370815
1410 -0.20292772 0.08031418 0.15789789 0.104934 -0.9462185 0.0804606 -0.2258901 -0.15035784 -0.6540577 0.4290303 -0.053923562 -0.16962615 -0.2507544 -0.62367445 -0.3208238 -0.21516027 0.7199889 -0.3174992 -0.24926686 -0.27392575 0.10985904 -0.25871396 -0.2651627 0.12367963 -0.2558886 0.12535773 0.48334783 -0.32656124 -0.4779829 0.10171072 0.31349722 -0.19854839 0.47404936 -0.89640933 -0.35701352 0.20857346 0.15628344 0.54259336 0.10710851 0.07630334 0.47454727 0.4997497 -0.57864994 0.3218438 0.017862713 -0.18534137 -0.85235566 -0.3950121 -0.28429946 0.26481524 0.37079298 -0.2754534 -0.33774495 0.5568871 -0.6046725 0.027390262 0.70167905 -0.70172906 0.14498152 1.040508 -0.06007353 -0.18949702 0.83807325 0.4890409
131 -0.20962857 0.4271118 -0.3334167 -0.02750012 -0.24713813 -0.38717136 -0.13514102 0.23269944 -0.2513873 0.7156068 0.5501167 -0.25838104 -0.07945416 -0.228836 -0.3215162 0.38058466 0.21513824 -0.012299888 0.1848487 -1.1753203 0.57682097 -0.37924656 -0.14911509 0.2919476 -0.4404624 -0.5233526 -0.2215708 -0.024205172 0.05239301 0.27764633 0.24602605 0.42756233 0.3218811 -0.42033747 -0.60847336 0.41470373 -0.59462816 0.4467715 0.46254754 0.084482 -0.9520207 -0.6068394 0.19132684 -1.0149989 0.36812472 -0.14904878 -0.4659475 -1.1368123 -0.09949355 0.25060534 -0.031183643 0.14665432 -0.14879997 0.35369918 -0.26064205 0.40811148 -0.06578682 0.14824201 0.19903709 0.49211252 -0.41434845 -0.5091323 -0.03575684 0.11502836
1416 -0.0865426 0.27621302 0.3188364 0.39290893 -0.88549596 -0.2112286 -0.4284841 -0.099005535 -0.46439445 0.4027953 -0.09531494 0.04040488 -0.3012123 -0.5528752 -0.5235539 -0.20577186 0.5005701 -0.47656304 -0.2690392 -0.10936775 0.23629043 -0.32267213 -0.03608628 0.1205299 -0.55442274 0.39476222 0.4565895 -0.46515784 -0.29639602 0.10798159 0.2572387 -0.35675296 0.45731133 -0.69403386 -0.5012757 0.06531306 0.3306662 0.45775142 0.24827892 0.26263523 0.5237106 0.6646248 -0.49136835 0.59974307 0.084094554 -0.1145872 -0.8201429 -0.4452898 -0.266075 0.27728963 0.15085734 -0.32233804 -0.60943013 0.70423204 -0.77325815 0.12086098 0.72095644 -0.47272325 0.121568464 0.90307623 0.21557504 -0.1933673 0.3721715 0.6572901
1466 -0.8594226 -0.2381594 -0.521458 -0.16548118 -0.691532 -0.48014727 -0.28750354 0.25125822 -0.4872262 0.94611126 0.078089446 -1.0471597 -0.84136146 -0.97967416 -0.83749235 0.074621625 -0.08497442 -0.46705005 0.73257244 -0.21909508 -0.8773007 0.3587965 0.6774093 0.4664089 -0.4500571 0.118560866 0.5934391 -0.43358746 -0.3985554 -0.06814243 0.43166974 -0.7285428 -0.30624294 -1.237763 -0.15477723 0.6195729 0.074723445 -0.51847714 0.8212343 0.03981733 0.36936453 0.97170186 0.22329715 0.6133045 -0.7083105 -0.133781 -0.5197875 -0.7798636 0.026474321 1.1538273 0.28636438 1.0605929 -0.100286126 -0.7987814 -0.8386286 0.006245462 0.2622651 -0.27890038 -0.14287367 0.72293043 0.89700395 -0.34437484 0.44287407 0.50679857
702 -0.12088956 0.5053406 -0.69708765 0.0040174765 -0.4957584 -0.33890533 -0.10193218 0.021429144 0.35371 0.39249584 0.2049593 -0.43639764 -0.16109553 -0.28565297 -0.1338929 0.45052737 0.09575486 0.082797274 0.26383728 -0.86617315 0.13541725 -0.15435226 -0.052043322 0.80673295 -0.2735461 -1.031012 -0.025877325 -0.010443442 0.03877399 0.16464107 0.17592856 -0.03977691 0.28138396 -1.0175626 -0.30887136 0.18308513 -0.4944825 0.6274284 0.30306423 0.73201054 -1.126006 -0.27736667 0.42849836 -0.47885382 -0.19306196 -0.5739595 -0.46713492 -0.694264 0.17310521 0.19254258 -0.38596413 -0.057643313 -0.8018069 0.18149377 -0.27594963 0.6011948 0.0951396 -0.056756884 0.34971395 0.4659499 -0.77068913 -0.36811692 -0.14066051 -0.28342324
439 -0.46299118 -0.40944532 -0.0822029 0.3368332 -1.5627782 -0.4435393 0.20226924 0.44513354 0.030602947 -0.056948293 -0.16814485 -0.9674764 0.02543736 -0.66029614 -0.34028485 -0.1835588 0.5961368 0.16623582 0.27803567 -0.122521944 1.017005 0.17659007 0.5048213 0.44367278 -0.10658425 0.55915403 0.56699413 -0.26812977 0.0069331955 0.7886942 -0.031074453 -0.33128896 0.05971061 -0.49016085 -0.470732 0.12487732 -0.22396782 0.8105737 0.45917732 -0.41982892 0.396637 -0.79553217 -0.17155509 0.22774224 -0.52334034 -0.7515203 0.4899231 -0.67652833 0.00012469493 0.9240552 0.031359594 0.049371116 -0.5599833 0.15976164 -0.15998837 0.38435656 0.013035239 0.5099592 0.19993578 0.4601449 -0.38365388 -0.4623165 0.064471886 0.09717999
1222 -0.5059921 -0.041506503 -0.39352083 0.52174515 -0.27454618 -0.703516 -0.028599998 -0.21999303 0.11024819 0.69134825 0.11386125 0.1333204 -0.5230804 -0.17964923 -0.9479126 0.13524944 0.61623985 0.23575869 -0.07406613 -0.3235343 0.94593465 -0.15617107 0.08373465 -0.06386103 0.07594333 -0.30031273 0.52089524 -0.4682679 -0.8520826 0.3638365 0.3687625 -0.34189618 0.25014678 -0.1883326 -0.0156247625 -0.2881037 0.099526726 0.040357955 0.5890148 0.18266319 -0.26054677 -0.0038053577 -0.6466324 -0.19514826 0.0723812 -0.65792096 -0.0122942235 -0.22975639 0.3200945 1.2181635 -0.174532 -0.8202728 0.11747203 -0.027229864 0.0186263 0.038820744 -0.12102144 -0.45124102 0.20795661 -0.088117145 0.2631303 0.09553001 0.13413349 -0.6422146
764 -1.0264065 0.8087425 -1.1529936 0.5489147 -0.8805575 -1.2029594 0.5526932 0.2572873 -0.52465224 1.5343271 0.37662184 -0.07211413 -0.15942262 -0.47831988 -1.968871 0.13499926 0.740059 -0.35198525 0.5628236 -0.773099 0.12016653 0.29434928 -0.6992177 -0.6326933 -0.15368569 -0.4934331 0.8514487 0.03100422 -0.08913645 1.11431 0.47126487 -0.32136545 -0.42589042 -0.4778931 0.11044205 0.096395485 0.12676297 0.1590351 0.14901285 -0.3044278 -0.08229362 -0.27307162 -0.09395883 0.23067307 -1.0592036 -0.3670215 -0.3559993 -1.2579954 -0.79613435 0.74775124 -0.15321891 -0.09324681 -0.47951075 1.6369895 -0.2890398 0.18352415 0.20089962 0.061198045 0.14685032 -0.2926404 -0.61519027 -0.68982047 0.36241472 -0.6060946
130 -0.017154463 0.07640786 -0.6773554 0.38060006 -0.30247286 -0.55760145 -0.22037366 0.33051375 -0.036034293 0.4433978 0.14347912 -0.04690415 -0.17470276 0.050762717 -0.3754136 0.6706571 -0.14951219 -0.02396098 0.34274632 -1.0303731 0.34297365 -0.14738514 -0.08825495 0.44499364 -0.5339017 -0.8136086 0.15186256 -0.22260933 0.13137586 0.16757111 0.111042835 0.4446865 0.42639342 -0.23229341 -0.4041007 0.29031897 -0.2699604 0.6086215 0.24386056 0.16190717 -0.6837997 -0.32212967 0.25946304 -0.98694694 0.2658021 -0.31648386 -0.34174174 -1.0393218 -0.17527701 0.47005975 0.005978155 0.22912073 -0.54614395 0.3022181 -0.11060591 0.3838471 -0.09153381 0.023077585 0.086709045 0.64960104 -0.651829 -0.46706325 -0.016815243 -0.03800246
765 -1.0759438 0.90498865 -1.1463894 0.5788463 -0.8919358 -1.2175077 0.47940335 0.2075637 -0.48193902 1.4294777 0.26506713 -0.039832234 -0.25506112 -0.47237527 -2.0461755 0.05218928 0.71322453 -0.28429693 0.38295487 -0.88847214 0.07413808 0.24448307 -0.6463853 -0.7278181 -0.076669805 -0.41163146 0.68740475 0.08543127 -0.12551634 1.0272917 0.53989625 -0.37840796 -0.4316865 -0.4628853 0.037942637 0.26208454 -0.0041091545 0.21647866 0.3063034 -0.40385827 -0.24255182 -0.149882 -0.18619402 0.16857325 -1.1442978 -0.40992162 -0.2362725 -1.3511081 -0.7453063 0.7335131 -0.25660473 0.0007669475 -0.48594135 1.6639379 -0.36736462 0.25862938 0.3692654 0.018276105 0.1810855 -0.2844851 -0.5752796 -0.5064833 0.51258683 -0.6896461
1404 -0.09404107 0.10105713 0.09036481 0.40220895 -0.7258098 -0.19081111 -0.19369777 -0.043663293 -0.41994715 0.49043858 -0.11869417 -0.03346008 -0.30908772 -0.6418312 -0.6074467 0.0930647 0.56202596 -0.6507512 -0.33406064 -0.33987424 0.034260973 -0.051196683 0.19211718 0.09372842 -0.59046185 0.12003685 0.34912628 -0.03516111 -0.12793955 -0.21267116 0.09065427 -0.40398744 0.10894607 -0.65257263 -0.45909053 0.0021358407 0.048683923 0.27392673 0.57158166 0.011506051 0.5520485 0.31712607 -0.89109224 0.6260933 0.11307821 -0.40955937 -0.634676 -0.40166768 0.17942573 0.17058514 0.34593663 -0.03160699 -0.4405389 0.48294273 -1.1756476 0.0029770264 0.31528836 -0.65434366 -0.27610925 1.0706929 0.43634647 -0.1155666 0.7352151 0.7352648
94 -0.30578893 -0.052575823 -0.6330716 0.14009096 -0.43282986 -0.28868988 -0.0046385988 0.35215184 0.111303285 0.5652692 0.11197969 -0.07555391 -0.4758935 -0.23207094 -0.41118625 0.7464749 -0.45891038 -0.16556497 0.49012166 -0.54361445 0.31721154 -0.03284408 -0.030151738 0.42838705 -0.38972998 -0.85426915 0.03623424 0.26835397 0.3204829 0.4161645 0.1105439 0.12151902 0.55441344 -0.5692499 -0.29599416 0.040266935 -0.2682918 0.46415266 0.34178737 0.2868324 -0.44297147 -0.8950472 0.3749122 -0.7466498 0.4615285 -0.23335919 -0.46839076 -1.0473003 0.028235817 0.38153026 0.004532065 0.18873794 -0.42745084 0.19779645 -0.14229554 0.5873433 0.33532718 -0.015373398 0.071162164 0.67686075 -0.42426634 -0.23165144 -0.031022144 -0.32363752
710 -0.6530926 0.6525816 -0.42330712 0.32732013 -0.60520667 -0.47531134 0.19684431 -0.22730455 0.26647288 0.05793175 -0.16233577 -0.6330673 -0.5126213 0.08580146 -0.2336306 0.61665815 -0.33147842 -0.21907192 0.25654966 -0.9447836 0.80538684 -0.025605008 -0.34258208 0.08121847 -0.77309936 -0.57820344 -0.4188769 0.07313166 -0.31744674 0.28325236 -0.0011479331 0.24794804 -0.1916779 -0.6748035 -0.21048172 -0.4395929 -0.78005034 -0.13928512 0.07559076 0.13649257 -0.0895776 -0.2977134 0.15809503 -0.6828952 -0.6141954 0.3410326 -0.5746949 -0.7427285 0.4556728 0.15720344 -0.019397262 0.22998334 -0.6838912 -0.044889122 0.25979763 0.2989564 0.3298161 0.14671618 -0.1444598 0.7246645 -0.56764334 -0.78167427 0.47861066 -0.31353253
1237 -0.49610296 -0.00391711 -0.5509334 0.3480547 -0.3735743 -0.52585864 0.03108449 -0.18857583 0.012971369 0.72333723 0.1093384 0.16400364 -0.540481 -0.08199196 -0.86038387 0.12605546 0.39328548 0.41337755 -0.1087049 -0.321226 0.9886077 -0.123765655 0.122482926 -0.144717 -0.031043071 -0.35750404 0.42323872 -0.5104861 -0.9434283 0.377253 0.36713976 -0.5485063 0.25770923 -0.35710698 -0.097224794 -0.29411724 0.16313218 0.115281194 0.6279877 0.269474 -0.056483787 -0.119927384 -0.5312014 0.03607594 -0.06955682 -0.61465067 0.025518624 -0.13185321 0.30140454 1.171696 -0.24456456 -0.8582941 0.13030222 0.18250215 -0.15743625 -0.016199984 -0.4495083 -0.31432575 0.49043685 -0.009639975 0.19420542 0.022540536 -0.0799657 -0.5522016
696 0.3086392 -0.074142486 0.12124337 0.9263566 0.2191139 -0.61762977 0.8535831 0.43934467 -0.5073761 0.47388044 -0.17755756 0.2791212 -0.781732 -1.0283147 -0.74943763 0.31402907 -0.7672494 0.4771522 -0.45273998 0.39579356 -0.28402382 0.1344036 0.15223055 0.60154146 -1.2594748 0.52729845 -0.4672284 -1.5323515 -0.1606599 -0.12895153 0.2550397 -1.2642947 1.0347606 -2.0855405 -0.27333906 -0.31252316 -1.022686 0.04193449 0.4067909 -0.21596234 -0.0840534 1.1404163 -0.5673845 -1.4731575 0.20201696 0.58295643 -0.48708725 -1.1078103 -0.38603082 0.8090006 -0.39524633 0.0050155222 -0.46987084 -0.2868515 -0.4211159 0.85018677 0.4055781 1.621411 0.8657237 0.11826734 -1.2992176 -1.0810994 -0.66261756 -1.1391091
426 -0.39038625 -0.3702022 -0.078810036 0.37133098 -1.5823673 -0.38789332 0.20324604 0.43513262 -0.006925398 0.042878766 -0.12781112 -0.98238635 0.23389389 -0.59914696 -0.3902511 -0.27067497 0.5450597 0.2494809 0.15539768 -0.22118393 1.0713313 0.10564535 0.7379038 0.51572573 -0.11152222 0.5207571 0.48668918 -0.098488934 -0.16009706 0.6088177 -0.128873 -0.12607521 -0.061217256 -0.62028545 -0.4713064 0.0988783 -0.06596264 0.9181236 0.48534074 -0.43524468 0.387291 -0.7243057 0.058326352 0.1610196 -0.5740084 -0.6688692 0.32723296 -0.6275428 0.09076756 0.93188643 0.148151 -0.00023376197 -0.6751229 -0.013673871 -0.10129231 0.42287797 0.08717493 0.3974348 0.12834725 0.47088984 -0.41991866 -0.37069252 0.033324476 0.06346163
127 -0.16388054 0.06403601 -0.6263201 0.503734 0.03607622 -0.55554956 0.28526506 0.41114718 0.22181784 0.4155775 0.33257452 -0.19199307 -0.20765062 -0.22174484 -0.10066398 0.76136225 -0.22977681 -0.24575421 0.19881994 -1.0714735 0.3585838 -0.46042964 -0.26885897 0.48971057 -0.4425649 -0.58351356 0.09172013 -0.00065725564 -0.019910865 0.19923034 0.060919102 -0.12501548 0.3856523 -0.34061804 -0.41133574 0.24118514 -0.5606535 0.4585162 0.39834657 0.4835842 -0.47402382 -0.7240287 0.1973943 -0.55673844 -0.03604475 -0.39388078 -0.34804595 -0.95402724 0.3906182 0.122674875 -0.21890303 0.3764506 -0.68817973 0.40398547 -0.33164722 0.37968257 -0.18081631 -0.0068120733 0.42647687 0.5284699 -0.34017375 -0.45734918 0.010892713 0.1604851
437 -0.27008227 -0.33850506 -0.1985348 0.37891644 -1.5821081 -0.38606682 0.13966015 0.39638743 0.07208946 0.06525046 -0.18310162 -0.99054354 0.18794765 -0.5752947 -0.3520338 -0.30600843 0.5009218 0.28604126 0.23663752 -0.25888765 1.1168332 0.07913319 0.6545022 0.4561614 -0.07276673 0.5044698 0.61490184 -0.20307952 -0.10597491 0.5429737 -0.06675428 -0.13619016 -0.06723135 -0.5234531 -0.5818837 0.08954812 -0.14755186 0.83701736 0.4610983 -0.41868466 0.4729658 -0.72337955 0.027147401 0.19528511 -0.6959893 -0.66173375 0.34201849 -0.65348506 0.05999278 1.0156299 0.04955764 0.029133704 -0.6406729 -0.0052057425 -0.112436466 0.40181455 0.055156935 0.35148054 0.15745081 0.49954674 -0.47394562 -0.2929321 0.054885942 0.028741417
1241 -0.3997806 0.041482557 -0.4063906 0.46023747 -0.38267335 -0.63274634 0.06257463 -0.063536994 0.022220029 0.6135144 0.20883718 0.04968476 -0.53874624 0.114552826 -0.9414941 -0.06570736 0.27846947 0.31094727 -0.06594214 -0.35695443 0.86714 -0.1853342 0.11164044 -0.09924179 0.016641265 -0.08599791 0.3933893 -0.5698579 -0.95593286 0.28246734 0.40141243 -0.29371485 0.31750044 -0.4762292 -0.079060435 -0.5439067 -0.14457016 0.13224804 0.6634163 0.20483279 -0.19167466 -0.1752951 -0.5881789 -0.06446002 -0.025810499 -0.59897846 -0.08739151 -0.06561159 0.3784323 1.181678 -0.2972564 -0.8109461 0.2569669 0.01607276 -0.23274957 -0.06317927 -0.2761994 -0.54368883 0.16628894 -0.16776723 0.11676576 -0.06778575 0.24296539 -0.592207
1531 -1.2670443 0.06426375 -0.7048671 -0.4578079 -0.24473709 -2.184882 -0.4868716 -0.007259881 -0.40825734 0.72846794 -0.39806995 -1.2071233 -0.9099746 0.0329056 -1.3914827 -0.18321969 -0.21238875 0.012215119 -0.6959572 -1.1942927 0.6814317 -0.17969488 0.4524816 -0.030709997 0.36456499 -0.11339782 0.6202696 -0.49305397 -0.60131305 0.47472262 0.57077074 -1.2428482 0.10803546 -1.3879932 -0.20572141 0.4131432 -0.5120764 0.7410324 0.9187698 -0.72109014 -0.008984008 0.18849479 -0.5330518 -0.43476996 0.47307992 -1.3277323 -0.34234166 -0.84155095 1.0562438 -0.5416389 -0.6001402 -0.12681483 -0.07859485 0.46591613 -0.25150982 -0.34077948 0.16319463 -0.28011027 0.22843167 1.3252892 -0.3860738 -0.0561535 -0.1294019 -0.04688737
815 0.07094971 0.2512706 0.721488 0.52804726 -0.72462976 0.15909788 -1.6533079 0.18598723 1.1322613 0.72748536 0.055091634 -0.8688842 -0.46710548 -1.4921869 -1.2907681 0.2543519 -0.17889875 0.050584633 -0.14109683 -0.22760445 0.15303507 0.34028935 0.104285985 0.1706339 -0.8595435 -0.28298226 0.46990332 0.612681 -0.017520709 -0.034960423 1.1925926 -1.1222162 -0.29990098 -0.7944968 -0.7460961 0.1765875 -0.049403287 0.6035312 -0.31738022 -0.770684 0.063998915 -0.27039284 0.078738645 0.32346082 0.6465905 0.12780035 -0.31623033 -0.5674955 0.337703 0.23586285 1.0015252 -1.3983411 -0.22178417 -0.050903022 -0.6980384 -1.0995468 -0.23604406 0.3178515 -0.28564742 1.3611761 -0.003712888 0.2665132 0.6279372 -0.22579542
1532 -1.2456527 0.18672135 -0.8753403 -0.39984164 -0.040158056 -2.2855194 -0.56327045 -0.03095051 -0.50951725 0.78214586 -0.4119375 -1.0265557 -1.1057397 0.07191058 -1.4777014 -0.06950438 -0.20912734 -0.22109014 -0.80572665 -1.0582587 0.58262616 -0.15768202 0.21414489 -0.09558073 0.3175438 -0.17802076 0.6566113 -0.5524974 -0.5750091 0.4467012 0.65168583 -1.1467072 0.22427465 -1.3992474 -0.10915256 0.30583513 -0.54361826 0.6737409 0.80821687 -0.6608011 -0.0010854101 0.2494704 -0.499355 -0.37694144 0.6580545 -1.2549629 -0.32493183 -0.80933815 1.0187045 -0.61106294 -0.6653164 -0.17983371 -0.11160752 0.456363 -0.31257573 -0.33007684 0.121809445 -0.44377145 0.30190524 1.1675539 -0.40979466 0.0616004 -0.03788379 -0.12304147
1221 -0.87800044 0.16847248 -0.6787805 0.1574087 -0.27595925 -0.21251285 0.083014734 -0.012155631 0.39292982 0.80979186 0.15275115 0.24106063 -0.4776671 -0.5870932 -1.4134644 -0.4631257 0.43510047 0.08393107 0.03863119 -0.40694988 0.823033 -0.35892868 -0.31220356 -0.22985953 0.085100405 -0.30461916 0.4052054 -0.7899346 -1.2331598 -0.23975348 0.4468534 -0.14369443 0.49762645 -0.18150023 -0.063615635 -0.24368633 0.53463906 0.5321124 0.7862712 0.12735052 -0.3966004 -0.18391845 -0.96612996 0.25651592 -0.12985997 -0.8757804 -0.39956915 0.050534002 0.3493945 1.156242 -0.6039958 -0.92848676 0.08509405 0.13022496 -0.32090202 -0.11510693 -0.6900764 -0.23352103 0.1599906 -0.013374226 0.14959714 0.5814517 -0.2604608 -0.35998848
1142 -0.47645733 0.19406527 -0.36033162 0.90185153 0.21483865 -1.0411149 0.015543802 -0.047625545 0.25427914 1.2932289 0.5849577 -0.3616874 -0.71827084 -0.27928823 -0.6232365 0.8110404 0.45330292 -0.42335442 -0.080851905 0.47229463 0.12070693 -0.11651728 -0.44801226 0.47468522 -0.3281159 -0.7571264 0.34973803 -0.5750324 -0.9478381 -0.16652797 0.6589163 -0.07403608 -0.12196234 -0.46879527 -0.6567073 -0.40940344 -0.100836754 0.3080737 -0.045308407 -0.11087364 0.35430637 -0.14641827 -0.058051825 0.3874884 0.50727487 0.5128164 -0.10687964 0.045179863 -0.114651576 0.16440657 0.5059613 -0.28376308 -0.41983896 -0.6220538 -0.49854997 0.23707046 0.64734226 -0.3185045 0.6613562 0.6387846 -0.3765792 -0.1836652 -0.6276952 -0.06834382
1232 -0.34796944 -0.1210363 -0.49860096 0.49918193 -0.27986968 -0.5286427 -0.07503044 -0.13516016 0.03408427 0.74364054 -0.015523766 0.07091148 -0.39185938 0.052133307 -1.0377108 -0.043263752 0.4553364 0.26796764 0.10926449 -0.24687304 0.9542026 -0.1596133 0.112525895 -0.019307105 0.108483374 -0.2989816 0.41745335 -0.69471705 -0.74858475 0.31116354 0.4461042 -0.32967523 0.26152924 -0.37103918 -0.21508236 -0.37132946 0.04896045 -0.099934705 0.6000653 0.2732287 -0.19845712 -0.0030730634 -0.6167461 -0.16317041 -0.09495631 -0.4817942 -0.03601868 -0.20641628 0.2174053 1.1708152 -0.24431944 -0.9220342 0.18099059 -0.03906963 -0.09576376 -0.14751905 -0.31026998 -0.38598722 0.34980926 -0.0820908 0.06997034 -0.17075357 0.123326 -0.6124346
134 -0.15784949 0.32769486 -0.6561474 0.35627124 0.09098366 -0.42660525 -0.26201305 0.19130671 -0.20238607 0.4395202 0.30454424 -0.14501539 -0.16517457 -0.18796872 -0.6004082 0.72541136 0.17279272 0.18366218 0.23462535 -1.076111 0.43521962 -0.15314093 0.0826773 0.3863706 -0.707281 -0.6547756 0.28349122 0.06370382 0.18673867 -0.06994753 -0.1978099 0.2225623 0.23518977 -0.36465764 -0.46680108 0.5302203 -0.59072053 0.3120748 0.2625416 0.2457438 -0.6224083 -0.8453507 0.1136758 -0.82642716 0.26686272 0.086641744 -0.21955203 -1.0473728 0.1410754 0.4356208 -0.24047324 0.23139842 -0.54970986 0.14504822 -0.30945668 0.5806664 -0.062416658 -0.08976815 0.10769289 0.44549865 -0.42253533 -0.41677973 -0.26936644 -0.025642827
703 -0.48240876 0.10825301 -0.6967527 0.14459515 -0.51174223 -0.39952552 -0.5131164 0.6008566 -0.15715341 -0.1988723 0.48204908 -0.53642917 -0.49085906 -0.73228294 -0.010812991 1.1151196 0.1439721 -0.4003493 0.35630524 -0.70855564 0.15406081 -0.2622219 -0.17434877 1.0373371 -0.28064615 -1.1749488 0.55535495 0.3734636 0.3512531 -0.13924783 -0.003475712 0.16855454 0.27416396 -0.36074758 -0.74708873 0.32140744 -0.8973462 0.30947793 0.83305293 0.8384666 -0.760787 -0.33760425 0.02989666 -0.62246853 -0.43926674 -0.8994129 -0.69879436 -1.3436514 0.14046893 0.22643957 -0.47032607 -0.35051325 -0.52081645 0.033344932 -0.22325489 0.013870718 0.58131963 0.33885533 -0.024150318 0.41157797 -0.8149422 -0.5416642 -0.053480826 -0.050466355
129 0.0068229814 0.1766192 -0.5291934 0.31832653 -0.18635903 -0.65933996 -0.23943366 0.40691045 -0.200703 0.45593563 0.29316434 -0.18674079 -0.28905886 0.12935252 -0.45983273 0.40908882 -0.045215394 -0.044592943 0.43988687 -1.1627527 0.56854063 0.022354597 -0.19863854 0.40188274 -0.51351374 -0.38744837 -0.12010755 0.1298147 0.22393869 0.09993072 0.18545653 0.49566433 0.51704115 -0.607097 -0.75708103 0.6007647 -0.5315537 0.30752856 0.51617324 0.35039973 -0.67425376 -0.6742611 0.0927848 -0.7588864 0.22618413 -0.23409805 -0.74814636 -1.0399733 -0.01992218 0.09043368 -0.03473068 0.18310519 -0.34022674 0.23007774 -0.12844805 0.6071765 -0.13727333 -0.03754039 0.2973738 0.34474376 -0.33479944 -0.531523 0.02855026 -0.2033591
1223 -0.45834407 -0.4358025 -0.49591953 0.43212694 -0.2718787 -0.6529953 -0.12891623 -0.020296788 0.107063666 0.74428374 0.06659843 -0.012053586 -0.49433914 -0.07140213 -0.9896273 0.05449395 0.2859524 0.11683918 0.118267015 -0.441359 0.90375084 -0.24895044 -0.008551458 -0.13713954 -0.24813937 -0.058300007 0.14272904 -0.34731743 -0.9514695 0.1704831 0.42173418 -0.50723666 0.51611924 -0.31822246 0.009384292 -0.38520458 0.13513269 -0.032308936 0.6049947 0.22604312 -0.22783993 -0.2848418 -0.5892225 0.062334627 -0.2602743 -0.6870022 0.11459777 0.0044340114 0.2180522 1.0975741 -0.32680672 -1.1657089 0.037671506 0.03696028 -0.14699094 0.018217912 -0.3328045 -0.49151093 0.2597432 0.041140933 0.09206545 -0.13591611 -0.08894522 -0.34842762
1448 -0.33525288 0.8650433 -0.89890593 -0.042273104 -0.2801379 -1.246615 1.1620439 0.37681833 -0.24064179 -0.2901768 0.2305329 -0.63463515 -0.6200309 -1.039951 -0.83916956 -0.9447163 0.9380154 -0.6519133 -0.4565984 -0.51037246 0.59208 -0.6176922 0.7573433 0.2662715 -0.26288593 0.8244772 1.2471879 -0.23326795 -0.2219047 0.6787543 0.3683346 -0.66335565 -0.10557664 -0.77345073 -0.67099273 0.27102202 -0.72169006 0.31704515 -0.056726933 -0.39684594 0.37780187 0.18482175 -0.6295338 -0.20595944 0.33087116 -0.8593877 -0.90587527 -0.39862648 0.27688253 -0.13614842 -0.2283119 -0.8890513 -1.2209427 0.20729397 -0.8769328 0.51155794 -0.15497008 -0.5023274 -0.48354927 1.1370085 -0.4421824 -1.0119662 -0.5333653 -0.21247137
427 -0.32234433 -0.33340022 -0.024112925 0.5326559 -1.5684661 -0.40425748 -0.070513435 0.35340595 0.19687672 -0.06280727 -0.26737252 -0.8429663 0.043670688 -0.6294127 -0.37898454 -0.39283082 0.6808625 0.41419274 0.32770395 -0.13186873 1.0634594 0.18524252 0.7243814 0.3955851 -0.023179473 0.43776557 0.57489514 -0.12791741 -0.22468738 0.79750484 -0.13169558 -0.110290535 -0.018961616 -0.43345726 -0.46312296 0.11960785 -0.41090688 0.87719643 0.5331128 -0.25514075 0.34971362 -0.74519116 -0.18893258 0.22615696 -0.64402384 -0.7432102 0.24072956 -0.68256855 -0.20252295 0.88873655 0.08637318 -0.08524401 -0.6444134 0.13723357 -0.09370275 0.528142 -0.23977129 0.46433154 0.06266762 0.65310925 -0.52124596 -0.23840384 0.11699521 0.21402948
1227 -0.38475978 -0.2088608 -0.4868043 0.3803966 -0.41523233 -0.389196 0.038939796 -0.05397311 0.089314416 0.55742735 -0.06697063 0.08949108 -0.5360555 -0.08681183 -0.8418075 0.1751205 0.3584612 0.039185006 0.05672694 -0.34834024 0.98884785 -0.28048712 0.11835868 -0.17524764 -0.17171203 0.008002723 0.18895245 -0.5554869 -1.1247859 0.24356157 0.5458003 -0.17275552 0.3904353 -0.36410007 -0.13465174 -0.37541905 -0.024595324 -0.035803944 0.54637027 0.050774064 0.0028088235 -0.26072967 -0.60083455 -0.096993364 -0.27580938 -0.5090051 -0.08454409 -0.17575766 0.3902242 1.2841077 -0.3540526 -1.0366808 0.18449582 0.022984136 -0.226458 -0.18743515 -0.41064587 -0.40511683 0.28794935 0.13098776 0.17069037 -8.9561174e-05 0.098008394 -0.5553459
1235 -0.50392747 -0.10591182 -0.42763814 0.36932287 -0.34561282 -0.46328697 0.03670698 -0.2987329 0.026819691 0.59747326 -0.04763347 0.115760244 -0.3513941 -0.061396554 -1.1663724 0.08900838 0.44224152 0.11227064 0.09137247 -0.38558108 0.8735738 -0.1357365 0.0355231 -0.116108134 -0.03767749 -0.18179545 0.44842857 -0.51788557 -1.0762538 0.19002248 0.24620867 -0.42356792 0.21935038 -0.24336776 -0.33997607 -0.23540755 -0.029797496 0.005250665 0.74721247 0.14319673 -0.21363193 -0.16396867 -0.3736718 -0.06459813 -0.14349738 -0.3664934 0.0987622 -0.17149608 0.3265268 1.1708198 -0.26290026 -1.0062467 0.14731145 0.042724937 -0.10515965 -0.16949695 -0.4212652 -0.38572478 0.1845057 -0.038924944 0.111327685 -0.20066734 0.102141865 -0.742417
1359 -1.3326166 -0.08921607 0.5384403 0.19498754 -0.5040212 -0.9598857 -0.46152583 0.6201232 0.36438674 1.1909689 -0.27744842 0.18931492 -0.025373193 -1.4055095 -0.63887924 -0.4336304 0.69516474 -0.47299105 -0.5311515 -0.12297721 0.9869625 0.7594699 0.61010945 -0.7573712 -0.34289682 0.61321276 -0.8158087 -0.018829212 -0.28776133 -0.19720402 0.98674405 0.31192958 0.8971428 0.6354289 -1.271689 0.5260087 -0.2794731 0.70935446 1.7929366 -0.9653104 0.52826065 0.7022809 -0.26671794 0.7477354 0.05259549 -0.32487106 -0.36247712 0.6539921 0.62499106 0.15863915 0.2834838 0.23798668 0.038185757 0.42120078 -0.95415974 0.73587674 -0.023728145 -0.028324664 0.6354956 0.73360795 -0.8453869 -0.0028311845 0.23866671 -1.8551804
1224 -0.37648544 0.056407228 -0.6338892 0.42441583 -0.5465115 -0.6873484 -0.08017667 0.09809862 -0.058538526 0.5279481 -0.149936 0.15233159 -0.4037203 -0.16447937 -1.1126325 -0.02448541 0.4556786 0.14439899 0.060101215 -0.1594842 0.90239346 -0.37019765 -0.014557449 -0.14863832 -0.065837316 -0.3515013 0.2481661 -0.62512696 -1.1049817 0.17364612 0.3175991 -0.28754258 0.37577075 -0.27436283 -0.06632551 -0.23546733 -0.035937387 -0.022342555 0.5185445 0.17685522 -0.36528426 -0.10657692 -0.61807215 -0.06730327 -0.30350685 -0.5607619 0.25182393 -0.28784135 0.39822957 1.1637073 -0.12937118 -0.9534068 0.15455976 -0.0073634717 0.0285 -0.06720033 -0.32016808 -0.41251853 0.16274525 0.07100273 0.30313024 -0.00892622 0.13712108 -0.46852583
1445 -0.24172501 0.7246296 -0.8372882 0.24323176 -0.30430424 -1.254626 0.97521514 0.20082034 -0.07865116 -0.2650553 0.31906202 -0.4340306 -0.6840367 -1.1340889 -0.7506666 -0.83084327 0.8370162 -0.8663092 -0.6317111 -0.5273508 0.71672773 -0.36054924 0.7736776 0.26173174 -0.2625431 0.9363003 1.2984583 -0.066014305 -0.08244555 0.7927293 0.26909694 -0.6340558 -0.19433615 -0.49119732 -0.4532172 0.1490178 -0.7679193 0.21953563 0.040120084 -0.3152758 0.5601022 0.16405486 -0.66647243 -0.21930145 0.34158584 -1.0471042 -1.0682149 -0.4314954 0.09467857 -0.08335649 -0.26853162 -0.8900438 -1.0758282 0.07923481 -0.5565829 0.48425373 -0.026910456 -0.65239406 -0.24174485 1.0785722 -0.50496626 -0.8124304 -0.52258277 -0.3233661
1231 -0.62026477 0.028311545 -0.28211775 0.36859715 -0.394213 -0.5449622 0.014645632 -0.019902458 -0.2319997 0.6534631 0.025829991 -0.09662975 -0.57755566 0.18172313 -1.0505881 0.042338338 0.48875493 0.23319389 -0.033165533 -0.2158073 0.8341755 -0.261234 -0.09325191 -0.15409921 -0.27774772 -0.22927357 0.2225363 -0.7215851 -1.0019907 0.4815439 0.2133496 -0.34221905 0.26511467 -0.17179234 -0.19087446 -0.16827609 0.02294336 -0.04710388 0.53575075 0.27315146 -0.2906064 -0.087715015 -0.5206437 -0.14543091 0.035659865 -0.532178 0.0048400844 -0.29903808 0.31526586 1.3238225 -0.27289712 -0.9852001 0.020410862 0.10793692 -0.2367593 -0.18751921 -0.3142389 -0.42125747 0.28103417 -0.1343387 0.26972684 0.09180292 -0.05116963 -0.6147628
1129 -0.52298164 0.22017863 -0.43581203 0.7964213 0.2954428 -1.1361194 -0.032675814 0.048850782 0.0884322 1.3272879 0.5183393 -0.30604607 -0.5044576 -0.27280015 -0.5628955 0.9246497 0.44055033 -0.3411965 0.030570475 0.67916447 0.14553292 -0.16496372 -0.49668312 0.4473209 -0.41077346 -0.750334 0.3015976 -0.49960315 -1.0043792 -0.08150938 0.5212221 0.058286663 -0.13355859 -0.36118862 -0.54658264 -0.35170728 -0.08079484 0.47193557 -0.014509188 -0.07176897 0.3368598 0.043093026 -0.13325423 0.31606197 0.42391828 0.44480425 -0.29586047 0.03765681 -0.13080694 0.13880272 0.5121773 -0.35498333 -0.4562442 -0.47197568 -0.38770622 0.32443956 0.7366338 -0.27298123 0.63689387 0.7102171 -0.29812935 -0.06590935 -0.5111068 0.00023604486
693 -0.14213544 0.11607474 -0.9134144 0.15959144 -0.50140303 -0.32658082 -0.09361608 -0.02366865 0.038728498 0.2761538 0.43779185 -0.48744515 -0.6855248 -0.4199111 -0.40251037 0.6662256 -0.21964855 -0.06375208 0.52333874 -0.28736222 0.31325108 -0.3092639 -0.5583027 1.0995113 -0.8060109 -0.62266326 -0.060666453 0.020605016 -0.037149 0.21188536 0.26807716 0.03928378 -0.044032488 -0.5222912 -0.60844535 0.057862155 -0.47589776 0.2562032 0.25700077 0.47033498 -0.43974972 -0.58197135 0.3121094 -0.8648906 -0.21369794 -0.11611732 -0.31179458 -0.66408557 0.41052252 -0.010519684 -0.67140913 -0.20650862 -0.55355567 0.44878927 -0.28388342 0.37163797 -0.39369902 0.2533955 -0.17548822 0.24717294 -0.8234499 -0.31028786 0.08877118 -0.07517657
96 -0.39684528 0.40929636 -0.3991606 0.42815956 -0.34893653 -0.57171106 0.04545378 0.27719814 0.04721936 0.25477913 -0.076257095 -0.070709474 -0.36548993 -0.4059819 -0.26260617 1.1292733 -0.18163523 -0.1410641 0.48561415 -1.0091954 0.37552226 0.009055336 -0.1446711 0.34153986 -0.4435802 -0.6312724 0.13023181 -0.06538622 0.45855537 0.31111008 0.23190029 0.14474736 0.49549976 -0.3567744 -0.71928275 0.2602106 -0.16447829 0.4790128 0.2799502 0.2708179 -0.43297184 -0.655197 0.36993182 -0.784034 0.47302824 -0.47904417 -0.33988884 -0.6752507 0.047179304 0.23382881 0.18096754 -0.21301053 -0.6280544 0.1705101 0.016436791 0.6633498 -0.0852788 -0.12355842 0.040932115 0.044760015 -0.9357552 -0.16670692 0.017599434 -0.035774615
1357 -0.8351851 -0.29824454 0.24690811 0.6772281 -0.6403787 -0.4725904 -0.61612403 0.9735682 1.190064 0.879449 0.40545332 -1.4240135 1.0706141 0.25229314 -0.75737625 -0.33284435 0.5620187 -0.9791933 -0.8811711 0.15498808 1.2621331 0.86495364 0.16437705 -0.86206603 -0.8899229 -0.25111547 1.1646078 0.06644355 -0.98385733 0.06953157 0.7776695 0.6419244 0.62234193 0.40034622 -0.8167391 -0.14712334 -0.30895868 0.55875045 0.9754665 -0.4038419 -0.20734636 1.1668178 -1.0367763 0.014829676 -0.94372505 0.4135515 -0.6096572 -0.13892455 0.15528774 0.76664835 0.036343094 0.73505193 0.03071797 0.822848 -0.9881169 0.24356385 -0.24543785 0.09210412 -0.09048129 1.0197031 -0.7209358 -0.39949542 -0.27076218 -1.5224383
1544 -1.5763664 0.01913977 -0.26262295 0.3879401 -0.76471335 0.5025522 -1.0303057 -1.3016523 -1.4773718 0.8719239 0.16380173 -0.47234666 -0.11719283 -0.18226393 -1.4406221 1.0300568 0.5372093 -0.35261926 -0.4957172 -0.19179101 0.011501122 0.07732646 0.12772197 0.86996895 -0.13683696 -0.12716603 0.3264515 -0.76549375 -0.51943696 -1.0749536 1.9629618 0.6954838 0.30337495 -0.5847949 -0.10995609 -0.035683203 0.74396694 1.0461385 0.5669303 -0.013559181 0.53778625 0.027207203 0.15716319 -0.21451725 -0.51064813 -0.8562375 0.42950982 -0.7140596 1.7091289 0.18323857 -0.21409222 -0.11531303 -0.14673376 0.09918363 -0.5894106 0.93990374 0.10069359 0.56222737 1.477344 0.47473764 -0.033020742 -0.99591553 -0.23554617 -0.45803148
434 -0.2626811 -0.51663077 -0.10136164 0.34200013 -1.5276594 -0.4320035 0.15032554 0.3411296 0.045914162 -0.009173255 -0.05413623 -1.061475 0.106056534 -0.5475721 -0.44513324 -0.30153686 0.58369017 0.14140993 0.28671983 -0.15188234 1.1108408 0.3166472 0.5747001 0.44374657 -0.21876091 0.5024796 0.5538002 -0.18832886 -0.07140786 0.6761785 -0.10535885 -0.2819526 -0.031496517 -0.51897657 -0.5975016 0.099043585 -0.2553154 0.73806006 0.4304337 -0.36812901 0.4196786 -0.70084053 -0.0744882 0.13138194 -0.62658054 -0.72164726 0.46083215 -0.5819324 -0.013938985 0.9169772 0.08095655 -0.024769375 -0.5888039 0.12712523 -0.12025571 0.4143144 -0.02119599 0.4782806 0.123293914 0.5432625 -0.41901663 -0.4276283 0.016036943 0.059346296
431 -0.24543206 -0.51264143 -0.08391809 0.36944798 -1.5307003 -0.45340267 0.123647496 0.3423271 -0.024651652 -0.02737783 -0.046800353 -1.0702363 0.12276168 -0.5537448 -0.4657266 -0.30605417 0.60205656 0.16057998 0.25538304 -0.12872007 1.0571148 0.3189237 0.5586687 0.45348018 -0.18916564 0.49644446 0.5225207 -0.18893905 -0.046130706 0.6086243 -0.088073075 -0.24927436 -0.023727441 -0.5344754 -0.5947039 0.09181421 -0.2614727 0.75303113 0.415057 -0.36756673 0.40918672 -0.69101566 -0.071687646 0.1651867 -0.61571574 -0.7276119 0.45334712 -0.5999819 -0.05833458 0.9384115 0.0920612 0.01480735 -0.5732163 0.12448187 -0.130082 0.41583174 -0.0041694827 0.5303583 0.17104453 0.5256603 -0.45891863 -0.45716518 0.044228636 0.039936382
436 -0.28446907 -0.48766175 -0.052777473 0.36750668 -1.5603591 -0.4238309 0.12834351 0.3435494 0.013647179 -0.027249893 -0.055856 -1.0325863 0.104202166 -0.55410284 -0.40913168 -0.271432 0.6240707 0.15762423 0.28449252 -0.16565125 1.0647901 0.27131003 0.5525933 0.4401886 -0.1607417 0.4951247 0.544633 -0.18906082 -0.093652084 0.68166184 -0.13447066 -0.2762428 -0.03940676 -0.49202445 -0.5671357 0.10385621 -0.25090507 0.7533283 0.46515453 -0.34589806 0.4022687 -0.72363865 -0.10895691 0.167705 -0.5758366 -0.69958806 0.39652833 -0.6265495 -0.02495092 0.9191531 0.077694096 -0.02877221 -0.57832867 0.12688954 -0.12538528 0.45496988 -0.0027038273 0.49970338 0.14983898 0.5667033 -0.43478298 -0.43258488 0.017383013 0.07562219
1013 -1.1402551 0.6363455 -0.47912723 0.8348057 -0.29521567 -0.86281234 -1.1374642 0.41294295 0.8893201 1.0861151 0.4349882 1.2557187 -1.1755252 -0.5275854 -1.6526648 0.858827 1.4316944 -0.59843403 -0.2555932 -0.008487214 0.15353827 -0.11940506 -1.3178982 -1.0880601 -1.1270033 0.45568305 0.729073 0.007094094 -0.49794745 0.47944212 0.34059384 1.1671023 1.0027915 -0.5922463 -1.2807354 -0.16397747 0.8357147 0.66113377 0.95732343 0.050381046 -0.14337753 0.5394268 -1.1673083 -1.2901149 -0.388519 -0.32213876 -0.35273296 -1.7083447 0.18575965 0.63637525 -0.07695351 -0.7614078 -1.1795706 0.5374735 -0.046174493 0.4362691 0.42886445 -0.5592427 0.7544839 -0.08837971 -0.62031794 -0.11662872 1.036426 -1.0387571
1014 -1.0785077 0.62930524 -0.7135325 0.84869194 -0.4217946 -0.91614836 -1.0137392 0.20707077 0.895759 1.0334313 0.37290692 1.1796339 -1.1458445 -0.39321294 -1.6128529 0.8407799 1.413623 -0.63208693 -0.2956278 0.092409834 0.18111303 -0.24136436 -1.3887604 -1.091427 -1.2245334 0.33432335 0.7023311 -0.05127139 -0.6286078 0.67340666 0.32373288 1.3470638 0.9625745 -0.42409393 -1.4146897 -0.19800794 0.66048986 0.5793341 0.8257325 -0.0019203488 -0.058484253 0.3007434 -1.137146 -1.1700035 -0.3836257 -0.2158771 -0.41344863 -1.7198087 -0.035617795 0.5581012 0.02979649 -0.81133723 -1.2532613 0.60122854 0.095663644 0.4665135 0.5477111 -0.62689525 0.6396223 -0.11253706 -0.45631084 0.01980186 1.025161 -0.9466292
1556 -1.1016144 0.2172585 -0.9641772 0.8462925 -0.94684863 -1.3830159 -0.3192564 0.2796745 0.21441253 1.292857 0.20332108 -0.68799686 -1.0499396 -0.7126127 -1.5828077 0.35016513 0.9677173 -0.23597366 -0.033873763 -0.3020385 0.93763065 -0.10545186 -0.25057176 0.36042306 -0.8116489 -0.34448248 0.6620443 -0.6951147 -0.88598174 0.6580119 0.58297366 -0.403712 0.55788374 -1.2939739 -1.0918808 -0.056293286 -0.18717082 0.93441087 0.64875257 -0.41318306 0.20913187 -0.37385482 -0.35840264 -0.31168398 -0.25026387 -0.5689882 -0.36651272 -0.88971865 0.33172166 0.9547111 0.11119891 -0.46488127 -1.0662313 -0.14116211 -0.58337283 0.55647415 0.20956734 -0.30811098 0.6322839 0.9607348 -0.46264333 -0.50665617 0.32961634 -0.47801435
1557 -1.0917737 0.21304381 -0.96387756 0.8505921 -0.9780413 -1.3964193 -0.31387028 0.29351693 0.22501352 1.284265 0.20902653 -0.69833004 -1.0452703 -0.7299889 -1.5848638 0.35296947 0.96736443 -0.23386125 -0.027818702 -0.3228097 0.9413269 -0.111686096 -0.22789967 0.37757593 -0.82511204 -0.3434287 0.6790429 -0.6749008 -0.87137216 0.646119 0.5974571 -0.39757204 0.56159216 -1.3058988 -1.1000512 -0.049026337 -0.18680602 0.9372589 0.6609341 -0.41654262 0.21010353 -0.37014303 -0.3643114 -0.3221735 -0.24360365 -0.5677014 -0.38027382 -0.9077118 0.34011242 0.9548688 0.12526639 -0.47267705 -1.1031885 -0.12379542 -0.60032177 0.56411433 0.2121586 -0.29972875 0.63486487 0.97739136 -0.47426802 -0.52266926 0.33049244 -0.48856106
705 0.062485207 0.570819 -0.6010069 0.07346397 -0.50227046 -0.34293732 -0.07120051 -0.07331436 0.7318745 0.25969243 -0.02506183 -0.21212591 -0.7476367 -0.268546 -0.41068077 0.4594277 0.24334845 -0.1780904 0.32685903 -0.86288875 0.42549464 -0.3719543 -0.30754384 0.78340393 -0.23260367 -1.042672 -0.0692961 0.42084742 0.083669975 -0.25713113 -0.14097357 0.14927846 0.11354152 -0.71904004 -0.49584308 0.4089927 -0.253403 0.39585742 0.49216166 -0.06519528 -0.84799516 -0.29705638 0.22755602 -0.57918924 0.12811251 -0.61196995 -0.780485 -0.7976385 0.44598532 0.3495488 -0.40048876 0.38995275 -0.7283217 0.3860179 -0.37650672 0.42359427 0.08201327 0.036876146 0.16892982 0.27561048 -0.707978 -0.14650352 -0.4659288 0.006561164
752 -0.22354637 0.35212576 -0.6915336 -0.0034411363 -0.17955333 -0.14115715 -0.362204 -0.1930892 0.44323507 0.13168447 0.2003177 0.0732051 -0.4531377 -0.31209636 -0.31058812 0.39881182 0.16999096 -0.2522602 0.7645795 -0.49439645 0.5560549 -0.16368479 0.0045740767 0.873806 -0.56731766 -0.6585446 0.10347982 -0.0139629245 0.10469175 0.4897121 0.08194943 0.11164021 0.24009024 -0.7614256 -0.074644364 0.60109043 -0.30647084 0.49865708 0.40818912 0.49366763 -1.134706 -0.20770232 0.1314787 -0.42395586 0.026719922 -0.25239474 -0.32272673 -1.1173316 0.23666699 -0.097747326 -0.13695385 0.19777262 -0.7368368 -0.015749218 -0.4713783 0.55918396 0.15704146 -0.10143923 0.070392616 0.13884723 -0.9059572 -0.8206492 0.14199947 -0.088078156
688 -0.6294937 0.8184265 -1.1037973 0.2273869 -0.83237815 -1.0513783 0.46175468 0.6328827 0.4152395 0.691189 -0.48602152 -0.5692061 -0.87097096 0.23192906 0.05292273 0.5235131 0.54472846 0.8485956 0.330058 -0.32756266 0.48083046 0.34574035 0.11774423 -0.52775943 -0.63537896 -0.8182112 -0.25013277 -0.51496404 0.19317818 0.14097504 -0.43250227 -0.21892358 0.09256851 -0.40882376 -0.2246757 -0.81973267 -0.29743814 -0.38996708 0.40070692 -0.28730255 -0.27969033 -0.35110357 0.17116582 -0.6184801 -0.8394022 0.18367206 -0.34261027 -0.9655908 0.19936559 -0.6607414 -0.09164065 -0.43287048 -0.23982263 0.52941555 -0.64914334 -0.08048527 0.1012417 0.30067837 -0.114739016 0.7502753 -0.5857638 -0.74157476 0.6378482 0.33154702
1141 -0.48419365 0.24923788 -0.37838688 0.74152404 0.3123377 -1.1067039 -0.08078392 0.099286325 0.11634921 1.2952298 0.5680496 -0.3257744 -0.6410463 -0.33810577 -0.6731427 0.74655724 0.47800982 -0.44428882 -0.005001785 0.50399745 0.0805079 -0.18780307 -0.58031607 0.40738243 -0.38256195 -0.7399677 0.29212937 -0.6607655 -0.9771521 -0.18329026 0.61571765 0.06759247 -0.01766762 -0.46199116 -0.6083645 -0.40212503 -0.18639521 0.33458555 -0.018053494 -0.09889334 0.2633066 0.020308588 -0.12222933 0.3942614 0.4302633 0.50420517 -0.32477418 0.06034202 -0.14337584 0.2419416 0.4940667 -0.30917335 -0.3117361 -0.6348742 -0.39394212 0.2310709 0.5962902 -0.30615628 0.64580524 0.5613128 -0.41437393 -0.13732415 -0.46697724 -0.025344364
1137 -0.4559666 0.23079136 -0.35847268 0.7178904 0.24370189 -1.1329662 -0.015571638 0.05036349 0.143193 1.2738283 0.54921985 -0.34099913 -0.6224339 -0.3275789 -0.658748 0.789653 0.52516305 -0.4003186 -0.0064672707 0.5084966 0.11600946 -0.1677033 -0.46934384 0.4462814 -0.34933555 -0.73320323 0.25313836 -0.63289315 -1.0289421 -0.13551216 0.5500393 0.011055227 -0.026502157 -0.39664304 -0.6328293 -0.39366058 -0.18000056 0.3082229 -0.0011735071 -0.14396696 0.27768755 -0.019028738 -0.13345103 0.40997365 0.49829152 0.51649106 -0.27799383 0.0848116 -0.10820272 0.19567578 0.4798697 -0.26342344 -0.39922714 -0.7086611 -0.46100563 0.29026204 0.68797535 -0.3290446 0.67779124 0.5707141 -0.3828543 -0.1843961 -0.4401498 -0.0185162
961 -0.5155904 -0.0082425345 -1.3872992 -0.18856816 -0.71943283 -1.260138 -0.39906418 -0.35268828 -0.43105397 1.2519215 -1.4244747 0.20356944 -1.6545899 -0.5332528 -1.0729309 -0.21396191 0.4992229 -0.07699039 -0.5185648 -0.009449911 0.35071003 0.6347641 -1.1560743 -0.51588535 -0.1476414 -0.7154383 0.43151054 -0.6791836 -0.8489351 1.3487897 0.22147188 -0.1530197 0.7656682 -0.68921465 -0.78299594 -0.42262053 -0.48408076 1.1215141 -0.13535614 -0.34705904 0.9792712 -0.40001264 -0.08318392 0.30772257 0.32919347 -0.84511566 0.6545982 -0.73591876 0.619009 0.39493614 -0.3681793 0.41300243 -0.53421915 -0.13419819 -0.32608142 0.5806014 0.14986643 -0.2967174 0.15778361 0.062753916 -0.055051006 -0.24270128 0.07929319 0.116631486
1135 -0.44059464 0.21483792 -0.39631572 0.7786784 0.24037966 -1.1835715 -0.04312382 0.045754544 0.09867797 1.2658404 0.5514729 -0.2893712 -0.5780383 -0.30895528 -0.70862454 0.78481436 0.44744068 -0.45500264 0.045957435 0.45686018 0.10155339 -0.18535475 -0.5056411 0.3314167 -0.40705222 -0.76497537 0.232259 -0.6345336 -1.0035323 -0.2007436 0.5929502 0.046586625 -0.0783445 -0.4470193 -0.59150785 -0.3900349 -0.12903428 0.30635926 -0.018305175 -0.12859479 0.28053468 0.052890938 -0.14235504 0.39619583 0.53034264 0.5026096 -0.34825894 0.04782319 -0.12824862 0.22397068 0.4359221 -0.3166813 -0.40040484 -0.65558785 -0.4082868 0.21775433 0.66406196 -0.3577484 0.64113337 0.539042 -0.37332398 -0.17532279 -0.5153491 -0.02121147
1143 -0.4469779 0.2299899 -0.31599578 0.7780951 0.21440938 -1.2683278 -0.15695064 0.021464273 0.08073363 1.1478437 0.4106286 -0.26819322 -0.5127858 -0.3066388 -0.80656445 0.715619 0.5244469 -0.47621205 0.046460588 0.59315324 0.100437954 -0.22467476 -0.5218693 0.5327072 -0.4238759 -0.7593417 0.24546985 -0.5890106 -0.95208883 -0.16830353 0.578885 0.10797251 0.028331598 -0.38270855 -0.67526287 -0.5330376 -0.10683795 0.4617189 -0.0044007925 -0.102671295 0.1404501 0.1694335 -0.056978747 0.5153131 0.5325709 0.6062944 -0.39858335 -0.04568756 -0.29274625 0.15533851 0.4538917 -0.31295586 -0.43129113 -0.694801 -0.38078144 0.32044125 0.58341694 -0.37446812 0.632992 0.4456836 -0.49392694 -0.15017058 -0.4185184 -0.14511819
1138 -0.48159084 0.29863682 -0.30172017 0.78661597 0.30295917 -1.1502826 -0.014403928 0.026524168 0.19533285 1.2390175 0.5421062 -0.29702526 -0.6559305 -0.30435333 -0.6731436 0.7648691 0.49473614 -0.34840187 -0.026424168 0.4631103 0.061042804 -0.19918223 -0.5139587 0.5607151 -0.33272254 -0.73404086 0.3227235 -0.69749975 -1.0471182 -0.17346415 0.6439441 -0.001539971 -0.022749877 -0.4202415 -0.6352062 -0.4348411 -0.0821435 0.3346577 0.023709249 -0.17879297 0.26938763 -0.009978777 -0.12231436 0.43345782 0.47629526 0.47064683 -0.27612868 0.1370774 -0.089232385 0.19140346 0.4088493 -0.3745172 -0.28812268 -0.6398815 -0.45565128 0.23187713 0.59299135 -0.2275374 0.66312736 0.55473167 -0.38691047 -0.088924676 -0.41991994 -0.11122611
1139 -0.42084733 0.26258534 -0.3800061 0.7907928 0.24056762 -1.1370353 -0.008884201 0.031585947 0.08238117 1.2609258 0.5578287 -0.3001045 -0.6136325 -0.37226668 -0.63310504 0.8337159 0.500757 -0.3433445 -0.013187306 0.5181363 0.112005875 -0.13195513 -0.46849206 0.43815488 -0.40929028 -0.7655158 0.26624236 -0.60588235 -1.0383471 -0.18321201 0.6097732 0.037746184 -0.049561553 -0.35663164 -0.63646525 -0.41666633 -0.1258575 0.36087394 -0.013790457 -0.092520505 0.28806174 -0.0060401885 -0.14382418 0.38380063 0.51446486 0.49638847 -0.3181061 0.067629874 -0.1286726 0.26582927 0.43629965 -0.30006137 -0.3332834 -0.6293937 -0.41861773 0.19859609 0.62385535 -0.27409825 0.68371063 0.58893025 -0.35851082 -0.16095537 -0.43237108 -0.04954436
1406 -0.6239105 -0.39765552 0.3860136 0.41613057 -0.9027482 -0.0025388985 -0.30730018 -0.13800438 -0.442605 0.30693778 -0.3155295 0.19247988 -0.49500093 -0.4013816 -1.0188069 -0.33663517 0.7984794 -0.35941103 -0.17632352 -0.31567848 -0.15943037 -0.26379496 -0.24351412 0.2097924 -0.4776797 0.2155943 0.8564283 -0.37560955 -0.17223002 0.23123565 0.24471252 -0.64324325 -0.008549728 -1.1159039 -0.9862347 0.3856619 -0.11459207 0.64335966 0.25654402 0.27185467 0.59503216 -0.01274505 -0.9062664 0.69254446 0.008917489 -0.20085782 -0.9665277 -0.16389179 -0.26123962 -0.079261 0.2544893 -0.1921329 -0.3944116 0.67450196 -0.8060477 0.2297498 0.94765997 -1.030335 0.120493956 0.64547414 -0.08808335 -0.5248931 0.8442787 0.54973835
1136 -0.42046413 0.21077056 -0.40670672 0.731301 0.28832722 -1.1157008 -0.050557695 0.08362502 0.10388546 1.2954593 0.57722795 -0.3312325 -0.6098 -0.3648741 -0.64900744 0.8121931 0.5101201 -0.40690136 0.020224757 0.4758027 0.05247027 -0.1830813 -0.54471296 0.38498762 -0.44159585 -0.7582103 0.28566125 -0.63410926 -1.0353429 -0.20905215 0.5923794 0.085975975 -0.01974077 -0.4086192 -0.63927615 -0.39358324 -0.19026783 0.34205678 -0.022571905 -0.13106257 0.27283576 0.010051872 -0.13490723 0.41063616 0.449388 0.47571415 -0.33564577 0.09794011 -0.10385633 0.23862912 0.49251902 -0.25052983 -0.39732024 -0.6297091 -0.46592548 0.22568269 0.6504868 -0.31997085 0.7194204 0.5760759 -0.37223166 -0.1719753 -0.44785714 -0.06088771
1037 -0.2996199 0.038149636 -0.5386134 1.6625127 -0.8491487 -1.785209 -0.19303711 -0.012210269 0.7421358 0.5554144 0.15975584 0.00021816479 0.36271337 0.066870876 -1.1898495 -0.6108516 1.1952142 0.9617262 -0.5045872 0.28878513 -0.04016572 0.23736039 0.41453135 -0.71944034 -0.48056883 0.3088729 -0.04864497 -0.8213744 -0.6381029 0.67666614 0.6732887 -0.2602943 -0.37682918 -1.9089156 -0.53937113 1.0655633 0.45365244 1.2276965 0.97524977 -1.8797233 0.5454981 -0.033508636 -0.765224 0.13087787 0.31829566 -1.3628695 -0.36322936 -0.5912235 0.64564526 0.07302697 -0.29709402 -0.7333905 1.1829998 0.54665416 -0.078987055 0.09935855 -0.43180758 0.43839005 0.33751258 -0.52990526 -1.1412771 0.9852414 1.1138272 0.15554337
1140 -0.4392129 0.2706995 -0.34657472 0.72334856 0.26702702 -1.1383364 -0.053022087 0.10597412 0.15924361 1.2635057 0.5998662 -0.36449036 -0.62274855 -0.34188652 -0.64035916 0.75438833 0.509017 -0.37654367 -0.0063024135 0.45719174 0.07133812 -0.15237063 -0.5029027 0.44044262 -0.366762 -0.7431994 0.3170811 -0.6546304 -1.064677 -0.19944438 0.6557682 0.041426666 -0.03992439 -0.43599668 -0.6493132 -0.37945712 -0.14373377 0.33519992 -0.012065168 -0.21008916 0.25831786 -0.035684094 -0.12874132 0.40363133 0.43190256 0.49165335 -0.25655803 0.102200866 -0.078225374 0.23074917 0.49203688 -0.2607317 -0.35293382 -0.6693762 -0.4855007 0.23792219 0.62710893 -0.2808657 0.7032943 0.5036214 -0.39116347 -0.14418466 -0.49248034 -0.007978081
1421 -0.59535474 0.50164443 0.30986452 0.30382177 -0.89513975 -0.22099924 -0.69503 -0.2513615 -0.124361455 0.37080255 -0.34161308 -0.20803206 -0.651619 -0.2356247 -0.59870833 -0.2726277 1.0279232 -0.41576564 -0.64437306 -0.34831804 -0.17370625 -0.49134514 -0.40407366 0.32494655 0.08020054 0.45288146 0.61759645 -0.5913931 -0.09915609 -0.07307248 -0.16924258 -0.39185527 -0.025174588 -0.4256323 -0.5153122 0.09593223 0.3174334 0.11605484 0.27717787 0.21203333 0.14572908 0.20782293 -0.6574979 0.40301463 0.2349375 -0.23394123 -0.89988077 -0.3802139 -0.101568535 0.58542776 0.5116209 -0.031395387 -0.5048591 0.7645511 -0.9484907 0.3227323 0.7205012 -0.58648354 -0.11778887 1.1148382 -0.24982905 -0.3790382 0.8037373 0.7066883
1118 -0.64032173 0.08152983 -0.43495932 0.4147288 -0.17811015 -1.1738585 0.12719217 0.27297166 0.07570507 1.1695958 0.2501873 -0.5046216 0.042888593 -0.3680853 -0.53734124 1.0209876 0.72456384 0.09178622 0.13294189 1.0800952 0.41063893 0.07277479 -0.22185975 0.52258795 -0.04191717 -0.7827402 0.034314696 -0.07852357 -0.8907772 0.33652288 0.42447516 0.2668572 -0.40639758 -0.13382787 -0.74530756 -0.07758479 0.062466376 0.650896 0.24754043 -0.17044151 0.35171047 -0.23062709 -0.2341268 0.039035115 0.16369432 0.69925684 -0.094388135 -0.12317048 -0.021970337 0.37812552 0.60365933 -0.4254168 -0.35027853 -0.50597876 -0.43834987 0.7974073 1.196119 -0.35401332 0.6437169 0.68021303 -0.21478024 -0.16181773 -0.5619909 0.3672783
1043 -0.80894977 0.57788146 -0.7013104 2.1638873 -0.2480401 -1.6803687 -1.0490223 -0.28280523 1.1561452 0.19615892 0.07093063 -0.51321423 -0.28869018 -0.058976192 -0.36032653 -0.75946885 0.72539175 0.8408418 -0.75042665 0.11385678 0.32862344 0.33073047 0.3003431 -0.13324438 -0.50558287 0.17833534 0.23540992 -0.8237995 -0.05874665 0.7024502 0.5703426 0.34390497 -0.7671889 -2.4868684 -0.15870343 0.712112 0.36722615 0.8059956 0.8708843 -1.1749353 0.5278819 0.69101906 -0.37150532 0.003811496 0.3936781 -1.2761966 0.57064664 -0.36710277 0.9833175 0.286915 -0.7948142 -0.11974209 1.0719484 0.84036916 -0.37573734 -0.19407088 -0.5029241 0.42281538 0.41963682 0.11105149 -1.1318008 0.98237103 0.38651633 0.14544897
714 0.2351796 0.669695 -0.18455502 0.34426558 0.06592705 -0.83106804 -0.37268934 0.08988148 0.6102721 0.26268598 -0.27532434 -0.4144414 -0.55370086 -0.2567659 -0.6199115 0.5059935 -0.06873288 0.38324195 0.49883994 -0.16531682 0.5246421 -0.7810657 -0.30124918 0.7229992 -0.72196054 -0.8995023 0.0037580407 0.22556956 -0.044874627 0.31559673 0.71510625 0.10844989 0.19835982 -0.29179147 -0.41562536 -0.15871188 -0.6506443 0.07678336 0.51968366 0.38620412 -0.61340624 -0.5209268 0.4118619 -0.77100337 -0.41364682 -0.26099944 0.1598591 -1.0107344 0.29388937 -0.042599753 -0.36139432 0.14627689 -0.8893366 0.4532894 0.32994592 0.66257286 0.15130906 0.16675662 0.021865787 0.730038 -0.56167835 -0.39210615 0.31716734 -0.0793154
964 -0.28800115 -0.38322878 -1.2961212 -0.21743152 -0.720448 -1.0797225 -0.4947254 -0.31280917 -0.3847245 1.1055402 -1.4417505 0.037302967 -1.7613736 -0.49217224 -0.6933778 -0.25524586 0.5529304 -0.08602593 -0.31805366 0.008276272 0.4568093 0.65383935 -0.79046696 -0.31797895 -0.23200762 -0.8083715 0.49153122 -0.6516356 -0.8763079 1.3354021 0.42781743 -0.3793391 0.7429139 -0.9086755 -0.6506075 -0.50638795 -0.5745766 1.201004 -0.10777888 -0.32242757 1.2258427 -0.54576534 0.0469291 0.3212375 0.28845385 -0.85933363 0.6800375 -0.6211166 0.5055733 0.54826194 -0.14489543 0.42229104 -0.49639195 -0.38871053 -0.28461802 0.586098 0.018879374 -0.26831853 0.12106032 0.4130493 0.024936453 -0.21447264 -0.15996149 0.0069984975
1412 -0.53356874 0.16956142 -0.11552761 0.46684766 -0.6340506 0.0674215 -0.3624872 0.01970246 -0.2631452 0.20642574 -0.10323894 -0.035019334 -0.013687813 -0.32902613 -0.38119057 -0.48603603 0.49467093 -0.58960956 -0.6611006 -0.34561902 0.0873398 -0.22187571 0.04080355 0.2548738 -0.70231974 0.4412811 0.2651211 -0.61332446 -0.49781987 -0.109674536 0.29855934 -0.5386097 0.06297699 -0.92118627 -0.7210307 0.10392257 0.62352985 0.4485704 -0.14872606 0.3873703 0.3636872 0.50630933 -0.6945656 0.044105142 0.2882047 -0.31075865 -0.22431132 -0.7407319 -0.0054937704 -0.108915545 0.3466027 -0.24944378 -0.67650723 0.46356165 -0.9512459 0.27241454 1.106258 -0.7136855 0.06706133 0.85281444 0.42298162 0.05255408 0.6770524 0.117355995
1350 -1.1003585 0.11759167 0.5871999 0.795917 -0.5013252 -0.10107553 -0.5249597 0.7933102 -0.036651254 1.0547729 1.0555954 -0.21977721 0.32003284 0.33420882 -1.6586063 -0.53221035 0.9887054 0.50752383 -0.010522637 0.7523627 0.9787384 0.019686285 0.082351364 -0.63374984 -0.8346358 0.59128 0.37458476 -0.88203275 -0.06830462 -0.08895658 0.8759738 0.23820792 1.6645772 -1.1684006 -0.5668927 -1.4339334 0.2512688 0.24918847 2.5513597 -1.0620029 0.5283657 0.5926943 -1.2099047 0.6674054 0.40703225 0.4049077 0.059382495 -0.25449696 1.2143452 0.25154617 -0.6880444 0.4285312 0.4034733 -0.74001646 -0.018599931 -0.2849834 -0.06698359 0.75406194 -0.52781373 0.8169877 -0.59784025 -0.34101495 0.30443978 -0.090637185
1040 -1.0323044 0.6973172 -0.71033967 1.5339352 -0.3473625 -1.139166 -1.2164962 0.51441145 0.54346997 0.86016417 0.7048849 -0.33794793 -0.60889006 -0.3878902 -0.48193777 -0.3246358 0.5720928 0.9219532 -1.2308768 0.22799467 0.5555283 -0.420399 0.39965537 0.14715311 -0.45009485 0.64945453 0.34118998 -0.5399102 -0.32132438 0.08725788 0.5501888 -0.6301023 -0.44919655 -1.9166476 -0.024899047 1.003163 -0.14945067 0.55743587 1.0736388 -1.5003299 0.39313692 0.50942975 -0.7031787 -0.07146537 0.018434536 -0.6200173 1.1233076 -0.66114205 0.6129612 0.3720696 -0.75710696 -0.29774678 0.6402431 1.2172793 -0.39709443 -0.06993652 0.0045664622 0.43553662 0.12929448 -0.44387388 -1.5363222 1.0508969 0.36073968 -0.22283125
92 -0.12523492 0.054126147 -0.41983116 0.3489626 -0.22429569 -0.4994687 -0.37561214 -0.008826902 0.31131354 0.46309718 0.10733193 -0.2982784 -0.33107898 -0.08404079 -0.1665332 0.55348325 -0.4166083 -0.35751083 0.547885 -0.7502674 0.5216008 0.056692228 -0.1889727 0.1628931 -0.32357123 -0.62857115 -0.22224838 -0.036184 -0.013040826 0.020393744 -0.22180389 0.15182753 0.3910186 -0.30772993 -0.58536476 0.23046887 -0.18305998 0.5976532 0.39840367 0.36908025 -0.33138254 -1.0156151 0.17082806 -0.5490085 -0.09601231 -0.052852258 -0.50930697 -1.1043735 -0.16612934 -0.001244379 -0.5254055 -0.3508167 -0.62677145 0.15505019 -0.16752076 0.27392545 0.13777496 -0.06455802 0.22745205 0.6249939 -0.9359455 -0.60645485 -0.24264193 -0.16963816
166 -0.37471938 0.4402704 -0.7808492 -0.048459064 -0.049432255 -0.3686139 -0.49220428 0.5052473 -0.33803394 0.07684135 0.2912698 0.22280642 -0.6853286 -0.2515913 -0.40257618 0.4967876 0.058142934 -0.551566 0.59958136 -1.016905 -0.13121113 -0.3245802 -0.086218044 0.16997461 -0.4812954 -1.0481645 -0.19281209 -0.2610469 0.6187404 -0.013973588 0.32862282 0.2581726 0.44662914 -0.5438449 -0.9554397 -0.30155072 -0.5564583 0.2481735 0.74465746 0.6246917 -0.5602864 -0.85159546 -0.69661826 -0.7061577 0.12335584 -0.4197235 -0.047315195 -0.734305 0.25842994 0.26806697 -0.2619287 0.34713033 -0.94782966 0.20360883 -0.07039661 -0.31116152 0.24794959 0.1607988 -0.21203658 0.49200422 -0.9389619 -0.69078696 -0.7275213 -0.28047612
1240 -0.5851538 0.21341631 -0.72820956 0.6331268 -0.6708517 -0.65046805 -0.2707382 -0.3507728 0.144404 0.81871986 0.31289124 0.13453177 -0.65130335 -0.17260373 -0.9026097 0.14260362 0.3321957 0.22309008 -0.12950368 -0.31211323 0.8971622 -0.29243684 -0.12649746 -0.56254596 -0.087468654 -0.16805047 0.15567812 -0.5117107 -0.76462096 0.31076118 0.47121736 -0.47699925 0.38674322 -0.34228024 -0.27369073 -0.33167544 0.03952647 -0.098170005 0.41816533 0.6713973 -0.2727005 0.05051325 -0.60370004 -0.048762616 -0.26530957 -0.5671237 -0.1827609 -0.28029937 0.39378354 1.0336937 -0.06989147 -0.75679624 0.22750305 -0.17815606 -0.015463022 -0.067579925 -0.21697447 -0.38627952 0.14725101 -0.06280539 0.55238587 -0.08072733 0.06917994 -0.7343792
892 -0.6671822 0.41774493 -0.024424573 -0.5362933 0.10561691 -0.71044177 0.54019016 0.7397696 0.60363764 0.6057863 0.038472384 -0.16533281 -0.35530925 -0.45588142 -0.489945 -0.3485233 0.67734534 -0.031511832 0.22372398 -0.1712492 0.09790892 -0.45273867 -0.14570923 -0.493156 -0.08366846 1.2944189 0.9178542 -0.051490154 -0.29765478 0.7167217 0.38637707 -0.29912028 -0.49957398 -0.63268197 -0.85487574 -0.1549143 -0.015885262 0.30370045 -0.0051674745 0.09134565 0.80690765 0.7479467 -0.12603918 -0.07804556 -0.011248951 -0.2409473 -0.2533522 -0.27355927 -0.39009747 0.5202879 0.313735 -1.1574179 -0.68113667 0.31965786 -0.49309164 0.19837211 0.18122323 -0.9218451 0.14725877 0.9034474 0.34161374 -0.4351108 0.60542136 -0.18801817
736 0.6421662 0.13161968 -0.3554427 1.0237422 -0.9171492 -0.4320424 -0.21742485 0.07528179 0.005051881 0.44752163 0.12767516 -0.43569982 -0.30715865 -1.7482457 -0.6579381 0.96103066 1.0656798 0.54426044 0.8264767 -0.083668336 1.1663642 0.35471728 -0.21963824 0.20272897 -0.94747347 -0.8277226 -1.1631365 -0.41800192 0.18719791 0.2489204 0.4585105 0.9846857 0.7778387 -0.9879549 0.25036606 -0.49249148 -0.63018906 0.69538844 0.6499333 0.021435017 0.49489158 0.119625814 -0.17492156 -0.82212776 -0.14388798 0.82694036 -0.08485232 -0.7568234 0.55153203 -0.06935172 -0.48766747 0.7440203 -1.470983 0.29531094 -0.5717137 0.20500413 0.28887862 0.17624429 -0.64078903 -0.25611946 -0.9215896 -0.65783554 0.26640484 -0.27252442
133 -0.093367815 0.243217 -0.54985803 0.28555202 -0.1583952 -0.6262157 -0.17738743 0.33014637 -0.28739625 0.31755736 0.19025311 0.14449905 -0.24286623 0.11890449 -0.3999559 0.5943696 -0.24961355 -0.2918111 0.3132525 -1.0166092 0.5648027 0.06696662 0.053169742 0.3879837 -0.45942637 -0.42086357 0.020480165 0.30643412 0.29545134 0.004620418 0.26655683 0.25152865 0.4646454 -0.6751506 -0.7158528 0.32949603 -0.5710155 0.65332097 0.84748673 0.026210865 -0.635596 -0.772926 0.32258156 -0.75765216 0.075950645 -0.16903406 -0.35712218 -0.79762244 0.2635233 0.23198794 -0.26271605 -0.16320637 -0.53671914 0.38766104 -0.21205734 0.77642 0.15543906 -0.056927748 0.12961078 0.4468689 -0.18692435 -0.5637354 0.0011826165 -0.17053337
1409 -0.13856769 0.24918991 0.019166354 0.2768009 -1.361422 0.106598526 0.1954239 0.2228826 -0.3501824 0.07882059 -0.3478366 -0.07454202 -0.4952907 -0.15751617 -0.7365471 -0.17320213 0.32424414 -0.5840231 -0.37699237 -0.45991573 -0.10062078 -0.44923213 -0.5553193 0.40536484 -0.6534049 0.4490608 0.25328964 -0.40195632 -0.7443738 -0.26935166 0.05665685 -0.4762106 0.112011984 -0.5819821 -0.85823524 -0.22168334 0.55182177 1.0052016 0.3978073 0.2476677 0.581863 0.60978055 -0.48311573 0.059516307 0.19716536 -0.20441142 -0.6652266 -0.074733496 0.10523116 0.20152125 0.43429855 0.13300183 -0.44030246 0.45773482 -0.57709557 -0.13227157 0.7243839 -0.5495271 0.03843867 0.7137168 0.00030955012 -0.41779304 0.5541663 0.32155716
704 0.019950507 0.4313525 -0.88723046 0.15495501 -0.37481925 -0.30566388 -0.063651286 0.007914638 0.56513184 0.30290845 0.28118238 -0.60500824 -0.7538206 -0.3711102 -0.16649635 0.7613708 0.20533179 0.123328604 0.3111906 -0.7464031 0.11612281 -0.10317459 -0.5678146 1.1628876 -0.3139901 -0.94315773 -0.13137871 0.33039874 0.006627016 0.23723796 0.27985698 -0.0184648 0.20668611 -0.8101708 -0.28966403 0.3970342 -0.5553879 0.69716537 0.48466223 0.40062392 -1.2862976 -0.15341339 0.17659283 -0.4482132 -0.28411528 -0.7678573 -0.58209753 -0.77970505 0.45642442 0.46415463 -0.11365623 -0.019413304 -0.5595962 0.16008809 -0.45111722 0.56491584 -0.12343862 -0.04811867 0.16276169 0.27132344 -0.5140804 -0.6157242 -0.15643305 -0.07809925
47 -0.5499285 -0.4131819 -0.7526693 0.17601758 -0.19297382 -0.41807288 0.9215861 0.6627524 -0.9023878 0.5791603 -0.08825224 -0.19143681 -1.2473941 -0.43253228 -0.8692134 0.047148254 1.034745 -0.09412712 -0.56610984 0.0016355906 -0.0657376 0.4537624 0.89593405 1.054087 0.30501786 0.035254024 1.0053937 -0.6639646 0.39107826 0.34665284 1.0952939 -0.28039506 -0.21844383 -0.3913126 -0.63122404 -0.16900475 0.45196283 0.05150822 0.22258632 -0.061906196 0.8889037 0.97020686 -0.118522935 0.28421023 -0.95718557 0.8643095 -0.7589453 -1.0260761 -0.18434915 0.44395983 0.21419969 -0.19477125 -1.1524699 -0.25932702 -0.26583585 0.23190485 -0.6467111 -0.47782406 -0.29070762 0.748018 0.027595313 -0.0041961344 0.31858903 -0.03672572
1239 -0.37921628 0.5071373 -0.34638956 0.49161464 0.16736484 -0.8299196 -0.22106911 -0.22104932 -0.076249145 0.57683367 0.06042709 0.14611895 -0.5390114 -0.07079488 -1.0484923 0.40796265 0.30302447 0.1655583 -0.02690255 -0.030122299 0.71189106 -0.26351455 0.16852343 -0.1238597 -0.15250877 -0.039011415 0.44249117 -0.4194468 -0.9998845 0.20917046 0.2048861 -0.3436684 0.4293443 -0.5568059 -0.42602864 -0.14609356 0.20658588 0.1792443 0.6875253 0.12000285 -0.2758686 -0.42566973 -0.58926946 -0.20716913 -0.24096775 -0.894549 0.09180334 0.35740674 0.3817275 1.280006 -0.41838136 -0.90751374 0.53173417 0.2594519 -0.29913777 -0.21253987 -0.2309753 -0.45263946 0.5124766 -0.017543597 0.09414646 -0.088185616 0.4629635 -0.4458637
1226 -0.4050012 0.104623936 -0.6462993 0.48815268 -0.2180622 -0.66206354 -0.2292671 0.16425683 -0.049873866 0.8108066 -0.25604114 0.16342361 -0.39875996 -0.02254271 -1.0998852 0.5387514 0.29679596 0.17019926 0.12074469 -0.10099983 0.78840995 -0.3595156 0.3330149 -0.24205741 -0.13299665 -0.05267165 0.23310429 -0.6408989 -0.6476219 -0.011626853 0.46235114 -0.5698855 0.43234268 -0.33355907 -0.05739041 -0.6177972 0.08395841 0.12943548 0.67309 0.33330983 -0.29014227 0.11825233 -0.6830813 -0.044291113 -0.26450077 -0.85411793 0.0006084814 -0.22278781 0.03955698 1.1369936 -0.26147705 -0.8430701 -0.24047014 -0.115431786 -0.09408626 -0.12532054 -0.33047348 -0.64482784 0.02270403 -0.037498467 0.112312816 0.08263887 0.14488052 -0.6935398
103 -0.31508696 0.44031942 0.69836205 0.6616066 -0.29564345 -0.7092898 -0.67521447 0.09899933 0.8684073 0.41198283 0.13502108 -0.8184306 -0.6893934 0.43704063 -0.27103478 0.64793104 0.57856995 0.17141625 0.45510656 -0.974972 0.21626252 -0.080794275 -0.1667655 0.87609905 -0.84071064 -0.25193632 -0.50708914 -0.3076805 -0.47445014 1.1476082 -0.0024758799 0.175302 0.7204048 -0.70633143 0.20300756 -0.09381409 -0.74113935 -0.013377928 0.43576762 0.53004634 0.7397763 0.035817526 0.8658755 -0.86646974 -0.7215027 -0.1610284 -0.36599874 -1.5973917 0.1952044 0.11983503 -0.54621875 0.40438983 -0.08104858 -0.036861654 -1.2154773 -0.10681858 0.72682405 -0.121003546 -0.47572652 -0.48569122 -0.50610036 -0.6039804 -0.31558156 -0.5065716
1533 -1.003532 -0.20376661 -0.82247436 0.11518635 -0.07793049 -0.119905986 -0.8099777 -0.20555738 -0.37458092 0.33224052 0.52180576 -0.69330937 0.5887065 -0.21193972 -0.2294428 1.4919924 -0.24172546 -0.40439966 0.23281047 -0.8894936 -0.07274889 -0.16774262 0.73111707 -0.094808236 -0.12295336 -0.9725046 0.18533437 -0.3379092 0.92209595 -0.5609048 1.0171086 0.84914786 0.06837748 -0.32230338 -1.4192901 0.1754289 -0.008903468 0.3310367 1.5522758 -0.19943969 -0.18537396 -0.5179059 0.6144409 -0.5725446 0.33687884 -0.5531915 -0.30572212 -1.52611 0.5317904 0.45485651 -0.54247624 0.47709602 -0.6123598 -0.024229117 0.0919597 -0.5512906 0.76972175 0.26379266 0.8217999 0.71153194 -0.76199275 -0.5151584 0.40843797 0.64685357
1348 -0.69124734 -0.40217334 1.1936855 0.49057594 -0.18260945 -1.5039785 -0.24796999 1.2363317 0.2948422 1.046768 0.025055986 -0.5348643 0.79452634 -0.28779685 -1.8218275 -0.56247157 1.6708764 0.29950723 -0.317573 -0.18270999 0.768958 0.35558283 -0.7843069 -1.0942373 -0.87494206 0.85582596 -0.29062065 -0.44598213 -0.18806824 -0.42550123 0.66173834 0.112142265 1.4025913 -0.05283841 -1.2864318 -0.3353692 -0.84214085 0.22503425 1.1455574 -1.3172065 -0.18487862 0.067778535 -1.0421374 0.4675107 0.24797846 -0.081412055 -0.2415041 -0.27671948 0.32129818 0.58753943 0.2787475 1.0193586 -0.08794229 0.4759964 -0.5678936 -0.521396 0.20034648 0.08628625 0.088130824 0.93101233 -0.10124751 0.28638768 0.8125249 -1.1942798
48 -0.61704725 0.14894314 -0.68821406 -0.2638773 -0.22865696 -0.677346 0.7368881 0.78567475 -0.39813882 -0.22016671 -0.61023617 -0.25821933 -1.3153788 -0.824616 -1.2267119 0.044186585 1.446432 0.011722884 -0.3088756 0.22196299 0.034974497 -0.17823167 0.10727899 0.16211928 -0.51195854 0.1589818 0.4882765 -0.6929194 -0.23702563 0.47303188 0.30690312 0.0022662098 -0.25638738 -0.5753712 -0.9356562 0.5756644 0.19381943 -0.8098567 0.09460775 -0.22874148 1.1370698 0.8166567 0.10294301 0.24853672 -1.0111462 0.23345143 -0.64101946 -0.016676331 -0.4440939 0.22710143 0.009111062 0.13940999 -0.459968 0.18037857 -0.038355015 0.6896255 -0.19643404 -0.20544603 0.30364668 0.92225105 0.76540375 0.101903446 0.2868608 -0.40674323
852 -0.14117903 0.16680497 -0.59078544 -0.2176474 -1.0191631 -0.26310262 0.124457136 1.2622452 0.6502678 0.5353363 0.50945544 -0.77406454 -0.44688508 -0.4701525 -1.6339563 -0.47895297 0.009705552 -0.048311636 -0.43861306 -0.016203308 0.20988439 0.97807086 -0.16209339 0.6435829 -0.32447067 0.4085757 1.3371685 0.23236972 -0.08653084 0.27897388 1.110676 -0.9266357 -0.6136123 0.10564417 -0.28053826 -0.19227678 0.5760089 0.6025966 -0.5834488 -0.44998425 0.026809158 0.7634266 -0.6848808 -0.45993382 0.13146526 0.47962728 -0.6427947 -1.0459067 0.62342566 0.1259163 0.87187874 -1.7106595 -0.9947796 0.33775583 -0.13320619 -0.5606842 0.6475331 -0.1361384 -0.2551339 0.3112084 -0.6900344 -0.6451924 0.78616405 -0.49575964
700 -0.114017636 0.36946574 0.20464131 -0.19821955 -0.19297652 -0.98466134 -0.00990326 0.25214076 0.30184233 -0.265659 0.2465905 -0.035138726 -0.33520776 -0.25358948 -0.46203834 1.3149439 0.25620362 0.25642112 0.6580921 -0.33286786 0.2291909 -0.020849105 -0.5874157 0.01781422 -1.1363432 -0.62014234 0.022913614 -0.38516805 -0.65018165 0.30197367 -0.22153689 0.5593028 0.7418691 -1.6117989 -0.25259918 -0.18353994 -0.13407424 0.6705447 0.4341666 -0.010524528 -0.17453612 -0.552241 0.37925923 -0.83435655 -0.834355 0.12441106 -0.17231971 -0.643656 -0.051631197 0.0042810035 -0.91084415 0.38995624 -0.29587254 -0.200437 -0.38590837 0.2290104 -0.09983983 0.38260722 -0.2635655 0.22222222 -0.10041658 -0.08553012 0.4044546 0.078389496
708 -0.54552925 -0.44206962 -0.13162798 1.5596937 -0.29065314 -1.6066843 -0.7000795 0.45629293 0.4537979 0.76986337 -0.42517623 -0.93005794 -0.8441443 -1.8461093 -0.43709338 0.9673216 -0.301549 -0.29783523 0.0855407 -0.41538963 0.36836043 0.10586475 0.33983684 0.6029495 -1.1416814 -0.31435287 -0.13835321 -0.5839637 0.55108345 0.123760864 -0.903256 0.9102339 -0.14854065 -1.3648951 -1.0536485 0.11749995 -0.6073417 1.4534498 0.34850615 0.13563879 -0.45443174 1.1677507 -0.68066967 -0.99612945 0.5104239 -0.16367061 -0.07884195 -0.8268881 1.591151 -0.63065803 -1.0436355 0.41018105 -1.1373103 0.20416397 0.47608304 0.045598958 0.16989784 0.5319056 -0.46278736 0.2494798 -0.27186236 -0.16490898 0.38684532 0.004349789
687 -0.5974292 0.6505472 -0.89868945 0.23357032 0.040974833 -0.8665976 -0.08400354 -0.023845445 0.4015866 0.12873444 0.6658531 -0.6424235 -1.1999176 -0.081833325 -0.19624037 -0.11277625 0.19130439 0.16936542 -0.19202359 -0.42092425 0.72519517 0.41452393 0.3049394 -0.5062945 -1.5741719 -1.077683 -0.6945615 -0.34427842 -0.3727426 0.20459718 -0.054828826 0.07418741 0.08060791 -0.5404415 -0.09540916 -0.86154234 0.0811401 -0.1659877 0.28178746 -0.3279725 -0.14519854 -0.070538364 0.5474964 -0.0350674 -0.4889628 -0.36404276 -0.19036973 -1.091227 -0.068988845 0.12924124 -0.2871158 -0.40576595 -0.69232446 0.34895808 -0.19017406 0.31843522 0.15248485 0.4012648 -0.48915416 0.44963723 -0.64121664 -0.4284628 0.9542341 0.049398076
1447 -0.3603331 0.6894253 -0.638933 0.11395049 -0.039171424 -1.2003826 1.0569426 0.4585317 0.027534137 -0.08860227 0.28739262 -0.28853452 -0.6140487 -1.0898018 -0.842235 -0.81945455 0.67969656 -0.91197723 -0.4697928 -0.3368181 0.63165575 -0.5733232 0.66249907 0.40501997 -0.42671168 0.76160175 1.0327103 -0.22220162 -0.25928408 0.6805466 0.33723536 -0.68319494 -0.2847143 -0.54602724 -0.62186056 0.14048187 -0.64422363 0.13867222 -0.0011243867 -0.17621396 0.4051763 0.27036613 -0.6560062 -0.20143414 0.32211068 -0.7945253 -0.87445587 -0.36815196 0.22824039 -0.1881458 -0.3133416 -0.83530426 -1.1982285 0.019357746 -0.6711722 0.57814807 -0.06870587 -0.6021835 -0.29865628 1.1221006 -0.57606614 -0.8649544 -0.56057537 -0.21723248
219 -0.853799 1.0747855 -0.26823497 1.3592366 -1.1379519 -0.15285951 0.60837495 0.68215895 0.21850276 1.3281267 0.9128971 -0.36371145 -0.22750776 -0.45148566 -0.6236833 0.8394799 0.67267674 0.31212148 0.16133903 -1.4479268 0.3425662 -0.09533511 0.6627603 0.4312509 -1.3980587 -0.6330672 0.082703054 -0.91351664 -0.85440624 -0.26267028 -0.26467988 1.4991883 -0.68616766 -0.45873055 -0.47650403 0.09454705 -0.51475966 -0.5528605 1.7062473 -0.205877 -1.1998283 -0.16848312 0.35181317 1.770445 -1.4054595 0.2331684 -0.40693685 -1.4456083 -0.28834432 -0.12746671 0.117921494 -0.768557 0.06533738 0.75611013 -0.45877093 -0.010410779 1.3260944 1.3644277 0.32962254 0.8030988 -0.7767123 -0.92076534 -0.06500676 -0.0032083322
1362 -1.3034241 -0.74490017 -0.28188366 1.2098299 -0.90359044 0.31770074 -0.05747288 1.3943605 0.6308855 0.84214485 0.3830797 -0.24938352 0.71957207 -0.5675119 -0.16189845 0.27677882 2.1197045 -0.1097711 -1.1604148 0.6040242 1.258626 0.21970274 0.046148494 0.08855499 -1.9625638 -0.7078589 0.9754211 -0.10893053 -0.29017818 -0.2392241 0.50765216 0.86224467 0.6040781 -0.537879 -0.6867835 -0.6085602 0.14458928 1.107974 1.0468725 0.5669389 0.43944818 -0.5023855 -1.4396427 0.29473907 -1.3906518 -0.18989827 0.053167455 0.015451705 0.45400563 1.1367693 0.6246452 0.030180303 -0.09858681 0.44265386 -0.5016776 -0.2540783 -0.14394288 -0.21636413 0.9566162 -0.74207306 -0.5996572 -0.17204832 0.7298583 -1.0250131
1338 -2.0494783 -0.46441233 0.41732812 1.7215276 -0.7075877 -1.0963775 -0.34889442 0.19746332 0.22602652 0.3313419 -0.44836855 -1.2504792 -0.57771766 -0.8581934 -0.37078464 -0.07869839 0.93309695 0.29809204 -1.0183291 1.022907 1.0781064 0.6738548 0.43834588 0.13369499 -1.1607971 -0.2957697 0.7628285 -1.4446442 0.35991907 -0.7419068 0.4319036 0.55912703 0.5017248 -0.8744547 -0.6419658 -0.52494454 0.434833 1.0501497 1.3213786 -0.33173248 -0.2874529 1.1389544 -0.68741244 1.0801582 0.10238876 -0.82367325 0.34283403 0.24721736 1.7388675 0.9484858 -0.26433465 0.6771665 0.33276492 0.676698 -0.82934403 -0.9329245 0.54527384 -0.2648035 -0.043357868 0.93847823 0.24433117 -0.16989587 -0.2751704 -1.1777685
1242 -0.409091 -0.13948171 -0.31595397 0.2538882 -0.61759895 -0.51059264 0.14452443 -0.0124664055 0.053185727 1.0030484 0.18868375 0.08195255 -0.4189816 -0.046829455 -0.8359141 0.3130691 0.5216423 0.19880886 -0.016859014 -0.2817731 0.8582547 -0.2657999 0.26054814 -0.112000905 -0.14614025 -0.15344182 0.2781584 -0.35975903 -0.97056264 0.55054235 0.5562773 -0.8959508 0.32958192 -0.248726 -0.29819736 -0.22160792 -0.16297303 -0.05520161 0.7045564 0.094100915 -0.22563666 -0.27609503 -0.47352436 -0.26982763 -0.26120555 -0.68369657 -0.073311195 -0.07405918 0.98370785 1.095176 -0.5082001 -0.73287576 0.044715457 0.10030508 0.24617052 -0.50285864 -0.3952491 -0.7814142 0.4779443 -0.028283162 0.1507862 0.0045684893 0.17413726 -0.4533561
1411 -0.40413788 0.10172444 0.13518836 0.64594907 -0.8948895 0.19445829 -0.07270955 -0.035539847 -0.30998158 0.35179633 -0.45493716 0.09624478 -0.117919736 -0.08998956 -0.82073987 -0.016470244 0.5874971 -0.3146547 -0.61868954 -0.058682926 -0.12195439 -0.080673456 0.24584985 0.6270714 -0.4181655 0.19332689 0.6587722 -0.29744604 -0.39820656 -0.05727105 0.24742645 -0.13817516 0.4476472 -0.8848325 -0.6955825 0.05008084 -0.24451013 0.22716011 -0.28186828 0.25000915 0.26326105 0.41072908 -0.43133107 0.2842759 0.032446798 -0.18596359 -0.3521584 -0.33346236 0.01672091 0.36814764 0.6980882 -0.39211082 -0.73697275 1.0689173 -0.8600692 0.31200904 0.54287255 -0.65441173 0.26022196 0.78732973 0.15321301 -0.49838805 0.56753194 0.8292715
167 -1.1288109 -0.3700202 -0.1459801 0.027733834 -0.39829624 -0.30750835 0.107132375 0.6934324 0.14697887 0.13585192 0.34235814 -0.06697609 -0.83678955 -0.32503375 -0.92885894 0.41226083 -0.83590055 -0.08517674 -0.06162835 -1.3359537 0.76876926 -0.14699332 -0.76868236 0.5458725 -0.82838356 -1.6916742 0.62728685 -0.5796475 0.65363455 0.03460523 -0.32565054 -0.16117215 -0.028172238 -0.20362066 -1.1209489 1.0997722 -0.13885318 0.46919456 1.559548 0.9760468 -0.7432232 -0.39044788 -0.4347887 -0.9775413 -0.13511945 -0.16770005 0.030316425 -1.0834163 0.107852705 -0.23445348 -0.5002125 0.46852484 -0.6450546 -0.23625399 0.04961859 0.3139878 0.3168642 0.43628266 -0.2116038 0.8751066 -0.7188981 -0.32743388 0.067230776 -0.55670655
1446 0.050584484 0.6569794 -0.93732965 -0.36665034 -0.09746331 -1.6147931 1.0498607 0.5007234 -0.09038399 -0.0740104 -0.2772254 -0.29764596 -1.1242203 -1.2042208 -0.25584945 -0.8252354 0.43395805 -0.974001 -1.1412165 -0.028331412 0.664845 -0.5954878 0.64794064 0.26654285 -0.6717594 0.6980415 1.0965382 -0.18291324 -0.57791954 0.687685 0.13006283 -0.8388284 0.021878824 -1.0160476 -0.65761286 0.075726844 -0.8519331 0.4965037 0.06015026 -0.24510604 0.90456915 -0.059981067 -0.48464766 -0.63509315 0.67783993 -0.8609494 -1.2606802 -0.4565187 0.65214044 -0.49486405 0.17636256 -0.9068388 -1.3977801 0.4390065 -0.760473 0.71722555 0.25668937 -0.78296757 -0.2339642 1.6028285 -0.6713883 -1.1303107 0.20466919 -0.5122948
685 -0.62379724 0.26671597 0.04849687 0.52343965 -0.17733544 -0.3399874 0.25274312 0.77650666 0.2827978 0.07483764 -0.11792684 -0.7395382 -0.28378877 -0.3474003 -0.0779282 1.017391 0.61809134 0.6174558 0.43860635 -0.37680748 0.058429718 0.6196813 -0.5637648 0.36576495 -0.91342825 -0.5340218 -0.50467706 -0.46425498 -0.9924658 0.15475854 -0.03044475 0.519695 0.1770578 -0.8401939 -0.28366086 -0.68273014 0.15391432 0.24329762 0.76533544 0.028424881 0.03411579 -0.71970886 -0.19102326 -1.022108 -0.15880445 -0.29120937 -0.5890155 -0.5967131 0.15660746 -0.04019988 -1.0150896 0.4076778 -1.0851105 -0.12764971 -0.010020232 0.88061166 0.3260697 0.45636746 -0.76041526 0.33192614 0.014085984 -0.49815434 0.19975796 -0.29753682
1337 -2.3801975 -0.58396226 0.053745307 1.1760261 -1.3701903 -1.4720294 -0.18944533 0.49188885 -0.37456012 0.2798797 -0.10131818 -1.2261587 0.43673798 -0.8617879 -0.34475946 -0.15071511 1.3069539 0.06411992 -0.14803323 1.1527079 0.7487568 -0.028695444 0.18767561 -0.04158823 -1.1640232 -0.5506078 0.3054437 -1.0838262 -0.9787724 -0.4733601 1.1182554 0.59939617 0.81056845 -1.2874888 -0.5816225 0.00056538166 0.439879 0.6540093 1.0868708 -0.5627584 -0.09585445 0.25163713 0.15531877 0.7980105 -0.015887687 -0.30902454 0.5991806 0.93732023 1.1118048 0.06810618 0.2865641 0.7655974 0.8738659 -0.013843888 -1.05079 -0.54487926 -0.25964177 -0.5207057 -0.5561761 0.29036227 0.3592747 -0.54691553 0.4362558 -0.7246279
1420 -0.1382968 0.1247634 0.24448985 0.6161231 -1.0255852 -0.14797443 -0.20406109 0.20970914 -0.58672744 0.29876277 -0.16592431 -0.010440562 -0.1790517 -0.32128397 -0.70295125 -0.33570936 0.5683717 -0.78216946 -0.32770005 -0.25107417 0.13102578 -0.21415679 -0.068457805 0.15072693 -0.4685192 0.15976186 0.6702168 -0.29934675 -0.264608 0.122056164 0.19820452 -0.5086874 0.09888652 -0.82012534 -1.0247648 0.08286134 0.085838854 0.30352625 -0.020362 0.47879067 0.3274653 0.40605253 -0.7355919 0.23191737 0.15433307 -0.055561017 -0.53985184 -0.35521778 -0.018859906 0.45079023 0.40070114 -0.07518995 -0.35572934 0.9653577 -0.6165381 0.21681516 0.58976847 -0.7651177 0.13473405 1.0069008 0.24790889 -0.16090818 0.39630103 0.7296647
1230 -0.44041434 -0.20084278 -0.31821877 0.66549826 -0.24023663 -0.4168923 -0.22075143 -0.4513059 -0.16108586 0.56346893 -0.06020865 0.13424866 -0.51013404 -0.38225397 -1.2051598 -0.03439565 0.23697975 0.18597488 -0.14512265 -0.2528543 0.9519454 -0.46569753 -0.14306489 -0.2928343 -0.2832447 -0.5512919 0.39227608 -0.4279743 -1.0700523 0.36839443 0.26981667 -0.39170027 0.20010951 -0.3812675 0.13007832 -0.34904417 -0.50184894 0.06488332 0.6522169 -0.042928595 -0.19231427 0.25571957 -0.23890701 -0.31423563 -0.23885387 -0.51939857 -0.027356422 -0.16551182 0.24326023 1.3724464 -0.2731438 -0.88832176 -0.030012315 -0.14836235 0.003614333 0.05771381 -0.44768697 -0.49382204 0.4390904 0.040905025 0.19423465 0.060538158 0.07881526 -0.42390633
1407 -0.16041963 -0.018390963 0.077471636 0.96487826 -1.1184257 -0.25461257 -0.43729198 0.17730719 -0.47602028 0.7494756 -0.5116335 -0.24079776 -0.48354343 -0.7596691 -0.35927156 -0.462081 0.5282674 -0.7787102 -0.45368445 -0.5963102 0.14631653 -0.470795 -0.30254084 -0.15517834 0.005523862 0.32687885 0.8183491 -0.11117297 -0.3796367 -0.3156062 0.2057083 -0.22395793 -0.025535531 -0.55804753 -0.64379436 0.13502416 0.22619435 0.0026344876 -0.010164552 0.40517727 0.51845026 0.3606409 -0.19123472 0.26755807 0.30009082 0.17358655 -0.38331354 -0.19756454 0.039451934 0.4493289 -0.015569374 -0.12199756 -0.7691554 0.8289834 -0.5316176 0.75750226 0.6065512 -0.55842876 0.057928838 0.88131356 -0.07043399 -0.20090838 0.8098839 0.6073416
1405 -0.13522509 0.008175374 -0.038790476 0.6503628 -0.6311009 0.08352155 -0.29426157 -0.06816953 -0.43177325 0.65003526 0.029327586 0.10187191 -0.25095156 -0.6757358 -0.92276067 -0.42762443 0.07324003 -0.2222075 -0.57603353 -0.16861537 0.36338633 -0.05875579 -0.51021767 0.20581199 -0.21030791 0.3545108 1.2161218 -0.18188466 -0.39326733 -0.126902 0.00611024 -0.43483695 0.34877396 -0.7633644 -0.8820375 -0.25908852 -0.10505571 0.15543115 0.4655993 0.5451076 0.6821997 0.19244465 -0.20895086 0.103837766 -0.003955712 -0.36727282 -0.81574726 -0.21714124 -0.4108323 -0.16670859 0.50117815 0.19224936 -0.22134534 0.96090746 -0.7633289 0.4727363 0.48565084 -0.34720245 -0.10938022 1.0422184 -0.2334805 -0.10613164 1.0520979 0.55935967
853 -0.16373932 0.9716601 -0.74526894 -0.6753003 -0.66635364 -0.30723083 -0.039203458 1.2919666 0.6154803 -0.15587206 0.07072451 -0.33608025 -0.2070864 -0.64126444 -1.5412627 -0.15586463 0.44617772 0.32571703 -0.96818936 0.12506177 0.5524872 0.32653832 -0.2042091 0.07578714 -0.7215879 0.36815846 0.89045393 0.24108894 -1.1090889 0.10352072 0.66100353 -0.20769157 -0.8825655 -0.18722746 -0.5857957 0.49227852 0.14646918 -0.056338206 -0.080043755 -0.7171828 0.38393837 -0.011728034 -0.2087984 0.45940053 0.38307187 0.24495862 -0.15347292 -0.49022883 -0.5017258 0.27360404 0.16635065 -0.83177525 -0.7805384 0.87303287 0.11330934 -0.08310835 0.96950144 -0.6506374 0.59618384 0.7389998 0.022456713 -0.37458786 0.68582374 -0.89567024
1415 -0.19781512 0.03669234 0.29987034 0.6525492 -0.8309845 -0.09855302 -0.23672974 -0.08672108 -0.37071854 0.2821391 -0.29614234 -0.094348036 -0.22146018 -0.29658988 -0.6750483 -0.34060806 0.45222905 -0.4904689 -0.29628268 -0.07658328 0.053629875 -0.29427588 -0.113421366 0.19171052 -0.4662466 0.1624271 0.5819672 -0.30451444 -0.24686192 0.16779634 0.22083052 -0.6483642 0.35855073 -0.68332607 -0.7788872 0.033865135 0.112800345 0.29488543 0.065905064 0.27398986 0.24608922 0.52391946 -0.58731705 0.19307266 0.16303863 0.019373527 -0.649622 -0.2874416 -0.006598931 0.32311478 0.28502676 0.003217225 -0.63713264 0.83269644 -0.78791946 0.32548502 0.68110627 -0.6868598 0.17579415 0.8275069 0.24313349 -0.11269724 0.5008626 0.4970223
1369 -1.9569952 -0.48506418 -0.11877117 1.0698595 -0.63877976 -0.8864936 -0.6836122 0.9759231 0.16169956 0.06619521 -0.59443027 0.31222865 -0.79943836 -0.45669234 -0.6482029 -0.7870598 1.065041 -0.07086747 -0.67307365 0.8544748 -0.1904534 0.081333354 0.43429244 -1.3746483 -1.0145049 0.6686944 0.42925805 0.4169009 -0.3303212 0.5689092 0.79197955 0.3180963 0.32489973 -0.964909 -0.42876333 0.40129745 -0.07787567 1.5109181 1.223699 0.16767052 0.08072262 0.7102211 -0.52494246 -0.40999532 0.15717512 -0.5087928 -0.1063133 0.26248106 1.4947973 0.19137149 -0.6397806 -0.15938665 -0.078792356 0.8111163 -0.2997144 0.5961612 0.25175872 0.16060986 0.23078416 1.0195401 -0.5406017 -1.3834884 -0.3134919 -1.4247625
931 -0.18589185 0.59091526 0.09708287 -0.041374266 -0.36835536 -0.7131315 0.27812192 0.35348496 0.49205342 0.2238615 0.41320407 -0.41187444 -0.27488005 -0.734144 -0.9460312 -0.03942954 0.73012865 -0.3823212 -0.11751171 -0.18659692 -0.29808086 -0.5594201 0.11508765 -0.02371257 -0.6249834 1.2013938 0.92685515 -0.15264581 -0.31785762 0.8137349 0.30797073 -0.21713483 -0.24480362 -0.9688202 -0.93558794 -0.018865686 0.2601934 -0.17589547 -0.40081787 -0.22395594 0.9225038 0.7876954 -0.525139 -0.35403052 0.07213316 -0.62406915 -0.5992974 -0.24348001 -0.3193759 0.18848452 0.25101137 -0.81245506 -0.7131422 -0.15354149 -0.6172188 0.9609063 -0.03841827 -0.7509513 -0.19574875 0.65078133 0.17999451 -0.47766763 0.09587684 0.12065766
1045 -0.40850294 -0.45257157 -0.07753624 0.57526207 -0.7402236 -1.273597 -0.11701019 0.3511883 0.50513506 1.3446141 0.7158753 0.1829686 0.19062586 0.20437089 -1.4100837 -0.01655891 0.273959 0.4764888 -0.15709446 0.56673855 0.7837273 -0.27932376 0.23163274 0.23305963 -0.43305895 0.27691647 0.15313357 -0.5123982 -0.9291249 0.15019776 0.23322578 -1.2357981 -0.6785168 -0.9503022 -0.29655275 0.16214898 0.25758657 0.22189766 1.2761337 -0.6461311 -0.24035051 0.080329895 -0.4372183 0.81279427 -0.34665328 -0.777362 -0.2768518 0.46151876 0.30316374 1.2323372 0.30174726 -0.74102336 0.6888596 -0.11457416 -0.87381774 0.28259617 -0.21507873 -0.23396863 0.07572371 -0.2708207 -0.43269175 0.43198633 0.5976046 -0.69653404
1029 -1.0666798 0.8409262 -0.6348683 0.13002495 -2.0554419 -1.3168029 -0.6775226 0.70986664 0.042212464 0.37952673 0.75440335 -0.4169002 -1.2422984 0.6609299 -0.7163857 -0.07868677 1.2181515 -1.1716013 0.4735364 0.13567643 0.20192583 0.12699102 -0.17330304 -0.28611878 -0.46254346 -0.29160392 0.21129058 -0.3151318 -0.17800702 0.029986437 0.5125725 -0.57642573 0.5914467 0.21636224 -0.62743604 0.15760645 -0.2123803 0.40373194 1.8449944 -0.5441563 0.4244784 1.1113325 -0.026189813 0.013210331 -0.53002906 -1.334104 0.64208996 0.6603996 0.7507529 0.90725875 -0.43758583 0.30176768 0.16749734 -0.78257525 0.49305853 0.34487954 0.41395113 1.119803 0.8918961 0.5165973 -0.6877231 0.32127884 -0.099681385 0.41475108
1306 -0.1609812 -0.07503851 -0.0861415 0.9427001 -0.5550542 -1.958784 -1.3023475 0.8140118 0.5307621 0.61653227 -0.24062325 -0.6424717 -0.29429993 -0.2891079 -2.1321855 0.598845 1.7154721 0.774943 0.142186 -0.057600316 0.42084754 0.31137726 -0.72531164 -1.3960701 -0.010715007 0.58398044 -0.06902542 -0.37010708 -0.92195284 0.36557645 -0.2647891 -0.38544056 0.74560237 -0.260317 -1.3143091 -0.17473346 -0.3083219 1.0069921 0.305282 -0.77853435 -0.11970616 -1.0577766 -0.3816792 0.3046085 -0.0350816 -0.9871694 0.5676967 -0.7218656 0.14663418 0.31767127 0.26989073 0.60842294 -0.8161044 0.38873017 0.23849618 -0.39637125 0.657973 0.45509872 0.5386243 0.6919336 -0.22709838 0.2767089 0.039928485 -0.3437663
716 -0.26829988 -0.44404578 0.045102976 0.5893134 0.30595192 -0.36142954 -0.055422198 0.13702445 0.7454271 0.42027745 -0.4428298 -0.5725569 -0.9264622 -1.0148555 -0.7496487 0.71996063 0.35724795 -0.3386509 1.5624249 -1.4113367 1.349912 -0.3100289 0.42096028 1.2649707 -0.39141515 -1.0674192 0.21731818 -0.55171144 -0.1157513 0.9093639 0.046261474 0.54432744 0.7675647 -1.1029221 0.20667422 -0.1334432 -0.85604644 0.5477878 1.4898636 -0.08267933 0.458408 0.4290087 0.3327882 -0.34496897 -0.10064843 0.112380795 -0.66647345 -0.7910881 -0.1185876 -0.44631094 -0.17275847 0.81566876 -0.48695487 0.68364644 -0.436065 0.07188785 1.142401 0.58222085 -0.30853194 -0.44318828 -0.6771034 -0.409282 0.23184714 0.121116415
1356 -1.4335362 0.19201207 0.93980163 0.7322341 -1.1231977 -0.42131954 -0.88449806 0.28918752 -0.030291963 1.6087339 0.807256 0.00670977 0.8902933 -0.35220486 -2.0538855 -0.30499226 0.7963435 -0.5568496 -0.21431325 0.15764143 0.96625525 -0.092626594 0.68879837 -0.9078328 0.14939746 0.18724734 0.12603599 -0.019793501 0.08484713 0.5549987 1.2366239 0.88982683 0.2613657 0.04494558 -0.7062746 -0.32648724 0.2762564 0.66156495 1.1888313 -0.8642459 -0.6903086 1.2375638 -0.6550009 0.79519236 -0.002012651 -0.045311466 0.17616218 -0.23549238 0.52643675 -0.026443157 0.7043747 -0.3684825 0.5799935 1.0954882 -0.97173476 1.0597298 -0.15928048 0.2108115 0.47182465 1.2361891 -0.93210155 0.16840161 0.35960084 -1.4401764
1460 -1.2585133 -0.12511553 -0.59915066 0.36154795 -0.6807852 -0.2249475 -0.45807567 0.0890716 -0.27575347 1.1212378 0.01545921 -0.744558 -0.8569117 -0.73785293 -1.0658228 0.16277122 -0.06908214 -0.9752908 1.1040156 -0.29544246 -0.89670986 -0.2905711 0.33807787 0.58836097 -0.54591525 0.74635464 0.20012689 -1.1119884 0.5112556 0.6165736 -0.0055176425 0.5286076 -0.500469 -1.3756572 -0.4171388 0.3869183 0.54679316 0.11195266 0.46389258 -0.107877895 0.6746704 1.5183878 0.26315936 -0.41326964 -1.2876126 0.1183316 0.02166297 -0.5757635 -0.35081524 0.3613583 0.55292535 0.35083237 -0.5590713 -0.51049286 -0.95620656 0.44596797 -0.010103808 -0.7259731 0.9126467 0.6559859 0.27366167 0.24501894 1.1504701 0.8700356
1349 -1.6825672 0.10388143 0.8485813 0.7005175 -0.86257285 -1.3599974 -0.34344828 0.6215978 -0.13261327 -0.14697067 0.37040266 -0.67813206 1.0422469 -0.5113028 -1.8254188 -0.53576106 1.3396367 0.3460942 -0.5242141 0.36237118 1.1483674 0.8283907 0.37120226 -0.1546217 0.571644 0.49898848 0.67652357 -1.3243175 -1.4346296 0.17702757 0.96757996 0.09270797 0.1268358 -1.0364586 -0.6439052 -0.59248996 0.61693335 1.2642426 1.4551986 -0.9339966 0.04339217 1.4179282 -0.86915714 0.47541076 0.12237245 -0.2945417 0.5648055 0.3221007 1.1219703 -0.28208458 -1.0090529 0.17525424 0.5368773 0.47155306 -0.7562008 -0.28852195 -0.7822624 0.13403353 0.4648042 1.7433348 -0.30201045 0.5583257 0.42459315 0.068953656
751 0.12366457 -0.08897666 -0.4170908 1.5444514 -1.179122 -1.7626358 -0.9788091 0.8740472 0.90181094 -0.016930446 0.0074378806 -1.65671 -0.1546182 -1.0800776 -0.124956876 0.06285643 -0.2520481 0.24373329 1.2332255 -1.1672443 0.8805874 -0.87429774 0.9188523 0.76098025 -0.5539965 -1.4425874 -0.7659749 -0.741084 -0.6212804 -0.06484203 0.37874997 -0.6394649 0.47863925 -1.0828743 -0.49775714 0.22555235 -0.4033264 -0.11679679 0.8282331 -0.34086972 -0.63425076 0.8865097 -1.1024657 0.052091315 -0.10460476 1.4957942 0.061642975 -0.1535239 0.47103384 0.3505244 -0.44703987 0.42405254 -0.37873012 0.48644936 -0.7921564 0.17473932 0.8403505 1.2318873 0.021050131 0.4077604 0.24477285 0.32570282 0.41473183 -0.5242749
1429 -0.16701192 -0.42945763 -0.051187105 1.20864 -0.567169 -0.55292034 -0.84187794 0.3433808 -0.4649965 1.5638738 -0.6985486 0.011028669 -1.4835883 -0.8913945 -1.0713488 0.23808226 0.32081857 0.2589672 0.07628079 0.10857601 -0.69847685 -0.36285394 0.504797 0.7950615 -0.47261018 1.2344373 0.8985798 -0.73673886 -1.0802294 0.6890466 0.14315026 0.18479025 0.0015057796 -1.2953459 -0.27402136 -0.5167225 0.89535403 0.8679346 0.78464776 -0.73479044 0.15905593 -0.49753147 -0.60757565 -0.032482646 -1.1624585 0.6998383 0.31441903 -0.20610285 -0.33048663 0.7878865 1.3863798 0.15658925 -0.27738327 0.18281385 -0.49770036 -0.7869105 0.6142007 0.3099151 1.1464827 0.7756649 0.022851257 0.018745797 -0.20138827 -0.7945747
1542 -1.0315235 0.2605227 0.14171065 0.23923847 -0.494145 -0.20430763 -1.5129405 -0.57211524 -1.3925217 1.1716875 0.62465847 -0.07650392 -0.5473184 0.15788087 -1.629236 1.0683728 -0.08282043 -0.6895375 -0.59245986 -0.12637782 -0.05410387 -0.8249388 0.2500082 0.12580237 0.43807968 0.46743187 0.3511049 -0.08842293 0.30476692 -0.45026863 1.4581529 0.91018546 0.3575608 -0.8223178 -0.807086 0.54823196 0.83302367 1.4454695 0.64390236 -0.23808594 0.28937575 0.3388002 -0.30855203 -0.12128089 0.11214198 -0.9855744 1.0100613 -1.5515641 1.2795722 0.55186844 -0.035642993 -0.10578105 0.13055882 0.097443976 -0.3216524 1.2028532 0.16760343 0.83077365 1.7637466 0.75367075 -0.3664604 -0.21998583 -0.08518808 -0.7823221
1355 -1.2898065 -0.5681651 -0.4505536 0.9118459 -0.90251905 -0.33276334 -0.17995398 0.46626604 0.39885625 -0.060936864 0.3284952 -0.09229682 -0.22812912 -0.41876525 -1.5615562 0.056285176 1.9517671 -0.2950449 -0.9006927 0.28799963 1.0773841 0.48341134 -0.111898564 -1.0301774 -0.39345035 1.5720731 0.5418195 -0.20002683 -0.72280633 0.39625487 0.54324365 1.0681695 0.45099035 -0.81856275 -0.70570457 -0.926845 0.107690364 0.44003806 0.52072096 -0.9652245 0.7398052 -0.03540373 -0.8298837 -0.1100513 -0.116332054 -0.5313205 0.8008588 -0.12689647 0.3075146 -0.44059378 -0.09670611 0.75404763 -0.66672903 -0.09826568 -0.15850256 0.17188781 -0.38812214 -0.955075 0.71043277 1.3842537 -0.600718 -0.47651857 0.34515995 -1.1012119
107 -0.23256378 0.7010278 -0.3123123 0.7593748 -0.46478367 -0.46946162 -0.28121167 -0.14898992 -0.40458497 -0.04225723 -0.09269256 0.15717068 -0.10728352 0.48351124 0.45052677 0.63099456 0.030186513 -0.3089814 0.31266052 -0.36805394 0.31763378 0.10657029 -0.37394977 0.62904525 -0.88994414 -0.92646617 0.6039233 -0.32791194 0.32164785 0.9864717 0.05526026 -0.037804026 0.19680215 -0.5491055 -1.0252718 0.46864352 -0.15015036 0.28738403 0.6383688 0.004097129 -0.15613832 -0.7958335 0.6034249 -0.42378026 0.3767993 0.073939286 -0.7938086 -1.1847881 0.08325665 0.47022128 -0.71577936 0.29643434 -0.25914565 0.3129914 -0.12531222 0.29879022 -0.5319412 -0.03750424 0.8938108 0.912959 -0.33724007 -0.5529671 -0.40179008 -0.65018904
457 -1.0399323 0.43143082 -1.1713283 0.11181921 -0.44570634 -1.1586959 -0.40274107 -0.0015496323 -0.24217027 1.1459258 -1.0420809 -1.3019731 -0.13657995 -0.8662868 -2.431883 0.4429954 0.33196005 -0.015698656 -0.11554181 -0.37172484 0.55118424 0.5329751 0.028235795 0.37153837 0.14055353 0.38834754 0.009594616 -0.5162183 -0.9856907 -0.17310579 1.6583863 0.34866926 0.39597785 -0.8156601 -1.0656042 0.5335174 0.48401445 1.1342684 -1.0637311 -1.3569758 0.7727471 -0.76608026 0.13195011 0.33591166 0.14364657 -0.42781505 0.20539866 -1.0548126 0.91517043 0.06843029 -0.6695848 0.73792666 -0.18482009 -0.3021179 0.065617174 0.19928408 -0.2358467 0.7645211 1.3068491 -0.023889573 -0.4465428 -0.6100021 0.6694877 -0.45283666
1469 -1.0347567 -0.32342327 0.28764415 0.8496506 -0.28957036 -0.29149488 -0.4418989 0.12645395 0.5885083 0.9856671 0.08160816 -0.3831346 -0.94269145 -0.83023834 -0.23176035 0.043288 0.39114207 -0.38048294 0.13895479 -0.10082638 -0.96347433 0.39044377 0.005831429 -0.044292096 0.119030245 -0.5001173 -0.086576805 -0.94418776 0.8036872 1.020706 0.6664465 0.123441756 0.5575699 -1.2787212 -1.5399752 -0.14160351 0.24257675 0.64179003 0.6771989 0.24874601 0.81224006 1.6254559 0.21930896 -0.0454656 -0.8506028 0.015165836 -0.82363427 -0.48383245 -0.01434506 1.1200135 0.86672896 -0.060575146 -0.661167 -0.2712337 -0.516862 0.004998591 -0.48329854 0.030647568 -0.22005694 0.64046496 0.44943845 0.38276076 0.8450623 0.105247885
594 -0.48534122 0.8476488 -0.9298026 1.7918864 -1.9690408 -0.5371771 0.6384955 0.7247766 0.5742541 1.4711788 0.6049252 0.49550277 -0.8544983 -0.8720086 -0.8532342 -0.11011922 1.410853 -0.7638805 0.8390692 -0.79503626 -0.30949765 -0.09205255 -0.22358736 0.25983572 -1.25486 0.34768954 -0.3852468 -0.44130448 0.6710794 0.32770064 0.6589354 0.29983053 -0.14934471 -0.26824906 -0.11264321 0.08941285 -0.2537315 0.6867906 0.5424644 -0.13831523 -0.39629877 -0.18653342 -0.27355003 -0.22584586 -1.7866399 0.60076994 0.5773819 -0.5360042 -1.0728083 0.93532306 0.21577068 -0.05492646 -1.0406744 0.37643486 -1.091032 0.94970506 0.67792803 0.5096646 1.3274802 -0.27701074 -0.6998706 -0.12949933 -0.52270764 -0.6216805
1093 -0.40963504 0.21655264 -0.99420846 0.44106492 -1.2948488 -1.308957 0.21620509 -0.073910445 -0.08927743 0.4730127 0.92879623 0.117768995 -0.040905096 -0.63168806 -0.70002466 -0.49031693 -0.025296444 0.41223535 -0.7611103 0.050043054 0.46475765 -0.5710521 0.054594804 0.8921562 -0.3065997 0.5401726 -0.29562593 -0.7071747 -0.3664046 1.1232331 0.4495371 -1.0209047 -1.6632731 -2.3575583 -0.1285756 0.73705536 -0.07288049 0.5550253 1.3084822 -0.73776466 0.06751529 0.2216019 -0.77674603 0.22481208 0.13868931 -0.68912184 -0.25262797 -1.5278339 0.4583681 0.56003445 -1.0708045 -0.93192244 -0.57521653 0.1734013 -0.7077167 0.8497235 -0.16052966 0.28401774 -0.82399917 -0.22152312 -1.2781634 0.82370764 0.7654392 0.56310225
925 -0.30023816 0.5723837 -0.51587313 -0.14823762 -0.4698885 -0.27528048 0.3758647 0.45421585 0.23274045 0.55896133 0.5674439 0.056162372 -0.5222074 -0.7976437 -0.6709367 -0.1469054 0.51983964 -0.06654718 0.14558825 0.21557909 -0.50205064 -0.48697937 0.16640106 0.058969885 -0.748391 1.4447076 0.9475474 -0.06362139 0.0126699265 0.82067287 0.7547725 -0.13233876 -0.8737536 -1.1556214 -0.8516928 -0.6388339 0.023059152 -0.18730168 0.34193495 -0.1522388 0.7285015 1.1026182 -0.48847288 -0.071564935 0.43191537 -0.16904561 -0.3803807 -0.27790642 0.4034565 0.34382862 0.46700436 -1.0260816 -0.25840843 0.0601759 -0.67126423 0.26953983 -0.042495783 -0.18315913 0.038429476 0.6900964 -0.13040122 -0.4124562 0.9411979 -0.256431
689 -0.57560223 0.44070798 -0.98696256 0.27544016 -0.06547706 -0.99584556 0.041602265 0.007032607 0.59134656 0.01890851 0.48315358 -0.5536383 -1.1410301 -0.14514525 -0.28146493 -0.23925623 0.25837597 -0.009468298 -0.24607676 -0.32305303 0.51672405 0.36274952 0.3369833 -0.66623706 -1.4789294 -1.1584023 -0.6180102 -0.38370398 -0.5060309 0.27802432 0.27558106 0.03363054 0.12606128 -0.5243256 -0.17262213 -0.771882 -0.07743742 -0.14985684 0.3972463 -0.3831098 -0.09138333 -0.121141165 0.5796821 -0.14000072 -0.41786477 -0.27439955 -0.4148216 -1.1990917 -0.06809968 0.14744222 -0.39362675 -0.4133773 -0.7370025 0.16357523 -0.0065824613 0.29955047 0.09958082 0.36097255 -0.5164151 0.3071601 -0.49674115 -0.722529 0.834001 0.1599446
