1588 64
1441 0.49362853 -0.25520068 -0.041310605 0.7962438 -0.34306005 0.66132754 -0.30470812 0.25893673 -0.3792663 0.4136765 0.0883232 0.32016462 -0.095533155 -0.50087714 0.4274232 -1.2182087 0.6627782 0.29762504 -0.95620173 -0.24801165 -0.15479937 0.15043813 0.19485584 0.15118061 0.007961634 0.88286304 -0.14733757 -0.43593022 -0.62877196 0.44652116 -0.45419532 0.8218413 0.54247284 -0.04534394 -0.24384272 0.00305937 0.09197186 0.46532738 0.35575074 0.4631255 0.50196785 -0.06344328 -0.013274729 0.28907022 -0.18604568 -0.29564857 -0.29884693 0.43871346 0.23183025 -0.32016632 -0.1146372 0.03771673 0.1816617 0.717595 -0.02428596 -0.30479002 0.5869255 -0.20141728 0.41161495 0.62936264 0.16727924 -0.34367543 0.1980001 -0.038995236
123 0.07701666 -0.4548999 0.33450925 0.92726034 -0.44875532 -0.36035934 1.105825 0.28414965 -0.39432302 0.026188422 0.7752986 -0.41612214 0.32089558 -0.62801874 -0.26726687 -0.7379133 -0.38932225 0.21829627 -0.3073654 -0.16611688 -0.09983666 0.07116292 -0.50592786 -0.6055048 -0.7734131 -0.39168 -0.24043077 -0.49707606 0.3361438 -0.7049577 -0.017662007 -0.089889005 0.30941254 0.13168108 0.97953576 0.72435945 -0.6800549 -0.45379058 0.9599218 -0.20517528 -0.35895646 -1.0707163 1.1337382 0.09715227 0.07178964 0.49206358 -0.75089675 0.7227953 0.30415532 0.22158085 0.39546245 0.5581148 -0.35386935 0.19448851 -0.59371865 -0.20333445 -0.36929756 -0.09887562 0.5850702 0.57995933 0.044934623 -0.691651 -0.30795094 -0.62310123
95 0.12884365 -1.1071872 0.3658229 0.35442078 -0.101262294 -0.38615435 1.2166371 -0.1889535 0.068559274 0.088715345 1.1808146 -0.44278604 0.4713008 -0.43618324 -0.26580882 -0.64021677 -0.13038756 -0.006119074 -0.5641442 -0.22053301 0.46403095 -0.21594194 0.32527524 -0.05823887 -0.99779147 -0.5608028 -0.48097125 -0.46629024 0.602814 -0.42569396 -0.5972204 0.4272317 0.09837282 0.253177 0.66352695 -0.0891906 -0.23529024 0.3934574 0.4413472 0.052799474 -0.7892037 0.004059973 1.267739 -0.23233485 -0.3444975 0.52689135 -0.26548013 0.38121393 0.541031 -0.05367193 0.14700851 0.3284238 -0.2672797 0.30946353 -0.15249038 -0.376616 -0.24805257 -0.015687607 1.5084671 0.21021305 -0.43884304 -0.79084384 -0.83247143 -0.051945884
1432 0.45389313 -0.2319429 -0.28492814 0.4166999 -0.39007032 1.5564073 -0.24748833 -0.18803392 -1.0041482 0.398575 0.09173917 0.6456074 -0.4451883 -0.8738751 0.0934482 -0.8311924 1.2372229 0.3378425 -1.0949126 -0.37898225 -0.26626033 0.18479045 0.18643361 0.49575177 0.034942575 0.42329243 -0.101315565 -0.3821818 -0.31411776 0.44960612 -0.34544545 0.677773 0.84071726 0.0064260736 -0.11415984 -0.38710648 -0.28894174 -0.123310156 0.28393817 -0.328715 0.713861 -0.17178272 0.0127044 -0.4130839 -0.22893663 -0.45452613 0.2767914 0.5747022 -0.12177814 -0.2002265 0.2008534 0.19679135 -0.06636377 1.2563518 0.55789536 -0.18327339 0.5081153 -0.331355 0.21437442 0.83282465 0.045358226 0.08919743 0.6143325 0.5591382
1242 0.7192093 -0.33075643 0.24829721 0.55769557 -0.0049667056 -0.1348731 0.5728601 0.23403503 -0.6007004 0.119398154 0.081432216 -0.22516692 -0.40309787 -0.080575526 0.54215795 -0.31662953 0.1378533 0.3385333 -0.20384416 0.48206967 0.19382961 -0.572462 0.29829895 -0.29719734 0.13752791 0.021798199 -0.51696086 0.50142264 -0.5477939 0.16106936 0.20306501 -0.0064056455 -0.14033662 -0.5174874 0.1868145 -0.47196555 -0.6338746 0.2336382 0.091599904 0.32634974 0.5414807 -0.09562249 0.48748747 -0.11038817 0.22265661 -0.075491525 0.2516802 1.2164774 0.40641183 0.72943467 -0.042851865 -0.27935168 0.90758973 0.8221148 0.07243265 -0.6807596 -0.05923013 -0.012176537 0.5810324 -0.026458135 -0.05827619 -0.49924645 0.032226674 -0.06736527
1245 0.5519245 -0.31538635 0.0052556787 0.34676602 0.021605806 -0.08436489 0.46593404 0.29083937 -0.59238183 0.22162114 0.10390081 -0.21421903 -0.36777723 -0.19359107 0.48249805 -0.44108194 0.14531702 0.23650733 -0.47516045 0.4703461 0.1095806 -0.5728059 0.33008078 -0.45871514 0.26078913 -0.05541793 -0.56346977 0.6588596 -0.6314215 0.18720582 0.2655111 0.0963559 -0.29041132 -0.38782954 0.38679507 -0.4565678 -0.6336504 0.17345095 0.26139218 0.19864169 0.4982512 -0.26536217 0.45100307 -0.10411247 0.20607357 -0.22057576 0.24955782 1.0663803 0.41576964 0.6972432 -0.013662171 -0.2875639 0.91548526 0.7894985 -0.01284789 -0.7028026 -0.10972948 -0.12002805 0.7213296 -0.17597641 0.016659467 -0.23458175 0.088075 0.059299994
1141 0.2050001 -0.6412724 0.1084174 0.033633504 0.01709504 -0.2601107 0.17213647 0.30954555 -0.8235629 0.53430665 0.4466752 -0.07282733 0.25262618 0.8260773 0.47703806 -0.3836501 -0.06355277 -0.06931642 -0.72936416 0.4270993 0.09970785 -0.44483113 -0.24250267 -0.10142914 -0.51224506 -0.42037028 -0.40596944 -0.90941584 -0.7214116 -0.11570666 0.4349398 1.0221621 0.9730329 -0.3334566 0.61531836 -0.5372194 -0.22393106 0.0877364 0.14073226 0.59219205 0.65699524 -0.16332422 -0.32132 0.26559535 -0.022232689 -0.08589652 -0.28776735 1.1792953 0.40595865 -0.16057493 1.0386583 0.32685673 0.32774872 0.87250006 0.21878366 0.4184538 -0.36753583 -0.38142988 0.23622462 -0.2131736 -0.054682307 -0.08120435 -0.16381761 0.3077478
428 0.15714239 -0.655512 -0.1560464 0.64981335 -0.592072 -0.13280365 0.40375784 0.82826984 -0.5048535 -0.13411848 0.28332195 -0.72871256 0.17787036 -0.50948364 0.027892807 0.0454767 0.0085809035 0.11970806 -0.502653 -0.026848098 0.7372455 0.13877225 0.5243567 0.40706614 -0.24537997 0.2859295 -0.05822085 0.023626406 0.17707679 0.60110956 0.27124962 0.29700366 0.24586801 -0.98587644 -0.30380154 0.17509353 -0.30476344 1.0129755 0.61402065 -0.33277768 1.2851818 -0.29256794 0.93705696 -0.07994852 -0.6103334 -0.70441186 0.0540823 0.18962173 0.63071626 0.39731303 0.1136968 0.6873506 -0.3070157 0.5233414 -0.21679582 0.4749174 0.26466942 0.5091387 0.30986494 0.3461608 -0.027582476 -0.51830614 0.33884186 0.4594516
126 -0.28715712 -0.41131714 -0.031827755 0.7289118 0.65809387 0.0370843 0.30727127 -0.3501993 -0.65583575 0.13355522 0.73345166 -0.63468724 0.51913637 -0.14975204 0.14983521 -0.21441592 0.17607857 -0.28516695 -0.58884376 -0.06068035 0.38262635 0.06395893 0.067083806 0.09204459 -0.29950312 -0.54464877 -0.031632982 0.32055035 0.057734404 0.19423914 -0.14307612 0.38309452 -0.116596706 0.15117392 0.22569823 0.6358849 -0.65549064 0.4081719 0.39435574 0.049230542 -0.48291305 -0.7468087 0.79077774 -0.015352479 0.03646169 0.1544526 -0.41510868 0.4202824 0.36225235 -0.25263587 0.5642425 0.9238048 0.3841285 0.6034884 0.17510265 -0.21300073 -0.09855224 -0.09182225 0.40456378 0.2924202 0.40619835 -0.4775746 -0.286571 -0.16192126
429 0.31211475 -0.7947633 -0.14893496 0.7679959 -0.6209715 -0.24801183 0.2744901 0.8587698 -0.45985112 -0.14756353 0.17696989 -0.7278076 0.3199448 -0.52133614 0.076264314 -0.1715485 -0.007846673 0.054809302 -0.6200945 -0.050585724 0.8398133 0.12033643 0.3525187 0.4126934 -0.26629665 0.2115953 -0.041133262 0.03911518 0.09752075 0.5069275 0.34225464 0.15973978 0.11263452 -0.94211364 -0.35983986 0.27079332 -0.38414028 0.96223843 0.63906074 -0.32518834 1.2979262 -0.17374223 0.92103726 -0.012009888 -0.69191337 -0.7803765 0.0075948145 0.20681016 0.4529636 0.43181425 0.10440504 0.8064474 -0.21859555 0.4326489 -0.06270564 0.4401096 0.06788819 0.44647017 0.2803099 0.35875672 -0.15605092 -0.41069052 0.33122894 0.47113144
1442 0.60773873 -0.28715158 0.042481236 0.69501495 -0.34106654 0.6840188 -0.29818574 0.17205971 -0.29456523 0.30498868 0.15526326 0.3354415 -0.16465928 -0.66843724 0.39517167 -1.1262656 0.5513467 0.46417934 -0.90015525 -0.36742738 -0.026034378 0.18738586 0.09075253 0.003713245 -0.20405877 0.747025 -0.35109532 -0.31940344 -0.5532227 0.33908236 -0.65343016 0.632774 0.79556924 -0.121621005 -0.22612485 -0.09857512 0.20631164 0.37465677 0.115328595 0.27236477 0.7486315 -0.02648457 0.12823862 0.25304183 -0.3842877 0.06407143 -0.33293423 0.49286342 0.29435876 -0.032330897 0.16889998 0.24688426 0.0906432 0.7299898 -0.0965228 -0.24505724 0.6678347 -0.25149277 0.18673675 0.585579 0.37004787 -0.29582182 -0.063121505 -0.08272182
1437 0.73687977 -0.6322671 0.187732 0.5927341 -0.095417574 0.86242145 -0.25510392 0.15892798 -0.107131414 0.32021603 0.4643109 0.15360954 -0.1100345 -0.59111595 -0.016418379 -0.8322107 0.48907977 -0.02409744 -0.8939001 -0.33321896 0.027104901 -0.2926213 -0.055475682 0.22840494 -0.030232579 0.81641585 -0.22646514 -0.5171459 -0.75367546 -0.026978184 -0.9492801 0.6088025 0.93454975 -0.41008386 0.38860717 -0.1446738 0.19097535 0.37042198 0.062338814 0.81405425 0.8008094 -0.0028506983 0.16766997 0.40151438 -0.39580578 -0.57078534 -0.026821963 -0.2682981 0.19929224 0.23762296 0.21011993 0.11966405 0.12969862 0.64772636 -0.1934211 -0.6702044 0.44995165 -0.2998651 0.2226476 0.67871296 0.06537247 -0.56898695 0.32781008 -0.28762913
1434 0.58055806 -0.13290967 -0.08334153 0.83968455 -0.4759211 0.7131154 -0.052942067 0.31875888 -0.55220956 0.43691766 -0.24597768 0.23097706 -0.117708676 -0.33263916 0.3803792 -0.96053964 0.65494496 0.38083425 -0.8250971 -0.29848924 -0.08000395 0.1509213 0.10657895 -0.08001289 -0.26376435 0.72389156 -0.14824727 -0.30467588 -0.6497029 0.28473815 -0.77768666 0.74868125 0.6012948 0.018216262 -0.15676217 -0.2818897 0.028238166 0.35111773 0.4059388 0.35211423 0.5642405 -0.15701313 -0.06834505 0.16869554 -0.61641794 -0.18659705 -0.51260346 0.06475887 0.21419229 0.040119268 -0.12073916 -0.09321391 0.1777796 0.6829502 0.107377596 -0.2258774 0.5962478 -0.49948254 0.595924 0.55205745 0.2234465 -0.18895146 0.07196448 0.28769752
131 0.25893858 -0.43811315 -0.20342803 0.6247584 0.28702804 -0.34107456 0.45839727 -0.54767466 -0.5846546 0.58167803 0.74571 -0.22837362 0.5237084 -0.4156245 0.29039264 -0.050281674 0.07674675 -0.19680454 -0.567876 -0.29866272 0.1005862 0.14058843 0.28231978 -0.04871711 -0.52050126 -0.5294692 -0.049471375 0.3565867 -0.02930351 0.048202407 -0.10146537 0.569917 0.05737464 -0.27598113 -0.0665904 0.39051804 -0.6112678 0.29653013 0.618901 0.19783281 -0.53965205 -0.8749889 1.100523 0.46043575 0.6170107 0.19794807 -0.6042818 0.0010860111 0.3028902 -0.25566235 0.55924106 0.7349206 0.57479984 0.35080656 0.11461795 0.19399221 0.006290822 0.09806983 0.7236711 0.3325198 0.34498245 -0.31801653 -0.20448259 -0.21987897
1440 0.5809506 -0.0668717 0.008850002 0.92070085 -0.3543762 0.53463995 -0.276972 0.33232492 -0.4492073 0.33981207 -0.18031183 0.17060347 -0.27160236 -0.6132017 0.078277364 -1.1621892 0.7007132 0.28590563 -0.93940884 -0.2567901 -0.085008286 0.28152743 0.007199237 -0.10687615 -0.0412718 0.63107085 -0.45341647 -0.41318238 -0.63851565 0.28341004 -0.8095198 0.7842187 0.52887124 -0.080396 -0.21670805 0.06963904 0.17704849 0.24189036 0.53069246 0.41272426 0.75260895 -0.022683742 0.070456594 0.2709106 -0.33391976 -0.0481751 -0.37873986 0.4796938 0.33485597 -0.08093976 0.08636397 0.051936116 0.034871284 0.70785016 0.1353378 -0.28854817 0.6335867 -0.22294083 0.19803236 0.6309448 0.15521212 -0.33127964 -0.069379374 0.12229442
1490 1.1273588 -0.73408544 0.9018159 0.49601045 -0.42229825 0.5947934 -0.270291 0.38649178 -0.6387753 0.116104096 0.07787373 -0.07623371 -0.4432864 -1.2664696 0.5486656 -0.4308041 -0.015736787 -0.18733634 -0.50014156 0.8424293 -0.41016644 -0.33288422 -0.4712127 -0.28416166 -0.31854936 0.84628826 -0.22400767 -0.7028779 -0.6788794 0.6983918 -0.023275701 0.6392744 0.9523085 0.5667497 -0.18677168 0.14161827 -0.2510812 1.3256791 -0.3761332 0.6932319 0.9867275 -0.2111701 0.30325732 0.2235871 0.28037104 0.078872964 0.33357555 -0.38417313 0.08544969 0.33175045 1.419265 0.4358044 -0.9175428 0.057252016 -0.86247236 -0.6320991 -0.58112824 0.055879045 0.61966497 0.43525076 0.17841338 -0.3669724 -0.5126198 0.7776233
1229 0.64095014 -0.3330971 0.093779124 0.6117666 -0.19979818 -0.09930649 0.29707822 0.14536235 -0.6283107 0.092779525 0.216065 -0.31846064 -0.3208262 -0.12093586 0.45729375 -0.3079425 0.34412462 0.2559324 -0.33035693 0.36062777 -0.022024788 -0.62292063 0.37143093 -0.27049062 0.026187807 -0.034838196 -0.3412978 0.62008166 -0.69788426 0.09395101 0.25107348 0.08183537 -0.12831488 -0.45415273 0.2905285 -0.5452622 -0.6719128 0.036945894 0.04482781 0.38866526 0.7280215 -0.36881042 0.5602681 -0.18948925 0.060975466 -0.13639402 0.31940812 1.1282996 0.4104942 0.9180855 0.00026751842 -0.39332294 0.81650895 0.54975355 0.116819635 -0.7529483 -0.2202268 0.06454609 0.80870175 -0.010371524 0.1820243 -0.25425392 0.072119415 -0.039380327
439 0.08066051 -0.68694335 -0.09573736 0.65213245 -0.6818151 -0.22093774 0.27359697 0.7745274 -0.45181856 -0.13524388 0.3494879 -0.5975113 0.24249412 -0.47226724 0.0068056514 -0.119590364 0.06261112 0.2551149 -0.38563815 -0.07643637 0.7969686 0.12051748 0.42781913 0.42135203 -0.1246249 0.21779865 -0.058408573 0.1542757 0.029000843 0.54377407 0.34740478 0.23750226 0.21451434 -0.9671494 -0.27591386 0.1396516 -0.49840212 0.9404981 0.7207484 -0.34527516 1.2417858 -0.3423589 0.81609 -0.093477465 -0.7656619 -0.75936764 0.051807627 0.16402343 0.49648425 0.4511037 0.21469627 0.7368894 -0.22361046 0.47766176 -0.25028157 0.5403894 0.09760569 0.57790834 0.38424748 0.3773559 0.016449105 -0.62152183 0.2503805 0.5849304
704 0.31143782 -0.5312184 -0.059299376 0.905096 0.42698747 0.16083854 0.5721439 -0.23926206 -0.6629006 0.07602002 0.53574467 -0.45649558 0.14860797 0.17888168 0.36648884 0.21188642 0.5832983 -0.47016832 -0.7400197 -0.02383129 0.6313629 0.15617266 -0.35615727 0.22286344 -0.4051886 -0.48085088 0.27454528 0.73696584 0.09523568 0.27056816 -0.2629849 0.48481318 -0.012381329 -0.395118 0.31196654 0.5125436 -0.5684791 0.29631373 0.41422158 0.0821958 -0.75558335 -0.80082345 0.99952596 0.14698294 -0.16706689 0.34660244 -0.7862245 0.48653206 0.67994183 -0.10606158 0.71018213 0.8562355 0.09905928 0.7073246 -0.050723795 -0.12523271 -0.42942223 -0.31086615 0.39600667 0.093448736 0.14950493 -0.43337542 -0.40939382 -0.25500864
1246 0.671934 -0.20697522 0.21182898 0.43695125 0.0318223 -0.15784396 0.429706 0.28845343 -0.6881134 0.33321822 0.16386099 -0.23705627 -0.32296866 -0.18445942 0.44046938 -0.106318995 -0.021746712 0.31890053 -0.4104658 0.6605797 0.03620389 -0.46096388 0.2674742 -0.31840977 -0.014679692 -0.060720347 -0.48713568 0.4663677 -0.5963707 0.2830721 0.28906432 -0.056443933 -0.23139216 -0.52178794 0.307217 -0.2646592 -0.62159604 0.14389189 0.20994532 0.50625265 0.76420194 -0.21517622 0.55209965 -0.11180484 -0.006893212 -0.1231277 0.3384223 1.1388547 0.47698772 0.7718393 -0.19233914 -0.27958402 0.9151381 0.68662393 0.08089099 -0.68345356 0.05547319 -0.18687233 0.6357984 0.029136574 -0.09462185 -0.08981044 0.051387597 0.11040631
130 0.19314036 -0.6216416 0.0054252376 0.8159968 0.3519676 -0.0041717286 0.17836055 -0.38977328 -0.59251595 -0.052810725 0.26573712 -0.49694917 0.57435375 -0.15187491 0.08992612 -0.06064701 0.055794418 -0.14320745 -0.8282261 -0.014452671 0.090433136 0.16809215 0.29627433 0.09628446 -0.40791208 -0.58154577 0.18840197 0.31426895 0.020583382 0.1359668 -0.3897304 0.30120322 0.20830874 -0.07926485 0.35532975 0.44869947 -0.7620349 0.45125908 0.44977027 0.32487315 -0.5016223 -0.79660714 1.0186833 0.082555905 0.46120435 0.37339592 -0.5072211 0.054150704 0.27758673 0.0200669 0.6877192 0.63346714 0.697272 0.28884053 0.21286522 0.29073092 0.036482025 -0.027385846 0.5158184 0.46042937 0.3376275 -0.6014653 -0.2881908 -0.1233262
766 1.5993284 -0.31565896 -0.25641987 0.69520956 0.7820026 0.57553333 0.25305855 -1.0365129 -0.7743491 0.75611997 -0.30393168 0.35838804 0.7238679 -0.7110964 -0.1995568 -0.9044386 0.258635 0.67730963 -0.27168632 0.8155751 0.8940574 1.0959693 0.7099394 -0.33958545 0.17170005 0.43177804 -0.02464861 0.8858843 -0.024948604 -0.23664013 0.2003291 1.5059676 0.24129368 -1.0280286 0.7135754 -0.78152883 -0.7662986 0.48360062 0.2501362 0.14314388 0.9017462 -1.3471454 1.1735836 -0.19494154 -0.21518943 0.23049232 0.5792789 0.06850432 0.25698337 0.3837663 0.3835004 1.1046755 -0.020659955 1.2702978 -0.32942238 -1.3615865 -0.08308234 -0.3059108 1.2504666 0.81255543 0.38366833 -1.269526 0.19712448 -0.63305354
767 1.5354781 -0.42250037 0.030254211 0.6428459 0.7251482 0.5324397 0.2616879 -1.1945577 -0.87777674 0.8056139 -0.35348487 0.25100344 0.6883884 -0.69938505 -0.24747661 -0.9100516 0.28274718 0.8146851 -0.33668813 0.9569242 0.8167518 0.9333818 0.7921844 -0.36249256 0.14543131 0.51777816 0.08232535 0.86974514 -0.030409526 -0.23529744 0.23209202 1.376394 0.17298691 -1.0078635 0.79393727 -0.711051 -0.6483373 0.44776532 0.25811636 0.12801114 0.6838523 -1.4377675 1.0613778 -0.09827652 -0.18515989 0.06395947 0.60910785 0.042654894 0.27369866 0.2874622 0.32046878 1.0618323 -0.038367692 1.2082496 -0.29086947 -1.2068337 -0.046505045 -0.5341961 1.3518944 0.8305007 0.21944891 -1.4352021 0.21057165 -0.5898637
1428 0.5822813 -0.2474162 0.19345179 0.66925883 -0.11419145 0.8229072 -0.38251048 0.44441333 -0.34147188 0.55925417 0.22142445 -0.10798431 0.16812441 -0.65945566 0.22354023 -0.9567048 0.3811925 0.057014037 -0.97621655 -0.29933476 -0.218811 -0.130073 -0.0287307 0.26857075 -0.17705841 0.8487859 -0.60301274 -0.2667187 -0.72751886 0.19858477 -0.65814304 0.59534967 0.7855351 -0.01477104 0.10601516 -0.3570214 0.13463768 0.34290037 0.025769675 0.12774193 0.7600674 0.22364524 0.23796485 0.39092842 -0.4390122 0.029931553 0.0659844 0.17776509 0.00766022 -0.012204591 0.030450718 0.03371916 0.068220645 0.8396511 -0.25521967 -0.30081674 0.4665249 -0.34529313 0.20890254 1.0348665 0.2789892 -0.15967691 0.00076844933 -0.36655635
94 -0.3399484 -0.5842782 -0.05637367 0.7215973 0.30111435 0.079902105 0.21391787 -0.49636555 -0.5633146 0.2837699 0.3430983 -0.27505645 0.3487009 -0.22045322 0.027197422 0.124878384 0.16177975 -0.26799893 -0.4120823 0.018519178 0.03885611 0.1706328 0.20954388 0.32659855 -0.16181988 -0.5744645 -0.0032911631 0.080002636 0.0875127 0.2538643 -0.48171058 0.2823421 0.013598094 -0.3026591 0.7089713 0.36011845 -0.5779522 0.5014178 0.44162196 0.20078292 -0.7165146 -0.94797057 0.8346907 0.07372222 -0.03438693 0.11867725 -0.3119914 0.32816187 0.8312324 0.11273597 0.795299 0.69117236 0.670451 0.45484567 0.01306451 0.116131745 0.11879036 -0.04764011 0.70844346 0.59262764 0.4834437 -0.22316705 -0.32272518 -0.14624849
1250 0.33182743 -0.32341105 0.2269323 0.5640514 -0.042404 -0.022032427 0.337324 0.2896773 -0.7335639 0.20923206 -0.055772632 -0.2586846 -0.30737653 -0.022421824 0.46417257 -0.19831783 0.05056765 0.24648862 -0.2842087 0.33529532 0.13846639 -0.44859368 0.4253115 -0.33683977 0.08893008 -0.08949534 -0.5269179 0.68290603 -0.6432176 0.058380045 0.22390173 -0.0267226 -0.21647677 -0.8235654 0.09247855 -0.5366626 -0.59709305 -0.09129786 0.2999216 0.12632956 0.63597953 -0.27174473 0.52037907 -0.23692943 0.0013219991 0.014303948 0.26989752 1.0581553 0.5300466 0.5572869 -0.119464 -0.23887496 0.74318016 0.91355944 0.11092925 -0.961395 -0.0005488635 0.031260468 0.6306878 0.03530277 -0.067795396 -0.22791107 0.020535775 0.024967061
698 -0.79324824 -1.2235312 1.0485737 0.50909346 -1.193767 -0.36245468 1.192526 -0.1739611 -1.1317791 2.016377 0.83067864 -1.1897475 0.54717785 -0.26392812 1.4106221 -0.5952393 -0.018594068 -0.73302287 -0.41262618 0.12607579 1.0029737 -0.23992434 0.38336867 -0.3926651 -0.15925702 0.00027578237 1.0457973 -0.816083 0.102237575 -0.56903625 -0.4546171 -0.5454457 1.0721711 -0.20701158 0.64023316 0.8853923 -0.6278145 0.9327871 0.5752975 0.28432065 -0.2080498 -0.47026533 0.2635952 0.45375982 -0.22498657 1.1490287 -0.43080348 0.08357406 -0.54106575 0.15039586 0.008286893 -1.3773166 -0.36636806 1.6789464 -0.7173048 -0.4496319 -1.2639719 0.248177 0.5351612 -0.50708586 0.57303786 -0.7672466 -0.4312216 0.5886211
712 -0.027456468 -0.8412582 0.095118605 0.63990045 0.0387236 0.014817091 0.43639585 -0.3933152 -0.38044047 0.26859453 0.45504034 -0.28437865 0.604879 -0.4067599 -0.07859229 0.14440547 0.08628057 -0.82689375 -0.06217595 0.7620773 0.7359047 0.25598478 -0.13253683 -0.4623158 -0.046212744 -0.51987284 0.39317608 -0.050777256 -0.032439362 -0.1119175 0.2151882 0.3936412 0.09310474 0.24505478 0.37536415 0.1853187 0.09271093 0.37924525 0.2611061 0.046193358 -0.1414284 -0.35532892 1.0566148 -0.24715656 0.15134065 -0.04912484 -0.47380474 0.48562306 -0.11427122 0.42067656 0.6482297 1.1038849 0.038615093 1.2162721 0.35752296 0.08270319 0.42992795 -0.35987273 0.69040906 0.28966004 0.6509163 -0.51249176 -0.09785934 -0.2967543
426 0.104209885 -0.6955314 -0.23357166 0.660986 -0.76134515 -0.13697591 0.27513173 0.9162489 -0.40185165 -0.12567033 0.10421339 -0.7340123 0.3058478 -0.56396544 0.19164331 -0.236618 0.11448736 0.09420288 -0.45519412 -0.19534978 0.81313527 -0.0232599 0.48508996 0.3475995 -0.23270734 0.23806277 0.005268616 0.13349128 0.09968933 0.47219428 0.43087888 0.35366887 0.19299132 -0.87251437 -0.32762417 0.13767602 -0.38663718 0.9505384 0.70284575 -0.35963884 1.2609931 -0.3020916 1.0036075 -0.19655982 -0.6197736 -0.5859564 -0.04994112 0.04218749 0.57041395 0.45073083 0.32230142 0.6338522 -0.27361786 0.43835074 -0.13089146 0.4228683 0.26568815 0.5181565 0.38862252 0.3453082 -0.12460627 -0.41339332 0.30274394 0.44060022
1228 0.72363204 0.20612 -0.099016614 0.49130642 0.007085944 -0.36046767 0.76279825 0.32464972 -1.0890323 0.24107343 -0.3427852 -0.16814578 -0.7214439 0.31067118 0.5316681 -0.36846423 0.27808183 0.95638496 -0.5276246 0.72055775 -0.43909138 -0.14967424 0.24889974 -0.15321817 0.27143952 -0.09537812 -0.63605076 0.5564394 -0.6418665 0.10817618 0.24284418 -0.023002176 -0.2522651 -0.59168935 0.5042927 -0.20817952 -0.5416219 0.12434553 -0.044172063 0.83692676 0.8617337 -0.51595217 0.56488585 -0.5680553 0.11304486 -0.15006727 0.57934433 1.054348 0.5532992 0.32104698 -0.34188333 -0.034616318 0.89013076 1.2383347 0.0019580543 -1.0176705 -0.17481938 0.29959565 0.95822674 -0.27967617 -0.21822819 -0.03338172 -0.18629879 -0.017927725
437 0.08504927 -0.6952821 -0.14059299 0.69437927 -0.7534354 -0.12051669 0.25197732 0.8857804 -0.35741755 -0.1395311 0.13474041 -0.7336598 0.2796456 -0.45119303 0.19148417 -0.12541379 0.03819738 0.06828496 -0.5171469 -0.09380837 0.818867 0.00930639 0.3999404 0.370432 -0.23444161 0.27025488 -0.0034522736 0.15515818 0.047073673 0.41775703 0.45956594 0.30373782 0.19244534 -0.9423472 -0.3273993 0.16928922 -0.3575179 0.9271088 0.65562093 -0.30224067 1.2805079 -0.3351509 1.0431644 -0.13476557 -0.6235995 -0.61706156 0.018876655 0.091728896 0.5710387 0.41641662 0.2608749 0.6897356 -0.2523415 0.49038365 -0.14202937 0.454107 0.17476177 0.44488016 0.4021094 0.40312198 -0.14914905 -0.35334298 0.28939325 0.4565954
127 -0.08579286 -0.7346214 -0.12070819 0.91263145 0.6539554 -0.28647736 0.40764773 0.10465294 -0.6949062 0.28335693 0.77780426 -0.23299968 0.28296596 -0.13713276 -0.26932484 0.26596048 0.26973724 -0.57484907 -0.6499143 -0.15170184 0.06329745 -0.003094112 -0.11820978 0.03947511 -0.47957924 -0.12683031 0.09428614 0.31432366 0.0141261965 -0.002836752 -0.42707264 0.310037 -0.093716785 0.0014260875 0.5721977 0.5050339 -0.6374756 0.25969863 0.3431273 0.4570506 -0.4668168 -0.8227546 0.8078051 0.189124 0.08888737 0.11671383 -0.35881704 -0.005595355 0.24451333 0.020652024 0.40430805 0.97803485 0.63421565 0.5843875 0.15957575 -0.017579373 -0.123101495 0.107049994 0.62814564 0.36994925 0.16709012 -0.34038532 -0.0630476 -0.15279338
817 0.722174 -0.97576797 -0.47055706 0.67192066 -0.12480314 0.7553359 1.0678335 -0.97808534 0.6019524 1.0745655 -0.07488243 0.3712917 1.1054311 -0.055056073 -0.23413585 0.27122828 0.1527586 0.2688724 -0.7948189 0.11040029 0.24670716 -0.7626217 -0.60982543 0.28112423 -0.15851597 1.6774046 -0.6357915 -0.7336402 -0.7501236 1.0935566 -0.60186946 0.6423076 0.45239 -0.344258 1.2425874 0.61242336 -0.34159723 0.9929565 -0.039595973 -0.3707375 1.0441343 -0.5243258 -0.16137986 0.53834647 -0.120133504 0.42324367 0.6885066 0.3451207 0.8642852 0.2897914 0.5984488 0.16127533 0.7401515 0.5681308 0.19385096 -0.17511053 0.19289243 -0.1444016 -0.684473 0.27378017 0.49086666 -1.0209059 0.0038593486 0.30927038
1555 -0.015094076 -0.7645831 -0.7199067 0.29751775 1.2128961 -0.45163777 -0.066867985 0.16884243 -0.8427902 0.24619827 -0.6934344 -0.31376278 0.3059668 -0.13011599 1.0041527 -1.0098312 0.893567 0.58434033 -1.4851061 0.2208173 -0.60204655 -0.07918446 -0.9181827 0.25527754 -0.90955436 -0.57175934 -1.0892632 -0.7679719 -0.22413199 0.55268574 0.4672068 0.8726961 -0.48410678 -2.0227036 0.4486787 0.09108747 -0.950381 0.8807111 0.4719057 0.58912647 0.44204855 -0.3766944 0.21757844 -0.1349781 -0.83508414 0.82403296 -0.2745003 0.49282965 0.16273107 0.5090853 0.53189784 0.2602374 0.47057846 0.9771462 -0.7424415 -0.019317027 0.04062772 0.37658262 0.73058087 0.56803733 0.4345471 -0.6310547 0.8294126 0.7843632
1556 0.0017847494 -0.74025416 -0.7641215 0.41386852 1.0652047 -0.4965121 0.08013544 0.24918996 -0.81769407 0.11593199 -0.6514931 -0.37125036 0.28634703 -0.18897727 1.0076729 -0.92548305 0.8412788 0.7467559 -1.4545131 0.08988366 -0.41937873 -0.035017025 -0.7709802 0.37905142 -0.850394 -0.44783407 -1.114105 -0.80809027 -0.13102096 0.6906745 0.36976224 0.65093607 -0.5114119 -2.1066804 0.29265836 0.26048192 -1.0215325 0.8528157 0.6164772 0.45569143 0.5815546 -0.29738703 0.44805354 -0.33257392 -0.93655646 0.741654 -0.30284798 0.39004517 0.10215384 0.6208863 0.38230607 0.34173048 0.49718517 0.9190223 -0.68902785 0.05302103 0.16323619 0.3101312 0.6576848 0.61566687 0.5030485 -0.66114855 0.9572896 0.810153
1241 0.49715474 -0.42948055 0.18015514 0.5295837 -0.06582905 -0.24168587 0.3202819 0.20754077 -0.6878486 0.16866527 0.19405472 -0.05557919 -0.38642886 -0.07234296 0.43501732 -0.32125267 0.090921804 0.16185124 -0.23660307 0.40512297 0.17240123 -0.5160054 0.24263504 -0.106629215 0.1963145 -0.070862554 -0.5032115 0.60143226 -0.68527454 0.296262 0.13821061 0.16197595 -0.26936567 -0.77020335 0.32801157 -0.46645465 -0.59529024 0.14238296 0.22203681 0.24119215 0.6659551 -0.40230656 0.44120055 -0.18674375 0.0933679 0.07495128 0.33511007 1.0731691 0.5168803 0.618956 -0.050072964 -0.46506527 0.84544605 0.7141064 0.16709532 -0.7938722 -0.06684929 0.042486656 0.6586717 -0.0172103 -0.008328366 -0.24846199 -0.08648378 0.021518309
1149 0.28115815 -0.5882705 0.028438507 -0.0033710941 -0.10214108 -0.31998938 0.21264346 0.30646834 -0.80082065 0.6282521 0.41387847 -0.08966271 0.25824547 0.8427062 0.46503663 -0.06101751 -0.0016254786 -0.040083483 -0.7421152 0.25073108 0.007995503 -0.33773875 -0.1783833 -0.23879407 -0.51537645 -0.4481616 -0.3974504 -0.6926702 -0.83674014 -0.15181509 0.41977176 1.060895 1.0365486 -0.21200545 0.6694515 -0.6224249 -0.38086042 0.1366478 0.24537179 0.60419464 0.68431634 -0.16689993 -0.29939002 0.27215514 -0.010458671 -0.07115049 -0.20457093 1.1533942 0.41725346 -0.42284447 0.9552527 0.3282285 0.15114798 0.946328 0.2533867 0.18767343 -0.3566987 -0.25006285 0.20726027 -0.24537125 -0.038775712 -0.20066454 -0.17826878 0.3734386
1230 0.4248708 -0.28693753 0.11050585 0.59988517 0.016620398 0.0018121159 0.25135273 0.36977315 -0.7542645 -0.112573594 -0.14566723 -0.14933436 -0.29530922 -0.11912612 0.5522363 -0.25826493 -0.07001241 0.49870312 -0.27667582 0.4539931 0.35788643 -0.73899627 0.27399662 -0.4345863 0.27195895 -0.4044431 -0.57248896 0.44867104 -0.6310161 0.26688603 0.11159383 0.044956487 -0.34508196 -0.51192796 0.31059733 -0.3647506 -0.7711481 0.2610993 0.32534435 0.5231485 0.5971191 -0.1522227 0.3483462 -0.27748138 -0.0036128766 0.12223324 0.17096494 1.1107085 0.33652198 0.5617014 -0.2685674 -0.17756149 0.79498947 0.921506 0.07828226 -0.62763697 -0.050158467 -0.16877814 0.8802545 0.044705607 -0.008126074 -0.19868672 0.0291797 0.10997431
1234 0.45903492 -0.38816074 0.23132879 0.3295388 -0.29618782 0.015042884 0.47126052 0.30006546 -0.7963022 0.07187997 0.03578652 -0.29862478 -0.33211404 -0.1349241 0.40145138 -0.34609777 -0.016280115 0.2407257 -0.39942226 0.7728509 0.17934228 -0.48490644 0.26499692 -0.27799913 0.22051403 -0.15825425 -0.6230385 0.5319386 -0.70448315 0.16809006 0.22125956 0.22707197 -0.3235107 -0.4754709 0.3844196 -0.36142832 -0.7837524 0.00833509 0.071422145 0.14508817 0.492976 -0.19054785 0.3411095 -0.23067391 0.20082116 0.030212421 0.51039594 1.1287515 0.26482123 0.5595549 -0.22458361 -0.37364477 0.7607427 0.9101554 0.050435886 -0.6010585 0.1528452 0.0031937982 0.7365794 0.097424224 0.09034535 -0.3098004 -0.17163464 -0.0700701
134 -0.03369387 -0.6692532 -0.25121677 0.59163535 0.4616342 -0.1310377 0.40812287 -0.45516926 -0.8447019 0.6225536 0.5875764 -0.47460812 0.53899497 -0.36149284 0.049491983 0.059753727 0.26836863 -0.26619697 -0.7871636 -0.17838144 0.00433123 0.20364037 0.42740282 0.067004405 -0.42151648 -0.29456896 0.01948768 0.36243987 0.12140351 -0.2597045 -0.18545967 0.32365802 0.059037205 -0.0870938 0.19381894 0.38716936 -0.5259427 0.37910905 0.4412075 0.1717483 -0.34062475 -0.6445855 0.95112133 0.07439568 0.53122896 0.5457314 -0.45683718 0.35534286 0.64074594 -0.028245028 0.35098028 0.8282913 0.58456844 0.21997198 0.087238915 0.14496922 0.110899985 -0.16734964 0.18689379 0.5568154 0.0010677545 -0.29790318 -0.41620827 -0.029026216
1231 0.6373123 -0.28654525 0.23081967 0.48414055 -0.0985476 -0.065312475 0.52644527 0.4105761 -0.7610264 0.060713973 0.049872205 -0.17255257 -0.40117913 0.095906265 0.46426585 -0.37373427 0.06085674 0.40254307 -0.26097494 0.5762588 0.30558097 -0.4746456 0.5490601 -0.27032903 0.04504823 -0.15081304 -0.7820469 0.55091506 -0.7026176 0.3776688 0.13097607 0.1821383 -0.23042752 -0.45069745 0.24813727 -0.4302886 -0.4515743 0.11766253 0.13455805 0.33464986 0.50741196 -0.2507595 0.48989648 -0.18797998 0.0058913855 -0.1732175 0.32194644 0.995588 0.31975642 0.64971983 -0.006933478 -0.3698363 0.9080099 0.67878085 -0.05672622 -0.6226554 -0.26600733 0.061616417 0.7374523 -0.014303855 0.1452177 -0.31303552 -0.32109314 0.055161327
1244 0.5438818 -0.41973084 0.19928424 0.5233793 -0.009380358 -0.16311383 0.33760768 0.28578267 -0.6066326 0.09522434 0.0936932 -0.10967259 -0.20104478 -0.16216953 0.54849356 -0.30898064 -0.051791333 0.25007814 -0.38444504 0.48238012 0.13736457 -0.45756826 0.3358416 -0.1569627 0.24589604 0.039856687 -0.76469374 0.6288797 -0.6429245 0.37074292 0.20001987 0.081174426 -0.25239566 -0.6730416 0.20097363 -0.38066396 -0.7396253 0.16261418 0.0927961 0.31637427 0.512781 -0.28364247 0.4255309 0.0040477095 0.08516133 0.04376162 0.3874822 1.2136734 0.4569308 0.63273907 -0.10768511 -0.31341738 0.74638087 0.67184895 -0.15265267 -0.6794673 -0.12672037 0.04876203 0.71004254 -0.19012062 0.037301105 -0.17627384 -0.14879453 0.035188954
129 0.24199618 -0.621348 0.07381429 0.4798752 0.6197908 -0.2936122 0.2766354 -0.23464303 -0.64871806 0.29123926 0.6056767 -0.4888215 0.71294546 -0.21449658 0.05510377 -0.09606381 -0.11905638 -0.11985087 -0.48730755 -0.05306882 0.06921888 0.19924702 0.18542124 0.07288268 -0.65335286 -0.17299029 -0.06605887 0.25617963 0.13660997 -0.036701035 0.05319753 0.4955867 0.25276473 -0.13054825 0.18954645 0.6381978 -0.68421733 0.32360005 0.4242734 0.31140593 -0.8092442 -0.95421064 0.9211348 0.26297352 0.36430216 0.045268893 -0.5559292 0.017728733 0.6595967 0.00042304146 0.54945046 0.65142894 0.44910792 0.5249857 0.27843192 0.13689257 0.055378623 -0.18968005 0.6255317 0.66185 0.5318691 -0.2783854 -0.29040608 0.08611254
705 0.20503135 -1.0925466 0.10677665 1.3218521 0.3168724 -0.06336622 0.6428742 0.03157396 -0.078291655 -0.08849395 0.43227845 -0.73731315 0.29079813 -0.56884056 -0.29780877 0.25661746 -0.06051226 -0.21868157 -0.65457875 -0.6379382 0.16524965 0.18272097 -0.20403107 0.1631511 -0.6633508 -0.7146405 0.00518295 0.36264384 -0.099483594 -0.020480847 -0.19221374 0.9353461 0.08438796 -0.32746208 0.9581193 0.26173374 -0.70261663 0.5003009 0.24946083 -0.11767537 -0.6660881 -0.9940098 0.76316684 0.5334299 0.15648302 0.38999188 -0.8385277 0.59527344 0.5507833 0.012989996 0.56429875 1.2461226 -0.22757071 0.3411262 0.021255612 -0.80227876 0.011886252 -0.054988362 0.428018 0.49687034 -0.13216554 -0.4838392 -1.0973434 -0.04587915
1239 0.76723 -0.34915704 0.07213952 0.58141106 0.11790643 -0.17137063 0.55648774 0.38545823 -0.48657504 0.251852 0.2833425 -0.20491427 -0.41873565 -0.11765917 0.4032712 -0.15171671 0.06706269 0.35757732 -0.1473052 0.7068619 0.11488106 -0.3531952 0.41125414 -0.46654847 0.16348346 -0.061933864 -0.63311446 0.747868 -0.64924294 0.22927727 0.15155679 0.29731846 -0.18372491 -0.60960644 0.07139612 -0.4862279 -0.69668084 0.07199352 0.2647838 0.15497218 0.539638 -0.29261917 0.17199972 -0.07656236 -0.17735821 0.028770816 0.32611677 1.0896351 0.4796304 0.64800256 -0.11309861 -0.24670921 0.9192109 0.7035451 0.0465052 -0.5098088 -0.10686969 0.06781546 0.7920948 -0.049854968 0.19315474 -0.14104672 -0.11867027 -0.083831996
1472 -0.059517268 0.017693141 0.24141939 1.0325615 -0.1541408 0.98580325 0.37902743 0.03080249 -0.27649054 -0.30273148 0.15385467 0.052394785 0.9977342 -0.058963537 -0.32259685 -1.4807653 0.55236626 -0.3546668 -1.4684889 -0.20669825 -0.6523719 0.4099537 0.6695473 -0.6251629 -0.2460567 0.021083131 -0.28666133 -0.19738896 0.22726797 0.33002323 0.06328919 0.90358394 0.08122335 -1.6081365 -0.0051936945 -0.15917985 -1.130249 0.13741834 0.28253558 0.24328743 0.4970616 0.12930581 0.6533822 0.68417275 -1.2986152 0.34617278 -0.29606512 0.023276003 0.9980146 0.84015477 0.10025019 0.69358116 -0.37958717 1.5889925 -0.7917252 -0.09738658 -0.43294746 0.56570494 0.59104675 0.34343317 -0.041281246 -0.5054795 0.30198836 0.26778623
427 0.0725912 -0.75054836 -0.0061046476 0.63967925 -0.71504086 -0.15479237 0.13848227 0.8971235 -0.5117977 -0.06078511 0.29008505 -0.71366 0.23432468 -0.4790486 -0.0071647386 -0.06489788 0.14475727 0.08027112 -0.5996389 -0.154926 0.8231322 0.12673786 0.5559248 0.27260834 -0.18898977 0.23636936 -0.07910125 0.37929738 -0.0027697575 0.54262567 0.33785045 0.12687637 0.17154172 -0.7553149 -0.19668718 0.084032856 -0.36102548 1.1311867 0.9786705 -0.18111368 1.2047579 -0.22210774 0.8087548 -0.02098368 -0.5397323 -0.83273864 0.080454744 0.052126326 0.5462916 0.44339383 0.111630924 0.7676092 -0.19656134 0.42936474 -0.15697362 0.74189556 0.10136431 0.4805963 0.44917938 0.6426872 -0.25527257 -0.36485365 0.3755401 0.235995
1383 0.78922004 -0.29721305 0.42104936 0.0061265226 -1.3422518 -0.5979888 -0.20451786 0.09472669 -0.2261063 0.3520328 -1.0236742 -0.7468807 1.3877504 0.0380398 -0.8090734 -1.4074148 1.6455687 0.0018510555 -0.337369 0.7537172 -0.36692685 0.43481642 0.45955783 -0.07101446 -0.72045666 0.32072103 -0.5887582 -0.2929536 -0.25697175 0.77715415 0.36829948 -0.13612531 -0.022879291 -1.2669715 0.3438896 -0.14794357 0.18227716 0.57443994 1.4017795 0.2634298 0.46822724 -0.98678696 -0.13209508 -0.14473796 0.8450892 0.36717215 1.1387396 0.93280363 -0.79223526 0.114259005 0.42888662 -0.00493674 -0.39703345 1.0473272 0.084403306 -0.65241724 0.28326607 -0.17041007 1.5009876 0.039282884 -0.46169627 -1.2856376 0.25524327 0.25336638
1469 -0.29907003 -0.06840694 0.1745045 0.8573034 -0.16215356 1.0054069 0.2589276 0.13726471 -0.09103477 -0.21171756 0.14568944 -0.0054243 0.9940999 -0.03565401 -0.14817809 -1.5758964 0.5430541 -0.26762742 -1.5702813 -0.10330717 -0.60768 0.28631714 0.64465255 -0.6829802 -0.10475795 0.062613994 -0.4281908 -0.11708098 0.25971228 0.40394402 0.13196415 0.84374046 -0.02992322 -1.333739 -0.061050516 -0.12077803 -1.1193655 0.08270938 0.15546593 0.46470636 0.37336797 -0.11914375 0.927482 0.8486813 -1.0633688 0.17187153 -0.19222374 -0.09896858 0.96999866 0.87614596 0.002274794 0.8376163 -0.3865705 1.4228644 -0.6510898 -0.08656448 -0.5495287 0.5782216 0.620983 0.44592586 -0.12300708 -0.33373448 0.3943917 0.31816173
1136 0.21002772 -0.41258675 0.054137617 0.049372196 -0.042086508 -0.43949708 0.20350155 0.34490353 -0.71031666 0.5882809 0.60044837 -0.104001105 0.16234969 0.8263623 0.4434501 -0.07269375 0.06690529 0.09396518 -0.62059516 0.41338885 -0.09230987 -0.39051425 -0.17374755 -0.22420576 -0.4503374 -0.47160757 -0.24775976 -0.7613691 -0.8525577 -0.10930025 0.20653968 1.0687834 1.0180409 -0.25606942 0.6530116 -0.6775144 -0.46663338 0.2834309 0.23416412 0.5517535 0.67826587 -0.14258751 -0.1810024 0.28539908 -0.1635045 0.019974088 -0.22489107 1.1152625 0.37525862 -0.24263968 1.053468 0.25817984 0.21209235 0.8955545 0.23242013 0.41916922 -0.16695966 -0.42801058 0.2947948 -0.2660581 0.04081551 -0.084834166 -0.050105333 0.3774113
1568 0.6994556 -0.09692072 -0.27501598 1.4302206 -0.37535813 0.027138792 -0.17879976 1.0557549 -0.99750775 0.96537024 0.33596903 -0.72925574 0.2427316 -0.53371745 0.12031942 -0.60740864 1.1798177 0.37992156 -0.2806111 -0.05704613 1.0924014 -1.0160532 -0.9958689 1.1205279 -0.48499882 0.06363578 -0.65529776 -0.26912022 -1.4758412 -0.3464257 1.4970211 0.21037409 0.61129445 -0.97418815 -0.5345434 -0.9826818 -0.5245463 0.33254364 -0.21531591 0.15238485 -0.39376915 -1.4590746 -0.30048802 0.021039834 -0.104653515 0.69753397 -0.024042657 -0.027471446 -0.04257662 -0.019429341 0.7189314 -0.038902726 -0.029110102 0.5490262 0.23889399 -0.7583534 0.82970965 -0.44301578 1.4963423 -0.08206869 0.49603376 -1.4083834 -0.10668526 0.19852781
1381 -0.20976466 -0.40346122 0.57377774 1.1598209 -0.7591091 0.41225654 0.19890147 0.9748123 -0.69349396 0.13511312 -0.39485294 -0.73300326 2.1116977 0.28576958 -0.3050074 -0.8451148 1.3068362 1.179761 -0.28869033 0.029074354 0.35794044 0.4396734 0.19275309 0.5852833 -0.6701465 1.048913 -0.5936735 -0.09030304 0.3648668 0.5262228 -0.10749024 0.85865563 -0.45137626 -1.390958 1.0088845 -0.7509099 -0.38305223 0.59385055 -0.041913036 0.71682954 0.47747323 -0.58175176 -0.22491771 0.47326192 -0.13557595 0.9346847 0.6593177 1.04927 -0.92498285 0.73665535 1.4648252 -0.3875172 -0.218906 0.9978017 -0.4714409 -0.8451197 0.2804407 -0.7967959 1.2957102 -0.43840435 -0.696486 -0.29380384 0.3715132 -0.659515
695 -0.06737873 -0.77427745 0.0071777566 0.8905041 0.10348368 -0.10001697 0.33883998 -0.21760114 -0.4792035 0.21667728 0.5258028 -0.7917335 0.5117368 -0.13262875 0.05142544 -0.14463148 0.26573235 -0.4726301 -0.37256446 0.32096583 -0.19965588 0.53038704 -0.45753455 -0.0804306 -0.4733045 -0.6349012 0.46264508 0.6638449 -0.035741143 0.4944081 -0.34587422 0.752114 -0.19600844 -0.1067862 0.25759986 0.35903528 -0.77626145 0.42521265 0.17032924 -0.008959856 -0.6121239 -0.85900027 0.8255778 0.06458439 -0.27447104 0.40235642 -0.22891828 0.6626837 0.21397643 -0.26280704 0.12863225 1.113502 0.30655524 0.457767 -0.14177719 -0.10556871 -0.11754412 -0.3031251 0.8334098 0.115911655 0.19211172 -0.2686549 -0.16593352 -0.0029540025
96 -0.18049459 -0.7762138 0.24125694 0.85546833 0.8465013 0.3822017 0.35272866 -0.43346304 -0.74884117 0.28253257 0.2407918 -0.6271064 0.28726918 -0.39888808 0.14403129 0.38968587 0.13716169 0.07157071 -0.70383996 -0.16758844 0.02705365 0.1571361 0.029765012 -0.09977812 -0.12798503 -0.5556661 -0.19980755 0.19825833 0.33148563 0.22981879 -0.28292462 0.42344427 0.22391723 -0.014448916 0.49487376 0.52176416 -0.5464377 0.35176378 0.21943884 0.33680588 -0.50999486 -0.74253273 0.8928011 0.24281068 0.11912696 0.18354306 -0.24952242 0.44731218 0.40158755 -0.031459823 0.59538686 0.7196249 0.2221609 0.37279332 0.44730026 0.32473958 0.012912299 0.033461265 0.6563167 0.31727102 0.33430088 -0.2989414 -0.027536007 -0.13727532
436 0.18791224 -0.7004311 -0.084861435 0.7122072 -0.638195 -0.24099156 0.26874247 0.8533987 -0.47826025 -0.032905523 0.28155193 -0.7155922 0.23634583 -0.38901097 -0.024689985 -0.069165595 0.09934099 0.09056456 -0.46103948 -0.006187997 0.7460217 0.17663155 0.41785342 0.42861342 -0.2823502 0.24833456 -0.103955664 0.1317567 0.06852425 0.49525058 0.36220303 0.16236381 0.18453996 -0.8941559 -0.37212127 0.12985258 -0.36652428 0.8508264 0.69339234 -0.2633678 1.2509878 -0.25535148 0.8642068 -0.08013035 -0.70866865 -0.7476539 -0.022170262 0.117977515 0.46777752 0.46338204 0.19405125 0.7093761 -0.2848388 0.5409414 -0.18767717 0.47074723 0.07293203 0.5939615 0.36045635 0.4705359 -0.106929444 -0.49951002 0.30635038 0.5395478
434 0.12590517 -0.68127286 -0.058603663 0.7375922 -0.66572064 -0.2732139 0.2537654 0.86946034 -0.4888366 -0.07392043 0.2931156 -0.7387983 0.2457431 -0.3950183 -0.04910897 -0.11028305 0.09300724 0.05457838 -0.44062954 0.020713003 0.76372224 0.17480348 0.4015058 0.39817494 -0.2727945 0.2793184 -0.11106509 0.13197228 0.028266642 0.51787287 0.4093705 0.13507709 0.15924096 -0.89557064 -0.35830903 0.13585578 -0.40925112 0.8811057 0.67541015 -0.2900688 1.2217321 -0.26794565 0.80694366 -0.072665714 -0.7397731 -0.7592026 0.022167398 0.09524149 0.44122553 0.4510916 0.26159292 0.71898866 -0.28932187 0.5094597 -0.18963946 0.4719288 0.05637203 0.5883523 0.36517894 0.47115988 -0.1174975 -0.48389965 0.2997053 0.5297067
1580 0.24156435 -0.89989376 1.3873827 1.3104645 -0.8944723 0.33070287 0.7605018 -0.91559404 -1.0852592 0.6063271 -0.23585306 -1.5443344 0.2397155 -0.8458219 -0.34430867 -1.1878331 0.36809537 -0.5528206 -1.3389212 0.6496797 0.07016264 -0.4519048 0.70970654 -1.7059146 -1.1249934 0.6867691 -0.18266952 0.4944346 -1.1761881 0.5011178 -0.013106171 0.03356513 -0.1765917 -0.62162703 0.8208718 -0.1519375 -0.9953466 1.2192594 -0.76373416 0.55142593 -1.0416243 -1.429543 -0.64041317 1.1313562 0.055053677 0.37530324 0.8481183 0.9419733 0.50695765 0.13521487 0.95458 0.5009683 0.8477389 1.2908003 -0.48971683 -0.75111485 0.008545823 -0.2607351 1.5550797 -0.22533028 -0.14264451 -1.0846311 -0.139217 -0.721993
1581 0.07863963 -0.930201 1.4160315 1.2696632 -0.9745009 0.5082392 0.85252273 -0.8785144 -0.9998499 0.43330744 -0.28826052 -1.6315084 0.025899407 -0.8093853 -0.28298888 -1.1222444 0.39671177 -0.6174694 -1.362909 0.71518546 0.06974358 -0.60491174 0.88999695 -1.7479565 -1.0902141 0.54974675 -0.17065191 0.59588057 -1.0832189 0.61272985 -0.09083278 -0.15078051 -0.07663503 -0.538124 0.78066397 -0.09965725 -0.7967443 1.3775277 -0.6499447 0.5307693 -0.8140694 -1.5671643 -0.51139086 1.0850486 0.08473645 0.30587545 0.93516177 0.74880564 0.635696 0.10506121 0.8166215 0.37778878 0.7879491 1.4532129 -0.26086968 -0.7716927 0.097114146 -0.36830088 1.5674276 -0.090933606 -0.284635 -1.1954329 -0.24823743 -0.7904895
1018 -0.87253976 -0.9320793 -0.39098853 0.14715269 -0.22444528 -0.9529686 -0.10985546 0.57616657 -0.7358137 -0.019127833 -0.8024025 -0.73519856 -0.24943262 0.72285837 -0.166732 -0.47650507 -0.042927105 1.0162479 -1.5192345 1.3076292 -0.20627552 -0.32579395 0.2682587 -1.0235153 -1.1356469 0.0099310465 -1.4680253 0.715021 -0.6044549 0.046549123 0.101572365 0.0893568 -0.23947039 -0.30551472 0.3251254 0.5151209 0.35959953 1.507404 0.3711494 0.69202006 1.2628804 -0.49121475 0.49682498 0.22139688 -0.24020906 -0.569643 -0.8050076 0.4033774 1.2382927 -0.48207024 0.7517577 1.3703092 0.25534537 1.415641 -0.13860987 0.12344376 0.11441724 0.4160537 1.0955856 0.7312367 -1.0869738 -0.45886415 0.7473578 0.35693252
1019 -0.8624911 -0.8533644 -0.4949374 0.16052684 -0.08539214 -0.8848749 -0.14876437 0.2676457 -0.92621446 0.040184062 -0.96375364 -0.6703205 -0.3630871 0.77961206 -0.22209775 -0.5040254 -0.02656331 1.0704863 -1.5146407 1.5705763 -0.28905243 -0.25192755 0.27616584 -1.1157622 -1.08082 0.030331917 -1.4821782 0.7779551 -0.68362105 -0.08480079 0.22079162 0.3478319 -0.13071258 -0.22007817 0.5507329 0.21143949 0.2658395 1.4808861 0.22165693 0.73225754 1.3661177 -0.5446513 0.47952864 0.36853507 -0.20016615 -0.5189508 -0.6995165 0.3850264 1.3830038 -0.70595175 0.775938 1.4546735 0.30765548 1.5053866 -0.15496992 0.092309095 -0.06368872 0.25168592 1.0563042 0.7475999 -1.1127006 -0.525474 0.6869632 0.29512373
431 0.2127776 -0.70431465 -0.07875401 0.7619914 -0.5909909 -0.27481222 0.2723095 0.8425879 -0.5063013 -0.052714076 0.29964027 -0.7387996 0.18957573 -0.4247772 -0.058261495 -0.04988114 0.09379769 0.0726734 -0.48335627 0.016218089 0.73415 0.24101469 0.41805598 0.43891895 -0.29019198 0.26257962 -0.12093404 0.15905218 0.038957547 0.5575658 0.32786158 0.12519854 0.11789549 -0.9516307 -0.38652268 0.17208156 -0.3786458 0.87663424 0.70378214 -0.27152407 1.231532 -0.25654355 0.84316874 -0.05651218 -0.7132476 -0.7522884 0.004818772 0.13563614 0.465682 0.48359734 0.16378361 0.7333987 -0.28935272 0.55452675 -0.1826807 0.4303303 0.0651831 0.57894343 0.37341547 0.5093674 -0.054321453 -0.5384543 0.29160413 0.5088536
707 -0.029300248 -0.9259583 0.18539649 1.0991648 0.57772905 0.22647902 0.28450873 0.19073853 -0.5879081 0.14799364 0.41687948 -0.3637684 0.2949141 0.2214956 0.57016253 -0.21487741 0.5470743 -0.42469782 -0.51932114 -0.37567738 0.38854393 -0.03759497 0.13087237 0.020620482 -0.41569924 -0.63013846 0.4151722 0.58048177 -0.37470368 -0.005845261 -0.09295448 0.6801775 -0.003933779 -0.31185532 0.40864423 0.35536784 -0.20022449 0.4158914 0.49285918 0.07927268 -0.9029949 -0.86214054 0.7870516 -0.24545456 0.04487646 0.2893531 -0.49495336 0.1714343 0.7421276 -0.15217693 0.42754093 0.8231641 -0.0050196447 0.2855014 0.16096924 -0.245311 -0.19558564 -0.16939522 0.50840867 0.22759596 0.2889781 -0.35912865 0.07858745 -0.5946272
754 0.43646294 -0.7484554 0.15920095 0.4037682 0.70317626 0.25499943 0.59894866 -0.18513045 -0.19878793 0.42835635 0.2201116 -0.95302767 0.1910503 0.20414513 0.28826144 0.006304325 0.712131 -0.46928218 -0.5879296 0.032597408 -0.051360443 -0.29522723 -0.37984326 -0.06312896 -0.6267944 -0.4189626 0.48446596 0.4411164 -0.18448497 0.07768427 -0.056945663 0.21600987 -0.25776166 -0.39533088 0.45861027 0.50609076 -0.7682114 0.25282505 0.5105575 -0.28401786 -0.76130927 -0.5994313 1.1056147 0.33195147 0.04800014 0.00457465 -0.48770654 0.055483863 0.38423812 -0.24094643 0.56098837 0.76133245 0.07476867 0.43202752 0.08388621 -0.26398122 0.1323845 -0.35377964 0.684953 0.5035525 0.030000718 -0.4261273 -0.23743232 -0.18924607
690 0.18568963 -0.9316541 -0.13697283 0.4095113 0.6437921 -0.90912926 0.31985167 -0.6864398 -0.2544669 0.37362507 0.04355607 0.3830073 0.038520515 -0.26276985 -0.5582746 -0.28212762 0.6840002 -0.102338284 -0.29618123 0.5945029 0.7656139 0.10443935 0.29320353 -0.98643464 0.26098728 -1.0677328 0.76155585 -0.2754705 -0.22666308 0.41052964 0.18507199 0.7699416 0.08793572 -0.46102783 0.4082911 0.68623763 -0.47930944 0.020154206 0.20350704 0.058007978 0.6441898 0.018974083 0.9584104 -0.2595399 -0.01502227 0.11565272 -0.113050774 0.19609874 0.25679764 0.14997338 -0.2992309 1.2093339 -0.52905893 1.115213 -0.15213126 0.14025775 -0.58522016 -0.6958999 0.6736894 0.83771366 1.0962063 -0.60883534 -0.38712463 -0.053284813
1142 0.23708764 -0.5500005 0.03605612 -0.0100440765 0.021816831 -0.37835726 0.28832823 0.35657543 -0.6884315 0.54416746 0.4304357 -0.18125145 0.17734711 0.8805503 0.46892464 -0.09239549 0.045556773 -0.05603219 -0.76821303 0.34386775 0.04745976 -0.3946672 -0.19135432 -0.11511696 -0.4831844 -0.45940557 -0.37437227 -0.7637998 -0.74723774 -0.15579584 0.4061011 1.1351669 1.0186499 -0.2678165 0.5954927 -0.54568106 -0.30694184 0.087324664 0.30328664 0.62108624 0.70261616 -0.20991485 -0.27655157 0.28007987 -0.10300576 -0.06818452 -0.2621766 1.0730379 0.34481862 -0.19246712 1.0498884 0.30495507 0.24877463 0.94826144 0.23652236 0.27145323 -0.32188448 -0.2865818 0.27138174 -0.21627297 -0.006044052 -0.06421604 -0.04628814 0.458446
1445 1.0097234 0.46071962 -0.14276585 0.6945426 -0.123218276 0.49552518 -0.22553657 -0.055771917 -0.08360427 0.31977275 0.12028337 -0.36246645 -0.25005585 -0.7969185 0.33783785 -1.3324287 0.4039069 0.34595275 -1.003333 -0.40079755 0.47498682 0.18042153 0.2509816 0.011193988 -0.052619632 0.8712839 -0.031553153 -0.49835443 -0.66873103 0.6124377 -0.835334 0.7477851 0.42285028 -0.06469531 -0.10579587 -0.19089845 -0.46865746 0.4803837 -0.05117441 0.47441906 0.73198867 -0.3770124 0.20706499 0.15863615 -0.70541304 -0.13200912 -0.7664792 0.3491672 -0.12274405 -0.07292054 -0.00072024635 -0.14299795 0.15811752 1.129456 0.3175371 -0.3223376 0.37506485 -0.068125315 0.2957366 0.9363227 -0.14740056 0.07840668 0.13624579 0.031023292
1143 0.21172982 -0.5118557 0.027966848 -0.022258535 0.06866615 -0.4069738 0.29513 0.33125246 -0.6631799 0.55875874 0.42139494 -0.1397943 0.14744523 0.864903 0.480715 -0.103791654 0.07129319 -0.07239603 -0.7621001 0.37337378 0.014208724 -0.39492935 -0.16238295 -0.13475421 -0.48709375 -0.44694397 -0.38505775 -0.76855534 -0.7801394 -0.13667557 0.40098983 1.1628401 1.0026944 -0.25386482 0.6000368 -0.5703914 -0.31652206 0.075106785 0.30010572 0.6264724 0.6524566 -0.21180938 -0.27686688 0.30503199 -0.095917985 -0.020429464 -0.26424435 1.0552707 0.3337444 -0.17286275 1.0559846 0.32116055 0.2500171 0.9584528 0.23587333 0.28000864 -0.29139423 -0.27463412 0.29300213 -0.20521255 -0.01894632 -0.06252805 -0.01969374 0.4603087
1430 0.5947687 -0.28727293 -0.2213295 0.8463899 0.079900645 0.5542039 0.2670317 0.26311597 -0.2197803 0.12451086 -0.17217499 0.6209867 -0.29873803 -0.47043008 0.23268953 -1.1564368 0.43034372 0.28863344 -1.6292883 -0.30367628 0.07205159 0.055988435 0.35460156 0.07736765 -0.39499938 1.0261141 -0.2678684 0.119299605 -0.86730784 0.67917114 -0.40671936 0.70977795 0.69242185 -0.27071247 -0.25664893 -0.30345592 0.078869596 0.36067808 0.325966 0.3784927 0.98289967 -0.2830404 -0.06296006 0.13512945 -0.71692026 -0.30413055 -0.70079225 0.27489886 0.035252932 0.08956898 0.07433575 -0.5049932 -0.30700156 0.7911957 -0.0964612 -0.27901837 0.7068218 -0.44746935 0.7122405 1.0469581 -0.15819673 -0.15951529 -0.2466721 -0.09748458
1145 0.24203482 -0.5135176 0.013892911 -0.038662273 0.019587845 -0.36805388 0.26492292 0.30871376 -0.68250144 0.5456528 0.40477026 -0.101810716 0.12262696 0.87635607 0.49622685 -0.095712714 0.0109997755 -0.043577608 -0.7934472 0.33289236 0.023781916 -0.36906537 -0.1941039 -0.13151462 -0.5370571 -0.4649135 -0.35731882 -0.74952483 -0.81690514 -0.12619492 0.42619848 1.112911 1.0061023 -0.27120158 0.63302267 -0.5784382 -0.36676115 0.0671907 0.28510228 0.60114163 0.6988588 -0.20715216 -0.2548959 0.22318716 -0.10651195 -0.026050188 -0.2168975 1.0917432 0.4034928 -0.21492194 1.0612355 0.31711712 0.20588431 0.93389726 0.21409574 0.23411368 -0.29600686 -0.28398412 0.25402218 -0.22775641 -0.02476945 -0.0963331 -0.06890108 0.38895065
1146 0.24126537 -0.5147474 0.0004273179 -0.044769872 0.013041702 -0.42401206 0.26319185 0.35269234 -0.6614266 0.5245268 0.43076545 -0.16133532 0.14943692 0.8669231 0.50852543 -0.121176474 0.031775795 -0.043198634 -0.80612665 0.29829875 0.052662257 -0.348348 -0.18335296 -0.13564348 -0.51879555 -0.47427994 -0.35350463 -0.7302143 -0.75455576 -0.15525682 0.4251252 1.1083997 0.96947265 -0.26458752 0.63887656 -0.5962336 -0.34526652 0.083375916 0.29558873 0.5930817 0.74756515 -0.20327385 -0.2519526 0.22529459 -0.16677307 -0.016360587 -0.28305066 1.0421917 0.36476427 -0.15586473 1.0503483 0.31824553 0.2302277 0.96588326 0.20590717 0.2817469 -0.29515415 -0.3264092 0.24080029 -0.216375 0.02274164 -0.06860051 -0.042406928 0.45338017
1148 0.23413144 -0.5317459 0.0049439473 -0.044659995 0.01948897 -0.36913347 0.28789052 0.34585384 -0.69958436 0.5445885 0.45366126 -0.13497193 0.1994997 0.8752294 0.47129095 -0.13141964 0.07556412 -0.05566645 -0.7315761 0.36080435 0.030102264 -0.37084866 -0.16979249 -0.14050525 -0.48555905 -0.461443 -0.4246318 -0.75167793 -0.7509158 -0.124136284 0.41100037 1.1239967 0.9917914 -0.26032186 0.5630158 -0.5841431 -0.27639234 0.07412776 0.32996976 0.6560882 0.68216306 -0.240294 -0.26711088 0.30704537 -0.09043752 -0.029298393 -0.26042303 1.1057525 0.37121642 -0.23047376 1.0382197 0.32198927 0.22953813 0.96586794 0.24560864 0.23981917 -0.31551895 -0.3024592 0.26441452 -0.18633316 -0.00772027 -0.029170461 -0.049686074 0.42045662
1144 0.23316813 -0.5053515 -0.001990744 -0.047291137 0.029236177 -0.38015258 0.29060388 0.34780917 -0.65302384 0.54674387 0.45469537 -0.13561349 0.15031557 0.84425193 0.46642524 -0.10112827 0.018971574 -0.052167192 -0.756939 0.36311576 0.025216527 -0.3913089 -0.1884427 -0.12407289 -0.5303395 -0.4844858 -0.38550985 -0.7503997 -0.74548066 -0.119919755 0.4399656 1.13974 1.016824 -0.27509594 0.59500784 -0.55853534 -0.32256752 0.090153985 0.3152429 0.60102886 0.7105315 -0.1776519 -0.2763175 0.29308176 -0.08636113 -0.02482427 -0.24532901 1.0523705 0.34740064 -0.18353562 1.0494041 0.30849683 0.25405103 0.93804544 0.18692185 0.259935 -0.2682002 -0.2877854 0.24221843 -0.24748626 0.032330982 -0.09281645 -0.05634839 0.45622456
1147 0.18282898 -0.5193339 0.09672526 -0.049783416 0.064239964 -0.40251276 0.25891635 0.34120485 -0.70648605 0.50502276 0.41845122 -0.100255884 0.18478952 0.8698117 0.4994049 -0.13366835 0.03343143 -0.038495753 -0.7755065 0.33301687 0.068574704 -0.3752482 -0.18584983 -0.094647 -0.48649946 -0.4578369 -0.32837662 -0.7939875 -0.7819575 -0.12330929 0.4025169 1.103291 0.9968832 -0.31447294 0.55671215 -0.5829149 -0.3269656 0.043247 0.30392817 0.63391614 0.6881225 -0.24413401 -0.23058608 0.21690457 -0.17357258 -0.045796875 -0.23452444 1.0969015 0.4206069 -0.17964026 1.0574822 0.33451614 0.18193829 0.9307136 0.2628847 0.29944643 -0.285252 -0.25054178 0.25980848 -0.21971905 -0.021227965 -0.05231111 0.021381754 0.3823518
964 0.26648858 -0.7567228 -0.810664 -0.08704069 0.7621574 -0.4320255 -0.3830747 -0.2099662 -1.5382322 0.021020219 -1.0850431 -0.12533672 -0.06090001 -0.03332036 1.1102618 -0.4505458 0.9230281 -0.51724035 -0.1959047 0.32358208 0.6985877 0.44149312 -0.5062957 -0.034240264 0.4414697 -0.116808504 -0.7004345 -0.036521256 -0.6210657 0.87188077 0.5985103 1.1101818 0.63898367 -1.2176826 0.6759086 -0.85715085 -0.34653148 1.2283521 0.16144794 -0.26097283 1.6438503 -0.88371176 0.6252643 0.3592579 -0.9672035 -0.658389 0.6448035 0.35620806 0.0027514182 0.25372362 0.23014848 0.43180484 0.73168373 0.71927506 0.26232162 0.4331037 0.4223819 0.24932921 0.31939983 0.5170152 0.3184747 -0.82495016 -0.20919506 0.19036037
1150 0.2526636 -0.46778944 -0.025599929 -0.1053177 0.13634883 -0.41905877 0.3567184 0.3423276 -0.7165727 0.5238067 0.4243335 -0.087746 0.21371882 0.73652244 0.40782285 -0.21508719 0.06726344 -0.13711748 -0.6865185 0.50788355 0.05400437 -0.3540803 -0.23219445 -0.09720733 -0.43004882 -0.421229 -0.3471059 -0.8384457 -0.80865824 -0.08891122 0.36590233 1.3040233 1.1328863 -0.23606257 0.5230739 -0.58968157 -0.34095898 0.1898197 0.4066092 0.51542574 0.5056088 -0.22656068 -0.3279156 0.31983688 -0.040671673 -0.008251137 -0.1360171 1.1153036 0.28195134 -0.13666739 1.0148538 0.24988946 0.40972003 0.97661144 0.22571468 0.37142083 -0.37461153 -0.20031947 0.3342985 -0.19481874 -0.07430535 -0.014482215 -0.055779334 0.47039822
1125 0.4004265 -0.072735466 0.16674477 0.03866618 0.050920963 -0.3906041 0.085650824 0.413438 -1.0466394 0.36880663 1.0350786 0.289638 0.48194695 0.618256 0.3428668 -0.31251875 -0.2923633 0.3966849 -0.62277555 0.33203334 0.013978351 -0.080465786 -0.6244722 -0.27967286 -0.5557907 -0.3535482 0.0044266717 -0.738603 -0.6995086 0.31092063 0.4942415 0.7013239 0.8430625 -0.33767197 0.5150353 -1.107095 -0.7732039 0.74811256 0.39874414 0.24037173 0.7578881 -0.009608747 -0.14057039 0.29656094 -0.35927907 0.13114424 0.03153784 0.88676697 0.5937746 -0.21739459 0.7976298 0.38897368 0.21670401 0.7753095 0.10519727 0.53145075 0.115492254 -0.5814382 0.37896103 -0.5201232 0.22659819 -0.64163786 -0.16055311 0.17224877
1042 1.7317331 -0.09690489 -0.0080912905 -0.025965998 -0.009330738 -1.1341864 -1.0516814 0.552178 -1.2440177 0.11084759 -0.44501024 0.33592558 0.01735868 0.5009403 -0.06748004 -0.37997818 -0.11072314 -0.020041334 -1.032858 0.025775176 0.659976 0.10288454 0.061998986 -0.23496497 -1.2091106 0.76332283 -1.0004114 -0.25562155 -0.41891927 0.55930907 -0.064482905 0.463912 0.29345208 -0.8734919 0.7017006 0.33836263 -0.4368289 0.08237022 0.5830358 0.027770257 0.17808317 -0.9023729 0.18318565 -0.7696403 -1.1150115 -0.52864814 1.0559212 -0.07367276 0.010379373 1.3542905 0.23297507 1.524409 0.5124824 0.72430956 -0.9315735 -1.1191554 1.1318802 0.06685336 1.5698419 -0.471186 -0.5955946 -0.192875 1.2906383 -0.89763564
1048 1.5542855 -0.6769778 0.55845284 -0.038088534 -0.095390424 -1.2994019 -0.6634998 -0.19285832 -0.5136604 1.3250237 -0.71186846 0.14148808 -0.06736576 0.56016177 -0.6326509 0.054645963 0.0078039113 0.3673121 -1.5670763 -0.064600796 1.0320122 -0.400548 0.49259326 0.15265694 -0.8746894 0.8793862 -0.72061163 -0.5789643 -0.4122817 0.18868344 0.27617946 0.1429545 0.30714765 -0.8990595 0.66825587 0.1887172 -0.29936603 -0.044491313 0.7038544 -0.24564213 -0.40394065 -0.21950063 0.027024006 -0.8328467 -0.791024 -0.32254833 1.562262 0.20796858 0.5336859 1.6817065 0.9308205 1.5438318 0.4593194 1.2618036 -0.6264421 -0.59247625 0.9456429 -0.27120268 0.4293116 -0.18369256 -0.9070602 -0.04705575 0.500934 -0.96835506
1436 0.13093416 -0.32310528 0.05439784 0.20356016 -0.3706776 0.5209465 -0.049649782 0.04011111 -0.47049084 0.20109625 0.14877455 0.15836789 0.000978938 -0.67401665 -0.2695034 -0.99321395 0.51856 0.23837656 -1.1871802 -0.35727376 0.5147068 0.32057947 0.1139446 -0.11718639 -0.50886333 0.85464936 -0.7918551 -0.5678754 -0.7257497 0.45128006 -0.790746 0.80885106 0.26772487 0.055650275 -0.21677668 -0.49258283 0.36475736 0.21899971 0.057098903 0.59487027 0.5568893 0.22319765 0.42182547 0.21375845 -0.4333996 -0.037890382 -0.40929955 0.30651593 0.1356734 -0.36057386 -0.14565144 -0.14703073 0.38822132 0.75184137 -0.13924903 -0.07243296 0.41262308 -0.16296163 0.813112 0.7032498 0.11511767 -0.45451224 0.2786531 0.41914836
716 -0.025422597 -0.80522484 0.3094024 1.167862 0.76454186 0.02722138 0.8334306 -0.04358083 -0.2267903 0.079879574 0.15338412 -0.035195798 0.4446926 -0.4341996 -0.31514364 -0.37039244 0.118225254 -0.9923502 -0.051159218 0.4495551 -0.05065814 -0.059147995 0.33460054 0.23727971 -0.43062642 -0.44758675 0.03471468 0.25374514 -0.09877111 0.4280743 -0.26189914 0.33463487 -0.235705 -0.18995687 0.13595949 0.3950937 -0.62895334 0.63412035 0.35189408 -0.24002083 -0.2378321 -0.65934145 0.81077784 0.31218523 -0.11024635 0.60690653 -0.619799 0.40795797 0.14132862 -0.35024258 0.575884 1.1068376 0.37485123 0.78060544 -0.020179825 0.35136542 -0.15977041 -0.93501043 0.51231587 -0.3086993 0.6965634 -0.26707557 0.06590902 -0.12350327
967 0.12620999 -0.78539467 -0.6691017 0.19663718 0.70112073 -0.26283866 -0.34510723 -0.28668162 -1.4809941 0.338128 -1.0309575 -0.050678406 -0.07008157 -0.35830688 1.1303275 -0.29507545 0.85021985 -0.87914556 -0.17752817 0.47783926 0.5374862 0.20729847 -0.35171935 -0.18205792 0.56593883 -0.13759847 -0.6743712 -0.004571 -0.7820244 0.62132716 0.518577 1.2279838 0.7963008 -1.1139086 0.792097 -0.99753153 -0.26662257 1.2214392 0.1251494 -0.33065343 1.494634 -0.8705659 0.4613752 0.338536 -0.83937824 -0.695389 0.8162833 0.4167043 0.23559685 0.03821211 0.19155513 0.44937482 0.8735606 0.7947775 0.3264999 0.4420622 0.42618766 0.3600853 0.14969096 0.2804086 0.16355126 -0.69899756 -0.13847284 0.27356893
1374 -0.1663416 -0.24817877 -0.79366255 0.88717604 0.47518015 0.17632832 0.63871986 0.76433074 -0.48441318 1.3616161 -0.98897344 -0.5339461 0.18557037 1.7413192 -0.3934077 -1.4216594 1.18696 0.5367444 -0.0711877 -0.09235573 0.47950852 -0.097611986 0.09683709 -0.29146627 0.601842 0.5926064 -1.4021779 -0.7899981 0.066967204 0.22790909 -1.1905606 -0.4025735 0.30669972 -1.766963 1.0004941 -0.5438517 -0.74244046 1.5263442 0.48700672 -1.0651203 1.1701496 -0.26311994 0.12750006 -0.38630953 0.3114421 0.029496871 1.0297943 -0.09747309 -0.16083328 0.37633577 0.48881853 0.46607545 0.6547456 0.7117868 0.1337696 -1.37537 0.519839 -0.58819485 1.0748925 0.36233738 -0.58936435 0.42227423 0.7727848 -0.4972139
1045 0.88342667 -0.68372095 0.7058586 -0.24341282 0.35358524 -0.6876847 -0.5971076 -0.5327942 -0.3475025 1.3290182 -1.1284796 -0.17191818 -0.38578147 0.18985444 -0.56552696 -0.28701362 0.41885373 0.020383295 -1.580178 0.17526658 1.2846878 0.036590606 0.75244045 0.50131446 -0.9275782 0.4534303 -1.042597 -0.2595586 -0.5691224 0.35191247 0.046620794 0.0072859875 -0.4993047 -0.7274993 0.48738804 -0.10552186 -0.9221018 0.3451415 0.6393183 -0.26338258 0.20722377 -0.5934821 -0.07401827 -0.55390865 -0.9651189 0.056674115 1.3502016 0.59776443 0.26002392 1.7053556 0.51731694 1.4569565 -0.041298546 1.3764888 -0.7528525 -0.03508748 0.7005068 0.54913193 0.928909 -0.35147735 0.02101837 -0.07347942 1.2110977 -0.85729295
1249 0.5240292 -0.6619647 0.30040106 0.61674786 -0.02096329 -0.41135514 0.058614153 0.3251331 -0.8136597 0.33516794 0.18678415 -0.31127322 -0.3348425 -0.4180316 0.4017434 -0.41812533 0.026604017 0.47432268 -0.36163837 0.3524554 0.08438713 -0.3642035 0.07086224 -0.6873136 0.29956818 -0.07278798 -0.3061312 0.55718136 -0.6672843 0.19060746 0.15359691 0.10666076 -0.117514186 -0.59632385 0.10323469 -0.40962696 -0.47164035 0.029724443 0.19506411 0.15087542 0.52343607 -0.26084086 0.6003154 -0.4995741 -0.12795539 -0.08359578 0.6063605 1.0771636 0.27030218 0.73226047 0.08674299 -0.4406476 1.0613841 0.6269875 0.20363812 -0.72945964 -0.43401667 -0.17726976 0.6130073 -0.14606541 -0.035665687 -0.51498485 -0.1930077 0.1260155
92 -0.10998403 -0.9767367 -0.12795612 0.88032705 0.58388114 -0.118928604 0.44802496 -0.2928841 -0.38505134 0.21792367 0.24753512 -0.42642888 1.019148 -0.101176985 0.07392119 -0.28433466 0.052551772 0.0065411725 -0.42538232 0.28951427 0.15471172 -0.023088697 0.088917114 0.028166149 -0.34043097 -0.60858136 0.17701943 0.19277763 0.3254561 0.22052158 -0.12316733 0.372258 -0.16916168 0.1784125 0.34314606 0.5181405 -0.23584032 0.09878515 0.361197 0.47682884 -0.29090106 -0.81811553 0.8502132 0.21103929 -0.023837952 0.17702189 -0.7181242 0.2634753 0.59477234 -0.0012682389 0.566927 0.65755194 0.60688627 0.47817641 0.182555 -0.050061464 0.13164636 -0.1680002 0.32526827 0.44835886 -0.22673139 -0.20749073 -0.3918777 -0.11755752
1433 0.47535288 -0.43285462 0.40049756 0.24556462 -0.16196342 0.31238976 -0.02456326 0.552145 -0.7447806 0.09492471 0.188665 -0.40592998 -0.3214729 -0.50377184 -0.1135521 -1.144077 0.3851137 0.035724238 -1.257407 -0.3905145 -0.2655349 0.33620483 -0.14097053 -0.039153982 -0.03766962 0.9707659 -0.011080259 -0.6728419 -0.74670595 0.330301 -0.791494 0.42066854 0.50218767 -0.060821958 -0.15302956 -0.34045362 0.46329272 0.32678103 0.24578229 0.095501736 0.5855401 -0.3770141 -0.18225724 0.016552657 -0.46434847 -0.07245708 -0.37722933 0.11208548 0.33398646 -0.17079225 -0.38530362 -0.40718716 0.10487665 1.1067164 0.45234832 0.108230665 0.39919105 0.011986526 0.9725414 0.5718084 0.20664127 -0.5963585 -0.20332468 -0.024379719
166 0.15370834 -1.4878019 -0.07649406 0.54349613 0.45927656 0.2136601 0.27749243 -0.2573502 -0.222023 0.121382594 -0.07439834 -0.25297165 0.31991398 -0.24464104 -0.36633945 0.24194916 0.066088706 -0.7664278 -0.5666172 0.048492257 0.37163964 0.09937638 0.011056551 0.08920816 -0.7944028 -0.45237586 0.33425775 -0.06876626 0.5045314 0.33121592 0.002225813 0.732538 0.44894484 0.105841726 0.25878572 0.48282737 -0.88803846 0.3296566 0.92275095 0.2957285 -0.4423991 -1.449746 0.41634095 0.2901131 0.42731103 0.53650206 -0.07295225 0.6367669 0.8919173 -0.45381457 0.21908866 0.585233 0.52108794 0.25574952 0.34010434 -0.5414512 0.36423743 0.0791386 0.355627 0.15345083 0.21474852 -0.74671227 -0.71425927 -0.49210307
738 -0.18969128 -1.8532794 0.58535355 -0.34383836 -0.07947746 0.009042331 -0.048573665 -0.16374074 -0.74676454 0.35006523 0.11674098 -0.7249377 1.8035537 -0.5374445 0.77991486 0.4654467 0.6455161 -0.9733918 0.25525892 0.5741999 0.99549204 -0.3873744 -0.2581482 -0.53923404 -0.35987335 -0.15982512 -0.19791526 0.35523593 -0.56116617 0.4677685 -0.25168264 0.4851297 0.29933652 -0.773378 0.8942418 0.7159227 -0.9655523 -0.79288304 1.1005664 -0.49574625 0.3829072 -0.68422943 0.69035715 -0.0043684524 -0.12802741 1.2421628 0.3061198 -0.022125991 0.26664525 0.09519044 1.072011 0.6726087 0.07978143 0.5459273 -0.62324524 -0.05455484 0.035304412 -0.56480056 1.563237 -0.51339835 0.5057656 -0.1525682 -0.31798315 0.088390864
133 -0.14897627 -0.5614576 -0.02672967 0.62209076 0.73543113 -0.20632717 0.23171063 -0.33985 -0.59272295 0.16932356 0.6289879 -0.4362966 0.5649771 -0.41178688 0.12895544 -0.3519177 0.30168965 -0.2795497 -0.4913158 -0.07879801 0.19037071 0.25309297 0.04044345 0.12054115 -0.360309 -0.19918041 -0.39254394 0.4689482 0.26955816 0.08919588 0.11558684 0.6016821 0.0054687583 -0.027202593 0.20167899 0.58637667 -0.87654823 0.506212 0.3945985 0.3150199 -0.6104635 -0.9983549 0.8310499 0.294902 0.3221423 0.14852571 -0.4716326 0.014014641 0.75240314 0.0028046323 0.5663446 0.4295786 0.33945426 0.3902913 0.19406253 0.28641787 0.24705425 -0.37012485 0.8510991 0.7483328 0.3683569 -0.4171327 -0.2939024 -0.07319339
1233 0.18792684 -0.24429622 0.23547205 0.52803046 0.3228538 0.0822666 0.4749636 0.09149801 -0.9971977 -0.05302487 0.13231856 -0.11843963 -0.4883635 -0.1355839 0.527427 -0.5116529 0.33706838 0.6600058 -0.30301166 0.60615164 0.4330959 -0.37553662 0.41719753 -0.2968354 0.23360775 -0.14652948 -0.33773074 0.3989369 -0.5252386 0.4216458 0.33333245 -0.04890615 -0.18376487 -0.59322596 0.33066666 -0.42478368 -0.44618377 0.14028685 0.55332446 0.25601158 0.51684445 -0.29835898 0.3131237 -0.17983544 0.23053513 0.0490704 0.26754665 0.9506022 0.63567215 0.76585096 -0.085327625 -0.47368902 0.9387745 0.76609045 0.055840105 -0.94644535 -0.28087646 0.17477944 0.61689407 0.08175416 0.16320312 -0.50693357 0.059824172 0.15049458
894 0.55961937 -0.017785236 0.030588899 0.353398 -0.61455995 0.76313543 0.2335382 -0.04420929 -0.014309313 -0.5963564 -0.43790695 -0.17568225 -0.30627367 -0.17937073 0.047882494 -1.0940825 0.28586373 -0.042174157 -1.0329517 0.18494077 -0.55413234 0.6109672 0.8235731 -1.2596103 -0.4602519 0.7551893 0.2765519 0.056138795 -0.8800603 0.8619631 0.35745966 0.52745426 -0.09742864 -0.6784257 0.41353273 0.10363132 -0.75659883 0.035327025 -0.24445882 0.6824526 0.6156133 0.5274284 0.08913805 0.20686935 -0.7282209 0.015977219 0.32700124 0.45702755 0.7704287 0.12571032 0.5051885 0.04703848 -0.013539683 0.59988266 -0.19831991 0.30069575 -0.15320265 -0.49215218 0.07920559 0.31459975 0.24974266 -0.65802395 0.45836017 0.17463262
1248 0.6190085 -0.13679291 0.11147245 0.2771843 -0.13268732 -0.38664207 0.256402 0.34750322 -0.97465765 0.29026496 0.099077635 -0.1417592 -0.10326203 -0.099726744 0.40576532 -0.24162073 -0.029262867 0.6762519 -0.4790734 0.318414 -0.17195715 -0.70525676 0.6602453 -0.3243136 -0.071180806 -0.22645174 -0.63914484 0.5848413 -0.553538 0.60899407 0.3857125 0.05807854 -0.33996823 -0.78969437 0.071444206 -0.5706235 -0.77445334 0.27552134 0.19462536 0.10165162 0.36044654 0.052113727 0.5394009 -0.19254987 0.14911664 0.13047816 0.27838406 0.78098834 0.49480596 0.9687582 0.06313909 -0.39758736 0.5850339 0.85578465 0.04266659 -0.8955261 0.19665986 -0.21703662 0.47668365 0.28665105 0.22896834 -0.30663732 0.23465055 -0.45012903
47 0.37663898 -0.51994777 0.4319214 0.134643 -0.68319315 0.5754142 0.014363532 -0.40285492 -1.039197 -0.21788932 -0.5633419 -0.31032676 -0.88560706 0.033286635 0.4361383 -0.22037573 0.6055702 -0.22479191 -0.95191926 0.37031898 -0.12865986 -0.40131047 0.931079 -0.15658899 0.6138602 0.9013948 0.18956284 -1.2319661 -0.04638781 -0.052889396 0.37578058 0.82331425 0.13064069 -0.14693323 -0.57219356 -0.57765305 -0.74909395 0.7355122 0.17864884 -0.11125261 0.4906028 0.23373696 0.19877262 1.1323934 -0.84643483 0.3038072 -0.09721126 -0.030045137 0.83695644 -0.020279355 1.0724329 0.6000878 -0.35869986 0.80303794 -0.96858513 -0.6601201 -0.5472925 -0.14655802 0.15087241 0.9254942 -0.014735027 -0.2550311 -0.95085 0.28226104
103 0.56360716 -1.2854611 1.0723892 1.2977141 0.4187159 -0.22782516 0.030529547 -0.5354011 -0.42416745 0.9295003 0.9022261 -0.7053781 0.5164061 0.09704576 -0.080184445 -0.30923557 0.73963076 -0.5863098 0.00071116467 0.12635161 0.18086672 0.7203274 -0.15805906 -0.31198698 0.72328067 0.12194005 -0.2755128 0.079746366 -0.036579203 0.5673401 0.390722 0.16694944 0.3648279 -0.102463566 0.80621195 0.42400372 -0.19039604 -0.0147351045 0.8881303 -0.673183 0.33396733 0.11853691 1.0415637 -0.5108962 -0.004716243 -0.29073218 -0.8904496 -0.58876586 0.47832617 -0.4111373 0.85905683 0.8904829 0.5190101 0.8194172 -0.29018277 -0.5776164 0.26771566 -0.34866264 0.43525666 -0.86204726 0.48003846 -0.097266726 -1.0161724 -0.12747143
706 0.2510254 -0.96773154 -0.054525465 1.2108687 0.64576966 0.06307364 0.29141203 -0.065527126 -0.59067154 0.06329786 0.5870528 -0.5010481 0.19408679 -0.11393283 0.61917233 0.03806617 0.32370022 -0.68529695 -0.7629751 -0.14922075 0.119938 0.104982674 -0.2903417 0.23094706 -0.3202313 -0.62304246 0.4028994 0.7984359 -0.14906305 0.16310519 -0.36637494 0.64287305 -0.112932116 -0.5916059 0.26161402 0.46122187 -0.6872794 0.4011601 0.27354676 -0.06079916 -0.82913655 -0.7397609 1.1856401 0.04394932 -0.34157646 -0.14410102 -0.6623708 0.3203279 0.5548586 0.03563502 0.7190907 0.97040737 -0.112888075 0.5045127 -0.1666911 -0.48308435 -0.40899995 -0.39564198 0.49241123 0.050415277 0.2052021 -0.84833914 -0.2037303 -0.25582665
1372 0.77098733 -0.26327196 -0.080008045 0.3843589 0.065438226 0.38212442 0.7816127 -0.08983648 -0.22742192 0.25464234 -1.1734731 -0.9286835 1.3895566 -0.131166 -0.61166847 -2.2377453 1.1114036 -0.068282016 -0.1401338 0.18069226 0.17402989 0.06378741 -0.037167072 -0.15440828 -0.8571095 0.7873956 -0.68116105 0.0884838 0.38769794 0.27071506 -0.45242718 0.36132908 0.33212322 -2.5596235 0.04348837 0.15471068 -0.31837738 1.6237693 0.65138733 0.39791828 0.5489219 -0.113809995 -0.23085783 -0.3645359 0.5670369 0.1107299 0.9237393 0.32672545 -0.75864244 0.5214005 0.8123963 0.28931063 -0.3330809 0.6785561 0.39579087 -0.7259028 -0.123184055 0.23292956 2.1856089 0.5196762 0.13097043 0.39819652 0.8561333 -0.63555354
1557 -0.17287457 -0.29404724 -0.23414299 1.5442709 -0.3561203 0.20824078 0.26126486 -0.59582275 -0.35449716 -0.19817315 0.38572946 -0.55692023 0.33258048 -0.8010998 -0.9144863 -0.24586669 0.67461914 0.26319522 -0.6477141 -0.8049448 0.4316666 -0.27464178 -0.22597422 0.23613796 -1.0611613 -1.2295845 -0.7259917 -0.124000765 0.044942085 -0.080310404 0.6014651 0.7692852 0.8084734 -0.8239089 0.19922003 0.3518301 -0.16810286 0.5951399 0.39038706 0.3548838 -0.27659455 -0.674523 0.15724756 0.4088184 1.3152583 1.027543 -0.4118321 -0.3222663 0.3846522 -0.3542058 1.2161012 0.6567104 0.24851257 -0.055783 0.47909606 -0.20807226 0.327275 -0.31778967 1.123913 1.3253434 -0.12093997 -0.5005406 -0.31271908 -0.7366965
48 0.43887055 -0.027279625 0.94945705 0.5185493 -0.7123536 0.019578844 -0.4283358 -0.3924661 -1.0505526 -0.47465554 -0.57482374 0.7249096 -0.5840521 0.074005775 -0.13993226 -1.0134848 0.94366854 -0.4182002 -0.63283503 0.40902373 -0.61247855 -0.14233677 0.18847048 -0.3675729 0.37566343 0.5691346 0.62857187 -0.4075354 -0.4004849 0.2994451 0.52944314 0.11874559 0.17419764 0.012413594 -0.49635485 -0.30891466 -0.44172138 0.90128106 -0.17262858 0.4303753 1.2901292 0.1341969 0.31921396 1.2566733 -1.1233552 0.025865916 0.10034603 0.23366679 0.3807833 -0.21699837 1.2620188 0.6077916 0.3937374 0.83446205 -0.56855375 -0.26792255 -0.35159236 -0.41784233 0.6211674 0.40231413 -0.49050644 -0.02590972 0.118955664 -0.20958555
854 -0.12851246 -0.88719857 0.06463003 0.011159483 -1.0369067 0.49712595 0.78120285 -1.2059091 0.14133772 0.004326373 -0.4613713 -0.5365919 0.21821435 0.55760515 0.2505544 -0.09213846 0.4063927 0.6448642 -1.6678416 0.04832789 -0.10322443 -0.4113012 -0.2616367 -1.2921567 0.099623255 1.4925283 -0.34325206 -0.32343015 -0.3760543 0.7802591 -0.21738583 1.9016031 -0.22622992 -0.8561511 0.18041149 0.22637177 -0.63460976 0.15778922 0.47330895 -0.8299706 0.28369373 -0.16307239 0.09587349 0.24765444 -0.4957394 0.47537503 -0.104984395 -0.3470391 1.0312083 0.32315958 0.3131013 -0.4507941 0.5045951 1.1673995 0.19876415 0.48113424 -0.87904894 0.050142236 0.0829713 0.67417854 -0.13118866 -0.88750786 -0.31039557 0.511805
1471 -0.1281307 0.101910904 0.34707177 0.7988219 -0.32024312 0.96118796 0.34861878 0.0269728 -0.08017623 -0.49561918 0.10561579 0.018626329 0.8550274 -0.28336877 -0.2155034 -1.5554918 0.55826443 -0.35138273 -1.3843932 -0.07998459 -0.5606533 0.35664326 0.62442964 -0.74337304 -0.06929123 0.17731756 -0.35059956 -0.25614116 0.23161481 0.3047639 0.06984567 0.81379503 0.11988489 -1.4689261 0.1345218 -0.032318886 -0.98174703 0.030645944 0.31032363 0.46402696 0.36116585 -0.02378527 0.8456815 0.57379997 -1.0923895 0.44281316 -0.24630384 0.0487032 1.2494004 0.6849172 0.14963995 0.61039585 -0.27547225 1.5636877 -0.80940175 -0.03529231 -0.43113825 0.693599 0.7989884 0.43282852 -0.27937576 -0.53166264 0.25069597 0.21256927
702 -0.0036107188 -0.69519407 0.06935427 0.3980226 0.5764553 -0.06402493 0.18379459 0.2421862 -0.8180221 0.29665732 0.8225137 -0.82715964 0.84832275 -0.8173394 0.16754004 -0.39024073 0.5021403 -0.6883156 0.21941905 0.15766792 0.3752163 0.49352723 0.09162487 -0.24679129 -0.44769257 -0.24898054 0.80899864 -0.48597446 -0.2789673 1.1264386 0.32847425 0.1739962 0.57518554 -0.015198435 1.0424191 -0.07046742 -0.60357755 0.063335404 0.013879713 -0.56358135 -0.13029906 0.11875643 1.2782189 0.3066738 0.19535108 0.41761303 -0.29379553 -0.12039153 0.71196103 -0.122270614 0.2004226 0.76978993 0.45333764 0.7331694 -0.24512255 -0.047282588 -0.41223356 -0.55747026 0.6110418 -0.064128794 0.036129 -0.22625493 -0.07279623 -0.32986477
710 -0.2791111 -0.9934373 0.44757825 0.9870059 -0.65865475 -1.3678701 0.50616187 -0.8019547 -0.38939297 0.77007127 -0.702162 -1.7172495 0.9092682 -0.8300387 0.40409192 0.33132628 -0.03918693 -0.0646321 0.27082726 0.4095745 1.566648 -0.37066504 -0.35776195 -0.28184077 -1.921618 0.20600462 -0.68644613 0.3150384 -0.6578363 0.65588385 -0.44548798 0.5756904 -0.45392674 0.17234252 1.0911032 0.44502756 -0.28736427 0.36352667 0.73160803 -0.7050995 -0.21352848 -0.50222033 0.87745893 0.5749881 0.104604356 0.8295505 0.42733437 0.37071434 1.2410367 0.0034497883 0.3298752 0.9878648 -0.11181737 1.6560041 -0.60754436 -0.7100174 -0.42399246 -0.33904934 0.16334534 -0.5386453 0.60428065 -0.42225516 -0.06681836 0.048983227
689 -0.08515813 -0.8729343 0.102708876 0.6633856 0.065507434 -0.6614548 0.38575298 -0.6770626 -0.47601 -0.39474306 0.36222923 0.08781777 0.15733941 0.31740496 -0.3734238 -0.2665422 0.43656152 -0.5711274 -0.6615426 0.90483975 0.813324 0.42070502 0.28023598 -0.94143355 0.23296107 -0.25532365 0.81413615 -0.2583643 -0.5386158 0.15883867 -0.01372164 0.22823334 0.1465452 -0.3625587 0.32971615 0.5608921 0.13050282 0.38552865 -0.21597432 -0.88538474 0.94483185 -0.9160843 1.3376788 0.4373974 0.111404404 0.43287086 -0.31444556 0.43066904 0.34201604 -0.22727454 0.10982938 0.45649582 -0.32734215 0.7807221 0.6797873 0.019060882 -0.26666602 -0.30488032 1.2790726 0.38535905 0.6529683 0.036248736 -0.17567699 -0.24302463
1251 0.75494224 -0.67404175 0.6803694 0.34163213 -0.19227861 0.14724492 0.371216 0.42332575 -0.8440489 0.2830048 -0.0800572 -0.07047208 -0.22084661 -0.18265468 0.23952013 -0.3061445 0.19600451 0.25422803 -0.25530759 0.3679867 0.29833028 -0.70357335 0.55297375 -0.47440544 -0.037080195 -0.027709467 -0.5135121 0.46236625 -0.797167 0.44162738 0.55800754 -0.024976717 -0.3797234 -0.25253457 0.1114803 -0.45179662 -0.9099407 0.2551069 0.19617224 0.32090145 0.6384677 -0.47581187 0.30089033 -0.18941355 0.35071346 -0.02796273 0.25170586 1.2304059 0.59025097 0.3064347 -0.025554232 -0.24315113 1.0003664 0.56461835 0.30522063 -0.6211546 -0.09448902 -0.24906772 0.68689907 -0.06869359 -0.07276841 -0.01394946 0.07183954 -0.45017937
219 0.36978716 -0.018776877 -0.088793054 1.4056004 0.30385867 -0.3609608 0.83312654 0.25478664 -0.34754944 0.9179864 0.44738898 0.48712167 0.99896044 -0.090937175 -1.4485828 0.20797592 0.31950822 1.001508 -0.98361176 0.33416995 1.3436697 0.15458626 1.0535381 -0.47552675 -0.09656249 0.6449871 1.3629181 -0.44301257 -0.71270466 -0.4861279 -0.33910957 1.3566457 0.18607706 0.1128099 -0.12728937 0.5825909 -0.48449168 -0.099107146 1.8407098 -0.040929735 0.8355988 -0.7722068 2.1502726 0.68934745 0.46660507 -0.87741995 0.42594656 0.77641976 -0.0043795886 -0.17548089 1.073302 0.9343886 -1.1047753 0.3384969 -0.3356585 -0.75297356 -0.39353532 -0.0738716 1.407539 0.10371768 0.9455473 -0.68170214 -1.4469813 -0.33423105
1386 0.67560744 -0.36735624 0.2737691 1.5350512 0.08774974 0.09171274 0.024956578 1.2300256 -1.3515489 0.50454295 -0.65893894 -0.058163036 0.55391264 -1.1528025 -0.41104496 0.11731722 0.24417606 1.0331181 -0.4219638 0.9241213 1.173546 0.76420283 0.72405505 0.5025065 -0.7718508 0.6399159 0.03222122 1.14048 0.88094366 0.44905788 -0.20312601 0.6598598 0.05868247 -0.7522715 0.5135197 0.70782477 0.58987755 1.3757786 0.21740273 0.2512278 1.0970311 -0.9128221 -0.047546852 0.9469051 0.3813804 -0.51353586 1.1222469 0.66966623 -0.08414518 0.22322486 1.4210472 -0.44104692 0.30035195 1.286572 -0.49813327 -0.781281 0.82759637 -0.95762336 1.3129416 -0.7484307 -0.40520802 -0.40596566 -0.42077187 -0.84252256
1353 1.0583193 0.014242215 0.016554622 1.2155402 -0.69352967 -0.84292895 0.714516 0.31546834 -0.8439977 0.8172951 0.09087094 -0.024511322 0.8774349 0.29117033 -0.33182022 -1.0803968 0.9840383 1.1945873 -1.1624912 0.21436098 1.2891208 -1.0046307 0.74474156 -0.17805836 0.10543312 1.14353 -0.3663213 0.6435513 0.5709252 0.51949227 0.14684089 -0.017789496 0.8549735 -1.2792032 1.0788381 -0.09399841 0.7016194 -0.1561412 0.7177688 -0.85262245 0.4866963 -0.123906665 -0.037575085 -0.07054077 -0.5336722 -0.33497757 1.4668914 0.28032774 -1.3019031 -0.77249163 0.9077168 0.03389069 0.37057707 1.4314483 -0.17992917 -0.49155784 0.9803209 -0.29625493 1.6063795 0.005578222 -0.26586437 -0.15731221 -0.43806726 -1.0026982
1238 0.77498776 -0.5821296 0.16438979 0.74765325 0.21347797 -0.1648787 0.68972677 0.085601926 -0.6168999 0.40583047 0.13964538 -0.093881845 -0.22328293 -0.18982907 0.6109572 -0.33809528 0.36875096 0.2870181 -0.3007983 0.49695 0.066077664 -0.77187455 0.53106314 -0.35253593 0.063805684 -0.17180492 -0.9865354 0.57405823 -0.7538542 0.40593493 0.25321352 0.19282298 -0.43928927 -0.5317733 0.5815522 -0.21510068 -0.5164632 -0.23098779 -0.12455526 0.16708577 0.48909125 -0.20134269 0.11472028 -0.027090678 -0.031508736 -0.115229785 0.15473409 1.2658762 0.108056 0.5355197 -0.092357494 -0.28262413 0.7772933 0.5939701 0.1769729 -0.7426403 -0.21583605 0.043451723 0.65348375 -0.020349199 -0.10437667 -0.39530745 0.09236446 0.258563
1435 0.08439395 -0.18287142 -0.0123863425 0.52552134 -0.4641696 0.579807 -0.0045444304 0.1844985 -0.15197444 0.3113649 -0.09161253 -0.079907015 -0.2947448 -0.584888 0.15113004 -0.6482892 0.7827737 0.30765593 -0.9586163 -0.43442217 -0.13016957 0.30907947 0.14244564 -0.017008051 0.03216228 1.1049107 -0.517431 -0.14491671 -0.54010665 0.27018812 -0.5164725 0.78472406 0.9066571 -0.1263851 -0.37228855 -0.3054521 -0.033197742 0.23852123 0.20669398 0.80173403 0.6880816 -0.6292298 0.028105123 0.2648666 -0.19478905 -0.23098232 -0.658226 0.65209126 0.19303857 -0.22708017 0.07994275 -0.005334244 0.25876057 0.80303705 -0.07211906 -0.1529798 0.43471146 -0.12789233 0.35287568 1.0128276 -0.13154408 -0.21936338 -0.040971786 0.10784936
1352 1.2212628 -0.045155037 -0.2912034 0.46368933 -0.28389668 0.025507465 0.34249872 0.49563098 -0.15056431 1.5446678 -0.47836804 -0.35368136 0.31039998 0.41449425 0.56112146 -0.7907452 1.2456374 0.43849963 -1.2310423 0.8017628 1.0911714 -0.8521664 0.1772142 -0.27570423 -0.5353194 1.049069 0.08244294 0.5000828 0.39543128 0.44458094 0.18637367 0.00081602216 0.65782 -1.4817802 -0.24365187 0.028168371 0.7279885 -0.112883344 0.48234338 -0.72271 1.0457325 -0.38534626 0.50554836 0.39861593 -0.53470945 -0.27885914 1.2596171 0.4503944 -0.9039782 -0.65084255 0.62144333 0.45792878 0.16081063 1.1083503 0.42271456 -0.8110147 0.4207723 -0.8509556 1.8042054 -1.2257793 -1.1278286 -0.18285418 -0.74908483 -0.45142642
167 0.5013231 -0.60896105 0.7334094 0.95482343 0.7303604 -0.41668415 0.6631304 0.08669748 -0.22495429 0.6451511 0.90298766 -0.9137843 0.1819581 -1.0698144 -0.9173608 -0.6106546 0.3763074 0.08278751 -1.198773 0.26439378 0.73191386 -0.38479614 -0.5250501 -0.089873835 -1.226407 -0.9701789 0.2424521 0.18112244 -0.21902168 0.33638838 -0.52384907 0.1329847 0.3220027 0.83687264 0.9048495 0.17977047 -0.009563745 0.33735314 1.0955817 0.19774295 -0.86909175 -1.6195832 0.6617907 -0.027454251 0.25243983 0.6167992 0.03936161 0.7966493 0.7504526 -0.19429551 0.65802985 0.76792467 0.38157564 0.27942148 0.04842795 0.35771793 -0.3896106 0.2184283 0.6994871 0.8692774 -0.07057716 -0.60610336 -0.74689794 -0.36923862
1393 0.9887513 -0.9331617 0.02730703 0.33827528 -1.1855743 0.101870194 -0.17709269 0.2519878 0.26353195 -0.071209945 -0.39770326 -1.3346937 -0.10006617 0.8663009 -0.3227253 -1.4725884 1.6746486 1.5741248 -0.84621716 0.44517046 0.7667196 -0.007689942 1.2536007 -0.6849023 -0.483145 -0.5176582 -0.059281405 0.28227183 0.83393496 1.1292877 0.1812407 0.18450592 0.0069660796 -1.0753784 0.12620594 -0.30741304 -0.24238952 0.7391384 -0.0832338 0.5152239 0.41622576 -0.439158 0.20571622 0.34292436 -0.17269203 -0.27301624 1.0210292 1.0662599 -0.49872434 -0.35464308 0.3689991 -0.053095113 -0.47883046 1.4401176 -1.172724 -0.9325487 0.3336672 0.166396 1.1622707 0.75921905 -1.1852119 -0.7248463 0.13646497 0.08307944
687 0.136798 -1.1523442 -0.09129341 0.5604557 -0.055897184 -0.10278056 -0.39531976 -0.2595871 -1.3047208 0.16903949 0.8741648 -0.622733 0.86475587 -0.6339859 -0.04109884 -0.19435956 0.64690006 -0.38175353 0.6355009 0.34276098 0.34169775 -0.34576562 0.67172927 -0.37037277 -0.7428318 -0.38189054 0.4758489 -0.1008228 0.0058979196 0.88563234 0.11095435 0.28053573 0.23904006 0.027362013 1.3648283 0.122066446 -0.04019116 -0.09197001 0.16976362 -0.57879037 0.0074094813 -0.5485588 0.90069646 0.4270883 -0.7576838 0.18894576 -0.5009889 0.37047574 -0.0041790167 0.13611034 0.2294851 0.65490526 -0.1072872 0.64491916 0.15638323 0.2190122 -0.20212309 -0.31434134 0.39458373 -0.12206644 0.852621 -0.504361 -0.6449987 -0.37591726
1470 -0.25484586 -0.5417544 -0.106060006 0.58036005 0.036373 1.1364799 -0.105730474 0.10041311 -0.023438105 -0.3652153 -0.22803412 0.098519005 0.69691896 -0.6963293 0.08371003 -1.6227657 1.6221905 -0.37704918 -1.4537224 -0.02290867 -0.6128287 0.61059266 0.8446939 -0.8044439 -0.23262303 0.19959438 -0.20646445 -0.17866917 0.09534734 0.25700608 0.08716621 1.0176643 0.031440504 -1.5517262 0.27472132 -0.0011726577 -1.1368408 0.030965751 0.16276856 -0.36151975 0.5543136 -0.24168818 0.5984303 0.7168826 -1.6775545 0.27843705 -0.29234356 -0.07733756 1.0568045 0.4996484 -0.1322509 1.0918732 -0.5143253 2.0809035 -0.9600057 0.44163865 -0.036833797 0.8863669 0.7568675 1.0722334 -0.343174 -0.40544903 0.71229345 0.27766973
1439 0.38095704 -0.29167113 -0.061944302 0.428404 -0.2752852 0.52476823 -0.05782383 0.21108559 -0.21542543 0.40953332 -0.09313596 0.016803674 -0.12732956 -0.58034986 0.21522553 -0.90131354 0.6608259 0.25465375 -1.0872797 -0.24194288 -0.06190815 0.31447756 0.091623545 -0.06991866 -0.11812244 0.8475849 -0.5860684 -0.317715 -0.7730779 0.27773467 -0.6609115 0.47969368 0.5084118 -0.14065826 -0.3483234 -0.140676 0.16240792 0.24961057 0.42742524 0.741539 0.94320345 -0.22950457 -0.054497596 0.23112999 -0.3156222 0.16325745 -0.6222484 0.36477166 0.13223241 -0.1555121 -0.037886444 -0.00030860963 0.14012283 0.98163146 0.0010620323 -0.2081992 0.5123375 -0.25351274 0.5500747 0.7441458 0.026979232 -0.21935198 -0.070876926 -0.0060230927
1444 0.34735757 -0.24016994 -0.16083412 0.47299013 -0.29458004 0.39611253 -0.23007138 0.44577268 -0.098427884 0.17072223 -0.049545124 0.19486035 -0.05246616 -0.8128372 0.2603913 -0.9231789 0.6709931 0.18703511 -1.1452124 -0.33019844 -0.10058131 0.38064107 0.07434057 0.037223022 -0.09838779 0.8115315 -0.97009355 -0.5018528 -0.75593126 0.028228289 -0.6025963 0.6069469 0.40248674 -0.19083773 -0.32642198 -0.022487441 -0.18370534 0.37606633 0.36535224 0.79212266 0.8944274 -0.2668542 -0.084294915 0.2881748 -0.49037158 0.017922914 -0.3647475 0.46296448 0.11516824 -0.23650998 -0.095048614 -0.34044263 -0.002132597 1.0330175 -0.01009877 -0.08850491 0.511496 -0.40625414 0.52139336 0.76291424 0.05227325 -0.21097818 -0.103531845 -0.018296283
1429 0.33091062 -0.063193455 0.051141296 0.7030116 -0.35922816 0.58750856 -0.04484066 0.36795264 -0.40553242 0.10183179 -0.16393954 0.491162 -0.27325526 -0.5820695 0.07073491 -0.9559083 -0.14465375 0.48779762 -0.47994918 0.01073827 -0.011741036 0.2667742 0.17711277 0.19388008 0.03720202 1.2063572 -0.3806059 -0.4416175 -0.9675333 0.6839898 -0.42792788 0.78754 0.6492691 -0.23442616 0.08545365 -0.14476788 0.25282747 0.22095104 0.56775564 0.5219398 0.15138797 -0.48171058 0.33314013 -0.06662083 -0.7958608 0.011474496 -0.34486976 0.327114 -0.16862458 -0.05659847 -0.105723925 0.3440834 -0.05826931 1.362748 -0.02233181 -0.05729896 0.60030437 -0.7764989 0.5537676 0.8716275 -0.35183093 -0.3395531 -0.08487458 -0.2425125
855 0.16293158 -0.1956626 0.12338187 0.4110833 -0.7230357 0.009646051 -0.45725176 -0.5105758 -0.13585404 -0.63447696 -0.5928392 0.5525336 0.0727569 0.7495658 -0.57462656 -0.7186636 0.54265845 0.3650208 -1.3675834 0.36288765 -0.117525645 0.046059586 -0.26561394 -0.980592 -0.5555487 0.9850719 -0.01612109 0.59485316 -0.78943664 0.82482094 0.061156485 1.071016 0.19710337 -0.39783472 0.14851491 0.227031 -0.17430134 0.7212899 0.44037735 -0.05533756 0.6050428 -0.0069122463 0.35638502 0.26148656 -0.6415792 0.18658134 -0.23574851 0.12175351 0.65969604 0.35532415 0.44203335 -0.52359647 1.0945828 1.2077174 0.34083697 0.5760316 -1.2287325 0.25972787 -0.03223863 0.6234028 -0.08659955 -0.36333808 0.91396976 0.3868315
1431 0.60708046 -0.14476886 -0.568934 0.54097426 -0.12081761 0.2885321 -0.64253646 0.20508875 -0.19402458 0.14419538 0.35404596 0.0622849 -0.22419551 -1.0118339 0.44364008 -0.88641506 0.47892812 0.5295542 -0.6832037 -0.4283189 0.24025701 0.4008921 0.2245598 -0.2600244 0.10619083 1.0051724 -0.3170534 -0.2918573 -0.98036873 0.3419593 -0.4965884 0.64478266 0.31178233 -0.1533717 -0.10287137 -0.1998314 0.03353411 0.2873519 0.4546341 0.49297237 0.7619225 -0.31398964 -0.1519132 0.3969782 -0.50471026 0.22602578 -0.39120454 0.12825066 0.084949836 -0.090117365 0.044488996 0.5245949 0.29379994 1.3385115 0.051828645 -0.12703754 0.48132583 -0.5379718 0.66145194 0.58449554 -0.25995103 0.06282439 0.027385838 0.12379033
1373 0.6077001 -0.29904625 -0.13360174 0.17812003 -0.12301852 -0.37823796 0.58301294 0.627641 -0.5313341 1.4944346 -0.5422964 -0.45422432 0.3982644 1.251943 -0.7555219 -1.6231991 0.29892775 1.529478 -1.1920041 0.66155005 0.5377984 -0.56237143 -0.44108716 -0.5407857 -1.0418947 1.2134148 -0.73305327 -0.8765434 -1.0823617 -0.21013294 -0.35224777 0.18735448 -0.10903352 -1.4779019 0.21656181 0.07282963 -0.82524794 -0.4625749 0.581626 -0.44646075 0.39269137 0.5895946 0.29127792 -0.37772697 0.5637387 0.04744586 0.82306546 0.47572857 -1.0382109 0.17434329 1.260961 0.72093177 0.084830746 0.98765504 0.053587154 -1.922676 0.37601286 -0.793291 1.2311018 0.44001237 -0.8614369 -0.30777225 -0.02656191 -0.02213023
1566 0.5844091 -0.13192832 -0.89059013 1.5915402 -0.7162742 0.27472642 0.12821867 0.40486574 -1.0016047 0.5315988 0.0041426127 -1.1630069 -0.5172229 0.17796488 -0.32713518 -1.1040928 1.0789803 0.7607427 -0.7574307 0.8026199 0.90171516 -0.7045875 -0.38836136 1.4332206 -0.61688167 0.5403421 -1.1522651 -0.6197844 -0.07611478 -0.487307 1.3967003 -0.12379348 0.46949697 -0.38534242 -0.73222417 -0.7694351 -0.86667705 1.0645909 0.06498277 0.35197616 -0.49498177 -2.0312877 0.029639132 -0.73065156 0.093527116 0.6814099 -0.017555447 -0.06892615 -0.057599586 -0.016446987 0.51883745 0.42040062 0.26777765 0.011593667 -0.26362458 -1.1531926 0.39839116 -0.43257028 1.6306148 0.5500011 -0.10490525 -1.3496972 0.5203915 0.25867897
934 0.32992736 0.2573003 0.44231924 0.6050478 -0.6828426 0.72587883 0.44163737 0.07288075 0.1903864 0.020229632 0.04593623 0.14710012 -0.15922211 -0.21820089 0.24427891 -1.0802468 0.051954694 -0.041328773 -1.3433641 0.05984751 -0.9342563 0.82182074 0.082913 -1.0667902 -0.41088396 0.50268686 -0.09134455 -0.25873682 -0.58494955 0.16915765 0.059336282 0.27393422 -0.37069094 -0.46944773 0.15979275 0.2712056 -0.48843154 0.33439094 -0.509606 0.44999743 0.7116628 0.40771896 0.013179371 0.60518134 -0.96894675 -0.39186612 -0.02826783 0.5565052 0.43990198 0.1797598 0.7612004 0.3810561 -0.19478601 1.3796978 -0.59086233 -0.035169784 -0.1595201 0.21592101 0.81908166 0.346178 -0.1527059 -0.57955706 0.441336 0.08707213
1380 0.93589866 -0.8026475 0.045498997 -0.120321676 -0.2404937 -0.33180434 -0.7530019 0.082774274 -1.0629189 0.20697926 -0.7086606 -0.7177703 0.78849393 0.86568725 -0.47514826 -1.5887141 1.6720208 0.63512266 -0.5056578 0.66249293 0.094728276 0.47732264 -0.016794026 -0.09244474 -0.6494951 1.2570299 -1.33819 -0.45472088 -0.051478356 -0.113163576 0.03755322 -0.1026699 0.076175585 -1.5185714 0.5092143 -0.93920493 -0.25541294 0.9273154 0.7753463 -0.027788136 0.64531535 -1.0108508 0.6703527 -0.9436158 0.5374802 0.46381366 0.9189597 1.0558642 -1.6939634 -0.6356613 0.98924476 0.014494416 0.10117735 0.6926136 -0.5852945 -0.57281405 0.3686653 -1.4395916 0.95855826 -0.03893984 0.34152922 -0.8456115 0.38541803 0.3698408
1484 0.346396 -0.9486309 0.7142522 0.3685573 -0.30627233 -0.16086261 0.09706195 -0.20952855 -0.9324 0.7883792 0.0976187 -0.9039954 -1.3837421 -0.88470674 0.2986469 -1.1965615 0.035144776 -0.6887473 -0.94269747 0.4562045 -0.36904672 0.11934155 -0.25753725 -0.55747545 -0.6381406 0.8161047 -0.051381312 -0.8029592 -0.52157426 1.0296186 -0.42512524 0.20346007 0.5532838 0.5527022 -0.24472243 0.012101652 -0.9147975 1.1341333 -0.27033147 1.4405586 0.42844948 -0.09467946 -0.56297165 0.29116 -0.2682384 0.12537746 0.058534175 0.17924848 0.16455887 -0.33611172 1.8862065 0.87573344 -0.75254637 -0.24824214 -0.7437442 -0.37325343 0.25997472 -1.1677319 1.1420535 0.89821625 0.1856768 -0.33477658 -0.15335464 0.6931606
718 0.2995207 -0.7580024 1.5465384 1.2170796 0.5939389 -0.23318806 0.08147888 -0.31859967 -0.55222034 0.38885874 0.21098387 -1.006606 0.9026701 0.36950058 -0.5790219 -0.36766332 0.9672911 -0.4461415 0.014677278 -0.2297225 1.0411143 -0.48183596 -0.066255316 -0.5834906 -0.06824713 -0.27041075 0.5076032 0.38602257 -0.8054254 0.47343972 -0.47543538 0.0025263638 0.5207313 -0.134909 0.6791853 0.3599126 -0.38389546 -0.20071225 0.9745849 -0.44224977 -0.32538375 0.502018 0.69825375 0.4540088 0.28515348 0.24540736 -0.76183856 0.31336367 0.44245744 -0.25865942 1.369826 0.8320765 0.78242445 0.68476635 -1.316342 -0.7957247 1.1682683 0.12636998 1.389425 0.10604974 0.71070826 -0.35692826 -0.3091451 0.07678119
1319 0.50811774 -0.688555 -0.04722888 0.58048046 0.5988196 0.36085004 0.99602085 -0.58208054 -1.2387906 0.18675768 -0.48922336 -0.52352554 0.6218291 -0.25293654 0.10062943 -1.3686237 0.06235618 -0.06272868 -0.08693876 0.71291834 0.93423235 -0.16637182 -0.51970965 -0.9886132 -0.96507293 -0.22928524 -0.6558451 -0.10510322 -0.3944102 -0.07892503 0.76857615 0.91814584 0.63294405 -1.7825617 -0.062412046 0.8575341 -0.037191335 2.0430784 -0.13785025 0.62850964 0.45978647 -0.6131584 -0.0378635 0.40420604 -0.5187955 -0.22749312 0.9014405 0.4990711 0.1910675 0.6425854 0.5510269 0.87931067 -0.8036555 0.8569536 -0.3907166 -0.79379845 -0.35509044 0.16477865 1.3416626 0.45810592 0.3878 0.4794445 1.095798 -0.78869426
1034 -0.6252155 -1.0171614 0.60304034 1.2640303 -1.0479977 -0.72238797 0.13236739 1.3396522 -1.0124686 -0.079938285 0.018040886 -0.6367505 -1.4449027 0.9780518 0.119383484 -0.46640217 0.39219183 0.07571275 -1.1003945 0.3683477 -0.64370835 -0.3681986 1.2663438 -0.5886962 -0.29320642 -0.4717658 -0.9043159 -0.19698384 0.6566269 -0.1712736 0.7992889 0.06833621 0.8872699 -0.4537005 0.39356613 0.20861387 -0.16054589 1.6760999 1.2086427 -1.1040964 1.3013707 0.04028751 -0.92181236 0.25007087 -0.27774173 -0.6604504 0.7947349 1.1922526 0.5080762 0.5565447 0.6986675 0.7757581 0.5611385 0.6310405 -0.36927408 -0.080586255 -0.41863364 -0.44793612 1.3630344 -1.034596 -0.6722563 -0.5836617 0.021881212 0.5368208
753 -0.1697592 -1.6612163 0.22003116 1.8805035 -0.22506793 -1.1142378 1.3782661 -0.6197463 -0.45057824 -0.523376 0.73814744 -0.8976687 0.7479387 -0.8948347 -0.05571904 -0.7698869 0.64613986 -0.5350324 -1.5845934 0.33809876 0.9185361 -0.727138 0.18590185 -0.82243437 -1.1721814 0.39229578 0.92320466 0.008093692 -0.039362904 0.13282716 -0.09446007 0.5442805 -0.1239358 -0.88747853 0.57123387 0.09525744 -0.9934317 -1.0426031 0.90426385 -0.6656822 -0.41197455 0.64818823 -1.1705756 1.0064237 0.23089878 0.3082369 0.022118265 0.09766405 0.30480427 0.6175076 1.538582 0.38727927 0.12005736 0.6883775 -0.2686736 -0.31311116 -0.11703362 0.4273171 0.48823297 0.7161089 0.7032516 0.24807322 0.30768704 0.17938785
107 -0.021353906 0.029593205 0.53535414 1.0453516 0.61176014 -0.14929669 0.098562784 -0.2353862 -0.7453896 0.18995094 0.3417909 -0.80746686 0.28693226 -0.14740093 0.68048716 -0.021109328 0.37287575 -0.52171135 -0.7560124 0.12219778 -0.38032997 0.037743863 0.4085229 0.47146386 -0.3317543 -0.28901273 -0.34584418 0.057261523 0.7260252 0.6643678 -0.14451382 0.41285133 0.22276102 -0.3617109 0.16496398 0.77965117 0.039992113 0.30792817 0.21341191 0.31248903 -0.38746205 -0.73602027 0.6502235 -0.022563318 0.8266041 0.17773779 -0.2828444 0.42815438 0.22970301 -0.027730294 -0.16034567 0.9634208 0.6626836 0.7393257 -0.29832846 -0.045268912 -0.02183774 0.029485332 0.938881 0.849524 0.19009145 -0.5509945 -0.9211088 -0.6296997
1339 -0.043180585 -0.09266583 -0.06666025 1.1325475 -0.49909043 -0.083168946 1.1024047 1.2719997 -0.16808125 2.1274824 0.64392346 -0.26067173 0.5694204 -0.23917322 0.23303851 -0.52155733 0.49534553 -0.7252511 0.96937007 -0.06847161 0.87274736 0.18996817 2.1736894 -1.109621 -0.8959962 0.656243 -0.5025984 0.18303378 -0.28631482 1.1643952 -0.17117026 1.0128927 0.7401444 0.15266004 0.14947534 -1.327146 -1.6175214 0.19339241 0.008409569 -0.35946393 1.0546864 -0.66632223 -0.5442474 0.36971593 -0.4142029 -0.51191694 -0.69674057 0.7017121 -0.030089691 0.4481026 1.2531624 0.4921303 0.044577435 1.354327 0.71736526 0.16884165 0.1776282 0.51178 0.35894156 0.06892954 -0.0792711 -0.29414722 -1.0313219 -0.39255738
1379 0.018850049 -0.36913887 -0.41484085 0.1175984 -0.28502288 0.042218685 -0.08958559 -0.053154804 -1.2790735 0.83756924 -0.8229942 -1.2133893 0.52851707 0.9083137 -1.0936625 -1.9305953 0.7872879 0.40285262 -0.20258129 0.6814619 1.3150524 0.78024316 0.23615058 -0.44790104 -0.13146207 0.5485322 0.38215655 1.1105658 -0.6866271 0.3291514 -0.13106583 0.31850338 0.86902004 -1.5892102 0.3791021 0.118413776 -0.74698764 0.62599015 -0.16381812 0.55198187 1.4882127 -0.17638399 -0.41260052 0.56962913 -0.26396295 -0.0016579826 1.093062 0.6154617 -0.23543698 0.08379513 0.4471999 0.2799351 -0.13219747 1.3644923 -0.4272573 -1.0328172 -0.010070707 -0.09122314 0.53830665 0.64682573 -0.08929393 -0.3716535 0.7034 0.12939428
1050 0.65852755 0.39493626 0.36397472 0.31883502 -0.017048573 -0.3417152 -0.0898858 -0.40800962 -0.6984966 0.17436616 -0.17313384 -0.26450625 -0.82338506 0.1108723 0.94178414 -0.5265584 -0.28048998 0.3850786 -0.34155828 0.5819126 0.8220215 -0.47131455 1.01167 -0.69680023 -0.4467725 0.5021152 -0.46801388 0.20504408 -0.2876567 0.8976144 0.14591789 -0.3211391 -0.21684885 -0.6216123 0.40796667 -0.02907746 -0.5451746 0.25069422 0.74642193 -0.10025098 1.1928649 -0.7908557 0.61052847 -0.0966688 0.011761014 -0.10984132 0.203329 0.8493128 -0.23018469 0.99776787 -0.16896819 0.17185782 0.6124619 0.77594626 -0.2727876 -0.56105226 0.562601 0.26186812 1.417771 -0.44611955 -0.28358707 -0.110259004 0.9227556 -0.15907013
1453 0.20136555 -1.2346339 0.2292572 0.6193915 -0.90106404 -0.09889107 -0.39883628 -0.55429727 -0.36383238 1.0963205 -0.9711735 -0.4967808 -0.6143565 -0.382096 -0.006102156 -0.81188995 0.2129237 0.58732814 -0.68670475 -0.13617346 0.46577957 -0.5406883 -0.81622976 -0.43281478 -0.88702816 0.19885683 -0.11300055 -0.8349643 -0.006598608 0.043378398 0.68336564 1.437691 -0.63434875 -0.11227129 0.40872607 -0.704029 0.2030354 1.4751531 -0.12521042 -0.5023985 0.9507522 -1.0165831 -0.27512392 -0.4327443 -0.61072904 -1.067582 0.06317705 0.6331631 0.63316727 -0.5574221 1.3175225 -0.17632651 -0.20060503 1.1903371 -0.049470246 0.3259501 -0.0018615398 -0.45238063 0.43859535 0.8622574 -0.6493956 -0.97701406 0.18318865 -0.24436279
1098 1.0510541 -0.824076 0.4314411 0.2505856 0.44194674 -0.2323205 -0.57232195 -0.90023124 -0.38732657 0.29921404 0.42428392 0.69752014 -0.89704514 -0.0033739998 0.6958115 -0.73652947 -0.0026408115 0.23007469 -1.9830021 0.0045049014 0.6517825 0.235266 0.6835378 -0.29203326 -1.1431305 0.8976723 -0.94683933 -0.81048435 -0.55717677 0.16049294 -0.54919726 1.4765944 -0.8983223 -0.22245763 0.5054182 0.5379197 -1.2202858 0.37921074 0.67081666 -0.6095331 1.2503314 -1.0548515 0.76833683 -0.984816 -0.42223918 -0.7174117 -0.6926667 0.28467095 0.21370795 1.349564 0.29579234 2.2533815 0.034244485 0.41550216 -0.07329425 0.061753366 0.74356323 1.1538701 1.0915961 0.46291244 -0.31888294 0.16543527 1.0517298 -0.37042874
457 0.64407897 -0.61203396 -0.84912 0.21316293 0.3195528 -0.04335989 -0.46585062 -0.10840111 -1.4139056 1.2990698 -0.7466977 -0.8001507 0.63536924 0.3368628 -0.57549185 -0.050450616 0.09956383 0.5518664 -0.16491438 0.5893369 0.66877246 -0.280752 0.392693 1.2176647 -0.22548637 -0.518267 -0.61350554 -0.24124119 -1.0397178 -0.6011428 2.086035 1.0949215 1.554525 -1.342774 0.1576917 -0.4315041 -0.56915885 0.5687219 -0.7731924 -0.01938357 1.345273 -1.1406456 0.63482076 -0.23031583 -0.38378996 -0.0975519 -0.20096995 -0.17000024 0.27372485 0.30818206 0.92192763 1.1872526 0.09576792 1.0152171 -0.06255954 0.391015 -0.1179978 0.20088404 1.5618631 -0.2223438 0.2557085 -1.1084573 0.76621985 0.4747721
1493 0.7832204 -1.1158981 -0.22446479 0.59726864 -0.6195503 0.3036634 0.5404502 -0.47234872 -1.3761134 0.29733756 -0.09107638 -0.5001822 -1.020018 -0.644963 0.29584897 -0.59507596 0.2448542 -0.92442364 -0.7897469 -0.058294427 0.29514447 0.21242057 -0.37657523 -0.344509 -0.2002384 1.3612444 0.133154 -0.68463105 -1.0152361 0.31724024 -0.1316001 0.0074595404 0.19933657 0.2733591 -0.47657725 -0.26036105 -1.371083 0.75155133 0.3206834 0.8118605 0.07080891 -0.22268586 -0.5707015 0.25462 -0.9713096 -0.6252031 0.47209698 1.1631782 0.14008226 0.4121112 0.63976884 1.0094594 -0.74374723 0.2616575 -1.1720575 -0.022347804 0.5092272 0.2638633 0.23418696 0.065255195 1.1296179 -0.15617834 -0.51922643 -0.22568983
596 0.38322866 -0.3686389 -0.0978873 -0.38670996 0.9618606 0.053665433 0.16873795 0.42338434 -0.58154136 2.374336 -0.22214061 0.60529184 0.9338941 0.6104929 0.08764116 -0.5227464 0.29241493 0.20536453 -0.582409 0.6356651 0.35584095 0.79467803 0.57754487 -0.20597865 -0.62636477 0.1904971 0.6180545 0.7412776 0.9728011 -0.9294363 -0.8396633 0.66893256 0.6336425 -0.52757734 0.4957996 0.15753038 -1.7013348 0.7187412 1.057723 0.2964021 0.9623282 -0.43288466 0.26224306 -0.37819248 -0.28180197 -0.48867822 0.3041951 0.7546893 -0.19020717 -0.3932921 1.4510461 0.862804 -0.92787504 1.5717229 -0.8195503 -0.7556818 -0.7087956 0.52792567 1.6117557 0.6564504 0.3933489 -1.0513465 -0.36756524 -0.24926445
928 0.19498128 0.029502386 0.5886494 0.6701578 -0.47130263 0.5408579 0.43675956 -0.34405968 0.23605134 -0.20197676 0.07835642 -0.07398716 -0.5751456 -0.19392338 0.19667883 -0.86418957 0.39170876 -0.058228962 -1.3350984 0.30611032 -0.35388097 0.47757128 0.111992925 -1.1453372 -0.26776108 0.9610443 0.16554694 -0.49786296 -1.0077055 0.48746526 -0.26166636 1.0970203 0.09783725 -0.23573923 0.32445621 -0.7262045 -0.59086347 0.123813555 -0.20010667 -0.05695125 0.53201586 -0.09255037 -0.48309404 0.7582798 -0.7493541 0.21885729 0.648366 0.535616 0.89718556 0.8610977 0.34240508 0.26084125 -0.3618799 0.86436933 -0.5859666 -0.13951851 -0.04358631 -0.5082793 0.53785205 0.19821534 -0.044619415 -0.79811376 1.1248405 -0.46407595
1340 0.2526539 0.013927691 0.14390971 0.76679826 -0.802522 -0.24421841 1.3753703 1.1457489 -0.3390233 1.7488554 0.14007318 -0.2544928 0.6231098 -0.2126316 0.42422402 -0.1548516 0.61906123 -0.9514595 0.7934046 0.018202513 0.9843722 0.4237472 1.9858813 -1.083596 -0.21626303 0.5982727 -0.25496048 0.083345994 -0.086196795 1.279339 0.27505153 0.89359206 0.59718597 0.437235 0.35971636 -1.5019308 -1.7949376 0.50342506 0.39091003 -0.33894137 0.99804735 -0.69551104 -0.8179768 0.5967649 -0.4390172 -0.7652386 -0.7540343 0.9288735 0.17394188 0.0066910237 0.8543387 0.465469 0.08413592 1.6423758 0.6297913 0.49768072 0.16617838 0.47295102 0.49864268 0.19730943 -0.45296296 -0.4119514 -1.1045315 -0.6199828
