417 64
361 0.37620527 -0.5239777 0.28796834 -0.55348486 0.49386284 0.09260048 0.119497694 -1.3486631 0.10620141 -0.73267037 0.39485955 0.22767627 -0.26059765 -1.1569836 0.023267012 -0.66191155 -0.010991116 0.118866764 0.2467323 0.27641067 -0.46237817 -0.2883158 0.19618581 0.6441356 -1.0235381 -1.1426213 0.31394088 -0.10854804 -0.7668117 -0.46940264 -0.35720783 -0.032324832 0.4819493 0.35288292 -0.8175197 -0.46097034 -0.40357575 0.42175522 -0.10622502 -0.6704385 0.0022978566 0.14612135 0.2097683 0.09772731 -0.14740491 0.5713822 0.51387805 0.4410916 -0.31932753 -0.8881899 -0.15601015 0.6137153 -0.77508235 -0.28310636 -0.26493773 0.6672178 1.0130467 -0.4791276 0.14034182 0.29845306 -0.58201873 0.24829286 0.10772707 0.12092909
337 0.1948531 -0.568244 -0.22740583 -0.67697203 0.29850557 0.07877413 -0.09553113 -1.0435437 -0.35278812 -0.8986718 0.8128091 -0.21518274 0.12929416 -0.5729726 0.016371224 -1.0111161 0.66821223 0.64056087 -0.21491054 0.33004132 0.25946736 0.32536763 0.40187606 1.1150161 -0.76543576 -1.0917776 0.60620105 -0.028518135 -0.3031833 0.11922247 -0.60182095 -0.6305473 0.42582053 0.4065845 -0.9092104 -0.3156814 -0.20947874 0.11758138 -0.4977657 -0.49140808 0.42689395 -0.108310476 -0.06467298 1.0150651 -0.43516034 0.5061681 0.21905664 0.41478115 -0.71369666 -0.7713407 -0.073959276 0.5911891 0.05373382 -0.36119798 -0.059113536 0.71438056 1.1489333 -0.34601572 0.028825078 -0.13731357 -0.23143251 0.15311322 0.5447216 -0.040859353
417 0.45851678 0.24806525 0.27041835 -1.3175039 0.30638155 0.23324424 -0.031084124 -0.67023337 0.11571956 -0.61928385 0.10878958 -0.90685993 0.04060289 -0.53973746 -0.30916852 0.04702609 0.08192803 -0.00048886414 -0.3019751 0.61283827 -0.33275175 0.5903678 0.35079148 -0.04445237 -0.20952344 0.042870883 -0.45097914 0.21471816 -0.58525705 0.7121859 -0.45363796 -0.15960999 -0.021319559 1.4526168 0.1675673 -0.7709979 0.3986528 0.1450007 -0.5167713 0.020317387 0.59780157 0.90382916 1.0831872 -0.17712304 0.50331354 0.4874893 0.42917046 0.113440625 -0.45913896 -1.0872793 0.07892664 0.27512017 0.19157743 -0.36199218 0.29609156 0.3932543 0.58805335 -1.1445158 0.58859485 1.3657137 -0.35629675 0.18957773 0.9968947 -0.33342388
352 -0.55733293 -0.40805933 -0.85602355 -0.6152639 0.69483566 0.8580524 0.44706655 -1.3423125 0.6349443 -0.124043554 0.34204164 -0.14278914 -0.72642803 0.073183395 0.23199789 -0.37824702 0.47517776 0.021347886 -1.1288251 0.35155565 -0.8139296 -0.49436083 -0.19182776 -0.28121874 0.13700187 0.47436017 0.8815857 0.750901 0.22778551 -0.3229027 -1.5226167 -0.6288429 0.12969239 0.5568187 0.41529724 -0.99764884 0.03128371 0.025386514 -0.2626213 0.16625625 -0.3554468 -0.16491829 -0.38863367 0.16760112 0.6222155 -0.87101054 0.22087719 -0.47268718 -0.4055807 -0.8167902 -0.7003169 0.53631854 0.13548149 -0.8527689 0.038073145 -0.6428279 0.5643623 -0.7720194 0.22559714 0.7632145 0.39397663 0.06537291 0.2636469 1.0848609
405 -0.05246918 -0.08334251 -0.12064434 -0.25817415 0.87681866 0.24847917 0.042358097 -0.37654975 0.5285208 -0.9027718 0.19718044 -0.1208101 0.5758941 -0.56569636 0.34143442 -0.9981366 -0.062545285 -0.18646964 -0.49485317 -0.276378 -0.7901756 0.6505075 -0.22461137 0.2172728 -0.64839154 -0.23882502 -0.5729325 -0.22540893 -1.8243506 -0.3467368 0.5017434 -0.29744208 0.18933868 0.040329777 0.058007542 -0.9530625 -0.87149745 -0.08990097 -0.09630393 -0.37225613 -0.08895803 0.21784815 -0.4679739 0.7473826 0.21611409 -0.019141907 -1.1351391 -0.49951205 -0.94461375 -0.3016406 0.15460867 1.3859261 -0.43149638 -0.31832987 0.05216146 0.11875692 -0.54002315 -0.0857593 -0.022638049 0.6848772 -0.48242432 -0.18983291 0.19702467 0.84546345
363 1.1333658 0.45422664 -0.48025703 -0.83315307 0.18524864 -0.043341607 0.073227495 -0.22233123 -0.31632134 -0.17596255 0.36126167 0.11656998 0.07741157 -0.16168927 -0.3233052 0.14961746 0.8915019 -0.3734436 -0.3087307 -0.3341168 -0.82345545 0.3922543 0.001077477 -0.8129862 0.71679556 -0.5339538 -0.43342525 0.11927946 -0.61201674 -0.18170562 -0.48137894 -0.70893365 -0.18163684 -0.11766759 -0.64988154 -0.72108114 0.2883058 0.09612882 -0.3903718 -0.20612764 0.21475491 0.13069391 0.28751007 -0.12022894 0.3835344 0.28547245 0.13624604 0.23650266 -0.34406412 -0.48351616 -0.006993778 0.2143147 -1.1183187 -0.5405623 0.46189418 -0.48541284 1.326962 -0.98314005 0.5678845 -0.10872309 -0.041199427 -1.1535342 1.5487796 -0.034494624
414 0.57859963 -0.03736406 0.51980036 -0.37488565 -0.21214466 0.52504736 -0.0023636578 -1.1650993 0.4813047 -0.486916 0.9141563 0.059004087 -0.6904977 0.61006653 0.61873704 -0.69172806 -0.3337303 0.46534327 -0.72647625 -0.8204643 -0.47628504 0.34532243 0.33917993 0.6103019 -0.32830745 -0.31288874 -0.12803277 -0.17688261 -0.23957472 -0.056867328 0.2863255 0.28573322 -0.8891533 0.031802274 1.5296843 -0.18446213 1.3505656 0.29898167 -0.09579698 -0.24419846 0.22754419 0.16813414 -0.49922842 0.46394885 0.9789023 -0.080632195 0.36993602 -0.4029224 -0.23837283 -0.9015052 0.1638622 -0.21937637 -0.38939884 -0.8088903 0.39365765 0.280001 0.46917504 -0.682482 0.035695057 0.25253063 0.35622048 -0.44517073 0.24259719 0.80710065
402 0.65521437 -0.6871039 -0.69350564 -0.058269046 0.6180629 0.23860478 -0.17157224 0.4235025 0.84981227 0.40028614 -0.10259511 0.16362645 -0.75858045 -0.53390276 -0.24205765 -0.2825767 -0.0051471354 0.5130875 0.0061695767 -0.15361373 -0.9534246 0.40812516 -0.45762593 -0.17099498 -0.532861 -0.89135695 0.14717907 0.6152062 -0.6425464 -1.1911219 0.5814345 -0.9468228 0.34388274 -0.18317267 0.21967344 0.021122016 0.42111316 -0.37644976 -0.086917795 0.1749913 0.94742674 0.04382814 -0.063630424 0.3969784 0.045167636 -0.39106977 -0.38579592 -0.9024558 -0.5096762 -0.03283119 1.1762949 1.4112575 -0.2629447 -0.7426414 0.24744779 0.7496717 0.6267961 -1.1500072 0.30039746 0.36914727 0.98976505 -0.5473972 0.32192388 0.69333774
220 -0.40645927 0.23477113 -0.13876705 -0.045993686 -0.341681 0.42841646 -0.23107418 -0.7221547 0.37836966 -0.10081237 -0.1678771 -0.14448872 -0.23213275 -0.6908729 -0.08936493 0.16227959 0.2327939 0.38458812 -0.92703325 -0.23962499 0.12810822 0.08168257 0.25126946 -0.43493912 0.55400455 -0.5025524 -0.029538002 0.9255924 -0.20971145 -0.46365884 -0.3867395 -0.8222694 0.1046477 -0.20670055 0.6824198 -0.6608899 0.080517285 0.73630804 0.2007368 -0.20893161 -0.07890185 0.67158157 -0.58884746 -0.35187596 0.37518203 -0.22122636 -0.2525456 0.55899215 -0.77784747 -0.73386884 0.034923755 0.36562303 -0.89291495 -0.08405095 0.2308673 -0.20106533 0.6293766 0.11570206 -0.24173494 0.2587283 0.13159528 -0.08855815 -0.050221574 0.17387916
279 -0.08710539 -0.20549674 0.43718687 -1.137126 -0.1669385 0.15940426 -0.25749275 -0.7131719 -0.0938392 -0.83354634 -0.1669881 -0.5518493 -0.46776545 0.29560736 0.39304835 -0.59112847 0.06968486 1.1323231 -0.25114724 -0.26945648 -0.4697161 0.7147186 0.7372088 0.31878367 0.5323777 -0.92228234 0.653094 -0.47283494 0.09253496 -0.37884238 0.40361965 -0.47905037 -0.46104994 1.0359709 0.3644827 0.4086272 0.08274371 0.23295087 -0.018491603 -0.6507308 0.39202958 0.16621418 0.6761036 -0.2570191 1.1115661 -0.0022701896 0.19864649 -0.2968746 -0.6958654 -0.2911984 0.41525227 -0.4974903 -0.50146586 -0.4801148 0.52372193 0.00030179386 -0.3313829 -0.48742604 -0.33431956 0.9904425 0.043900587 -0.7323647 0.5669564 0.6814037
250 0.37308052 0.009301701 0.056370124 0.35466328 0.4317755 -0.36777017 0.42832208 -0.039991807 -0.26379484 -0.7817182 0.013247853 -0.02719112 0.104213886 -0.85199404 0.10044565 -0.6076271 -0.15092443 -0.24075003 -0.0823759 -0.008020197 -0.9112216 0.61150825 0.2457225 0.3495841 -0.3077961 -0.46167096 0.8456939 -0.08158441 -0.5665415 0.344645 0.16987568 -1.5675709 0.86217946 0.46678913 -0.7205085 0.12482674 0.70160604 -0.20651257 0.9560213 -0.8290332 -0.16144377 0.37230384 -0.26246566 0.57675624 0.14617679 -0.43856344 0.1202341 -0.17236137 -0.97328603 -0.5553811 -0.43764272 0.8206843 0.05082449 -0.72484326 -0.09368371 -0.044261817 0.76509887 0.07703811 0.17802593 0.46524206 -0.32760143 -0.29611325 0.18498822 0.62008023
312 0.15614718 -0.63037324 -0.11787911 -0.4156238 0.5539853 0.3241617 -0.25648668 -0.045032334 -0.33139646 -0.8896696 0.028987363 0.41096315 -1.0386077 -0.17999832 0.0063008587 -0.46194702 0.12304871 0.25451782 -0.59625375 -0.5356412 -0.3927712 0.5478858 0.7916991 -0.8774679 0.07947527 0.17783982 1.146897 -0.22044285 -1.1877155 0.23191188 0.02960071 -0.77943736 0.2815888 -0.10807494 0.27401632 -0.17866462 1.1550311 -0.1581195 -0.5867552 -0.6395227 0.1757647 -0.40660223 0.52760273 -0.07441201 0.43761408 0.4541997 -0.18022649 -0.8377555 -0.63178843 -0.086900264 0.93405026 0.76209927 -0.97037834 -0.12733431 0.18434055 0.2209509 0.9412981 -0.70519745 -0.3905421 0.33856305 0.122369565 0.21003087 0.07756552 0.003933165
237 0.95873535 0.06465308 -0.073513225 -0.7209133 -0.06305443 -0.15159443 0.23498322 -0.1759163 1.1344651 -0.6228118 0.6969991 -0.21583816 -0.87974274 0.5058031 -0.3453217 -0.7311746 0.49428034 -0.29906642 -1.0491565 -0.4166636 -1.1389062 0.526741 0.5063409 -0.25950757 -0.051009122 -0.52771467 0.36194062 0.7141554 -0.64978194 -0.002925499 0.16032363 -0.6196682 0.17003977 0.40018448 0.52843493 0.08535947 -0.031714752 0.020536907 0.06097065 0.089341655 0.4033256 0.05966024 -0.17097789 -0.3160586 0.07573036 -0.17749402 -0.4154323 0.099939935 -0.18452533 -0.7520237 0.25361 -0.1493807 -0.07349889 -0.55820364 0.0347132 -0.29423591 0.40858638 -0.31729662 0.007746587 0.4348432 0.30810243 -0.31400895 -0.05004147 1.3967057
287 0.79205996 -0.83325917 -0.36361113 0.29590198 -0.07339136 0.27052802 -0.1715713 0.07492101 0.4948928 -0.886787 0.8305536 0.38582245 -0.13421378 -0.80204844 0.9503393 -0.8023942 -0.26346138 1.0070105 0.38202628 -0.5958505 -0.42587963 -0.370208 0.36346734 0.50323915 -0.5814662 -0.90210766 0.11811821 0.35391778 0.06770197 0.02011559 0.0013335972 -0.23629875 -0.3825799 0.63266706 -0.24806269 0.3106636 0.1857066 0.11794734 -0.8744431 -0.5555223 -0.27095118 -1.1200794 -0.16354609 0.4882779 0.15504126 0.9293733 -0.05901473 -0.8190999 -0.4434831 -0.6537346 0.09429065 0.51587915 -1.1895545 -0.8521206 -0.06421994 0.6531312 0.8263656 -0.12209685 0.036096133 -0.5817405 0.31109676 -0.025808204 1.2241968 0.5365586
289 0.8160984 -0.6459607 -0.33991334 -0.59492016 0.5436627 0.4043594 0.5889094 -0.3007743 -0.4325173 -0.9235691 0.6102144 0.17293964 0.28139657 -0.5544429 0.7410297 -0.80140924 0.40233135 0.33823845 0.16498357 -0.14503914 -0.29507846 -0.029350465 -0.024661979 1.0937059 -0.8245002 -0.9678657 -0.3800643 -0.12940156 -0.36479035 -0.64204824 -0.046750885 -0.28416982 0.1147716 0.84888715 -0.05662446 -0.189948 0.36597654 -0.012892118 0.3495025 0.055922274 -0.07039173 -0.673621 0.07308799 0.15810803 0.29396877 0.5839928 1.0356735 0.043766137 -0.9232559 -0.9270025 -0.25469863 0.4832593 -0.23904896 -1.1683286 -0.1476457 0.7576602 1.8252333 -0.71481144 -0.10455643 -0.1840929 -0.70480084 0.4419586 0.32874522 -0.020743763
277 0.94086796 -0.13876227 -0.37188223 -0.34975812 1.4773505 0.13299595 0.53503364 -0.04188768 0.5307152 -0.18184969 0.732432 -0.5289178 0.48016077 -0.8138844 1.2060828 0.020657184 -0.11792411 0.41758358 -0.50207406 -0.61098355 -0.56249356 0.31356424 0.41365835 0.69839865 0.3993046 -0.5330713 0.1656021 0.40223315 -0.16014555 0.2386819 -0.01982723 -0.33387426 -1.1232927 0.68925804 0.06449138 -0.36256889 0.33168426 -0.89691114 -0.28999618 -0.54014456 0.9511931 -0.1495148 -0.927231 -0.52249986 0.8049911 0.33570412 0.31444585 -0.2629412 -0.6341973 -0.9361939 0.47885272 0.04941335 -0.84717333 0.33238962 0.21195883 0.1725899 0.11822689 -0.06986749 0.07580835 0.2289643 0.3644474 -0.52618223 0.64809716 1.6492484
230 0.59859663 -0.45749912 -0.723252 -0.25628352 0.024957042 -0.46127582 -0.6743423 -0.97265774 0.8461038 -0.8112095 0.33548146 -0.67109466 -0.6101149 -0.49808693 -0.27296498 -0.98960125 0.5373774 -0.5330707 -0.2858401 0.08040889 -0.8037629 -0.08515098 -0.8002628 -0.4655773 -0.3016591 -0.8035087 0.04475914 0.81160533 0.04147573 -0.41609368 0.53521526 -1.2295349 -0.0101273 0.28255284 0.27738807 -0.0025374223 -0.40729067 -0.84551525 0.5114549 0.5298468 0.33961383 0.38020155 -0.72916114 0.7439355 0.113444455 -0.2695533 -0.62338424 -0.06545517 -0.28680146 -0.06131088 0.794338 0.49645764 -0.8296508 0.08421309 -0.29322603 0.04453294 0.9026306 -1.1009947 -0.40125296 0.6482919 0.19018567 -0.7850622 -0.21600328 0.30695063
226 -0.23800147 0.052978955 -0.09493468 -0.56838256 0.52717525 -0.39094895 0.65308386 0.10380845 0.21700099 -1.1027012 -0.36619544 0.14231968 0.21921416 -0.58582276 -0.3575893 -0.9599287 0.020170128 0.46988928 -0.86285895 -0.21679845 -0.87437946 0.79923475 -0.09009087 -0.10966084 -0.018592322 -0.63562053 0.7244783 0.26106942 -0.8375066 -0.20483184 -0.0013112181 -0.6183324 0.42150807 0.5218199 0.27205372 -0.51840115 0.2942575 -0.09300976 0.9522711 -0.8147862 0.18185943 0.2110205 -0.2977174 -0.61807567 -0.29312444 -0.29981074 -0.5566115 0.2903637 -0.6478018 -0.4373766 -0.165714 0.5119479 -0.11312605 0.11757969 -0.00011870444 -0.71761024 0.80565 0.44804254 -0.9447354 0.3254617 0.017960485 0.02878708 -0.010161617 -0.7755728
374 0.27435154 0.5003433 0.42327935 -0.25557667 -0.00037959448 0.04333251 -0.18793564 -0.99742603 0.39171857 -0.42135274 0.344347 -0.19748987 -0.27282554 1.0193911 1.0271645 -0.37034363 -0.5000183 0.43549135 -0.6246068 -0.46695477 -0.25266108 0.20308325 0.8458083 0.077783145 -0.1218555 -0.6713759 0.049564704 -0.11218194 -0.38328344 0.30903736 0.17182653 0.0082851425 -0.7604942 0.37407506 0.90290356 -0.18462545 0.59309405 0.031352326 0.4847018 -1.2622826 -0.18740511 -0.26039597 0.32963705 0.05447729 0.5579508 -0.16224831 0.30977243 -0.7774551 -0.00026030903 -1.1762718 0.68365425 0.13313735 -0.41423067 -0.2326048 0.383345 0.51999307 0.5134267 -0.7259386 0.16456443 -0.055649705 0.2899213 -0.64311445 0.600266 0.5607471
304 0.42680535 -0.55624914 0.1070045 -0.30210298 0.18579684 0.83710486 -0.80125636 0.07632008 -0.22472842 -0.79751945 0.16693468 -0.27321953 -0.6934554 0.23963933 0.7162544 -0.9345522 -0.11390662 0.19267228 -0.50671464 -0.28067595 -0.53924805 0.117627464 0.74485636 -0.68586344 -0.09840473 -0.3295167 0.31161243 -0.26813573 -1.3367261 0.62287676 -0.36881042 -0.61893755 0.20134874 0.19896758 -0.03929779 -0.5977711 0.15015858 -0.4461321 -0.49598244 0.10319966 0.53171295 -0.069877416 0.50823367 -0.2262484 0.7118006 -0.35005477 0.42222384 -0.68916786 -0.42439416 0.3681043 0.6500045 0.6828244 -1.2080953 -0.4763203 0.13672158 0.08658991 1.3810377 -0.754935 -0.5641324 0.09983718 0.5936505 0.34723437 0.40280828 0.035107706
239 0.4740284 -0.00023897851 -0.50219095 -0.054314267 0.086303405 -0.17801113 0.4232873 -0.212988 -0.24198884 -0.6536691 0.7648146 0.31601995 -0.3213375 -0.86502904 -0.19294697 -0.9579146 0.10978664 0.09657783 -0.20619446 -0.39600962 -1.0512174 0.67348814 -0.36294898 0.49397355 0.103425846 -0.8410754 0.1394083 0.049070504 -0.3791673 -0.33173314 0.22509272 -0.5808532 0.9029631 0.6198275 0.14765964 0.2203612 -0.11838572 0.15757084 0.4295481 -0.3310898 0.3369742 0.43666238 0.22691883 0.6126329 0.40074193 -0.26842785 -0.19136956 0.52183175 -0.9628106 -0.71658874 -0.46942976 0.66202223 -0.36019823 -0.72946066 -0.17516223 0.3065869 0.97824854 0.841093 -0.17301401 0.11115119 -0.44551438 -0.8422299 0.37182668 0.642601
301 0.57333386 -0.9341796 -0.14939752 -0.24820043 0.35174617 0.21427348 -0.2914224 -0.3873219 -0.24499968 0.039657325 0.19585262 -0.17617609 -0.7557612 -0.4906593 0.77301633 -0.32500878 0.55900425 0.62630194 -0.513503 -0.45199525 -0.22659583 0.45621148 1.1425674 -0.51642513 0.51621765 -0.6958365 0.47268072 -0.27085707 -0.9560368 -0.16667919 0.5204151 -0.43248188 0.88417697 0.34147665 0.66245526 -0.48765934 0.4818478 0.37164426 -0.19685268 -0.09417621 0.22951278 -0.48434713 -0.092406705 -0.1020938 0.5862385 0.19924423 -0.55791885 -1.2075522 -0.27902344 0.29137936 0.60028654 0.29269388 -0.43388534 -1.007405 0.28886017 0.33561662 1.0212916 -0.43887728 -0.27596483 0.16797583 -0.0726888 -0.54594773 0.15507272 -0.19832811
368 0.9235448 -0.47654575 0.02172856 -0.55202883 0.4425713 -0.04076636 0.52815944 -0.05494723 -0.19009015 -0.3306439 -0.2466589 -0.15788098 -0.53193766 -0.8020727 -0.061308313 0.8179067 0.44139743 0.021634975 -0.39462364 0.24264711 -0.9017358 0.51727074 -0.2023493 0.049442668 0.84679747 -0.059793167 -0.34484604 0.7389354 -0.8541437 0.41367784 0.11850683 -0.52925843 -0.39058653 0.18669146 -0.011605133 -0.7987038 0.4920425 0.4071974 -0.52428454 -0.27393702 0.8169953 0.07782064 0.49648625 0.5977938 -0.35494572 0.53758585 -0.4768932 0.15975593 -0.4469932 -1.0585968 0.27361697 0.91701597 -0.5758934 -1.2075119 0.5629467 -0.54197407 0.8710264 -0.36303526 0.19472568 0.936322 -0.52975196 -0.6927995 0.6662408 -0.10077658
292 0.36523032 0.50421184 -0.14278468 -1.5962585 0.46773344 0.07005177 -0.2034319 -0.7605145 -0.43996936 -0.20144324 0.0434142 -0.18688177 -0.59680116 0.58985484 0.1769563 -0.5706828 0.18303607 0.52878696 -0.13424784 -0.19165939 -0.095615454 0.71223444 0.8925295 0.8994101 -0.66647565 -1.3274696 -0.052946746 -0.43112522 0.17690781 -0.055933665 0.7677043 -0.9744935 0.18283397 1.2370104 0.36125377 -0.558113 0.7169466 0.25407806 0.5169657 -0.5879296 0.69118273 0.09221324 -0.051635824 -0.6511688 1.1143115 -0.06716086 0.8034387 0.026374707 -0.74105805 -0.47117415 -0.21738343 0.49963477 -0.47857884 -0.47423574 0.52596647 0.25044486 0.36085653 -1.0266144 0.27162248 0.26626158 -0.17377941 -0.0705378 0.45251635 0.30917475
293 0.3591814 0.09283783 0.13825633 -0.6446818 0.44801348 0.6414029 -0.2506934 -0.299516 0.5355818 0.3000827 0.23318149 -0.024376515 -0.23618378 0.4903005 0.21939123 -0.80441356 0.009004746 0.9424374 -1.0208126 -0.57595026 -0.62852335 0.7177561 0.5420476 0.5505507 -0.48100036 -0.9145911 0.2168311 -0.28464207 0.029889928 0.4166396 0.7325897 -0.39940268 -0.64240617 1.0461453 0.018787438 -0.21508649 0.7124431 -0.0127834985 -0.017821306 -0.70366436 1.1100024 0.25337702 0.37313348 -0.20573407 1.0047432 -0.4769023 -0.06847488 -0.56421167 -0.29643282 -0.040226497 0.06207443 -0.030800283 -0.70208657 -0.72820336 0.108256646 0.42059106 0.80055666 -0.20888145 0.07972354 0.5534912 0.30370453 -1.1338996 0.7874714 0.54431975
56 0.4065624 -0.48034045 0.3553092 -0.030903438 0.38314414 -0.13882683 -0.18256344 -0.093896315 0.13486664 0.07785141 0.014346762 0.72240126 -0.23524499 0.23748827 -0.29069248 -0.3470338 0.1376693 0.3716267 -0.4157045 0.0880699 0.1566437 0.8871832 -0.511195 0.05360588 0.20471932 0.19227268 -0.080986604 0.17043304 -0.17464983 0.12459473 -0.33371824 -0.24133858 -0.4984702 0.8175051 0.28777602 0.35228428 -0.092523195 -0.4972066 0.3499914 -0.26653537 0.5311968 0.19459789 -0.7036782 -0.35134646 0.44430748 0.31953168 0.12579127 -0.23383398 -0.36249638 -0.6598173 -0.047985528 0.5773199 -0.8360591 0.5826404 0.49350634 -0.06430542 0.115072526 -0.4077352 -0.31661832 0.8739478 0.18852037 -0.2902293 -0.43048635 0.25307962
266 1.440742 -0.5946923 0.9828699 0.011720932 0.07999796 0.09347196 0.90379626 -0.12770544 -0.11807289 -1.0589602 0.5489419 0.05640803 -0.5104769 -0.8012253 0.37126145 -0.706985 1.0926149 0.090187594 0.79540074 -0.3826125 0.083257176 -0.3809959 0.10524798 -0.14929253 0.3703759 -0.07721836 0.49389988 0.47463542 -0.49912596 -0.033574753 -0.6082173 -0.42722464 -1.0823935 0.18489145 0.49079543 -0.4062138 -0.07807634 -1.213795 0.3691634 -0.63578385 0.46675727 -0.5039833 -0.931094 0.24279307 0.9330787 -0.582711 -0.2888634 -0.05547028 -1.9154559 -0.06440478 0.6432348 0.082554296 -0.63939285 -0.7746555 0.28489816 0.24993369 0.5251665 -0.25585535 1.2891011 -0.1921654 0.5122231 -0.7633436 -0.2675876 -0.6057154
224 0.35917863 0.16112815 0.37290034 0.027086232 0.49223202 0.48584214 0.012559991 -0.24042252 0.29850346 -0.11545972 0.4863838 -0.9705124 -0.7033286 -0.0903791 -0.9031642 -0.21426804 -0.07240151 0.21702455 -0.28972456 0.17823665 -0.44471297 0.38979924 0.028584406 -0.7051916 -0.100979105 -0.6300826 0.122629635 0.039608628 0.39760867 -0.21615534 0.36906764 -0.9361074 0.38947174 0.26293212 0.5388812 -0.3164905 0.37497064 0.070076264 -0.09133356 -0.36848167 -0.15043125 0.20819603 -0.2597295 0.5487387 0.24289836 0.24363686 -0.57390684 0.56114554 -0.3760216 -0.67301625 0.13536592 0.671151 -0.093436696 -0.055343796 0.56472 -0.023302797 0.8475212 -0.071267165 -0.23876323 0.28724465 0.63231736 -0.16426376 -0.33531007 -0.63385123
165 1.0724299 -1.1682979 -0.39579 -1.4298056 0.00063833606 0.35518712 0.9687712 -0.8794931 0.085520655 -0.96499103 0.55298007 -0.07778217 0.043162037 -0.23969515 0.7094184 0.43735486 -0.19473153 0.38932434 -0.087544054 -0.20208868 -0.2426032 0.17956907 0.38401896 -0.014799968 -0.06047592 -0.1554087 0.21759644 -0.56298846 -0.56122094 0.77219725 -0.40157613 -0.0012611098 -0.30614477 0.7332194 0.2825096 0.101015665 0.23398504 -0.7944926 0.11831204 0.2506707 0.47594005 -0.11606876 0.4291656 0.38047746 0.4622914 -0.15860274 0.88033205 -0.16838202 -0.23776506 -0.050438974 -0.044937484 1.3332722 -0.5945083 -0.93288094 0.10921225 -0.28276902 1.4180022 -0.21271472 0.06675551 0.22799793 0.15096796 -0.7952507 0.6466353 0.9822773
288 0.62545246 -0.82133085 0.077663355 -0.44275984 0.5064423 0.52205867 0.7926878 -0.2525187 -0.7192007 -1.0671831 0.575667 -0.18668568 -0.3456103 -0.29590392 1.3184369 -1.2800658 0.3663571 0.07677754 -0.053632714 0.036671035 -0.26266196 -0.32864472 -0.0015336501 0.615148 -0.9911274 -1.2606605 -0.25766277 -0.026223838 0.19651383 -0.6066028 -0.07148024 -0.8915678 0.27396291 0.70244 -0.03728821 0.35445485 0.14282106 0.18522787 0.2235569 -0.61108816 0.27285734 -0.22860779 0.3366905 0.20355228 -0.21677034 0.5363533 0.7058056 0.32447958 -0.7391813 -0.90305287 0.57689464 0.72450566 -0.6629946 -0.39934334 -0.17092592 0.7862948 1.2126504 -0.6884766 0.48673755 -0.5438561 -0.46671548 0.3394133 0.75961053 0.15948789
415 0.23063034 -0.5664582 0.42234915 -1.1391559 0.035985608 -0.15303771 0.77394533 -0.16912112 -0.37017348 0.028015256 -0.14774837 -0.33011207 -0.5471537 -0.8596185 -0.348936 0.39009166 0.69719756 0.13734488 -0.14627713 0.31517577 -0.76687783 0.93570185 0.19240652 0.44076827 0.16296028 0.2456526 0.16972385 0.17339972 -0.6843243 0.18081956 -0.025351835 -0.37505084 0.3193573 0.051860794 0.17980434 -1.2297785 -0.07704986 0.16473234 -0.031323213 -0.14099921 0.27869952 0.24907336 0.7287674 -0.27652916 0.2993832 0.07340288 -0.1490702 0.18515909 -0.15282106 -0.94462824 -0.16655172 0.50245184 -0.46988216 -0.97797334 0.8300491 0.20704313 0.84299487 -1.27721 0.79568195 1.0868175 0.119146995 -0.323996 0.85673535 0.15442695
203 -0.16485329 -0.20021354 -0.7880291 0.060732517 -0.6419967 0.014362982 0.33319724 -0.0999074 0.9300051 0.25065947 0.26902315 -0.033714015 0.030392146 -0.3163128 -0.29131442 -0.77594805 0.32633865 0.044317327 -0.7000108 -0.017128427 -0.04426375 0.2801012 -0.3160925 0.3269843 -0.16580172 -0.11075454 -0.05518402 0.49473286 -0.014939532 0.2855028 0.1476909 -0.4717537 -0.7384586 0.6160987 0.2950226 0.06261095 -0.28353605 -0.7068548 0.07613528 -0.46469766 -0.15226315 -0.1915406 -0.36480564 0.44678894 0.7541172 0.061019517 -0.5146257 -0.42210776 -0.1860589 -0.7527297 0.28028294 0.35239026 -0.546109 -0.12537165 -0.14214109 0.587365 0.40785715 -0.27382207 -0.7206824 0.39124894 0.44524693 0.00423291 0.15012388 -0.053141765
400 0.21761742 0.2298705 0.07105893 0.048916895 0.97055656 0.61274856 0.029797891 -0.7128041 1.3842473 -0.20683156 0.28784394 -0.6317799 -0.29565606 -0.5693066 -0.21280228 -0.37712887 0.29602495 0.620246 -0.20722696 -0.58837366 -1.1750157 0.20000103 0.19772328 -0.5688157 0.24667959 -0.8395513 0.2004558 -0.038796365 -1.2189062 0.28711468 0.044647418 -0.52746713 0.08587191 0.21372467 0.15116894 -0.28418303 -0.28471038 0.19206125 0.13804308 -0.21000634 -0.39946932 0.031381574 -0.25199002 0.17428146 -0.06716638 0.273688 -0.3750698 0.28086782 -0.67934877 -1.0999429 0.63451403 0.7153 -0.20923834 -0.25059542 1.0352972 -0.20529144 0.6079545 -0.57783115 -0.68794364 -0.20012498 0.4240417 -0.97511154 0.4502784 0.5683847
295 0.2641897 0.24744579 0.120612375 -1.3534553 0.39045343 0.20473225 0.18900713 -0.42495903 -0.3187087 -0.3198461 0.12561658 -0.4661981 -0.75417596 0.23540445 0.6408139 -0.76413846 -0.013930327 0.507749 0.1577386 -0.43005756 -0.087873615 0.7061074 1.0056899 0.261501 -0.6665484 -0.6465115 0.2082746 -0.6357497 0.25368464 0.012632357 0.32390714 -0.92512286 -0.37680924 1.1057302 0.094558544 -0.49159303 0.68702877 0.099647895 0.61236745 -0.29435396 0.48863122 0.552642 -0.16852248 -0.46309036 1.192581 -0.40098625 0.6704902 0.30880833 -0.9106553 -0.54552686 -0.6141397 0.47449064 -0.42002943 -0.82913244 0.33374718 0.3856555 0.10519667 -0.93463755 0.32326806 0.6722653 -0.49527988 -0.016896917 0.7184031 -0.16194232
291 0.40278098 0.13385165 0.49717465 -1.149868 0.123674825 -0.014032358 0.003044495 -0.23489708 -0.007977013 -0.2964967 0.075380765 -0.87319195 -0.4770761 0.5156578 0.61491984 -0.93653256 0.33124197 0.45302865 -0.11717069 -0.22408426 -0.2903249 0.16131175 0.94888324 0.5563548 -0.7397049 -0.72713685 -0.18819557 -0.2975408 0.12221182 0.068894036 0.5017798 -0.7734968 -0.36970028 1.180693 0.32830563 -0.24619548 0.52268875 0.10660772 0.7030848 -0.31740013 0.40357348 0.12319273 0.25205803 -0.41599268 1.067946 0.13616657 0.47651166 0.29833245 -0.8361101 -0.6958974 -0.6416303 0.15226941 -0.61745805 -0.48933998 0.4014447 0.70593107 0.41059718 -0.7151945 0.5285112 0.72296053 -0.3225305 -0.27118233 0.88970804 -0.13176294
326 -0.17608327 0.07083829 -0.4937742 -1.1007097 0.32665712 0.24531262 0.6245542 -0.912747 0.41826534 -0.038744755 0.3937674 0.027269434 -0.8071324 -0.6938172 0.5369985 -1.2095155 0.20526412 0.35865703 -1.5151484 0.5494051 -0.84649825 -0.06926219 -0.06971126 -0.50179183 -0.5634988 -0.33690456 0.60563576 0.3126256 0.15487584 -0.1426856 -1.2758456 -1.1279613 -0.06696813 -0.02732317 -0.14456499 -0.38102913 0.50165975 0.5327374 -0.59985805 -0.35168535 -0.43136728 0.285401 -1.242274 -0.25135687 -0.36589167 -0.95015013 0.37163985 -0.29682532 -0.49014273 0.058614295 0.11713727 0.7831932 -0.52384764 -1.0015131 -0.27399603 0.06162112 0.79131645 -0.7673141 -0.05451128 0.6450153 0.5407312 -0.12852702 0.54533494 0.92194766
236 0.6295344 0.2936781 -0.3697616 -0.58664995 0.440153 -0.9539915 -0.806012 -0.3311994 0.116057955 -0.4624859 0.016430857 -0.93685746 -0.42518583 0.13413654 0.06121289 -0.048045903 0.7787035 0.39085495 -0.6626847 -0.09747557 -0.1455542 0.5182374 0.58849907 -1.240378 0.027926454 -0.8877963 -0.53057474 -0.1291099 -0.26771414 -0.16620007 -0.016346402 -0.7889043 0.1930252 0.17039545 1.2632899 -0.28699866 0.2591606 0.85979927 0.049980346 -0.5470337 0.09996626 0.11134251 0.67645955 -0.03883368 0.22866109 -0.33295006 0.15373373 0.13287506 -0.8582051 -0.49348855 0.39943475 -0.45244405 -0.30182272 -0.22016256 -0.37062505 -0.35969895 0.8354354 -0.62725604 -0.058241606 1.051127 0.4871294 -0.5858342 0.22256158 -0.1395446
280 0.23296118 0.39291897 0.12879768 -1.0659484 0.5076404 0.19644448 -0.27033827 -0.8365113 -0.0016965927 -0.42579782 0.5061958 -0.002277907 -0.38576198 0.50189006 0.67143136 -0.47571158 -0.16708228 0.8929785 -0.3257403 -0.21811807 -0.89001745 1.2256815 0.77521205 0.013353458 -0.305058 -0.8621075 0.56175095 -0.45021826 0.33144382 0.03691136 0.071292534 -0.056241922 -0.6798529 1.1283052 0.46144336 0.020592393 0.3274036 0.14233242 0.53380686 -0.46070343 0.5220614 0.4949751 0.39697623 -0.48849496 0.9721607 -0.17417686 -0.20829216 -0.14045407 -0.5897241 0.17770293 0.2161725 -0.6746994 -0.24421538 -0.481296 0.20273128 -0.14854793 0.5005334 -0.40307462 0.042282697 0.6220584 0.17003042 -0.93549544 0.6935861 -0.55080366
225 0.29137433 -0.23109952 0.3664574 -0.7622863 -0.07064266 0.04829446 0.26042503 0.06453731 -0.29127073 -0.50742584 0.59695756 -0.57261974 -0.09193027 0.5669033 -0.42810503 -0.16414195 0.39295655 -0.09810702 -1.0083529 0.004277063 -0.93124306 0.8301027 0.79833853 0.14281009 0.31668305 -0.15290959 0.12198588 0.26132396 0.0881205 -0.48057452 0.15781872 -0.6937415 0.286052 -0.007164565 0.65505034 -0.6882413 0.06479239 0.8091878 0.117097236 -0.42312184 0.04251702 0.043140113 -0.3321718 0.089425616 0.040805172 0.02115505 -0.58635795 0.6302723 -0.512074 -0.7762154 0.18372168 0.9447034 -0.738347 0.30514196 -0.62499636 -0.26222146 0.44681394 -0.09031053 -0.58615136 0.727661 0.6768325 -0.37740758 -0.3435563 -0.1746926
245 0.7343542 -0.3169983 0.037867166 -0.31487435 0.8185765 -0.40815538 0.061261088 -0.87507373 0.55062914 -0.97587967 0.9497665 -0.15809737 0.28626946 0.2789086 0.6537553 0.07273935 0.34368515 0.58420086 -0.21023317 -1.234538 -0.6044077 0.28800887 0.4858882 -0.8182215 0.5618756 -0.9426754 -0.25383008 0.49680772 -0.6802132 -0.21081345 -0.42760512 -0.8900153 -0.48718622 0.79835314 1.4534096 0.41180992 0.44564003 -0.6580015 0.6040129 0.03337597 -0.059179973 -0.17508653 -0.6238002 -0.35810477 0.41959524 0.6250217 -0.4629632 -0.004403582 -0.7883351 0.24784687 0.23550797 1.4828362 -1.1226064 -0.03165666 0.37259445 -0.08457288 0.48175833 0.40839338 1.1590241 -0.6884001 0.23016316 1.0976102 -0.32857597 0.7674237
183 0.0075563136 -0.5599175 0.062912166 -0.8830526 0.37288573 -0.58746773 -0.8293978 -0.09763358 -0.2821056 -0.61642027 -0.29647392 -0.14645645 0.061930034 0.5276356 -0.29533994 0.30703706 -0.73288846 0.5591065 0.501723 0.3277831 -0.34460828 0.5521828 0.77070326 -0.13561906 -0.12731731 0.27352032 0.6877175 0.5914677 -0.08818756 0.026284909 -0.033013035 -0.005367037 0.19109194 0.11883287 1.0139859 -0.28510818 0.4270669 -0.007992968 0.29022804 -0.41825742 0.13837227 -0.04562683 -0.015274367 0.26386252 0.17073774 -0.32898492 -0.19318418 -0.56959546 -0.8783759 -0.9123431 -0.3721315 0.41980475 -0.4584671 0.25332934 -0.14812978 0.344692 1.1558766 -0.7497808 -0.057347808 0.5268379 -0.28365764 -0.09976106 0.015474711 -0.09334699
96 0.2441834 -0.45808232 0.7609711 -0.15096363 0.07746109 -0.701982 0.25708088 -0.47749135 -0.34794295 -0.42831516 0.23312323 0.26905248 -0.26919433 -0.3213069 -0.47589824 -0.11898671 -0.06185978 0.5411395 -0.09313395 -0.2811227 -0.12955984 0.15560162 0.08886272 -0.15435816 -0.80669075 -0.12603937 0.68606716 -0.2627456 0.0028189223 0.08398613 -0.9603858 0.28555763 -0.2748921 0.1894684 0.74771076 -0.18286064 -0.04888915 -0.04521125 0.36118352 0.028176209 0.009933827 0.61500335 -0.24243352 -0.19450805 -0.081409074 0.6306264 -0.63134164 -0.6955163 -0.2793687 -0.057899185 0.1346064 0.009016167 -0.3351553 0.02674291 0.369524 -0.12592494 0.4587628 -0.5165729 -0.06778379 0.85864055 0.5583098 -0.35812944 0.12842369 -0.031607285
210 0.2301305 0.51563567 -0.1693711 -0.24271691 -0.4251632 0.078157395 -0.7664865 0.3082544 -0.18588752 0.14808798 -0.04620261 -0.26025754 0.19178796 -0.20629294 -0.39527506 0.23408203 -0.013576162 0.32353473 -0.24498926 -0.64993876 -0.7815149 -0.058666967 0.2643468 0.7345276 0.014799281 -0.5341775 0.08312984 0.19660132 -0.27439603 0.38095534 0.020011691 -0.17820732 -0.18304323 0.022382995 0.7787552 -0.0034573104 -0.27491012 -0.008566603 0.47037554 0.0471289 0.249704 -0.14320855 -0.12725443 0.003860743 0.5196836 0.06380001 -0.64009273 -0.69524926 -0.58086765 -0.77820605 0.29573306 0.71430063 -0.47144893 0.1899938 -0.067605205 0.05201143 0.27283168 -0.2826481 -0.6339884 0.7892615 0.51641685 -0.21331666 0.61917174 -0.32419574
379 0.56662834 0.32609963 0.5972363 -0.47669488 -0.17404135 -0.2869863 0.25258777 -0.56875396 0.5032691 -0.3415319 0.79409707 -0.1570119 0.07265582 1.0344641 0.35302088 -0.7289434 -0.42916304 1.0888146 -0.4914289 -0.22704054 -0.43633798 0.39224193 0.8456255 0.34274092 -0.37109238 -0.5117921 0.17813875 -0.3346909 -0.70722777 0.42403603 0.68363404 0.43471733 -0.80091673 0.034576435 1.2185954 -0.1789334 0.59502816 0.0507944 -0.010883258 -0.29565126 0.50768137 -0.34721947 0.16027875 0.28269598 0.42142808 -0.1224011 0.1521125 -0.3246738 -0.7547758 -0.68036354 0.6562451 0.40087748 -0.41931662 -0.60204524 -0.20405082 0.1383484 -0.06330146 -0.6459241 0.3492859 0.3689681 0.3677085 -0.60143286 0.14698614 0.5450347
376 0.69819033 0.23306271 0.45473823 -0.35529077 -0.07044716 0.22844507 -0.3102227 -1.2558681 0.49584568 -0.6934205 0.6340111 -0.31211153 -0.37945867 0.62367696 0.69435316 -0.5161086 -0.4305091 0.4210841 -0.9166475 -0.5219254 -0.65239906 0.37537462 0.16245376 0.16726075 -0.40879127 -0.42449203 0.24556786 -0.20983873 0.15717196 0.2843137 0.08507932 0.34443775 -0.8677393 0.24096519 1.1693021 -0.102222145 0.9171379 0.118240796 -0.2453282 -0.41605192 0.09094759 0.3218476 -0.004830258 0.20289944 0.7550622 0.25640324 0.44179714 -0.3984093 -0.094677635 -0.8382895 0.23348199 0.06931266 -0.44392577 -0.74045414 0.00061263057 0.5439856 0.4234951 -1.198742 -0.17209144 0.2520254 0.22009668 -0.33844617 0.091736354 0.80872786
303 0.6611658 -0.559858 0.09288389 0.13652495 -0.008911615 0.67163944 -0.7128248 0.24623051 -0.23165882 -0.19221812 0.47470197 -0.10632588 -0.16984227 -0.11511199 0.66225785 -0.78730917 0.50524056 0.4825671 -0.9575846 0.0045986744 -0.6729377 0.2584155 0.9598795 -1.0673499 0.36799505 -0.6022275 0.20553558 -0.26258615 -0.69861627 0.20854875 0.32892027 -0.34916 0.5115474 0.7192881 0.52147406 -0.5703453 0.4728341 -0.32703972 -0.70856637 -0.41039723 0.1378893 0.22852486 0.25806475 -0.15355848 0.46841127 -0.05829772 0.089415655 -0.7911607 -0.6290771 0.3019163 0.6464128 0.4048854 -0.77914673 -0.764711 0.042147547 -0.096071884 1.6191397 -0.8489261 -0.4569953 0.033809714 -0.092031956 0.103474885 0.065128714 0.23060587
219 -0.35467303 0.10202522 -0.1917006 0.048742797 0.12184295 -0.044608843 0.44983384 -0.0968345 0.18793987 -0.37140504 -0.29777893 0.030218229 -0.06304644 -0.23129976 -0.47683498 -0.4933373 0.23671243 0.37437105 -0.43279412 0.09515718 -0.5655332 0.63504183 0.05193035 -0.16243264 0.52642673 -0.14672546 0.35870144 0.102376685 -0.6056764 0.0012964382 -0.045836143 -0.6889422 0.22487189 0.22655277 0.45698947 -0.30377382 0.07861172 0.34423634 0.38170922 -0.36312786 0.35413757 0.23808114 -0.4127793 0.13741283 0.24054989 -0.21567152 -0.058054447 0.527912 -0.53167933 -1.0673056 -0.032965925 0.45749518 -0.46957093 -0.08812345 -0.10436028 -0.34679013 0.9317784 0.09291751 -0.4337109 0.24015889 0.07235387 0.06959751 -0.33720645 -0.2688376
294 0.19215406 0.3013539 0.11209888 -1.5197066 0.39451432 0.015506165 -0.11082175 -0.59732836 -0.09994263 -0.18718328 -0.22800061 -0.6819307 -0.39364046 0.32030693 0.7928823 -0.78147596 0.05177236 0.36744025 -0.13465534 -0.02273947 -0.2958199 0.49320093 0.97539145 0.45375323 -0.39668828 -0.7481811 -0.06262136 -0.44210437 0.2502835 0.21372026 0.2231924 -0.99922407 -0.17411287 1.279096 0.12420631 -0.4363978 0.65910107 0.029664164 0.6679793 -0.59494096 0.27730322 0.39348534 -0.14006913 -0.30139583 0.8894768 -0.019747492 0.46992746 0.042757448 -1.0216242 -0.346267 -0.44617927 0.30056554 -0.279607 -0.8745062 0.38187027 0.50372577 0.05925685 -0.7412532 0.3055467 0.35531884 -0.22983702 -0.06508865 0.7262892 -0.37115318
324 -0.038352553 -0.011031872 -0.3440518 -0.2796256 0.42971718 0.5597819 0.5128949 -0.8697248 0.67925406 -0.48771912 0.26324582 -0.9374181 -0.72329193 0.036829196 0.2426004 -0.9106348 0.1473984 0.2762203 -1.2424322 0.10486459 -0.9211078 -0.052058462 0.4720443 -0.8925038 0.7326889 -0.58094054 0.31680322 0.2310692 0.01106057 -0.34240326 -1.0753931 -1.7212532 -0.81691986 0.37251398 0.4081802 -0.7681143 -0.38115388 0.27360323 -0.10653409 0.21915647 0.19809943 0.43881452 -1.3081639 -0.14487295 0.15130854 -1.0585597 0.4709225 -0.17894691 -0.5655198 -0.78413707 0.25690848 0.56518024 -1.0344296 -0.6857857 0.11977706 -0.04748563 -0.4082965 -0.05915507 -0.40269384 0.18306838 0.3388628 0.09507106 1.0741619 -0.031720296
275 0.8719775 -0.20990378 0.15718782 -0.4518511 1.4570426 0.15732671 0.6499782 0.037886057 0.51013476 -0.29574117 0.9086753 -0.047025345 0.672746 -0.8787697 1.0579056 -0.40623546 -0.15329112 0.91520244 -0.014997504 -0.5926956 -0.8791225 0.05411836 0.5506444 0.79063 0.10359983 -0.3595374 0.050298832 0.6071857 0.16718392 -0.05938067 0.40217462 -0.64313585 -0.9436504 0.4907317 0.39289305 -0.10522091 0.37881815 -0.6419778 0.3058146 -0.4604639 1.0244781 -0.481096 -0.97236425 -0.8609193 0.4883886 0.16273361 0.5273825 0.10223851 -0.17964536 -0.5040168 1.0110005 0.52681446 -0.9929285 0.14462297 0.18074943 -0.36010247 0.2344014 -0.10773933 0.0370779 0.6113309 0.47908658 -0.61370224 0.6103191 1.2963325
362 0.7257527 0.047839258 0.09302898 0.105414174 0.43354034 -0.4106573 0.15703765 -0.7755566 0.2495277 -0.3139014 0.7688111 0.27240494 -0.40655044 -1.0186856 -0.18120976 -1.0489562 -0.16138804 0.7317808 0.14886878 0.17733271 -0.6268025 0.3071155 0.06263592 0.39902934 -0.4193659 -0.4286809 0.6836638 -0.25308454 -0.721321 0.58033186 -0.32874593 -0.98111516 0.7686339 0.6542498 -0.35724404 -0.44242647 0.71460396 -0.309555 -0.22210598 -0.5053738 0.74055535 0.8861186 0.021953 0.43155172 -0.01564851 -0.44629273 -0.23260628 0.23193763 -0.30194 -0.71603495 -0.17302208 0.90202403 -0.32856438 -0.010632418 -0.3407351 0.109681904 0.59801096 -0.054012317 0.2563312 0.48714146 -0.1939814 0.020711578 0.7442408 -0.055911675
358 0.7637142 -0.061460167 0.72339064 -1.0945011 0.6573294 -0.11025218 0.34183785 -0.1836199 -0.26870763 -0.99757475 0.28657132 -0.29681033 0.4595019 -0.63742673 -0.4750607 -0.29118255 0.028156381 -0.013335343 -0.893968 -1.1441257 -0.5084242 0.5041627 -0.11700442 0.28682962 -0.17424521 -0.97521746 0.5718812 0.852281 -0.97242236 0.093230076 -1.03538 0.026473172 0.40084007 0.94219494 0.17597058 -0.21032934 -0.19884406 -0.15751454 0.47432733 -0.18716884 0.08477662 -0.40887237 -0.13668655 -0.16542825 -0.15204579 -0.5224097 -0.6632552 -1.2168832 -0.3060754 -0.7836219 -0.43227425 0.4340786 -0.08337816 0.18680795 0.8735072 -0.00891703 1.1333534 -0.3495619 0.13549483 0.734452 0.49758962 -0.029195065 0.032338183 0.48045418
143 0.606167 -0.5565723 0.3903685 0.14680527 0.9510788 0.0324271 0.24800712 -0.3366518 -0.40333435 -0.50020736 -0.05940856 -0.10776824 0.3505202 -0.9640545 0.34410065 -0.009724288 0.5416101 0.8893188 0.19595037 -0.20341527 0.06817199 -0.25641567 0.7281913 -0.61663926 -0.323103 -0.8260934 -0.004494447 0.83483684 -0.44163302 0.3041288 -0.7416115 -0.66388613 -1.3260297 0.058827452 0.60586584 -0.8757082 -1.0904174 -1.1114432 -0.58709556 -0.8049102 -0.5228138 -0.71818244 -0.5074691 -0.45658714 0.64394253 -0.15700258 0.108037226 -0.32009277 -1.7097714 -0.7042264 0.7050609 0.8773013 -0.024611618 -1.3119732 -0.06589355 -0.5091958 0.8714301 -0.8012239 0.39790678 -0.90546864 0.402363 -0.7555052 -0.3445111 -0.17154628
355 0.4674504 -0.29026935 0.45155776 -0.6584923 0.33132303 0.34684545 0.37987122 -0.11875757 0.08569478 -0.51360655 0.020973813 -0.21956055 -0.43686333 -0.17807859 -0.44107205 -1.0838163 0.21350335 0.38566604 -0.8127743 -0.6705836 -0.7231421 0.3317443 0.05139546 0.545422 -0.31612828 -1.1815273 0.83360314 1.2598803 -0.56157786 -0.05292208 -0.5657288 -0.29837188 0.718571 0.4335163 0.021819932 -0.122895256 -0.20068312 0.05487515 0.27009115 -0.21127869 0.20682828 0.13948616 0.039816707 0.085092 0.14377987 -0.27358449 -0.5828201 -0.6776388 -0.2841582 -0.99862885 0.32164782 0.3349886 -0.029325617 -0.22166394 0.6488629 -0.054460783 1.3160198 -0.33788997 -0.7046376 0.36065117 0.39182994 -0.040631875 0.17321266 0.46920457
306 0.56730986 -0.23512459 -0.12782308 -0.068979055 -0.00032329763 0.0754769 -0.7807236 -0.09908296 0.51018876 -0.7982581 -0.075642616 -0.30707502 -0.32908592 0.025618551 0.03687826 -0.042788964 0.25782177 -0.04405233 -0.41758975 0.02027622 -0.98187655 0.20611122 0.7235851 -0.10748045 -0.37732694 0.014806981 1.6156533 0.15332611 -0.5200777 0.08271253 0.16354519 -0.68817884 0.7576861 0.82446134 1.2327154 -0.65036404 0.24157424 0.108475104 -0.10257128 -0.6379317 0.40691662 -0.32777825 -0.507738 -0.051845722 -0.50141394 -0.38945642 -0.65171385 -0.37840194 -0.61290413 -1.0466884 -0.19608514 -0.011392809 -0.33809984 -0.45438695 0.10902221 -0.45336112 1.3524334 -0.8299744 -0.4049124 0.9488281 -0.8336439 0.4521108 0.39431247 0.6816928
255 0.65270257 -0.5310573 0.59893763 -1.0288284 0.7062381 -0.17290576 0.9076068 -0.5377724 0.7809096 -0.28460494 0.99362797 0.013424866 -0.44780695 -0.6343121 0.8401663 -0.40783066 -0.04667608 0.5087452 0.78550476 -0.6289967 0.5304848 -0.10185549 -0.16471098 0.37539428 -0.06951251 -0.33336017 0.4934391 -0.52596813 0.041882094 0.30971783 -1.275111 -0.7897292 -0.33770585 0.47398877 0.8077448 -1.1727207 0.54513747 -0.46941942 -0.11848168 0.24568962 0.6272865 0.66269094 -0.7325767 0.047841746 0.23860936 -0.5047587 -0.5443158 -0.13123801 -0.66997886 -0.92798203 -0.078482784 0.868093 -0.10528544 -0.66304404 -0.09138832 0.07923606 -0.20478453 -1.2165251 0.418465 0.26654848 0.32671288 0.23366342 0.8072747 -0.002748365
276 0.13869917 0.1776354 0.039765056 -1.1318015 0.64492214 -0.2282989 -0.18951175 -1.2671438 0.19980866 -0.599501 0.20618413 -0.17761289 -0.32518008 0.16199027 0.029981539 -0.5435087 -0.20565712 0.46953365 -0.15257268 -0.7749359 -0.25787386 0.693605 0.68183833 -0.21808346 0.33931836 -0.7333785 0.40930697 -0.18338354 0.18539755 -0.17362009 0.9168005 -0.02346653 -0.55341613 1.1865916 0.037484128 0.14772634 0.023891108 -0.13944717 -0.05117159 -0.4146544 -0.021344569 0.22034176 0.45024776 -0.4283085 0.98609585 0.07560793 0.3194294 -0.001820448 -0.5998659 -0.3882167 -0.28141126 -0.6473665 -1.2067653 -0.61850697 0.12817483 0.20281267 0.05717509 -0.14537135 0.18290749 0.44455716 0.18018545 -0.9055671 0.14616457 0.31642956
145 0.36287716 -0.07486959 0.18179412 -0.798831 0.2704647 -0.24915217 0.42351204 -0.8791453 0.6155164 -0.10584501 1.4461437 0.7666565 -0.47047833 -0.59549874 -0.23219511 0.02430769 -0.27052942 -0.0554824 0.022190947 0.478008 -0.87824136 -0.51825446 0.057323787 0.13614316 -0.24151555 -1.1225547 0.64496684 -0.02626668 0.16103533 -0.1824874 -0.62124234 -0.8730234 -1.6107789 0.7482493 0.86850715 -0.72478974 0.7523301 -0.90950614 -0.038870983 0.26594323 -0.13367598 -0.34155557 -0.06192339 -0.23316808 0.035057034 -0.11311386 -0.37545046 -1.0110538 -1.3126366 -0.042114567 -0.11126882 0.89789367 -0.30165434 0.18932918 1.4379486 0.2596216 0.91129375 -0.5639583 0.19745803 0.01862928 -0.22116347 -0.9923216 -0.07277709 1.3866763
240 0.41065165 -0.019338729 0.049642835 -0.38820243 -0.10893967 -0.35526717 0.1951397 0.6398881 0.011564058 -0.5610403 0.28608346 -0.1780824 -0.6009928 -0.16028002 -0.8070347 -0.27238655 -0.07331112 0.2696822 -0.2657876 0.07445459 -1.1680386 1.3280574 0.49965045 -0.1900861 -0.09982585 -0.09594466 0.18166949 0.32503602 -0.82800674 -0.34567922 -0.017203338 -0.84530324 0.58671397 0.4281853 0.9032074 -0.3577464 -0.36166203 -0.15680675 0.75584 -0.73247147 0.6493596 0.6787229 -0.48143762 -0.31001836 -0.18431902 -0.5592498 -0.44165584 0.1996043 -0.7018913 -0.29690355 -0.04512086 -0.0043174117 -0.13643052 -0.43090463 0.07125551 -0.2562277 1.1833636 0.21317677 -0.38846022 0.011578511 -1.2613002 -0.09480881 0.6623324 0.34890413
360 0.73005265 -0.2565499 0.45207286 -0.15792707 0.25663164 -0.49393067 0.34821373 -0.6015671 -0.074922614 -0.7942106 0.1494049 0.33833995 -0.46576798 -0.8121166 -0.21545666 -0.9147016 -0.3970371 0.74986273 0.23671168 -0.09948789 -1.0395722 0.080267355 0.55713964 0.45864218 -0.49595097 -0.39235976 1.0006133 -0.30871198 -1.1120021 0.63109577 -0.068247974 -0.7172311 0.69218975 0.05461508 -0.17773074 -0.4230404 -0.09598562 -0.53710186 -0.6375816 -0.7977696 0.12810668 0.6263588 -0.34935915 0.30971396 0.34233478 -0.1427247 -0.20198138 0.42428157 -0.3481186 -0.43697882 -0.32801375 0.7038949 -0.3217986 -0.4432109 -0.20279703 0.028001077 0.47550622 0.33696142 0.04859141 0.36630797 0.067058295 -0.27720308 0.2755139 0.5118102
128 0.06714889 0.4187189 0.19198816 -1.272937 0.3795745 0.77090263 -0.5743569 0.11266846 0.07964445 -1.3400859 0.91358066 -0.20668271 0.024539184 -0.28754348 0.6788428 -0.27290794 -0.1995525 0.76499987 0.20103815 0.31558087 -1.1421493 -0.7123065 0.48452374 1.1815051 -0.3277581 -1.0276556 0.49989983 -0.0952931 -0.39078787 -0.24164887 -0.29932848 -0.9812375 -0.14349006 0.4952048 0.91488117 -0.26491085 0.25047064 -1.022959 -0.19706954 0.022693643 0.4316437 -0.21695994 -0.08431067 -0.0727303 -0.026350174 -0.3245285 0.12872624 0.6578271 -1.1503574 -0.45791623 -0.11796948 0.8442862 -1.18874 -0.6919574 -0.23676075 0.6161511 0.53974366 0.110800095 1.4960791 -0.555833 -0.095090084 0.099408895 0.45371604 0.728012
215 0.76317513 0.44580433 -0.19789863 -0.05574265 -0.013880475 -0.26575097 0.56528026 0.00027865957 -0.3765739 -0.679334 -0.4821981 0.022330523 -0.6422772 -0.19554837 -0.85330164 -0.06527173 0.6832153 0.07043749 -1.0184801 0.19513126 0.07527129 -0.058205187 0.34967187 0.00013767011 0.16354142 -0.23846476 0.25530902 0.25428247 -0.11605961 -0.37402248 -0.30105615 -0.5590011 0.040755395 0.67005765 0.793887 -0.4017001 -0.17620894 0.12651363 -0.0039683464 -0.58316904 0.13413396 0.55915797 -0.24232559 0.49208984 0.34947738 0.071649514 -0.6184922 -0.20768847 -0.075463936 -0.6834999 0.10925023 0.26422837 -0.96761155 0.05556993 -0.1940709 -0.16492707 0.39304692 0.16844004 0.10230266 0.42281708 0.7985437 -0.30521497 0.054109108 -0.4639573
347 0.4320298 0.0896671 -0.12537228 -0.3480028 0.17663492 -0.08154109 -0.35570356 -0.6633657 0.24508117 -0.50375056 0.61980283 0.020049153 0.10081463 -0.80238914 -0.57543325 -0.6584073 -0.051333383 0.085663326 -0.7237181 0.017793275 -1.0355737 -0.2555677 -0.1033654 0.7046572 -0.20753229 -0.9570662 0.38461313 0.13495423 -0.9360576 0.1779641 -0.081601284 -0.59152144 0.19332716 0.1986841 -1.0041519 -0.053238958 0.38343439 0.3169478 -0.26096952 -0.91052824 0.62660533 -0.1282736 0.58507264 0.71108824 0.096374035 0.17948648 0.04076413 0.36852354 -0.8001638 -1.019897 -0.28435403 0.67319274 -0.8664714 -0.60639226 0.035913102 0.07720427 1.2600154 0.1811089 0.18210983 0.42865172 0.3162501 -0.33775306 0.2138203 0.74572855
243 -0.20841648 -0.29606676 -0.41509062 -0.3453633 0.6265779 0.27642828 0.6684223 -0.6912326 0.75696385 -0.05711385 0.5029639 -0.19274041 -0.7541214 -0.05587793 -0.21671502 -0.6463901 0.7772604 0.23739932 -1.2259938 -0.16779411 -0.9567541 -0.05761021 0.6117574 -0.71023446 0.41869792 -0.52492183 0.3010518 0.7508129 0.061703254 -0.54033583 -0.82722384 -1.2991751 -0.19490084 0.07191354 0.6263631 -0.8513045 -0.24529622 0.32299337 -0.13055103 0.23866923 -0.64617896 0.30813447 -1.1630728 -0.22566447 -0.07543399 -1.088623 -0.20292634 0.18021749 -1.022084 -1.0295489 -0.43873858 0.45154488 -0.29888752 -0.69777876 -0.38544038 -0.55865705 0.4424337 0.19576788 -0.13999583 -0.16641097 0.48557582 0.013917262 0.32241392 0.13244079
310 0.5178445 -0.4265098 -0.15291616 -0.35606322 0.18361887 0.32921582 -0.19299124 -0.029810373 -0.062003087 -1.3109475 0.39238364 0.45458475 -0.9841141 -0.26335955 -0.419892 -0.1633605 -0.23801868 0.12840125 -0.23467892 -0.23954108 -0.84721667 0.5093221 0.7341811 0.107478976 -0.41907713 0.33833802 1.2514844 0.559513 -1.4498595 0.31071764 0.11824681 -0.7819602 -0.20481023 0.026572533 0.94175875 -0.08565135 0.4518399 -0.25370532 -0.23504622 -0.8462404 0.43515736 -0.2836277 -0.4544532 -0.17090096 -0.21978377 0.29950112 -0.6649372 -0.45272595 -0.28150085 -0.28403568 0.16525072 0.3345936 -0.607155 -0.42649212 0.47192818 -0.039446067 0.51360816 -0.49965432 -0.42052972 0.1465354 -0.7279269 0.33368745 0.021425866 0.68208826
412 0.84324974 -0.22858053 -0.6098574 -0.6587089 0.50881416 0.035752304 0.03841263 -0.2988602 -0.11344041 -0.5368677 0.3611129 -0.20224549 0.16499121 -0.37101105 0.141358 -0.51357275 0.8192987 -0.17114873 -1.0164098 0.3860485 -1.0562307 0.21967767 -0.24911942 0.1844736 0.3112373 -1.5821236 0.34303778 0.49270633 -1.2526025 -0.10567449 0.17413194 -0.3706262 0.2975344 0.3309226 0.21288384 0.028490618 0.18398118 0.0005557141 -0.5167054 -0.18045345 0.60597056 -0.040452026 0.24897335 -0.08731328 -0.06979746 0.27737966 -0.17962684 -0.18709393 -0.10132606 -0.97853506 0.0038598413 -0.43536273 -0.7865815 -0.099990994 -0.070147075 -0.064869314 0.8351906 0.05839931 -0.07615974 0.0075816717 0.38487405 -0.5013401 0.5999932 1.0741357
317 0.3236051 0.3621601 0.26023608 -0.8524477 0.4707809 -0.14830825 -0.29582298 -1.4058319 0.082454264 -0.579729 -0.019892879 -0.60155046 -0.2913148 -0.34281158 0.016895799 -0.73373383 -0.40943775 0.5168569 0.23490082 0.061184563 -0.36322606 0.27710012 0.75110555 0.58106583 -0.77385914 -0.49894896 0.2842388 -0.3706072 -0.22888476 0.39105126 -0.20931041 -0.555955 0.42732292 1.466641 -0.20762691 -0.39726347 0.32241926 0.1132968 -0.1928281 -0.6731176 0.58417267 0.9163419 -0.11584842 0.12833893 0.69699997 0.11608656 0.112919606 0.36878756 -0.67311347 -0.98214245 -0.6589211 0.5784827 0.019323114 -0.23888932 -0.36998522 0.31130838 0.028350243 -0.22488086 -0.0060368082 1.1631161 -0.24658242 0.2991243 0.50440645 0.0037727777
364 1.030699 0.09594222 -0.27931598 -0.13757496 0.02494641 -0.50472844 -0.054777525 -0.38397887 -0.0005600625 -0.38252878 0.24167605 0.22474548 -0.4151022 -0.5295985 0.17845573 0.36462447 0.3370125 -0.21923867 -0.3389986 -0.042766172 -0.70095366 0.20132749 0.12332529 -0.7299782 0.71557784 -0.721959 -0.47542647 0.16830672 -0.5046333 0.019858593 -0.56832474 -0.8130224 -0.46756902 -0.13077985 -0.10573529 -0.245721 0.70720047 0.14359887 -0.6813221 -0.140504 0.6607265 0.10666597 0.6473711 0.5724677 -0.14392652 0.15698954 -0.19541952 0.032111634 -0.64053637 -0.6493083 -0.064375915 0.55099034 -1.1453911 -0.8528779 0.3135276 -0.5922685 0.67725915 -0.245589 0.48832163 0.111513294 0.052659526 -0.5668301 1.1415879 -0.124283664
389 0.10577017 -0.07383663 0.2351702 -0.7541691 0.30570891 -0.29704332 -0.68520886 -0.7175532 0.86435133 -0.04976191 0.010465743 -0.30474073 0.39258263 -0.23542565 -0.0032385043 -0.13671452 0.14834236 -0.11120219 -0.1154734 0.5276407 -0.53740597 0.29637897 0.1834778 0.2453323 -0.63784873 -0.29500094 -0.09645407 0.70936733 -0.4460257 -1.0977671 0.24743265 -1.1439425 0.1067188 0.08090854 0.6743282 0.28952888 -0.64943105 -0.3206348 0.35665834 -0.24081832 0.51822394 0.22962531 -0.71871364 0.6006842 1.1585112 -0.43863243 -0.6419 -0.20329145 -0.08513353 0.2397932 0.037228335 1.2951652 -0.09681666 -0.648921 0.10959253 0.53410214 0.8176114 -1.1153432 -0.48577476 0.4001606 0.22522388 0.44317618 0.32351384 0.6636121
349 1.0118746 0.07343753 0.24913122 -0.9628367 0.31784394 0.045283962 0.82867664 0.005708026 0.33910626 -0.6432257 0.16695681 -0.37804112 -0.12583764 -0.1287066 -0.29494968 -0.7054177 0.34420764 0.095848225 -0.78768235 -1.0109096 -0.36926556 0.10696834 0.038238373 0.2911973 -0.2759513 -0.5445298 0.49707565 0.44906542 -0.5528914 -0.31232095 -0.75237095 -0.10947596 0.5295076 0.46554258 0.008925289 -0.46661013 0.01984259 -0.14473681 0.7084121 -0.22929035 0.2402787 -0.12415191 0.25723365 -0.5235121 -0.15477811 -0.57937205 -0.76493603 -0.4563546 -0.9380275 -0.74663347 0.08987801 0.04629831 -0.24467933 -0.2646418 0.64530027 0.08565647 1.1717534 0.1148749 -0.87034184 0.889748 0.6039833 0.3295359 -0.39852667 0.12208682
395 0.45446292 -0.19977032 -0.5324427 -0.45490643 0.1151647 0.25154054 -0.08723085 -0.34859347 0.15594631 -0.2711732 -0.24332635 -0.1379636 -0.4703194 0.3032767 0.30268446 -0.7823677 0.057875823 0.44317687 -0.42826447 0.40173978 -1.068375 0.24196345 -0.026730198 0.14720942 -0.8007596 -0.26082897 0.24059631 0.07988145 -0.9667588 -0.57729596 0.4287521 -0.8334251 -0.02128765 -0.37316823 0.57759607 -0.16066507 0.11390646 -0.63677335 0.010919861 -0.19256958 0.8692926 0.54070616 -0.297428 0.64230704 0.56144273 0.26490748 -0.79870486 -0.2312387 -0.24190687 0.09786136 -0.31721804 0.44329587 -0.34216765 -0.800981 0.85286653 0.10694842 0.8415407 -0.97345084 -0.62950754 0.8065489 0.02578034 -0.26078582 0.4494109 0.8465922
222 0.33358848 0.061014764 -1.1782988 0.0019345192 -0.10679369 -0.13609202 0.04550201 -0.059600327 -0.022068994 -0.068018585 0.35147426 -0.23574889 -0.16125652 -0.4007589 -0.7180896 -0.44428045 0.07499257 0.30500352 -0.48320985 0.1343105 -0.53728014 0.60957056 -0.62696046 0.22368711 -0.21003781 -0.655715 0.8472435 0.84704995 -0.0015772599 0.21808952 -0.33716857 -0.39132786 -0.26624444 0.27624238 0.7726368 -0.3489316 0.08063927 0.30248863 0.33103466 -0.80334806 0.5643299 0.61795956 -0.67738175 0.11397437 0.50109917 0.06120787 -0.27640787 -0.14592032 0.103354834 -0.6300289 -0.18848978 0.23467647 -0.6751055 0.31841823 0.31123626 0.27142864 0.87119997 0.016653031 -0.3247501 0.60687363 0.5202548 -0.32998416 -0.39563882 -0.14561382
311 0.39055082 -0.316246 -0.11209374 -0.48730698 0.17618167 0.40210885 -0.27363855 -0.0019581004 0.07662288 -1.2360604 0.37153423 0.40795586 -0.9462433 -0.32505885 -0.46074146 -0.21424633 -0.19757803 0.2127716 -0.28469396 -0.250871 -0.7852506 0.33915743 0.75391257 -0.03244578 -0.47496074 0.103284925 1.4079741 0.6929305 -1.4667931 0.23060197 0.19311444 -0.78965753 -0.112726696 0.042824164 0.98975295 -0.10424715 0.66407657 -0.2184937 -0.21201478 -0.7914277 0.41347608 -0.3167458 -0.26138023 -0.17612582 -0.2412687 0.2731185 -0.69940984 -0.43209535 -0.38188732 -0.4531159 0.20825525 0.26205578 -0.58563125 -0.4015865 0.39319906 0.26288292 0.6427582 -0.42587626 -0.5011814 0.16344585 -0.5953932 0.4233321 -0.071494065 0.65316
119 0.65415686 0.2810708 -0.3509669 -1.579487 0.6144382 0.18828145 0.33774132 -0.44191712 -0.5124565 -1.1362975 0.15915897 -0.4843095 -0.31747907 -0.075803265 0.9198483 -0.22194831 0.36762628 0.67450446 0.5924094 0.42809147 -0.75640327 0.7407498 0.4724698 0.6233417 -0.72231835 -1.4062523 0.22322549 -0.3372931 0.16328527 -0.9683408 -0.10435926 -1.0906453 -0.37813607 1.0057436 0.48050675 0.104109004 -0.2649994 -0.11904186 0.4882059 -0.16374053 -0.04433069 0.056203745 0.025516557 -0.7556073 -0.012407219 0.3607687 0.607958 0.7406745 -1.0990831 -0.32210776 -0.18480423 0.044056427 -0.1727933 -0.3851836 -0.18652855 0.27293235 0.5820504 -0.637416 0.26418495 0.027974227 -0.67136353 0.06629568 0.33857596 -0.75078523
411 0.7496021 0.34606218 0.09795964 -0.89845806 0.04022321 -0.250771 -0.13523823 -0.4660927 0.15584618 -0.04770266 -0.025377732 -0.5529955 -0.60528916 0.34785882 0.1857195 -0.6470359 0.11861435 0.2558621 -1.1231847 -0.16842324 -0.8688355 0.79431003 0.21632913 -0.2939226 0.35675627 -0.9874585 0.54152787 0.10657425 -0.92681974 0.31993398 0.43339428 -0.65766186 0.23624298 0.48426473 0.4754119 -0.50840926 0.32821533 0.076181 0.009819829 -0.24942641 0.86081874 0.47696128 -0.088020995 0.0009667506 0.57246274 -0.4303777 -0.23069896 -0.007664046 -0.2614721 -0.85031116 0.12973797 0.019646268 -0.6446639 -0.4540512 0.26880944 -0.15933298 0.5002651 -0.38509014 -0.48878536 0.77808523 0.66782266 -0.56900156 0.55027807 0.2681854
217 -0.42954308 0.35805422 -0.20938787 0.0033113656 0.042795725 0.12352135 -0.07381665 -0.2668572 0.36143902 -0.5379333 0.028897874 -0.053074397 -0.5236623 -0.42665967 -0.39097622 -0.17883156 0.16553044 0.38994 -0.6289899 0.11548988 -0.3019077 0.17132808 0.41883805 -0.2147312 0.6315132 -0.09703246 0.10735427 0.20818554 0.05763571 -0.18738244 -0.23418255 -1.3902913 -0.050202418 0.32318857 0.39462695 0.069794655 -0.31386366 0.71916395 0.39108858 -0.2822414 0.0029086382 0.377709 -0.48486513 -0.07131849 0.55838543 -0.24307683 -0.2579764 0.72150224 -0.40026867 -0.8902108 0.60408926 0.7957405 -0.5734797 0.03871613 0.30617267 -0.07176998 1.1249857 -0.025899503 -0.4523875 0.6862278 0.1351151 -0.09334939 -0.017351748 -0.7477685
370 0.71436256 0.15026578 0.19824904 -0.38603345 0.16337736 -0.06395789 0.21920295 -0.77887297 0.07969518 -0.3826253 0.042504687 -0.14104445 -0.35394618 -0.7980722 0.17919847 0.23211768 0.21830411 -0.22626825 -0.49073625 0.19010605 -0.63433003 0.38708624 -0.23378073 -0.021636425 0.81224877 -0.4861355 -0.46017596 0.15099402 -0.88762206 0.2181255 -0.19449516 -0.433822 -0.3120199 -0.0025939732 -0.1349977 -0.5957234 0.19273174 0.35117477 -0.93343794 0.0017477003 0.48768348 -0.17265232 0.999686 0.7459038 0.033061236 -0.021891529 -0.24955912 -0.11100659 -0.7670461 -1.0222043 -0.07758142 0.7944659 -1.0020434 -1.1789603 -0.026133738 -0.18426208 0.8716804 -0.58640844 0.44160128 0.3608625 0.55464727 -0.71773493 0.8696964 0.06617632
238 0.22497466 0.18385357 -0.22549728 0.09874906 0.020061156 -0.62108636 0.34888947 -0.03797436 0.05548451 -0.3860799 0.88253385 0.015995 -0.27249834 -0.30614668 -0.1001712 -0.7513349 -0.083735675 0.45160586 -0.40512022 -0.01982408 -1.2491716 0.71735424 0.25129887 0.08434705 -0.06138595 -1.0083826 -0.044643827 0.09659194 -0.9037226 -0.2935381 -0.20178683 -0.64976186 0.58627594 0.5271399 0.035639368 0.046666663 0.035039533 0.31403804 0.7014636 -0.9338142 0.11450853 0.6385545 -0.1441604 0.46024665 0.23591799 -0.7326206 -0.15409261 0.46280912 -0.945815 -0.57897687 -0.2680494 0.66964895 -0.25000232 -0.5280118 -0.095884286 0.16552278 0.95854944 0.86248475 0.038011823 0.03580219 -0.09005692 -0.42766982 -0.24131994 0.24892196
259 1.6218315 -0.175311 0.67865205 -0.23196974 0.5198837 -0.42597285 0.5867577 -0.1708829 0.1691134 -0.54389364 0.84265965 -0.41477647 0.06977671 -1.0875517 0.50124955 0.09719119 1.0031972 -0.052513223 0.66632247 0.34752008 -0.013800207 -0.20615046 0.6102412 -0.32609904 0.3618709 -1.008882 0.85675 1.0802647 -0.61314476 -0.51066923 -0.71564674 -0.16468233 -1.3875052 0.5400653 0.7412059 -0.79923147 0.004635567 -1.142095 -0.35171202 -0.29789525 0.45504808 -0.17194441 -0.81171066 -0.45756295 0.8709239 -0.52174807 -0.076275714 -0.4141668 -2.068911 -0.3327116 0.7978007 0.13620615 -0.3499929 -0.1419971 0.07848214 0.31014657 0.31448707 -0.77309006 0.33835194 -0.38981205 0.15651467 -0.009956329 -0.94685024 -0.6921271
321 0.36229104 -0.009857144 -0.09974898 -0.40101504 0.4908147 0.53177273 0.4292895 -1.1960542 0.8797668 -0.7579677 0.10915797 -0.6215451 -0.44257975 -0.35394663 -0.034934808 -0.8704305 0.10066801 -0.14304745 -1.1401448 0.12192622 -0.33111662 0.2844158 0.2651449 -0.5280494 0.8725788 -0.40518034 0.21847907 -0.3634998 0.3167858 -0.5529204 -0.8630101 -1.533941 -0.63834304 0.16847306 0.29020086 -0.6478273 -0.6040748 -0.074385785 -0.37124625 0.09330581 0.3710769 0.27887732 -1.3995979 -0.30951923 0.12700063 -0.8121677 0.11704697 0.4316472 -0.7007897 -0.76444614 -0.03656093 -0.034435276 -0.4477119 -1.2728602 -0.30167148 -0.49037296 -0.020640833 -0.10209371 -0.38100728 0.31259158 0.2169686 0.33386332 0.51658976 0.4515212
133 0.30395457 -0.19697675 0.09454248 -0.7964126 1.3707771 -0.24184725 -0.07497763 -0.34243375 0.20550545 -0.2724814 0.20095795 -0.82025075 0.4226387 -0.06282532 0.58192164 -0.253642 -0.21703681 0.45389086 -0.33976775 -0.6541169 -0.581311 0.121638164 0.53193235 0.34622848 0.39826536 -0.36675894 -0.2755081 0.11059484 0.9182936 0.01814799 0.22770874 -0.42480382 -1.0888214 0.61737084 0.41254 0.00313035 0.37306705 -0.006082966 0.046786625 -0.50845313 0.57608914 0.02996443 -0.54751897 -0.621935 0.69954866 0.10697518 0.9796578 0.17012972 -0.75084066 -0.54994917 0.8834108 -0.034357045 -0.46312392 0.315845 -0.32522452 -0.22769804 0.21289942 -0.087721184 0.49570248 0.47569 0.024518386 -0.26609015 0.4311433 0.78853506
180 -0.17457709 -0.078462936 -0.68935895 -0.1535402 -0.28089327 -0.64972717 -0.07201358 -0.2859832 0.9525927 -0.25416246 0.21362083 -0.1859598 -0.21688303 -0.3547773 -0.33921406 -0.39034614 -0.19902213 -0.43693846 -0.6992088 -0.5698993 -0.5579085 0.39282638 -0.13251397 -0.09930401 -0.13055906 -0.288979 -0.008573263 0.19145851 0.023115275 0.37697285 -0.013406018 0.002936078 -0.5896036 0.26833192 0.41841626 0.103584364 -0.26931807 -0.0052521466 0.13924704 -0.21751249 -0.091837935 0.36045262 -0.29411778 0.26915523 0.81461257 -0.06839981 -0.40350717 -0.10026047 -0.2550721 -0.32099396 0.60034704 0.7974588 -0.71715605 -0.44507265 0.18104403 -0.16076599 0.29013067 -0.04939518 -0.33258268 0.629538 0.43657574 0.17081662 -0.47815198 -0.30449998
369 0.76552624 -0.001016834 0.23744966 -0.24403833 0.34901828 -0.114635535 0.30560052 -0.73342144 0.24588594 -0.28429535 0.17463861 -0.22279282 -0.28742868 -0.85897255 0.39581242 0.2618716 0.11458667 -0.21774164 -0.4678874 0.15424703 -0.48148218 0.4054583 -0.24145567 -0.07204746 0.9065806 -0.38872948 -0.5486582 0.11722845 -0.8921705 0.21645966 -0.12893218 -0.41227698 -0.40817997 0.047411293 -0.16384342 -0.6991369 0.35862777 0.35181245 -0.96887606 -0.15434776 0.5101957 -0.17130733 0.91972816 0.58857757 0.12404099 0.03473616 -0.12936947 -0.16545974 -0.6551807 -0.9648097 0.12223719 0.61438406 -0.80351275 -1.0539476 -0.10150023 -0.2542518 0.751285 -0.56566805 0.29889113 0.33553287 0.3739924 -0.59566134 0.82963675 0.13705662
109 -0.028967297 -0.48109967 0.3871155 -0.5989301 0.5684192 0.17459503 -0.5768831 0.0144541785 0.0026698424 -0.40523216 -0.4487212 0.058910996 -0.21959426 -0.470425 0.14058413 -0.2968415 -0.09307227 0.5208652 0.052737493 -0.18899934 -0.20381853 0.24365221 0.1137445 -0.6491407 -0.29592478 0.3877123 0.64930904 -0.122651696 0.6447654 -0.43866655 -0.29658726 -0.2792459 0.12573308 0.06985895 0.8363095 -0.2828053 0.08374903 -0.7148137 0.13649459 -0.6498802 0.6088237 0.13643424 -0.3970326 0.44311193 0.18289764 0.35582197 -0.42110354 -1.0596352 -0.4141096 -0.058231577 0.6344405 0.172562 -0.86995673 -0.38298872 0.17932872 0.64227664 0.9933181 -0.5845534 0.42564806 0.80472463 -0.7958199 0.24431628 -0.09952898 0.16918811
62 -0.4223255 -0.63043195 0.0011729008 -0.23585668 0.86001337 0.49989834 0.10613982 -0.29004097 -0.4682554 -0.3123404 0.67718816 0.7398283 -0.26309192 -0.15519305 -0.07596882 0.0448292 0.059513114 0.9645144 -0.42476273 0.18945563 0.106910415 0.08197244 0.67735577 -0.37344506 -0.052436598 -0.44952837 0.35312167 -0.33389893 0.47041124 -0.6842521 -0.85757977 -0.5987103 0.16747017 0.33415008 1.1898265 -0.13212268 0.6741602 -0.5842076 0.8033811 -0.35855317 -0.39469135 0.3049379 -0.5198985 -0.039226785 0.3079823 0.3181942 -0.40196177 -1.3195258 -0.45291337 0.12849632 0.14225239 0.5949001 -0.6046159 0.2558988 -0.20185669 0.7340516 0.9261943 -0.51947373 -0.103042446 0.82815164 -0.42112812 0.2883627 -0.33568743 -0.021558272
263 1.7649453 -0.3845579 0.7988087 -1.0517899 0.75138354 -0.26247105 0.679205 -0.34945452 -0.20812766 -0.5466446 0.7481186 0.44941956 0.36284795 -1.1184309 0.3035122 -0.14491968 0.754105 0.52266055 0.47621647 0.108779825 -0.11211579 -0.3451934 0.6894968 0.026233992 0.5360588 -0.68499744 0.2686762 1.1643817 -0.86231226 0.08802553 -0.23095724 -0.39583975 -1.0720711 -0.29542518 1.0064723 -0.5105308 -0.087315366 -0.50658 -0.2998106 -0.25867507 -0.3699195 -0.5952325 -0.44678482 0.06378454 0.78028065 -0.48939845 -0.77744156 -0.4816711 -2.0563385 -0.7341365 0.7924035 0.46910113 -0.1789678 -0.8539096 0.103956446 0.11503953 0.24571614 -0.5535661 0.39501047 -0.19962868 -0.15761971 -0.10914896 -1.1410544 -0.86849946
396 0.53482604 -0.31735146 0.010016331 -0.3653499 0.97355324 0.07310836 -0.44015148 0.10285973 1.0278072 -0.6840199 0.25096497 0.21326666 -0.22714432 -0.39526024 0.10706324 -1.0049859 -0.1444727 0.4720788 -0.8815025 0.77458614 -1.0104737 -0.052493297 -0.011995461 0.06156567 -0.28426445 -1.0119803 0.5735314 0.4391453 -0.81617624 -0.91845286 0.28622207 -0.6791987 0.24945648 -0.5825105 -0.16135111 -0.046727248 0.22288632 -0.7629842 -0.020995941 -0.109325 0.8492436 0.091449045 0.18537584 0.6296562 1.0241126 0.114606835 -0.3983763 -0.562123 -0.1820385 0.44079795 0.30553395 0.42561185 -0.28117868 -0.21570021 0.20203307 0.11139931 1.0405948 -0.9328506 0.30340746 0.2647045 0.027176473 -0.20758177 0.39867318 0.2051143
367 0.79868305 0.33212906 0.09628185 -0.33748624 -0.056749288 -0.12846902 -0.048358534 -0.71588373 0.3851753 -0.4036833 -0.0041998066 -0.09040548 0.15575759 -0.5539227 0.07189776 0.10353925 0.087520175 -0.58992165 -0.60174525 -0.007713716 -0.44106135 0.48167932 -0.20721704 -0.279652 0.6659532 -0.19943087 -0.12578824 0.1544655 -0.83980423 0.11770057 0.056501046 -1.0107571 -0.4327248 -0.32262102 0.12831612 -0.46511886 0.2362201 0.08627768 -0.8593803 -0.4047551 0.6760022 -0.28847474 0.91403025 0.5098827 0.03470599 0.08547976 -0.6106124 0.18933667 -0.7162333 -0.7951726 -0.038142644 0.7012974 -1.0953268 -0.9597168 -0.35628554 -0.45068422 1.1495564 -1.0385311 0.52070326 -0.116065964 0.15363804 -0.09330364 1.4789951 0.20512436
357 0.47786555 -0.009479385 0.755576 -0.7892494 0.6741039 0.16754411 0.7184266 -0.2676139 -0.5421247 -1.0291479 0.7150028 -0.40611517 -0.3620991 -0.18752554 -0.97462785 -1.0327446 0.2114741 0.42009604 -0.35656157 -0.900916 -0.3414145 -0.06912395 0.11028938 0.64873946 0.10915256 -0.93672305 0.2022282 0.56589615 -0.9029511 -0.13644885 -0.40094182 -0.092202984 0.23367912 0.5031562 -0.049659885 -0.6485029 -0.33457428 -0.048445687 0.25012442 0.008294377 0.35413402 -0.21942995 0.21111105 -0.3262577 -0.33929992 -0.523804 -0.7721642 -1.197948 -0.67388415 -0.6803934 -0.14676498 0.3886383 -0.7183827 0.072787344 0.72868013 -0.5466569 0.6400265 -0.3150087 -0.21375318 0.6756551 0.29981455 0.3185639 0.046724744 0.67934394
216 -0.3197487 0.07466545 -0.30784592 0.22944857 0.15308459 0.019385066 0.31350332 0.043837864 0.6567899 -0.4554184 -0.3651066 0.36367336 -0.47292078 -0.26179478 -0.6990232 -0.03807749 -0.02189746 0.38466743 -0.47290477 -0.37781292 -0.6331742 0.5157325 0.27894422 0.05169557 0.39388224 -0.5600452 -0.00837316 0.044295587 -0.2514035 0.6207134 -0.26886383 -0.7312898 0.012693176 0.8719102 0.5260771 -0.34324738 -0.22279952 0.45388278 0.14931184 -0.2214741 0.01720509 -0.1481327 -0.37577662 0.11221488 0.7105933 -0.35153213 0.012227423 0.4391369 -0.084878534 -0.6752105 0.37919712 -0.2544928 -0.2897231 -0.056443818 -0.30267593 -0.23264883 1.0989643 -0.3354295 -0.21071282 0.5064784 0.3579053 0.060602065 -0.3558119 -0.26809004
307 0.27186564 -0.34555727 -0.09635197 -0.2139109 -0.23961559 0.5788166 -0.29582286 0.3889337 -0.01800206 -0.6773018 0.59195024 0.18656184 -0.3429747 -0.26594362 0.06811537 -0.07681157 0.057949767 0.39180475 -0.46990436 0.2372619 -0.666892 0.29051584 0.7811668 -0.07150104 -0.089188114 -0.1831999 1.0965285 0.0561307 -0.8537422 -0.05165379 0.17312379 -0.59012604 -0.089061625 0.5259628 1.5161397 -0.47282317 0.29083946 -0.40973774 0.17783034 -0.80215085 0.9160382 -0.09828371 -0.5380428 -0.31101084 -0.66836244 0.14602138 -0.4597969 -0.7751408 -0.29156077 -0.630951 -0.2641091 0.28673095 -0.6167145 -0.40933034 0.26592138 -0.16608988 1.0313624 -0.42879674 -0.36639965 0.33001244 -1.0779676 0.7612964 0.09536573 0.6402547
228 0.657789 -0.26769432 0.24627925 -0.49779955 0.32701138 -0.38455805 0.39180148 0.35086927 0.81539667 -0.6393056 0.96907127 -0.30592516 -0.48809206 -0.78559315 -0.06753027 -0.0010581849 0.33559608 -0.016884468 -1.1915196 0.49226132 -0.63418627 0.89410317 0.46506783 -0.38677087 0.18140239 -0.9405177 -0.42690474 1.0512949 0.0916057 -0.3291013 -0.45195064 -1.2704885 0.19240707 -0.4689935 0.5453728 -0.6217677 -0.14728141 0.34439385 -0.099417225 -0.15664078 0.20958231 -0.29882386 0.3235255 -0.59584117 -0.09037285 -0.22748697 -0.028986474 1.0464629 -0.5753913 -0.25981912 0.14789292 0.26448837 -0.66648525 -0.40245682 0.8173025 -0.57808733 0.24903867 -0.40720153 0.26445308 -0.28300032 0.42149648 -0.6377646 0.72349274 -0.032336086
205 0.22706367 0.09537578 0.3061993 -0.261761 -0.029716738 -0.040750753 0.39734802 -0.34810928 0.38637716 -0.57185847 -0.43848175 -0.017814893 -0.26128784 -0.541639 -0.7711042 0.028867984 0.13519686 0.44141927 -0.4300466 -0.18787631 -0.34923714 0.4059028 0.119631454 0.069740534 -0.045952298 -0.58530056 -0.278445 0.18076585 -0.5163491 -0.17303059 0.24955818 -0.19123548 0.07155426 0.42433304 0.2818806 -0.228315 -0.06108233 0.045239814 0.33143857 0.12489317 0.09204703 -0.24424407 -0.1580463 -0.18098724 0.37157187 -0.5892944 -0.77593654 -0.59438384 -0.4390398 -0.93667483 -0.2988341 0.503923 -0.3915092 0.3918417 -0.22823924 -0.28027567 0.6676913 0.010939501 -0.18504134 0.52622956 0.84826493 -0.16758595 -0.27645355 -0.28989908
144 0.40933758 -0.2164581 -0.15682513 -1.0925443 0.06869026 -0.40344405 -0.060443517 -1.0670035 0.31152558 0.2619427 0.9179411 0.8689051 -0.027858201 -0.47595683 -0.03628108 -0.45721677 -0.0032295731 0.119033255 0.06913407 0.55114293 -0.35808158 -0.16636439 -0.26377648 -0.59856933 -0.3104415 -1.5472919 0.12852444 -0.22858047 -0.12694047 0.072852015 -0.76942456 -0.3220266 -1.5970998 -0.13407174 0.6605912 -1.0369396 1.105494 -0.6366519 0.10756241 -0.034017187 0.19827417 -0.36826953 -0.29161963 -0.69655967 0.11314722 0.4115842 -0.117025554 -1.0423336 -1.8818027 -0.6802689 -0.063524276 0.7151014 -0.5706744 -0.51643604 0.8816189 -0.10138146 0.48201954 -0.7252852 -0.20834216 -0.18496919 -0.1213548 -0.14975704 -0.37039152 1.5822495
50 0.075218484 -0.80008566 -0.24783242 -0.084806964 0.5805442 0.0007531617 0.21853834 -0.22719221 -0.32842728 0.16741905 1.0679584 0.18686491 -0.28512752 -0.36018682 -0.14577289 -0.06936036 -0.3038384 0.49002692 -0.6319106 0.63439614 0.4420028 0.6279456 0.1790484 -0.0052871476 -0.0128048435 -0.11873133 0.33548394 -0.13565868 0.02676325 -0.0985861 -0.6230732 -0.07126285 0.07552453 0.54233336 0.6233399 0.28668156 0.3699231 -0.47765702 0.24145745 -0.53380257 -0.20782283 0.040117014 -0.07391341 -0.35786653 0.46057153 0.16816516 -0.43631658 -0.6120488 -0.49830619 -0.05676579 -0.19183171 0.26826072 -0.683475 0.13820979 0.2553329 0.09739592 0.4768587 -0.8639366 -0.23071042 0.7213927 0.26857442 0.23141079 -0.3928846 0.10910981
290 1.7975585 -0.52139616 0.6910998 -0.2058845 0.6396686 -0.2271513 0.60407215 -0.19852152 -0.07947107 -0.7887324 0.56318843 -0.0650592 -0.12128225 -0.7688545 0.473541 -0.48629925 0.39069936 0.21944791 0.62355274 -0.6109425 -0.42065334 0.051284492 0.74225384 0.3565871 0.3173047 0.02312481 0.41726807 0.7545773 -0.38892463 0.25477183 0.31245714 -0.38031548 -0.92139137 0.00052737474 0.48086712 -0.38650736 0.12851042 -0.7554254 -0.11532092 -0.6588498 0.58170855 -0.54606223 -0.9625561 -0.077021055 0.6602046 -0.47737148 -0.3091417 -0.58387685 -1.2171845 -0.22519048 0.7740108 -0.09210884 -0.16221312 -0.67696005 0.3163244 -0.25741616 0.09742429 0.027451146 0.39137262 -0.13841891 -0.6658507 -0.17981403 -0.56634235 -0.37975636
213 -0.7225552 0.32749122 0.29370224 -0.34289604 -0.24218321 0.08744449 0.7803986 -0.5525695 0.44917396 0.16044678 0.011453425 0.8347109 -0.014336115 -0.21857622 0.10145625 0.6075871 0.4479565 -0.20876198 -0.65712136 -0.007194114 0.08607805 0.2972721 0.27255926 -0.55963653 0.32831287 -0.57059836 0.066464365 0.5981769 -0.11664157 0.24963216 -0.6502362 -1.7863752 0.0173105 0.06981341 1.019541 -0.5595079 -0.061250195 0.15534548 -0.6035509 0.36876476 0.062140603 0.11920492 -0.66657865 -0.078518234 0.63199925 -0.43025926 -0.6487334 0.5510343 -0.692021 -0.69678867 0.58143306 0.27876693 -0.90647084 -0.104039945 0.10321651 -0.21232912 0.6486361 -0.07139852 -0.65343356 0.2660197 -0.03507055 -0.223928 -0.1492363 -0.34807637
344 -0.033399355 0.13380831 -0.36930668 -0.51325786 0.4247235 0.43861514 0.54134136 -1.401315 0.82846624 -0.4152054 0.2714556 -0.44832703 -0.47842604 0.002251297 0.38655216 -0.70574903 -0.090568155 0.029861294 -1.3146803 -0.0057008388 -0.59785837 0.16405661 0.18841663 -0.49331436 0.594937 -0.456569 0.1435778 0.25554013 0.42560333 -0.20100231 -1.0602521 -1.0731747 -0.8311464 0.036939546 0.42793092 -0.48996955 -0.056115568 -0.116534494 -0.059352253 0.05473616 0.18362981 0.18112154 -1.4858588 -0.18366086 0.22421648 -0.84862274 0.29634005 0.0460381 -0.36603218 -0.7668563 -0.13648584 0.24565938 -0.552519 -1.1382337 0.29854438 -0.5918574 -0.26592013 -0.29506814 -0.39084288 0.28142565 0.3650567 0.46389908 0.4821727 0.67272246
229 0.30833837 0.41637996 -0.06186984 -0.6288328 0.34054106 0.28684732 -0.021333626 -0.4924373 0.83735615 -0.7827516 0.46563447 -0.44279948 -0.1861216 -0.631389 0.57953036 0.055031847 0.50213367 -0.27729774 -0.8172591 0.079425514 -1.2093197 0.95715606 -0.14973707 -0.14146969 0.20390967 -0.41902828 -0.1939239 0.8920587 -0.6152055 -0.16282576 -0.73468274 -1.0296614 -0.062166687 -0.24001038 -0.24507374 -0.73069686 -0.12907878 0.33656284 -0.5756581 0.014279397 0.36002737 0.12953885 -0.20113264 -0.28346077 0.5470656 -0.2167829 -0.23867787 0.8502596 -0.049117014 -1.0628799 0.28161258 0.6494351 -0.77262914 -0.9069296 0.5489941 -0.13364525 0.5161515 -0.6748142 0.6692353 0.37476262 0.29976314 -0.6552989 0.2769223 0.33995387
111 -0.18686423 -0.13019608 0.39835083 -0.7082489 0.46829692 -0.46155795 -0.31037462 -0.15561678 0.13869686 -0.33735916 -0.46882164 -0.29019547 -0.23049177 -0.31016243 0.11258015 -0.43363217 -0.54354596 0.09645223 -0.28246903 0.10309154 -0.06356581 0.17496204 -0.15878414 -0.17474648 -0.94892013 0.11235737 0.6999391 -0.073066376 0.51961243 -0.540332 0.68212646 -0.22932248 0.20878443 0.5925646 1.1018721 -0.4096376 0.62011105 -1.0146377 0.067237474 0.10576056 0.2019615 -0.047068186 -0.7523644 0.64601624 0.106483474 0.47794095 -0.36282837 -0.49874997 -0.46866095 -0.4609493 0.6460602 0.63164514 -1.1491034 -0.5674936 -0.32015666 0.78187525 0.7179513 -0.39273408 -0.08378811 0.47417757 -0.25342438 0.41459867 0.20546292 -0.12854168
164 0.8273817 -0.9396067 -0.027960604 -0.9956872 0.066485465 0.2835169 0.6381278 -1.2538005 -0.13889077 -0.9084566 0.15092777 0.39807075 -0.06281135 -0.40191528 0.37284636 0.61370367 -0.086443625 0.6639072 -0.37064588 0.0550095 0.1597065 -0.104893476 0.4072049 -0.17559831 -0.21386419 -0.52612066 0.11015243 -0.5076463 -0.7897043 0.6819864 -0.023949932 0.12773629 -0.27727133 0.5077085 0.3723011 -0.15456754 0.06365884 -0.7303122 -0.045483567 0.027883613 0.7466441 -0.103039734 0.37630236 -0.012254275 0.20157762 -0.20149209 0.98002446 -0.16967772 -0.4741503 0.020071276 0.0653007 1.2049791 -0.77189934 -1.1538823 0.13046093 -0.19325596 1.422736 -0.1118696 0.13343908 -0.118791714 0.23268187 -0.25587574 0.58873063 0.94228333
153 0.49176523 -0.61031574 -0.09829234 -0.4342264 0.5105514 -0.61714107 0.28484306 -0.73946476 0.17117886 -0.6830364 0.82945144 -0.0012539382 0.15296568 0.27017638 0.6959205 -0.07609714 0.31254888 0.73234355 -0.18240434 -1.1680341 -0.7833836 0.43601826 0.31589255 -0.68733454 0.5904523 -0.7225006 0.059864823 0.23520619 -0.5669309 -0.34330183 -0.40359706 -0.9444586 -0.7715655 0.83073086 1.4372231 0.3592057 0.37239897 -0.8509435 0.644995 0.077233784 -0.11875058 -0.23432852 -0.38499677 -0.27881134 0.27646172 0.3133652 -0.38192096 -0.021942 -0.46308118 0.24014032 0.26748306 1.6655383 -0.9963028 0.2543982 0.6855494 -0.09360193 0.5617134 0.3885637 0.9610566 -0.9378224 0.3411764 0.8842046 -0.20229414 0.4983195
272 0.27098146 0.22982338 0.3714532 -0.8623086 0.405434 -0.34151158 -0.76775706 -0.9532536 -0.120226875 -0.46308148 -0.22370759 -0.6790467 -0.5787916 0.7520366 0.028663943 -0.7033427 0.2746716 0.28022134 -0.4616218 -0.27833316 -0.4360929 0.5142215 0.7462181 -0.4102121 0.7422609 -0.89597744 0.3198398 0.15509327 -0.38151807 -0.023921419 0.5423468 -0.30811137 -0.32465032 0.7618176 0.7929066 -0.3415793 0.18711488 0.59399104 0.14717646 -0.14588758 0.04856692 0.76643944 0.12270439 -0.33223125 0.7063845 -0.32860464 -0.22495061 0.1109953 -0.91801184 -0.4890328 0.42754775 0.06997284 -0.3993836 0.0074104187 -0.3356631 -0.59589756 0.16816248 -0.43694273 -0.14710672 0.8743973 0.47168517 -0.6262917 0.19128226 -0.066345945
338 0.9374157 -0.06483279 -0.25669056 -0.8448741 0.7072151 0.122628994 0.5988154 -0.092539705 0.48822418 -0.23024963 0.53198874 -0.3727383 -0.3731198 -0.16062011 -0.48453638 -0.5833151 0.37275904 -0.016099906 -0.8126435 -1.0404122 -0.6806515 0.40677148 0.32508475 0.07799696 -0.69387454 -0.3528991 0.24199943 0.47336394 -0.79645234 -0.0880763 -0.6134787 -0.34686497 0.5924874 0.20117566 -0.02447274 0.17627308 0.02066329 0.053092454 0.6265918 -0.0513264 0.35409844 -0.09259294 -0.0039263098 -0.5694516 -0.091946736 -0.6657949 -0.63560665 -0.32010242 -1.125806 -0.5883455 0.0018194403 -0.17488483 -0.47609374 -0.3271988 0.5928644 0.28951377 1.0906172 -0.006290254 -0.9149657 0.96015155 0.39141858 0.46520287 -0.35617208 0.1142389
331 1.004924 -0.27386275 -0.08338848 -0.25660178 -0.010006009 -0.3390793 0.2052594 0.022685641 0.16564372 -0.31474656 0.099520266 -0.13370606 -0.6130251 -0.4205575 -0.0224447 -0.71777225 0.5098521 0.3282472 -1.0685884 -0.033710573 -0.13147475 0.3241202 0.5905172 -0.44733265 0.9542839 -1.1287427 -0.35624143 0.6506384 -0.65116614 0.024414707 0.21954566 -0.7561596 0.05898808 0.36518434 0.3980343 -0.5650171 0.1458144 0.22619228 0.08981664 0.09454433 0.51175475 -0.025905738 0.6573661 -0.34864977 -0.043112446 0.041459776 0.009357447 0.062665835 -0.92363936 0.044383872 0.09101433 -0.29961255 -1.2022151 -0.36197245 0.592309 -0.41678745 0.7778357 -0.8627045 -0.30357197 0.10825371 0.42126572 -0.39812398 1.340426 -0.5862719
325 0.11105185 -0.31297132 -0.02566634 -0.33613768 0.8123415 0.3618365 0.5837188 -0.81001455 1.0524983 -0.65301335 0.011139801 0.5695885 -0.95721054 -0.41016364 -0.029126424 -0.7836976 0.6031892 0.40960005 -1.9431397 0.27403575 -0.8706834 0.11801336 0.11954725 -0.16618598 0.51325 -1.0072707 0.20574981 0.5192541 0.11549042 -0.15290955 -0.63118166 -1.8543255 0.15365905 -0.2706091 0.27924475 -0.86155736 -0.13211627 0.5288618 -0.23537543 -0.11285422 -0.46911588 0.08489701 -0.9132642 -0.83905137 -0.43640557 -0.6627909 -0.17599292 -0.161725 -0.92382777 -1.0063239 0.11236501 0.86534214 -0.60813713 -1.0650871 -0.5366938 0.11684539 0.5781602 0.024228621 0.029563304 0.61656606 0.022676766 0.20302537 0.09707369 0.6806574
413 0.6856728 -0.072480686 -0.3211561 -0.5904432 0.6879162 -0.07973548 0.20434278 -0.18903804 0.119527474 -0.4809524 0.31055796 -0.4094924 0.006264355 -0.3253108 0.6778791 -0.2545873 0.450717 -0.038890306 -1.1988828 0.31883243 -0.81423426 0.7079968 0.21610543 0.006133851 0.2507274 -0.88433 0.39756668 0.30866334 -1.1057125 0.13790707 0.11474887 -0.47157216 0.38761064 0.2798703 0.30090854 -0.22670445 0.22829534 -0.13423802 -0.11855284 -0.0846934 0.881006 0.24970041 -0.36414462 -0.5366671 0.16073526 -0.23505081 0.17007281 -0.12273554 -0.058234546 -0.7605896 0.19016892 -0.3806168 -0.5473469 -0.038806587 0.019291673 -0.25551248 0.64779365 -0.18713637 -0.59882176 0.5202706 0.46598232 -0.7069627 0.5531803 1.0210339
241 -0.16265208 -0.28566602 -0.5957692 -0.23266031 0.43123117 0.5694293 0.8167205 -0.6568018 0.7211232 -0.5274933 0.48839137 -0.16244712 -0.94043744 -0.18312044 -0.0013137751 -0.5586039 0.7593658 0.029863287 -1.1386083 0.24960895 -0.95633787 -0.19612464 0.18045536 -0.4662075 0.8127183 -0.91689396 0.53790545 0.5593061 -0.084877655 -0.43760315 -0.89975935 -1.2372867 0.21497113 0.14291014 0.6461679 -0.6073363 -0.4600847 0.50947183 0.092916064 0.18414631 -0.59696925 -0.11809357 -0.8568418 -0.051179156 -0.033302486 -0.8056191 -0.08673444 0.058781777 -0.7685307 -0.8638716 -0.1969279 0.449146 -0.4706176 -0.89594924 -0.26279384 -0.41725138 0.23584577 0.013282366 -0.24988714 0.1301295 0.37548673 0.2513 0.43782467 0.09935356
199 0.21759579 0.14567684 -0.43013358 -0.38096967 0.38931036 0.060799167 0.26467022 -0.1891137 0.7907716 -0.23316176 -0.12212498 0.031949356 0.058009952 -0.01067765 -0.5268422 -0.26944175 -0.0005818266 0.19459914 -0.4009663 -0.5672211 -0.36486876 0.63145465 -0.35529092 -0.121337846 0.03943103 -0.48000994 -0.16828877 1.1138449 0.03568026 0.20595475 -0.30799827 -1.0301102 0.223863 -0.21415308 0.28861848 -0.28801367 -0.23023504 0.19131003 -0.09845159 0.45125392 0.23433311 0.45006162 -0.65939003 0.23078035 0.20608316 -0.21498863 -0.5156064 0.77629167 -0.47399756 -0.30877495 0.3174251 0.25777718 -1.1390642 -0.03611457 -0.067090034 -0.05943947 0.17312953 -0.54947436 0.10686412 0.4361083 0.4553533 -0.1524892 -0.39663273 -0.09529206
375 0.65750414 0.23998258 0.48896918 -0.19817112 -0.08707089 0.26125786 -0.32806817 -1.2494861 0.39332455 -0.57679003 0.687672 -0.10968822 -0.44933978 0.64046323 0.7391425 -0.4382851 -0.4278689 0.3939012 -0.7077141 -0.5930405 -0.5390232 0.40062088 0.13071392 0.14007685 -0.22637542 -0.4504646 0.12924673 -0.14753667 -0.10086763 0.24145658 0.1603782 0.20229572 -0.80665475 0.2955549 1.2262964 0.040122822 0.92896587 0.19771048 -0.09173531 -0.50484896 0.018968107 0.41458666 -0.15340121 0.22869934 1.002868 0.21390995 0.393983 -0.21528861 -0.117494226 -0.79195327 0.24259743 0.051098865 -0.39648235 -0.6124608 0.09558027 0.50530535 0.42064226 -1.0838839 -0.17107901 0.12161047 0.16465773 -0.337925 0.064224504 0.58000803
416 0.4637747 0.35792142 0.36539415 -1.4536682 0.6238909 0.27372268 -0.08785726 -1.1008933 -0.0017834224 -0.46031317 0.18005018 -0.84967995 -0.42791644 0.098380454 0.6783293 -0.56996447 -0.227139 0.5067335 0.32292843 -0.25990286 0.016154032 0.33730376 0.5956853 0.44986615 -0.6796218 -0.6320585 -0.0033970335 -0.7059736 0.19504578 0.35686958 -0.24200477 -0.6461935 -0.2364794 1.7013084 0.31990027 -0.56393564 0.62039787 -0.032763682 0.13433251 -0.265546 0.54575044 0.6331421 -0.11673651 -0.3222343 1.0130392 0.1230553 0.32882082 -0.014313802 -0.7417802 -0.74440885 -0.38781625 0.42537433 -0.12640932 -0.64651597 0.13819718 0.4660403 -0.047617465 -0.9723405 0.3630711 0.78614837 -0.15755703 0.23620175 0.74033356 -0.35398176
264 0.91096926 -0.32393944 0.49548274 0.23139381 0.023133773 0.464683 1.0210856 -0.15333448 0.0608111 -0.8272816 0.6212326 -0.03403012 -0.34748095 -0.7398456 0.21218154 -0.23485728 0.78465015 0.18267629 0.23774856 -0.4425578 -0.3258499 -0.17640218 0.2927217 -0.52252555 0.041988425 0.10919415 0.548688 0.6536466 -0.552268 -0.13867712 -0.7870673 -0.9522031 -1.1226165 -0.08926815 0.4957041 -0.5668533 -0.64417464 -1.0968939 -0.29495713 -0.61337745 -0.01305447 -0.77375853 -1.3943362 -0.29147187 0.45973867 -0.5437466 -0.24956578 0.22957581 -1.4288328 -0.16110827 0.39025375 0.26606417 -0.14993495 -0.8016683 0.41017112 -0.118585974 0.76304114 -0.48103178 0.5628981 -0.6346175 0.18222646 -0.8330205 -0.23203054 -0.15738776
274 0.82069266 -0.20407829 -0.27246997 -0.31632748 1.4655561 -0.14701918 0.5617592 -0.057656582 0.5811377 -0.26905772 0.94670737 -0.43361926 0.46943063 -0.8251384 1.030005 0.08818879 -0.19188105 0.35778123 -0.53539395 -0.61742073 -0.44989732 0.17264216 0.40200824 0.6128803 0.44451368 -0.4760959 -0.17013077 0.6252951 -0.24243777 0.25474828 -0.00033241793 -0.41735107 -1.0500796 0.5757041 0.08212303 -0.22042564 0.34098667 -0.83436066 -0.109381706 -0.49614653 0.7833811 -0.29563972 -0.97380906 -0.50545 0.8966336 0.31393954 0.49427933 0.05088878 -0.48764297 -0.74032086 0.8040196 0.41659716 -0.7957113 0.42082658 0.10117546 -0.13722542 0.20427456 0.08894826 -0.20656066 0.31277236 0.1391162 -0.5108092 0.28306466 1.2540903
373 0.81605923 0.328216 -0.0064539206 -0.06340671 0.026249506 0.21963406 -0.010603926 -1.5111156 0.30690038 -1.0467345 0.40501985 0.02898132 -0.76144964 0.40323946 1.272267 -0.50517064 -0.30020645 0.49108678 -0.44560745 -0.029634476 -0.73763365 0.34429944 0.097477905 -0.050254308 -0.22226144 -0.6320551 0.3752342 0.326258 0.01751391 -0.32278284 -0.6316547 0.118261844 -1.0530565 -0.02008656 1.2271111 -0.01307248 0.16930526 -0.23882136 0.034950644 -0.5981455 -0.2913464 0.017920936 -0.5815769 0.08280269 0.7514525 -0.08473547 0.18562694 -0.10744532 0.009291978 -0.846813 0.47322753 -0.45633724 -0.071630485 -1.0434326 0.5266976 -0.26903632 0.10491268 -0.8361026 0.050118506 -0.20060357 0.78564155 -0.27479354 -0.043748513 0.12537846
409 0.63028586 -0.19077294 -0.1764365 -0.5674343 0.5194021 -0.14406937 -0.008837546 -0.302298 0.10688809 -0.3029339 0.14334841 -0.32905024 -0.19969013 0.039045252 0.47690618 -0.5515187 0.33697897 0.18650015 -1.3443978 -0.0035733192 -1.0081954 0.7053122 0.07120899 -0.15815778 0.12500519 -1.1119213 0.4182171 0.3134612 -1.1546638 0.13279095 0.07885452 -0.5355339 0.5404944 0.14565636 0.37159953 -0.1314855 0.21444446 -0.09599059 0.007944171 -0.24471003 0.5271427 0.31934625 -0.14996338 -0.1784112 0.25311396 -0.10842684 -0.048936706 -0.15317032 -0.10734723 -0.54910004 0.15756187 -0.17711373 -0.33796957 -0.37175637 0.16884834 -0.104662985 0.79508704 -0.14277297 -0.5784152 0.5150172 0.49793032 -0.41569632 0.6392726 0.694665
371 -0.079103656 0.10914263 -0.57832426 -0.64339405 0.73204 0.7855756 0.4718461 -1.0704583 0.87004 -0.4194706 -0.058617987 -0.7306172 -0.46771026 -0.481993 0.40395746 -0.46184322 0.08215408 -0.021372717 -0.73388517 0.16207509 -0.75764203 -0.0573232 0.239991 -0.43899748 0.3965175 -0.4345917 0.381639 0.33701345 0.31973246 -0.33258572 -0.9105988 -1.6041249 -0.47913778 0.38356373 -0.10601177 -0.9320097 -0.33361855 -0.17597085 -0.16520232 0.053528212 0.4832595 0.063698426 -1.3761642 0.13213061 0.503199 -0.88666695 0.4456666 0.50561255 -0.6827894 -0.7777774 -0.16591115 0.42902613 -0.2961589 -1.1105487 -0.011516112 -0.5421556 -0.158071 -0.035381302 -0.062349565 0.4484658 0.18035536 0.29998517 0.62031823 0.40274993
44 0.14230575 -0.43505803 -0.43440676 0.06279048 0.6408385 -0.58704627 -0.14698446 -0.22175786 0.15859042 -0.38907233 0.5758825 0.16903156 0.14591752 0.71718055 0.28157327 -0.24420874 0.14546676 0.443463 -0.37615436 -0.21765384 -0.3073978 0.5750277 0.18560869 -0.31630588 0.21450277 0.6210525 0.18541393 -0.0060560307 0.15558508 -0.11957861 -0.54994446 -0.16458742 -0.42294422 0.94251394 1.0884776 0.26959425 0.4036913 0.009674219 0.38293326 -0.27158743 0.23109826 -0.19443274 -0.74846965 -0.3741623 0.19669247 0.68672395 -0.49798504 -0.3948751 -0.5284526 -0.19126755 0.22743669 0.6283103 -0.42720923 0.66350377 0.2328954 -0.29233417 0.80640686 -0.41508582 -0.2597783 0.3248957 0.32513294 0.35389113 -0.5443022 0.40526536
218 -0.009727335 -0.0068565346 -0.064151675 0.043215945 0.083474465 0.19831753 0.12595643 -0.38490602 -0.024937576 -0.37004912 -0.26511618 -0.17914943 -0.45675892 -0.13870478 -0.518935 -0.07096015 0.49449039 0.3174325 -1.0108582 -0.15805128 -0.3368509 0.59296423 0.13953705 -0.29108462 0.5637716 -0.2353878 0.13368553 0.18483084 -0.23832044 0.04306286 -0.119758725 -0.86256444 0.21158546 0.38999167 0.457757 -0.064361535 0.091634944 0.6067907 0.30428258 -0.56285155 0.3776768 0.31917608 -0.51938564 -0.26078975 0.45748413 -0.52332735 -0.15807925 0.6890623 -0.6829967 -0.7255319 0.10516491 0.5727971 -0.49366513 -0.022324469 -0.3421765 -0.029042523 0.71540505 -0.07692394 -0.08298589 0.3401102 0.4010775 0.29743358 -0.29335213 -0.6960531
94 0.43091068 -0.8589133 0.20300221 -0.25002027 0.8008516 0.41807818 0.4799084 -0.12141448 -0.6616039 -0.5389186 0.3657481 0.43507418 -0.4387956 0.33129737 -0.07091115 -0.13965572 0.13906504 0.3670085 0.15329117 -0.30112553 -0.18888439 0.52518415 0.06629698 -0.31993493 -0.46872446 -0.49794826 0.58602756 -0.6331645 -0.23718032 -0.884577 -1.0097436 -0.00181805 0.05196442 0.1200187 0.8450294 0.32124096 0.1772103 -0.55674624 0.22604744 -0.4776674 -0.28143126 0.04200726 -0.101675004 0.5812261 0.010552152 0.06929701 -0.20333403 -0.86329573 -0.63684225 0.095654525 0.089672305 -0.22925727 -0.49737734 -0.3101802 -0.054044817 0.801524 0.90620816 -0.895686 -0.07422132 0.31084916 -0.33922789 0.090373494 -0.26285848 -0.77216464
51 -0.09507405 -0.53557515 0.07931334 -0.33514658 0.040949263 0.14552653 0.10372054 -0.6947646 -0.047126804 0.10050405 0.5129061 0.5877685 0.09103627 0.46175277 -0.7370449 0.85816395 -0.2879809 0.080776505 0.02725302 0.000698682 -0.24441259 0.5179578 -0.2780578 -0.11910155 0.3281067 -0.5837943 0.18707667 -0.081062846 -0.22155666 0.3579484 -0.635693 -0.2980266 -0.553808 0.20611015 0.51018155 -0.3174191 0.35735378 0.09942921 0.42269182 0.19182983 -0.49437526 0.15114863 0.32354394 0.21058102 -0.09043125 0.065193765 -0.54498565 -0.25425115 -0.7531625 -0.27160302 -0.5222703 0.28102267 -1.2031747 -0.15789585 0.3089293 -0.3510624 0.58296674 -0.35995758 -0.3277671 0.53567696 -0.08757651 -0.25008634 0.25922817 0.28748557
182 -0.4299832 -0.18901317 -0.03947163 -0.89998 0.05261403 -0.5718433 -0.21836795 -0.43529773 -0.9663248 -0.37223986 -0.08099528 -0.12936035 -0.2102901 0.48389426 -0.21099998 -0.11186335 -0.3454366 0.2259617 0.40890938 0.15022941 -0.068719044 0.3083406 0.4851246 -0.26709765 -0.2551307 0.32207775 0.43596965 0.037278384 -0.07777682 0.31849495 0.13734667 -0.1197676 -0.25841132 0.42925832 1.230227 -0.3660927 0.44469112 -0.75595814 -0.08748315 -0.14918889 0.065523095 -0.08456609 -0.027010418 0.26339144 -0.06812328 -0.16367659 -0.38494456 -0.57385206 -0.6636051 -0.882973 -0.1823338 0.46906573 -0.70171934 -0.2015526 -0.16801886 0.059397295 1.2701519 -0.46479005 -0.6220171 0.8986966 -0.35896167 -0.20507275 0.18063097 -0.1518577
354 0.85937655 -0.49670747 0.33914477 -0.61948055 -0.32330096 -0.61994964 0.7487434 -1.32112 0.010548984 -0.6363309 0.5354211 0.061219916 0.2705563 -0.74399006 -0.22006784 0.040953018 0.08879547 -0.08729025 0.530502 -0.25810558 -0.43609136 0.4768048 -0.1396103 0.60456735 -0.5399136 -0.7631284 -0.13996592 0.14292048 -0.65563023 0.20625971 -0.9335745 0.08465873 -0.34249926 0.2429199 -0.44804835 -0.8890644 -0.27704018 -0.46267524 0.02389084 -0.4243732 -0.39206603 0.2911408 0.60627687 0.6438969 0.19086832 -0.009780411 0.12691043 -0.15740311 -0.7697827 -0.5317627 -0.19823985 0.8572163 -0.2833486 -0.9474962 0.39668936 -0.15002161 0.837019 -0.60007817 0.7841272 -0.06754607 -0.033169564 -0.32352003 0.96555775 0.35392344
356 0.97865677 -0.19825056 0.6711263 -0.62032425 0.14966448 -0.099283636 0.5320829 -0.012548083 -0.028559221 -0.80982274 0.3344637 -0.19770336 -0.26513305 -0.2500075 -0.4774843 -0.92408115 0.45972535 0.14899996 -0.72355837 -1.0462681 -0.6216674 0.16933416 -0.12159621 0.44403976 -0.011863937 -1.2917137 0.66130215 1.0459796 -0.803265 -0.11642207 -0.54315203 -0.04543257 0.31677327 0.41793942 0.03444918 -0.080556065 0.06952827 -0.023439456 0.374493 -0.53139496 0.2719478 0.11733475 0.25372493 -0.08141551 0.1251235 -0.44416648 -0.57589793 -0.606993 -0.4869477 -0.8958214 0.40025523 0.27642375 -0.018867427 -0.19335043 0.6986183 -0.4347398 1.2676497 -0.19811268 -0.5306757 0.12144443 0.46215716 0.018778743 -0.08654497 0.24264745
393 -0.25683632 -0.22910365 -0.021068664 0.047752786 0.67963 0.013480828 0.016451484 -0.8333807 -0.097002715 -0.13053815 -0.118042715 -0.023943646 0.03144595 -0.495745 0.28947124 -0.47542864 0.25484633 0.23009892 -0.040103834 0.09890651 -1.2904329 0.6641716 0.094337024 0.25907484 -0.8396731 -0.5024253 0.28538823 0.22805491 -0.71657914 -0.3174471 -0.2239791 -0.80435485 0.46429232 0.15928054 -0.2078435 -0.020883633 -0.048406463 -0.6778272 -0.0933192 -0.804426 0.24264127 0.6686994 -0.68954515 0.6883099 0.8300711 0.21586877 -0.98447555 0.037509196 -0.41163102 -0.12553707 -0.49971482 1.0375866 -0.24486732 -0.6012656 0.6241679 0.10244237 0.49367017 0.16920346 -0.158155 0.7659451 -0.24356534 0.42356038 0.085742295 0.62232363
138 0.003470763 -0.59929836 0.47416103 -0.7796539 1.1010758 0.31048903 -0.29440916 0.26056805 0.0059702117 -0.6287753 0.72586673 0.7505135 -0.5017323 -0.79650325 0.38148212 -1.0590024 0.0326833 0.59200823 -0.5596792 -0.18646263 -0.10866295 0.106045686 0.41749716 -0.16581194 -0.22042091 -0.025387663 0.9648755 -0.03487913 -0.12814043 -0.6845167 -0.38641873 -0.43366945 -0.55970836 0.040225916 0.6878816 -0.23437513 -0.033144686 -1.1678256 -0.17000595 -1.244535 1.0868745 -0.3167238 -0.47129545 0.26793945 0.11098851 0.30922636 -0.015795074 -1.0809389 -0.6286437 -0.19247393 0.21623677 0.56163335 -0.4724946 -0.75868016 0.27463153 0.4208803 0.5753662 -0.9360787 0.45425376 0.33951685 -0.55226463 0.54919463 -0.08303938 0.5455388
127 0.13972545 0.2690601 0.013344321 -1.4240106 0.92844707 0.30280963 -0.4850425 0.05042718 -0.18285905 -1.0984498 0.50761193 -0.58618796 -0.04941033 -0.8588054 0.70965844 0.020367602 0.57949644 0.4219547 -0.13340971 0.024803203 -1.0068563 -0.5396164 -0.042320438 0.5301328 -0.11767752 -1.0197948 0.73535305 -0.23142932 -0.3171178 -0.051368933 -0.19351952 -0.7142132 0.20131163 0.77011514 0.82372904 -0.061140593 0.6652149 -0.70304424 -0.1405269 0.4342922 0.08966345 -0.5575543 0.12750468 0.35075715 0.41065907 0.2824416 0.33183345 0.33029956 -1.2952588 -1.15004 -0.26968375 0.80280614 -0.68814975 -1.2524283 -0.32829493 0.72533756 0.28902847 0.30966803 1.4218726 -0.021079525 0.03024305 0.16641626 0.19321711 0.9179594
46 -0.66576535 -0.7391435 -0.2451951 -0.36414102 0.31897575 0.14649723 -0.30140504 -0.1906466 -0.5070566 -0.7237427 0.40502465 0.28387588 0.70014757 0.35603687 -0.27376243 -0.076615326 0.017228093 0.49541032 -0.1823055 -0.37315091 -0.1415288 -0.10413473 0.2868393 0.58288103 -0.20439084 -0.12704936 -0.27261335 -0.2576932 0.6661413 -0.3241154 -0.6466261 -0.21601376 -0.5077528 0.72575176 0.96708614 0.51275533 0.6523147 0.30822328 -0.06636127 -0.37286207 -0.20682274 -0.30896705 0.33998594 0.016428787 0.19403523 0.45241746 -0.2742918 -0.8528388 -1.0581464 -0.24800093 -0.45110384 0.9851944 -0.41151917 -0.05084042 -0.2882263 -0.005807074 0.97792214 -0.4377403 0.52909094 0.18938854 -0.25415102 0.03871357 0.45773795 0.15118779
390 0.25466067 -0.2143632 -0.5001732 -0.22246282 0.29561752 -0.23503035 0.16959547 -0.5213272 0.78498435 -0.14099726 0.36005065 0.085844696 -0.39766863 -0.001650009 0.011697569 -1.1204392 0.3142828 0.83499706 -0.64763695 0.36036876 -0.75858176 -0.14210781 0.091363505 0.17276931 -0.119312316 -0.5919688 0.1141504 0.27712595 -0.5909648 -0.40484056 0.17110161 -1.2307287 -0.41377497 0.09074072 -0.19613057 -0.08516832 0.25841838 -0.5087365 -0.042345446 -0.33994648 0.73080087 0.64500934 0.07391611 0.2333237 0.9793282 -0.28689224 -0.36458194 -0.30272388 -0.27671805 0.4495185 -0.07952669 0.7392652 0.08457803 -0.30408984 0.2783063 0.03295144 0.7201731 -0.55696034 -0.34633034 0.74670666 0.55109376 -0.7868164 0.16890374 0.82714754
309 0.24726021 -0.35624623 0.026984401 0.01782905 -0.13745713 0.41310555 0.03428082 0.14800157 0.15996471 -0.72171223 0.30075353 0.35069343 -0.28144994 0.22681695 0.18629174 -0.108762465 0.09983465 0.2791553 -0.18963481 -0.2885944 -0.99628204 0.4658816 0.68788105 -0.2178321 -0.05291149 0.21335223 1.5057573 0.40030217 -1.3566042 0.2669444 0.043216027 -0.73594064 -0.10133211 0.26967868 1.3252934 -0.15738198 0.20934263 -0.3712198 0.001873875 -0.58581185 0.6278007 -0.6578706 -0.88183 -0.40376937 -0.24573155 0.03685697 -0.8301573 -0.5214283 -0.50430816 -0.5507026 0.118331954 0.23022857 -0.62429374 -0.10138289 0.36765072 -0.22011423 1.0105886 -0.14767635 -0.47023156 0.07131929 -0.8961552 0.4438751 0.20248543 0.58407795
257 1.1430091 -0.53082865 0.97372454 -0.03588319 1.0306369 0.16458051 0.7609073 -0.7119915 0.18115324 -0.75136524 0.45151815 -0.084227875 -0.42634568 -1.0001186 0.7569437 0.28339294 0.50480694 0.30385485 0.36400047 0.14908557 0.07198895 -0.74381804 0.08402932 -0.55399686 0.8125728 -0.27910313 -0.0021987776 0.83233476 -0.34909806 0.32119414 -0.4445818 -0.6359319 -0.99491817 0.48538595 1.0914345 -0.8080815 0.15612978 -0.49875873 0.09558501 -0.24688315 -0.19499454 -0.66034156 -0.8623226 -0.74522173 0.32883176 -0.73358274 -0.5316883 -0.25173202 -1.6936104 -0.445506 0.81182426 0.30460772 -0.07120545 -0.75011694 -0.4247781 -0.056728262 -0.009847264 0.12497188 0.7126662 -0.38243952 -0.110794894 0.10439368 -0.43954486 -0.3293604
399 0.6287635 -0.34962648 -0.782839 -0.21998173 0.3007727 -0.12757435 0.43986621 -0.14895475 0.6385071 -0.15100771 0.55166996 -0.08287337 -0.11322645 -0.3366699 -0.101576656 -0.8354348 0.55227536 0.513207 -0.32394204 0.64543545 -0.7900524 -0.04382797 -0.124003604 -0.051610008 0.095542826 -0.6924656 -0.069900885 0.62736094 -1.1994395 -0.3195736 0.2088727 -1.1574405 -0.4463208 -0.022580149 -0.07196119 -0.07991036 -0.28254372 -0.53678435 0.08422296 -0.0692895 0.5172534 0.31171766 -0.211946 0.12838952 1.002904 -0.123037726 -0.5515546 0.14662778 -0.3682388 0.44656622 0.04496712 0.85664636 -0.077828765 -0.07181036 0.2672661 -0.12123807 0.71687293 -0.7144259 -0.0507926 0.27846983 0.7230612 -0.7675342 0.13790348 0.6605771
248 0.46301818 -0.57775277 0.70292985 -1.288424 0.83609164 -0.31168213 0.56486243 -0.05766177 0.5534204 -0.6270018 0.851988 -0.32179755 0.124877885 -0.5229427 0.362958 -0.041351408 -0.20648134 0.2744751 0.42338455 -0.7524973 0.29775512 0.063536674 -0.097544506 0.2509647 -0.1168151 -0.4283264 0.4680429 -0.58763695 0.022805508 0.08572062 -1.0239221 -0.3444096 -0.26579934 0.5086191 0.77230835 -0.98551214 0.6478797 -0.8634316 0.1505026 -0.0758157 0.59770405 0.5259411 -0.57997173 -0.017223528 0.20727031 -0.16708419 -0.49230358 -0.6945718 -0.3561152 -0.88049203 -0.10251008 0.5483654 -0.21684916 -0.26648673 0.5329477 0.03995363 -0.016098842 -1.1709145 0.5597195 0.18190046 0.0843098 -0.025640378 0.785197 0.46286783
49 0.07206994 -0.39973494 -0.14615142 -0.67497575 0.008539417 -0.1659818 0.45576826 -0.10981476 0.19953053 -0.23950365 0.39982092 0.6551948 0.3914682 -0.097236566 -0.13371593 0.07812827 -0.10699927 0.068787515 0.16561034 0.48586342 -0.3370373 0.25966787 0.055700395 -0.2059751 0.19009587 -0.07973641 0.32987887 -0.46538618 0.44974706 -0.010893075 -0.5900093 -0.032871827 -0.24133052 0.34423584 0.68166506 -0.2295611 0.6080431 0.04864509 -0.04426395 0.17834245 -0.24845904 -0.06985783 -0.082846664 0.023956958 -0.067354254 -0.15330635 -0.5022433 -0.71314013 -1.0093542 -0.1944928 -0.06908002 0.36685225 -0.2201169 0.4730568 0.57379425 -0.44287643 0.76842785 -0.89760894 -0.50015414 0.8065779 0.34182903 -0.2989178 0.09931606 0.17529972
265 0.75720227 -0.5908701 0.6184807 0.22615035 0.17819808 0.28897572 0.7422649 -0.1870922 -0.457177 -0.8475126 0.2548009 0.095684245 -0.09046138 -0.7311115 0.25234458 -0.5121215 0.6764076 0.6091383 0.57624835 -0.47246796 -0.17812343 -0.15551257 0.44959044 -0.31175953 -0.26001313 -0.13762528 0.3985322 0.1939241 -0.50495034 -0.14958529 -0.9027123 -0.56547236 -1.090817 0.19572514 0.31996682 -0.50778395 -0.6744442 -1.3867323 -0.1254261 -0.924169 -0.050274782 -0.63276035 -0.75243545 -0.021164637 0.6246499 -0.4193439 0.011104281 -0.17232855 -1.6117164 -0.20425817 0.34571087 0.44107255 -0.21426004 -1.1042699 0.2707921 0.1220334 1.0002182 -0.5539115 0.8129869 -0.56956017 0.22678992 -0.86408097 -0.06573009 -0.235276
242 1.0378677 0.37177238 0.100664414 -0.46320426 -0.2935412 -0.5249109 -0.029056689 -0.029401474 -0.024323631 -0.2947674 -0.16292761 -0.05800109 -0.21817747 -0.40935948 -0.9422946 -0.5083482 0.35305747 -0.068950765 -0.38802648 -0.15015896 -0.9743395 0.7874865 0.9389001 0.2789267 -0.4949201 -0.072254434 0.92031455 0.8280282 -0.37905243 0.4168809 0.18024467 -1.3188034 0.4264693 0.059541766 0.34030145 -0.63430583 -0.149367 -0.368319 0.45274615 -0.8812751 0.58979106 0.27685714 0.17409815 -0.51147974 -0.17544572 -0.018393395 -0.17550041 0.3467939 -0.8463128 -0.4542943 -0.28828543 0.32305747 -0.5017227 0.01152362 0.70931315 -0.43063876 1.0970993 -1.0684756 0.27240416 0.4160172 -0.8392776 0.10938255 1.2217615 0.3147223
26 0.48869318 -0.7119553 0.77723664 0.28423092 0.5653355 0.27122828 0.4733967 -0.1715414 -0.17584808 -0.65415806 0.27823016 0.10107537 0.008928389 -0.69945616 0.47676745 0.020757882 0.56634647 0.43567452 0.36406294 0.28231102 -0.17992958 -0.4161495 0.18213727 -0.7047325 0.23465604 -0.132392 0.39906397 0.59695554 -0.54036593 -0.15322046 -0.6597007 -0.54690164 -0.64452076 0.0955069 0.9451878 -0.62819076 -0.23533449 -0.8032864 -0.104364835 -0.5674985 -0.38696796 -0.61463416 -0.69517463 -0.34225368 0.11637351 -0.51664567 -0.36056986 -0.28726146 -1.5810986 -0.3871726 0.6135045 0.021390975 0.04373418 -0.71815616 -0.29307204 0.17055139 0.5078664 -0.17995194 0.35336304 -0.3484011 -0.24386057 -0.30451918 -0.35388517 -0.17775428
244 0.52764064 -0.61734825 -0.19533166 -0.3014317 0.5428471 -0.6271776 0.28965008 -0.71287936 0.18036279 -0.7240126 0.74545974 -0.06859155 0.10972916 0.31148103 0.758138 -0.108619034 0.5205679 0.74810296 -0.13797465 -1.1876109 -0.7921779 0.43206725 0.3035389 -0.7675671 0.65539247 -0.6163095 0.03219096 0.22892168 -0.52183414 -0.4302802 -0.52138364 -0.9462327 -0.6398294 0.8180448 1.3416778 0.2893624 0.38651085 -0.69449484 0.66080695 0.081224404 -0.032185253 -0.17251047 -0.30699617 -0.3151325 0.26064163 0.3219022 -0.5379971 0.04406089 -0.43669504 0.12854175 0.3019322 1.574612 -0.9400603 0.10378088 0.61875427 -0.2059594 0.50251734 0.34774497 1.0269703 -0.8090225 0.32618153 0.91613287 -0.27136344 0.47729304
384 0.34663707 0.035517044 0.22236735 -0.11937189 0.9638167 0.77629274 0.31240818 -0.67815554 1.1846353 -0.19686866 0.5572576 -0.444951 -0.35743278 -0.9827808 -0.43578094 -0.49097532 -0.1945948 0.46275938 -0.5702342 -0.39713013 -0.39076132 0.12057787 0.2890128 -0.7296247 0.32684082 -0.7956595 0.09237537 0.13513927 -0.8508796 0.16289401 0.4657154 -0.8575218 0.28298363 0.30246177 0.5082336 0.066551074 -0.011774741 0.10066559 0.21403469 0.10671744 -0.24083717 0.08342328 -0.45522678 0.35496563 0.6278171 0.17995562 -0.66083443 0.4880331 -1.1440399 -1.0344791 0.61514586 0.22619395 -0.20540014 -0.08598491 0.6613624 -0.18959522 0.858153 -0.05122426 -0.72640306 0.04094131 0.73926157 -0.6036307 0.3385068 0.4440573
