713 64
477 0.06611011 -0.7661109 -0.1271239 -0.67424345 -0.46482292 0.15134664 -0.41963333 0.18521586 0.0036335993 -0.7186436 0.5602307 -0.12756068 0.75292355 0.24407642 -0.45900622 -0.17423424 0.09463185 0.11105887 -0.38970467 -0.29643804 -0.010747312 0.46794602 -0.43495986 0.46354547 0.5048154 -0.23015863 0.6306575 0.28314793 0.08649785 -0.40935174 -0.06349872 0.3638947 0.8066405 1.3270837 -0.57289207 0.13878192 0.21679245 -0.28962833 0.5726115 -0.25179464 0.45819408 -0.6853617 -0.15161803 -0.2866967 0.77128464 0.38602528 1.0089041 0.32474318 -0.29249638 -0.8629117 0.83334386 -0.037038237 0.7613814 -0.20845206 -0.55975974 0.26646486 -0.3862592 -0.38499954 -0.078063406 0.24550836 -0.041259427 0.08263904 0.23723938 0.34644577
712 -0.3636988 -0.04991502 -0.3492742 0.75926286 0.5372241 0.14229393 0.01867145 0.35882768 0.46944943 -0.8437852 0.84666884 -0.39460123 0.7656685 0.7227231 0.34003836 -0.065285936 -0.14460582 -0.8182579 -0.39511424 0.29644817 1.0514411 0.454075 -0.234241 0.52250385 -0.62032104 -0.08152178 -0.2177932 -0.22876954 -0.5164065 0.7760744 1.1116458 0.18123761 1.5463066 0.600376 -0.89494765 -0.8351618 -0.5421744 -0.31437552 1.037134 -1.0012866 0.65162605 -0.5089947 -0.1779557 -0.9377433 -0.39735845 0.14764531 0.19024777 0.3308562 -0.87716717 -0.19764552 0.8880321 0.7189379 1.0824777 -1.0775968 0.22604926 -0.7522855 0.80534405 -0.17992978 -0.5115703 0.10690773 -0.6338273 -0.3878913 0.2399153 0.17814957
711 -0.23903018 0.0001410007 -0.25608894 0.6433719 0.53242916 0.15908699 0.07273828 0.46479994 0.46525514 -0.7867293 0.6693001 -0.36423323 0.90483147 0.67775494 0.34928492 -0.051116697 -0.12728241 -0.7760153 -0.33095285 0.30820307 1.0740609 0.28642395 -0.20454076 0.5783029 -0.52500063 0.04633066 -0.3224408 -0.1295585 -0.45596367 0.7255667 0.94724476 -0.0051856255 1.5385861 0.42441544 -0.90421784 -0.99971664 -0.5307837 -0.4883727 0.90650797 -0.88962024 0.668432 -0.53524417 -0.11391962 -1.0627414 -0.2989767 0.13180716 0.2802752 0.25854978 -0.9463782 -0.13172057 0.95134133 0.8112101 1.0733318 -0.990462 0.123290755 -0.929026 0.6749766 -0.19246516 -0.4099221 0.16142425 -0.7112418 -0.40329185 0.3719722 0.25334752
488 -0.00085927645 -0.7658538 -0.12567845 -0.58236134 -0.5198502 0.22658847 -0.4191559 0.17972188 -0.03476562 -0.6790971 0.5581494 -0.23408678 0.57012355 0.32007867 -0.36263126 -0.25074145 0.11730623 0.0027027256 -0.35963234 -0.3351714 0.0025883855 0.53652704 -0.48755306 0.58207697 0.4674425 -0.30939925 0.6036116 0.398774 0.03432104 -0.21617632 -0.23119637 0.39704657 0.7777675 1.3650894 -0.60111463 0.10121866 0.2469294 -0.26873305 0.6348954 -0.09608717 0.33301422 -0.5826774 -0.11332916 -0.22143811 0.80738044 0.33161992 0.8352481 0.3313918 -0.32418054 -0.72357994 0.7620468 -0.053736042 0.71350706 -0.35268918 -0.711141 0.37597722 -0.30592445 -0.34098133 -0.15876879 0.09937832 -0.05978107 0.17551574 0.2934323 0.3126122
484 0.1015048 -0.8910915 -0.115416914 -0.6034107 -0.42460266 0.23807167 -0.45248726 0.29706052 -0.10456937 -0.5398787 0.46949276 -0.25577718 0.60038483 0.28119755 -0.4706337 -0.26407906 0.19440441 0.07988949 -0.36449304 -0.3452859 -0.06285328 0.5082784 -0.59956366 0.43249148 0.4890439 -0.31554574 0.6493694 0.4187062 0.115137495 -0.21906999 -0.08652846 0.38474813 0.76904625 1.4278239 -0.5994014 0.11601587 0.23593578 -0.24844743 0.6404661 -0.0018305478 0.29127884 -0.5915913 -0.09140589 -0.25948992 0.7000212 0.32320258 0.7623113 0.31636918 -0.2634154 -0.81839156 0.7527396 -0.13343343 0.75150216 -0.41212904 -0.66269195 0.3497313 -0.33869404 -0.3424671 -0.036082514 0.17057867 -0.12175499 0.2138119 0.32845128 0.2726966
478 -0.09302007 -0.855435 -0.20255074 -0.6834013 -0.46016163 0.20546132 -0.49092782 0.21463262 0.057758477 -0.62760085 0.50899285 -0.23361695 0.7337977 0.2661378 -0.4566047 -0.20760073 0.19164515 -0.0834654 -0.4202482 -0.3598843 0.040394347 0.566734 -0.44755444 0.36543807 0.42149228 -0.31240422 0.47762382 0.3215374 0.11665845 -0.24572591 -0.066229895 0.3073805 0.8351322 1.3712664 -0.6268684 0.25361544 0.27635437 -0.31557205 0.76619196 -0.027970383 0.33315274 -0.5864417 -0.15444079 -0.29332423 0.73042613 0.3213244 0.95962155 0.30214992 -0.279103 -0.8851296 0.5932164 -0.08323661 0.62595516 -0.18955989 -0.6171145 0.43724152 -0.34765342 -0.56824476 -0.14053144 0.17813489 0.006271839 0.10118519 0.1971856 0.20205149
662 -0.08680387 0.09443653 -0.23233613 -0.4478023 -0.5084665 0.11107728 -0.116880834 -0.06441829 -0.46142346 0.55448854 0.045886282 -0.33904597 0.43108076 1.1447282 0.044472795 0.22263834 1.0736326 -0.4225772 -0.5724466 -0.062047575 0.5216537 -0.46546713 -0.16128813 0.63454694 -0.6294068 -0.96722746 0.5091925 0.36165324 1.1525053 0.016031686 0.8811391 0.5067568 0.8159667 -0.59956 -0.05924462 -0.011755608 0.39566043 -0.74106973 -0.4250343 0.2590297 -0.02210118 0.30096444 -0.46981174 -0.13958833 0.49832484 0.39038637 -0.5941633 -0.39582965 -1.2794796 -0.46046758 0.09545791 0.30043933 0.8165359 -0.7364697 -0.36178032 -0.38731232 -0.086087056 -0.10221107 0.041820977 0.3100403 -0.7686688 -0.6718132 0.19408043 0.6478552
476 0.0035006288 -0.7948433 -0.044270683 -0.65497136 -0.5679612 0.12100054 -0.3490495 0.2539203 -0.03586987 -0.63062525 0.6305642 -0.29121336 0.73257756 0.16415088 -0.37333554 -0.1846994 0.12260876 0.115682244 -0.4628033 -0.38439977 0.015498677 0.57515824 -0.42286766 0.45093164 0.47786134 -0.30503505 0.45739776 0.32614538 0.093421414 -0.22222635 -0.15169023 0.31716406 0.83697534 1.4081064 -0.484148 0.09130788 0.24026346 -0.23540635 0.5873694 0.02409938 0.2509805 -0.5895563 -0.2674425 -0.20853496 0.64938504 0.37682608 0.91328853 0.41424698 -0.2554349 -0.83959097 0.6723318 -0.008212825 0.75197566 -0.36684412 -0.59425896 0.36524275 -0.28475425 -0.49217975 -0.10621753 0.19214508 0.0174392 0.062163938 0.2460096 0.28067333
114 -0.32601687 0.4965858 -0.6902674 0.45008734 -0.15382515 0.281453 0.26046813 1.0938555 -0.12631553 0.22044449 0.70614445 -0.093880795 1.0983138 0.74450517 0.27193764 0.47005686 0.07612046 -0.3223615 -0.38629785 -0.45165598 0.08703338 0.29115236 -0.02186265 -0.61068493 0.38648725 -0.62626153 0.15967365 -0.40284982 0.46311402 0.0075801825 0.27396834 0.18910256 0.8113186 0.007495396 -0.3842412 -0.33990487 0.27261764 -0.34425443 0.5509973 0.39678785 0.60087526 -0.13644814 0.3803242 -0.5789818 0.5491111 0.09847657 1.0088212 -0.4078691 -0.29857737 -0.19787438 0.31905663 -0.35015702 0.55404824 -0.44003722 -0.14052515 -0.270044 0.4671282 -0.2982363 -0.86061305 0.18765095 -0.5704879 0.37008357 0.4926765 0.4000354
661 0.0927343 0.1341273 -0.32466263 -0.42822817 -0.6031382 0.18720624 -0.29898557 -0.0062692603 -0.4786655 0.66042316 0.13583311 -0.2937894 0.47150367 1.1197358 -0.022725642 0.21531758 1.1299615 -0.3140013 -0.5748944 -0.14399052 0.49590197 -0.5098362 -0.1967597 0.61718684 -0.6530051 -0.9947311 0.53018284 0.48182413 1.0499643 -0.11710233 0.8108529 0.5211852 0.8011585 -0.44018784 0.030115766 -0.0019545676 0.27533057 -0.6995777 -0.45948744 0.21002737 -0.08102221 0.25108597 -0.42517486 -0.10713361 0.4521223 0.36100608 -0.57283837 -0.3390772 -1.2124275 -0.50183743 0.07608757 0.33027628 0.8282083 -0.663632 -0.49160793 -0.45119002 -0.120513 -0.02163459 0.15639779 0.3034592 -0.80646616 -0.7042606 0.19739996 0.764916
665 -0.03735717 0.20612088 -0.2829297 -0.36646742 -0.6290137 0.09932437 -0.24576432 -0.06291118 -0.49044803 0.65983313 0.12891163 -0.3126517 0.54293233 1.2092974 -0.013583062 0.22078885 1.1260607 -0.30560517 -0.48026717 -0.13014837 0.49670243 -0.60183525 -0.27046686 0.5976438 -0.648282 -0.8761827 0.49219304 0.4000084 1.0812184 -0.018800482 0.7434484 0.34486416 0.80521363 -0.41397503 -0.044944704 0.057192083 0.28398818 -0.707237 -0.53206754 0.15208364 -0.15902495 0.25427285 -0.43958196 -0.050158095 0.4388241 0.39277235 -0.49656066 -0.4354473 -1.2072642 -0.5280173 0.012932631 0.30592984 0.82303995 -0.7415972 -0.4824167 -0.43533736 -0.12689629 -0.14591497 0.14249602 0.3050995 -0.79207265 -0.6511036 0.14381637 0.76354635
142 -0.28786546 0.45289016 -0.8421105 0.4184333 -0.12706888 0.17990382 0.12730466 1.0175691 0.110427424 0.34081078 0.7187785 0.088559076 0.9987645 0.64478093 0.06812837 0.13476868 0.23830351 -0.49160644 -0.39094988 -0.3706935 0.16038515 0.31346002 -0.16121373 -0.4372228 -0.06210223 -0.6813166 0.04226387 -0.35389864 0.65983945 -0.13012424 0.1673424 0.3194246 0.9606481 -0.3452745 -0.24475677 -0.24576488 0.2923203 -0.12437179 0.2634943 0.49851075 0.8552747 0.06880176 0.56351626 -0.6976803 0.2174561 -0.09939446 0.93535894 -0.34174195 -0.6772327 -0.19267637 0.7605616 -0.116813496 0.34208336 -0.21337137 0.05788601 -0.51524407 0.12801702 -0.5143625 -0.8072234 0.14087167 -0.95355296 0.40773076 0.37080815 0.41584605
668 -0.11929114 0.2286696 -0.20544815 -0.36810455 -0.556909 0.06873984 -0.17899843 -0.07805388 -0.46372905 0.64220434 0.0408625 -0.3336247 0.5191837 1.1492347 0.015090508 0.1975954 1.1154625 -0.2907749 -0.51486576 -0.11681006 0.44506323 -0.55931973 -0.25426796 0.5878268 -0.64482325 -0.89258623 0.49313068 0.2968385 1.0134088 0.03497044 0.797046 0.4338171 0.8583898 -0.44038606 -0.07038296 0.068509966 0.39799243 -0.77210534 -0.5424847 0.23263107 -0.13281079 0.2936165 -0.4453216 -0.09336783 0.48622537 0.39066797 -0.5191747 -0.5052888 -1.1959865 -0.51282465 0.01588842 0.2589555 0.75707895 -0.7903466 -0.45128196 -0.3930793 -0.14378737 -0.20395653 0.09710662 0.35675198 -0.8060093 -0.6486117 0.10081466 0.73302513
596 0.45719773 0.2524627 -0.11076748 -1.1018393 -0.51774967 0.6807032 -0.025893575 -0.30593276 0.18454768 -0.20575567 0.88221866 -0.079402246 0.77959025 0.90979344 0.5991171 0.09364451 0.4197291 -0.18368699 -0.68580276 0.53885376 0.8940304 -0.35821286 -0.39857793 0.74519753 0.73386174 0.13431829 0.124857806 -1.5354267 1.0188721 0.6781084 -0.21083237 -0.23809484 1.6252272 0.8610488 -0.003207991 -0.6561122 -0.34073725 -0.29767415 0.7277221 0.28147143 -0.71177703 0.692375 -0.05874864 0.16142622 -0.30373713 -0.14246282 0.0840996 0.61592513 -0.70927453 -1.1092696 1.514579 -0.33315024 1.2889794 -0.32323116 -0.8451932 0.24019717 0.52163285 -0.11736651 -0.07803732 1.0466794 -0.30821925 -0.62949324 0.18287255 0.50161266
595 -0.45728856 0.11412872 -0.02757286 -1.6344771 -0.20287149 0.50794667 0.43520138 -0.6437171 0.06251283 0.16954255 0.8793047 -0.19055896 0.33144265 0.06964104 0.47228885 0.69014585 0.54589546 0.1333753 -0.48063645 0.71876615 1.1091957 -0.24484879 -0.6500974 0.083877325 0.7553662 -1.1605679 0.43865526 -0.5191795 0.47969916 0.7320516 0.36353686 0.1820734 0.7931632 0.8585697 -0.4650451 -0.26453468 0.14654313 -0.5311917 1.1452821 -0.58409524 -0.12459741 1.1968207 -0.8447473 -0.39698827 -0.2981364 -0.21536255 0.34283233 0.21419173 -0.52610856 -0.75462645 1.7017951 -0.08857011 1.6291145 -0.20059381 -0.74884546 -0.29004234 0.38504928 0.21518058 -0.3196263 -0.018287392 0.017249405 -0.59336233 0.17301878 0.64621305
138 -0.4445841 0.3716778 -0.92674774 0.3062889 0.14116329 0.1420756 -0.044311266 1.1834613 0.16193406 0.17765518 0.85371363 -0.18728645 1.0934922 0.565053 0.26199165 0.6669403 0.26425403 -0.62941927 -0.5008485 -0.3498939 0.1529129 0.5040791 -0.28449872 -0.37960836 0.041503347 -0.7954087 0.07191259 -0.60717803 0.1833084 -0.21905737 -0.08145843 0.30101892 0.8322454 0.01488214 -0.13679697 0.06166111 0.10367826 -0.14066523 0.1989642 0.5113673 0.8897865 0.018162804 0.40944323 -0.71027404 0.33576146 -0.081762195 0.61505455 -0.55777615 -0.70946765 0.010865429 0.5040514 -0.32390356 0.49417466 -0.36441246 -0.114809684 -0.5176295 0.28319708 -0.26081884 -0.9689308 0.32114196 -1.012688 0.32908952 0.32713282 0.20610295
671 -0.5559113 0.5807875 0.06060243 0.23433717 -1.0765713 0.51104677 0.1357297 -0.0012564899 -0.16315852 0.6422709 0.41805854 -1.234806 1.2278394 0.53422874 0.5406705 1.4547281 -0.09312264 -0.3743376 -0.15425813 -1.074712 -0.13344179 0.79061943 -0.4952371 0.15955894 1.221895 -0.8330199 0.88696533 -1.0627911 0.20957324 -0.095402576 1.2700063 -0.4100829 1.2955301 1.1069723 -1.2710855 0.2399521 -0.034876626 -0.9442936 0.8884323 -0.47042373 0.43073192 -0.5753329 1.1666079 0.6386238 -0.8506271 1.0436987 0.05081906 -0.29782504 1.0860028 -0.852167 0.017919322 0.4197623 0.3720191 -1.0773913 0.44510487 -0.66394717 -0.6457586 -0.926848 -1.6547041 0.36837068 0.059003603 -0.6483139 -0.19521707 1.0191976
672 -0.4952064 0.45619452 0.08125472 0.1626273 -1.2320504 0.44863138 0.054417428 0.022719914 -0.18845819 0.5517681 0.47355342 -1.2028978 1.2252953 0.498774 0.5043214 1.4155294 -0.08539567 -0.26809508 -0.1473306 -1.1202207 -0.2190045 0.88447267 -0.49361035 0.08063818 1.3589982 -0.8790417 0.8632783 -0.91841155 0.30043653 -0.3040277 1.147862 -0.34049305 1.304014 1.2056394 -1.266075 0.4126636 -0.0514821 -0.8585672 0.8148766 -0.43897653 0.42632693 -0.5275076 1.0537186 0.5993357 -0.64920557 1.0901496 0.26869136 -0.13634685 1.142494 -0.9309945 0.02461392 0.23026769 0.39011422 -0.9668239 0.36048186 -0.476041 -0.74082834 -0.9293867 -1.5977119 0.44470868 0.13122833 -0.57051116 -0.22382234 1.0298954
198 0.221336 0.8039786 -0.5037667 0.8009482 -0.6821744 -0.38042456 0.27108046 0.9488869 -0.4273515 -0.3077912 0.8760466 0.62349415 1.0766304 0.70275056 0.23086126 0.51341754 0.22964165 -0.65541744 0.4669492 -0.7720481 0.1771374 1.0278345 0.024477456 -0.34789225 0.6597271 -0.02042202 -0.126391 -0.11070217 0.32909453 -0.0018095927 -0.26976827 -0.60920554 1.109862 0.43675223 -1.3949839 0.10728049 0.25507718 -0.6432769 0.3034415 0.9263909 1.0105051 -0.11906958 0.96604455 -0.82638365 0.44955778 0.037931226 0.59253436 -0.54227835 -0.13525626 -0.5162944 0.38711423 -0.20953035 1.6195229 -0.3152 0.28638428 -0.6934906 0.15559712 -0.36864775 -0.3734433 0.50980234 -0.54063666 0.7486316 0.43590006 0.8786898
437 -1.6513779 -0.43945608 0.6806461 -0.0603339 -0.905832 -0.2135669 0.08175671 0.46081278 -0.15562388 -0.27707213 0.33455935 -0.5204521 0.33123085 0.60480183 0.9745721 -0.80328524 0.63709134 -1.5044818 -0.18765317 -0.95934635 -0.06025133 0.49701196 -0.29389456 0.02433841 -0.4476476 0.34218007 1.0328115 -0.29551306 -0.38824153 -1.0308731 0.94582295 1.1789637 0.97232765 0.6042389 -0.73950964 -0.44372672 -0.5474782 0.44639733 0.74483484 0.11850205 1.0957905 -1.8367463 0.19382708 0.50661975 -0.048626896 0.4357059 1.037069 -1.1727263 0.44308677 -0.17364597 -0.10492964 0.7240121 1.4484291 -0.39223084 -0.3937553 -0.91894156 0.10229087 -0.8819637 -0.22778746 -0.2781086 -0.21100868 -1.0038236 0.7290203 0.042817827
1 -0.08698286 -0.1685111 0.26311746 0.7364364 0.35762864 0.053043608 0.3471211 0.5846704 -0.7383002 -0.490316 1.0162028 -1.1049515 1.3136387 -0.06469055 -0.28248397 -0.5687015 -0.029525127 -1.0481138 -0.9325427 -0.78616023 0.40905973 0.12114835 -0.57541054 0.46292898 1.1695386 0.41194618 1.2630823 0.33371246 -0.053806037 -0.086880215 1.3144344 -0.38903204 0.7552606 0.2072154 -0.854601 0.33631897 0.0044455756 -0.9713369 0.8898211 -0.49280426 -0.112550065 -1.1856042 0.72382826 -0.60498077 -1.042678 0.38699558 0.032780655 0.14853561 -0.67293847 -1.1495343 -0.2795262 0.8830367 0.04768291 -1.0369188 -0.5656678 0.041222543 0.058442153 -0.96691 0.12597094 -0.0137706995 -0.6732036 -0.14212216 -0.44686982 0.6203601
56 0.27781665 0.017375339 0.13224857 0.049180493 0.342219 -0.06672107 0.280157 0.29816017 -1.0113122 -0.024752315 0.6753496 -0.8504984 0.71238613 0.30954808 -0.47498602 -0.06257137 -0.023823353 -0.80077636 -1.03795 0.019397488 0.22887181 -0.3478406 -0.03377085 0.6683556 0.64492273 -0.2132842 0.8424442 0.23873858 0.10758683 0.24403489 0.8929867 0.7486754 0.38541287 0.03232095 -0.20071739 0.20670974 0.029731644 -0.5924546 0.6108642 -0.7155072 -0.044501435 -0.988088 0.37262008 -0.41728768 -0.25899765 0.079871155 0.29709867 0.33165884 -1.0887766 -0.96199584 -0.2623983 -0.20424521 0.18569592 -1.4234995 -0.6267701 -0.1867276 -0.0048830123 -0.33466214 -0.008681432 0.21095403 -0.8887263 -0.28093824 -0.12128853 0.60718703
629 -0.075734586 -0.42965853 0.4662081 -0.27096364 -1.1236633 -0.010737852 -0.44715956 0.09133179 1.244847 -0.49441797 0.94916075 0.60751116 0.9840172 2.1542716 0.4169302 0.0038290373 1.03998 -0.3631251 -0.5689278 0.8509955 -0.13579327 1.1122817 0.38395157 -0.5699296 -1.3139445 -1.0716709 1.0802068 0.56902564 -0.808224 0.4393361 0.36881682 0.37981898 1.9915643 -0.07461651 -0.22777097 -0.27347347 0.2548927 -1.0295578 0.6477425 -0.38112432 1.0154341 -0.38458386 0.6060724 0.09176078 0.21965654 0.013474557 0.5425586 -0.16811441 -0.22110072 -1.2239641 1.0969145 -0.3144886 -0.3840854 -0.36015308 0.0950247 -0.01600731 -0.20196328 0.46911547 0.33092257 -0.22155829 0.08609473 0.19621971 0.42869982 -0.15016574
576 -0.06950848 -0.4223699 0.08366449 -1.2336657 -1.2583456 0.9955792 0.3355857 -0.75459707 0.5602938 0.046599437 0.3614497 -0.0730931 0.7047628 0.5669564 0.22886966 0.18123072 -0.017724836 -0.027791442 -0.58429325 0.45956966 -0.004178217 8.300824e-05 -0.6231654 0.4345229 0.120948076 0.117037736 -0.0452125 -0.5820085 -0.17408757 0.8412956 0.43662643 -0.10433593 1.44211 1.361033 -0.3797986 -0.43487284 0.10234813 -1.0383933 0.23064475 -0.8110883 -0.23192286 -0.062332302 0.29989403 -0.12865588 -0.20836656 0.40444183 0.4379321 0.23143467 -0.6047721 -0.65577364 1.2680473 -0.0419507 1.0646857 -1.1094351 0.08738591 -0.40599003 -0.5182397 -0.51456505 -0.68472123 -0.28921682 -0.29575476 0.0023251534 -0.38211378 0.31207076
31 -0.16822387 -0.41842055 -0.43849406 -0.028387573 1.1130865 -0.27970207 -0.6586877 0.84877807 -0.5755185 -0.600475 0.33835906 -0.38378924 1.4564066 0.1787756 -1.0038273 -0.45462662 0.75066423 -0.97082514 -1.0501627 -0.5285734 0.3131429 -0.5027119 0.1293782 0.8331773 0.38357455 0.038419895 0.7130381 0.19977844 0.49651036 -0.46095297 0.76544386 0.7169443 0.49389112 -0.95435274 0.19139257 -0.042684488 -0.43794316 -0.4254676 1.1900154 0.35649568 -0.5361886 -0.9462663 0.29034385 -0.4555237 -0.21057312 0.20749444 0.5723811 0.31580135 -1.6814451 -1.8458889 0.2426365 0.48984167 0.77309155 -1.3139142 -0.7600737 0.2916098 0.03729539 -0.82921225 0.6051061 -0.067810506 -1.1885172 -0.64410996 0.0057542096 0.48284504
162 -0.1040232 0.44771126 -0.46682367 0.7827777 -0.17469831 -0.10640258 0.36000976 0.9644364 -0.13482183 -0.6613948 1.0568682 0.018999988 1.29223 1.1573625 0.45801157 0.402879 0.3391569 -0.39871645 0.032415528 -0.8039034 0.2994601 0.7501461 -0.19615914 -0.28793916 -0.06727911 -0.33853045 0.5035215 -0.074026994 0.42245638 0.023191081 -0.27062106 -0.19006449 0.5504724 -0.45096302 -0.6805422 -0.19794528 0.123115584 -0.014749774 0.4224365 0.88011694 0.68920755 0.15321107 0.8432985 -1.1131372 0.54879075 -0.31640682 0.9958291 -0.33625218 -0.6203617 -0.5623868 1.0719821 -0.16003284 0.7357065 -0.67645574 0.029737106 -0.93714595 0.6457021 -0.8913559 -0.6978396 0.4533879 -0.91579354 0.26537344 0.16008195 0.34127772
126 -0.18539196 0.31433898 -0.42683244 0.5799022 -0.44316193 0.31638032 0.34350863 1.5301504 -0.2695042 -0.23774521 0.6813397 0.2921737 0.7185092 0.67193097 0.2546786 1.4371803 0.056191273 -0.6055566 -0.0441477 -0.33743256 -0.10788016 1.2410372 -0.071014136 -0.07611762 0.16729411 -0.6859843 0.7166716 0.29394934 0.17864746 -0.50807464 0.0147300325 -0.7245446 0.32445946 -0.20791508 -0.66432583 -0.09685289 0.5147783 0.015979694 0.74894387 1.0964785 0.12793756 0.54523546 1.188961 -0.79087824 0.38259563 -0.11673587 0.63177335 -0.31111315 -0.6560783 -0.898634 0.7510853 0.12394195 0.7305217 -1.3669817 0.1776294 -0.6864161 0.34594217 -0.2599326 -0.7528903 0.9456296 -0.6097114 0.40741616 0.013038888 0.41573018
184 -0.2805288 0.713857 -0.74027133 0.39189848 -0.13607004 0.41046417 0.13982236 1.161785 -0.1442828 0.45444375 0.88834447 0.12346305 0.6358789 0.49840534 0.23735934 0.30480626 0.1482032 -0.41635743 -0.50959647 -0.21408144 0.30349386 0.29590368 -0.1339629 -0.33395144 0.16210462 -0.76696104 0.17875218 -0.55252445 0.4056479 0.12522398 0.21138747 0.015913565 0.7134041 -0.03178136 -0.5661718 0.11694524 -0.11973174 -0.2892997 0.47378156 0.2985021 0.229048 -0.002637029 0.65318334 -0.68730336 0.13481778 0.419745 0.8110141 -0.37769353 -0.11273073 -0.39027905 0.673086 -0.18595344 0.7289586 -0.65206754 -0.27008772 -0.29021457 0.6548762 -0.26268753 -0.9266921 0.35934144 -0.58842224 0.40320233 0.29960424 0.59242177
201 -0.06558006 0.6730775 -0.6316491 0.5117692 -0.33384806 0.34094092 0.11476186 1.120291 -0.09373926 0.27937797 0.60974234 0.09051937 1.0546696 0.35822704 0.09444937 0.603302 0.27829653 -0.31035048 -0.65494627 -0.033286758 0.053804882 0.26603544 0.034499455 -0.30434358 -0.061791886 -0.8193293 -0.011811454 -0.1876405 0.34884742 0.06828082 0.18173784 0.020002188 0.81909657 -0.14409819 -0.52247936 -0.061112657 0.37027916 -0.304206 0.37211743 0.25867137 0.4915608 -0.02456313 0.5695826 -0.6517984 0.3557146 0.18237686 0.868489 -0.38357782 -0.44782156 -0.30581573 0.38739318 -0.45395598 0.87064135 -0.5996985 -0.18484586 -0.34238586 0.37824222 -0.2892619 -0.8645754 0.13962175 -0.483744 0.27643418 0.4920092 0.45202625
203 -0.1412206 0.98503035 -0.7380845 0.6188897 -0.22075273 -0.060719214 0.16696292 1.0570339 0.37159106 0.03638507 0.5758397 0.023170613 1.2220626 0.8076308 -0.021901581 0.38577473 0.18881832 -0.15131329 -0.3776502 -0.0033359304 -0.095750354 0.6489404 -0.23119698 -0.7128324 0.37538055 -0.64494604 -0.32745308 -0.38737643 0.33539194 -0.12416874 0.16479799 -0.21886939 1.0163075 0.14372638 -0.543043 -0.0011850795 0.17123523 -0.24476627 0.5397121 0.2164594 0.6576187 -0.39653078 0.7267346 -0.3885161 0.34311578 0.36349052 0.49237877 -0.45484996 -0.4060901 -0.62351054 0.2073873 -0.115854 0.58275217 -0.3967613 -0.028163852 -0.28494743 0.6562821 -0.66958666 -1.1981059 -0.11739615 -0.23109551 0.2774451 0.39735308 0.5959342
580 0.08808622 -0.14163582 -0.18963176 -1.4903183 -0.88849515 0.79995596 0.45180044 -0.24994433 0.6481904 -0.061633926 0.40605548 -0.19750029 0.44564173 0.87895566 0.3336487 0.04221268 0.019689865 0.05356274 -0.556123 0.6272372 0.029387824 0.039418407 -0.43686733 0.32886505 0.25671738 -0.049807068 0.4384987 -0.81763077 -0.054170452 0.8312251 0.6183836 0.09497238 0.9994859 1.355744 -0.59096724 -0.2916969 0.021675318 -0.7064203 0.2876191 -0.8841343 0.30481654 -0.48051137 0.5419745 -0.33216682 -0.46106055 0.193325 0.058329504 0.3354123 -0.6319061 -0.63787967 1.5419201 0.017798577 0.66943645 -1.2606333 0.0048645213 -0.30307394 -0.43930036 -0.7093501 -1.0329589 0.13395014 -0.21031936 0.057557147 -0.4030133 0.1212658
147 -0.14095455 0.20031708 -0.7785186 0.21160233 0.16655807 0.22464468 0.2695621 0.93831444 0.2850705 0.135647 0.53937197 -0.28576156 1.1098033 0.8979316 0.22784102 0.20076367 0.46246505 -0.51343405 -0.5618892 -0.33579502 0.2680155 0.13834944 -0.22608809 -0.48449692 -0.01025576 -0.5384577 -0.15048896 -0.69581133 0.41946876 0.029183572 0.08709804 -0.0046819695 0.72623307 -0.22106643 -0.37524003 -0.28919855 0.45553088 -0.18423994 0.14626227 0.31796685 0.75484985 0.034452263 0.53052664 -0.60890234 0.62201875 0.18356517 0.64697 -0.51418877 -0.58770394 -0.21877916 0.563468 -0.33535704 0.48557898 -0.2499682 -0.1870886 -0.4346312 0.20706284 -0.50761336 -1.0963047 0.42196482 -0.76000816 0.27111208 0.30922323 0.23419757
666 -0.15627277 0.22054914 -0.20096943 -0.3585915 -0.5768999 0.071055524 -0.10704335 -0.08374312 -0.4702431 0.59725857 0.025120953 -0.29904017 0.47877613 1.1435674 0.036904745 0.20862448 1.1047364 -0.39514154 -0.5145598 -0.068828635 0.43358117 -0.5159527 -0.23675705 0.5691556 -0.60663337 -0.9158956 0.5306079 0.30025637 1.0355667 0.018324459 0.77942646 0.4455191 0.8281031 -0.51311535 -0.09019675 0.08441954 0.39904365 -0.7209525 -0.53516126 0.25022238 -0.050049797 0.31285948 -0.5070361 -0.09185054 0.45888034 0.4002777 -0.5173504 -0.47660443 -1.1557322 -0.51801395 0.032607194 0.26561025 0.7513252 -0.8228482 -0.41661695 -0.36557373 -0.19263245 -0.2141564 0.034999963 0.34871486 -0.7673944 -0.6971138 0.15671922 0.6704733
667 -0.15232669 0.23213765 -0.2303858 -0.32455012 -0.6665323 0.11178232 -0.114339136 -0.10782497 -0.45966843 0.6329793 0.023643726 -0.2578351 0.4876251 1.1636907 0.10265556 0.2804646 1.0976402 -0.43018523 -0.49765304 -0.03376321 0.44567627 -0.5135743 -0.25659922 0.5753601 -0.57966983 -0.8987499 0.53213495 0.2598761 1.0736592 0.0041923854 0.76089364 0.39004946 0.789843 -0.51373607 -0.10667155 0.06756257 0.30136216 -0.6835639 -0.5688069 0.23769204 -0.029178578 0.32975063 -0.47437957 -0.042894956 0.33947945 0.44158944 -0.53459454 -0.4891173 -1.1591996 -0.5562526 -0.028728846 0.24725853 0.77078706 -0.8308805 -0.42019585 -0.42873365 -0.18918411 -0.19268183 -0.029980203 0.34060112 -0.7923851 -0.73896164 0.19239096 0.66894984
144 -0.068420276 0.22303976 -0.5237998 0.61330605 -0.35625 -0.0029652354 0.12082768 1.036983 -0.042685553 -0.6668738 1.1429065 -0.15683617 1.1424017 1.1311291 0.13838387 0.42999294 0.32842404 -0.5911909 -0.035828248 -0.661758 0.272489 0.5680389 -0.22984223 -0.23257937 0.14256556 -0.27242562 0.3628189 -0.2924642 0.12570201 -0.017335512 -0.48486826 -0.3085276 0.68138117 -0.05270782 -0.8628485 -0.19304767 0.48747543 0.1493024 0.43619725 0.93773586 0.95095176 0.31871992 0.90745884 -0.99553144 0.8500084 -0.20694663 0.8778281 -0.68317384 -0.478497 -0.3505768 0.93150645 -0.53081185 0.70973575 -0.6509275 0.13089742 -0.7533519 0.30328315 -0.6804139 -0.8225228 0.5509747 -0.75189316 0.286068 0.32281244 0.43488294
518 -0.39195213 0.48914617 -0.8308593 -1.425069 -0.46399832 -0.4754683 -0.61292064 -0.52175987 0.31311724 0.40434554 0.08134046 -0.8241881 0.25478914 0.1901671 0.23523085 0.17123286 0.7840673 -0.4862466 -0.59629434 0.3363771 0.27031374 0.47261685 -0.20529237 -0.30442792 0.5249273 -0.7011549 0.08450816 -1.2295696 1.2164004 -0.02936516 0.9640491 0.8314053 1.347505 0.8282339 -0.23795086 -0.72693455 0.3892772 -0.19519776 1.3438334 0.7040843 0.1067116 -0.15210873 0.22244662 0.3013318 0.2028053 0.13110162 0.8960281 0.5126639 -0.7008286 -1.2992872 1.3242476 -0.9279556 1.5615158 -0.85992634 -0.7759951 0.07664326 -0.09916281 -0.049236014 0.9454458 -0.3838573 -0.10360326 -1.0780891 0.49668998 0.36795565
525 0.26991904 1.0342797 -1.237444 0.13054803 -0.060917184 0.10619518 -0.55829674 -0.35756123 -0.31466353 0.23033482 0.029017821 -1.1734565 0.28091526 0.37137547 0.58596826 -0.035330497 -0.15310706 -1.0467031 -0.32813275 -0.473909 0.5643489 0.5805288 -0.8075546 0.53228337 0.26947957 -0.5281018 1.1459229 -1.2571849 1.340385 0.7049978 0.19932745 1.0244132 1.7644002 -0.5818265 -0.6843284 -0.20738491 0.46217784 -0.3424489 0.6239564 -0.46667978 0.4663588 0.30509216 -0.3176699 -0.5651044 0.3296177 0.28216422 0.9663452 -0.41434047 -0.7172382 -0.32201704 0.5943886 -0.39582542 1.9138377 0.027328465 -0.08522116 -0.13008973 0.63788563 -0.09041977 1.4136698 -0.7668166 -0.18829957 -0.85586846 0.49488744 0.35194334
41 -0.12178207 -0.08179014 -0.30212402 0.049942043 0.16521844 -0.5003902 -0.14915843 0.1444649 -0.907965 -0.7801192 0.91540754 -1.5419856 1.1077622 0.45650813 0.03754368 -0.83198386 0.7544534 -1.2039475 -1.2137163 -0.7133685 0.8376666 0.5237812 -0.13713303 1.3088051 0.8985119 0.38418403 1.0149534 0.16713831 0.17731537 0.47786745 0.81874263 0.25384083 0.5976522 0.12143 0.1523816 0.15866342 -0.17485815 -0.86192304 0.6041861 -0.59543705 0.5928135 -0.77353114 0.49151 -0.013025238 0.13518676 -0.23453186 0.41084602 1.0118247 -0.86868125 -1.0148591 -0.23944202 0.78450876 -0.10050537 -1.253716 -0.57907474 -0.5917446 -0.19419295 -0.30196956 0.21463002 -0.23056293 -0.7514099 -0.448196 -0.8056727 -0.1417238
171 -0.1837934 0.9845215 -0.6671393 -0.016530314 -0.688503 0.3140026 0.035599127 1.3092313 0.06395205 0.30200508 0.88325393 0.20953827 0.96314245 1.0118124 0.1831569 0.6331348 0.27147475 -0.57425743 -0.15971227 -0.260238 0.03397671 0.10349632 0.0034864654 -0.2875685 0.1659485 -0.5282528 0.00021289289 -0.4955758 0.59481454 -0.12962058 0.14295255 0.47825077 0.6199663 0.041040223 -0.28039056 -0.23674694 -0.037039213 -0.14325781 0.23019972 0.48707387 0.49628556 -0.0844968 0.21848524 -0.34518448 0.31696564 0.17834906 1.1133692 -0.7738094 -0.28402594 -0.2528979 0.24061121 -0.10174767 0.5734034 -0.93348557 -0.1409381 -0.14908917 -0.047457166 -0.630522 -0.59772605 -0.0020898848 -0.5548309 0.3985282 0.30413046 0.86764896
569 -0.09481193 -0.6152414 0.01437549 -1.0732579 -1.187717 0.34256577 -0.046782866 -0.21236347 -0.4167605 -0.006045857 0.13412604 0.8008496 0.92475146 0.85786945 -0.43431506 0.1674323 -0.01800041 -0.11728333 -0.79113823 0.13388406 -0.693806 1.0265206 -0.97973907 0.63061005 0.11138385 -0.70607716 0.50255454 -0.77717286 0.0028486073 0.6555457 0.30168614 -0.16608347 0.7713785 0.97535634 -0.6336843 -0.38058293 0.43089223 -0.762252 0.46413356 -0.78611726 0.80828273 -0.51350635 -0.073678054 -0.69690543 -0.3268812 0.72834945 -0.71758425 0.381221 -0.5293481 -0.47456792 0.18390825 0.23520873 0.8376288 -0.4563012 0.16027255 -0.25637248 0.4424064 -0.34165713 0.66894627 -0.38755342 -0.016875088 -0.8567578 0.07714721 0.19492365
496 -0.07618746 -0.6279652 0.14959382 -0.78304565 -0.7136704 0.833773 0.059141498 -0.20522524 -0.50688446 0.37777016 1.0692073 0.20962484 0.7506011 0.47769886 0.14046104 -0.031247215 -0.59333307 0.367244 -1.1418252 0.076344565 -1.1326442 0.7999858 -1.1589216 -0.4533705 0.06507453 0.2203439 0.9658795 -0.098594815 0.0004926428 0.25284988 0.28454027 -0.4727403 0.62058085 0.9993802 -0.23894495 -0.52772576 -0.77983516 -0.32745564 0.15297902 -0.08316341 0.8310737 -0.14954166 0.7884576 -0.67007047 0.25599027 0.4353897 0.22376944 0.08644757 -0.74729854 -0.78271043 0.39554122 -0.04457847 0.7190481 -0.43722534 0.46040636 -0.225781 -1.0671806 -0.3300966 -0.29531652 -0.5745929 -0.5506757 -0.71079695 0.066236295 -0.063559785
2 -0.012040429 0.34497416 -0.019276358 -0.12177685 0.40468445 0.18631978 0.17584893 0.22655581 -1.2273747 -0.58067316 0.8508943 -0.7717706 0.44873476 -0.31668487 -0.46133026 -0.06383129 0.52819735 -1.3232775 -1.1802607 -0.10390201 0.035080444 -0.08573452 -0.32798526 1.4152356 0.95625985 -0.057464596 1.106501 -0.1305797 0.12657373 0.6958779 0.6124373 -0.12860177 0.33410576 0.22046657 -0.80030495 0.12282219 0.67295694 -0.09457772 0.44923317 -0.50733274 0.42888814 -0.5787342 0.2334524 -0.23952629 -0.5866621 -0.07334526 0.3898551 0.44787347 -1.3855622 -0.6492018 0.23084418 0.3465351 0.69542146 -1.4263825 -0.6689925 -0.38855928 0.31633455 -0.5173518 -0.02712426 -0.15656707 -0.5780934 -0.3910883 0.08743062 0.4166289
436 -0.7717637 -0.10747362 0.77555895 0.2894179 -1.4164102 0.51412606 -0.22305055 1.1531799 0.18772823 -0.040161557 -0.25032774 -0.47918078 0.24384098 1.0917909 0.28087035 -0.4736391 0.62949675 -0.63687956 0.19020669 -0.1894035 0.22024813 0.17465034 -0.6623624 0.5557179 -1.4198252 0.16951287 0.52684253 0.25748503 0.22969115 -0.20744878 0.3115608 0.7739234 0.64031017 0.29661816 -0.4507581 0.057577323 0.06616325 0.10707675 0.5688092 -0.31357446 0.6873521 -1.0920217 0.2701368 -0.40011838 0.08473042 0.63264704 0.681987 -0.3372103 -0.5306115 0.1646587 0.56215745 0.2676908 1.5996317 -0.77979684 -0.7782565 -0.81201583 0.5822598 -0.9237068 -0.36113247 0.12393818 -0.46813226 -0.88330287 0.8114102 -0.1763973
253 0.5208491 0.4073768 0.18462893 0.6693768 -0.57006925 1.1249464 -0.8233736 0.58722377 -0.4074419 -0.040524542 -0.004995595 -1.4095457 0.7706769 0.87036276 0.16147597 0.54979694 -0.25707906 -0.21361487 -0.3224961 -0.73575646 -0.104725495 -0.03747025 -0.7257392 0.8978887 0.13552856 -1.0652536 0.042529944 -0.5644529 0.83418065 0.90810865 0.14785257 0.04808118 1.3902972 0.94066554 -1.6293784 0.13038298 0.0025337373 -0.019333178 0.99453306 -1.4747008 1.4212235 0.18697584 0.6889993 0.50736076 0.1204599 0.69169736 0.306778 -0.58990544 -0.17538838 0.5026471 -0.12391912 0.7068801 -0.3651957 -0.60067636 1.0707808 -1.2373761 0.21338813 -0.9305255 -0.8838956 0.5770132 -0.79275566 0.5094567 -0.26490974 0.010245298
549 -0.5805555 0.38070506 -0.9718677 -0.11735326 0.116419956 -0.64792 -0.8383296 -0.05898694 0.19405709 -0.19190753 0.59798896 -0.757604 0.7523515 -0.2717861 -0.16496429 0.38459328 1.2033373 0.13105778 -1.0637783 0.37864184 1.1273618 0.118715964 -0.24190226 -0.0075903093 1.0362409 -1.353151 0.29559392 -0.8109087 1.2070551 0.102178246 0.17919599 0.41311604 1.938731 0.5674124 -0.7569257 -0.04987967 0.5428456 0.27837542 0.3936584 0.16981186 -0.14037068 0.2600512 -0.45430535 -0.5012068 0.50513 -0.48838565 0.21382092 0.025349375 0.27572435 -1.3770995 1.0180925 -0.20860416 1.5899957 0.103220314 -0.7523837 -0.27916402 -0.4369801 -0.13534261 1.2573628 0.71162313 -0.14934182 -0.6584091 0.5129055 1.2266232
405 0.017681839 0.2324557 -1.0747818 0.37369484 -0.7196134 0.03933923 -0.42807722 0.20193568 0.4955326 0.28025976 0.56519437 -0.89625335 1.398464 0.9281212 -0.49552366 -0.32062048 -0.16588007 -0.3703264 0.3049002 -0.75388724 -0.070319615 -0.58303 0.08241608 0.4063573 -0.67011714 -0.77647996 0.6347203 -0.038370322 -0.34983358 0.20777594 1.2613503 -0.49793997 1.7183292 -0.4187041 -0.880509 -0.05162782 0.068633474 -0.679944 0.13048607 -1.2518998 0.8333299 0.54019487 -0.6143779 -0.08224506 -0.86931264 0.67087597 -0.6069505 -0.5646121 -0.2727471 -0.1065073 1.2391406 0.10518193 0.768951 -0.93874025 1.2830322 -1.0052545 -0.91525817 -0.10490927 -1.4108415 0.50074804 -1.0723428 -0.7912984 0.9038386 1.4620577
101 -0.24794856 0.021216134 -0.67103267 0.8040253 -0.6069389 -0.15622593 0.05453981 -0.4799364 -0.2812606 0.461334 -0.049559075 -1.0298179 1.5162437 0.67545116 -0.59990895 0.71164083 0.7204351 -0.7723395 -0.73020655 -0.46625006 -0.5088408 0.3677179 -0.8986652 0.15104127 0.5665437 -0.8408748 0.81014585 -0.10226612 0.29881763 -0.56971455 1.1990879 -0.06864726 1.2695961 0.385248 -1.064957 0.4151242 0.27536967 -0.6940415 0.022534618 0.44438666 0.58463156 0.31225246 0.39836168 -0.0315644 0.5868835 0.70004135 0.26627237 -0.07019714 0.6909999 -2.1519742 -0.044622265 1.748164 1.1328565 -0.34341502 0.38014007 0.65268356 -1.8708489 0.6292056 -1.1248065 1.3524106 -0.10259348 -0.37550718 -0.28264686 0.77474546
241 0.41285458 -0.14194149 -0.28084764 0.5117714 -1.0921218 0.44963682 -0.47524166 0.93085647 -0.5214345 -0.5764833 -0.22749022 -1.1263291 0.2492227 1.4039062 0.47533983 0.5497346 -0.5057877 0.4966708 -0.14233445 -0.027595416 0.73939466 0.22953874 -0.119960375 1.5315497 -0.32749876 -0.94619894 0.10073128 0.16143963 1.3754581 1.0756277 0.88229114 -0.08519276 1.2004459 1.2097437 -0.7755459 -0.97092134 0.5460402 0.48467663 0.2177251 -1.2660834 1.063885 0.16538583 -0.16447179 -0.8118755 0.587587 0.37958285 0.8146126 0.18292263 -0.95021516 0.44108388 -0.19674477 0.056505296 -0.4022836 -0.35697123 0.5007735 -1.2657423 0.4784098 -1.3906934 -1.200364 0.29763925 -1.4867967 0.07238108 -0.0028450259 0.87785226
647 -0.17284548 -0.3282787 -0.37197194 -0.8288209 -0.68028754 0.6356469 -0.08526158 -0.6778341 0.03392664 0.10453164 0.21811979 0.5381055 1.0905982 0.7529618 -0.15165675 0.1750916 0.8428619 -0.7814639 -1.3929063 0.8555826 -0.6114223 0.7186155 -1.1238412 0.8860751 -0.039595533 -0.82582295 0.91536987 -0.6538342 -0.21928571 0.6938666 0.44751683 0.011857067 1.7724787 0.7060269 -0.3347167 -0.8896761 0.44447777 -0.92839986 0.3832042 -0.7638263 0.6893531 0.018905126 -0.39174366 -0.5931202 -0.09835167 0.5995023 -0.9658515 0.46465272 -0.6750698 -1.4811132 0.732582 0.6318202 1.4615452 -0.99161154 0.17118002 -0.3499087 -0.3075322 0.27309102 0.995043 -0.2753245 -0.22995636 -1.3750589 -0.097577386 0.3055667
46 0.14748979 -0.29859468 0.27660006 0.71685725 -0.00913336 -0.018734884 0.10831483 0.29070583 -0.518404 -0.7081039 0.99972755 -0.59262127 1.3584929 -0.72078794 -0.3734178 -0.43371275 -0.29827127 -1.115203 -0.7539718 -1.0409311 0.30414945 -0.13612449 -0.35354927 0.34796798 1.3305185 0.1462318 1.0506911 -0.050038565 0.40610662 0.20643346 1.3684556 -0.59641784 1.2617904 0.47650608 -0.98492646 0.4902216 -0.20827669 -0.7833045 1.1642537 -0.046942227 -0.17903756 -0.5848473 0.9567296 -0.764931 -1.1142496 0.10316697 -0.21376114 0.21668497 -0.9353731 -1.2619195 -0.38016132 1.006846 0.021517927 -0.95917606 0.047951158 0.09702782 0.1149092 -0.88307256 0.23114972 0.058178063 -0.8992468 -0.22373806 -0.5628331 0.51415527
168 -0.26598427 0.468091 -0.8640623 0.466922 -0.92534477 0.54340845 0.1117494 1.134119 0.2600148 0.15341981 1.0971991 -0.236375 0.7023954 0.7289134 0.26395333 0.30946726 0.5031887 -0.10798795 -0.08217007 -0.16506578 -0.100193486 0.41564482 -0.052698962 -0.46717206 0.4627402 -0.97345555 -0.2922197 -0.42540824 0.49061534 -0.50303096 0.59051716 0.82179546 0.5838977 0.24804331 -0.34639585 -0.10669651 0.2904467 -0.38892946 0.2617529 0.8088337 -0.08805159 -0.08411698 0.54679817 -0.46849433 0.44799405 0.2749131 0.7455989 -0.34515825 -0.0762733 -0.42195645 0.39525253 -0.39129317 0.7056382 -0.3035386 -0.113370016 -0.23383863 0.18042609 -0.46557707 -0.5826969 0.32138675 -1.0001833 0.2109948 0.53613085 0.6387524
234 -0.0032272262 -0.20452842 -0.20160395 0.2709094 -1.1628969 1.0655473 -0.9811152 0.775269 0.10169305 -0.16756535 0.34208158 -1.5575365 0.3430768 1.3070997 1.0108302 0.18685742 -0.3828719 0.18128827 0.21825905 -1.2259996 0.31287995 0.43019873 -0.17447934 1.5047544 0.24185841 -1.1335951 -0.2795459 -0.027679019 0.93429345 0.44779062 0.6111003 -0.28200296 1.187568 0.7999583 -0.83014333 -0.04578963 0.5454211 0.47180495 1.3511914 -0.9545888 1.0186095 0.24537829 0.6182199 -0.6283202 0.014318038 0.38987976 0.15942355 -0.0538071 -1.3075534 0.8742053 0.19623028 1.3198472 -0.3206758 -0.30851504 0.56254214 -1.4335696 0.5022336 -0.6903902 -1.3165976 0.29658586 -1.0889746 0.17070237 -0.16762057 0.106571354
579 -0.17102768 -0.62799555 0.012881838 -1.3264352 -0.19216874 0.6872735 0.068815775 -0.36892807 0.11833944 -0.2444278 0.94434977 0.3523431 0.5998768 0.7309493 0.015399839 0.47995016 0.3638466 -0.100685045 -1.0120829 1.264616 0.615254 -0.27055028 -0.40021423 0.2876099 0.35688475 -0.15181762 -0.37406936 -0.61065984 0.29045427 0.59097576 0.34540945 -0.09863426 1.0244131 1.3836566 -0.6070444 -0.6244844 -0.14098464 -0.925043 0.6726785 -0.07146529 0.18810497 0.58498245 -0.17910342 -0.5382949 0.07440949 -0.23135588 -0.2994943 0.19050173 -1.3531824 -0.8864184 1.5423338 0.020233123 1.3425981 -1.1839297 -0.5918881 -0.074022 -0.23153529 0.02216516 -0.7459421 0.030091051 -0.23916994 -0.1942412 -0.33523893 0.3121879
236 0.8183016 -0.7398954 -0.15069196 0.26325214 -0.37730435 0.47549042 -0.5460979 1.1548553 -0.3337363 0.21667354 0.46040854 -1.399285 -0.10390223 1.6020398 0.23235114 0.22337267 -0.32447767 0.27028328 0.51705176 0.14043917 0.7305071 1.0261136 -0.121300064 1.3322077 0.028996494 -0.61250335 -0.37301162 -0.1015662 1.5960823 0.88683194 0.27169687 -0.2454969 1.8468509 0.2792716 -0.9355262 0.008728213 0.6230821 -0.11184717 0.37486076 -0.6739536 0.4047443 0.148979 -0.078039214 0.015341647 0.15150581 1.2020447 0.23371609 -0.6192813 -1.1794617 0.31483546 0.116481155 0.78610265 -0.5522927 -0.29373544 0.48373303 -0.7630148 0.80418307 -0.87885267 -1.2343652 0.10453327 -1.417486 -0.14439315 -0.3609107 0.6124701
608 -0.25499576 -0.8283389 0.06412965 -0.26987305 -0.99849075 1.1952958 -0.48463157 -0.5781474 0.2585568 -0.4744969 0.886479 0.8157555 1.1316414 0.78277254 0.65943295 0.044031117 1.3843826 0.549465 -0.19729614 0.11523472 0.5057847 0.68587345 -0.66811615 0.37193522 0.868773 -0.8529985 1.4428864 -0.5212043 -0.11680267 1.2947657 0.40938222 0.5481137 0.81223416 1.8698047 -0.40720612 0.23004122 -0.017142557 -0.46668866 -0.20520909 -0.6363521 0.82016087 -0.35675618 0.41305503 0.45476943 0.06049594 -0.009230253 0.2495811 -0.5059739 -0.7379557 -0.4934777 0.9979314 0.6520073 -0.12055024 -0.55399626 0.40201735 0.6307905 -1.4781674 -0.18490635 -0.62981987 0.2535865 -0.8055628 -0.8675963 0.7182494 0.3437576
550 -0.010980958 0.3336742 -1.5513136 -0.50630987 -0.5765222 0.03338549 -0.8383539 -0.14569329 0.3321375 0.45684713 -0.034051627 -0.74770814 0.8151154 -0.32657492 0.24807745 0.4983262 0.92869925 -0.34362057 -0.22482172 -0.55125564 0.4119934 -0.0717642 -0.41525915 0.20366624 1.1348339 -1.6740172 0.6222591 -0.7450363 1.7358279 0.5099197 0.41575825 0.22133169 1.2963427 0.3455842 -0.8935248 0.5528172 0.32415363 0.11810712 0.98140967 0.7871947 0.0050652903 0.7153317 -0.8065657 0.024893912 0.6110942 0.41496712 0.33013007 -0.23638183 -0.41601947 -1.517652 1.4254022 -0.25792345 1.2069062 -0.53716254 -1.1947852 0.5826852 -0.027751002 0.36066723 0.4659753 0.26521087 0.12479992 -0.30868804 0.45188507 0.5342753
259 0.56910205 -0.1234698 0.07187306 0.1693955 -0.37857124 -0.45305473 -0.6572324 0.23170206 -0.5412244 0.09146071 -0.61089873 -0.16120207 0.10808711 0.79689336 0.30577004 -0.08866182 -0.3390351 -0.28596237 0.1856516 0.038644873 0.22459851 0.54021937 0.023866827 0.88514125 -0.09256989 -1.6892594 0.47993872 0.6039333 0.57752323 -0.5676517 1.0833744 -0.46687242 1.0695416 1.0669779 -0.6068292 0.38273343 0.62115675 -0.10748883 0.054184224 -0.8945257 0.6881006 -0.16996862 -0.2149806 0.2934589 0.85888785 1.1150724 -0.03274488 -0.024917332 -0.28322878 0.5655257 0.1399325 0.07501129 -0.20157902 -0.7110487 0.5367324 -0.712742 0.051075734 -0.27870247 -0.39684197 1.2738037 -0.85844535 -1.0695347 -0.004430837 -0.33531046
575 -0.09857451 -0.90174496 0.29446566 -1.2636474 -0.6482912 1.4775208 0.54238564 -0.40631002 0.26835364 -0.1521017 0.8228197 0.33895397 0.6120912 0.6980511 0.08498643 0.25186124 0.2767139 0.28639773 -0.9397587 1.0536503 0.6177723 -0.5006973 -0.45498312 0.6954434 0.1753099 -0.48355746 -0.15670355 -0.18444331 0.32342604 0.6670564 0.30395383 -0.21287994 1.2116325 1.209323 -0.4354563 -0.31252328 0.004512577 -1.0822723 0.35936666 -0.44274735 0.0012202128 0.23208603 0.1101808 -0.3264891 -0.08244403 0.1794328 -0.06263914 0.016751662 -1.2381029 -0.76202106 1.3197731 0.08932233 1.0170952 -0.85126317 -0.34583038 -0.29888996 -0.12848294 -0.30116546 -1.0445641 0.28485543 -0.7122104 -0.20033097 -0.044212937 0.21858838
105 -0.35681906 -0.14278963 -0.5128371 0.60653466 0.710228 0.07383089 0.3074607 -0.5055362 0.5801692 -0.5131873 -0.041154716 -0.5958738 1.5260478 0.82053995 -0.93042076 0.9156692 0.71249616 -0.67712474 -0.98450506 0.2309857 -0.009026181 0.60158426 -0.731047 0.7467825 -0.37012202 0.003394414 0.38757354 0.61188376 0.5488435 -0.8497877 1.6625746 -0.292939 1.6465516 0.7177358 0.030098306 -0.31011295 -0.08240666 -1.0244825 0.75766474 0.27082154 0.077289864 -0.46135277 -0.32707235 -0.87110543 0.44082233 -0.32777232 -0.17916007 0.10543712 -0.22468379 -2.1878302 0.44070786 1.9918253 0.9678925 -0.45002273 0.13224168 0.77220994 -1.3612044 0.5846352 -0.76591897 0.5335166 -0.21601506 -0.048135307 0.60493296 0.531153
23 0.06575523 -0.9296659 0.38069645 0.048522186 0.9129037 0.3785877 -0.24532066 0.09912216 0.22075565 0.12855184 0.67984945 -0.5985617 0.8489663 0.7856068 -0.13204756 0.30347353 0.5162002 -1.0439365 -0.61276627 -0.78910184 0.1591123 -0.19330877 -0.12067681 1.1583154 1.8485712 -0.8021019 0.66271573 -0.513738 0.4354798 -0.14217515 0.7676873 0.28944063 0.41462284 -0.08011323 0.14405929 -0.4549032 -1.0110433 -1.5784717 1.5939186 0.11043634 -0.38231814 -0.7779826 0.6091704 -0.41056135 -0.28313053 -0.43011042 1.1133308 0.81870115 -0.6160553 -1.8276763 -0.61869854 0.5841454 0.15117623 -0.8059341 -0.33792466 -0.63646716 -0.07324048 -0.60105467 -0.042970106 0.080455005 0.04804197 -0.76308 -0.59796464 0.6581185
71 0.075473085 -0.5974963 -0.014966523 0.7025955 0.43568128 -0.75883234 0.08848773 0.40050045 -0.02508322 -0.36314487 0.7862258 -0.9328639 1.2786282 0.22987655 -0.5165731 -0.14037251 -0.033115588 -1.7399559 -0.7625389 -0.6594549 0.567244 0.2003645 -0.57419866 0.45237216 0.3047642 -0.3211538 0.49212545 0.29669878 0.41028768 -0.33576202 0.8041619 0.9770386 0.78186214 -0.60304636 0.014449618 0.37353566 -0.3262308 -1.1527311 1.5547656 0.5369419 0.11558587 -1.4964986 0.7476569 -0.7200284 -0.412621 -0.12588257 0.52495444 0.50972456 -1.0409957 -1.3200066 -0.262761 0.33620936 0.028503163 -0.54182 -0.124678895 -0.21824887 0.84635574 -0.7146849 -0.2098301 0.015886687 -0.7628211 -0.72715974 0.06975253 0.11018754
393 -0.50312805 -0.022111455 -0.43667978 0.55188465 -0.69758797 0.3774356 -0.15067655 -0.41363117 -0.08274253 0.47691706 0.9264306 -0.6350845 1.4645963 0.85823166 -0.43940535 -0.7582323 -0.23243742 -0.5991033 -0.27188468 -0.23422317 -0.025838654 -1.048176 0.40639207 -0.075394355 -0.6653004 -1.1648046 -0.5021394 0.01827008 0.64377975 0.96904397 0.80581486 -0.43407878 1.2475786 0.28648543 -0.95961696 -0.15102291 -0.23619734 -0.28218803 -0.5942428 -0.4159259 1.0838583 -0.22493806 -0.20899603 -0.53647614 -0.1326371 0.5543463 -0.9697455 -0.3177987 -0.66967833 0.032882866 1.223323 0.17159432 1.0964106 -1.3097563 1.1767757 -0.6405184 -0.8800976 -0.6416414 -0.5862645 0.8456659 -0.85433954 -1.2134597 0.8528248 1.4442064
520 -0.07856688 0.7633769 -0.8289314 -0.59998345 -0.2697223 -0.71797013 -0.65805316 -0.15120576 0.2796779 0.4415577 0.49246314 -0.4951544 0.76103187 0.35722604 0.10577317 0.3451152 1.3618351 -0.6244106 -0.59026515 0.16462843 0.65652716 0.4336104 -0.01711485 -0.12299788 0.63734347 -1.3976786 0.71186876 -0.514282 1.0435275 -0.03390822 0.42174262 0.5692615 1.7072158 0.54885244 -0.29520813 -0.39520225 0.42345932 -0.09778441 1.203057 0.5999911 -0.21602172 0.5185967 -0.4745823 0.33749428 0.3902065 0.08812335 0.68580043 0.2829148 -0.05460263 -1.909659 1.2361033 -0.6443966 1.3780875 -0.28146353 -0.8868961 0.27080053 -0.06289936 0.29802728 1.1765723 0.3272572 -0.03197764 -0.9866153 0.76562893 0.78294706
583 -0.31554052 -0.42947006 -0.3382522 -0.5385109 -0.812322 0.5374663 -0.08669505 -0.56242615 0.53386503 0.80428696 0.17911765 0.8659555 0.9291996 0.80561733 0.24077854 -0.07787408 1.1050969 -0.37899518 -0.7375719 0.43172556 -0.5520593 0.7178859 -0.6513336 -0.36941814 0.0673619 -0.8972621 1.2373468 0.08595262 -0.7996555 0.5705939 -0.047282677 -0.07910703 1.4906635 0.5240127 -0.5095504 -0.60653293 0.28969777 -0.89867574 0.071401134 -0.52695936 0.66761935 0.53533584 -0.37113857 -0.33848765 0.55002505 0.66740525 -0.18358378 0.047965344 -0.35059828 -1.4502804 1.214096 -0.16390163 0.89722025 -0.3624357 -0.13858417 -0.2905432 -1.1732355 -0.18351723 -0.34526297 0.31240976 -0.2798358 -0.36101794 0.098003775 0.38573593
474 -1.5859464 -0.4302202 0.8342065 -0.20200884 -1.2027866 -0.2137479 0.30964935 1.3207 0.27045316 -0.44143832 0.19804125 -0.8355361 1.1096114 0.3068598 -0.084901355 -0.12927681 0.23104596 -1.4043972 0.3446831 -0.20702583 -0.16981302 -0.3365766 -0.37405446 0.63967365 -0.5597283 -0.51813227 0.5079658 -0.27815193 0.5562536 -0.9034918 0.8604162 -0.21267565 -0.14613238 -0.348108 -0.36904407 0.111428544 1.1953462 -0.14881916 0.9587299 -0.916427 0.57303715 -1.3942354 0.69113225 -0.033369232 -0.2404825 0.68725157 0.4839824 -0.88603425 -0.30417863 -0.37012362 0.53689635 -0.396822 1.6524771 -0.83581775 -0.67786914 0.05669725 0.21013786 -1.5204427 -0.36159486 0.5163027 -0.9623005 -0.6827852 0.7121405 0.5479116
321 -0.5256285 0.49676272 -0.50955063 -0.43624845 1.1870018 -0.14743297 -0.45485753 -0.5160183 0.115928516 -0.3018825 0.6064452 -0.82221144 0.6820401 1.5082299 -0.35400844 -0.039930597 -0.549868 -0.101935945 -0.06254466 -0.1743786 1.2301393 0.60007304 0.15244551 1.1688815 -0.25403786 -0.67165685 0.18520027 0.10735749 0.22323972 0.0024338865 0.1316972 0.9843933 1.2289577 0.0149016 -1.0889448 0.047920674 0.561326 -1.347392 0.14910814 -0.57780176 0.62960875 -0.92894137 -1.1688893 -0.9180937 0.58945113 0.79885375 -0.24488188 0.26180702 -0.9958427 -0.22611724 -0.11385563 0.37829196 1.2719984 -0.8205839 -0.19634898 -0.34952334 0.85725385 0.35437658 0.13630004 -0.5294674 -0.492642 -0.9392731 0.30281046 0.87892973
545 0.17327967 0.80048174 -0.72246665 -0.74260294 -0.1091836 -0.5658083 -0.41256297 -0.49285582 -0.3439961 0.5737172 0.052523136 -0.7724335 0.74191487 0.13066053 0.42049396 0.29576987 0.3226818 -0.280787 -0.06257512 -0.5759514 0.3989959 0.3406929 -0.29038578 0.6210914 0.96928734 -0.6044465 0.5442692 -0.7162665 1.2503029 0.24518432 0.27971062 0.7567782 1.3590928 0.42955196 -0.33522102 -0.27849156 0.03897661 -0.05851032 0.86813635 -0.25925776 -0.12293186 0.11441387 -0.3533381 -0.024254471 0.087982796 0.26538658 0.6261502 0.20360468 0.1388014 -1.101619 0.7743981 -0.5888886 1.3994622 -0.25761002 -0.5628242 0.023366736 0.48532104 -0.44048274 0.45792326 0.23151886 0.15344001 -0.9741758 0.39226067 0.8722101
29 0.62287456 -0.43727142 -0.1237188 -0.0037523108 -0.09583398 -0.25999904 -0.181577 0.33191875 -0.48744166 0.18089673 0.39484054 -0.7247853 0.48823124 0.010525253 -0.91070706 0.20902371 0.21161114 -1.1490306 -0.684162 -0.46400717 0.35149696 -0.7465514 -0.07443958 0.80252874 0.4865183 -0.81581604 0.49790463 0.060796134 0.67691326 0.1318992 0.74629205 0.62359184 0.68592066 0.040317357 -0.41161847 0.30717775 -0.49476597 -0.2521701 0.8529485 -0.41274422 0.08006753 -0.9639847 0.46862054 -0.6729631 -0.006920166 -0.01294805 0.69817895 0.31628487 -1.1243651 -0.92891544 -0.48903728 -0.16819279 -0.0054110163 -1.0310969 -0.1966504 -0.4154644 0.33193642 -0.7752451 -0.10726302 0.4125337 -0.6681902 -0.88372254 0.032404605 -0.05200615
17 -0.7444058 0.2566037 0.64886653 -0.4310801 -0.119710356 -0.5266109 -1.0573725 0.2723041 0.14123069 -0.6054862 1.5166564 -0.20828468 1.6325803 -0.22342697 -0.27657914 -0.18730885 1.1587098 -1.4531367 -0.52109176 -0.7431345 0.21375592 -0.25582772 0.58082825 -0.28242552 1.096621 -1.0326306 0.44490895 0.053946253 -0.03649422 -0.09041443 0.5881355 0.8138248 1.0684515 0.07181 -0.099279895 0.13477266 -0.7636738 -0.47331837 1.0911471 0.008995868 0.5303777 0.08348314 0.68470895 -0.65954846 0.80402446 -0.27857703 -0.2245743 0.44290113 -1.6491684 -0.78872424 -0.7280453 1.1116611 -0.6564777 -0.78259695 -0.84730273 0.46155345 -0.45037124 -0.6329473 0.81525177 -0.13325816 -1.0551137 -1.0756876 -0.2614187 0.31160545
475 -1.5038323 -0.48091447 0.22486116 -0.031919256 -0.96347106 -0.29719478 -0.6606993 1.1593077 0.7141201 -0.13070567 -0.19929321 -0.6462358 0.37115392 0.5216278 0.6997542 -0.8628755 0.30670568 -1.062071 -0.06205669 0.14517187 -0.41942698 -0.028170621 0.38466445 0.76737183 -0.35026926 -0.30550838 1.291765 -0.07211328 0.4058276 -1.1280466 0.8981433 0.25027812 0.40737647 0.36136964 -0.024403393 0.49338737 1.1284387 -0.56499994 0.3189874 0.20078583 0.63442093 -1.1192708 -0.033908598 0.5388448 -0.15250883 0.8187027 -0.15445611 -0.77925175 -0.101981536 -0.57879245 0.23489733 -0.6227441 1.86273 -0.45439568 -1.0588412 -0.15515912 -0.2086684 -0.9567986 -0.12103852 -0.21786357 -0.74548066 -0.19233656 0.5390885 0.669574
445 -0.68758756 -0.09883408 0.5242576 -0.18282202 -0.95875394 0.1043265 -0.3577212 1.0450488 -0.11752007 -0.4977262 0.09589111 0.2471154 0.6726201 1.154199 0.1881709 -0.66372097 0.63876027 -0.46938398 0.23751226 -0.025031094 0.27246946 0.26788977 -0.6704804 0.42887154 -1.5921997 -0.23617293 0.22979195 0.3421493 0.2628193 -0.7155666 0.36164925 0.79510045 0.7869524 -0.096005425 -0.109692276 -0.12890144 0.45450264 -0.12037666 0.5690909 -0.21552029 0.8134346 -1.428148 -0.32731074 -0.51812524 0.30262887 0.39644656 0.35334557 -0.7511196 -0.8553748 0.05671655 0.21858178 0.18688457 1.4088751 -0.4689312 -0.67166656 -0.6317597 0.4297114 -0.783865 -0.21415359 0.45514947 -0.817333 -0.37284127 1.0823737 0.26538372
247 0.8126997 -0.09439076 -0.43010235 0.63503337 -0.034014568 0.55284274 -0.7098339 0.11932273 -0.46260968 -0.066991374 0.12177492 -0.7734352 0.65828604 0.35747346 0.0011799139 0.7968658 -0.12931469 0.23739968 -0.22721586 -0.9607012 0.39709586 0.48230532 -0.05828342 0.6783169 -0.3425858 -0.64527494 0.25992462 0.6971879 1.0411458 0.80151486 0.6635813 0.08073184 1.4757665 0.9674044 -0.40754575 0.13258313 -1.2224041 -0.09203194 0.6811877 -0.067908294 0.8093702 -0.18197267 -1.0619296 -0.085649624 0.8758497 0.62437737 -0.082721636 -0.27358967 -0.5860167 -0.07910718 -0.020452378 0.6168527 -0.5363811 0.07245976 -0.79509586 -0.43376273 -0.0142399175 -0.22087538 0.525428 0.8811443 -1.4134582 0.045132846 -0.32208675 -0.4996185
252 -0.23168556 -0.56588084 -0.091588855 0.53244096 -0.2168249 0.5058295 -0.13527772 0.266661 -0.5652281 -0.07334056 -0.102172166 -1.5165852 0.68615866 1.0960591 0.7549213 0.87203914 -0.5619035 0.6036395 -0.47582963 -1.1190424 0.06513309 0.7477817 0.09100683 0.46079797 0.010711263 -1.3358423 0.32833397 0.39252836 0.079493925 0.503682 1.1802977 -0.27720547 1.0692015 -0.068627045 -0.758348 -0.5889206 -0.15006524 -0.20573717 -0.47146842 -1.3501419 0.5536545 0.1092799 -1.1456653 -0.46565706 -0.26520735 0.9585829 -0.44708508 -0.3285664 -1.1711805 -0.2047486 0.09688199 1.4635448 0.47988844 -1.3156625 0.6768345 -1.409301 -0.016128609 -1.1475437 -1.0570377 0.9935375 -1.0654018 -0.7201353 -0.4487602 -0.41041362
227 -0.5890967 -0.6423956 -0.10172654 0.07057986 -0.07869432 -0.008030912 -0.043331992 -0.9698323 -0.35787818 0.6237294 0.38148543 -1.2159463 -0.104997516 0.89345044 1.0011625 0.16395512 0.8484736 0.2694397 -0.043991145 -0.73324835 0.49686858 0.80800855 -1.2818738 0.80943626 0.42430612 -0.66437936 0.85925144 0.9507111 0.3228512 -0.14777239 1.3518026 -0.37945068 0.99080527 0.7144513 -1.3833798 -0.0011681379 0.45410162 0.21471371 -0.14405334 -0.069545925 1.0548387 0.08178262 -0.05441004 -0.07218299 0.8322101 0.7577254 -0.4824647 -0.7984976 -0.28351068 -0.15807922 -0.4591593 0.6085276 -0.5083927 -0.9621149 0.7107529 -1.3149515 -0.2534549 -0.19528478 -1.0698246 1.3324615 -0.2216576 -0.59728146 0.19877371 0.3469859
255 -0.4319455 -0.20612456 -0.05337945 0.84016347 -1.1469235 0.5436807 -0.011371502 0.88487554 -0.35156295 -0.011055729 -0.091336146 -0.84126455 0.400238 0.3317746 0.28723547 0.43888143 -0.63051087 0.3526686 0.41295072 -0.7973509 -0.22043167 0.668299 -0.20273158 1.2822163 0.35739344 -1.1730715 0.49040708 0.17191242 0.9334256 -0.15286556 0.7457301 -0.17478436 1.1455293 0.72753054 -1.0692632 0.5830549 -0.3661972 0.202412 0.9839698 -1.4648685 1.3478863 -0.6911972 -0.165501 -0.509399 -0.04623066 0.7655645 -0.08050967 -0.75025016 -0.054960538 0.24373855 0.08522678 0.7370707 -0.38548923 -0.85956645 0.15450388 -1.15435 0.6895377 -1.1065205 -1.374358 0.530238 -0.5729349 -0.04798523 -0.6930035 0.43709844
563 -0.21067838 -0.7018101 0.09013275 -1.116373 -1.0475967 0.5358559 -0.27937597 -0.86423254 0.36744508 0.30430877 0.30298525 0.27915466 0.8878322 0.79974765 -0.12592489 0.07406017 0.82921576 -0.66927916 -1.0887672 0.48503527 -0.5433923 0.4521143 -0.6382218 0.22772904 0.16201785 -0.5411128 0.93513566 0.1501584 -0.6214152 0.43773153 0.04531693 -0.34672046 1.7559947 0.99013186 -0.29755387 -0.32135633 0.044239003 -0.9839194 0.41386986 -0.6082151 0.26943418 0.30979565 -0.221131 -0.17147315 0.31073612 0.7132966 -0.04160567 0.4258639 -0.29354987 -1.59792 1.1365232 0.038146276 0.90348107 -0.8046873 -0.3953118 0.039104845 -1.0395983 0.08761632 0.06713999 0.4309845 -0.17001678 -0.30180037 -0.24429831 0.2260434
705 -0.7071677 0.9126211 0.3367967 0.3494297 0.29985258 -0.0019276553 -0.07210722 -0.31591228 0.6224897 0.11965207 0.9051536 -0.24388193 1.2069727 -0.06679814 1.3531282 0.9562511 0.44976905 0.71153337 0.05370089 0.24638836 0.4333172 -0.20527595 0.31554812 0.04640278 0.36968383 -0.2950111 0.3925936 0.12079362 0.0285813 -0.090613805 1.0526392 0.05074127 1.5410618 0.90295476 0.09526363 -0.72777957 -0.6602144 -1.0136726 -0.15444024 0.51075804 0.5726382 0.30609626 0.050412014 0.41384003 -1.1457212 0.85487264 -0.6376044 -0.25623265 -0.35095766 -0.41598058 0.82439166 1.2726508 0.8464632 -0.9637796 0.2272025 -1.1546901 0.09791523 -0.7001595 -1.1385409 0.7780862 -0.9232155 0.02319498 0.46390045 0.6606747
163 -0.28141287 0.17591853 -0.3656564 0.8492186 -0.015839022 0.86607516 0.5843152 0.46759126 0.47293568 -0.7411299 0.79386955 -0.941583 1.1279204 0.69401354 0.44806376 0.89372426 0.8062172 -1.2437073 -0.7656694 -0.43993333 0.1608903 0.9678598 0.27180266 0.3436639 -0.30840516 -0.075101756 -0.21457581 -0.98416865 -0.2936171 0.036271177 0.9258203 0.7315721 1.4866104 -0.72130144 -0.9128385 -0.8433961 0.01294545 -1.2620827 0.26367244 0.2450409 1.5707945 0.036953654 1.4379703 -0.15575841 -0.5564336 0.35012892 0.40715665 -0.45331964 0.35116875 -1.2080306 0.19309641 1.5275989 0.87428576 -0.8994019 0.27988228 -1.2217134 -0.081592135 -0.33464485 -0.7925962 0.2797804 -0.34555244 -0.019292409 0.074587226 0.4450956
524 0.2200423 0.6332641 -0.5339294 -0.6151817 -0.31110528 -0.48129156 -0.57834774 -0.11354804 -0.0271307 0.6171053 0.15512194 -0.92344165 0.43302038 0.07904132 0.17647257 0.27938494 0.15208292 -0.4087265 0.006839132 -0.27653638 0.57133347 0.1679096 -0.5796508 0.29808876 0.36690632 -0.8126625 0.3693768 -0.7139766 1.5405353 -0.018642582 0.47687724 0.60909486 1.2985516 0.5679516 -0.47511432 0.0020634637 0.34528 0.1614234 0.90798384 -0.16718267 -0.21876869 -0.2039001 -0.39218885 0.114318185 0.23562567 0.1613608 0.6118332 0.23166165 -0.26735097 -0.7913744 0.8090324 -0.76553684 1.2955314 -0.28727207 -0.6079142 -0.28609723 0.17989068 -0.19672793 0.77024716 -0.21027449 -0.2817342 -0.81973267 0.5003179 0.5847328
26 -0.3077371 0.3767437 0.11557211 0.08528648 0.21227428 -0.1714179 -0.11081704 -0.22930653 -0.5490581 -0.65220517 0.72284657 -1.0345775 1.0600525 0.09413113 -0.5727975 -0.39644632 -0.020423897 -0.9727207 -0.85641754 -0.7704044 0.9044268 -0.021839513 0.483321 1.1078339 0.77723396 0.42427906 0.7891017 -0.2729817 0.16355594 0.260721 0.72040814 -0.009190581 0.8082966 0.20534928 -0.40702528 0.050914597 0.007351746 -0.29912633 0.83029145 -1.0132843 -0.07309447 -0.7859639 0.12315125 -0.11504425 -0.29840925 -0.30377173 0.43183216 0.5341572 -0.9980439 -1.422492 -0.35607412 0.31712058 1.1548051 -1.5439544 -0.22054285 -0.102557264 0.44636565 -0.47180688 0.19715612 -0.33285797 -0.44950056 -0.28813547 -0.4959793 0.6241721
473 -1.1806883 0.093245834 0.40832692 0.078564525 -0.61908925 -0.67361104 -0.6130533 1.4836843 0.11952735 -0.17085157 -0.25727636 -0.2819784 0.8198326 1.0347669 0.12386929 -0.3375865 0.8692926 -1.3123808 -0.6933029 -0.8680671 0.17454644 -0.25664338 0.20622386 0.40680045 -0.6725222 0.1665024 0.51149356 0.37183964 0.40200028 -0.8384782 0.43586773 0.48003432 0.18426213 0.5027119 -0.6750275 0.7532409 1.1650299 -0.24705146 1.16861 -0.6218308 0.9927258 -1.1542636 0.041807383 -0.027160287 -0.006966159 0.34186056 0.86163807 -0.7750449 -1.1446642 -0.11974553 0.23352052 -0.5073232 1.7689404 -0.8790131 -0.7211281 -0.33053738 -0.13774057 -0.74117464 -0.49440417 -0.58820534 -0.88072485 -0.007509922 0.3255514 -0.42831957
307 -1.0320367 -0.7829296 -0.0060330234 -0.2996337 0.41183534 1.4713279 -0.33854845 -0.31326553 0.1922941 -1.5774167 0.25589898 -1.1803149 0.568965 -0.23499598 0.05359763 -0.77010554 0.2791448 0.23166975 0.05239933 -0.10428676 -0.45058385 0.05832934 0.1884668 0.36022848 0.109123 -0.5610662 -0.060858514 -0.26134843 -0.35791746 -0.44084248 1.0453665 0.22449595 2.247232 0.64373505 -1.0226504 -0.2557112 -0.009945718 -0.8595345 0.5833975 -0.57439226 0.1587446 -0.42532113 0.29451987 -0.47310582 0.056991268 0.94042814 0.24737816 0.6296406 -0.13798787 -0.83268505 1.0996802 0.5862249 0.4697788 -1.392757 0.048432764 -0.49367246 0.18775542 -0.4655135 -0.5626648 0.96378815 -0.4124341 -0.6719345 -0.110545374 0.27508792
318 -0.65750027 0.1809295 -0.5131171 -0.14408031 0.7146569 -0.279203 -0.23618028 -0.15412478 0.2507538 -0.648878 0.7312886 -0.74147964 0.6710839 1.658126 -0.090984374 0.22209947 -0.61733294 -0.4276473 0.10065353 -0.5440688 1.0526822 1.0551149 0.01087853 0.8798938 0.2794814 -0.6345338 -0.13566811 0.3735735 0.3361583 -0.4528117 0.24548458 0.6131293 0.9092818 0.20238599 -1.288183 0.2014308 0.7895383 -1.450957 0.23928037 -0.90135074 0.5568385 -1.0973779 -0.77549917 -0.84607357 0.41647807 0.9164059 -0.20542121 0.23477592 -0.46281838 -0.25701824 -0.008875833 0.19035457 1.3155116 -0.65402746 0.1365213 -0.4919115 0.8427818 -0.092196025 -0.10130651 -0.9053771 -0.16837396 -0.9091322 0.1353588 0.74825937
618 -0.19903365 -0.37982196 0.09941191 -1.001496 -0.94167054 0.16322488 -0.11903298 -0.7428825 -0.36199525 -0.11753976 -0.20713371 0.4544504 0.88667655 0.8947676 -0.06502537 0.024452355 0.39788377 -0.24052022 -0.86777216 0.027507763 -0.7381414 0.7304264 -1.274659 0.4721742 -0.28256097 -0.10808188 0.9118968 -0.28788096 -0.14873096 0.43754277 0.09534744 0.18647061 0.6923517 0.87014186 -0.5441875 -0.121238194 0.3339034 -1.0324885 0.38078272 -0.8678232 0.5103078 -0.30844435 0.033577275 -0.9029422 -0.38398194 0.99902767 -0.5938644 0.09902457 -0.76494575 -0.72676253 0.24539337 -0.09965022 1.0704665 -0.318322 -0.13045382 -0.26105997 0.073323905 -0.38978237 0.033468027 -0.1414527 -0.34475315 -0.9940278 -0.19416785 0.22167063
276 -0.71196425 -1.2486999 -1.3456786 0.79068 0.04865443 0.44435456 -0.6909099 -0.22439916 0.41734904 -0.41912273 0.95932204 -0.56328136 0.7437323 0.8470914 -0.016682426 -0.8209741 0.5470813 -0.5489509 0.15165524 -0.34354028 0.5317505 0.8755558 0.4485127 -0.5140292 -0.054839287 -1.1908919 0.6112803 0.72671187 0.3491935 -0.89254504 0.96628326 -0.32542762 1.259369 0.08018304 -0.33557644 0.33824933 -0.47022313 -0.26524702 0.08124202 0.022166038 1.4802052 0.2613916 -0.3936474 -0.9477617 1.724093 0.06744157 0.96558774 0.028105112 -0.7050457 -0.28928795 1.234462 0.6085537 0.78516114 -0.29024312 -0.05508242 -0.4446695 -1.0482454 0.26664907 0.08572554 0.72357213 -0.46414837 -0.6144148 0.80887556 0.6610881
40 -0.9945575 0.26471412 0.3631148 -0.40044767 0.12907453 -0.6367862 -0.25109643 -0.056613084 -0.21459484 -0.27044827 0.52018857 -0.54061437 1.3091402 0.07140359 -0.5489002 0.14687341 0.12245759 -0.2950646 -0.8555153 -0.38762486 -0.06335466 0.5128528 0.2673229 -0.3086573 0.9911127 -0.45994323 0.28192958 0.07281083 -0.12799938 -0.6295241 1.128152 0.8835465 1.1468849 -0.588006 -0.95991474 -0.14311206 0.40747508 -1.7439331 0.48635605 -0.21167077 -0.88241273 -0.54347265 0.9130942 0.59566 -1.1691312 -0.22693916 0.010194383 0.6994471 -1.2519704 -1.7877828 0.18399921 -0.27842128 0.08275131 -1.0824775 -0.116016544 0.16088827 0.39987952 -0.07564142 -0.6332104 -0.28083962 0.26158154 -0.5454914 -0.59935 1.1116648
713 -1.1105516 0.9296657 -0.20470557 -0.046339 0.7349176 0.28642723 -0.07189198 -0.3190386 0.7827951 -0.034913406 0.77499974 -0.37022194 0.63315606 0.3735861 1.3596363 1.0006407 0.34268972 0.96750826 0.4870413 0.25057527 0.43458673 0.09374597 0.91097367 0.49583334 -0.17128535 -0.26524043 -0.023450248 -0.070406415 0.07510285 -0.501085 0.8018521 0.53400356 1.6941441 0.5366257 -0.09487421 -0.6541415 -0.09377496 -1.2169385 -0.2302257 0.25509316 0.723496 0.5742337 -0.25485763 0.01530724 -0.9920538 0.907565 -0.5829423 -0.5544102 -0.09182705 -0.664577 0.39330778 1.1599393 1.1998615 -0.5857558 0.015912782 -1.03814 0.753004 -0.16059 -1.2224013 0.90837747 -0.58813363 -0.1360665 0.30923754 0.73471785
554 0.28601396 -0.6705015 0.5609767 -1.225909 -1.1762652 0.67477095 0.1210685 -0.74881047 0.043911178 0.061661962 0.3063921 0.09322095 0.015303392 1.6494954 0.73108035 0.04912352 -0.033564806 0.21321224 -0.3351678 0.49347907 0.4325704 0.25068974 -0.2563592 0.6856246 0.35049534 -0.49321663 0.39382008 -0.6992247 -0.09055603 0.68082255 0.33786485 -0.0948436 1.1309791 1.131353 -0.7318384 -0.09682276 0.28994402 -0.837394 -0.081345215 -0.97433853 0.3864038 -0.8069425 -0.016998947 -0.037994057 0.005377543 0.48799023 0.44880638 -0.35939825 -1.0090885 -0.5553907 1.1872497 -0.6258372 0.46486446 -1.2315471 0.04497733 -0.40259147 -0.32345447 -1.0532972 -0.9733959 0.14525372 -0.46765444 -0.16811179 0.20661831 -0.10006129
357 0.5219736 0.69618195 -0.7102013 0.50718075 -0.7326384 0.56424433 -0.76018834 0.4070772 -0.21483621 0.070286036 0.08620723 -0.2741432 1.4154861 0.16660084 0.7368581 0.75348616 -0.6516032 0.49911174 0.3220426 -0.63948756 -0.15530145 0.3184861 0.39525056 -0.11503482 -0.19209045 -1.6588397 -0.21717985 0.21591827 0.98075 0.033136245 0.24385604 -0.66911846 1.4693203 0.2831463 0.19375648 0.34888655 -0.20902069 -0.263418 -0.3203102 0.075450346 0.021922955 -0.7338658 -0.09661624 0.24182852 1.2329226 0.29579294 0.5068496 0.14704414 -0.09606175 0.37886694 0.29347178 0.28868786 0.14044662 -0.4702438 0.48114353 -0.32253146 -0.052146114 -0.7406985 -0.4003017 0.5628098 -1.2847649 0.008086268 -0.28682262 0.38167727
448 -0.8161633 -0.11247154 0.6356274 -0.12537462 -1.3800551 0.14297259 -0.19458257 0.7318166 -0.02007303 0.014911774 -0.43455166 -0.35934073 0.35935676 1.0739869 0.28330642 -0.1409084 0.2557313 -0.4398421 0.13852641 -0.29943803 0.31748667 -0.0022456585 -0.5456259 0.27806142 -1.5123628 -0.11379084 0.32239318 0.17537443 0.64308554 -0.50200975 0.43850452 0.62695026 0.5710578 0.5487931 -0.30735365 0.01725004 0.3890474 -0.27194902 0.68839157 -0.7779584 0.5745639 -1.1062195 -0.27746788 -0.16679816 0.049291592 0.9771156 0.47998348 -0.7518565 -0.90375817 0.23817886 0.30525416 -0.25206622 1.48393 -0.7671461 -0.6142799 -0.89429593 0.7236532 -0.9714884 -0.4199883 0.23726356 -0.48703888 -0.60532284 1.0033412 0.063519575
243 -0.01044234 -0.8251882 -0.21461298 0.5836904 -0.9053507 0.016286189 -0.5592498 0.610164 -0.9643476 0.63651466 -0.58229697 -0.90958714 0.82744193 0.8077532 0.7020282 0.50897264 0.5954819 0.43202773 -0.17035389 -1.1454883 0.10603252 0.6992258 -0.042392474 0.24451107 0.6830702 -0.989659 -0.22777082 -0.03368137 0.5153792 0.69002235 0.89433175 -0.32831475 1.0750458 -0.098284125 -0.38592213 -0.50109243 -0.39024428 0.3558381 0.15195546 -1.3249577 0.36712816 0.31364033 -0.6579232 -0.42651436 0.13140468 1.5560948 -0.08221521 -0.23468582 -0.30607015 -0.5026846 0.49038827 1.4494922 0.38169226 -1.2030294 0.47379988 -1.2813175 0.07656625 -1.1325859 -0.59996307 1.0373772 -0.48929846 -0.78791374 -0.3362829 -0.12369734
680 -0.124818414 0.68832356 -0.9566034 0.3340124 -0.5156359 0.6453386 -0.07735426 -0.790757 0.6319801 -0.3278845 1.1846502 -0.096361905 0.6522017 0.5460339 0.27860162 -0.1692759 0.80209756 -0.89127064 -0.8946896 -0.4228333 0.49703214 0.81425434 -0.31422862 0.59988743 0.79813987 -1.4651581 -0.2211493 0.6881647 0.046707585 -0.8049164 -0.05699082 1.1376991 1.0140185 0.18060501 -0.99557215 -0.33296743 -0.0450205 -0.6598465 -0.12915574 0.96540344 0.24654849 -0.3714099 0.5125739 0.43134338 -0.44051877 -0.6046812 0.23781745 -0.39688194 -0.55711675 -0.4382658 1.2335464 0.69305456 0.6013397 -0.92142147 0.06042384 -0.23907131 -1.0029446 -0.4967202 0.7191185 -0.5158307 0.8590289 -1.6675946 -0.6199285 0.60021657
692 0.039393958 0.55208224 0.32984462 1.0978953 -0.6062083 -0.20458698 0.1497825 0.46463814 0.45013198 -0.39373013 1.1323283 -0.76564354 0.34750986 0.9641073 -0.4264027 1.0612091 1.0468053 -0.19863056 -0.08452535 0.28530544 0.76723677 0.4020083 -0.5982075 0.38211384 -0.27032948 -0.49249384 1.1262429 1.0561672 -0.9499961 0.5527207 1.66415 0.51985365 1.6217289 -0.06269995 -0.031654786 -0.07866944 -0.9305487 -0.16099901 0.13850713 -0.7933557 0.054661546 0.26738963 0.7744452 -0.06447698 0.7702044 0.19247043 0.59551215 0.43103722 0.29201487 0.31918043 1.1099042 0.42050463 0.67907566 -1.1735051 -0.8096354 0.55350477 -1.0838045 0.10920256 0.5675267 0.24436894 -0.7004771 -0.35794145 -0.18357296 0.3632393
279 -0.4548326 0.9410373 -0.5326197 -0.11602096 -0.8626547 0.9331452 -0.30647692 0.45532516 0.55493355 -0.1318153 0.6858794 -1.4406041 0.572038 0.3039422 0.9219822 -0.1902683 0.65957946 -1.2725757 -0.3067842 -0.64458096 0.38474867 0.18223585 0.51200503 0.061904736 0.8020282 -0.9622016 0.5765863 -0.2972654 0.38165447 0.010511928 1.4903374 0.0033605201 0.81957275 0.19775212 -1.2175897 -0.073319 0.7221339 -1.2284726 0.19766554 0.23566192 0.58746266 0.8807457 -0.08787503 0.0031697084 -0.41686425 1.0657994 -0.38665715 0.17875446 0.24098366 0.029180817 0.436918 0.97379893 -0.12164989 -0.58417416 -0.25484607 -1.2314744 -0.99182284 0.7773757 -0.41513592 0.20948221 -0.5263525 -1.1793079 0.48410589 0.49639192
584 -0.117779665 -0.5682962 -0.6213087 -0.7967155 -0.6065497 0.8097815 -0.46433476 -0.43327254 0.43218666 0.7840767 0.43560177 0.5674044 0.8685766 0.8892891 0.1925335 -0.25660196 0.56181234 -0.07208891 -0.3179415 0.28148967 -0.4061529 0.6317746 -0.20435812 -0.65310603 0.4505836 -1.0652925 0.93783 -0.0013757729 -0.76131964 0.3819274 0.26201057 -0.065242216 1.3499501 0.70416224 -0.56499916 -0.8734444 0.16729882 -0.76445526 -0.24995813 0.32941628 0.9646836 1.0753171 -0.3434792 -0.11917573 0.97929657 0.53147244 0.11656136 -0.029050443 -0.4977043 -0.9769992 1.431907 -0.15634678 0.5262529 -0.22905217 -0.21738474 -0.51206017 -1.4964077 -0.31502172 -0.52982175 0.28799695 -0.34087417 -0.10477332 0.3234071 0.40566444
262 -0.26414332 0.31346992 0.12265061 0.42957544 -0.5174248 0.6043725 -1.1884834 0.26232606 -0.4491253 -0.50414467 0.59979177 -0.87467414 0.3726424 1.3476738 0.36766395 0.28079054 -0.55852807 0.1705988 -0.42097378 -0.79275745 0.35359192 0.44681004 0.26381806 -0.0631019 0.7218041 -1.364847 -0.13634147 0.4079102 0.8949413 0.3649133 1.0219209 -0.088888764 1.0773673 1.0690114 -0.96816266 -0.42058963 0.062551424 0.8186671 0.12606156 -0.009354468 0.022756226 0.7235256 0.12886943 -0.46519294 0.45646197 1.7432098 0.4876129 -0.13938576 -0.49682462 -0.28242388 -0.4764455 0.3318649 -0.39561006 -1.0292548 0.44835004 -0.03923495 -0.2046951 -0.4666229 -1.1062851 0.8454709 -1.0490149 -0.16955978 0.4256593 0.5222985
434 -0.764623 -0.07774958 0.39900485 0.88395137 -0.9525637 -0.03004294 -0.7008495 0.73502636 0.23864016 -0.3678576 0.3999026 -0.33683103 0.10988546 0.63341576 0.104327 0.1892104 1.0900619 -1.1821655 -0.30404997 -0.73078674 0.42643964 0.4910404 -0.69555706 0.2669726 -0.46186605 0.5972163 0.9866025 -0.22718976 -0.12629083 -1.2142047 0.54854614 0.36486202 0.93272513 0.2722171 -0.7069819 -0.21295337 0.59783995 -0.451195 0.6081896 0.453317 0.62620217 -1.5128721 0.581649 -0.062247306 -0.16302037 0.47464973 0.0977086 -1.1451823 0.5005769 -0.46611658 0.09398972 -0.1354543 1.3332337 -0.52470726 -1.0716859 -0.091308475 -0.27450144 -0.7119488 -0.58117867 0.0046968283 0.000987708 -0.19797724 0.85628814 -0.014980679
607 0.053807307 -0.313771 0.16046877 -1.1297231 -1.4657052 0.8261994 0.20237575 -0.6278009 -0.116286665 -0.21132147 0.65767276 0.4537268 0.45947173 0.1917718 0.015951421 0.011839832 0.9979634 0.6938548 -0.44893637 0.4917169 0.39847386 0.38358617 -0.17803204 0.23467682 0.35899732 -0.38423043 0.9453815 -0.5637766 0.21681839 0.4499745 0.8740198 0.2424766 0.94994503 1.0632601 -0.625109 -0.6334963 0.13866521 -0.5768438 -0.5264364 0.28911573 0.7230096 -0.13394721 0.5726336 0.30466765 0.39008793 0.5873853 -0.32547066 -0.1738802 -0.19021435 -1.0777112 0.9974455 0.21362466 0.010614923 -0.33586368 -0.18872377 0.6345011 -1.0928034 -0.13323903 -0.47814775 1.0099785 -1.2154591 -0.22526732 0.9534357 0.6435088
232 -0.03398094 -0.21929674 0.09697398 0.23780271 -1.2178332 0.35173678 -0.8963276 0.16522987 -0.39578965 0.1532148 -0.73555243 -0.72936136 0.29864192 0.59978366 0.2459689 0.30912927 0.12195437 0.3797163 0.28556725 -0.55841416 -0.2021084 -0.038540166 -0.5769016 1.1341864 -0.20935626 -1.2028457 0.49168587 0.4213366 1.4425933 -0.1751713 0.29183114 -0.32627448 1.0779885 0.46474892 -0.5422706 0.23533924 0.030705905 -0.05595315 -0.18357909 -1.3751751 0.79963094 0.20636679 -0.36599138 -0.13476127 -0.098149374 0.5451009 -0.51856583 -0.33434895 -0.7730407 -0.48929125 0.051208764 0.928287 0.36708224 -0.54539543 0.8083571 -0.77123123 -0.18063827 -1.1201419 -1.0007094 0.7756634 -0.551262 -0.32512707 -0.76190513 -0.2638152
403 -0.010635443 -0.0562317 -0.7170911 0.5104818 -0.5116829 0.110168755 -0.43949738 0.11210183 0.24925606 0.04655316 0.76839983 -0.5634833 1.1716253 0.72804403 -0.8366107 -0.8483238 -0.2821465 -0.42083344 -0.08597986 -0.6844787 -0.028240617 -0.7076263 0.35146335 0.1569294 -0.685817 -0.6180286 0.070116386 0.36165127 -0.13917561 0.5236185 0.6871478 -0.16897342 1.390199 -0.1572116 -0.79748154 0.107951745 0.17760904 -0.21722838 -0.23893765 -0.64238435 0.81376547 0.028662033 -0.30334413 -0.605446 -0.153531 0.124489136 -0.3440469 -0.47597012 -0.42030394 -0.4449477 1.0828773 -0.22978555 0.70081955 -0.7153653 0.6089914 -0.25369018 -0.8124934 -0.05566936 -0.4217577 0.48219582 -0.87112963 -0.7123909 0.70943195 1.0238986
301 -0.3299765 0.80270135 -0.6413536 -0.38959938 0.20682682 0.7791092 -0.27434134 -0.8013785 -0.23086408 -0.53834647 1.1947564 -1.4763409 0.7670251 0.11006455 0.5151105 0.25746524 -0.5608758 0.58507055 0.42720935 -0.15525153 0.11012566 0.27769002 -0.16373917 0.39341494 0.65207696 -0.29722762 0.2064391 -0.9221801 -0.13423938 0.058420166 1.3076562 0.42975733 1.5479523 0.90847224 -0.06946061 -0.68381774 0.045151718 -0.3164227 1.8571439 -0.38154608 0.5461832 0.11367128 0.5968976 0.13618799 -0.41306475 0.14152148 1.8087687 0.6488944 -0.3522986 -0.9548502 1.4358593 -0.08689383 0.64392006 -0.3140661 0.06335356 -0.57913935 0.28536814 0.13918085 -1.0142148 -0.015624003 -0.6933814 -0.8551978 0.49811435 0.57950747
643 -0.80131644 0.07908359 -0.2856606 -0.2486769 -0.6036087 -0.32872683 -0.37456056 -0.3707876 -0.26651263 0.028923808 0.48292503 0.29828364 0.61478364 0.7355238 0.17145038 0.15114613 0.5303758 -0.48482072 -0.89861023 0.14301966 0.6898764 1.184736 0.63215595 -0.3010799 -0.46803954 -0.1641278 0.43505803 0.54606986 -0.891119 -0.33559415 0.4644254 -0.27096325 1.9460584 1.0299101 -1.215458 -0.43902698 0.1283551 -1.59651 0.73317546 0.69983304 0.80723256 -0.67210746 -0.04045912 -0.7719497 0.219415 0.49998277 0.00026390832 -0.495252 0.4385543 -0.105857976 0.26628396 1.0808334 1.1798227 -0.7212016 0.59746575 -0.032229897 -0.10943866 0.7976318 0.1877864 -0.029318493 -0.08310286 -0.87385935 0.519908 1.1406403
310 -1.2895776 -1.1572032 -0.33327538 -0.34236148 0.45094016 1.3963776 -0.47220156 0.015576633 0.21925393 -1.3013057 0.697024 -0.69977945 0.6869668 -0.08082272 0.21540529 -0.51947683 -0.32662123 0.25607097 0.0697482 -0.33072713 -0.13666186 0.032135457 -0.113602 0.54751176 0.57524115 -0.29612967 -0.04267515 -0.07040456 -0.0013808147 -0.02766049 0.5875325 0.38762134 2.3296225 0.41105354 -0.5935717 -0.27053237 0.51207185 -1.2035176 0.82618964 -0.62165767 0.2031689 -0.7255473 0.3714782 -0.33518708 -0.20592918 0.60712475 0.2520944 0.09420969 0.17463633 -1.0721664 0.8393225 0.32059446 0.48442864 -0.9737194 0.3574309 -0.76148206 0.2894083 0.24003063 -0.03327945 0.8186474 -0.8716278 0.13844259 0.14551428 0.522197
24 0.28113097 -0.3022471 0.013508314 0.33891204 0.08131501 -0.3034893 0.16346252 -0.019698692 -0.8299782 -0.27047288 0.61455756 -0.63846916 0.8117074 0.34613556 -0.5508358 0.15519463 0.2535703 -1.1922327 -0.82674515 -0.85171574 -0.15183729 -0.4513535 -0.4995452 1.0217346 0.52100116 -0.63050205 0.43610612 0.030242035 0.2257474 0.14056624 0.7985599 0.76123255 0.32129663 0.16865705 -0.454292 0.3906714 -0.14760025 -0.6432785 1.182225 -0.3497085 0.14718047 -1.0481658 0.4537598 -0.457698 -0.18092111 0.11100156 0.56619817 0.55237055 -0.992768 -0.87269074 -0.3754495 -0.3570171 -0.118651524 -1.2060158 -0.26043123 -0.13460846 0.5759831 -0.974366 -0.35414073 -0.04589288 -0.79040414 -0.7394356 0.15209836 0.46133184
416 -0.8157046 0.6333272 0.14509688 -0.8258768 -0.5834956 1.1120021 -0.76597613 0.860718 0.19917957 -0.107482605 0.5374571 -0.44270957 0.13794231 0.5371676 0.72262317 -0.35694844 0.9671299 -0.18478464 0.47752336 -0.049139295 0.14063936 0.8687744 0.27707124 -0.72396016 0.7282868 -0.29151344 0.70107526 0.12717201 0.019191926 -0.666419 0.9747186 0.76122564 1.2345408 0.08882508 -0.22401242 -0.539817 0.68883556 -0.7966536 0.18929654 1.1930361 0.8802885 0.15912695 -0.52112466 0.1441318 0.80624217 1.0646402 0.39052385 -0.43935326 0.12486308 -0.44496074 0.86763144 0.36086747 1.1144074 0.23577695 -1.2482321 -0.8065192 -0.620206 0.29505163 0.104098834 -0.12500775 -0.057166006 -0.98045295 0.9955581 -0.17542848
267 -0.33125564 -0.75062156 -0.22446306 0.24697499 -0.49206096 0.28778723 -0.3593365 0.466332 -0.7172742 0.5812017 -0.6150936 -1.2683057 0.73108226 0.6771962 0.5727963 0.77937347 0.058992554 0.6702295 -0.62391335 -0.8708043 0.0030132588 0.33986643 -0.19157742 0.17668255 0.5353233 -1.279211 0.2481063 0.119376756 0.09136284 0.6290602 0.9071591 -0.3001418 0.7475374 -0.07791242 -0.5658824 -0.6848399 -0.25031948 0.16032477 -0.03624968 -1.3071153 0.13750724 0.10781396 -0.9160897 -0.3023844 -0.04465246 1.3452791 -0.29337665 -0.48800465 -0.46114218 -0.2189584 0.42519525 1.1229391 0.40527505 -0.8983081 0.3151843 -1.1879154 -0.10232841 -0.69269055 -0.9756513 0.80936944 -0.63076025 -0.55686873 -0.2711155 -0.23633847
442 -0.7155709 -0.23260552 0.8209621 -0.2683442 -1.3413725 0.39828905 -0.35826972 0.6840894 -0.39207044 -0.31513417 -0.20357965 -0.21842796 0.5254901 0.76041204 -0.29418808 -0.3086928 0.3592815 -0.4647775 0.1760263 -0.69886065 0.42142394 0.038874894 -0.9841548 0.6020525 -1.2371802 0.0091238925 -0.07679373 -0.074254856 0.46412966 -0.53133243 0.18812728 0.8011496 0.8622423 0.41150844 -0.44891942 0.15662433 0.25160202 0.047812592 0.8468338 -0.9148998 0.8623076 -1.6079836 0.0074660187 -0.49369314 -0.014827992 0.908022 0.7478616 -0.44547638 -0.6497798 0.19440196 -0.075559705 -0.037203334 1.348247 -0.55835205 -0.5363523 -0.8450142 0.42686212 -1.2132334 -0.6869442 0.1906472 -0.7048176 -0.8070475 0.9406979 -0.060548764
256 -0.34093225 0.38126853 -0.06451417 0.45926 -0.677844 1.0781145 -0.4849386 0.5281145 -0.5157962 -0.56930035 0.33241126 -0.7223967 0.7343938 0.90865165 0.14750752 0.44894874 -0.59179837 -0.35204843 0.32471097 -0.89961845 0.112116046 0.45773903 -0.65052676 1.2153169 -0.102255315 -1.206711 -0.5061918 -0.029490478 0.940364 0.27717972 0.77452356 -0.11176982 1.1741457 0.5599209 -1.1046784 0.11041688 0.1351174 -0.137268 0.81983334 -1.010453 1.0038418 0.35300595 0.22942515 -0.43079233 0.10336095 0.73653936 0.18839768 -0.29442117 -1.1417874 0.39533916 0.0046386393 1.1101832 -0.24614163 -0.6947958 0.8449447 -0.9762215 0.55660766 -0.8356424 -1.157729 0.59856045 -0.31955802 0.4537228 -0.93441635 -0.15955928
706 -1.158221 0.2486743 0.46432388 0.4953179 -0.12904683 0.50799817 -0.3129658 -0.28532588 0.55601674 -0.5403941 0.8613482 -0.202864 0.5994197 0.5188497 1.472385 0.4237679 0.47862345 0.24600013 0.630816 0.10011556 0.5896021 -0.10209161 0.009584832 -0.01826929 0.27527788 -0.7630941 0.2270883 0.23284 0.19080038 0.16618824 0.419934 0.018682713 1.6349803 0.44830644 -0.17906456 -0.85407484 -0.24173652 -0.0020651694 0.15732892 0.7260818 0.1435302 0.4473475 -0.46762514 -0.25323945 -0.57666665 0.3964028 -0.22775851 -0.25112715 -0.3616593 -0.04166347 1.0501522 0.7667412 1.2619613 -0.96760815 -0.19688945 -1.175419 0.2729535 -0.5791589 -0.613989 0.3730818 -0.71466744 0.3417928 0.1458822 0.57849973
507 -0.076962255 -0.52347624 -0.08815897 -1.1577014 -0.9909475 0.6258256 -0.03343832 -0.46499705 0.30858114 0.30299404 0.5974654 0.12119416 0.7760528 1.500852 -0.041297685 0.3741743 0.92089236 -0.20034818 -0.71066606 0.6250013 0.14768383 0.036395073 -0.4081624 0.24871013 -0.25041795 -2.3536404e-06 0.47972587 -0.08339828 -0.4846915 0.37010285 0.54876006 -0.02010455 1.3278753 1.0127267 -0.17680512 -0.49253774 0.10932659 -1.288867 0.06073372 0.005358867 0.17696552 0.91726714 -0.07237275 0.11508076 0.41102713 -0.09921646 0.190082 0.25992477 -0.91252005 -1.1214104 1.1280286 0.44195497 0.7819109 -0.85792184 -0.08453473 0.020430287 -1.3152477 0.13142194 -0.6792372 -0.103479676 0.0029266598 0.15274258 -0.48450857 0.7475813
248 0.71126443 -0.42817092 -0.45034164 -0.12369901 -0.4398401 -0.04385972 -0.5578358 -0.0766042 -0.76619256 0.19450872 -0.17010967 -0.46623132 -0.0019962299 0.86208254 -0.10305151 -0.295417 -0.19179727 0.54413146 -0.36425516 -0.2891071 -0.26541463 0.08680606 -0.10555741 0.46687058 0.4389298 -0.9633749 0.93821025 0.9582781 1.6983539 -0.06979815 0.549316 0.07316227 1.2579031 0.9969693 -1.2993187 0.17359668 -0.0334211 0.16848852 -0.61115456 -0.32618782 0.86997604 0.047273573 -0.16319801 0.15805836 0.86261207 1.3970609 0.31240976 -0.5998415 0.27240226 -0.60052615 -0.6676609 -0.112516515 -0.5016024 -0.94013554 0.47271866 -0.5809358 -0.32031628 -0.61337155 -0.439492 0.77794826 -0.8164274 -0.09386129 0.07206684 0.9398518
265 -0.0066671884 -0.550458 -0.29415196 -0.07166343 -0.4343692 0.2933858 -0.5830485 0.33997566 -1.0394707 -0.2950642 -0.0022161424 -0.08879854 -0.048451506 1.2919221 0.2786357 -0.40962958 0.012161933 0.57431006 -0.5203753 -0.14714268 -0.19802518 0.7793428 0.31603378 0.24931851 -0.6406242 -0.070316985 0.064037226 0.59612864 0.9736897 -0.41177484 0.57930654 0.1895579 1.2821584 0.80539805 -0.41679645 -0.38166267 -0.20128918 0.6104481 -0.15474132 0.72618 1.1208459 0.15329678 -0.2450609 -0.21960023 0.5091501 1.2879297 0.45146045 -0.78925526 -0.6616784 -0.28855625 -0.5656078 0.7999952 0.21887247 -1.0888243 0.29691043 -1.0793704 0.17410368 -0.54325616 -0.3289394 1.0555525 -0.8722142 -0.48858956 0.6916942 0.18969457
447 -0.58459866 -0.34337977 0.5492371 -0.09173628 -1.138447 0.2712091 -0.2733322 1.0166917 0.25856453 -0.31260574 -0.16703564 -0.20969912 0.3706504 0.9968435 0.2989966 -0.34827343 0.44081664 -0.4436534 0.41717413 -0.12652661 0.14748125 0.3962631 -0.58537006 0.51402825 -1.3861772 -0.33788416 0.61601317 0.11584464 0.39011773 -0.39304277 0.26741543 0.6962268 0.7217105 0.31645462 -0.07708581 0.15661927 0.22398943 0.057520654 0.85935575 -0.099817835 0.9840903 -0.93508446 -0.03283449 0.05028101 0.33942345 0.6001029 0.46746466 -0.9942112 -0.84037536 0.002204176 0.02938464 -0.13860843 1.2732673 -0.51585543 -0.46413323 -0.7698587 0.5186893 -0.94805306 -0.7006936 0.34985667 -0.6744348 -0.1743237 1.0258439 -0.011063118
522 0.0028612637 0.76920193 -0.7581159 -0.31093463 -0.15841366 -0.3944665 -0.5447264 -0.34621543 -0.0836137 0.47895035 -0.15910468 -0.8971784 0.4450291 0.010298298 0.45177916 0.1945511 0.36701313 -0.40229127 -0.051673207 -0.44638574 0.36051068 0.26406375 -0.3535678 0.45186135 0.6555647 -0.7363448 0.5869233 -0.83897585 1.2064235 0.25348988 0.4245141 0.5004686 1.2609512 0.17632547 -0.46106246 -0.042028617 0.14929464 0.061410073 0.7827742 -0.14297807 -0.07570405 0.16467911 -0.44771102 0.12003092 0.08585346 0.32382077 0.36150712 0.0006493582 -0.011306925 -0.9132523 0.6851447 -0.40663484 1.1846789 -0.20933236 -0.4280737 -0.121557094 0.32002756 -0.17680964 0.69665784 0.047417335 0.05903989 -0.8889043 0.39812276 0.5718926
25 0.38186342 -0.27839574 -0.0005867299 -0.010473006 -0.026707072 -0.04028294 0.08085108 0.34743664 -0.6553743 -0.12811 0.43981662 -0.295461 0.8816163 0.38638195 -0.72806317 0.41228053 0.51789474 -0.72304064 -0.60619295 -0.53677315 -0.3472799 -0.32588512 -0.21907397 1.1177655 0.8200019 -0.35975033 0.68236864 -0.48551893 0.52660143 -0.14347506 0.5910328 0.5385706 0.30352664 -0.014623965 -0.34068632 -0.046567302 -0.49009678 -0.5691392 0.96302694 -0.4487302 0.011679399 -0.92709756 0.1365099 -0.34680006 -0.56477994 0.19489801 0.34783268 0.59195507 -0.9984548 -1.1679571 -0.5549641 -0.33954346 -0.01022451 -1.1272918 -0.16650043 -0.37338844 0.20177813 -0.7648937 -0.4442853 0.23320873 -0.85296154 -0.7522294 0.116164915 0.47575766
261 -0.06848668 0.2603935 -0.25683647 0.35226515 -0.7025192 0.42616323 -1.1198123 0.31215918 0.012340958 -0.5157195 0.31621212 -0.58899313 0.10740889 0.8547481 0.22156379 0.009153477 -0.6803398 0.23961869 -0.17870349 -0.8657319 0.50362474 0.73739564 -0.102510005 -0.021585746 0.67645663 -1.1104643 0.36758965 0.29903704 0.9994538 0.40258026 0.8399446 -0.5406054 0.95954597 1.1849098 -1.0574876 -0.31991065 -0.03579429 0.35590369 -0.02791533 -0.032049205 -0.18315612 0.8996892 -0.11861141 -0.49962088 0.41358083 1.7029842 0.53263205 -0.49064118 -0.39023688 -0.640596 -0.81078994 0.5780127 0.10789448 -0.92975825 0.515242 -0.2203256 -0.040832926 0.06754916 -0.860727 0.62512404 -0.81603533 -0.20747623 0.030712932 0.77519816
615 -0.12747681 -0.8550243 -0.31388986 -0.7008258 -0.8705183 0.189801 -0.15589182 -0.3880067 -0.46105874 -0.64575887 0.1819207 0.16017637 0.9550781 1.1330485 -0.15766072 -0.3405731 -0.10429768 0.26291755 -0.82307786 -0.54704493 -1.0564353 0.8847144 -1.4011583 1.0177627 0.30519596 -0.1370463 0.9034751 -0.39468187 0.46753317 1.107625 0.571341 0.12645856 0.5742568 0.5709791 -1.0343193 0.0026991994 0.07755991 -0.72875947 0.3325121 -1.279242 0.35842976 0.119507164 -0.69756395 -0.46580833 -0.05910865 1.2898117 -0.5087756 0.3330412 -0.5471414 -0.70263577 0.07956343 -0.48259395 0.60251725 -0.89855057 0.12286819 -0.22610149 0.4302668 -0.29587176 -0.013548382 0.27606955 -0.23384464 -0.9650516 -0.14313032 -0.0016317362
420 -0.42281637 -0.36802533 -0.9580069 -0.3376234 0.37020823 0.19146436 -0.22386889 0.03180317 0.05595671 -0.50493604 0.20613936 -0.77151024 0.27907225 0.46182868 0.61911327 -0.6219162 0.6053253 -0.44365382 -0.31922522 0.93316054 0.48201308 0.048873045 0.3418186 0.63172704 -0.7768804 -0.34737965 0.4654698 -0.12114169 0.29771173 -0.21059601 1.4044524 0.82781637 1.55237 0.14628167 0.35471538 -0.8460146 -0.52952456 -0.5415705 1.0677385 0.48865598 0.62832165 0.21139275 -0.33771995 -0.5111623 -0.08549201 -0.56023264 0.44965664 0.48191857 -0.7959591 -0.7191278 0.91390383 0.61450523 1.4385425 -0.5260877 -0.8188144 -0.9607909 0.64761674 0.04863556 0.91716367 0.41941455 -0.7943679 -0.5153941 0.41623887 0.25800285
43 0.29730144 -0.06990721 -0.03693583 -0.332095 -0.23656069 -0.46097043 -0.036924474 0.47929195 -0.6479892 -0.14219478 0.5147092 -0.7926696 0.8443071 -0.029422602 -0.4800469 0.17633629 0.03641107 -0.93278193 -0.66948295 -0.2696256 0.1952474 -0.23478158 -0.32113126 0.89886534 0.80973107 -0.6277651 0.45714337 0.33419156 0.4694337 0.22242516 0.5368682 0.81195986 0.34666806 -0.44369066 -0.39108753 0.30237523 -0.052994978 -0.21652476 0.6349935 -0.5207163 -0.07142817 -0.99130416 0.18548064 -0.022921365 -0.3697345 0.33934906 0.27775282 0.39300624 -1.200344 -0.8232052 -0.29057312 -0.15826431 0.16816065 -1.1582174 -0.5843469 -0.173333 0.08465276 -0.6271582 -0.25360665 0.4112905 -0.8120688 -0.56212324 -0.074471205 0.3064458
440 -1.2639434 0.021163395 0.43567002 0.27359596 -0.30228132 -0.56838477 -0.13835067 0.88972247 0.49703348 -0.42709336 -0.034853786 -0.55831724 0.5741705 0.13288939 0.496981 0.03678013 0.28734082 -1.3533303 0.18423189 -0.41634208 0.08622118 0.019225815 -0.17166471 -0.09196992 -0.2393017 -0.30814967 0.42407742 0.21440814 0.18375061 -1.231139 0.61995214 0.876905 0.43628934 -0.23662966 -0.19909215 0.31571916 0.1875705 -0.64358115 1.123046 0.43280324 0.7357355 -1.5097061 0.3295976 0.14992057 -0.62150544 0.33500057 0.1135483 -0.77761084 -0.26492453 -0.83251256 -0.15425119 -0.20959572 1.6453786 -0.44636443 -0.3180236 -0.26788685 0.08537925 -0.82530963 -0.7228294 -0.010833754 -0.66978544 -0.6618766 0.74156153 -0.17103235
202 -0.32829303 0.6602889 -0.51127076 0.6267401 -0.4818845 -0.04078784 0.4352368 1.2372453 -0.008779123 0.008020785 0.5641627 0.23373152 0.98848325 0.9717896 0.7054884 0.3741449 0.47075906 -0.6610105 -0.18832895 -0.37339512 0.029763483 0.22791637 -0.051268358 -0.85239035 0.19364148 -0.9985756 0.3467017 0.08711444 0.26322636 0.6372257 0.56430304 -0.11947452 0.9966615 -0.17332329 -0.66814804 -0.09480229 0.30213523 -0.6281921 0.49010044 0.5062102 0.6169275 -0.04647609 1.0710523 -0.694878 0.5561768 0.11454807 0.2573395 -0.6589192 -0.14646436 -0.23608872 0.045816813 -0.1306907 0.8092696 -0.3663906 0.16907439 -0.512498 0.59638107 -0.16124903 -0.8614007 0.4172994 -0.44063398 0.39869192 0.553382 1.2340609
594 -0.056598753 0.43913153 0.17758173 0.49983513 -0.20213142 1.1996189 0.015757533 -0.09971964 -0.16879912 0.94198895 -0.023900036 -1.1511707 0.064114146 0.468133 0.6259777 0.20491007 0.77658254 -0.7614862 -0.06963695 -0.6969756 0.23768303 0.13458629 -0.15323107 0.5270403 1.0396073 -0.5656446 0.77396774 -0.3349055 0.44488946 -0.49478406 1.2560321 0.17509823 1.5960524 0.071279176 0.24905014 0.7879521 0.04731297 -0.80596375 0.6869507 0.64415145 0.42836636 -0.5688452 -0.15686855 -0.47750652 -0.20456493 -0.6360001 0.20639439 -0.7817492 -0.13580023 -0.80706906 0.8314441 0.809465 0.22363368 -0.4487615 -0.2357993 0.40297383 -0.86518836 0.008211284 -0.6413462 0.08556242 -0.38886034 -0.54196507 -0.21565077 0.67635304
200 0.067524455 0.5372999 -0.4634848 0.60779643 -0.41189677 0.1950696 0.07816266 1.327204 -0.16112827 -0.35355812 0.97136384 0.091203935 0.79027086 1.0269667 0.6045321 0.7611663 0.06775518 -0.58605087 0.080511786 -0.2760953 -0.13790405 0.6998644 0.23538768 -0.4126294 0.12126095 -0.6877239 0.2500048 0.2285969 0.1766896 0.23796526 0.09373455 -0.31755653 1.0186325 0.028192429 -1.0148008 -0.09891651 0.2886316 -0.58628064 0.508179 0.8745906 0.77493924 0.37550154 0.9695646 -0.62259823 0.61274135 0.059564535 0.78891426 -0.36780646 -0.27870297 -0.6227999 0.14621572 -0.51355284 0.8224823 -0.5905761 0.09072887 -0.8579566 0.21302265 -0.07099028 -0.28987366 0.5972602 -0.3934049 0.6984243 0.5506993 0.93823004
317 -0.7011986 0.20709592 -0.34534258 -0.11879913 0.6325524 -0.1630053 -0.11579069 -0.086390354 0.20936236 -0.6470976 0.6858292 -0.74147683 0.5479971 1.4718132 -0.0029566707 0.40720734 -0.6012576 -0.43996072 0.13721235 -0.512884 0.93691975 0.95441365 0.12578183 0.88270897 0.32351342 -0.5410762 -0.22317587 0.2960705 0.30680603 -0.45673057 0.33550355 0.5705968 0.76363117 0.21812892 -1.1781402 0.2114762 0.7198688 -1.3864251 0.18591422 -0.8473835 0.5987986 -0.996351 -0.62658924 -0.8061499 0.25075135 0.88919467 -0.13191397 0.15672615 -0.28210545 -0.0635628 -0.11138331 0.25336492 1.1890774 -0.7607191 0.17993861 -0.5151885 0.8434418 -0.24941096 -0.20205131 -0.84439266 -0.15926199 -0.71061236 0.079771414 0.6882823
104 -0.77359986 -0.68298495 -0.24960294 0.19784713 -0.35953403 -0.024813706 -0.31644765 -0.021584531 -0.2384795 -0.27548262 -0.36310282 -0.7800905 0.9079903 0.6700974 -0.7112672 0.4840183 1.1636276 -0.49866873 -0.28316268 -0.24224176 -0.16989127 0.023800045 -0.3329415 1.1680832 -0.43370816 -0.6568854 1.1508131 0.4573601 0.40779573 -0.7585187 1.5456554 -0.0072485497 1.0247401 0.7443738 -0.301736 0.17982182 0.27306375 -0.984064 0.45712397 0.41045293 0.25482607 -0.34423646 -0.17451973 0.5720795 0.10351683 1.0033499 -0.013280401 -0.14267679 0.31856436 -1.6702454 -0.1201953 1.5682566 0.85858697 -0.7083323 0.21067184 0.26449436 -1.400685 0.5383936 -0.283672 0.5612702 -0.050597135 -0.18780929 0.2271164 0.6214061
228 -0.50514555 -0.6547171 -0.13418001 0.10617629 -0.082259834 0.02690363 -0.15984602 0.11371275 -0.62698627 -0.44365597 -0.08885877 -0.49584427 0.16881607 0.8659352 0.42243564 -0.16354503 -0.38892883 0.07906895 -0.23039229 -0.30240497 -0.003552181 0.7057526 -0.65883064 1.1769736 0.1843853 -0.6281848 0.1903543 0.73042506 0.2590723 -0.14545345 1.1895796 -0.4824977 1.197705 0.54089695 -1.1621904 -0.40404254 -0.35109454 0.46224952 0.21820426 -0.30439118 1.0677778 -0.18149832 -0.19170533 0.05454 -0.10951387 1.2795287 -0.2735824 0.24372421 0.1451101 -0.35099688 -0.24165563 1.1192675 0.32345882 -0.5146508 0.8520359 -0.7405831 -0.12367414 -0.4515866 -0.77168375 1.2702683 -0.17616892 -0.7994572 0.5391057 0.13654044
230 -0.5144657 -0.71901566 -0.21075465 0.07827895 -0.024741493 -0.02976986 -0.15005039 0.09081708 -0.6783246 -0.47124976 -0.09334211 -0.6709977 0.12001526 0.80573547 0.38460436 -0.17163543 -0.38065267 0.051519558 -0.1796813 -0.32388008 0.038612247 0.7002578 -0.65848064 1.2757043 0.3175034 -0.62392515 0.20902891 0.7054888 0.39998266 -0.23342101 1.2486811 -0.44694388 1.1838583 0.50745183 -1.2243592 -0.3161159 -0.26582202 0.5280052 0.16305985 -0.33051598 1.0504738 -0.1665164 -0.17846867 0.015475869 -0.06596571 1.2433436 -0.2201443 0.24294794 0.20005982 -0.32854614 -0.22305645 1.0828122 0.307644 -0.5703968 0.8888403 -0.7400523 -0.10270755 -0.43112898 -0.70461094 1.2847897 -0.14936352 -0.8952198 0.52402526 0.20317961
624 -0.7487746 -0.18833496 1.0298433 0.14228942 -0.4301586 0.59578884 -0.43945715 0.6701874 0.83510035 -0.4445775 1.1031196 -0.46617377 0.69788736 2.015418 0.3562244 0.33404353 0.12186589 0.062055346 0.021222811 0.699422 0.66186506 0.57355547 -0.1013975 0.082598425 -1.1991036 -0.20384209 0.6473182 -0.030153167 -0.7213695 -0.08115711 0.61437625 -0.021389691 0.9549125 0.7163115 -0.3738442 -0.18957266 -0.11502631 -0.8870818 1.0615578 -0.16879395 1.2075027 -0.3438316 0.79552144 0.26194865 0.41458142 -0.46284404 0.5109812 0.028352028 -0.6052895 -0.35399032 0.8564644 0.48906332 0.5401713 0.16843548 -0.2973008 -0.36502475 -0.25489354 0.21968316 -0.24498278 -0.705826 -0.4237098 0.2838299 0.6912447 0.7068211
497 0.18125571 -0.53791344 -0.4062061 -0.6258774 -1.097621 0.9763927 -0.0462355 0.25825825 0.5242385 0.13268048 0.2998793 0.65226936 0.84734875 1.1385628 -0.21547274 0.22082615 1.2246184 0.32893193 -0.96459115 -0.0711768 -0.10995834 0.6865987 -0.25481677 -0.21443689 -0.1004514 -0.564463 0.47236192 0.13127299 0.024280513 0.40063372 -0.25891858 0.0042250394 0.93253666 0.9513465 0.037691496 -0.35575974 0.38656887 -0.91991836 -0.4505961 0.46517453 0.3551258 0.5271587 0.1476625 -0.84825903 1.06229 0.26075813 0.21645941 -0.24573484 -0.7127814 -0.91222394 1.0038999 0.5853293 0.5943006 -0.19280975 -0.17797904 0.2333155 -1.2466882 0.2523422 -0.4811941 0.36333945 -0.87985015 0.11891169 -0.03800468 0.24502198
254 0.11660141 -0.36218557 -0.20176834 0.16292113 -0.720243 0.6280538 -0.41292083 0.24492598 -0.7327822 -0.06430811 -0.24336573 -0.72612053 0.6269206 0.7828956 0.19686663 -0.027323617 -0.2734181 0.25429767 0.1324399 -0.84329236 -0.20400386 0.08008064 -0.5126068 1.5768226 0.20228249 -0.92742187 -0.077460796 0.454551 0.87264395 0.24973264 0.67297316 0.09635348 1.1191823 0.50726026 -0.9403985 0.28067744 0.32881823 -0.16899894 0.60047984 -1.5010691 1.0941939 -0.443117 -0.095926575 -0.1389572 0.46340144 0.9491499 -0.16891949 -0.45419458 -0.48702008 0.58354515 -0.16993989 0.9559466 -0.08631388 -0.566035 0.9205413 -1.1394472 0.37099287 -1.0331644 -0.81603587 0.29841235 -0.7022918 0.061865184 -0.38043442 0.23543616
483 0.032629278 -0.3457975 -0.62678885 -0.082557954 -0.17423183 -0.15566008 -0.7016928 0.7462692 -0.36711997 -0.6949216 0.34771684 -0.825918 0.61943454 0.1846392 -0.7723951 -0.18126717 -0.47249418 -0.37814796 -0.54123116 -1.2413923 -0.42317656 1.0562557 -0.37020212 0.46302965 0.42199522 -0.23993869 0.5280908 0.20056722 0.327914 -0.45764223 -0.117464714 0.556939 0.7180164 0.84281504 -0.41478664 0.24488737 0.23279302 0.010915706 1.1093196 -0.2164452 1.2722136 -0.6893574 0.29212034 -0.4946444 0.47417966 0.5793528 1.0237494 0.3864707 0.14047255 -0.47642338 -0.072039604 -0.011700499 0.8832386 -0.33648482 -0.5597477 0.050042078 0.29405838 -0.77343154 0.15064424 -0.1051501 -0.24074906 -0.05747325 -0.016998291 0.28339383
257 0.10601225 0.08094773 -0.04252858 0.4248816 -0.7207061 0.67100936 -0.4794204 0.48752815 -0.68219435 0.07252942 -0.12971285 -0.6338265 0.634911 0.8379738 0.2015565 0.18921319 -0.36164418 0.21123035 0.21850067 -0.8032434 -0.120440274 0.11892434 -0.41956493 1.2779322 0.13991758 -1.0890683 -0.08776344 0.35445118 1.2115569 0.3600689 0.45841908 -0.07684228 1.1724468 0.5820456 -1.0298797 0.12782912 0.20178588 -0.12139022 0.5765859 -1.469379 1.0342326 -0.21609975 -0.04241749 -0.34107006 0.30160466 0.8385576 0.030426398 -0.4455829 -0.6632416 0.47298998 -0.16074647 0.6226107 0.22339708 -0.50452787 0.7900982 -1.0316879 0.7528226 -1.0039945 -1.004632 0.24129319 -0.6184461 0.20343807 -0.41835374 0.13486102
103 -0.8508137 -0.69296235 -0.29350838 0.36333022 -0.07988875 0.14792697 -0.19434352 -0.13538751 -0.3550549 -0.4608113 -0.19256853 -0.6240884 0.9719564 0.61003286 -0.6707983 0.6050929 1.1607122 -0.5474525 -0.57225335 -0.25937796 -0.13225207 0.107032016 -0.23493697 1.3045146 -0.46863607 -0.45038083 0.93966734 0.50847036 0.3261312 -0.8512253 1.4799176 0.05850398 0.96248686 0.8237895 -0.19872075 0.13680853 0.25074342 -0.8776302 0.6483064 0.25332427 0.33540002 -0.48814127 0.011151594 0.5172863 0.023936056 1.0541179 -0.14161067 0.03124582 0.213248 -1.481862 0.0155146085 1.5778629 0.6585938 -0.7509052 0.41596526 0.13482773 -1.4027462 0.34075436 -0.5615402 0.61302066 -0.12643845 -0.13738884 0.17796919 0.61940545
170 0.035477366 0.7278442 -0.43867373 -0.3340161 -0.99878955 0.94661415 -0.2949115 1.1067258 0.56422323 0.101434626 0.8740769 -0.124059916 1.0638765 1.1233884 0.18443449 0.1944293 0.46898255 -0.2903785 0.27735874 -0.56523097 0.2748361 0.34217834 0.45826513 -0.67283916 -0.18588133 -0.58894193 -0.36262345 -0.5897214 0.8427669 -0.8612459 0.49740836 0.61708575 0.3985592 -0.117979676 -0.13804032 -0.117338434 0.42944452 -0.49260208 -0.4125362 0.9514684 0.28599608 0.033836167 0.414144 -0.02948312 0.7794572 0.5726762 0.48486334 -0.5952768 -0.13770735 -0.2578369 0.6400008 0.20336798 0.8425543 -0.728396 -0.23641649 -0.22159033 -0.35614774 -0.4751083 -0.4772213 0.09949372 -0.8494876 0.056350295 0.6587998 1.2363584
229 -0.47239283 -0.84381247 -0.19435973 -0.005675032 -0.044412877 -0.064935505 -0.08072567 0.18169756 -0.5318967 -0.3883285 -0.008358354 -0.6424417 0.14408086 0.87036157 0.5130875 -0.05935676 -0.3219576 0.032605976 -0.19732568 -0.43345875 0.037485637 0.86548984 -0.76790005 1.1101731 0.3506962 -0.7127654 0.26563242 0.70156294 0.43418914 -0.2737046 1.2550771 -0.51430994 1.061227 0.5750786 -1.2599168 -0.31856844 -0.3272301 0.4148453 0.12312076 -0.21426867 0.9177812 -0.27627897 -0.13702784 -0.057408035 0.058504347 1.3305297 -0.111676805 0.28113782 0.18856987 -0.36143 -0.29852232 0.9741689 0.31685513 -0.50555474 0.72551674 -0.75851715 -0.036094867 -0.48915735 -0.7000438 1.2700629 -0.085503824 -0.6894814 0.4716126 0.107500054
235 0.024853166 -0.26894864 -0.4294405 0.5148328 -0.48574373 0.5298927 -0.8098665 0.42020428 -0.32507637 -0.13187085 0.23257175 -0.61965436 0.78150696 0.97781736 0.4546815 1.3600489 0.4426171 0.46059176 -0.39618474 -0.31508756 -0.111219995 0.62648225 -0.08040818 0.5136981 0.20048302 -1.1861758 0.2446882 0.7784822 0.73563206 0.23285285 0.8214994 0.2426522 1.3899517 0.3043839 -0.7612904 0.039490007 -0.060422827 -0.11819309 -0.027765281 0.30158722 0.9893459 0.8471065 -0.27661905 -0.73238033 0.91411424 0.41190264 0.14015634 -0.4748961 0.001986579 -0.26755735 0.14820363 1.1496128 -0.32836616 -0.29665172 0.095105164 -0.71521336 -0.114265054 0.00080912147 -0.3337341 0.75345427 -0.8992326 0.63840055 -0.21042222 0.3764479
320 -0.68563765 0.1803497 -0.30195755 -0.35042375 0.59414333 -0.13346145 -0.34149608 -0.15368399 0.13328658 -0.55369 0.606167 -0.771187 0.5908035 1.5801562 -0.26302293 0.21059774 -0.6697708 -0.27243376 0.06204646 -0.5685896 0.873273 0.90644425 0.1908142 0.9116068 0.13501321 -0.63577086 -0.03273903 0.2683901 0.3226086 -0.40940535 0.1960715 0.7160763 0.8962633 0.23978889 -1.2030064 0.35377172 0.7972278 -1.4571804 0.24508095 -0.7860148 0.6764054 -1.192918 -0.7441956 -0.8682762 0.4506824 0.96295655 -0.10292451 0.1342555 -0.3432417 -0.0042624995 -0.18219003 0.17037734 1.1747261 -0.72483665 0.048263352 -0.37951237 0.79726887 -0.09970355 -0.03817617 -0.8268523 -0.22637333 -0.7375071 0.14528836 0.83941513
622 -0.4984944 -0.64197147 -0.06497554 -0.74400485 -0.63743085 0.058000162 -0.3515683 -0.6602037 -0.38754666 -0.045007776 0.16256224 0.65940833 0.7055922 0.7797261 0.04354273 -0.08645331 0.1468943 0.023029432 -0.93691665 -0.056265257 -0.46936432 1.2119741 -0.7343268 0.4134966 0.21002543 -0.37903866 0.5314426 -0.66531634 -0.053368423 0.9022782 0.5619258 -0.09006321 0.8660523 0.9820662 -1.0572941 -0.19587928 0.04885267 -1.039034 0.39640632 -0.7019387 0.30860677 0.0352854 -0.14748865 -0.45549592 -0.50682545 0.7402033 -0.51022947 0.4477585 -0.297986 -0.5922027 -0.04198902 0.47458288 0.74194753 -0.6896142 0.1510462 -0.34752077 0.1102841 -0.022011196 0.53972435 -0.15522934 -0.13131471 -0.8944106 0.050856214 0.41584122
308 -1.064212 -1.0770618 -0.11064153 -0.3676611 0.30400106 1.4711635 -0.42905653 -0.17878243 0.20735696 -1.3869867 0.48058382 -0.98490304 0.5004776 -0.087559685 0.0052080145 -0.65979266 -0.08377995 0.34827954 0.01906007 -0.17925647 -0.41492578 -0.07905222 0.047868095 0.39521462 0.17294239 -0.44356474 -0.118185535 -0.18693568 -0.14256848 -0.29010296 0.7608326 0.3636101 2.2126563 0.3536386 -0.7420097 -0.1781798 0.33017886 -1.0003014 0.56022274 -0.65381753 0.20986721 -0.6604405 0.33890033 -0.27975032 -0.042913694 0.7695812 0.31159073 0.30654222 0.14432588 -0.8394035 0.93284106 0.30083737 0.42634282 -1.0566028 0.15266532 -0.60950476 0.18458906 -0.070821606 -0.24859914 0.821258 -0.5768623 -0.16418636 0.038816355 0.46673682
