4945 64
2606 0.46919137 0.08167876 0.1831601 -0.8330547 0.91562665 -0.30784875 0.7501509 0.43628845 0.92761976 -0.06826258 -0.6852953 0.7284325 -0.47836423 1.3607298 -0.21908648 -0.24552031 0.70154804 0.6440913 0.36829743 1.7978787 -0.13851413 -0.29268426 0.40691796 -1.0827737 -0.7738593 -0.87234455 0.05272309 -0.1873569 -0.256902 0.985525 -0.46852624 0.2826009 0.41900736 0.15497981 -0.6623737 -0.95705503 0.20340876 0.7627408 -0.95951265 -0.8955207 0.38430667 0.40249592 0.21098381 -0.09551853 0.16705346 0.5761791 -0.7454664 -0.6861768 0.48502272 1.3438143 -0.099213935 0.34780177 0.62520885 -1.1570234 0.8684512 0.8130703 0.009479217 -1.4692712 0.21558441 1.2166485 -0.35084507 0.50169134 -0.12013416 -0.8738481
1966 0.448272 -0.5216932 0.5031649 0.3469552 0.7961868 -0.8428684 -0.2799878 -0.45906195 -0.006201843 0.94280404 -0.68058366 0.5668917 1.0441253 0.9125266 0.43148616 -1.3075801 0.4635079 -1.4594042 -0.8037364 1.3592001 0.27839968 -0.057866234 0.6018364 -0.8576184 -0.9849299 -0.43465945 -0.587857 -0.28810874 -0.08275086 -1.3264922 -0.5899022 1.5641397 -0.30016756 1.1820321 0.40308964 0.5731765 -0.29111156 0.19388084 0.116946444 -0.8118742 -0.3264346 -0.67872435 0.5524176 -0.7130824 0.4513929 -0.9083774 0.36449382 -0.34613493 -0.2264119 0.3810382 1.3944463 -0.7133813 0.17129967 0.019867992 -0.6784679 0.053672556 0.81270087 -0.75603056 -0.5528785 -0.018760473 -0.4539152 -0.010878475 0.1763228 -0.50092506
2602 0.67135316 0.34248516 0.7386933 -0.29743665 0.67576003 -0.65115654 1.1622992 -0.102769494 0.21711056 0.87296647 -0.31451857 0.32288694 -1.3623117 0.5932996 -0.3455208 0.42992675 0.70332426 -0.90329266 0.5875198 0.23665316 0.69569004 -0.19930686 0.508507 0.12127805 0.10568961 -0.24419332 1.218252 0.41354403 -0.49159968 0.16225243 -0.25392318 0.20262326 0.45379746 0.9070924 -0.31934038 -0.0013060723 -0.17301773 -0.115721434 -0.8028244 -0.5105318 -0.6748663 -1.4793882 -0.25680068 0.55654496 0.9484366 0.4437848 -0.7790565 -1.4415907 0.5305632 1.2617962 0.9494814 0.42221686 0.87750435 0.82246083 0.24330202 0.38997722 -0.086870074 -0.9350601 -0.20268771 0.7339107 0.029846882 0.97840405 -0.8613188 -1.4273794
2321 0.72188574 0.9000076 1.3627672 -0.32008007 1.5958288 0.84819573 -0.46732596 -0.93615746 0.67327267 0.59774184 -0.28463483 -0.3618385 -0.6432409 0.79352206 0.6652245 -1.3672831 0.044691086 0.5182309 -0.5025817 2.5609937 0.47948182 -0.737227 1.0142674 -0.6459878 1.0009742 -1.138139 -0.16771969 -0.74534553 0.86190647 0.13119636 1.1876228 0.31619027 0.83821994 0.11598971 -0.0678883 -1.0431173 -0.23780572 0.061010946 -1.1803622 -0.19604215 0.048209187 0.8692927 0.18224442 0.5036382 0.7552556 -0.77196425 -1.3690255 0.9946399 1.3854257 -0.20360206 1.9159712 1.6436379 -0.03695463 -0.8842142 -0.17651124 1.8034316 0.02664228 1.0835832 -1.0102471 1.6208376 -1.1907454 0.85774285 1.0331134 -0.9961643
2320 1.05844 0.5259677 0.5753716 -0.60160077 0.8707105 0.611819 -0.27226052 -0.062081553 0.27872297 0.042170007 -0.25155476 -0.5860733 -1.0987117 0.45912275 1.1917015 -1.5216248 0.41176718 0.12802906 0.22452271 1.9666544 0.30805218 -0.8119576 1.134709 -0.4696761 0.6023539 -1.4643061 0.31391796 -1.18124 0.6721657 0.23091972 -0.043539405 0.62666965 -0.16207646 0.19343594 -0.6083627 -1.1914062 -0.5479732 1.5668223 -1.4792958 -0.25235477 0.29484087 0.7473648 -0.09769483 0.85692257 0.35485956 -0.6292944 -0.76490223 0.93898803 1.1439936 0.47419187 1.3215247 1.4900298 -0.34433216 -0.52996796 0.036595818 1.3414096 -0.5564486 0.66782933 -0.76458853 1.7800959 -0.6464863 0.65497524 0.71110654 -1.0052525
2628 0.24640508 0.85602236 0.13336827 0.071956694 1.3644527 -1.3415474 0.3828697 0.6493956 0.7630981 0.6288161 -0.43458623 0.85715383 -0.13437934 1.2529343 0.4567263 0.47581393 0.3797287 -0.9212746 0.47776082 1.264864 0.6091235 -0.87535065 0.6159765 -0.5929679 0.43542343 -0.434249 0.39464882 0.10748486 0.06531818 0.512705 0.25175327 0.8380345 0.16046765 -0.69175637 -0.28831863 -0.968832 1.138427 0.30162266 -0.3681383 -0.70710826 -0.21800248 -0.08472743 -0.04838303 -0.52430034 -0.17590506 0.5756527 -0.6379174 -1.1094787 0.707894 0.92767906 0.7912147 1.1182284 0.71455526 -1.119293 0.4967394 1.0979843 -0.6657954 -1.0353222 0.62591654 1.6209505 -0.20002158 0.28897387 -0.75826967 -0.3110939
2811 0.18961972 0.44793692 1.7603419 0.41224766 0.54840714 -0.20567605 0.033129007 -0.015014635 1.4476998 0.35746706 0.114957385 1.2268649 -1.2585185 -0.12989919 -0.40957224 -0.34588465 -0.19541776 -1.6923678 -0.08260385 1.674185 -0.4202412 -0.31511655 1.4028013 -0.47262192 -2.0914233 -0.24643853 0.41908532 -0.008286723 -0.21640082 -0.017586514 -1.0063572 0.09210237 0.4028175 0.25349224 -0.13913421 0.34995905 0.28419292 0.1853834 -0.30831558 -0.3196998 0.30062413 -1.6308023 0.23773623 -0.5429216 1.7672898 -1.0692337 0.3456106 0.030640677 -0.6489031 0.058711585 0.41688967 0.40862134 1.1387285 0.9732987 -0.56120896 0.2979647 -0.833355 0.87872916 0.020337408 -0.8763327 -0.36029804 0.8084868 -0.49867606 -0.041313004
2810 0.30180135 0.20719366 1.1377442 0.4595356 0.3094615 0.3086754 0.3765351 -0.5167484 0.7936399 0.22868674 -0.20799984 1.4282308 -0.9552706 0.59411806 0.59581566 0.15117422 -0.47604373 -0.6461221 0.082595475 0.7615833 0.27815714 -0.6847321 0.5924736 -0.88595784 -2.5598357 0.6104683 0.29509035 -0.534243 0.03032605 -0.15749681 -1.0507284 0.06617094 -0.5109722 0.48152083 -0.5338687 -0.11564708 0.15058818 -0.6222423 -0.3762383 -0.68315065 0.5003073 -1.5829031 0.5651397 -1.0971985 1.1113584 -1.1941407 0.3440893 -0.08693094 -0.27992356 0.57883376 0.424917 0.62651443 1.4399267 0.27123636 0.025043536 0.22299628 -0.8451399 0.7743459 0.16155182 -0.7287653 -0.51971966 0.71301657 -0.3695082 -0.27675593
1079 1.403662 0.08721284 0.8797873 0.5666491 1.4538608 0.3128478 1.1490084 0.55779344 -0.779978 -0.1648129 0.09287262 0.3649511 -0.42996725 0.6139744 -0.82792825 -0.79223835 0.13675234 -0.7880902 0.8308194 1.8524877 -0.24951516 -1.1050583 -0.113116935 0.14972642 -0.88916004 0.39107385 0.59415793 -0.71425664 0.95698017 0.30031344 -0.27215168 0.6927362 0.60952246 1.8283887 0.20382705 1.2894422 1.1092812 0.041728467 -1.1051574 -0.6849227 0.6206437 -1.5319779 -0.36152267 0.31702417 1.1706935 -0.50065035 1.0371921 0.8459975 0.07353734 0.15312937 2.155109 -0.04559501 0.53046936 -0.44818568 0.8303684 0.78614813 -1.1617482 0.5539949 0.19334513 0.746107 -1.0566901 1.1570556 -0.5537336 -0.47193405
972 0.27008876 1.185004 0.055634882 0.16910398 1.1600713 -0.55385804 0.5887839 -1.037499 0.4867403 0.6392833 -0.06684842 0.48158926 -1.0059055 0.6300939 0.43980375 -0.5219868 0.5378087 -0.4461966 -0.5929118 1.5992111 -0.39791718 -0.18109338 0.7476736 -0.617439 0.6461825 0.32923576 0.19958788 0.09499742 -0.6260258 0.82274467 -0.062494036 -0.24524592 -0.0907567 -0.16590479 0.4048704 -1.0202696 -1.0093004 0.7268063 -0.81973386 -1.003035 0.14119746 0.73566586 0.32969475 0.23748046 0.4973761 0.5184452 0.1286311 -0.83749014 -0.81176007 0.69359237 1.0698997 0.94251776 0.7078792 -1.2467142 -0.034244295 1.0141176 -0.7427413 -0.90212536 0.42480305 1.2424768 0.086469166 1.2905438 -1.1634402 -1.2470222
4164 -0.29057077 0.6314387 -0.039072435 0.6132548 0.014652722 -0.09387355 1.3155708 0.17362583 -0.27090943 0.98895556 0.05133148 0.92518634 -0.11384363 0.8214634 0.47969493 -1.0776241 0.7956563 -0.76094395 -0.52429926 1.8517753 0.0039440608 -0.87276924 0.78868884 -0.04087595 -0.05391562 -0.55729216 0.75226605 0.27788654 0.21657234 0.23624103 0.3526677 1.0204037 -1.2143975 0.9771555 0.40251622 -0.11978595 -0.3890146 -0.6182927 0.00667375 0.8905489 0.7596659 -0.55318093 -0.115551546 -0.92520475 0.52859145 -1.1672467 -0.8031135 -0.8584528 -0.6615881 1.2553239 0.32296187 1.2999172 1.3729643 -0.60359275 1.2732244 0.6681124 -0.45895484 0.8326843 -0.06447925 0.4305417 0.49553248 0.27352455 1.1196133 -1.2783848
2804 0.42183948 0.9084 0.7625469 1.2274562 1.0080888 -0.50018775 -0.5380757 -0.3206189 1.3668568 0.290614 -0.41109622 1.8002102 -1.1324307 0.09149225 -0.13099706 -0.16910546 0.99864644 -0.9951918 -0.11426954 1.5916815 0.082584746 -0.973149 1.3422625 -1.0872618 -2.3512526 0.5772862 1.2678655 0.3022167 0.5892942 -0.16251592 -0.4922724 -0.33467805 -0.81904733 1.2724612 0.505564 0.43068212 1.1246555 -0.927508 -0.09950412 -1.0695704 0.5549235 -1.5957978 0.5911284 0.83691716 0.69768006 -0.96089196 0.80078924 0.24791624 0.122307695 0.93464583 0.62418896 0.7715785 0.26765364 -0.22817743 0.05563374 -0.2570669 -0.9119985 1.1831063 -0.017875452 -0.74579 -0.81140304 0.44694903 -0.25271827 -0.36775848
1972 0.31654733 0.06289582 0.5878225 0.36271328 1.3723825 0.13038117 -0.23916608 0.05415846 1.06784 1.1527846 -0.49043185 0.06602439 0.6212331 0.70591205 0.5410393 -1.2745782 0.9782828 -0.72491527 -0.40098804 1.4677151 -0.17275389 -0.937784 0.49863017 -0.53999114 -1.839898 -0.12417579 -0.09846833 0.23841889 -0.3392068 -0.72419596 -0.33658242 1.3745646 -1.4090647 0.9203159 -0.19693236 -0.22004677 0.62629455 0.34291664 0.40804663 -0.42440644 -0.7955046 -1.195648 0.18583916 -0.96401674 0.5020713 -0.98427284 0.39616662 -0.33382764 0.056828838 -0.16226852 1.8042707 -1.2521908 0.4297044 0.67228854 -1.1751086 -0.08370503 -0.62847924 -0.46310204 0.3121324 -0.16055411 -0.21556014 0.08913923 0.37631077 -0.5523889
2311 1.8339539 1.1810105 -0.257855 0.4512655 0.91584784 -0.43719426 -0.2722417 -1.0213468 0.5194364 0.81634504 0.21517597 0.90111774 -0.23150675 0.34363586 1.1057541 -1.0722878 -0.27738297 1.0512785 -0.1431831 1.7013856 1.4067512 -0.9943998 0.8575838 0.1664301 1.2616608 -0.4775489 0.33373994 -0.14583924 0.99809265 0.024741022 0.78392506 0.22358352 0.21745765 0.5169987 -0.841797 -0.14729214 -1.2383112 0.71868545 -1.541174 -0.5014456 0.7804104 0.3188025 -0.5269427 0.2370436 1.1624571 -1.523166 -0.19950408 0.08413995 0.8368271 0.5219571 2.5664353 0.45712486 -0.32396162 -0.681481 1.0355915 0.2282419 -0.7062234 0.79782027 0.34833652 0.40311646 -1.3311079 0.4639267 0.7964796 -1.2568643
728 -0.3033871 -0.15943006 0.1849146 0.109856375 0.8162782 -0.2481705 0.243692 -0.5872893 0.7918446 1.2829249 -0.19489744 0.81726426 -0.17626059 0.6380439 -0.2540764 -1.4550982 0.6435942 -1.1432419 -1.0664564 1.0111322 0.5553773 -0.4154693 0.50738525 -0.82606 -1.2892586 -0.64596975 0.48273307 -0.5628461 -0.4631694 -0.6021131 -0.3796156 1.1754022 -0.4696984 0.99640805 0.4799495 0.4952351 -0.3854521 1.2587563 0.6723793 0.2842841 -0.32865325 -0.7201291 0.3855089 -0.8776247 0.9880178 -0.05515848 0.8032548 -0.34398827 -1.0794612 -0.42568812 1.3668276 -0.62424934 -0.26636586 -0.63320714 -1.4421129 -0.099891365 0.15940943 -0.46890512 -0.13026784 0.34237885 -0.83284396 0.33484486 0.022940148 -0.9758254
3492 0.9797927 0.14434011 -0.43446898 0.4786003 1.0483544 -0.44495386 0.9136493 -1.1652186 0.2931857 0.56680346 0.5279417 1.1104428 -0.76224333 0.20642887 1.9005467 0.10907085 0.48885575 0.59408766 -0.50642323 0.9077669 -0.35615307 -1.2452136 1.2471085 -0.96895236 -0.093622476 -0.8377433 0.40311757 -0.9461237 -0.13098732 -0.21658036 0.34458858 -0.12858158 1.2062831 0.8453133 1.5198127 -0.3300276 -0.46953306 -0.5634055 0.42088866 -1.1894301 -0.04134724 -0.47390702 -0.5245957 -0.16327089 1.2802149 -1.5707657 -0.98704535 0.7907839 -0.051234577 0.4196756 0.3068641 0.8494394 0.59334797 -0.12998225 1.2673117 1.9287348 -0.06808018 -0.8181901 0.33590114 1.3926158 -0.9897595 0.21781243 0.8905463 -1.1188784
4912 0.693382 0.014279072 0.36159208 0.4016663 0.84146726 0.64463145 -0.41159934 1.2463139 0.3272065 0.26230812 -0.48165607 0.4937591 -1.5029751 0.8128061 0.644363 -1.6334518 0.3739047 -1.2959682 -0.63986224 0.13553113 -0.18855757 -1.9636247 0.99655443 -1.2303478 0.28706867 -0.067062974 -0.4527447 -0.056718566 -1.004218 1.0590476 -0.28484496 1.0379517 0.07116897 -0.8675851 0.93281937 -0.2672636 0.013458126 0.30040738 0.39947355 0.65764993 0.3817701 0.38090372 -0.4752457 1.120691 0.54341996 -0.67282057 -0.0063976455 -1.1309472 0.20459399 0.5172285 0.50471073 0.26908362 0.10564944 -1.5872377 0.3065951 1.5471977 0.31120256 1.1650519 0.3164845 0.9057294 -1.394379 0.05182794 0.26598153 -1.8862065
2722 0.41563946 -0.12397041 1.6037899 -0.19283625 0.3756562 -0.39842224 -0.16470578 -0.5568464 -0.049792435 0.70936996 -0.23118265 0.96791255 -0.8529451 1.4855849 -0.011560553 -0.6343365 1.0865418 -0.9339738 -0.6849538 0.7769249 0.14153996 -0.8168997 1.6678822 -0.81344396 -1.2351942 0.54011714 0.47271475 0.534436 0.50346416 0.69207954 -1.2875937 0.6745401 0.74373823 1.0984979 0.56792825 -0.31024665 -0.58504194 -0.49192473 -0.64552057 0.20489068 0.55218774 -0.86559737 0.65182745 -0.3201023 0.69462854 -1.1098208 0.3893368 0.19275658 0.02494216 -0.27792755 -0.2756837 0.0032163807 0.7631332 0.349455 0.075044245 0.17751476 -0.2120497 -0.9587011 -0.20441134 -0.71681195 -0.19185272 -0.24230699 -0.6440637 -0.28178698
4906 0.81887215 0.15981379 0.46044022 0.44288367 0.8583711 1.0546564 0.39055434 0.3914224 0.17061637 0.44249487 -0.67283225 0.7114873 -0.9944998 0.8100175 0.58633626 -1.548253 -0.24246669 -0.9398435 -0.7477018 0.08817819 0.035880033 -1.5443608 1.016827 -1.0918139 0.34359732 0.14364746 -0.6717182 0.46408996 -0.8123183 0.99310523 0.3520093 0.39855397 0.308343 -0.8495491 0.44473258 0.1507186 0.8700865 -0.26586872 0.36931306 0.7090978 0.05704001 0.45334277 -1.5077267 0.28235343 0.6065459 -1.0779796 -0.37467116 -0.97063327 0.5595815 0.44586456 0.5019572 0.47872978 0.1685435 -1.0604624 0.35110945 1.6182126 -0.5724985 0.8551446 0.64088774 0.40402415 -0.61531603 -0.023095794 0.0026914384 -1.7028342
1965 -0.04130842 -0.21183975 0.110635825 0.21434565 0.43071884 -0.6350737 0.24550608 -0.48473847 1.0231262 1.0262887 -0.49258372 1.127274 -0.03793027 0.9936255 -0.28219032 -1.1652085 0.47233728 -1.6185482 -1.1357801 1.4250726 -0.0067397985 -0.2897606 -0.14851162 -1.1320102 -1.4227145 -0.15826212 0.51348484 -1.0665267 0.0076865787 -0.43809655 0.42361224 0.93203545 -0.5212865 0.48934036 0.11799094 0.5051132 -0.1470867 0.06350403 -0.17398752 -0.22369035 -0.8114042 -0.9478256 0.3121626 -0.96611047 1.5197226 -0.5874697 0.7808109 -0.18002048 -0.44150525 -0.10436031 1.7103572 -1.3946218 -0.3269988 -0.55261207 -1.2963328 -0.22988823 0.3310318 -0.66003346 0.17093858 -0.058227636 -0.17667177 -0.23195434 -0.77575636 -1.1827914
2799 0.44056326 -0.031814102 1.1250476 0.8319469 1.5329165 0.21528134 -0.4226283 -0.76891005 0.8660169 -0.064137824 -0.600944 1.2085423 -1.244605 -0.41950625 -0.25621036 -0.33467704 0.43158796 -0.7329956 0.10773055 1.6116585 -0.6308671 -0.9895308 1.6252083 -0.8967291 -2.0222185 0.16530985 0.520032 0.73745644 0.91819715 -0.10116062 -0.49690276 0.2131962 -0.5059815 0.5930605 -0.13585667 -0.063645154 0.46139872 -0.6130557 -0.023422536 -0.21054263 0.7998906 -1.7096053 0.021321174 0.3305906 0.68285745 0.31043893 0.93880206 0.2068694 -0.13214436 0.7774011 0.5369185 0.2748958 0.60316247 0.37012967 -0.47885376 -0.079477474 -1.5218874 1.1269888 0.35602298 -0.20866188 -0.8006527 0.17190486 -0.7728067 -0.71380615
3809 -0.035835054 -0.19272055 0.3710492 0.101519085 -0.81291366 -0.60752004 1.3552734 0.34571862 -0.66943914 0.49191388 -0.4593548 0.6643466 -1.4957585 1.3246515 0.6356026 -0.15906619 0.42022124 -1.1228639 -0.0752917 1.1722089 0.25233415 -0.45809504 0.7166714 0.08026473 -0.5162247 -0.70214415 0.27688482 -0.3012544 0.20721081 -0.12173396 0.36736906 1.7016006 0.27336589 -0.54386514 0.057903126 0.48026422 -0.8908432 -0.66377914 -0.2906097 0.4815351 0.608173 -0.6850073 -0.19351499 0.66081405 0.890238 -1.3542622 -0.5555182 -1.283609 -0.6938901 1.2755495 1.5799332 0.44555393 0.49392566 0.06676475 -0.040391404 1.1351528 0.312987 -0.11506768 0.93527806 0.7798803 -0.5514092 0.017438646 0.97760427 -1.2578245
358 -0.41356787 -0.37715986 0.42903724 0.11652773 0.5655396 -0.14425476 0.62719333 -0.5701096 0.58839875 0.39803785 -0.2728231 -0.1818701 -0.85387105 0.13107893 -0.18594758 -1.1715733 0.9630805 -0.9436606 0.017375581 0.6223647 1.2078456 -0.24255303 0.7166404 -1.0917289 -0.53648037 0.16507523 0.30030146 -0.4730424 -0.02592162 -0.68996507 -0.8713582 1.3123425 0.19918913 0.55490613 -0.59122163 0.7588531 0.20814562 -0.14674549 -0.22477096 -0.55477625 0.31312817 -0.8967325 0.5159105 -1.1453912 0.85431397 -0.703291 0.46034607 -0.5981972 -0.2173119 -0.08387461 1.4285632 -1.1275187 -0.24223678 0.31385556 0.31864735 -0.22239818 -0.25909606 -0.5720109 0.31526232 -0.36441687 -0.14871143 0.004770499 -0.08064508 -0.94637066
2319 0.81487477 0.609922 0.36172643 -0.24180996 1.2055866 0.8595446 -0.37235522 -0.24518308 1.2847627 -0.19372848 -0.18293038 -0.30754116 -0.40414897 0.68399066 0.5563703 -1.309684 0.14457275 -0.44102162 0.20255129 2.194529 0.48446628 -0.99221945 0.8953948 -0.29953095 1.0647961 -0.7540509 -0.6107959 -0.7570965 0.35800853 -0.4565577 0.40128833 -0.13598591 -0.0067741056 0.407405 -0.7918627 -0.23471348 0.037100233 0.75597 -0.90505517 -0.15808909 -0.6417226 0.5164147 -0.012255251 0.92514545 0.39061013 -0.57941407 -1.2535973 1.3469373 0.9398554 -0.17644322 1.1584437 1.1724226 -0.06817087 -0.23771553 0.5335429 1.4118687 -0.8360712 0.53232914 -0.31967854 1.5684093 -1.6120058 0.7732712 0.61162186 -1.1272576
2279 0.8941988 0.5066519 0.6465265 0.09092967 0.99353004 0.6766523 -0.08653803 -0.2617789 0.07946709 -0.75943106 -0.78125644 -1.0202005 -0.58213973 0.60177684 -0.48613957 -0.4285934 0.46095276 -0.3312609 -0.2553747 1.3580503 -0.19655678 -1.861731 0.9763424 0.05438414 -0.049045824 -0.58811134 0.72241014 -1.3256212 -0.01112676 0.25584927 0.05419508 -0.22540087 0.41317603 -0.76493233 0.8291163 -0.866187 0.048167653 -0.02684288 -1.2310611 -0.30450734 -0.37731537 -0.3439292 -0.97404677 1.3400046 1.4662902 -0.39408594 0.27244273 0.8931921 -0.18576135 -0.008084379 1.5977077 1.4740291 0.6088792 -1.5423057 0.18767612 1.2016437 -0.8010717 0.4758525 -0.43240628 0.9612659 -1.5705583 0.26523474 -0.10371457 -0.6053986
723 -0.57007 0.0278999 -0.31554446 0.26661626 0.94421965 -0.6253262 -0.054922998 -0.69117385 0.56385636 1.1722058 -0.39807206 0.589394 0.33805656 0.80205494 0.12693013 -0.59734833 0.3025201 -1.3677244 -0.7514205 1.642239 0.5045141 -0.16075453 -0.25903663 -1.3229027 -1.7924346 -1.1523438 0.49073583 -0.6809414 -0.36128166 -0.81291336 -0.25413227 0.677048 -0.14881018 0.88177884 -0.4206684 0.4593233 0.013368716 0.7395332 -0.11197182 0.28466532 -0.46419066 -0.88439137 0.633515 -0.242471 0.9941759 -1.0828135 0.25261933 0.19091734 -0.4797247 -0.02705506 1.4803199 -0.62658817 0.26877338 -0.3157646 -0.979511 -0.40411994 0.014893172 -0.19247845 0.0054539903 -0.26889905 -0.7787022 -0.1390471 0.0005245768 -1.2750671
3398 0.7092967 -0.1833851 -1.0607941 0.32275403 0.9606623 -0.6582632 0.30687335 -0.5529539 0.1042254 -0.19954672 0.16846676 0.10365726 0.08869609 0.5724083 -0.084953696 -2.344447 -0.57065266 -0.6936942 -0.73177564 1.8275858 -0.35707492 -1.4789474 0.97207534 0.29581925 0.26748183 -0.50499827 0.20904508 -0.43581286 0.44211775 1.3885063 -0.6397622 -0.45343012 0.73018426 0.27131703 0.2716579 0.09538256 1.5066894 -0.5296753 -0.2505916 0.598424 0.09749421 -0.7215939 -0.059337188 1.0346186 1.4339249 -0.5663551 0.5937375 -0.5990546 -0.20813273 1.186953 0.22546354 -0.11701772 1.0625485 -0.7265488 0.31644562 0.7432928 -0.6583114 0.24917589 0.017794153 0.46636677 -0.14137964 -0.015553174 0.4988279 -0.65795016
3208 1.4398017 0.6743377 1.4127884 -0.3742904 0.55055535 -0.69027805 -0.10075598 0.20131643 -0.2671724 1.1546426 -1.0143598 0.40948537 -0.021523403 1.2469454 0.099934235 0.07533379 -0.14910324 -0.47869736 -0.44198045 1.9245028 0.34231585 -1.4684142 1.0706673 0.19350018 0.41634434 -0.07867438 0.50409514 0.1270899 -0.6849548 0.75146514 -0.043629818 -0.6928778 -0.3828888 1.1100794 0.42650798 -0.9868277 -0.07724804 -0.28318897 0.5416325 -0.8624621 0.8598898 -1.2013692 -0.40191603 0.4856947 0.44439343 -0.07147349 -0.7162665 -1.2577897 0.54970837 0.5167644 0.40675518 -0.14037973 1.3693184 0.1531824 1.2348279 0.6913385 0.24684182 -0.15694827 0.15799576 0.2713699 -0.9117018 0.04137233 -0.09292544 -0.587113
1964 -0.56266433 -0.49492118 0.2773351 0.56928986 0.45144144 -0.12749983 0.041497894 -0.60756224 0.93156564 0.8788166 -0.546927 0.77579147 -0.2714037 0.70101553 -0.35420105 -0.9989981 0.5004642 -1.5328631 -1.0695293 1.2889541 0.13741878 -0.026333477 0.6168372 -0.71516347 -1.3100626 -0.33280888 0.34091136 -1.0066397 -0.06706691 -0.5070222 -0.22022125 1.3469167 -0.49141526 0.7235892 0.19671047 0.52974653 0.11197252 0.6419956 -0.030359617 0.13796872 -0.38191685 -0.447212 0.6499211 -0.47875798 0.74448013 -1.0762384 0.607911 0.07257405 -0.39821932 0.41827497 1.9280759 -0.9515721 0.0055749235 -0.12279928 -0.9501656 -0.23276268 -0.15044552 -0.9880779 0.027661555 -0.035035145 -0.9586428 -0.7153779 0.23513633 -0.467801
4904 0.5051332 0.43620038 -0.20560664 0.47690216 -0.0046498626 0.1782548 0.020241786 0.8472412 0.33515593 0.5044716 -0.7269456 0.36189827 -0.8370216 1.1316622 1.0161586 -1.1262873 0.43462774 -1.4915473 -0.62437195 0.3135303 -0.0009422548 -1.5145411 0.08385055 -1.1759527 0.9069471 0.015622434 -0.58810574 0.35049096 -0.9832982 0.40825552 0.43876204 0.796182 0.8657371 -0.07125773 1.3145726 0.1785132 0.54687434 0.09417671 0.10180336 0.72620213 0.4294451 -0.26963323 -0.6698329 0.634239 0.6832784 -1.0600531 -0.23415777 -1.4562228 1.0524415 0.5988719 0.512871 0.9347242 -0.03025129 -0.8259756 0.73788524 0.7974468 -0.20101403 1.057823 0.32747903 0.6432393 -1.1514152 -0.15632656 0.09688653 -1.293563
2299 1.2362946 0.3306791 0.8631135 -0.03167533 1.7314603 0.5283405 -0.60926294 -0.57117224 0.099768005 0.7479448 -0.9243011 0.32790396 -0.23858818 0.77837986 1.4037642 -1.2000345 -0.048000384 -0.22886573 -0.055047352 1.9297757 0.25976026 -0.9885364 0.26232922 -0.6950099 0.21561866 -0.09600468 0.6564387 -0.8826411 0.825643 -1.1692101 -0.7299995 1.0095106 0.07844521 0.880865 -1.3119068 -0.60225314 -1.3368202 -0.22803457 -0.6376538 0.4645962 0.3691867 0.2897072 -0.90109736 0.50670594 0.31823608 -0.6127866 -0.060670566 0.3289962 1.1914691 -0.34151155 2.0674472 1.0567878 -0.81092644 0.7618728 0.4980082 -0.024170082 0.88120955 0.31176567 -0.21780132 1.9353907 -0.2867357 1.1351229 0.69413614 -1.1985441
4914 0.37391332 0.21680506 0.17335096 0.35081777 0.31878257 0.48468828 0.13908191 1.0033293 0.66798896 0.08505233 -0.8209633 0.93763065 -0.97540545 1.2799339 0.88040066 -2.2088382 -0.15374407 -1.1821722 -0.6449741 0.73403203 0.044437237 -1.6376748 0.72565234 -1.3997958 0.06329318 0.041641794 -0.29481426 0.07355558 -1.0814176 1.0548081 0.31703314 0.30331382 0.20941214 -0.4357124 0.6423042 -0.68968874 0.43872437 0.25197008 0.6994775 1.4372424 0.6434025 -0.26525724 -0.51129454 0.1112873 0.15292111 -1.2624735 -0.6335273 -1.3501809 0.99525726 1.2170609 0.73290867 0.17850676 -0.29518315 -0.7168004 0.23403952 1.550161 -0.71045953 0.9593618 0.7986532 0.69192475 -1.691355 0.019614939 -0.08823292 -1.5752707
1255 -0.5453758 0.5447762 1.0296667 0.16434133 0.9748394 -0.15238252 0.580295 0.61121875 -0.35956183 0.76010746 -0.4549529 0.49543145 -1.1934898 0.48032653 0.56512094 -0.55198723 -0.46801594 -0.80105096 0.10853764 1.1946232 0.8179103 -1.8982855 0.38568497 0.021200776 -1.1276293 -0.9844209 0.23403707 -0.062119246 -0.73962593 1.0765376 0.18200654 0.26988056 1.2072462 0.46997687 0.8125769 -0.12534554 0.061237406 -0.33872068 0.045619767 -0.14176208 -0.6956712 0.27559912 0.5069388 -0.17473382 0.60434425 -0.65449387 -0.32215276 -0.4237385 0.7322506 0.9859589 0.24366967 0.16384745 0.4745162 -1.0823265 -0.28091624 -0.0047576022 -0.5252402 0.17054413 0.3827858 0.79574484 -0.99784636 -0.80601716 -0.37022513 -1.1405836
1973 0.6128324 -0.16934016 0.64024895 0.008004454 1.3386127 0.07543702 -0.33205447 -0.1714873 0.6107969 1.5643824 -0.53757226 0.015798327 0.6398563 0.6068115 0.48675415 -1.0863394 1.3200568 -1.0300773 -0.9819928 1.5365602 -0.13785242 -1.165582 0.29156637 -0.75759363 -1.5233138 0.14811513 0.20346048 -0.30769518 -0.21429595 -0.45435324 -0.38083023 1.6208769 -0.93385905 0.9933088 -0.24581517 0.2124785 0.49630162 0.27360848 0.5235422 -0.55255896 -0.80639744 -1.4422455 0.51106507 -1.0019356 0.7495045 -0.6986671 0.35897657 -0.17797372 0.12050215 0.24830149 1.663097 -1.5022928 0.5535934 0.38519326 -1.34107 -0.25723088 -0.2403044 -0.32932314 0.03272711 -0.1268528 -0.77757275 0.0436815 0.6152517 -0.45192137
3304 0.024549844 -0.19571738 0.3227261 -0.103963226 0.71272534 -0.8623226 -0.15410057 0.4301529 -0.07434294 1.0723017 -0.16494559 0.10248707 -1.1150951 0.16907339 1.0154449 -0.2372887 0.05402465 -0.8742631 -0.77032155 1.6846694 0.92395204 -1.831354 0.4161079 -0.14713703 -0.63419443 0.3643098 0.42329496 -0.53745276 -0.0403473 1.2114435 0.510203 0.22143674 0.15959515 1.2847703 0.22461632 -1.1378921 0.037950713 -0.34450334 -0.5824511 0.032163586 -0.21857597 -0.7360456 -1.2201413 0.32105562 1.3739847 -0.30253753 0.08355475 -1.3669136 -0.57279867 -0.0047998885 0.68834066 0.65827477 0.61049753 -1.1537381 0.0750423 0.26730818 0.08897808 -0.08829516 0.083420545 0.05157012 -0.17860845 0.6303078 1.3255543 -0.73417944
909 0.050368365 0.2682278 0.07115427 -0.15864365 1.0602138 -0.563887 0.22579783 -0.029981771 0.4454949 0.12988544 -0.15118629 -0.19748738 -0.6484731 1.6252928 0.16485794 -0.19517568 0.35887066 0.12088849 -0.12601161 0.8957937 -0.44379327 -0.8176317 1.312502 0.40570697 -0.17014016 0.022496093 0.6986511 -0.06798892 -0.10923785 0.89190924 0.047348045 -0.2934593 -0.08200406 0.042735156 -0.09827904 0.77103454 0.008223674 -0.31208742 -0.7568974 -0.44031814 -0.4683047 0.30760217 0.26943237 -0.33006686 0.78536457 0.49322572 0.5753522 -0.50228035 -0.63721466 1.1731563 0.757605 0.32174134 0.6223059 -0.27170637 1.2491964 -0.22456023 -0.4259891 -0.6815328 0.79690737 0.926116 -0.04870816 1.3006988 -0.57134837 -0.623023
359 -0.35430828 0.16763462 0.20998429 -0.18391737 0.0290604 0.09208977 -0.19396001 -0.551736 0.5507626 0.24197686 -0.044107746 -0.08120327 -0.3610126 -0.24205144 -0.17079079 -0.9221648 0.2302329 -1.050392 -0.54246193 0.36542118 0.68623406 -0.14971428 0.98374444 -0.9742528 -0.9740761 -0.32135117 1.0130614 -0.36877063 0.009862239 -0.88167673 -0.91744965 1.5763494 0.4724053 1.0414461 0.29009837 0.13670759 0.44351137 -0.384448 -0.3709833 -0.3726974 -0.104102865 -1.0945468 0.030495735 -1.2383387 1.0269823 -0.532823 0.6381238 -1.2000608 0.25415322 0.2969047 1.4169023 -1.3419216 0.363687 -0.2025854 0.021393657 0.13251273 0.038179986 -0.7034198 0.5509704 -0.3540541 -0.11576043 0.15674037 0.43636352 -0.75391495
3410 0.082271226 -0.008194516 -0.39638606 -0.06886475 0.44734684 0.31034783 -0.43665668 -1.7873427 0.5745182 0.30534363 0.2158911 1.0984651 -0.26537132 0.64669764 0.57747716 -2.0644872 -0.40208876 -0.72982216 -1.4281043 1.9508975 -0.49277598 -1.1609682 0.24137464 0.50029916 -0.38418666 -0.35007036 0.3720201 -0.16335447 -0.34913594 1.0406933 -0.28421357 -0.22351325 0.19647719 -0.88454336 1.4501557 -0.76660466 0.87689805 -0.49789524 -0.022747012 -0.29718918 -0.055713546 -0.9411394 -0.76568276 1.2639773 0.93064374 -0.8560836 -0.5968491 -0.23179175 0.06847535 0.08767312 0.061815616 0.47150627 0.41252342 -1.2830129 0.43614113 0.62702906 -0.07501124 0.90548074 0.43926647 0.45915943 -0.5675109 0.79899955 -0.2716075 -0.88977194
2649 1.3228843 0.6245756 1.0067745 -0.48090252 0.5783876 0.25158575 -0.02310451 -1.4281226 0.90796244 -0.39743927 -1.4397805 -0.2507198 -1.1702048 2.0157428 -1.0098226 -0.10877591 0.8380436 -0.58228505 -0.1947622 1.273398 0.9585562 -1.7182226 1.4434514 -0.15442856 0.022968106 -1.0243672 1.2019126 0.18599254 -0.4878206 -0.03765968 0.45277482 -0.14090505 -0.31645873 0.20768693 0.06148926 -0.47019467 -1.1055576 0.0101861 -1.3273307 -0.44060427 -0.23965515 -0.47090757 -0.69037 1.1325848 0.75864786 -0.09148337 -0.7588501 0.107594885 0.16540702 0.5080375 1.4825869 1.3360584 0.52255744 -1.4075755 -0.31287423 0.9625839 -1.0385283 0.57220376 -0.58370274 1.3668123 -1.4869206 0.8889836 0.45573956 -0.58736676
365 0.45657465 0.047328573 0.70067245 0.13480012 0.40836266 -0.19074222 -0.12889099 -0.42414287 0.13759717 0.9873842 -0.07883501 0.7797635 -1.3800184 0.65658796 -0.03670424 -0.20420252 0.36676538 -0.40900218 -0.2548639 0.89816564 -0.11282835 -0.20544998 0.7717245 -0.7664861 -1.1687577 -0.18640032 0.94905543 -0.6314411 -0.14051646 -1.2454911 -0.70547706 1.2887087 0.364975 0.9210447 0.07361296 0.8554528 -0.012190151 0.27626553 -0.096665464 -0.3768733 0.44091895 -0.6647089 0.085250296 -1.3814651 0.17246972 -0.8219893 0.94695145 -0.65012854 -0.52328795 0.42820188 0.8460566 -1.6280422 -0.24885954 0.009617404 0.2936727 -0.4078454 -0.64927214 -0.018689834 0.23883374 -0.12424392 -0.08506441 -0.21044216 0.4329328 -2.045593
3612 0.13984612 0.041697692 1.3117067 0.3128074 0.8228329 -0.5639615 -1.5775793 0.14609823 0.80527866 0.9299922 -1.1949209 -0.6158353 0.18995951 0.7921725 0.25377214 0.4405245 0.48366395 0.037231382 -0.85978156 1.3241162 1.6162593 -0.9841478 0.97279304 -0.06889453 0.17212455 -1.0442718 -1.0348408 0.6220283 -0.3201612 -1.0260338 0.10609833 -0.40352458 -0.062142532 0.7011491 0.31243935 0.91039306 0.19688202 -0.37037265 -0.9182861 0.3281141 0.088618875 -0.8791986 0.61107415 -0.13316628 0.95257336 -1.4465883 0.3541302 0.10291937 0.4112375 0.9597217 0.90302896 -0.74905545 0.0478684 -0.23216489 0.019120323 1.3429341 0.28966242 0.78284055 1.0258679 1.7893395 0.216313 -0.3269353 -0.6694845 -0.77963376
4913 0.29410398 0.30415353 0.033711262 0.24567592 0.40428367 0.8390449 -0.11965549 1.1218967 0.6348065 0.109246366 -0.7308848 0.78512603 -0.8077445 1.3921103 0.71895164 -2.1507702 -0.087381914 -1.3402482 -0.7271738 0.85811216 -0.02224408 -1.4575571 0.82001823 -1.3948715 -0.028132379 -0.009422081 -0.33109736 -0.026440343 -1.0371096 1.0073584 0.4026541 0.28921992 0.20913456 -0.45657468 0.7278844 -0.55948526 0.30831626 0.20679888 0.68376917 1.2571958 0.69094926 -0.11918073 -0.5047852 0.22824056 0.24530348 -1.4144996 -0.49192253 -1.154445 0.9258952 1.1324457 0.8657312 0.19842687 -0.29056743 -0.7515186 0.16502635 1.2450205 -0.6907927 1.0682403 0.71523213 0.7952945 -1.495976 -0.13387707 -0.09851131 -1.6786499
3402 0.7498359 -0.49687526 -0.18499668 -0.094917655 0.22546536 -0.07100673 0.23787007 -1.2118982 0.14467563 0.33289298 0.15006362 0.6296051 -0.0015309671 1.1009227 0.12237388 -2.4384956 -0.3684265 -0.93329954 -1.5581416 1.8219323 -0.3594436 -1.2792984 -0.046296567 0.4549843 -0.3576786 -0.23890232 -0.06034731 -0.1569539 0.18161581 0.8946695 -0.30816796 -0.609143 0.15380257 -0.75521666 1.2222162 -0.498173 0.41110405 -0.4813877 -0.5286426 -0.035228897 0.19850422 -0.8875329 -0.37951824 1.3954805 1.0798616 -0.5566738 -0.49984908 -0.36183843 0.5065308 0.71665 0.07107189 0.0391606 0.5264593 -0.76063854 0.16656512 0.9841718 -0.34417146 0.52458155 0.39799482 0.6618303 -0.32059893 0.42654163 -0.41752657 -1.0942377
2341 1.0433367 -0.5202244 0.9837295 -0.3196595 0.666694 0.6265938 -0.38058951 -1.0322089 0.5725293 -0.3382733 -1.4720231 0.32396597 -0.217752 0.4346031 -0.11475965 -1.2111892 1.1005539 -1.2247459 -0.04105911 2.3476965 0.61147434 -1.6625888 0.8711624 -0.41690543 0.97899574 -1.3095047 -0.007889005 -1.0034624 -0.093368694 -0.9095466 0.4113292 0.19921796 -0.026518581 -0.48551568 1.0553002 -0.031347398 -0.13682613 -0.25307834 -0.7078126 -0.62762487 0.5115045 -1.4343444 -0.88947046 1.2593805 0.5204639 -0.6394056 -0.14024171 1.0592579 1.0048314 0.38229227 1.4925998 0.7654143 -0.5742878 -1.5525653 -0.29214704 1.7364283 -0.80803674 1.1299258 -0.24475506 1.0334842 -0.6883282 0.22739594 0.78022397 -0.5288469
3103 0.25865218 -0.44125056 0.79679286 0.58646244 0.86421764 -0.19336334 -0.23727673 0.031632286 -0.64903814 1.2434874 -0.060653377 0.28757516 -0.84843916 0.35994095 -0.25504088 -0.64072496 0.46188676 -0.7510672 -0.854084 1.0667909 -0.17374939 0.1125273 0.9177087 -1.0147716 0.69321513 0.11364968 0.027678335 -0.43607125 -0.22369991 0.26271662 -0.7458262 -0.022901528 0.9403525 1.4684279 -0.7120685 -0.84091246 0.37567475 -0.662953 -0.21909092 0.11770165 0.30234262 -1.4282771 -0.27790058 0.6483379 0.22919829 -0.7520202 -0.63516253 -0.8283037 0.15348817 0.0834313 0.2764166 0.027152367 1.3394996 -0.88348496 0.03630198 0.59609896 -0.44738984 0.15580298 0.815922 0.94953716 -0.90299493 1.5258576 0.69704497 -1.2506697
4390 1.0421633 0.53354305 -0.45822218 -0.12619747 0.15356144 0.91403943 0.24105497 -0.75918025 0.39401874 1.6843891 -0.18622617 0.34527332 -0.38516894 0.5727213 0.45352912 0.1619199 0.27374682 -0.6521834 0.99584913 1.7659752 -0.32327712 -0.6725807 0.6777646 -0.9074535 -0.44623113 -0.24635069 -0.44580656 -0.70234483 -0.2110075 1.233155 0.12501688 0.9282087 -0.0062714787 -0.17849153 0.49748373 -0.5801523 0.5947643 0.28088802 0.8851027 0.34677243 0.7342136 -0.5174013 0.8545863 -0.27985656 0.24514577 -0.70602614 0.17922463 -0.15597364 0.50646955 0.1434176 0.81532097 0.45982608 -0.13941425 0.1621322 0.5702539 0.48990837 0.111943044 0.29656896 0.06457086 0.43061674 0.21160698 0.36434758 0.39104274 0.012232001
363 -0.10065333 -0.028358579 0.6787154 -0.035064604 0.6109439 -0.103894666 0.38390008 -0.24542673 -0.36318102 1.2718071 -0.034139503 0.28177 -0.7190195 0.41423965 0.1899441 -0.995072 0.7499586 -0.6669343 -0.644975 0.9198641 -0.0058898176 0.0064937626 0.40814313 -0.617718 -0.46868354 -0.06517694 0.8948613 0.010945599 -0.3864582 -1.032641 -0.89817905 0.9050253 -0.23629533 0.898122 -0.1757474 0.16400112 -0.5778705 -0.026796298 -0.619021 0.037431948 -0.12774 -0.86585075 0.8112563 -1.1567498 0.86901027 -0.6899187 0.9198625 -0.73551524 -0.08395967 0.4619087 1.4019285 -1.2405232 0.009002041 0.3231456 0.20145221 -0.49592617 0.007095991 -0.12651207 0.35790497 -0.23166472 0.012666862 -0.3134205 0.19259328 -0.06351253
2296 0.99697465 0.35783207 0.8727976 0.14020112 1.3507073 0.6985985 -0.00052115833 -0.45660815 0.6502252 0.27679262 -0.25696656 -0.50443286 -0.55041146 0.053666644 0.112673074 -1.0436686 0.19939339 0.3248246 -0.00023756754 2.4722557 0.29874074 -1.0144509 1.5724452 -0.42493752 0.35993212 -0.845847 -0.04672527 -0.8521047 0.75811774 -0.75384885 -0.023147846 0.033548605 -0.35578513 -0.8199305 0.21960312 -0.5198762 -0.019337345 0.49155483 -0.46408945 -0.7516378 0.08150061 1.2310655 -0.9310249 0.9268756 0.2861122 -0.5712555 -1.0775363 0.31811792 0.27571067 0.37551993 1.5667201 1.3050545 0.5191832 -0.79075617 0.24706545 0.7248762 -0.40273562 1.3113583 0.43141586 1.010401 -0.8131161 0.015322627 0.24889725 -0.6715512
2322 0.9882559 0.6514003 0.2684018 -0.13850518 1.6701227 1.5549 -0.9385265 -0.1791037 0.03586005 -0.46361697 0.64606875 -0.60125065 -0.18345639 0.4696725 0.30154613 -1.8697232 -0.017375927 0.7981719 -0.43633637 2.3630266 0.49373418 -1.7301197 1.2367439 -0.80009687 0.39103603 -1.161443 0.76334447 -0.24492508 0.6312797 -0.55358666 0.27860788 0.49322936 0.1472406 -0.018725738 0.14500472 -0.56534636 -0.4400624 0.42243928 -1.1462448 0.17073308 0.3640172 0.7148309 -0.024775162 0.1054734 0.7611634 -0.7951493 -0.6497316 0.075902484 1.3372744 -0.9625881 1.3639969 0.6774683 0.5547851 -0.34522888 0.071025126 0.7890926 -0.29122588 0.6564917 0.4225485 1.8676265 -0.7541201 -0.31037802 0.35376158 -0.24465828
3491 0.2829625 0.23335694 -0.17222044 -0.11864375 1.0183307 -0.5634476 0.93103534 -0.90093046 -0.15796888 0.19717821 -0.23193881 1.090023 -1.1186733 0.18924503 1.6330398 -0.41000986 0.4923173 0.54549766 -0.582135 0.93201363 -0.07034219 -0.7339471 1.0033463 -0.896297 0.5260569 -0.612514 0.86457944 -0.74385077 -0.27904153 0.1098537 -0.4129269 -0.012123718 0.58314824 0.513286 1.8334488 -0.613204 0.7314183 -0.6701766 -0.08765138 -0.56685185 -0.40398613 -0.4552593 0.22229683 -0.2517883 0.88198876 -1.0654988 -1.3012209 0.91305196 0.4219205 0.13335238 0.5007564 0.55864763 0.56415206 -0.105404094 0.7407519 1.4961593 -0.23390149 -0.37625062 0.6875342 1.0414983 -1.8466182 0.592351 0.6008577 -0.8375534
2648 1.2069417 0.6191367 0.75956416 -0.44287413 0.5492656 0.17142963 -0.030677171 -1.3616109 0.8394503 -0.4148363 -1.4058434 -0.08224533 -1.1028764 1.8441206 -1.0383456 -0.12553532 0.7036049 -0.40212205 -0.0764153 1.2717465 0.931019 -1.6024171 1.3280475 -0.11373998 -0.031562693 -0.93874747 1.0892521 0.19430004 -0.35796425 -0.0974358 0.38573775 -0.09304381 -0.27973697 0.18859597 -0.051114563 -0.46861 -0.9719805 0.05488413 -1.1787304 -0.516274 -0.26965562 -0.45155627 -0.5644631 0.9596567 0.633188 -0.138581 -0.70869344 0.034538876 0.12765408 0.5404478 1.3927479 1.1901073 0.33572227 -1.329466 -0.3454891 0.8249959 -0.8966956 0.590101 -0.53253067 1.1591868 -1.3948821 0.9152524 0.5190077 -0.49112377
2780 0.41703397 -0.22000003 0.7334467 0.8112119 1.0529147 0.29835537 0.3206281 -0.4771999 0.9755413 -0.22780707 -0.7644647 0.96916175 -1.03162 0.46778342 -0.19060396 -0.07581145 -0.03624626 -1.4613805 -0.69136703 0.51694757 0.40786722 0.11800987 1.2108605 -1.4404612 -0.61765915 -0.2705172 0.8802651 0.0418349 0.5563789 0.3696732 -0.4812784 0.5366462 -0.13852154 0.380637 0.3604697 0.01258973 0.42833346 -0.64458185 -0.26954606 0.2005429 -0.23553632 -1.4714293 -0.4561214 -0.11862691 1.3430463 0.12488873 -0.091667235 0.35589325 -0.06938745 0.9081618 0.38010463 1.7105532 0.4898369 -0.5185649 0.71516836 0.40041432 0.16960865 0.5169849 -0.53136593 0.3574496 -0.8502939 0.020674102 -0.8882599 -0.13294187
4847 0.5328618 -0.22354908 0.173933 1.4645014 1.3139348 -0.32694262 -0.08868613 -0.7310035 1.442733 1.0097523 -0.58371085 0.71988636 -0.93302095 1.4971409 0.33994278 -0.5907473 0.8034908 -1.4774479 -0.52800566 0.71238196 -0.14878489 -0.450822 1.0483352 0.36315063 -1.1220208 0.57069856 0.28571618 0.75026137 0.38485885 0.63006175 -1.2923179 -0.067520015 -0.28335536 1.2070833 0.83930904 -1.2427187 -0.4536457 -0.28027683 -0.04823263 -0.32954913 1.1939719 -0.103440955 0.53024805 -0.7673789 0.4435073 -0.9773127 1.3740973 -0.44309956 0.79419285 -0.10060857 0.82787967 -0.4455768 1.2745225 0.44714972 0.12046423 0.71591383 -0.8172595 -0.08174714 0.024313034 -0.84561783 -0.0006960697 0.22149058 -0.64821184 -0.5580035
2298 0.35255376 0.43863028 0.7822369 -0.45577618 1.6858813 0.3501507 -0.4529679 0.20600118 -0.42472896 0.8235726 -0.60711676 0.096048325 -0.00691946 0.98178756 1.2970177 -1.4751763 0.61296225 0.030552963 -0.43101525 2.4033673 0.8894572 -1.2944043 0.04971379 -0.5562017 0.25890532 -0.45740592 0.18426609 0.21417148 0.40147164 -1.1577222 0.232435 0.5571216 -0.5715006 0.86821324 -0.7107598 -0.732497 -1.1119303 0.033286676 -1.0407213 0.5279618 0.20904851 0.11549649 -0.9317793 0.044621427 0.94507307 -0.4821749 -0.48848787 0.33635032 0.58306855 -0.5984351 2.0454745 1.1804625 -0.7508838 0.5525066 0.37089273 0.52514833 0.6422497 0.6630932 -0.6107975 1.2962656 0.42751512 0.9910857 0.16769998 -0.91289353
360 0.061916076 -0.30293873 0.53673863 0.4519831 0.5097657 0.008431794 -0.22937536 -0.59619296 0.13786866 -0.053515032 0.26385775 -0.16100532 -0.5900208 0.23661451 -0.17910379 -0.9273562 0.43299967 -0.74282384 -0.95253074 -0.0114629865 0.6417501 -0.2619385 0.9674998 -0.5858616 -0.8452122 -0.34353825 1.3563358 -0.48954824 -0.07393332 -0.9070674 -1.2912791 1.2266845 0.093535215 0.49474564 -0.1536798 0.37326476 -0.05080762 -0.5893765 0.13875696 -0.35051513 -0.604152 -1.1679406 -0.23867592 -1.2674898 0.9788613 -0.9534809 0.40760374 -0.5465086 0.35975322 -0.11582899 1.9540563 -0.8652163 0.17383246 -0.27581495 -0.014220296 0.24084496 0.24010469 -0.46113452 0.41324982 -0.38787198 0.14185335 -0.2497988 0.35598636 -1.0866185
975 0.010809622 2.002147 0.6075405 -0.3850769 0.78433955 -0.28434545 0.2136517 -0.99180865 0.06981107 0.9118393 0.29814437 0.7131802 -0.8653347 0.8858081 0.2360241 -0.31553763 -0.10461988 -1.039976 0.036819164 1.3655397 0.092994474 0.057622053 0.9728248 -0.6305712 0.33339483 0.035276137 0.82503134 0.17065744 -0.5964711 1.2731644 0.09575795 -0.1861647 0.5447166 0.19237116 0.04868492 -0.33284104 -0.07246777 0.30662423 -1.1550212 -1.5005691 -0.18439028 0.36938155 0.0035017014 0.19467108 1.0804434 0.27795193 0.6043079 -0.8946403 -0.500174 1.2435812 0.3276956 -0.2846488 0.20738088 -0.55270594 -0.582815 0.76757115 -0.58233774 -1.1181937 0.62781584 0.9707711 -0.7030009 1.2940936 -1.2571203 -0.62303275
3127 0.08782958 -0.3748878 0.05526345 1.2620384 0.90515095 -0.85555816 0.1280816 -0.25898263 -0.8646904 1.2486633 -0.69555706 0.28268307 -1.149034 1.2257844 0.15500173 -0.6104497 0.9922651 -0.56367207 -0.38282523 1.180691 1.0481011 -0.7115773 -0.097611606 -0.1091073 -0.05344408 0.17319669 -0.1388245 0.23794797 -0.8107072 0.9058931 -0.42623407 0.5770566 -0.12036798 0.52276444 0.39229393 -0.13256007 -0.16945526 -0.09193518 -0.05814873 -0.5463174 -0.01681635 -0.40450102 -0.6195062 0.071847625 0.921732 -1.0918554 0.06452114 -0.8831563 0.55929726 0.7668441 0.122724324 -0.7174707 -0.21008648 0.007884632 0.5266828 0.06745482 0.3550339 0.15360427 0.5896887 0.866646 0.07470402 -0.27729064 1.3326002 -1.0281188
1182 -0.44846064 0.34523028 1.0254797 0.44524825 -0.16241935 -0.021626057 -0.07638359 -0.174685 -0.46191302 0.9759273 1.1136359 0.7953554 -0.18042672 0.55208087 0.466781 -1.5385859 -0.07448381 -0.21594608 -0.39248836 0.71395826 -0.06965354 -0.506931 0.48911896 0.2823874 -0.2038919 0.4653242 -0.013795771 0.041949257 -1.2320931 1.1376507 -0.12235037 1.0607306 0.19769235 -0.06468468 0.063586056 0.7994238 0.581576 -0.623339 -0.095014855 0.7180049 -0.26782933 -0.7560964 0.20065126 -0.09120362 0.58123636 -0.44364324 -0.13691004 -0.5618618 -0.9539887 0.64061064 -0.07930697 -0.2823198 0.102757335 -0.7262163 0.18721016 0.088302486 0.20366022 0.013515145 0.36785236 1.1957345 -0.24614102 -0.25576064 0.12021805 -1.0543274
2340 1.1077603 0.0365159 0.38146216 -0.046138886 1.1133536 1.26769 0.307503 -0.16882096 0.19788204 -1.1291814 -1.3340856 0.39617106 -0.73313135 0.15135911 -0.2602623 -1.773445 0.20079751 -0.75822073 0.5361451 1.8077531 1.1180059 -1.6163572 1.3153487 -0.44925457 0.79289377 -0.5622036 0.32805783 -0.42926833 -0.13022727 0.15594281 0.29524717 0.96201277 0.29277113 -0.45466515 0.9796593 -0.64134055 0.0030340496 0.07970573 -0.930093 -0.85104257 0.6722402 -1.3419363 0.0867795 1.1259065 0.30067426 0.055035986 0.106787 0.744565 0.87644494 0.09953173 1.1412632 0.8438073 -0.05784684 -1.3782121 -1.1041803 1.3807186 -0.74753124 1.0031353 -0.17187294 0.52114975 -1.6851048 0.63093615 0.738808 -1.0451646
3424 1.6045237 -0.5054681 0.06680795 0.34638247 0.40818614 -0.7452002 -0.009471509 -0.04143597 -0.9620144 0.4530478 -1.6912721 0.2543968 -0.78210795 0.8757102 0.18312907 -0.63493437 0.85113 -0.26805943 -0.110163495 1.1804594 0.89900994 -0.31358805 -0.076080605 -1.0059849 -1.0418371 -0.86766756 0.049277037 0.34756696 -0.18634765 0.90816927 -0.83940786 0.5910365 -0.1988871 0.65155876 0.94103265 -0.63098305 -0.10735778 -0.3773439 -0.62053585 0.21116295 -0.0026379055 -0.7958512 -0.6652401 0.32609603 1.2146775 -0.97353613 0.087419145 -0.5363131 0.41300452 0.5948613 1.158284 -0.27583674 -0.6839599 0.4538346 0.19618787 -0.52213156 0.7165087 0.72304493 1.6088635 0.78162235 -0.60156214 -0.3905203 1.1373457 -1.2441894
2590 0.45372432 0.4229763 0.94964516 0.2722533 1.3708533 -1.4440824 0.70666146 -0.41894037 0.816467 0.5185329 0.24814475 0.6599681 -0.62351316 1.2240522 -0.65968585 0.46126166 -0.1462026 -1.6683495 -0.3795622 0.671533 0.17545485 -0.34963715 -0.034965154 -1.535038 -1.2212312 0.32685015 0.46758723 0.017634511 -0.81758076 0.581167 -0.5520801 0.7992072 -0.10184193 0.8130022 -1.1538436 -0.22564246 -0.064440645 1.1450179 -0.19593374 0.7461761 -0.6577533 -0.53733057 -1.3622693 0.63249975 0.27011403 -0.35329813 0.55666184 -0.2877557 0.9111668 0.14496765 1.2976246 -0.27273738 0.3508685 0.03892412 0.021966064 0.65017664 -0.0532276 -0.25751176 -0.75925916 0.3778425 -1.6493875 0.46252942 -0.24681835 0.33259156
378 0.03401198 0.2871828 0.6889805 -0.16184223 1.3462662 0.05211563 -0.11932748 -0.3474085 0.34112057 1.5698302 0.91428995 0.9113639 -1.3694252 1.7774013 -0.1019566 -1.1615055 0.29600394 -0.35420245 0.012451567 1.1504403 -0.4642048 0.3921662 0.48488867 -0.22283025 -0.971846 -0.8050556 0.6031409 -0.6584735 -0.050684843 -0.7490857 -0.51916194 0.81134063 -0.8723001 1.2410496 -0.45871928 0.46146652 0.23653072 -0.22350186 -0.7068962 -0.53458554 0.0072566518 -1.7143856 -0.24962085 -0.8681937 0.24597973 -0.5726201 0.87083834 -1.2285726 -0.15274183 -0.28638887 0.78381866 -0.63659984 -0.44720447 0.59299695 0.49204847 -0.5245063 -0.13945557 -0.68337667 0.79180324 0.1759083 0.094665475 -0.51624405 0.20568374 -0.05880052
4723 0.0142124435 -0.120844714 0.82462907 0.26209745 0.30971766 0.26881385 0.38764843 0.022954006 0.035186112 0.7293617 -0.68658894 0.13494147 -0.7598347 0.9944037 0.29568565 -0.3058758 0.67836124 -0.7348281 -0.37974742 1.520446 -0.19518544 -0.36572003 0.89811635 0.57619655 -1.0971849 -0.7894805 0.64809847 0.08652199 0.22738293 -0.2137861 0.5816573 0.84136444 -0.08429491 -0.19977123 -0.03338612 0.14416455 -0.5336056 -1.1569842 0.64093566 0.75697947 0.6818797 0.14110962 -0.8050832 0.9305362 0.9600801 -1.1775513 -1.0012038 -0.74270123 -0.5564139 0.84138894 1.1196148 -0.21497867 0.81163234 -0.70857036 0.85907114 0.8788702 0.6906075 0.61680657 1.174005 0.5737111 -0.450851 -0.117212586 0.71767724 -1.082551
2010 -0.14334247 0.46289808 -0.07088224 0.5555583 0.6656168 0.63004535 0.25332144 0.7666249 -0.6159195 0.8225599 -0.34619004 0.3565164 -0.37400654 1.0503682 0.3665088 -0.9921864 0.29176798 0.4439983 -0.9027359 1.4953985 -0.60380554 -1.7472105 0.6223761 -0.7258631 -0.7174407 -0.97478014 -1.0969872 -0.90944964 0.15289496 0.5071532 -0.4544215 1.579109 -0.6528197 0.33776462 0.06322334 -0.0039766 0.10350846 0.24947965 -1.1111642 0.56555516 -1.0145926 -0.65742034 -0.77745605 -0.1279253 1.384239 -0.9569174 -0.6829782 -1.2823125 0.21704891 1.1977849 0.96539944 0.7202042 -0.49398974 -0.8465444 0.46883047 0.28173584 0.27206397 -0.07159915 0.15308735 -0.42138848 -1.0554827 0.5584121 -0.5151441 -0.90245676
4764 -0.20222935 0.25140142 0.6942526 0.0296933 1.3598723 -0.10740273 0.4162277 -0.112726845 1.1488584 0.6335214 0.22792386 0.070326984 -0.16302434 0.02395852 1.2138952 -0.7524683 0.8104596 -0.7448211 -0.83454126 2.0116959 0.07283189 -0.16174026 -0.34832484 -0.20452765 -0.39238942 -0.8892731 -0.18678163 0.9057863 0.53796357 0.34151122 -0.27714497 0.3609747 -0.2777567 0.28599125 0.24223575 0.88253653 -0.27846122 -1.1732485 0.61472034 0.25419965 0.20704094 -0.18756863 0.40794846 -1.0818172 0.6350964 -0.63042146 0.6046787 -1.0636271 0.21437067 0.674641 1.525732 -0.92573494 -0.5726859 0.10258418 -0.08314348 1.2367334 0.05132837 0.10112509 -0.9822188 0.300863 -0.98923576 -0.3288424 -0.030988898 -1.495415
2765 0.2913728 0.05274771 1.3003964 0.6743672 0.34460357 -0.7934039 0.1082055 -0.85053784 0.7874476 0.6562133 0.20916562 0.52702796 -1.4080946 1.3457646 0.28274643 -0.6186342 0.66489744 -1.2329149 -0.4992234 0.93550235 0.26430893 -0.71053934 1.221468 0.006319841 -1.6590254 0.24847212 0.4422273 -0.18353055 -0.33762518 0.010494111 -0.92866683 -0.19930378 -0.04506722 0.68147075 -0.5623101 -0.60152817 -0.1258975 -0.122110054 0.47535005 -0.58383256 0.027869128 -0.9990108 0.6793679 -0.8180915 1.7697966 -1.1579124 0.25542697 -0.15184599 -0.037359044 -0.6864538 0.7254565 -0.39407265 1.1446602 -0.0958669 -0.39711443 0.9538225 -0.8975959 0.5130664 -0.57991266 -1.1890028 -0.09023922 0.1927338 -0.09648314 -0.30981582
2793 0.01986516 -0.0017746711 1.0902684 1.0367992 1.3259226 0.20500861 0.16123268 0.016605005 0.7730632 0.5415799 -0.24074128 0.9447479 -1.4552789 0.49093935 -0.51691794 -0.3900124 0.72429985 -0.88650686 -0.7488658 0.97926366 -0.22290061 -0.6693012 0.8455185 -1.0067693 -1.7150825 -0.053432103 0.53204215 0.5469148 0.6144458 -0.060622774 -0.6993441 0.3783582 -0.54230076 0.5010904 1.0280322 0.3380779 0.64526683 -1.0129758 -0.47920597 -0.27702305 0.32076213 -1.3487105 0.5495614 -0.087318406 0.6604351 -0.28159124 0.84906876 0.32408056 -0.36144263 0.14627121 0.18442932 0.42990005 1.0433795 0.15689115 0.07884333 0.30867186 -0.8507508 0.5431942 0.27773347 -0.41797093 -0.5431223 0.32343435 -0.6883046 0.059620373
3101 0.4284605 0.034492984 0.8949702 -0.11624923 0.87973696 -0.09475131 0.078908674 -0.28524637 -0.49103487 1.7018906 -0.05299996 0.8397156 -0.47168854 0.30305928 0.31425244 -0.6397128 0.15098237 -0.5611282 -0.74738693 0.51287866 -0.41046438 -0.35848635 0.49403423 -1.14243 0.6067703 0.32654476 -0.38552833 -0.6495598 -0.42420602 0.4815816 -0.6929902 0.03782408 0.6553136 1.3745658 -0.81862414 -0.33913553 0.98760736 -0.46268198 0.051755104 -0.29702124 -0.09489123 -0.4346541 0.14670762 0.52314967 -0.035815917 -0.41746488 -0.6917814 -0.8319282 0.4344207 -0.0128151225 0.89371496 0.42257378 1.3247122 -0.9203341 0.12507902 0.38992628 -0.32550943 0.28465387 0.99891424 0.99351317 -0.6412199 0.6950187 0.27822328 -0.7317472
351 0.5070629 -0.04125971 0.04249542 0.2684587 1.4081169 -0.018849203 -0.06653753 0.044854075 0.6142558 0.858119 0.6585144 0.59595156 -0.5873123 0.5925544 0.32374972 -1.0634184 0.6708147 -0.33343443 -0.603144 0.5278536 0.25668347 -0.18493906 0.6492741 -0.62701195 -0.76560634 -0.48546728 -0.042491697 -0.39144617 -0.5043576 -0.37695917 -0.91153795 1.1220337 -0.108066544 1.8415767 -0.5642726 0.23688307 0.040312957 0.15157817 -0.40680248 -0.028841643 -0.57892543 -1.9656855 0.1461513 -0.52912194 1.6541884 -0.48465824 0.8982735 -0.8752363 0.37842134 -0.07468482 1.0841147 -1.1672109 0.33350217 -0.21133997 0.56697565 -0.1858997 0.5274758 -0.96583813 0.17057091 0.14386849 0.28194267 -1.1303188 0.45930785 0.29525712
2696 0.3643805 -0.42325178 0.36441812 0.2368041 -0.30078316 -0.41214767 -0.15987134 0.17026496 0.41882297 0.917529 -0.66070485 0.8952326 -0.95922 1.3104969 -0.24038732 0.03225406 0.96010107 -0.94259655 0.13583426 0.8612144 -0.22031638 -0.09278315 0.8980377 -0.4513325 -1.0908985 -0.13437991 0.07176715 0.6702344 -0.58216065 -0.06811933 -1.2697664 0.15197575 -0.0042346544 1.2280933 -0.32619146 -0.5465321 0.0013224743 -0.23816936 0.15826878 -0.17015363 -0.39191326 -0.8941569 0.26933116 -0.8578567 1.3648777 -0.014816818 0.01945429 -0.4540105 -0.14986472 -0.18731943 0.08724348 -0.32993618 0.5088008 0.16629228 0.51824516 0.19669503 0.01941562 -0.70266175 0.45027348 -0.20702352 -0.4662756 -0.11407311 -0.40507782 -0.29578254
1970 0.34431213 0.18033452 0.62989765 0.22858706 1.0400872 0.38033378 -0.12486597 0.06834011 0.13777694 0.94375825 -0.445478 0.13527483 0.3195498 0.15754789 0.33843634 -1.2971178 0.83077186 -1.0534037 -0.7791525 1.6564084 0.12579067 -1.0618076 0.5236307 -0.8004467 -1.3965288 0.32818377 0.65172356 -0.31750062 -0.2860973 -0.73017806 -0.08533701 1.6746603 -0.68287176 0.8690846 -0.05923039 0.16506045 0.67020214 0.11836083 0.77509236 -0.4167296 -0.58095616 -0.8657502 0.50561345 -0.895953 0.89763546 -0.8524603 0.47164458 0.048118215 0.09438215 0.020869128 1.2559358 -1.2805604 0.6982332 0.7410519 -0.9182674 -0.30887914 -0.21210381 -0.37423897 0.09249881 -0.39404568 -1.0416 0.11660285 0.3270692 -0.6318806
2511 0.17814407 -0.61396134 0.97580737 0.5704662 0.26350918 -0.10763294 -0.41175756 -0.005725648 0.6906173 0.064762816 0.27291903 0.6211368 -1.340807 0.39603797 0.3657941 0.42212722 0.40002996 0.44220212 -0.3138346 0.9053197 0.07200617 -0.6783205 1.4755338 0.08128906 0.09909477 -0.15570547 1.0527912 -0.48797932 0.0001572891 0.50057834 -0.45224717 0.029379912 -0.36354893 0.8772409 -0.10324696 -0.17807895 0.43408734 0.05035804 -0.4169539 0.59574926 0.09457898 -0.652282 -0.26839983 -0.42106965 1.2742697 -0.8077611 0.7414666 -0.20684032 0.5782449 0.29411948 0.13319324 0.32467043 0.68470657 -0.26186883 1.2707472 0.5756347 -0.1581496 0.021302763 0.2060828 -0.39505288 -0.72704184 -0.16786115 -0.8470521 0.19315937
3066 0.018499414 -0.97635293 0.7741384 0.17627096 -0.15773481 -0.11689585 0.4028479 -0.18859246 -0.040291015 0.6420806 -0.6053645 0.49931696 -0.7638318 0.6432414 0.026810052 -0.24589838 0.19161317 -0.70206594 -0.6232368 0.83283514 0.045189966 -0.16362879 0.8706838 -0.058315173 -0.75783205 0.12281688 -0.6361849 0.009997703 -0.5151253 0.5786624 -0.22391951 -1.3136117 -0.14085099 0.61174953 -0.027577851 -0.6930949 -0.26757896 -0.31819504 0.13850792 0.48038802 0.7969833 -0.33474854 -0.049707476 -0.4962823 0.29810834 -0.123446666 -0.0123466365 -0.89903706 -0.93716323 -0.20907624 1.4196295 -0.37539217 0.68892413 -0.56676215 0.5492676 -0.07202075 0.32230732 -0.37398875 0.8782068 1.0358653 -0.023183562 -0.36398965 1.4163665 -0.29020038
3075 0.7548986 -0.024647374 0.16238101 0.27200946 0.054621775 -0.66163194 -0.06809524 -0.095263414 0.54231846 0.8438686 -0.7681613 0.50836676 -1.077535 -0.5912443 0.26988018 -0.66486514 0.22555627 -0.96864027 -1.5948185 0.87295806 0.2442744 -0.9144019 0.2408059 -0.089757495 -1.2736466 -0.49680144 -0.83387923 -0.41191706 0.17596991 0.5150264 -0.48911953 -0.04931734 -0.3423867 0.40200967 -0.03600127 -0.7500667 0.42524344 0.49843767 -0.37900084 0.4060303 -0.21826552 0.3350197 0.091702685 -0.82701784 -0.12651478 -0.80396473 0.009954281 -1.6904823 -0.5689995 0.47854587 0.7686059 -0.047402468 0.26163778 0.14535633 0.41972134 0.3100369 -0.1249396 -0.08517406 0.37977764 0.5856613 -0.09087353 -0.14691935 -0.077010155 -0.641768
973 -0.45986998 1.518052 0.54623294 -0.64986223 1.2397496 -0.5898712 0.5677485 -0.38623023 0.15950757 0.6170997 0.011168346 0.71875423 -0.8422863 0.88178265 0.5284704 -0.32861987 0.34777638 -1.193081 -0.21207319 1.9016396 0.009621957 0.19721276 0.82222074 -0.6310305 0.16625421 0.12851855 0.5211368 0.053905193 -0.09136486 1.5503228 0.7099258 0.24320409 0.6905339 0.041887645 -0.16410017 -0.20367666 0.96496534 0.5603572 -1.3824357 -1.0947406 0.63747287 0.2595738 0.101607926 0.15185417 1.1209279 0.38000885 0.20883247 -1.131181 0.13648503 1.1886767 -0.15535326 0.1723604 0.5462106 -0.9274813 -0.26279604 1.1295216 -0.5278349 -1.414617 0.48303306 1.0560201 -0.59358805 1.3527205 -1.4827898 -0.9600605
2678 0.6642594 -0.71525663 0.9949688 -0.08134215 1.8608153 -0.06453337 -0.3800632 1.0453627 0.44409174 -0.079993986 -0.11653201 1.6867875 -0.1476736 1.6525459 1.050881 0.5952889 0.6353651 -0.2145714 -0.81270516 1.1482109 0.5869663 -0.88435704 1.5184939 -0.22844844 0.08022836 -0.1393596 -0.15970951 0.111875996 -0.25404468 0.16212212 0.51750535 0.99821544 0.07422323 0.7583592 -0.055108216 0.33881864 0.76476276 0.61717516 0.7809303 -0.20782162 -0.16780142 0.33042336 -0.2883511 -0.22888379 1.1977856 -1.0000802 -0.8408822 -1.102699 -0.46934408 1.1345899 0.61766154 -0.25944713 -0.20176625 -0.36463064 1.1831642 0.5905819 -0.19860543 0.15661313 0.17530225 0.055204157 -0.4401129 -0.28934306 -0.67686003 -0.40879717
1071 0.9695792 -0.053667545 0.42637303 0.47443464 0.69458526 0.28268862 0.048955034 0.61413074 0.007555601 0.10744453 -0.01150592 0.98032594 -1.1017656 0.30347636 -0.052679345 -0.84563845 -0.43640807 -0.9652429 0.35822898 0.48523694 -0.55343467 -0.40593687 0.59489715 -0.04293787 -0.34811535 0.7374648 0.53805286 0.32667392 0.4817274 -0.089880355 -0.72896296 0.20928296 1.021667 0.8680427 0.79600304 0.7780571 0.34306747 -0.09138726 -1.4079237 0.0027693307 0.06155913 -1.543458 -0.39866072 -0.33617258 0.5457757 -0.12596053 0.6544361 -0.49202394 -0.3501161 0.6807288 0.59433395 -0.182987 0.08756602 -1.2975061 1.4000452 0.5617965 -0.044960573 0.40624014 0.74681276 0.18660282 -0.53562415 0.20403482 -0.30417332 -0.1312436
976 -0.46586078 1.4714364 0.5502854 -0.57977486 1.227093 -0.5806134 0.6773564 -0.5324825 0.12646653 0.5579584 0.013746691 0.5677117 -0.7810822 0.97734857 0.55815226 -0.34836957 0.30785254 -1.0917782 -0.20469053 2.0687587 0.12800622 0.19755886 0.68190926 -0.55572814 0.23632777 0.07922434 0.50091743 0.11451496 -0.17625174 1.3463024 0.6261149 0.32614896 0.7287659 0.02886944 -0.10692672 -0.21232538 0.85291934 0.62890923 -1.3116817 -1.2522106 0.58062565 0.22705786 0.077612355 0.0038176517 1.0069253 0.37744936 0.17331369 -1.2069904 0.13887657 0.9982855 -0.043021686 0.078155704 0.5161183 -0.8825594 -0.4260004 1.0792677 -0.5064944 -1.5664953 0.5047065 1.1687671 -0.5387901 1.3380927 -1.4135313 -1.0256106
3409 0.2890006 -0.23418671 -0.078907564 -0.053737357 0.50177586 0.23969941 -0.28271866 -1.5378004 0.30231047 0.29367116 -0.10130104 0.8856027 0.32312128 1.0829966 0.6110869 -2.188186 -0.17408521 -0.96755475 -1.3201708 1.9174343 -0.25294262 -1.2696596 0.051601253 0.8559321 -0.26408362 -0.12042181 0.30858266 -0.17950265 -0.10094086 1.1230975 -0.2463643 -0.4170242 0.38587794 -0.42961323 1.4677639 -0.9463665 0.43620715 -0.06648869 -0.113132685 -0.29645562 0.13008761 -0.9069699 -0.92793566 1.567023 0.75408953 -0.58500695 -0.44178954 -0.6202389 0.037992228 0.34743807 0.2979923 -0.008696506 0.7249702 -1.421019 0.17437477 0.796848 -0.15795648 0.9372791 0.40356135 0.38689658 -0.39014727 0.5243164 -0.56793654 -1.0822194
206 -0.2586543 0.74104375 0.6970462 0.38117796 1.3109684 -1.083935 0.5714245 -0.37636116 1.5331526 1.0138996 -0.2457198 -0.7222422 -0.49590686 0.7133685 0.38862857 -1.3803153 -0.053289417 -0.29611138 -1.127523 1.5102024 -0.68632174 -1.1850353 1.2180318 -0.49811274 -1.4515804 0.8733345 0.91304535 -0.9470242 -0.46756288 -0.39534867 -0.052374996 1.4831347 -0.2129168 1.1532377 0.25801668 0.0062324204 0.4572575 0.148192 -1.2007853 0.3029611 0.22548777 0.017240971 -0.23503527 0.06373762 0.024100775 -0.56534165 -1.435806 -0.9046454 0.33115622 0.03792288 1.3877754 -0.057219688 0.39472315 -0.39233926 0.94991606 0.4467132 0.12287713 -0.76578677 -0.6069896 1.2956264 0.088715665 0.44104037 -0.57079 -0.45102057
2766 -0.5246849 0.69648963 0.39621902 0.52130383 0.6319548 -0.5946393 -0.35696787 -1.015183 1.2399725 0.6214068 0.14555538 1.0317645 -1.1712296 1.1930146 0.102777876 -0.1285592 0.42151043 -1.4315892 -0.07819972 1.408746 0.14543685 -0.46014544 1.3753238 -0.78883916 -1.188282 0.45936862 0.16730408 0.052598037 -0.46901172 0.11932309 -0.72722566 0.602766 0.34731224 0.51275665 -0.1592366 -0.93251044 0.047600497 -0.2060907 -0.14785656 -0.27381575 0.48843217 -0.7052121 0.9100945 -0.98357576 1.7365506 -0.78987426 0.8881068 -0.6841037 0.34391448 -0.16609024 0.15524633 -0.6788596 1.388264 0.37957644 -0.77276415 0.38627803 -1.2038099 -0.002881032 -0.20656256 -0.9216838 -0.6724358 0.68382657 -0.24162962 -0.113301575
979 -0.5188417 1.0274482 0.38045678 -0.65289617 1.0088284 -0.45570102 1.122448 -0.2356808 1.2379539 -0.22342688 -1.0987605 0.97640157 -0.2693283 1.0413548 0.3150148 -0.68888324 0.44269872 -0.64887625 -0.37527904 1.1845903 -0.54911566 -0.25584415 0.6825682 -0.55477434 -0.7621273 -0.40269384 0.10387429 -0.24344504 0.035237595 1.3358037 0.37320912 0.5420048 0.07313647 -0.44421607 0.08049532 -0.36655346 0.7911445 1.0940676 -1.577804 -0.64033437 0.04522599 -0.17648247 0.43379813 -0.36436474 0.11747263 0.59345055 -0.16505554 -0.035694372 -0.04002979 1.2737485 0.7304691 0.009696727 1.126246 -1.5798141 0.07094779 1.0078248 0.078801006 -0.5972434 1.4761881 1.7259887 -0.29989165 0.8367564 0.097785965 -0.52050704
1984 -0.30411026 0.21806945 0.5671951 0.59162474 0.27853414 0.16818152 0.09960779 1.0812806 -0.32235068 0.70893395 -0.9009616 0.31515566 -0.23446019 1.4104552 0.16508481 -1.2937509 0.31451404 0.2240509 -1.1726741 1.0801817 -0.8040002 -1.8834217 0.8142262 -0.660672 -0.24216601 -0.9696627 -0.9770233 -0.8448253 0.22582938 0.3318249 -0.8321176 1.3931737 -0.6229046 0.4407549 0.42231107 0.14450471 0.4083694 0.46590093 -1.0288045 -0.013320901 -0.7154111 -0.71004 -0.93085825 0.14943103 0.87561744 -0.76190627 -0.78377986 -0.80465156 0.038350284 1.1164556 0.7408412 0.85094655 -0.47242278 -0.6673627 0.503639 0.07539292 0.5198943 -0.03893666 -0.07339032 -0.17071216 -1.3424488 0.57838744 -0.22290723 -0.8879283
2284 1.0110413 0.5983535 0.6562909 -0.5429997 0.82878923 0.48182774 0.3853295 -1.1832632 0.67815834 -0.674324 -1.0890522 -0.13549161 -1.3100113 1.6922626 -0.8210603 -0.8311824 0.74503773 -0.8570674 -0.17044345 1.3190881 1.0212952 -1.6262089 1.3197625 -0.4012655 0.08064642 -0.8607338 0.64998096 -0.01718413 -0.07564865 -0.058188714 0.47193176 0.005462545 -0.03017533 0.0094176475 -0.08703143 -0.30646056 -0.8210232 0.23526987 -1.036286 -0.24975269 -0.10393721 -0.39340413 -0.58734715 1.3518677 0.65724784 -0.52851313 -0.50658244 0.47705057 0.89106536 0.42373866 1.3450061 1.0740736 0.0032509004 -1.6099365 -0.6831106 1.2833036 -0.9962426 0.6206453 -0.40459934 1.4729633 -1.1404827 0.74861294 0.39307266 -0.77344936
3111 1.3977047 -0.8483206 -0.10425401 0.06267751 0.54679495 0.078960255 0.7910393 -0.15341474 0.7958922 0.48618793 0.22098926 0.3321422 -0.008908181 -0.09290119 0.2184783 -0.3950007 -0.1027956 0.25833148 -1.0022434 0.6520791 0.657579 0.0443125 0.90265554 -0.29712278 -0.3682888 -1.2120258 0.20112702 -0.5755729 0.20586444 1.4862287 -0.20549394 0.6519573 0.6346802 0.40607297 0.5703801 -0.29720926 0.3186221 -0.48973814 -1.061936 0.23741381 -0.35747346 -0.8693281 -0.19445123 -0.6586766 0.4495475 -1.0382619 0.6758507 -0.9745972 -0.6429071 0.53627163 1.2528286 0.23380227 0.7468142 0.21080936 0.82470644 1.1291603 -0.6573864 0.73370796 1.0779386 0.8480155 -0.6523959 0.015773673 -1.0773711 -1.0652379
173 0.058215477 0.44976178 0.97384685 1.3943975 1.3871108 -0.36883125 0.9458333 0.7025973 1.2885277 0.6352371 0.16066188 0.026437134 -0.45345756 0.20391266 -0.33315933 -0.5519229 0.7455984 -0.17838378 -0.33527818 1.8077241 -0.40093198 -1.8319682 1.631632 -0.68674695 0.8118205 0.64883494 -0.12306571 -0.8808646 -0.90898657 -0.055713236 -0.7557877 1.4930733 0.36107028 0.026066115 0.24594678 -0.9638398 0.14830324 -0.9145541 -0.82986903 -0.7658361 -0.29936114 -0.37901536 -0.16464417 -0.5030413 0.31446755 -0.7678829 -0.44530013 -1.0491652 0.79237545 0.27770478 1.0212928 -0.062031396 0.4468297 -0.9760159 -0.17095546 0.13706224 0.048198596 0.59729457 -0.7077348 0.6119577 -0.4200427 0.2808654 0.05942362 -0.8982215
1802 0.5040502 -1.1594168 -0.19401829 0.15600416 0.31145254 0.20819347 0.17238994 -0.26975727 1.0727391 0.7719593 0.9028855 0.65289277 -0.6120073 0.8013274 -0.009349008 -0.8273604 0.69849247 -0.8393297 -0.17870659 -0.5872758 -0.30048817 -1.0816984 0.8756721 0.63691545 -0.020863183 0.3619697 -0.012906328 -0.013134948 0.14805183 -0.033558592 0.24876338 0.35193717 0.05812515 0.45025292 1.1194551 -0.24127851 0.85086566 0.35099155 0.12057401 0.28437978 0.5552077 -0.17155671 -0.72307426 -0.94450414 0.07411836 -0.6057455 0.7032909 0.40659195 1.3815811 -0.22741607 0.48063272 0.3338684 0.9536314 -0.45877072 0.7870139 0.89275783 -0.064847566 0.08218901 0.24322243 1.7091594 -0.20537616 0.0033892433 -0.11249105 -0.31175962
331 0.60456145 -0.05329853 0.21156777 0.64214987 1.0414466 -0.20563416 0.004565587 0.3202757 0.7706229 1.256321 0.41527227 0.31935176 -0.4830477 0.98994267 0.41984275 -1.1413224 0.6553243 -0.6065726 -0.4690486 0.38409165 0.7020934 -0.26305646 0.6491315 -0.66765857 -0.6564409 -0.562087 0.15164348 -0.2734261 -0.18396674 -0.4137475 -0.8604356 1.1525685 0.033460945 1.2439873 -0.7217263 0.059024327 0.15268473 0.12803717 -0.5781872 -0.033326082 -0.5122899 -2.0365338 0.22325635 -0.56506944 1.2193117 -0.3453971 0.93532825 -1.0504651 0.2300512 0.055449627 1.0104526 -1.0085994 0.05530398 0.19911975 0.39063886 -0.4745995 0.41848186 -0.69228065 0.42711982 0.1373164 0.034712035 -1.0904359 0.38437983 0.3018678
2109 0.59367806 -0.5488407 0.21914248 0.91962296 1.1729081 -0.16801947 0.15490714 0.40932897 0.1245048 0.61157817 -0.98638606 -0.6869853 -1.1286446 0.9061963 -0.32967803 -0.5858449 -0.42283776 -0.47119462 -0.49020627 0.9412972 0.67270076 -1.212411 0.80315334 0.020776562 0.34693393 -0.785194 1.084875 -0.33107805 0.25471947 -0.26387793 0.09670035 0.013391773 -0.120120935 -0.5175797 0.59033525 0.21119985 -0.710556 0.37857676 -1.3825186 0.24750438 0.52373934 -0.5042481 -1.1492004 0.55776834 0.9710989 -0.6344486 -0.6285695 0.36136 1.3337734 -0.5322638 1.92255 1.6942132 0.042954423 -0.5815119 0.8001255 1.1416017 -0.39262405 0.8067003 0.33214822 1.0622634 -1.6110455 0.13628082 0.88688534 -1.2972386
4370 0.07467845 0.06666806 0.7896149 0.37243614 0.24976052 0.29719815 0.5913094 0.25310323 -0.38682082 0.8149483 -1.0384946 0.05838448 -0.95116293 1.3126575 0.5617108 -0.55155414 0.5338132 -0.48250774 -0.322563 1.1107835 -0.44999135 -0.24531418 0.9263949 0.062133636 -0.9783669 -0.86961246 0.76332575 0.54541063 0.13896331 -0.21478176 0.6598395 1.1197797 -0.21085928 -0.37477815 0.37055004 0.11384667 -0.20570865 -0.97880495 0.7658405 0.4209242 0.90778625 0.019257432 -0.1967835 0.47262537 0.86162776 -1.3861943 -1.1890413 -0.43185097 -1.1189361 1.2229722 1.3090597 -0.07682215 0.8769182 -0.6628047 1.1868585 0.7185369 0.46529216 0.2692735 0.6224457 0.7172063 -0.6770482 -0.2803922 0.55644816 -1.466231
2445 0.7469396 -0.1236701 -0.04551394 -0.030339316 0.5893843 -0.18751453 0.12141929 0.640766 0.89673203 0.34486353 -0.1629911 0.14714883 -0.45028928 0.38055226 0.14770001 -0.3989529 -0.051481985 -0.23000996 0.040420998 2.3500063 0.517689 -1.4890085 0.64925784 -1.0071044 0.27459595 -1.064286 0.025392126 0.81423634 -0.472051 0.66661257 -0.76196325 -0.008759479 0.094948284 0.41649634 0.88250935 -0.15176019 0.115248546 0.35181335 -0.92354363 0.5471587 -0.40986413 -1.4505675 -0.5877887 0.39896634 -0.3746071 -0.9233416 0.12200815 -0.08959601 1.0098754 1.4058943 1.1076269 0.3381863 1.6441966 -0.7307037 -0.3023102 0.8858875 -0.96093047 -0.42027992 0.60122246 0.45302427 0.5562835 0.8249596 0.38184193 -0.58876836
2283 0.98352677 0.0075000464 0.5969226 -0.40140188 0.2699966 0.23682882 1.0934888 -1.0128535 0.17347902 -0.73003924 -1.2294941 -0.100016795 0.33853617 0.7183107 -0.13086875 -1.182572 0.5760654 -0.5885161 -0.15664928 2.1993368 1.2619021 -0.4190502 1.1808015 -0.19556105 0.19895953 -1.1907487 0.19507499 -1.0323712 0.15042078 -0.22651811 0.5753262 1.1094908 0.14960952 -0.6779564 0.09414279 -0.04947754 -0.53299093 -0.27114856 -0.50614923 -0.19390763 -0.19817391 -1.59894 -0.27854058 0.028840104 0.9639338 -0.7900507 0.07763182 0.16943245 0.82367516 0.43609253 1.7939379 0.77053344 -0.20811088 -1.2483296 -1.0837207 0.5104741 -1.9877775 0.64346945 -0.22083181 1.3936037 -1.007558 0.7085787 0.77024204 -0.9206467
3184 0.17868148 0.31573063 0.17601918 -0.489993 0.62849396 -0.45667526 1.2390102 -0.23192449 0.45036435 0.29287493 -0.32941404 0.5797128 -0.32162362 1.315665 0.6011014 -0.25867862 0.4220166 -1.6101781 -0.7175161 1.382902 0.81964654 -1.0610398 1.0987355 -0.2136523 -0.027900381 -0.04644427 -0.803312 -0.4068664 -0.35012558 0.6788464 0.47866508 -0.03238859 1.3988335 0.45191112 0.36486775 -0.14448206 0.17072372 0.098422594 -0.5926239 -0.5936862 -0.37298754 -0.1846024 0.89613974 -0.72690207 -0.110336706 0.73796564 -0.8167327 -1.3447978 0.26919934 1.0738918 0.6463589 1.1459676 0.36245915 -1.2273848 1.2788334 1.0810566 0.095249936 -0.864475 0.24059623 1.6130788 -0.3935618 0.2717498 0.43637446 0.2587313
2310 1.4491625 1.3630873 0.20147985 0.18177147 0.6606412 -0.3779985 0.017991556 -0.6785667 0.46689084 0.110741735 -0.069952674 0.9897552 0.0739267 -0.26559734 0.878075 -1.4452944 -0.23635435 0.77201897 0.13557264 1.3084646 1.0840302 -1.5776404 0.5689161 -0.3188916 1.2409898 -0.5957566 0.10864263 0.16531664 0.94150555 -0.4979362 1.0189945 0.58167475 0.38571337 0.55771893 -0.373391 -0.71824366 -1.3050939 0.5681607 -1.357255 -0.43869942 0.6466083 0.23281774 -0.76325864 0.07148618 0.48871905 -1.3360153 -0.13219364 -0.38459015 0.47737393 0.8755463 2.5223694 0.4214631 -0.51019055 -0.48815814 1.1055522 0.28552085 -0.9412959 0.58834994 0.3829334 0.53574276 -0.7952626 0.53942055 0.10136432 -1.3350761
3355 0.9357511 -0.26519495 -0.19867292 0.034932822 0.6650918 -0.15585288 0.14746082 -0.21548006 0.6979452 0.8279188 -0.48432985 0.25049293 0.13268642 0.3229351 0.32077858 -1.1870614 0.1547591 0.118591025 -1.0336782 1.087008 0.72252107 -0.78363264 1.411545 0.69911486 -0.96016425 -0.7244441 0.36188126 -0.9546911 0.06345758 0.76044554 -0.8204706 1.0987833 -0.06688378 0.89241 -0.15749082 -0.7212957 0.10246441 -0.41408485 -1.0477628 -0.08733562 -0.6081716 0.3334839 -1.0095185 0.15547378 -0.49793565 -0.95118266 -0.51328295 -0.5130553 -1.3024615 0.36303508 0.73823977 0.32399413 0.6200807 0.40895805 0.98685676 0.3325546 -0.003967509 -0.25886208 -0.2643778 1.4537714 -0.56034863 -0.4807574 -0.63222444 -1.0147175
3076 0.57769805 -0.12901714 0.21950383 0.43252772 0.28942397 -0.57306814 0.3232128 -0.48787725 0.26424867 0.5552536 -0.5551735 -0.096134625 0.2569472 -0.336602 0.8697934 -0.983123 -0.2708425 -0.09911685 0.48362154 1.5471995 0.46443692 -0.5896823 0.4195966 0.23191582 -0.35992196 0.31681105 0.6123227 -0.32804334 -0.17651309 0.74305505 -0.31636152 0.10731673 0.029507779 1.3336142 0.7681842 0.03217079 -0.1344001 1.2290716 -1.2600892 1.3430334 -0.55111444 0.45372358 -0.27432632 0.40534163 1.1642996 -0.28101504 0.39430496 -1.1303711 0.34002322 0.98181856 1.3580768 -0.35237816 0.5168417 -0.23568061 0.30465928 1.5632694 1.0683299 0.07888215 1.9028828 0.8307224 -1.5372999 0.6284352 0.52995086 -0.57206243
3175 -0.5425011 0.033452123 -0.047667027 0.5967916 0.8868467 -1.1426269 0.32015303 -0.46818954 -0.1282342 0.067350194 -0.2553402 0.29405022 0.19493526 1.6639763 -0.2548506 -0.92325974 -0.34401184 -1.0236558 0.35873923 1.5008585 0.75999624 -0.66661215 1.3509665 -0.060203124 -1.3207998 0.20203048 -0.23493879 0.42000324 -0.21001199 0.5561494 -1.3667506 0.56787235 1.0301538 0.101657994 -0.81774336 -1.1175988 0.39921272 -0.25960848 -0.3366236 0.020373361 -0.36692128 -0.57617867 0.39835897 -0.1788144 0.08607005 -0.42364708 -0.9011559 -1.0598594 -0.7631208 0.5055925 1.0263635 0.19017243 0.39759818 -0.94333476 -0.095553294 0.28348568 -0.27419978 0.09106497 1.2884517 0.9517862 -0.77579963 -0.020817244 0.4781964 -0.41816148
1075 1.4686673 0.62538743 0.5681517 0.61091346 1.0563719 0.8611438 1.0354406 1.3448737 -0.8377717 0.589675 -0.082733095 1.0023347 -0.7953737 0.16831681 -0.305206 -0.6575518 -0.15922742 -0.521069 0.75364697 1.7410568 -0.94936347 -0.6398549 -0.22847067 -0.104719505 -0.40783724 0.23793137 0.25623012 0.063916646 0.76922166 0.06853507 -0.08595123 0.6536697 0.22122082 1.4077176 0.876633 1.3066278 0.5999499 0.3349801 -1.1661464 -0.64561224 -0.37015128 -1.1800369 -0.33570006 0.069974855 0.48700002 -0.09672842 -0.19854517 0.13921212 0.12984487 0.5544586 2.4348245 0.39145058 0.58817434 -0.94229066 1.4493532 0.97629076 -0.19745462 0.5416601 1.1027652 1.6123801 -0.8960675 0.8616739 -0.46042964 -1.0193609
4846 0.19313599 0.30526683 0.11258477 1.2182763 0.9967057 -0.14376077 -0.047300138 -0.5377615 1.2892177 0.799531 -0.46003875 0.97502714 -1.0167719 1.4486684 0.40245765 -0.88289016 1.3847262 -0.85670483 -0.74987787 0.98367995 -0.14145532 -0.7162913 0.9559188 0.1372823 -1.1187102 0.28145078 0.64640456 0.61586493 0.46866974 0.6729845 -0.97349876 -0.19963892 0.18235385 1.4889902 0.6743446 -0.8538186 -0.007725825 -0.10676536 0.31316173 -0.1896276 1.5863974 -0.30721024 0.35478988 -0.714988 0.68681556 -0.76654565 1.1288769 -0.14992681 0.43845084 -0.3036308 0.7143279 -0.45111018 1.2015208 0.31634122 -0.043746416 0.360417 -0.56047857 0.2096204 0.05878861 -0.633168 0.25003546 0.27546746 -0.7304455 -0.29003558
2484 0.76900536 -0.026074909 0.62064236 -0.40774092 0.5767575 -0.8020769 0.18403651 -0.36030227 0.83064336 0.044076063 1.2233576 -0.25912482 -0.36153245 1.4198507 0.6313891 -0.8537368 0.7709718 -0.64601 0.18796293 1.4951746 0.6886312 -1.0560173 1.0699384 0.20612612 0.012134974 -0.91540474 0.2684288 -0.9253335 -0.6143716 -0.040386215 -0.33937132 -0.37667963 0.12857969 0.70506984 1.3722993 -0.43523288 0.9592331 0.88458216 -0.30111313 0.45011565 -0.79824084 0.37728325 0.38883847 -1.0607347 1.2946671 0.0663963 -0.613572 0.18976684 -0.48090136 0.6100636 -0.07496701 -0.73736346 -0.21525563 -0.4744086 0.36034334 0.32101008 -0.14124465 -0.011160364 -0.2863452 0.81587994 0.18123315 0.28224623 -0.37729895 -1.4119186
4901 0.16155058 0.5897079 0.15906255 1.2655877 0.13646267 -0.3248058 0.59538597 0.59599596 0.41294125 0.4590529 -0.074762784 0.71099406 -0.9126408 0.6177541 0.7094397 -1.7831801 0.12301026 -1.3141311 -0.47122842 0.7562528 0.08786486 -1.2903295 0.77823097 -0.95014495 0.5369799 0.03995243 -0.05877495 0.028896602 -0.5968523 0.791936 0.78048825 0.24690135 -0.4086354 -0.39060062 0.5511741 -0.6700951 0.1213176 -0.18766657 0.2558384 0.8215755 -0.17610225 -0.5227287 -0.93291044 0.54653 0.41009396 -1.4065369 0.24827924 -0.8458189 0.6748813 0.70135987 -0.15077601 -0.16307221 0.32767832 -0.8632488 0.5694037 0.5633844 0.24686924 1.1989139 0.32152787 0.7743696 -0.62459326 0.4801308 0.26881772 -1.4978796
771 0.2027976 0.8513314 -0.2228679 -0.21769762 0.70643723 -0.78661454 -0.18673097 0.62268555 -0.20732033 0.7060475 -0.49168918 -0.42115474 -0.8511642 1.4279206 -0.68413645 -0.85782045 0.7508144 -0.78358835 -0.20521446 1.1742804 0.3273016 -0.25123176 0.70313084 -0.3582795 0.3065744 0.51774216 -0.47003204 -1.1163639 -0.4435773 0.7768687 0.1206146 1.4055998 0.7410008 0.7029186 -0.3069633 -0.34988979 0.010434802 -0.560058 -0.75024945 0.05893679 -0.00994616 0.0026998592 -0.24719442 0.04954177 0.07990906 -0.058975738 -0.04174748 -0.045966506 0.8379056 0.7510174 2.4639568 0.34024224 0.3891772 0.33639848 -0.15993623 0.75646895 0.38090768 0.24006714 -0.22755262 1.2834212 -1.5719675 0.47869343 0.14324017 -0.2294683
1076 1.6024424 0.56527126 0.4784272 0.17390102 1.0913756 0.86696005 0.8657576 0.9163909 -0.3110565 0.5592011 -0.7957015 0.5876608 -0.99560356 0.704299 -0.16723512 -0.5022813 -0.5091111 -0.9148036 0.646567 1.4917141 -0.6543836 -0.7028207 -0.252826 0.3364455 -0.59802604 0.5136131 0.48997828 -0.21272172 0.7184662 0.17540264 -0.59943724 -0.09869882 0.5597662 1.1549922 0.5423354 0.797435 0.76076967 0.18988946 -0.9174693 -0.393249 -0.0025599413 -1.726482 -0.76139086 0.6877485 0.42852938 -0.68367404 1.161643 0.29702395 0.5072173 -0.017046165 1.9131032 0.1216241 0.8702466 -0.52876073 0.7984102 1.4654193 -0.70654535 0.6630512 0.23785713 0.84633 -0.947823 1.0902438 -0.13955303 -0.65118074
3423 1.5058912 -0.59873533 -0.15331523 0.5374527 0.3933685 -0.87163186 0.10890646 -0.23492469 -1.0172254 0.4660788 -1.696395 0.37642488 -0.64658266 1.0217808 0.23644616 -0.60618293 0.7406949 -0.39444235 -0.1459584 1.0070643 1.047468 -0.19641638 -0.10112662 -0.9285948 -1.0873352 -0.797558 -0.15175848 0.16385092 -0.0939133 0.9856296 -0.80984247 0.46928045 -0.17768617 0.6694565 0.97959137 -0.48951045 0.059762176 -0.20368865 -0.5997821 0.12326221 0.14578258 -0.788797 -0.60276955 0.26070312 1.154032 -1.0408599 0.05454537 -0.5444258 0.5172586 0.60014373 1.2135824 -0.30934304 -0.54512167 0.36471635 0.29417506 -0.5816918 0.6466108 0.79289955 1.3007077 0.864244 -0.77975374 -0.34835196 1.0937982 -1.200374
2274 1.4671289 0.82028675 -0.14260423 0.6721545 2.1526551 -0.327739 -0.29667586 -0.20392229 0.13158476 0.8917344 0.5150831 0.40578476 -0.47624752 0.37362158 0.8981778 -1.5106068 -0.116960585 0.6422346 -0.36426595 2.0408514 1.0002549 -0.40851578 0.75889164 -0.023931835 0.143622 -0.78381824 0.0016468639 -0.47347194 1.0550652 -0.5268904 0.898729 0.41542602 -0.012369978 0.21934862 -0.47147712 -0.17213312 -0.74216974 1.1345183 -1.0627831 -0.44257638 1.0371047 0.6407201 -0.22752818 0.05200478 1.1177553 -1.0069242 0.21992832 0.112808116 1.2136562 -0.69767344 2.3009129 0.032482848 -0.47333345 -0.0391855 0.8093947 0.47723755 -0.7243699 0.65755665 -0.34739208 0.5348704 -0.5539591 1.0336683 0.48303944 -1.0597538
362 -0.6855153 0.21236816 0.10603894 -0.0021306935 0.44047996 -0.09274742 0.38728547 -0.54884833 0.32322323 0.8588965 -0.05822741 0.3486283 -0.4151948 -0.01757258 -0.031119145 -0.49510258 0.65864146 -1.1838766 -0.28610805 0.5948056 0.16423875 0.22071944 0.9630976 -1.1416391 -1.2058116 -0.09857613 0.72886425 -0.68057615 -0.4066828 -0.5254123 -0.8208962 2.028601 0.19158593 0.7065633 0.33497205 0.15165508 -0.014937694 -0.6301704 -0.4377238 -0.19935773 -0.19395502 -0.90081656 -0.122609444 -1.5309005 0.76536286 -0.61130375 0.7271374 -0.8291456 0.12800775 -0.5276403 1.5230354 -0.7693238 -0.16342077 0.23694895 0.3761656 0.21486813 -0.3456437 -0.73783255 0.5562352 -0.50547343 -0.28421235 0.24995054 0.034163304 -0.6395091
4933 1.4016287 -0.5080406 1.1765869 0.99284613 0.43241847 0.81412053 -0.03690126 -0.29348075 -0.07319687 0.5729916 -0.8268363 0.3407412 -0.07131288 0.48919985 0.49487415 -0.9166691 0.34575492 -0.6991344 -0.6947703 0.98573726 0.56929207 -1.0308539 1.005543 -0.8185591 -0.2977958 -0.11095261 -0.05069853 -1.3968085 0.69463813 -1.2892895 0.6057675 1.4047817 1.4552739 1.0699842 0.85499305 -0.67878425 0.5697851 0.39960378 -0.8960893 -0.15411934 0.650121 -0.4893319 -0.5287755 0.5183332 1.1357143 -0.9085119 0.031693283 0.0071658473 0.30608982 0.6404295 1.5428724 -0.6134022 0.77166516 0.4839205 0.13448459 0.608308 0.22067657 0.82725435 0.79778045 0.076132156 -0.52084917 1.0439659 -0.1862558 -0.34914312
2792 0.6328237 0.24225557 1.0622573 1.0062276 1.213221 0.7353187 0.32035753 0.6233175 0.46810472 -0.062705144 -0.59420806 0.72700983 -1.7431301 0.44576448 -0.35732773 -0.15000655 -0.025599599 -1.0962613 -0.291021 1.6121341 -0.4134706 -0.6996887 0.95945126 -1.0301687 -1.4281361 0.22102562 0.37787843 -0.11555033 0.5603118 -0.57261986 -1.4133868 0.22114885 0.09211008 0.8401559 0.74097914 0.50762177 0.94300807 -0.7515516 -1.1579047 -0.30656245 -0.032700337 -1.7831837 -0.22024915 -0.44201964 0.7200783 -0.13644083 0.70852584 0.426113 -0.018102098 0.4665721 0.45175818 0.80434924 0.17101355 -0.21130629 0.6143141 0.18268731 -0.21402791 0.55695194 -0.16388461 0.23308654 -0.7484981 0.65835136 -0.32515877 0.11932527
2282 0.74515265 0.19779608 0.6089344 0.22479546 0.5897172 1.0647013 0.09886829 -0.54817164 0.6932009 -0.91774946 -1.0658269 -0.1965809 -0.8588438 1.1292746 -0.016270531 -1.267929 0.87333584 -1.0924665 0.1407665 1.345758 0.85713613 -1.3264253 1.0461264 -0.9799142 0.2076841 -0.76100945 -0.047040805 -0.2760395 0.17200057 -0.42551222 0.90649474 0.5442608 0.14024177 0.20434092 0.33633107 -0.64404374 -0.41863284 0.21975388 -0.6185469 -0.27052495 -0.26000723 -0.39922103 -0.64275146 0.9154695 0.21742444 -1.3523834 -0.51377857 1.2381979 1.3697613 0.2206155 1.4464548 0.86049414 -0.6068977 -1.7053547 -0.7808233 0.9825004 -0.7559897 1.0528733 -0.2977625 0.96880746 -1.4672533 0.14052595 0.86825 -0.73628265
2549 0.5811729 0.21283166 0.59830844 -0.113054246 0.45034373 -0.35389212 0.12769486 0.3287177 -0.44466442 -0.26877582 -0.56361824 0.7959781 -0.41387466 0.34340706 0.07637299 -0.9453505 0.49272978 -0.543837 -0.0079912525 0.9955687 0.13921764 -0.6462162 0.46025753 -1.0104413 -1.555895 -1.1651384 -0.35537207 0.14894451 0.482191 0.21323507 -0.5997836 0.82405216 0.6434442 0.79900676 0.5090102 -0.5395213 0.18400414 -0.28178644 -1.2071377 -0.54550177 -0.36470324 -0.51140535 -0.3875893 -0.53022665 0.27553344 -0.7865068 0.7326999 0.8715723 1.851522 0.35537297 2.0653777 0.022173703 0.32155877 0.5950303 -0.5254802 -0.19452864 -0.06010108 -0.58380556 1.7474586 1.4238627 -0.8963462 -0.90966225 0.5045529 -1.2891407
3362 1.1777673 -0.04831194 0.16063868 0.3444021 0.7075508 -0.008364277 -0.5672476 0.26953137 -0.41598642 0.555693 -1.0220891 0.036206078 -1.4824293 0.20969674 0.35683435 -1.0687287 0.6845568 -0.5703878 -1.1932861 1.5914723 -0.1419764 -1.2663692 0.02939715 -0.8390351 -0.79884046 -0.4725462 -0.48890784 -0.9970928 -0.036735367 -0.24066666 -0.17450574 0.379426 -0.6714206 0.49352136 0.302486 -0.08484218 0.30615526 1.0978514 0.058696065 0.5241332 0.23732202 0.26245496 -0.654008 -0.7510046 0.423458 -0.7887362 -0.9514664 -1.0305114 -0.33402383 0.082824096 1.9090801 -0.11629452 -0.586342 -0.52788997 1.2563386 0.44362476 -0.38666803 -0.37485445 0.0037720634 0.09230387 -0.6052087 -0.46915257 0.3379093 -0.9785089
3493 0.5548648 0.23868924 -0.43335822 -0.055248268 0.9789338 -0.44536263 1.1774529 -0.8788093 -0.13810936 0.28962857 0.027633771 0.8421255 -0.7772461 -0.101920374 1.620003 -0.36990994 0.4949752 0.24907525 -0.17695743 1.2364032 -0.5116355 -0.81487805 1.4295574 -0.92369837 -0.34592858 -0.8869266 0.9664928 -0.40672365 0.22478992 -0.63186526 -0.36983228 0.47606933 0.55090046 0.7708983 1.2794453 -0.4911792 0.33257332 -0.84259325 0.13551918 -0.8687824 -0.43188483 -0.6235706 -0.22080992 0.1310995 0.50442666 -1.4910426 -0.52579284 0.8372156 0.0625077 0.109210595 0.80920905 0.37259275 0.7836115 0.49768707 0.7112598 1.267312 -0.02656184 -0.040852387 0.5008277 0.9452624 -1.0598092 0.31568846 0.68371 -0.9727246
2474 0.32067576 -0.60391676 0.05712594 -0.62929654 0.5659125 -1.2770985 -0.12444367 0.21130952 1.2459651 0.74726224 -0.40917036 0.3052278 -0.5535357 1.1360123 0.9031608 -0.061543677 0.36712608 -0.93576294 0.49766272 1.3616326 0.7784718 -1.07258 1.4402148 0.9793987 -0.92552274 0.10328978 -0.0015531089 0.1241643 -0.2477525 0.57104266 -1.2181933 0.38480887 0.30367842 0.93730897 0.24406193 0.21261579 1.0066624 -0.6786118 -0.2907246 0.4401287 -0.8611883 0.17705257 -0.26829043 0.34956172 0.6486379 -0.6450649 -0.3254367 -0.39827693 1.0230722 0.3329635 0.9301145 -0.19356638 0.90848297 0.22088799 0.25665617 1.3016059 -0.3148448 -0.2693377 -0.45079523 0.4628806 -0.40962696 0.45071125 -0.7382908 -0.27940574
1644 0.02711155 -1.0144254 0.16014628 -0.045103796 0.093290485 0.49461395 0.57248837 0.08640277 0.63509333 1.4838141 -0.37755227 0.97571814 -1.1028558 0.21388131 0.6621607 -0.16260284 0.16415986 -0.37170404 -0.1533905 0.5580547 -0.27336106 -0.16654027 1.0544978 -0.22415653 0.58369213 0.5961551 0.34877366 -0.33696026 0.045734815 0.88683015 -0.55247444 0.533672 0.14960217 -0.4950832 0.902286 -0.13194306 0.23794755 0.59337884 -0.14442377 -0.032288738 0.33374485 0.26457736 0.8422885 -0.5885971 0.28551915 -1.6556766 -0.3621728 0.75708735 0.31805405 -0.32688525 1.0134844 0.18800952 0.11873994 0.08626142 0.5093814 0.39235675 0.52597326 -0.29837066 -0.40507945 1.1343408 -0.65722555 0.39532453 0.40975368 0.12577549
3495 0.63911957 0.29728147 -0.39381242 0.032295786 0.89622325 -0.48738265 1.2535313 -0.8666859 -0.19766022 0.24151483 -0.11053296 0.9321293 -1.0772575 0.10038361 1.5063537 -0.40913433 0.423338 0.14250249 0.06742641 1.3113378 -0.49614885 -0.7343905 1.3690523 -0.78381425 -0.3736653 -0.81587744 0.926528 -0.36972514 0.25563452 -0.6591907 -0.4708567 0.4356942 0.41832194 0.52326053 1.1629996 -0.40884763 0.22251308 -0.892198 0.10111777 -1.0673131 -0.4218068 -0.54751134 -0.14035828 0.034957226 0.5117401 -1.3443894 -0.46407574 0.8913962 0.06656941 0.028599154 0.61789334 0.43980956 0.82498145 0.4555545 0.73374546 1.260602 -0.024775324 0.023336362 0.56071717 0.95088804 -1.0587323 0.15122117 0.6603403 -0.8913729
4763 -0.14065452 0.15525585 0.78584903 0.35945567 1.2873288 -0.033140726 0.48818865 -0.22751185 1.1110669 0.66868824 0.38225025 0.04298861 -0.3410813 -0.219811 1.2661533 -0.6640481 0.99314845 -0.27348164 -0.4873435 1.6134156 0.3078443 -0.267429 -0.2574841 -0.17676605 -0.15618928 -0.88845456 0.23840283 0.71896136 0.33391446 0.7711114 -0.25341994 -0.13169318 -0.0056371437 0.4023714 -0.047044065 0.44234475 -0.3393391 -1.1763313 0.2798701 0.6546319 0.08406779 -0.6871168 0.4307792 -1.1364866 0.5637184 -0.61714697 0.22550836 -1.062275 0.098006904 0.55324167 1.3906583 -0.8602597 -0.6281525 -0.3079023 -0.10206754 1.5460962 0.11981205 -0.23575288 -0.3728419 0.5941356 -0.77710414 -0.2865969 -0.018229572 -1.4755409
2444 0.75550973 0.18756405 -0.22336291 -0.1856793 1.1076038 -0.12480763 0.19463842 0.4053533 0.5460279 0.38232473 -0.5815184 0.20012505 -0.8550406 0.38661203 -0.01305718 -0.34225747 0.27412844 -0.20346434 -0.32503507 2.3128347 0.8519339 -1.3772451 0.9011587 -1.0542202 0.66351116 -0.98447084 0.36649892 1.0968549 0.10894541 0.924416 -0.7485128 0.035300415 0.5244164 0.38676253 0.9201121 0.010274084 -0.04012633 0.5016823 -0.9489119 0.94360447 -0.06963704 -1.054425 -0.45619327 0.67574644 -0.41903606 -0.40584564 0.29400647 0.36942688 0.84156257 1.3637822 1.1533804 0.03415285 1.5685061 -0.42243287 -0.39658237 0.5116929 -0.7692728 -0.2621473 0.44402224 0.7561253 0.06555907 0.708598 0.28689465 -0.32870558
3494 0.5568014 0.055072866 -0.4952786 -0.048307396 0.95942265 -0.4292645 1.1335939 -0.7814121 -0.1476518 0.32994992 -0.03118275 1.0379696 -1.0913976 0.09341061 1.6081165 -0.39236113 0.46063238 0.26689067 -0.24148741 1.2643553 -0.3267586 -0.77314836 1.5279405 -0.72821724 -0.20984912 -0.8628314 0.81653893 -0.5347147 0.07569244 -0.4383541 -0.47232807 0.33572245 0.70548135 0.5663548 1.4340266 -0.3543265 0.2394915 -0.76157415 0.2463139 -0.8825736 -0.33700937 -0.5149295 -0.122298695 -0.08469313 0.6224506 -1.412353 -0.72309196 0.78586453 0.12229124 0.23267613 0.5570186 0.42872852 0.9200816 0.38070384 0.887858 1.3564647 -0.013696109 -0.099726744 0.57828593 0.9931875 -0.9989854 0.24400215 0.628021 -0.94485843
3893 -0.14311989 0.21573462 -0.52720255 -0.3511605 1.3891652 0.8472544 -1.1525639 0.20835492 0.25093487 0.8835827 -0.71362764 -0.2870112 0.41543302 -0.03418209 1.1251116 -0.99360114 0.0022368485 -0.57815486 -0.34614474 1.1953413 0.61675787 0.25866428 1.2436501 0.7694571 -0.7982245 -0.63643575 -0.1032601 -1.0869547 0.5014113 0.009456818 -0.36743158 0.29830495 -0.16904001 1.1290555 1.039358 -0.4193389 -0.18974824 -0.15583177 -0.12810943 0.13637708 0.3999977 -0.8574072 0.0017462752 -0.9435947 1.0918106 -1.8093561 0.25925854 -3.1831103e-05 1.0691195 0.61491776 1.5067707 0.17010498 0.6895772 -0.32228044 0.026125763 0.9407666 -0.34523958 -0.113077365 0.17551622 0.90729076 -0.5352384 -0.22465585 0.23502536 -0.8827025
145 0.08707486 0.5776104 0.84459394 1.1567924 1.676007 -0.524795 0.9885668 0.46438622 1.5165236 0.61432487 0.3245611 0.13245547 0.055392202 0.4695065 -0.44830373 -0.4594023 0.5725954 -0.44275886 -0.90148395 1.9822767 -0.14836673 -1.852548 1.6347042 -0.33934668 0.8240273 0.47765926 0.086700246 -0.81349397 -1.0158422 -0.33419082 -0.67595077 1.478065 0.14678037 0.0074119293 0.40522063 -0.738837 0.39417994 -0.5916474 -0.33144516 -0.5187463 -0.6132131 -0.18160622 -0.59235364 -0.7263407 0.43443918 -0.72473866 -0.38896623 -1.1064808 0.90888536 0.3357294 0.8569315 0.15821204 0.38250557 -1.1153795 -0.3679821 0.2640324 0.28190777 0.3583203 -0.60380346 0.5427109 -0.29017308 -0.0058520306 -0.007718407 -1.1158005
2925 0.50860894 -0.42911136 0.06484361 0.35189325 0.4066618 -0.28986335 0.28426886 -0.21328698 0.70286125 0.7230088 -0.11737662 0.37981534 0.42689672 0.3020152 1.2108641 -0.95515186 -0.37600932 -0.09471676 0.6405648 1.1901335 0.16863272 -0.6356718 0.2839861 -0.5177379 -1.0822088 0.122966506 0.29832864 -0.3763537 -0.11827339 0.2697529 -0.030263731 0.2906089 -0.35164228 1.3268716 1.3290784 0.19702457 0.20050775 1.1608137 -1.3216194 1.0481081 -0.8920907 0.38317895 0.17773767 0.0674398 1.117085 -0.28139734 -0.16737004 -0.57468426 0.2134986 1.0275466 1.3116707 -0.21535544 0.019438066 0.13801533 -0.22265598 1.5841147 0.60252863 -0.53233314 1.1138943 1.0297867 -1.5771973 0.48622745 0.23349376 -0.12376767
3811 -0.34314066 0.7872131 0.40041223 0.17179208 -0.47722962 0.24696748 0.8921274 0.29302984 -0.37151864 0.93847114 -0.6311482 0.40467754 -0.97200555 1.4956797 0.57583594 -0.7955307 0.6353455 -0.9857192 -0.79637444 1.4423126 -0.3541289 -0.47301048 0.8847767 -0.499945 -0.7008159 -0.8762708 0.80043596 0.9875951 0.052882534 -0.1439459 0.33991802 1.4392279 -0.2150165 -0.16565531 0.34360418 0.22945756 -0.29108924 -0.5586139 0.40090746 0.80705035 0.2133204 0.2876199 -0.93753076 0.18641675 0.41646698 -0.6309147 -0.6596987 -0.6146932 -0.8895769 0.8240614 1.525093 -0.32067275 1.1443449 -0.44311544 0.8122037 0.8621063 -0.14423117 -0.23369619 0.56245846 0.46158442 -0.35878026 0.04415764 1.3238909 -1.4569321
3258 0.42439422 -0.7548286 0.769317 0.9990467 0.20433474 0.17582658 -0.26606306 -0.8267028 0.85615635 0.24145366 -0.6480497 1.062239 -1.6701167 0.19882984 0.4844942 -0.52376544 0.112722754 -1.7304646 -1.3227764 1.3383086 0.21601984 -0.38561574 1.2665858 -0.36024398 -0.6063724 -0.71065235 -0.6654471 -0.63604933 0.26476714 -0.019402796 -0.17490768 -1.2889793 -0.58202314 -0.045888543 0.87735105 -0.7809109 0.50497586 -0.31550184 -0.04735551 0.5238664 -0.062317822 -0.29374993 -0.48674947 0.2199424 -0.1714657 -0.35029805 0.16564418 -1.1586989 0.0669 0.19297327 0.24519034 1.0567085 0.12974963 -0.10484338 0.7576349 0.23334582 0.37043577 0.94418275 0.8340512 0.8996993 -0.91120946 0.61687636 -0.2704359 -0.4519202
2297 0.8906317 0.32033676 1.0367812 0.22533706 2.2341406 0.48173657 -0.1963117 0.16622281 0.042419396 0.6780949 -0.36528036 -0.34649438 0.35961083 0.32876045 0.4691362 -1.1891221 0.020274162 -0.20478302 0.06383296 2.074535 0.21843351 -1.3002723 1.2445135 -0.1280363 0.43371406 -0.33667082 -0.0635621 -0.94009936 0.42490414 -0.5743693 -0.016730871 0.14565638 -0.8687595 -0.60600483 0.025081087 -0.84078556 -0.30377734 -0.08664724 -0.70753074 0.15612757 0.4527262 0.97096086 -1.171555 0.9735254 1.0035758 -0.6964501 -0.5768914 0.3701304 0.819126 0.11230332 2.0105343 1.502088 -0.2939673 -0.06287662 0.5860901 0.50543606 -0.012817496 0.9006936 0.087370664 1.4129928 -0.9447271 0.4888729 0.34952652 -0.8738561
448 -0.06255152 0.32188025 0.046812393 -0.39848128 0.96475923 -0.24145623 -0.66384345 -0.62518626 -0.3432194 1.0386972 0.4508448 0.15050146 -0.653571 0.3808275 -0.023316327 0.18040429 0.3113197 -1.0154331 0.45660487 0.4008314 0.28320795 -0.38326663 -0.10828605 -0.3830814 -0.4788046 0.20111191 0.5875117 -0.0800981 -0.014174008 0.3277917 -0.11101786 -0.30652788 -0.63399327 -0.5068598 0.79524297 0.49941492 0.25746474 0.34069568 -1.2616946 0.06727009 0.07326457 0.24935272 -0.52184767 -0.62084085 0.74023163 -1.0953147 0.094478756 -0.26826224 -0.12943946 1.123871 0.598178 -0.45380622 0.08004347 0.39414173 -0.44982216 0.9300137 0.39215863 -0.22849444 0.27600786 0.86275524 -0.17203511 -1.2768211 0.32904825 -0.20005526
4165 -0.49172917 0.70259905 0.3552473 1.3747588 -0.11930184 -0.83779734 0.60853726 0.06523806 -0.14086202 0.43502715 -0.2763699 1.2208426 -0.5646724 0.7117416 0.4712641 -1.2232535 0.86585546 -1.0020818 -0.1750951 1.5818691 -0.13009115 -0.77975005 0.8766851 -0.61625165 0.4205464 -0.59070325 0.52896476 -0.068699166 0.1613433 0.21888609 0.36331183 1.0249763 -0.44917512 0.21852121 -0.24596947 -0.13314758 -0.46820146 0.04914357 0.27344024 0.9651429 0.47703484 -0.16587558 -0.53550667 -0.23498742 0.5822425 -1.2224663 -0.88410544 -0.16043018 -0.5663792 1.0217426 0.5527325 0.675501 0.72415894 -0.49862084 0.97304606 1.307573 0.68264693 0.0069905147 0.2688327 0.54906046 0.2678299 -0.23287752 1.3342948 -1.458443
4654 0.48130998 -1.4251451 -0.10825622 -0.45132175 1.9721138 0.35922834 0.1267811 0.96114314 1.5056468 1.4902223 0.36511672 0.5825506 -0.6010793 0.78064066 1.1598113 -0.4536956 0.17170738 -1.3868467 -0.2828471 0.8841606 -0.6122195 -0.51531357 0.5242482 0.2943286 -0.114743106 0.29575726 0.068097 -0.31654587 -0.2545724 0.3105626 -1.0873581 0.57739764 0.81674075 0.6302192 0.024784353 0.028136974 -0.60919374 -0.3936473 0.56913435 0.19317617 1.6512998 -0.966623 -0.15155981 0.08778411 0.66395897 -0.77890044 0.29047325 0.20848697 0.7070641 0.61372995 1.2126893 -0.2358238 -0.3634412 0.5305146 0.4940765 0.23731329 0.070513465 0.9861909 0.83964115 0.46935153 -1.051992 0.7866011 -0.04016739 -0.6846944
3303 0.07501121 -0.3602323 0.72669953 -0.034651536 0.8828115 -0.2548977 -0.5242602 0.588267 0.1492642 0.7990588 -0.1868788 0.09190402 -0.67255825 0.42349356 1.2942948 0.009368806 0.5146524 -0.5098334 -0.34741762 1.3677958 0.97674704 -1.6663483 0.62869173 -0.0756446 -0.7189591 0.1817077 0.078718215 -0.38631114 -0.15291595 0.849699 0.4301861 0.1937091 0.0684286 1.2436217 0.091643885 -0.7225577 0.26537415 -0.0058300253 -0.73235625 -0.17563333 -0.2778264 -0.5229792 -1.3839335 0.22347482 1.2827983 -0.5874545 0.13653871 -1.3662428 -0.6518411 -0.2850916 0.81898314 0.00053430826 0.79886836 -1.4666467 0.48616403 0.022293964 0.26474664 -0.057626724 0.62602496 0.077882424 -0.43512142 0.8308112 1.1875368 -0.5449218
2276 1.0004367 0.31275257 0.61914045 -0.056898113 0.5987454 0.3160782 0.45041597 -0.46538442 0.15897597 -0.23707753 -1.0615079 -0.23035756 -0.036561426 0.70746994 0.3726141 -1.2282395 0.20629582 -0.35925773 0.51220566 1.0583694 0.7693388 -0.95951813 0.9130916 0.70273787 1.0298978 -0.97865766 0.38526693 -0.5856257 0.30923206 -0.22228613 0.57531023 0.15919258 0.17331761 -0.73674804 0.9287926 -0.29600298 0.050012827 0.33357263 -0.89456344 -0.25195155 0.37191597 -0.6789195 -0.9828607 0.11731516 1.1413243 -0.35102993 -0.6413805 -0.22462639 1.1441039 0.6464797 1.5770056 1.6175609 0.5364715 -1.7540249 0.6408708 1.3449754 -0.8133635 0.18094979 0.3015755 1.3682764 -1.540056 0.34270468 0.21544 -0.5056782
2458 0.5889919 -0.37859678 0.4675605 -0.006571051 0.27496025 0.42089126 -0.18298954 0.077820845 1.216762 0.89431363 0.4333054 0.58205104 -0.95682126 1.1916555 0.66825825 0.19723102 0.4108007 -1.2728976 0.14705083 0.28637385 0.6914507 -0.22119743 1.3636036 -0.34593278 -0.5945109 -0.18622026 0.0072340537 0.2715712 0.07050672 -0.26792005 -1.0682217 0.1780306 -0.21439703 0.5878792 0.3531363 0.71427953 0.32174546 -0.90119255 -0.3579575 0.13156794 0.19852096 0.21374805 -0.8051882 0.20991695 0.7777292 -0.2889559 -0.35072288 -0.46763247 0.064226225 1.0106974 -0.0400806 -0.8844216 -0.12644449 -0.1549359 0.6596147 0.98914444 -0.9600142 0.49901912 0.14685798 0.1838357 -0.08696389 0.83578515 -0.34496757 0.25400934
3810 -0.314498 0.5326488 0.3671666 0.14885607 -0.42485473 0.21635877 0.92047375 0.20540959 -0.5122283 1.0636415 -0.5394652 0.43879187 -0.9847401 1.2959079 0.20363636 -0.701919 0.9458939 -1.0331991 -0.8077245 1.4488667 -0.3148554 -0.47071165 0.6081676 -0.7122181 -0.66516894 -0.6143488 0.5420564 0.7875833 0.12875023 0.030394403 0.2759933 1.3913187 -0.29989097 -0.20395693 0.21618672 0.20557411 -0.015301879 -0.4858775 0.17230497 0.6953838 0.34787545 0.39191365 -0.8608065 0.359914 0.36589363 -0.823092 -0.77033275 -0.5068777 -1.1217891 0.7894234 1.5734029 -0.2980777 1.2239408 -0.197677 0.80260056 0.952941 -0.15669684 -0.21723303 0.6998952 0.642784 -0.2509952 -0.042122427 1.1046535 -1.4258724
1254 -0.49770805 0.48000306 1.2463379 0.21250331 0.8604543 -0.18264484 0.40741798 0.47845784 -0.12866242 0.69734937 -0.29401106 0.31568897 -1.6252497 0.5163409 0.43263474 -0.7516816 -0.5825556 -0.7656835 -0.037133347 0.8940064 0.6406986 -1.4677838 0.59622353 0.018412637 -1.291646 -1.0515889 -0.00012834326 0.17315403 -0.6870729 1.2187977 0.15100382 0.24411729 0.8156467 0.47736079 0.9666823 0.020456506 0.09370509 -0.15063043 -0.1471749 -0.29287937 -0.9550663 0.19065808 0.54134417 -0.0061629275 0.62986183 -0.5817 -0.03625355 -0.53799784 0.91600424 0.7832541 0.45459682 0.33108595 0.38896295 -0.98706794 -0.141623 -0.0023887227 -0.79539543 0.17600544 0.408425 0.92136854 -1.0102526 -0.8037432 -0.20231692 -1.1122649
200 -0.58554006 0.3142422 0.8438322 0.032674525 1.5635159 -0.71523464 -0.11283279 -0.46738437 1.2395407 1.4897435 0.37629533 -0.755597 -0.5735225 0.23973781 0.30734202 -0.55014014 -0.102876924 -0.14654833 -0.8288404 1.315692 -0.6731703 -1.013442 1.2183356 -0.37306064 -1.3418033 1.3052547 0.7914359 -0.5973698 -0.43126816 -0.38769856 0.18917346 1.5415379 -0.062210318 0.90182906 0.34084034 0.013629097 0.6052809 -0.043811835 -0.95819557 -0.28573826 0.032980017 -0.19373974 -0.55760884 0.3876474 0.068108544 -0.52685577 -1.3967662 -0.8583268 0.5906027 0.21618274 1.506864 -0.27431074 0.32500815 -0.70459527 0.69877684 0.420492 -0.53833765 -0.8749243 -0.3445664 1.3006555 -0.16608326 0.032241102 -0.15959118 -0.6178833
2786 0.59019053 0.19011758 0.95592546 0.7242531 1.1395525 0.12351434 -0.025355535 -0.18853179 0.64814025 -0.09442366 -0.7671517 0.89430225 -1.7465351 -0.0430415 0.39379233 -0.030983714 0.100554496 -1.1310719 -0.2447109 0.90576327 0.4560012 -0.24659601 1.1647013 -1.9361768 -0.47071978 0.05924035 0.8804485 -0.0962356 0.67024976 -0.41301116 -1.145589 0.13886487 0.25755468 0.68569195 0.42774636 0.4817419 0.0829319 -0.4317018 -0.5782172 0.022435136 -0.15414247 -1.1007627 -0.5734025 -0.64150995 0.72732496 -0.38286024 0.5278004 0.28320318 0.083721824 0.059197832 0.057074666 1.3065592 -0.21610716 -0.18938075 0.26523504 0.55710006 0.0022841785 0.3450114 -0.033380583 0.2600762 -1.2318381 0.3869277 -0.26506677 -0.12850574
3102 -0.08262243 -0.1850932 0.515645 -0.102785066 0.5340775 -0.0089921225 -0.17028728 -0.50889724 -0.43780896 1.5972958 -0.27822208 0.87741643 -0.45028773 0.8212427 -0.07511986 -0.66538525 0.54812425 -0.67338884 -0.9677705 0.7198952 -0.23122211 -0.3280382 0.6354004 -1.1067836 0.59486014 0.08934946 0.1577792 -0.59467524 -0.2949082 0.23832577 -0.64573395 0.2518388 0.36674535 1.738911 -0.5881711 -0.43868902 0.8113647 -0.91525704 -0.3743675 -0.32218418 0.22393501 -0.6056668 0.32841894 0.35715201 -0.04572981 -0.7518812 -0.55389094 -0.9305686 0.10492355 -0.06424597 1.0784526 -0.5085153 1.1430347 -0.6176973 0.023701318 0.6468409 -0.22196065 0.19718644 1.2145921 0.8138358 -0.7734709 0.64569974 0.6134904 -0.6850096
978 -0.45914668 1.0600709 0.47980022 -0.7385987 1.023817 -0.5564885 0.7557628 -0.3341373 1.1207316 0.08371459 -1.017284 1.0591825 -0.3730649 0.7003343 0.39159936 -0.5188843 0.36495602 -0.6688159 0.19946983 1.1031362 -0.56369644 -0.22816274 0.8592427 -0.5326156 -0.4614098 -0.15933791 -0.05228044 -0.54189706 -0.19680795 1.077589 0.1364917 0.5568858 0.28415787 -0.296374 -0.03179616 -0.5177832 0.9746185 1.0692868 -1.4337736 -0.71636134 -0.009267507 -0.14435898 0.60212153 -0.3073483 0.20007856 0.5608388 0.033371296 -0.03646061 0.09519593 1.2778218 0.5727767 0.054505575 1.3408364 -1.4050789 0.22778936 1.1096169 0.16378438 -0.631493 1.4142294 1.7649128 -0.4415527 0.6896339 -0.029544417 -0.48553145
2278 0.83666456 0.21233839 1.0386544 -0.040244654 0.48494938 -0.06386825 0.55142885 -0.80060625 0.21698256 -0.7820117 -0.95200956 0.09498045 0.009853461 0.20103799 0.054917898 -1.9391932 0.39881498 -0.641715 0.3470146 1.3670853 0.5802428 -1.0039237 1.234938 0.4600231 0.81395924 -0.88398427 0.05916818 -1.6721698 0.16634141 -0.35273555 -0.052585673 0.7829078 0.50323606 -0.7404045 0.6355074 -0.68180346 -0.049825415 -0.2968898 -0.65712965 0.37634104 0.36878473 -1.3621026 -1.0657072 0.32746887 1.2492388 -0.39747652 -0.0019276818 0.34247237 0.20901391 0.7159446 1.8447156 1.0333185 0.3930186 -1.8232126 -0.25307453 1.1145532 -1.7539698 0.5473362 -0.10203678 1.017036 -1.3752832 0.37250692 0.36470777 -0.721102
817 0.23266236 0.28456998 0.02775294 -0.32838547 0.80619204 -0.23529954 -0.030477906 0.1089528 0.3708145 0.062152226 -0.5594278 0.09598374 -0.4317017 1.1818905 0.36302316 0.17800704 0.39461178 -0.23636329 0.056069694 1.2703135 -0.24913006 -0.70299613 1.4132761 0.252104 -0.098043874 -0.118416354 0.62875146 0.28103554 -0.34700242 0.85540605 0.047973607 -0.29898927 0.062794 -0.012492977 0.18093579 0.7641271 -0.13047276 -0.42497864 -0.846692 -0.3009759 -0.7070258 0.16515143 0.029077247 -0.5008402 0.7676978 0.5757614 0.42661834 -0.5597918 -0.6187112 1.0259001 0.7559144 0.4109387 0.47464147 -0.76777244 0.94280684 0.009694889 -0.41605672 -0.6247606 0.9059309 1.0069164 -0.34464604 1.4599545 -0.8427822 -0.78712654
4166 -0.6295137 0.3573816 0.24230757 1.2063175 -0.27434868 -0.8561779 0.74365795 0.08616365 0.22400795 0.4575278 -0.16284478 1.0801556 -0.59538966 0.69023496 0.28359944 -1.2496723 0.69762707 -1.1859257 -0.2762333 1.3496515 0.025765842 -0.73319083 0.8173549 -0.48240688 0.3711082 -0.64391357 0.4369282 0.077269904 0.17464928 0.33753276 0.18238163 1.0351428 -0.32265398 0.25748384 -0.25083005 -0.30928817 -0.82342577 -0.24648413 0.27895236 0.908593 0.5039127 -0.26304722 -0.383264 -0.08904993 0.5054911 -1.121821 -0.65199345 -0.2671856 -0.527477 0.9327366 0.8939354 0.71658665 0.75796574 -0.7620285 0.8582843 1.3911377 0.43275294 -0.033636723 0.09513944 0.4380612 0.260368 -0.20599808 1.2155555 -1.5548689
3611 -0.21430323 0.1493562 1.2764213 0.7561878 1.0194448 0.1457668 -1.2424141 -0.065536104 0.72181886 0.77112097 -1.0725404 -0.24482885 0.4713257 0.8728019 -0.17649378 0.24715082 0.30563352 0.0033828272 -0.87846863 1.4555519 1.4302263 -0.46924394 1.1225342 0.017868297 -0.40897012 -0.69864446 -1.0308139 0.02631179 -0.1695123 -0.7018791 0.53334445 -0.20012048 -0.30257836 0.3773647 0.3094814 0.8487778 -0.074499056 -0.38793308 -1.0438656 -0.020055316 -0.40594855 -0.7807669 0.6092486 0.057089534 1.3505702 -1.5215917 -0.06220916 -0.07348531 0.4240697 0.3841438 1.138598 -0.8099116 -0.13104542 -0.38016924 0.2376097 0.9633983 0.6675409 0.6900456 0.6945657 2.158535 0.26639983 -0.3047907 -0.6548468 -0.3627333
