108 64
92 -0.08006699 -0.68313 0.17625396 1.0620642 0.55567396 -0.4178621 0.7882978 0.57421166 -0.5184312 0.59759426 0.28977534 -0.34664357 -0.63093585 -0.18206315 0.4731791 0.8193507 0.5535264 0.14956173 0.0052103777 0.8453751 -0.24904646 0.55041015 -0.13055204 0.3993344 -0.1491883 -0.44391587 0.6723981 0.22120647 0.27395973 0.43859383 0.40018904 0.14381094 0.28441048 0.8428922 -0.4084142 -0.08805894 -0.49103725 0.44727486 0.1503213 0.13067724 -0.40492356 -0.25973815 0.48215276 0.14013517 -0.23159312 -0.21011189 0.19581543 -0.13166317 -0.9581573 -0.32290345 -0.13615212 -0.89166325 -0.18367834 0.23664592 -0.11924572 0.3425215 0.42409965 -0.39357287 -0.1802509 -0.0840343 -0.391778 0.025641588 0.40593982 -0.76347774
94 -0.08816201 -0.7204251 0.025225338 0.99495864 0.3792395 -0.41108593 0.71381444 0.7252625 -0.4784181 0.61750937 0.2294044 -0.4452061 -0.6975651 -0.26765966 0.5030971 0.8388972 0.45488572 0.10446503 -0.010911686 0.7908915 -0.2585996 0.6265241 0.005422539 0.31840852 -0.025195925 -0.583688 0.7090609 0.2332583 0.05241087 0.48229948 0.36644855 -0.014696274 0.3104333 0.8137445 -0.31764078 0.22278456 -0.49596038 0.460836 0.07741941 0.16521622 -0.41145763 -0.1420274 0.3907525 0.11912719 -0.22000058 -0.20572908 0.20439625 -0.087570146 -0.9118232 -0.3703994 -0.105678216 -0.8796825 0.009999957 0.24142459 -0.25785124 0.33167598 0.5746772 -0.5002479 -0.18734664 0.012445272 -0.3386533 0.09288421 0.45361513 -0.715775
85 0.22697961 -1.0596467 0.20707104 0.04929855 -0.35765004 -0.49657264 0.56050587 0.27128336 -0.47805545 1.3067386 0.033889245 0.31194836 -0.7792827 -0.8241329 0.7318711 0.69045466 -0.16235937 -0.70255524 -0.71774495 0.75578487 -0.44756362 -0.19746403 -0.7702719 0.31725153 -0.52029157 -0.13101411 0.49714467 0.7012555 0.27945507 0.067872345 0.2853458 -0.53886753 -0.49568343 1.1065526 -0.50314754 0.00012077045 -0.112158954 -0.057188693 0.16069147 -0.47888955 -0.5017901 -0.20893794 0.57338613 0.56061655 -0.28363857 -0.29028058 -0.8252159 0.6154603 -0.352781 -0.5084143 -0.10024581 -0.19737053 0.19975644 0.32091698 0.24204215 0.5573244 0.57043976 -0.13305545 -0.46571952 0.23079534 -0.07941379 0.058825903 0.45605025 0.16655791
95 0.3798727 -1.1232139 0.0724996 0.10029916 -0.34074652 -0.6948356 0.5708348 0.3035444 -0.45140073 1.2751193 -0.13266775 0.38507348 -0.7725866 -0.84905714 0.75707203 0.8055435 -0.10747313 -0.7291931 -0.661631 0.8944688 -0.44308835 -0.12899654 -0.92657495 0.2954953 -0.49778983 -0.22355436 0.48648322 0.63196725 0.21766283 0.00455884 0.17449097 -0.49756315 -0.47375828 1.0205504 -0.40367112 0.12727277 -0.04199015 -0.054835524 0.12479156 -0.42360234 -0.45123753 -0.2516793 0.5757797 0.6219146 -0.2183076 -0.37831667 -0.7548651 0.535561 -0.5747627 -0.5222246 -0.19252747 -0.2649589 0.08986772 0.15099642 0.41211656 0.43979752 0.55861706 -0.3040006 -0.44813484 0.19943686 0.059625283 0.17875822 0.44177523 0.31477094
7 0.37233517 -0.07856283 -0.1774203 0.82027346 0.40934297 -0.13309914 0.110890105 -0.051985513 0.2517265 -0.20026483 -0.57559186 0.11509386 0.28187418 0.14532824 0.18618709 0.36782977 0.72945136 0.2739516 -0.031934485 0.5464193 -0.28347406 0.2793748 0.23385598 -0.20920801 0.05225512 0.6196253 0.64099926 0.20370279 0.15070121 0.6889681 0.26064578 -0.06818537 -0.21876293 -0.12298687 -0.2743576 0.046990894 0.5114861 -0.81929976 -0.02019547 0.04847077 -0.01552401 -0.009511394 -0.32363862 -0.34785503 0.27478138 -0.45868763 0.53845304 0.7562141 0.14675267 -0.10765293 -0.01774054 0.37723517 0.087701775 0.11452279 -0.083358675 -0.1671556 0.099151365 0.3314955 -0.24955834 -0.052522566 0.63349956 0.33728784 0.6403117 -0.37382707
106 0.8294147 -0.46385306 -0.3708421 0.7261403 0.59007424 0.4171209 -0.011995387 -0.35189968 -0.18106116 0.19922751 -0.35261708 -0.19238971 0.21696174 -0.48357072 -0.07987676 -0.1961591 0.47555092 -0.25244442 -0.052767534 0.53254664 -0.39194858 0.0049370537 -0.14984602 -0.05168716 0.47675925 0.5188394 0.7525057 0.07728876 0.27986324 0.33180588 -0.083602756 0.38669392 0.29787493 0.13837615 -0.23335233 0.0022383924 -0.104849055 -0.5693312 0.4092812 -0.15566526 -0.046557136 -0.56419885 -0.15996566 0.1605873 0.19110847 -0.67419225 0.50728405 0.37186664 0.23433061 0.23983334 -0.39645445 0.25692835 -0.21042952 0.84072965 -0.4510858 -0.30692673 -0.14889987 -0.26189953 -0.029799825 -0.023107907 0.3270626 -0.25601646 0.19934788 -0.045106325
97 0.74539024 -0.25416112 -0.30852574 0.22241727 0.27383876 -0.029602569 0.17018512 0.36137047 0.4620596 0.18500818 -0.32736748 0.0031129401 0.104762584 -0.7295162 -0.7051245 0.45534658 0.15176652 0.12407017 -0.60348886 0.67002326 -0.3235684 0.10279503 0.5102047 -0.037044074 0.1597161 0.2690189 0.35332015 -0.44337866 -0.17282675 -0.41689828 0.32335684 0.6428475 0.26458436 0.08897013 0.05884465 0.019091431 -0.016451288 0.024650075 0.42137945 -0.19824462 -0.5637562 -1.0422212 -0.16188796 -0.20638873 0.5314322 -0.30875754 0.31328186 0.044650596 0.09281192 -0.21256122 -0.20502461 -0.18416938 0.24100383 0.86409354 -0.48890784 -0.42435828 -0.24771582 0.20600294 -0.517609 -0.20145598 1.012211 -0.592306 -0.3359718 0.5216987
49 0.46400496 -0.15745363 0.0030570743 0.8158614 0.6170886 -0.079292186 0.37636822 -0.01811197 0.05882529 -0.25669065 -0.51619166 0.15588199 0.19976695 0.0131888725 0.5493458 0.21983251 0.47995055 -0.07619987 -0.12781447 0.40518215 -0.033851344 -0.0008506777 0.42853838 -0.035993624 0.1862312 0.67609674 0.38080627 0.14703214 0.058754172 0.8646372 0.262071 -0.35828874 -0.31815228 0.05902541 0.12401625 0.18856147 0.19382766 -0.8802054 0.08967227 0.103764914 -0.18658377 -0.19443455 -0.48819393 -0.1863797 0.18172015 -0.1995061 0.26288697 0.5422674 0.52968794 0.20434763 -0.13735937 0.5941772 -0.22000328 0.4791421 0.08122233 0.1850933 0.05576748 0.22425345 -0.37679815 -0.3505057 0.48359892 -0.09921194 0.7272383 -0.13823652
52 0.35934147 0.18511048 -0.13395728 0.8247386 0.5019208 -0.188338 0.26533583 -0.10541017 0.37173045 -0.07739955 -0.42027792 0.21792525 0.19429839 0.06390039 0.3641112 0.46151534 0.43983486 0.2797627 -0.111578055 0.49133962 -0.07721816 0.28407496 0.5589041 -0.35821876 0.15489316 0.5317966 0.59822625 0.16691555 -0.02256091 1.0480367 0.0851718 0.030571498 -0.042308908 0.1451957 -0.08986011 0.009552802 0.29564142 -0.7166795 0.28020665 0.09831996 -0.34596664 -0.3983452 -0.37869513 -0.3846023 0.1447225 -0.3735037 0.492735 0.67411596 0.41654614 0.02230953 0.06573342 0.4838094 -0.034040246 0.3848907 0.07451812 0.18457349 -0.05930478 0.2682456 -0.14395706 -0.19960941 0.4570262 0.28295544 0.61695695 -0.2396351
1 0.29029992 -0.11142517 0.010899645 0.796942 0.321763 -0.28986907 -0.015460117 -0.29147664 -0.04744101 0.056179117 -0.545224 -0.38220066 -0.033963744 0.43699932 0.2038101 0.2707665 0.549674 0.36859012 0.013290787 0.2669429 0.17764294 0.20870239 0.26798666 -0.19348066 0.16446032 0.44514042 0.5571401 0.22905824 0.4172566 0.82923865 0.41173962 -0.25429237 -0.10355128 0.08847051 0.041798633 0.1089019 0.16304727 -0.60317 0.10323152 0.44777808 0.14293535 -0.39920703 -0.4937491 -0.03987741 0.4114616 -0.40367982 0.6832598 0.6514918 0.14586508 0.2987099 0.20519994 0.21733253 -0.13727815 0.14669457 -0.0716614 -0.18320741 0.0772572 0.25876027 -0.045067113 -0.1943938 0.42738843 0.49235517 0.62150663 -0.62032104
108 0.27172124 -0.2206381 -0.077687904 0.73568773 0.35671768 -0.18995628 0.3276923 0.16098683 -0.39243233 0.057746395 -0.5227017 -0.04015773 0.2204721 0.16644502 0.30874225 0.4130183 0.46277055 0.025499277 -0.019270852 0.5714643 -0.37283817 -0.055979427 0.4008117 -0.44584852 0.17894831 0.46081015 0.4961259 0.18406749 -0.1114527 0.59976685 0.35507292 0.18643762 0.0969945 0.22268873 -0.25925 0.54039943 0.6164324 -0.045950405 0.49256244 0.05228803 -0.20213106 -0.25165147 -0.6591427 -0.4112846 -0.14707148 -0.3862522 0.8445998 0.5104727 0.1251663 -0.2693614 0.18175901 0.13599877 0.4428925 0.22438113 -0.052496072 -0.46597162 -0.078529134 0.73832536 -0.4095137 -0.37192512 0.5020436 -0.079051085 0.41064924 0.14373028
13 0.35659486 0.10877169 -0.102175035 0.39906976 0.2745629 -0.3705384 0.21677174 0.07165443 -0.037257154 -0.2782368 -0.043221403 0.10039036 -0.48327208 0.6814013 0.57173944 0.25953084 0.47951892 0.046071287 0.13419789 0.34388798 -0.24361347 0.075810134 0.8086207 -0.3543698 0.54871 0.3557725 0.44228506 0.3217208 -0.16253696 0.8198027 0.49408567 0.24096344 -0.058475383 0.060321443 -0.21963477 0.3003601 0.43446785 -0.8022426 0.09231003 -0.23467068 -0.3878081 0.06510323 -0.2374506 -0.496371 0.5078237 -0.17111574 -0.1159372 0.47829768 0.49892592 0.02888976 0.23563883 0.27738303 0.122509226 0.60665584 0.23841102 0.15159027 0.26466602 0.062415857 -0.39988434 0.054613966 0.15203604 0.31561032 0.5652631 -0.6410946
15 0.13737608 0.08905594 0.015575661 0.6690276 0.3783528 -0.39715046 0.46497366 0.14423384 0.3229579 -0.12655431 -0.3732243 0.16436702 -0.19191967 0.13108906 0.14794073 0.45407182 0.43613556 0.24039257 0.06236316 0.46736392 0.079605095 0.017396146 0.46679455 -0.14244895 0.20824957 0.4163826 0.48276487 -0.053889003 0.2507456 0.8257086 0.3658809 -0.11183975 -0.21210341 -0.073308796 -0.1195246 0.12637082 0.2693794 -0.6311587 -0.11059564 -0.0075247935 -0.21405087 -0.2574054 -0.45666352 -0.31239775 0.3838639 -0.39759862 0.4187604 0.62064105 0.40690988 -0.008839191 0.080347136 0.54363334 0.019091962 0.39430425 0.017716775 0.102948055 0.04233307 0.14647554 -0.35692495 -0.092197806 0.600918 0.21531355 0.51313806 -0.37250435
51 0.3022941 -0.0073019965 -0.052118108 0.556356 0.39516592 -0.19080943 0.27217662 -0.03926787 0.34809506 0.012626125 -0.4242561 0.12660986 0.066024855 0.09963181 0.10579436 0.3940915 0.50452125 0.3560765 -0.26087913 0.4518439 -0.07143144 0.20147134 0.44848764 -0.21012577 0.07310183 0.31187552 0.5096329 0.08291691 0.23266873 0.77698904 0.2915196 0.084740005 0.01350826 0.104191594 -0.17431405 0.127564 0.3439836 -0.57961303 -0.0597454 0.025162162 -0.20702651 -0.34344766 -0.31499586 -0.3880327 0.2606066 -0.4122892 0.41593796 0.6671988 0.47251183 0.119438685 0.08442733 0.50159806 -0.011098887 0.32913718 0.07320914 0.030054776 0.13797277 0.14447333 -0.18503952 -0.08361496 0.483624 0.29555425 0.53542143 -0.24369639
90 -0.008376319 -0.35264546 0.2517547 0.19307268 0.14489375 -0.4338781 0.22063917 0.7442082 0.31335494 0.6037632 -0.07013013 -0.3263118 -0.29718506 -0.34352124 0.70274144 0.98550624 0.072076224 0.07027163 -0.27154076 0.5413488 -0.20637861 0.082375236 0.17004533 0.26000467 -0.50960183 -0.38930514 -0.30663294 0.38617694 0.06012665 0.16693552 0.38969573 -0.029206282 -0.041230135 0.7420889 -0.20270042 -0.2960795 -0.025633747 0.58844614 -0.09086781 0.34324408 -0.5806776 -0.36540037 0.41149828 0.23200406 -0.052759815 -0.22563973 -0.025169471 0.07651011 -0.64137715 -0.30330783 0.039949354 -0.6342095 0.1554067 0.30584455 -0.09046105 0.1569935 0.490156 0.18059573 -0.06445629 -0.35452753 0.041068397 0.11994688 0.123683326 0.044175394
2 0.19017535 -0.24334225 -0.35724828 0.6799617 0.41242772 0.007230478 0.8532575 0.13146025 -0.41473576 -0.119115144 -0.23582278 0.41788042 0.3088556 0.65905166 -0.54024523 0.23551674 0.40653142 0.15754494 -0.9489256 1.1089219 0.32553357 0.26216075 0.31252378 0.03866258 0.0032734124 -0.034551527 0.6940839 -0.102801844 0.49458033 0.37712267 0.20440157 -0.056922425 0.16883895 0.34244972 0.07276171 0.29866922 -0.28530568 -0.5910212 0.16545206 -0.2433823 -0.13691035 -0.5635705 -1.0181386 -0.3913268 0.3830719 -0.105387226 0.4983584 0.49676138 0.4502371 0.70071656 -0.124834865 0.6142875 -0.26287997 0.7729017 -0.21164837 0.08823893 0.54636645 0.12847799 -0.34385014 -0.030516773 1.0521693 0.049824633 0.37129524 -0.19758263
57 0.33763584 0.016135 0.034480643 0.61981326 0.5125546 -0.064811386 0.3979196 -0.050542906 0.35015127 0.103133254 -0.34066352 0.0074816667 -0.06670684 0.16122535 0.50510335 0.23266588 0.5761349 0.25050923 -0.098994605 0.39756098 -0.06234654 0.075492084 0.5344941 -0.18181345 0.13646795 0.3678598 0.38025406 0.23462911 0.27208087 0.8309387 0.20893885 -0.008687801 0.0398915 0.030095797 -0.10457691 0.08994346 0.3330331 -0.6633792 0.09870207 0.08376213 -0.32337746 -0.5425345 -0.3252963 -0.26243582 0.15066501 -0.4179804 0.4494387 0.5981832 0.47575533 0.21358685 0.09708527 0.51277447 -0.017842742 0.39416084 -0.09140284 0.112743765 0.078480884 0.22403638 -0.13401024 -0.109623216 0.47822574 0.1129206 0.542791 -0.39168984
11 0.18666083 -0.0007149548 -0.059362706 0.8220573 0.30077013 -0.25310594 0.21873546 -0.077610835 0.3225817 0.06774498 -0.46092033 -0.08027869 -0.048416823 0.034160227 0.2076865 0.21298154 0.7396427 0.3862227 -0.117169425 0.4752396 -0.14697838 0.026321275 0.3891744 -0.1370744 -0.09670482 0.3590843 0.4908171 0.2832442 0.30380723 0.6077125 0.38720378 -0.039943583 -0.14122216 0.0971853 -0.19821627 -0.05167386 0.33838257 -0.531709 0.014040597 0.056595426 -0.1676689 -0.25795057 -0.43042418 -0.3628276 0.29063386 -0.34910858 0.43263882 0.5316487 0.4612529 0.08636406 0.19347078 0.43389 0.17539527 0.34995577 -0.051606294 -0.08643668 -0.18310256 0.32066774 -0.13860296 -0.27634475 0.4718851 0.24409401 0.6277975 -0.3193293
10 0.287092 -0.1579479 0.03326619 0.84487534 0.4471213 -0.2479235 0.17116122 -0.047512863 0.21045452 0.10939491 -0.4978424 -0.2015907 -0.036345433 0.1466766 0.30128372 0.22848758 0.66022587 0.24909237 0.08544919 0.31318465 -0.13036597 -0.0525303 0.3725312 -0.23678365 0.01100025 0.41341892 0.49353412 0.32400763 0.2277408 0.87405384 0.44988602 -0.0058721593 -0.12521583 0.06116609 -0.19635929 0.07692562 0.3133598 -0.5404407 0.01932152 0.1665595 -0.037851855 -0.25433716 -0.40971783 -0.24328901 0.28697392 -0.48655975 0.59527403 0.67572504 0.3818786 0.0649217 0.20483561 0.41202185 0.030893473 0.18760164 0.004652825 -0.1972291 -0.035599004 0.25304013 -0.14272504 -0.35520315 0.4236483 0.18060385 0.62366587 -0.43023947
8 0.34616452 -0.0100395195 -0.037191648 0.73991615 0.46107265 -0.19516936 0.25311685 -0.05161211 0.2967554 -0.035823982 -0.41501772 0.22583507 0.19717586 0.1439829 0.23091865 0.47882858 0.3548847 0.26004362 -0.23288645 0.469587 0.07325495 0.29755557 0.28036466 -0.33861685 0.1449482 0.48266366 0.53525305 0.038476996 0.15008275 1.0533932 0.104639836 0.03273664 0.019837549 0.19640723 -0.10293341 0.002884223 0.3231086 -0.6757833 0.00086096104 0.045044657 -0.25918925 -0.4668378 -0.4061323 -0.27197868 0.19381022 -0.5315781 0.593202 0.7927824 0.42828852 0.24447723 -0.06037596 0.59075105 -0.052770976 0.35561046 0.09847529 0.10540248 0.22566079 0.115951665 -0.18408473 -0.056050006 0.544806 0.24071904 0.5046929 -0.16357008
9 0.3511556 -0.12909712 0.0059249857 0.5863879 0.539691 -0.13979732 0.47047958 0.18411139 0.48698464 -0.040778276 -0.33420154 0.17139183 0.04652297 0.11358893 0.49321803 0.33332598 0.44943115 0.15130286 -0.104678 0.25824258 -0.010192954 0.13887605 0.4676021 -0.19242103 0.27429247 0.5079794 0.33299643 -0.061846565 0.22499411 0.9112413 0.20940438 -0.06418063 0.003547042 -0.13926783 -0.03144216 0.22429253 0.3865646 -0.7433026 -0.13383324 0.07805266 -0.34559643 -0.59427106 -0.24582283 -0.26038644 0.069159664 -0.45929518 0.36520478 0.8237819 0.37478417 0.19383267 -0.060667578 0.52764857 -0.10143535 0.38702017 -0.045772184 0.07044745 0.31558296 0.041480463 -0.2741313 -0.07730234 0.58913535 -0.046703614 0.623954 -0.32293895
4 0.49598885 -0.43026087 0.26563305 0.42484123 0.8881393 0.19890107 0.86987036 -0.10113363 -0.08774111 -0.074074954 -0.58414596 0.2737383 0.64587456 0.85305506 0.20373671 0.43198314 0.6307796 -0.09085291 -0.24584895 0.5356318 -0.14205402 0.33228916 0.45670438 0.16110362 -0.10415234 -0.11052609 0.90054554 0.38621113 0.61114943 0.5216917 0.20474626 -0.15852949 -0.43851852 0.41102374 -0.2981118 0.5899188 0.355382 -0.7327225 -0.07030775 0.2666767 -0.24212727 -0.24478799 -0.54004204 -0.29171756 0.40821886 -0.15703116 0.15201427 0.39323372 0.43946648 0.6728901 -0.15797593 0.7493409 -0.29613018 -0.0020431601 0.64783657 0.25907415 0.19665703 0.108565144 -0.13298945 -0.13474204 -0.010149355 0.046051852 0.40054986 -0.43225867
66 0.2888248 -0.23235452 -0.06754541 0.40525436 0.012631535 -0.5605458 -0.16057235 0.046113163 0.34718573 0.5120354 -0.19304028 -0.21037711 -0.6648998 -1.3383765 0.49837026 1.0774684 0.2380823 0.3850846 -0.7223446 1.0193951 -0.09517019 0.636855 -0.09238674 0.35968688 -0.00945213 0.312903 0.06101013 -0.16131204 -0.11363336 0.0054846834 0.18451802 -0.20641033 0.17544377 0.8425351 0.29568255 -0.794625 -0.2269437 -0.054312576 -0.05535992 0.21612512 -0.47047743 -0.65191966 0.6908326 0.3658354 0.34130996 -0.21145543 -0.0321868 -0.14210366 -0.9732364 -0.41231778 -0.27348065 -0.65020216 -0.0452348 0.7314772 -0.40963364 0.31973675 0.23277804 -0.42798424 -0.29292116 0.46029708 0.13077736 0.24012376 0.3628684 0.15768737
72 -0.111978054 -0.47228354 0.056041308 0.23330876 -0.11515099 -0.37376255 0.45678678 0.3312248 -0.2958032 0.6612917 0.062620215 -0.1229118 -0.65723944 -0.51791906 0.24259445 0.8050781 0.05185956 -0.3120739 -0.44115975 0.6156026 -0.10010185 -0.094125584 -0.42217425 0.27144358 -0.3979913 -0.17873678 0.25040042 0.3359239 0.22534432 0.21452355 0.15896112 -0.066237025 -0.15442383 0.51311535 -0.04214175 -0.27125096 -0.08351101 -0.19530734 0.13479295 -0.25290918 -0.105092406 -0.06822667 0.49949127 0.27045023 0.08191231 -0.034695882 -0.4107716 0.03514186 -0.5927849 -0.47338045 -0.061212476 -0.6663186 -0.029556284 0.035889808 0.12811567 0.19426481 0.19973561 -0.08839642 -0.5793935 0.17654215 -0.00910284 0.17804925 0.31107312 0.060485095
93 0.25150013 -0.7130339 -0.17691049 0.18857817 0.15926136 -0.3993567 0.41450408 0.28092733 -0.38783076 0.5934337 -0.13696525 -0.14758259 -0.51664644 -0.41473085 0.4233307 0.58844274 0.22106992 -0.49746254 -0.044872656 0.6183169 -0.3540146 -0.026302816 -0.24063617 0.14368904 -0.34931603 -0.45677003 0.2596836 0.3974771 0.33483714 0.28226838 0.25039387 -0.13248806 0.00931286 0.60629493 -0.24449907 0.019821087 -0.19158466 -0.04484287 0.27366972 -0.09844723 -0.024060475 0.12650971 0.070657134 0.22969018 0.018493623 -0.10314485 -0.29315242 -0.01578544 -0.786471 -0.21115525 0.11907836 -0.50718975 -0.08137882 0.1565575 0.10789735 0.04232747 0.14024352 -0.43873638 -0.35725665 0.042338867 -0.028949017 0.29960874 0.2863497 -0.21492621
64 0.1333742 -0.6370889 0.23962487 0.19229345 -0.07780853 -0.3085171 -0.2576221 0.24073596 0.042646796 0.38327774 -0.023093002 -0.28393996 -0.41041508 -0.4308884 0.29417104 0.4929266 0.0030531764 0.19536978 -0.42481557 0.6540909 -0.35667026 0.4199547 -0.16425765 -0.010155382 -0.2459359 -0.025820915 0.25687596 0.40361866 -0.1556725 -0.18130082 -0.091658235 -0.11286114 0.10726642 0.44988635 0.03468665 -0.1473767 -0.1803758 0.10482593 0.3332269 0.112387456 -0.10665288 -0.43734303 0.41399986 0.12429095 -0.04796657 -0.0762144 -0.3828317 0.015995141 -0.257075 -0.36960003 0.15002462 -0.2587467 -0.19189984 0.20251441 0.08359025 0.3452391 0.72894347 -0.26065683 -0.2861147 0.02799704 0.2043565 -0.19542027 0.07899768 0.17138869
101 0.3562659 -0.60885334 -0.017694125 0.6271043 -0.37732694 -0.14422694 -0.27973855 0.592955 0.6457661 0.49962577 0.046774015 -0.38712087 -0.3933537 -0.56976503 0.30237255 1.0949031 0.04588934 0.34283912 -0.9221627 0.67335236 -0.10152524 0.9267425 0.09565814 0.24830502 -0.54158604 -0.28484175 0.14219256 0.36002102 -0.33403406 -0.064960465 -0.035647072 -0.3326188 -0.15508072 0.59132975 0.20210694 -0.45710275 -0.12436844 -0.06113116 0.3258575 0.44997644 -0.5330239 -0.93101937 0.59363765 -0.096832626 0.116142504 0.11117369 0.08684501 0.11251578 -0.40113097 -0.23956117 0.17713614 -0.8499905 -0.23718284 0.27433592 0.0034148353 0.67573726 0.85826284 -0.14046037 -0.7585553 -0.17014132 0.4353228 -0.20138052 0.20358181 0.1796255
87 0.016419962 -0.69529945 0.04265743 0.62336576 0.03936503 -0.44032606 0.22624983 0.5955502 -0.08956368 0.61514413 0.1672606 -0.06606693 -0.47874355 -0.3187971 0.5988206 0.38533762 0.27591452 -0.23771562 -0.11149107 0.4783581 -0.1873635 -0.07260493 -0.15834114 0.3197375 -0.6027231 -0.1364553 0.4394334 0.1485982 0.15207216 -0.2653051 0.59174347 -0.35072803 -0.3194716 0.44378394 -0.2353239 -0.08287829 -0.21374449 -0.02736586 0.005727981 -0.17717637 -0.11728879 -0.10593368 0.31692278 0.33880132 -0.12545326 -0.312017 -0.46677127 0.27201366 -0.6244116 -0.6444831 0.033617623 -0.5361858 0.18800618 -0.09460138 0.22617167 0.35633495 0.43969992 -0.27678964 -0.12656657 -0.33495256 -0.16717389 -0.085411794 0.37101853 -0.21558656
53 0.30459636 -0.18441223 0.04883875 0.36973265 0.58230406 0.07392239 0.53212166 -0.09171529 -0.22457783 0.17539483 -0.2962252 -0.23763303 0.10292171 -0.5944313 0.3969425 -0.061039325 0.20203678 0.3673444 -0.86064816 0.57763654 0.0072672544 0.4358867 -0.23257935 0.275697 -0.74755996 0.1504019 0.100412905 0.13461627 0.48107043 0.8619105 0.34099364 -0.32122302 0.23576497 0.11390775 -0.29104376 0.2131235 0.8937466 -0.55132776 -0.10268496 -0.21157505 0.16146578 -0.21489795 0.24358259 -0.26411003 -0.5704369 -0.70850533 0.12796085 0.71127796 0.9126197 -0.025956014 -0.5108604 1.0454215 -0.06281701 0.33487496 -0.008171513 0.44540215 0.24122135 0.35906717 -0.16139281 0.30609465 0.72667074 0.43471718 1.021388 0.46417826
105 0.3693436 -0.5748664 -0.25490725 0.40918568 -0.1546701 -0.087619536 -0.32343528 0.6463958 0.722449 0.18267757 -0.12008332 -0.4041742 -0.2347428 -0.48764655 -0.36228758 1.0685562 0.34409297 -0.039368957 -1.2964592 0.8013132 0.036202125 0.59405357 -0.35807052 -0.06686047 -0.3299265 0.07066715 0.3355532 0.0074088145 -0.014477303 0.011505221 0.6650284 0.16832364 -0.36036992 0.020427823 -0.046707682 0.003944105 -0.6436587 -0.069687076 0.28399912 -0.14668083 -0.6989393 -0.9577043 0.7519268 -0.35954133 0.031993404 -0.11633777 0.0686533 0.2899535 -0.056503274 -0.14818479 -0.0017555853 -0.42750126 -0.47972697 0.43956313 -0.19353011 0.6030418 1.2337327 0.02993298 -0.5144322 -0.5289378 0.9429865 -0.49632004 0.12564191 0.6655306
81 -0.29526216 -0.39933476 -0.0460283 0.39260268 -0.062543295 -0.39181137 0.3075497 0.38003647 -0.3416589 0.54319197 0.17032963 -0.083399825 -0.62224066 -0.32154405 0.52496016 0.71531075 0.2522046 -0.26574913 -0.39739612 0.56823987 0.10539037 -0.09971564 -0.23801292 0.31043306 -0.4535546 -0.10278505 0.3677515 0.23135673 0.16522658 0.10258605 0.3890616 -0.21970564 -0.16919711 0.65741676 0.066718 -0.3053706 -0.0021600358 -0.06807647 -0.11035594 -0.32229623 -0.12103667 0.012657486 0.46396005 0.3562353 -0.094987035 -0.2250061 -0.4163147 0.14719419 -0.77811986 -0.5180263 -0.12279509 -0.77580494 -0.123146825 -0.0041406443 -0.06258018 0.26842764 0.40087053 -0.14283231 -0.36663705 -0.06043429 -0.119397 0.17766558 0.2839065 -0.07000206
99 -0.05487299 0.27029368 0.39387816 0.53293985 -0.4305283 -0.7201229 -0.13398589 0.11938153 0.12400952 0.25646496 -0.23658125 -0.32051018 -0.105619594 -0.7291096 -0.18908165 1.2791276 0.3992801 0.14499733 -1.1572785 0.7228358 -0.34386325 0.6497673 -0.6097315 -0.3595029 0.17409387 -0.2292581 -0.110211074 -0.047926936 0.40067184 0.25129804 0.22880363 -0.5648299 -0.09721306 0.32168293 -0.16959642 -0.7389442 -0.5519383 -0.03975006 0.50385135 0.0022419607 -0.77221 -0.76132655 0.98830205 0.17961726 0.22250003 -0.25127172 0.09830694 0.3566663 -0.47977108 -0.16358711 -0.08907365 -0.2869152 -0.4364294 0.53192645 -0.5522352 0.65385437 1.1235731 -0.14701954 -0.44520092 0.3796157 0.07154697 0.23305555 0.39087972 0.4411188
5 0.51641333 -0.052305553 -0.13158993 0.3124761 0.33769658 0.063007064 0.7948652 0.14511575 -0.06844842 -0.26989093 -0.2709206 0.851813 0.09880078 0.368625 0.10181675 0.42334956 0.45633227 -0.3364424 -0.865379 0.93511426 0.034199666 0.15126163 0.34801605 -0.018013991 0.112540476 0.16645624 0.6871592 0.37480822 0.084804796 0.5310856 0.105693415 -0.40162486 -0.10075168 0.317109 0.11352646 0.39307183 -0.018534845 -1.0474806 -0.18137178 -0.55809456 -0.29763892 -0.09054544 -0.6187963 -0.25435886 0.44008577 0.046535175 -0.37762114 0.55426735 0.7132363 0.6259447 -0.2751665 0.6215443 -0.57980424 0.4163577 0.3629309 0.40670022 0.6119726 -0.13691695 -0.18572925 -0.1642153 0.7157512 -0.13480343 0.42236075 -0.06907339
69 0.058055278 -0.3931524 0.11288138 0.27828726 0.034905523 -0.3370221 0.4333345 0.3913915 0.03524722 0.6890734 0.14773121 -0.43013173 -0.48426065 -0.3367457 0.32896185 0.7139098 0.20615157 -0.124378696 -0.36303824 0.62872434 -0.46124458 0.36938685 -0.13321249 0.23785631 -0.36458328 -0.54024756 -0.12667798 0.21836515 0.3128834 0.37734088 0.40342692 -0.13662486 -0.09480902 0.5255065 -0.38956007 -0.0702864 -0.47361448 0.17694438 0.1657026 0.068721 -0.4147516 -0.24102803 0.36549833 -0.114959404 -0.037501182 0.053158224 0.1495965 -0.06202912 -0.5695976 -0.34080985 0.20681916 -0.6026004 -0.20667362 0.1408838 -0.0742665 0.21675159 0.23036131 -0.2825144 -0.21131128 -0.077001885 -0.05646113 -0.14269686 0.39415914 -0.28613892
22 0.88715404 0.2053428 0.4114114 0.6515035 -0.4535891 -0.46463552 0.042090204 0.7072172 -0.6897799 -0.16671675 0.34602675 -0.20670702 -0.71948755 0.43134496 0.157291 0.11167369 0.4172793 -0.5124872 -1.0019934 0.4854632 0.1809136 0.4440245 -0.5903487 -0.45456132 -0.532578 0.24415581 1.0535108 0.53820693 -0.13072535 0.8398012 0.6270963 -0.62552005 0.18843938 0.3931043 -0.4692632 -0.047861125 0.33211425 -0.0011163825 -0.17564094 -0.7271389 -0.48179212 -0.05110032 -0.34704694 0.5686401 0.3331353 -0.13848145 -0.48272195 0.03806172 0.5791957 0.56691456 -0.05094662 -0.23329715 0.33398274 0.32462448 -0.27619565 0.62942076 0.56410736 -0.07753722 0.057189498 0.01575504 0.9388954 0.3205956 0.71368426 0.14019473
78 0.17290281 -0.5344106 -0.14699726 0.32185495 0.21441013 -0.3415442 0.0756732 0.3501359 0.124350086 0.44620252 -0.08053799 -0.23790441 -0.33711845 -0.4576287 0.44945556 0.51411223 0.38862658 -0.36447084 -0.2507907 0.43781695 -0.15393923 0.12637462 -0.1347583 0.2226654 -0.6884449 -0.21045785 0.17271648 0.101290464 0.28924432 -0.047547087 0.6885821 -0.39990926 -0.35341835 0.47673118 -0.12473202 -0.22064507 -0.3944093 -0.04986821 0.12514709 -0.036801767 -0.15614356 0.027104577 0.2790276 0.1502663 -0.15885769 -0.16880767 -0.3062476 0.18744609 -0.86311823 -0.43018186 0.17771986 -0.6167761 -0.2050771 0.012699785 0.14686486 0.25396186 0.30043697 -0.24298368 -0.42469484 -0.29604837 0.024016554 0.010154662 0.4494241 -0.16114442
84 0.27790287 -0.67745537 -0.040281918 0.45470136 0.13705818 -0.24043766 0.027135571 0.34835204 0.15088874 0.569076 -0.029421696 -0.32313782 -0.4035622 -0.62053394 0.526843 0.5895932 0.112431884 -0.076406404 -0.16257912 0.5502959 -0.21791124 0.44348708 -0.046282094 0.37498146 -0.41791224 -0.1796187 0.18930432 0.2505722 0.0925662 -0.03014666 0.16695498 -0.2671126 -0.06514524 0.69940895 -0.10373572 -0.2055931 -0.33883974 0.1287984 0.05912748 0.26712406 -0.2565667 -0.30832013 0.35148653 0.27572045 -0.11864193 -0.21729288 -0.1382369 0.07223564 -0.7548904 -0.38948712 0.044326097 -0.5471506 0.014314127 0.24452776 0.06040111 0.29158294 0.35396683 -0.2962854 -0.32050318 -0.021871576 -0.021193234 -0.065187626 0.38572973 -0.122661136
107 -0.17282443 -0.23922017 -0.19646858 0.5078745 0.3754008 -0.06675498 0.60116845 0.1538643 -0.54710704 -0.049891315 -0.15259704 0.36935553 0.12945724 0.41772178 0.53277266 0.318875 0.13339758 0.08541461 -0.25378937 0.6612268 0.19976786 0.23492832 0.18030521 -0.19458583 0.088812314 0.12850481 0.15507802 0.19508769 -0.1703177 0.6817657 -0.09659455 -0.36573076 0.41570532 0.6016749 0.4058665 0.35263065 0.041671105 -0.2795735 -0.15342811 0.03863945 0.113103725 -0.12999216 -0.6427946 -0.2741646 -0.46126947 0.08435719 0.57095253 0.46788347 0.020759864 0.38033897 -0.062643096 0.17289783 -0.45217255 0.2320497 0.0029719512 -0.24830802 0.6100559 0.081878215 -0.2160731 -0.30772856 0.45157215 -0.40378252 0.38398835 0.0009804628
77 0.34946084 -0.73861957 0.00816921 0.2186356 0.18486929 -0.20483412 0.18597405 0.06957491 0.25994793 0.50559795 -0.30093148 -0.18320578 -0.34394485 -0.8482646 0.57268554 0.5099747 0.1791809 -0.0037831024 -0.31077608 0.30133438 -0.29758254 0.53353924 -0.26070136 0.07082729 -0.3880949 -0.08891617 -0.153509 -0.08189349 -0.023675583 0.27464992 0.49432442 -0.5411217 -0.23748681 0.56672466 -0.19223134 -0.016843816 -0.36621544 0.22886184 0.15776241 0.5591999 -0.26482975 -0.08006309 0.0865458 -0.2151544 -0.45317218 0.18666022 0.5749046 0.18571474 -0.7942485 -0.124826394 0.14451253 -0.3963632 -0.0930774 0.2111515 0.05965671 0.15897532 0.10498587 -0.2609943 -0.64615107 0.05514157 -0.13086629 -0.13889615 0.59498703 -0.07443661
104 0.15878503 -0.0156833 0.029577147 0.48177454 0.030583559 -0.52794915 -0.19928041 0.21674338 0.5248928 0.29737225 -0.24663891 -0.38114986 -0.33342814 -0.9589318 0.29065552 1.1086438 0.32300097 0.3477385 -0.83178586 0.74025476 -0.072005644 0.66754454 -0.11506118 0.14254011 -0.06343041 0.11612009 -0.102079526 -0.1293877 0.03666607 0.16767368 0.4189227 -0.37654033 -0.080719806 0.56442577 0.1650352 -0.7120305 -0.3707407 -0.048526194 0.04835207 0.33455735 -0.5704077 -0.60965383 0.8002035 0.13330749 0.16865355 -0.1356923 0.14913581 0.13524015 -0.81370795 -0.28014094 -0.14357981 -0.5739456 -0.2187344 0.50724024 -0.38250753 0.447184 0.57332516 -0.21628322 -0.3980162 0.1444829 0.18810058 0.14735478 0.49488783 0.099227384
17 0.2021756 -0.2313092 -0.00769873 0.21040687 0.07594221 -0.38471627 0.6442447 -0.043083012 0.057207286 0.47837627 -0.029568633 0.644708 -0.28961888 -0.07425144 0.44076738 0.12751898 0.080889404 -0.010191714 0.34234273 0.05950356 -0.0089913495 0.10332827 0.22708449 -0.3871715 0.4062335 0.46106014 0.57697767 0.17527862 0.006613726 0.7940798 0.23507759 0.0009938983 0.06878401 -0.09263916 -0.090441234 0.47694895 0.49284905 -0.5311198 -0.056795515 -0.17504945 -0.27818656 -0.0410148 -0.046980716 -0.12795135 0.020532748 -0.20214398 -0.09052368 0.81429094 0.15985458 0.23145708 -0.06765111 0.08749828 0.23867232 0.14542258 -0.08107443 -0.008757228 0.037966054 -0.13742313 -0.19601226 0.046058603 0.3098461 0.13345683 0.35135388 -0.6640156
89 0.23262425 -0.49961147 0.13820574 0.24059556 0.15236244 -0.062201563 -0.0030992357 0.25299478 0.12509692 0.51577157 -0.15966488 -0.30546594 0.104398206 -0.36054006 0.3774752 0.4953259 0.16251995 -0.279421 -0.36929026 0.29368174 -0.29403126 0.092820846 -0.29098973 0.29169178 -0.3168464 -0.12061517 0.11415207 0.19058844 0.35982004 -0.07906405 0.39024073 -0.2609656 -0.3992816 0.46109587 -0.23667264 -0.09681817 -0.16655841 0.06543432 0.08821614 0.21705724 -0.27584705 -0.27674666 0.5078351 0.30204523 -0.05699158 -0.1958668 -0.050460227 0.1983107 -0.45205173 -0.17717151 -0.12203379 -0.30807245 -0.064654216 0.050073948 0.07257976 0.2857037 0.42025164 -0.022678183 -0.15498103 -0.24759935 -0.19820577 -0.16350968 0.21322057 0.11828643
14 0.0060427263 0.027623149 -0.1343089 0.5319943 0.06642527 -0.44235137 0.5595493 0.07911928 0.30236113 0.013966894 -0.1709654 0.47297335 -0.3014333 0.30331546 0.40392756 0.34582767 0.293245 0.1469398 0.16348977 0.33391696 0.0595353 0.098908655 0.2815528 -0.23277071 0.29063982 0.37502933 0.48497266 -0.02594182 0.32676694 0.6423147 0.13567565 -0.06482123 -0.050234117 0.16769421 -0.09093059 0.16749285 0.39581317 -0.61350465 -0.31496584 -0.24749841 -0.40963194 -0.30423656 -0.3179439 -0.26481998 -0.027956305 -0.30544052 0.028489064 0.6397069 0.31711414 0.15137248 -0.02188756 0.3437798 0.1296802 0.5041301 0.10384906 0.08558378 0.06721333 -0.064970754 -0.22532786 0.03647762 0.2159283 0.16283849 0.5324683 -0.33370495
59 0.37447008 0.15872246 -0.33262897 0.6864099 0.30598876 -0.19275548 0.27146482 -0.048980113 -0.17025745 -0.004728204 -0.32284498 0.22926226 0.18672115 0.40948606 -0.07057759 0.25746897 0.346412 -0.40992638 0.07417887 0.45596954 -0.08900956 0.27918348 0.570713 -0.16699965 0.5558002 0.4523555 1.0237166 0.11484447 -0.06756135 0.5762841 0.16444091 -0.0081666475 0.008541399 0.17786895 -0.06135276 0.3984757 -0.18467286 -0.4325841 0.462283 -0.05385621 -0.22085671 -0.31493786 -0.40805918 -0.32052088 0.46916443 -0.115325905 0.19931465 0.072366506 -0.33265644 -0.0078055435 0.11589817 0.017837554 -0.22971338 0.36193335 -0.061720036 0.24649693 -0.08286069 -0.05474652 -0.048951447 -0.08842678 0.3518257 0.004109879 0.5205207 -0.5796475
60 0.3044911 0.006301604 -0.29664958 0.6494765 0.07851858 -0.40714037 0.39311373 0.061515465 -0.05149455 -0.23921765 -0.26960254 0.20300038 -0.19618352 0.4182752 -0.16726668 0.3152239 0.41910514 0.009188264 0.06738003 0.38955265 -0.0062335557 0.25378266 0.3664754 -0.28231168 0.53156763 0.43298203 0.84288716 -0.16633344 0.23952177 0.43350223 0.3237072 0.103759445 -0.04427833 0.014049178 -0.119025394 0.35754758 0.09593656 -0.52915794 0.109769575 -0.24564764 -0.3991607 -0.31485456 -0.52622014 -0.26598465 0.39142242 -0.22724193 0.11743832 0.36334532 0.17892994 0.13251571 -0.029878378 0.0012925089 0.13506466 0.6359273 -0.092125714 -0.025204677 -0.10250076 -0.02894085 -0.28375533 0.03902826 0.37097937 0.26980522 0.44177592 -0.4395847
58 0.26244837 -0.026328731 -0.27106935 0.6268315 0.070220284 -0.41396764 0.40029928 0.045511033 -0.051498666 -0.19614594 -0.25393042 0.23632517 -0.19902441 0.39790538 -0.17894009 0.3183382 0.3975223 -0.010278943 0.045194175 0.41569215 0.005273802 0.19724753 0.35213783 -0.21444654 0.51550776 0.3933142 0.7798632 -0.18441918 0.27330324 0.3868297 0.32705492 0.1194206 -0.06775481 0.047796495 -0.11847632 0.3259817 0.045342848 -0.5092593 0.10365027 -0.23545666 -0.38383773 -0.3021436 -0.5443684 -0.26472545 0.41201553 -0.22167057 0.08582534 0.33088276 0.18588252 0.16515645 -0.021485377 0.039126884 0.12554601 0.6557751 -0.076848805 -0.0035020467 -0.10894707 -0.04932355 -0.28436807 0.0053309277 0.33315238 0.24788149 0.3896306 -0.41476345
25 0.09516878 -0.7162933 -0.059304968 0.350794 -0.5217453 -0.7631563 -0.12241986 -0.14549235 0.10883222 0.4668514 -0.44399008 0.46347612 -0.04876816 0.26592875 0.70629203 0.41213712 0.046038926 -0.3131411 -0.82046616 0.21790564 -0.044044126 -0.44220355 -0.30183303 -0.3339367 0.2620979 0.7714814 0.003161318 0.14988929 0.25305358 0.8302011 0.47852078 0.14579436 -0.5105473 0.35090235 -0.3999813 -0.11852842 0.8037131 -0.7485498 0.024093147 -0.29531333 -0.21307735 -0.5309117 -0.23155254 -0.16691326 0.15172802 -0.8971002 0.030737383 1.1994396 0.59349424 0.082040526 0.06938983 0.6999123 0.54070264 0.7225812 0.28236002 0.2051795 0.5121483 0.11339007 -0.48140505 0.27102214 0.16382247 0.6613829 0.58724093 0.3051555
18 0.10806821 -0.08737765 -0.1313478 0.49475813 0.09215484 -0.31386167 0.56677496 -0.012337892 0.065181576 -0.13895929 -0.22689965 0.5184148 -0.1348011 0.4024555 0.3418168 0.24732408 0.3026796 -0.056919675 0.1497248 0.31127447 0.060363714 0.11810937 0.09500398 -0.111406155 0.2506581 0.39352596 0.61476666 0.020140983 0.4003561 0.4770882 0.089145035 -0.25123674 -0.3041107 0.13731371 -0.0897716 0.26229316 0.31936926 -0.7662332 -0.30029446 -0.2450375 -0.3249322 -0.08531507 -0.31877583 -0.104234874 0.030566607 -0.17844047 -0.15634575 0.5808548 0.31519344 0.2247341 -0.1777374 0.35762078 0.011992192 0.4305278 0.20111464 0.15754248 0.100461595 -0.0644616 -0.25534353 0.0766825 0.11197846 0.18458457 0.58951616 -0.31398743
61 0.29890808 -0.049697753 -0.2503613 0.5750924 0.04583992 -0.37522435 0.37559885 0.012853241 -0.107451156 -0.15897626 -0.27236006 0.26867732 -0.15196832 0.355616 -0.17925097 0.31789434 0.37292156 -0.07610122 -0.05116512 0.4498898 0.011410545 0.1433036 0.26853824 -0.22988288 0.4780834 0.4183305 0.8053442 -0.12557647 0.27694187 0.41730428 0.33072966 0.07417299 -0.09925098 0.046742756 -0.16309275 0.347689 0.08424473 -0.52339417 0.12129019 -0.25525454 -0.32222158 -0.2750757 -0.5438381 -0.19756202 0.40119994 -0.25773638 0.093714915 0.39811963 0.21546216 0.121803924 -0.028907709 0.09854692 0.10016915 0.6009411 -0.052960206 0.009484775 -0.04101061 -0.02466544 -0.29292715 0.038879704 0.38866818 0.28680784 0.39019778 -0.33230522
26 0.08280515 -0.59681296 0.02226012 0.5692262 -0.5361156 -0.8590579 -0.09407946 -0.27045608 0.02550773 0.31982118 -0.4914088 0.43553162 -0.352418 0.37105048 0.48744276 0.43264046 0.012210679 -0.26950774 -0.37132612 0.25902337 0.09903861 -0.47489202 -0.21003017 -0.30714482 0.41383234 0.86674136 0.14804612 -0.030929536 0.35254118 0.7002448 0.54725957 0.065872185 -0.56225026 0.4476114 -0.30252942 -0.071996 0.6703048 -0.61837703 -0.14989097 -0.24453701 -0.33370006 -0.4262076 -0.4111567 -0.035989564 0.25981396 -0.81262505 0.015685305 0.9119205 0.51186526 0.07895357 0.072058365 0.60394096 0.5289587 0.79261506 0.16068195 0.32533988 0.32424405 -0.015877603 -0.567403 0.25445503 0.030715939 0.65992284 0.48772296 0.23967013
70 0.035811044 -0.47764564 0.043521967 0.2978048 0.35341147 -0.3028659 0.34942338 0.38939655 -0.10057693 0.31600347 0.008371205 -0.26229653 -0.32835957 -0.19539897 0.26539445 0.5415966 0.19563618 -0.1491811 -0.11635105 0.41718128 -0.06465149 0.425456 -0.27557188 0.21632515 -0.4047303 -0.27058917 0.3040685 0.28012088 0.15426105 0.14484091 0.23787752 -0.17096195 -0.10816682 0.6110491 -0.1697409 0.07676604 -0.46241564 0.36887822 0.039529063 0.004301185 -0.28091732 -0.046690676 0.40325612 0.13176881 -0.45322564 -0.1601048 -0.23870419 0.13779606 -0.6288384 -0.30497906 -0.015665716 -0.37942907 -0.2555483 0.0486757 0.2750022 0.37511507 0.57108814 -0.13089485 -0.4097473 -0.07538123 -0.048553314 -0.061764665 0.49153057 -0.16184805
48 0.059712514 0.054601923 -0.091907844 0.45332956 0.06403511 -0.42662045 0.4768768 0.06701248 0.34290564 0.047907744 -0.16421705 0.46529225 -0.27933535 0.23599778 0.33932745 0.3794942 0.23955955 0.15163271 0.11641514 0.28874612 0.0674423 0.15130672 0.21938545 -0.24941024 0.28829405 0.40033454 0.52305704 -0.08016315 0.33014467 0.6737015 0.09223017 -0.034729593 -0.025476327 0.114549585 -0.13073163 0.13234834 0.3965901 -0.59814984 -0.29835227 -0.23917644 -0.3823277 -0.3345746 -0.22020504 -0.19631901 -0.0081295855 -0.36943784 0.06271802 0.66984344 0.30321094 0.098197564 -0.02848827 0.35326466 0.11895717 0.4429079 0.077164605 0.12043071 0.10830199 -0.083217025 -0.2135083 0.13633968 0.250506 0.24285421 0.49386272 -0.285437
55 0.10083259 -0.052695453 -0.12391359 0.42314225 0.20666309 -0.15424226 0.4673296 -0.0937186 0.17740382 0.06821776 -0.25077084 0.54738086 0.11093883 0.23689684 0.3843738 0.38961652 0.21424067 0.1486026 -0.19620663 0.4457956 0.057607193 0.2524473 0.12426207 -0.21510854 0.12310716 0.3165868 0.47761476 0.04807103 0.3337649 0.69554734 -0.0954145 -0.050731283 0.035486177 0.33916906 -0.06821411 0.1154875 0.3735031 -0.6282054 -0.21362308 -0.17310861 -0.27859172 -0.3429931 -0.25545394 -0.2374842 -0.13805468 -0.33080822 0.17107591 0.6627332 0.34917676 0.25140253 -0.12155095 0.49346375 -0.07591067 0.36975625 0.18614201 0.16491356 0.25242984 -0.009667284 -0.14087489 0.124639235 0.23570572 0.17043121 0.45324546 -0.09142516
75 0.0824494 -0.42578053 -0.17425093 0.44140965 -0.08602736 -0.26617467 0.26841086 0.26623175 -0.23178889 0.34398827 0.097865045 0.030194039 -0.31871882 -0.28086776 0.17974983 0.24451822 0.25234938 -0.5879419 -0.32168233 0.32153916 -0.12080839 -0.19696599 -0.2073137 0.24298157 -0.20329477 -0.023300644 0.5442289 0.037988074 0.3382555 -0.09853404 0.55137885 -0.2814684 -0.29042596 0.30139008 -0.13349332 -0.0722113 -0.0955333 -0.110617794 0.22455326 -0.34965113 -0.19313769 -0.04541955 0.17034781 0.34531322 0.14682671 -0.1357464 -0.3777034 0.075520985 -0.5398335 -0.30847478 -0.15953746 -0.52601236 0.056556694 -0.031617012 -0.14554752 0.35726178 0.16453357 -0.19659905 -0.32644612 -0.10006449 -0.07590548 0.081856616 0.13255653 -0.042222213
33 0.049350556 -0.047645874 -0.3195565 0.6438931 0.0919201 -0.45315424 0.7117743 -0.020229483 0.33658698 -0.107927814 -0.1785257 0.4464676 -0.30784252 0.40069535 0.42751348 0.2851599 0.46947506 0.33597478 0.4418252 0.4581062 -0.02992123 0.36433282 0.42874852 -0.27994236 0.029877663 0.23196353 0.6634349 0.28058472 0.45480257 0.32068166 -0.03130222 -0.37301865 -0.05998169 0.44175658 0.18481192 0.0775115 0.5632468 -0.84109616 -0.6121613 -0.4692879 -0.6316488 -0.41736668 -0.023412418 -0.34224802 -0.21857372 -0.021062462 -0.2330499 0.40903968 0.5395681 0.17389768 -0.20680907 0.20102511 0.011065801 0.56330955 0.04894382 -0.09194171 -0.084018454 -0.14437333 -0.21949162 0.14233324 0.15496556 -0.042014435 0.5897187 -0.42149255
71 -0.06021868 -0.5291468 -0.078291155 0.8786057 0.66918826 -0.36536953 0.9435612 0.57607925 -0.48054108 0.42321992 0.1836356 -0.42659253 -0.47050485 0.26465762 0.45393723 0.5215305 0.6586347 -0.1337331 0.33967862 0.6407779 -0.3051506 0.3405704 0.23069249 0.21302791 -0.22844864 -0.6501825 0.6312761 0.28408325 0.46908042 0.744937 0.556111 0.03088133 0.174703 0.58104897 -0.43508333 0.35829914 -0.4147511 0.15194087 0.08080819 -0.022018664 -0.13844584 0.15846764 -0.04538786 -0.11080529 -0.21570097 -0.20002858 0.2144447 -0.012923498 -0.7125239 -0.23718806 0.14533767 -0.6302579 -0.21175368 0.043789305 0.0019519348 0.09016399 0.19389077 -0.43334505 -0.16441184 -0.26057282 -0.25290608 0.086751066 0.5903996 -1.0112408
103 0.10156634 0.0066823903 -0.1104416 0.3951702 -0.13534887 -0.3003415 -0.44243464 0.14914715 0.90286577 -0.067584045 -0.17153217 -0.19878489 -0.19029713 -0.24218026 0.15480846 0.8149551 0.3089601 0.47214526 -0.7562657 0.47289312 0.23394008 0.6237952 -0.019898877 -0.0006558359 -0.21187107 0.3422613 0.047746647 0.08260596 -0.057275534 0.29504508 0.28528264 -0.16474698 -0.366676 0.029038804 0.1966526 -0.3828627 -0.11203146 -0.44096303 -0.091300845 0.16958804 -0.4116805 -0.6639342 0.593483 -0.26217955 0.17283365 -0.06261725 0.037542794 0.36554432 0.062484037 -0.048116423 0.008799526 -0.048983537 -0.24633442 0.22752649 0.017164497 0.6232024 0.77791387 0.09841582 -0.27122244 -0.16250493 0.63510555 0.06458505 0.33532572 0.20150203
76 0.41501352 -0.69898087 0.099438526 0.2938839 0.2384999 -0.25343344 0.04565235 0.2427279 0.19941744 0.41367266 -0.2793936 -0.3324353 -0.2945264 -0.66412985 0.48846784 0.6945349 0.1290792 0.13974673 -0.19992658 0.59481376 -0.24568254 0.6104289 -0.14859866 0.16918252 -0.40692365 -0.15246443 0.0060667074 0.23669839 0.027839204 0.17790252 0.028103927 -0.21758443 0.04811513 0.69108605 -0.044439375 -0.1433018 -0.3173711 0.3246072 0.095593914 0.4859073 -0.26109853 -0.21369688 0.3130378 0.124270216 -0.28706375 -0.056825474 0.21978164 -0.083142936 -0.8149583 -0.13736567 0.14571649 -0.45167285 -0.12656865 0.30870217 0.13214426 0.108946465 0.2969751 -0.18219188 -0.4465724 0.123501115 0.09085433 -0.040194143 0.4313304 -0.024206858
62 0.07152367 -0.005353994 0.21972002 0.2617425 -0.24628244 -0.4620059 -0.2976692 0.022999909 0.64312613 0.23138729 -0.14905855 -0.023291172 -0.3538534 -0.5204544 0.32985726 0.7766257 0.12688366 0.5532752 -0.6740861 0.5664991 -0.062165014 0.5477597 -0.095670044 0.06084595 -0.17396913 0.26426956 0.072140045 0.24985257 -0.05481554 0.14687268 -0.08070976 -0.24527809 -0.14066167 0.3277357 0.17803025 -0.5846325 0.11466603 -0.39064288 0.00029158656 0.14848787 -0.42356518 -0.58488387 0.6627642 0.062209938 0.257628 -0.038971305 -0.28055757 0.22872713 0.004181534 -0.25074947 -0.036634117 -0.04218289 -0.12743618 0.23936327 -0.018397298 0.5718998 0.5802116 -0.05125453 -0.27435923 0.22641319 0.38674837 0.2553313 0.25935462 0.13120888
100 0.095758714 -0.011336364 0.11730158 0.33625978 -0.060898464 -0.3539732 -0.2556031 0.029558927 0.5519662 0.1912525 -0.11224003 -0.15166858 -0.28626657 -0.5537824 0.37615988 0.6899254 0.098305546 0.5459474 -0.51148903 0.47911155 -0.03127307 0.66035694 0.017866313 0.08954123 -0.016674196 0.17921403 0.009770818 0.11187227 -0.20057832 0.19244102 -0.03072187 -0.24829485 -0.028367061 0.3987467 0.22450675 -0.5098539 0.020860441 -0.12552032 -0.015943157 0.37185484 -0.3546338 -0.55512154 0.5602493 0.034424186 0.13659085 -0.014302082 0.0035788247 0.11913704 -0.28248096 -0.15850362 -0.08452937 -0.22503863 -0.09112686 0.3038289 -0.10149246 0.4671692 0.4566399 -0.08254824 -0.2207457 0.18044554 0.19328283 0.16832058 0.2526499 0.017213596
34 0.09328025 -0.0703822 -0.30678564 0.69842327 0.040903784 -0.4545874 0.7579892 -0.08246333 0.37745708 -0.121537685 -0.31354174 0.43796042 -0.34623882 0.40859106 0.32224885 0.19834588 0.43705142 0.3716156 0.4736543 0.41393 -0.035063267 0.36080065 0.2756786 -0.23028961 0.13755703 0.294114 0.72853625 0.19770117 0.48529446 0.27096558 -0.022256339 -0.3518151 -0.10098669 0.49183726 0.13691619 0.10609209 0.44370392 -0.8697489 -0.581456 -0.5490877 -0.6237788 -0.41440532 -0.0886822 -0.34774682 -0.22274119 -0.03641926 -0.10861837 0.34613556 0.49037993 0.17613025 -0.27787316 0.18876997 0.14203875 0.5653164 0.014681473 -0.064525396 -0.13801455 -0.085559726 -0.30049276 0.093259 0.09804744 -0.08801797 0.5489333 -0.40065232
82 0.030684192 -0.51570654 -0.09936303 0.38959187 0.04598494 -0.24292354 0.13000861 0.38462955 -0.047046587 0.524513 0.055990305 -0.19726482 -0.38988873 -0.42555574 0.3558933 0.48241106 0.16822979 -0.32568797 -0.29424435 0.4215142 -0.12019465 -0.020744925 -0.10404942 0.33055568 -0.41422397 -0.08554918 0.33195904 0.16544344 0.2530496 -0.0979622 0.47543433 -0.2505751 -0.27260306 0.487057 -0.112075694 -0.21065146 -0.21681342 -0.087185785 0.07815084 -0.10826699 -0.1281102 -0.11809231 0.344665 0.26633596 0.02087128 -0.17069302 -0.36746117 0.1515072 -0.6091094 -0.4897959 -0.0154922865 -0.5617958 0.062534735 0.0447992 0.026556022 0.33529672 0.2776723 -0.16531241 -0.38887432 -0.17051412 -0.08400279 -0.040986963 0.29449263 -0.075302914
79 0.04041202 -0.40803668 -0.065251656 0.6091368 0.3006931 -0.2601817 0.13962291 0.3263476 0.0792175 0.21550134 -0.02476764 -0.37488604 -0.34988847 -0.32939714 0.30385622 0.49845415 0.4255593 0.11293285 -0.10349237 0.43801814 -0.08948938 0.35964584 0.04238435 0.1617216 -0.33381656 -0.16105945 0.24432614 -0.05244211 0.114714704 0.15878813 0.47721863 -0.2007695 -0.030909924 0.30942887 0.013949673 -0.20917706 -0.34610438 -0.028709976 0.083905034 0.20454505 -0.05211276 -0.051429946 0.27192917 -0.036573052 -0.07998252 -0.04657581 0.1261392 -0.0295332 -0.7841577 -0.29817194 0.08318447 -0.6306389 -0.1783323 0.055609725 -0.02714095 0.16209403 0.22209258 -0.32155138 -0.3440129 -0.13259698 -0.08757751 -0.0071604243 0.4024706 -0.3557325
74 0.010571067 -0.35060024 0.14781237 0.3456262 -0.102612615 -0.3442073 0.23560096 0.38156158 -0.14582185 0.44381598 0.13003771 -0.012669389 -0.4010372 -0.28516847 0.23357722 0.6280638 0.15145324 -0.08215388 -0.4479694 0.5674538 -0.10869513 0.04696329 -0.23904464 0.17635912 -0.21999006 -0.1058539 0.31469733 0.25278825 0.093998834 -0.014570339 0.17555313 -0.044108335 -0.078643285 0.45282426 -0.12189723 -0.2020659 -0.07306509 0.022563929 0.07549016 -0.23144676 -0.31698892 -0.2981177 0.42663616 0.29113036 0.0777021 -0.18665887 -0.3279848 0.059747264 -0.35257986 -0.2992248 -0.12552126 -0.45325285 -0.026067832 0.18988152 -0.053030904 0.32712293 0.48161224 -0.1120339 -0.15430428 -0.009277444 0.06339934 0.049828712 0.13896342 0.005186768
3 0.2691516 0.16820732 0.08350307 0.082676366 -0.08913143 -0.16816972 0.19100037 0.036673933 0.34133354 -0.26056144 -0.18975523 0.550618 -0.04401197 0.09469016 0.3365415 0.5812846 0.20580813 -0.07115873 -0.8120216 0.5646494 0.1812322 0.4369158 0.1283996 0.10850571 -0.06486222 0.1779131 0.21840969 0.29270008 -0.012836529 0.2461107 0.013761344 -0.6711116 -0.40191266 0.29383826 0.26937544 -0.1377399 0.028775232 -0.7906997 -0.30563134 -0.16183528 -0.40616935 -0.074082546 0.04726102 -0.030636827 0.40721074 0.23239711 -0.5756755 0.25093874 0.25242442 0.35999972 -0.22275966 0.24613293 -0.42184258 0.17209193 0.34818795 0.7714063 0.6444506 -0.14298588 -0.14251162 0.14733148 0.30939245 0.22741504 0.41919565 0.0052762623
67 0.24304487 -0.08691947 0.04525798 0.33783633 -0.17642309 -0.37914345 -0.3604414 0.41315627 0.85456586 0.27116174 -0.29633608 -0.30376506 -0.18203412 -0.7584546 0.16711423 1.1057746 0.23748331 0.23811077 -1.0809423 0.61401886 -0.042829487 0.53041625 -0.06631914 0.00817733 -0.33262086 0.124347754 -0.15831195 0.001276672 -0.023382388 0.053848352 0.51517826 -0.33358875 -0.32459417 0.3369071 0.14384335 -0.5874413 -0.21553172 -0.12512778 0.12650092 0.24764499 -0.68312883 -0.76330835 0.73328376 -0.051616438 0.1947972 -0.08930644 0.068752505 0.31065768 -0.42044002 -0.26071253 -0.0065912735 -0.47243473 -0.21769421 0.43896958 -0.25936964 0.5065227 0.81277406 0.093266904 -0.52197117 -0.17150997 0.5525235 -0.032242503 0.33258164 0.43485528
86 -0.051288728 -0.4673407 0.0016623096 0.4619441 0.11053951 -0.30671653 0.26196876 0.4705987 -0.17457628 0.5182003 0.14485312 -0.192495 -0.42342928 -0.31688976 0.45977944 0.52365947 0.19471182 -0.2317531 -0.19310856 0.44111022 -0.117668666 0.0331622 -0.08470261 0.34500325 -0.38839614 -0.16152562 0.35612997 0.23671278 0.20872867 -0.006074724 0.40864998 -0.20722495 -0.16628137 0.60480183 -0.11747216 -0.17676522 -0.17249425 0.06739383 0.019557353 -0.0925287 -0.18147732 -0.10572555 0.37576774 0.34064966 -0.052999638 -0.19568747 -0.34432414 0.12867348 -0.63901705 -0.45994964 -0.083375566 -0.61237323 0.06717689 0.084291205 -0.0042190207 0.35293686 0.38350838 -0.14617823 -0.2720402 -0.1583721 -0.16251963 0.023499854 0.30148774 -0.20328106
80 0.004508039 -0.27782238 0.11720416 0.29279312 -0.061562087 -0.28506193 0.23357525 0.2850893 -0.14651875 0.35290083 0.10432974 0.029050305 -0.32319704 -0.15393281 0.22651899 0.4687492 0.15082353 -0.08423175 -0.31315124 0.4544583 -0.08454408 0.0003974444 -0.1926274 0.12575193 -0.1845208 -0.063838154 0.3009681 0.2334569 0.11116746 0.049398422 0.15210402 -0.07148165 -0.10243819 0.36792564 -0.12542355 -0.115443 -0.02300069 -0.03992799 0.031237224 -0.22525117 -0.22817768 -0.19398256 0.2895411 0.21201918 0.039289434 -0.15347731 -0.28672636 0.11752543 -0.21277128 -0.22666672 -0.09647478 -0.29517013 -0.029024865 0.12109119 0.0050679506 0.27980664 0.3925811 -0.09351937 -0.11185234 -0.023934327 0.054045863 0.04891431 0.16279717 -0.042508606
83 0.09721293 -0.5043624 -0.03265509 0.38204634 0.35248554 -0.2773884 0.41994423 0.29049176 -0.27096328 0.366879 0.07366917 -0.20422836 -0.34196338 -0.14268567 0.2594323 0.30811927 0.26374093 -0.27809852 0.019349119 0.42647102 -0.23772596 0.14324363 -0.18729015 0.25710636 -0.34810197 -0.18631211 0.41293466 0.27701026 0.3362057 0.119945444 0.30971688 -0.1546386 -0.11921245 0.55103207 -0.21699993 0.041684683 -0.33303297 0.08713836 0.17415243 -0.13689977 -0.058735035 0.020333087 0.19501874 0.18510167 -0.22151631 -0.12386779 -0.29080507 0.10722423 -0.5852233 -0.3615964 0.021312676 -0.372939 -0.14841813 0.013280761 0.23799992 0.28031504 0.27438775 -0.21449848 -0.3848924 -0.10669041 -0.104261026 -0.111504 0.44867635 -0.32612798
68 0.3580976 -0.22551066 0.009739414 0.29438022 -0.07677778 -0.32852665 -0.16517767 0.36822397 0.90328956 0.38747212 -0.24367376 -0.087370045 -0.22036704 -0.8411829 0.4342501 0.87034416 0.12019479 0.3275864 -0.60889846 0.42071864 -0.08960824 0.4390305 0.29163808 0.25687745 -0.45018476 0.1024837 -0.1661386 0.075129695 -0.17586131 -0.06102021 0.33190772 -0.2837256 -0.30628118 0.47805113 0.1464999 -0.47143894 0.090940066 -0.06325306 0.0033477724 0.43716717 -0.5582063 -0.61412406 0.39107952 0.06850749 0.23811024 -0.05131002 0.045117974 0.21071085 -0.44578183 -0.35043672 0.01616152 -0.5225802 0.14484428 0.3339354 -0.08452049 0.30867597 0.25720933 0.19142158 -0.5309529 -0.13348565 0.4732259 0.03399023 0.21711518 0.2214728
102 0.063572496 -0.03235768 0.08074719 0.30800804 -0.15766756 -0.4084869 -0.18011497 0.07541122 0.51222205 0.30118954 -0.12765047 -0.118667446 -0.2915635 -0.58390677 0.40570998 0.73360646 0.14986584 0.30911043 -0.5159532 0.3618519 0.0021386906 0.4755555 -0.1362391 0.14409153 -0.18641813 0.080827124 -0.060252856 0.075775266 0.009272553 0.20505697 0.19037198 -0.37886387 -0.2699948 0.37006894 0.09357364 -0.50752294 -0.03661947 -0.19261062 -0.06648094 0.25734305 -0.40317327 -0.3779023 0.61246485 0.08533115 0.10926907 -0.023853699 -0.027650854 0.22327013 -0.3681381 -0.20042138 -0.033984393 -0.25169232 -0.04329156 0.18312037 -0.06800846 0.47106764 0.4109412 -0.059286945 -0.24808145 0.12673953 0.08354656 0.2662976 0.37681246 0.0303816
65 0.15873027 -0.27683017 0.044307884 0.38001305 -0.39178577 -0.25009963 -0.4324233 0.35436103 0.7645747 0.22995636 -0.10894111 -0.247857 -0.23233147 -0.3876846 0.10885343 0.9873071 0.18439883 0.2437395 -1.0541292 0.5300518 0.045609426 0.6500319 -0.3366957 -0.06276625 -0.37240896 0.055902395 0.0986033 0.19412878 -0.039646264 0.16283007 0.2958853 -0.25483835 -0.44069967 0.13920602 0.051168066 -0.34095603 -0.21616106 -0.24378769 0.1705065 0.13431656 -0.6043795 -0.75264716 0.8047804 -0.21875605 0.07049222 0.011948602 -0.045099724 0.38626933 -0.006581332 -0.12157674 0.08672588 -0.24333297 -0.31025016 0.21616319 -0.035811108 0.7277753 1.1071824 0.058675133 -0.40154487 -0.21430497 0.52658236 -0.031800203 0.2448788 0.45416212
96 0.25085428 -0.3015153 0.065010585 0.29113245 0.26378915 0.025154946 0.061335403 0.21400635 0.46320525 0.2251751 -0.25848976 -0.2285818 0.16113237 -0.41589734 0.21941522 0.5423284 0.25280628 0.13339178 -0.24745262 0.17389338 -0.14468299 0.36553925 0.018736858 0.2031195 -0.21657823 -0.12250201 -0.024644468 -0.039860185 0.10058117 0.041216865 0.30187955 -0.11115201 -0.17759642 0.31608453 -0.043123696 -0.10770278 -0.069023706 0.07760529 -0.0076933256 0.42398027 -0.2971243 -0.34346905 0.35700867 0.02384355 -0.07295702 -0.043671273 0.3407548 0.046193805 -0.34700295 0.004098158 -0.10480978 -0.32615495 -0.14303742 0.13428515 -0.084808454 0.10787951 0.22716908 0.0021864031 -0.27066007 -0.20149526 -0.008114022 -0.1812936 0.11525945 0.03389122
42 0.21576807 0.17297295 -0.17059048 0.011284132 -0.7044896 0.11621058 0.44973123 0.062459495 0.1652808 0.31917068 -0.5133678 0.8187306 -0.5291572 -0.14239718 0.3015188 0.7800511 0.70739543 -0.8038572 -0.96878326 0.5495803 0.1466641 -0.27945742 0.06636328 -0.60107183 0.32575572 0.26472607 0.44666034 0.37787527 0.22009267 0.22017726 0.12876423 -0.50645214 -0.06828646 0.021710237 -0.3673059 0.46517962 -0.089829594 -0.12324922 0.27274585 -0.7631806 -1.0666035 -0.17124192 -0.44239125 0.268358 0.13412991 -0.278618 0.14678754 0.17703933 -0.2014839 -0.14435132 0.10552218 -0.4762363 -0.1675607 0.045021553 -0.52801365 1.0813439 0.94243485 0.20543353 0.038529947 0.481847 0.57204676 0.6843446 0.3473381 -0.3530631
91 0.09426 -0.47413775 -0.055143382 0.48220682 0.41116664 -0.2581121 0.2873252 0.31978706 -0.030143451 0.2846469 -0.026631882 -0.36368704 -0.33795413 -0.28918812 0.34703767 0.53220916 0.3634088 0.028262846 -0.023417614 0.4468745 -0.14570898 0.51398456 -0.043266453 0.16709606 -0.31943205 -0.2819262 0.24706644 0.10914108 0.1272558 0.2971553 0.34601414 -0.19786616 0.0023696863 0.5217177 -0.1106388 0.014820408 -0.44486624 0.18614338 0.08701485 0.22093683 -0.15029766 -0.009701264 0.2413509 -0.048583735 -0.30220962 -0.036649153 0.12863824 0.004397075 -0.744613 -0.22783776 0.095045656 -0.52130246 -0.2430161 0.097711176 0.074076846 0.21765512 0.32789716 -0.2888064 -0.38269356 -0.09207958 -0.09241185 -0.02789424 0.50257623 -0.39741603
41 0.23872606 0.23154193 0.09816039 0.1528629 -0.3546553 -0.1010245 0.3007259 0.19212516 0.11272961 -0.016982198 -0.10090988 0.51803446 -0.23502016 0.13154112 0.20193769 0.22923179 0.26181218 -0.26143718 -0.5880739 0.30280048 0.17052393 -0.03780724 -0.10675716 -0.33528355 -0.13288566 0.2723912 0.38670373 0.23228143 0.12562436 0.3867388 0.07235933 -0.39227316 -0.07549672 0.062351704 -0.2048641 0.073850155 0.33528212 -0.27124104 -0.20926462 -0.52381593 -0.5026382 -0.10615732 -0.31274244 0.15585634 0.039856017 -0.1572954 -0.13392445 0.26895693 0.47677216 0.22800764 -0.0520559 0.20048295 0.10490678 0.15458743 -0.14175875 0.5120697 0.38063017 0.15219139 -0.006541128 0.16611575 0.5736528 0.25067306 0.3735627 0.08974443
16 -0.025647612 -0.03617473 -0.035328273 0.38071263 0.05207179 -0.3434225 0.43085057 0.027200488 0.35405833 0.17123565 -0.13022096 0.41943458 -0.23506975 0.097773485 0.4915875 0.29624197 0.16893144 0.14786658 0.057028923 0.258479 0.05210443 0.03614365 0.08629307 -0.1866815 0.102466755 0.32537815 0.30325803 0.031310514 0.33119598 0.6295288 0.027364891 -0.09978931 -0.030991603 0.19828466 -0.102365196 0.00095952715 0.4009939 -0.53650796 -0.35280433 -0.209263 -0.31105024 -0.3158032 -0.09276316 -0.13718371 -0.16636735 -0.36684674 0.041414045 0.65033984 0.34819528 0.08838263 -0.051936265 0.42160347 0.060278285 0.37023175 0.09484074 0.14480676 0.16715853 -0.07348678 -0.16767375 0.101707414 0.18628387 0.12693208 0.45633715 -0.16371213
35 0.04157951 -0.0027698483 -0.0039939783 0.13813853 0.004379821 -0.12890701 0.49538392 0.095654465 0.22453415 -0.037179414 -0.13228486 0.54389864 0.021433676 0.2046568 0.10946263 0.32213718 0.09091629 0.07050745 -0.4697652 0.46867812 0.18562019 0.13925885 0.13317117 0.049691677 -0.07194984 0.089884296 0.20140597 0.010157961 0.25623056 0.17383966 0.0069478485 -0.30533525 -0.19382747 0.2057444 0.10175458 0.05484014 0.16600063 -0.49582818 -0.27186298 -0.17574945 -0.3066759 -0.26089504 -0.21406227 -0.118904464 0.08236279 0.014937389 -0.15455957 0.35372537 0.35340363 0.3267881 -0.15455952 0.43854505 -0.10026117 0.33914375 0.13362011 0.31853512 0.3476035 0.02837416 -0.23840766 0.08460956 0.38506687 0.021734785 0.28841344 0.033188026
31 -0.026385024 -0.017169181 -0.034643725 0.3772163 0.016035233 -0.32113317 0.49376947 0.020395262 0.35588306 0.21057719 -0.15081139 0.49646485 -0.21744463 0.07516714 0.36065465 0.31837413 0.19369291 0.15113047 0.00831969 0.33093125 0.07215392 0.0012470307 0.044222962 -0.16076078 0.05762508 0.28469586 0.39587548 0.035429083 0.41253635 0.5610744 0.0048101204 -0.103972174 -0.07584834 0.19583218 -0.14482643 0.007784595 0.38593963 -0.5266942 -0.35477304 -0.27009225 -0.3190953 -0.30656925 -0.14319782 -0.10643311 -0.12376374 -0.38215443 0.03526827 0.63786674 0.39607143 0.09688698 -0.046007924 0.4740779 0.07318914 0.37459624 0.08859862 0.14388652 0.11462864 -0.04975281 -0.15848856 0.097981565 0.23594697 0.15454927 0.40873232 -0.12721509
63 0.2586507 -0.01593227 -0.05772304 0.007560015 -0.19093734 -0.34760264 0.10053357 0.29980516 0.4228916 0.31960604 -0.02797734 0.16683903 -0.1639054 -0.6652124 -0.031736244 0.6193252 0.0011013378 0.02310645 -0.5892332 0.2259637 -0.033426385 0.13625784 -0.003986153 0.194035 -0.12586546 -0.069653444 0.0096662855 -0.059240807 -0.117066145 -0.14765805 0.41338325 -0.042935494 -0.34673378 0.2800314 -0.028035147 -0.07880963 -0.052463174 0.093948275 0.094713986 -0.046369907 -0.6004616 -0.39139614 0.4681252 0.04469528 0.14303955 0.07527564 -0.19664487 0.063986704 -0.17517512 -0.28185833 -0.08182481 -0.24614303 0.1983597 0.22104004 -0.068298854 0.35187066 0.20328511 0.18095028 -0.2556427 -0.14051326 0.2977542 -0.010763021 -0.023482157 0.23614152
19 0.021240497 -0.008199508 -0.06564211 0.4273282 0.035729803 -0.3224086 0.43676335 0.00011798184 0.38935798 0.19985549 -0.19004856 0.44001237 -0.20589416 0.012573491 0.39022762 0.3404167 0.23582631 0.17611572 0.040993653 0.34038928 -0.0113973515 0.035266723 0.061145738 -0.20501983 0.045841414 0.33219087 0.43381956 0.066813506 0.36145538 0.5977726 0.022645853 -0.066660225 -0.079039514 0.19220042 -0.21042044 0.0010648663 0.45296368 -0.52296793 -0.29578906 -0.24438143 -0.32233888 -0.29308617 -0.12186996 -0.12999043 -0.13407645 -0.42462373 0.08677096 0.6537975 0.37485033 0.0011990254 -0.027464535 0.43614218 0.13235417 0.36087003 0.06887366 0.10560399 0.046768483 0.004227118 -0.15324381 0.08202936 0.23495233 0.19589753 0.45142093 -0.13052756
47 0.008714785 -0.05621111 -0.048563324 0.39092484 0.017395748 -0.32021722 0.47980097 -0.0024166408 0.31839132 0.23213258 -0.16620769 0.47034934 -0.20976995 0.0611438 0.4425887 0.30228618 0.19329551 0.12327512 0.012470191 0.31677306 0.009730437 0.003118159 0.0029682673 -0.20013021 0.06058492 0.31893015 0.40519375 0.058689516 0.4114646 0.6222156 -0.0009098383 -0.04841591 -0.045401786 0.21247192 -0.2002665 0.028915888 0.46603748 -0.52739704 -0.30227527 -0.281846 -0.32077628 -0.32615393 -0.12343322 -0.10816197 -0.19452739 -0.45115587 0.043310598 0.69109714 0.40583715 0.07855199 -0.062019616 0.47864935 0.13507426 0.38480693 0.09644173 0.1306084 0.09064193 -0.017316213 -0.14330146 0.12077531 0.19311863 0.1921845 0.45170954 -0.08287963
45 0.06536151 -0.059192114 0.06787591 0.4880725 0.12115249 -0.31317115 0.29920736 0.029368784 0.5386827 0.33450952 -0.22566327 0.15424569 -0.291545 -0.21255422 0.47167656 0.233682 0.3725606 0.2832566 0.01237092 0.26732606 -0.11924276 -0.12539074 0.11320544 -0.16345698 -0.12655225 0.3070028 0.27212018 0.20857617 0.32370198 0.6534601 0.1884769 -0.031231876 -0.085990064 0.10254367 -0.24819104 -0.13563743 0.47608775 -0.4619521 -0.24225166 -0.13216536 -0.2675127 -0.3428204 -0.026229674 -0.12890197 -0.06740355 -0.50674057 0.19329031 0.67422515 0.51004153 -0.054429132 0.08380064 0.5039445 0.20070443 0.32375404 -0.011061119 0.035496823 -0.02725966 0.10378545 -0.1458243 -0.07861468 0.31205425 0.15310375 0.5007054 -0.10914467
28 0.10335055 -0.12026412 0.056823302 0.34957469 0.17312929 -0.19774434 0.3467643 0.04473049 0.4645783 0.2855807 -0.21169156 0.34238425 -0.10144135 -0.14816843 0.51033634 0.26384878 0.21446703 0.13261831 -0.1354173 0.28871313 -0.041780885 -0.04560925 0.017066102 -0.13918209 -0.0620604 0.34175044 0.20564072 0.12055862 0.28982496 0.6753168 0.040468026 -0.08413359 -0.050271995 0.11947062 -0.1582136 -0.07353111 0.46764463 -0.5547021 -0.29243225 -0.15787189 -0.24308142 -0.38360718 -0.0051179123 -0.093982376 -0.17063463 -0.48957056 0.15464322 0.7479901 0.44476146 0.064394236 -0.05925809 0.5723362 0.04975005 0.29011482 0.069403045 0.11561264 0.22218627 0.016672855 -0.15386212 0.03611565 0.33598182 0.050466128 0.4495027 0.012570133
36 0.02839789 -0.102498285 0.021699727 0.30030116 0.06279019 -0.14139515 0.4402541 -0.0018668234 0.18260683 0.03953502 -0.18399146 0.5054592 -0.0037098238 0.1114947 0.4422491 0.247313 0.15948159 -0.00043901135 -0.28636685 0.3738742 0.10829515 0.057487033 -0.07687396 -0.0005145867 -0.12437176 0.26495934 0.25369594 0.18690084 0.30052006 0.4834307 -0.016756525 -0.4052893 -0.25901693 0.22310312 -0.008292015 0.0076296194 0.3174573 -0.6790944 -0.36102092 -0.22279987 -0.19333939 -0.12599938 -0.0953672 -0.03278912 -0.12606409 -0.1745205 -0.13334896 0.584128 0.4242336 0.22132497 -0.17948547 0.5611456 -0.13663976 0.2356302 0.20373316 0.3202342 0.3641903 -0.0072759627 -0.16571446 0.06793107 0.2504458 0.09218038 0.50981456 0.026649516
27 0.05459771 -0.02501766 -0.05773443 0.3606193 0.1353388 -0.26807323 0.4849807 0.025554722 0.3899467 0.17629154 -0.13452888 0.46702725 -0.20826481 -0.0055114166 0.3993829 0.29430434 0.15389338 0.1286131 0.04973903 0.3005746 0.042889517 0.08288796 0.097970866 -0.17171074 0.15462065 0.33885816 0.38237396 -0.042834926 0.35637018 0.6289625 -0.02239684 -0.05056142 0.018111581 0.13162974 -0.116710894 0.039222024 0.38717082 -0.57519484 -0.31980887 -0.247406 -0.3356307 -0.37468833 -0.06074668 -0.12571077 -0.13600369 -0.4159621 0.067911215 0.67621636 0.33366877 0.0874036 -0.12369948 0.4568746 0.02105513 0.3941344 0.047679983 0.15283813 0.15528321 -0.12251665 -0.17148916 0.15854144 0.24994206 0.10243947 0.4235755 -0.15740371
88 0.008023831 -0.21659213 0.053188737 0.24857555 -0.11256552 -0.1808314 -0.11582252 0.08747773 0.12377301 0.39724758 -0.092439935 -0.11602045 -0.14633638 -0.4628166 0.46820366 0.3633304 0.07687835 -0.039318997 -0.100242324 0.06518778 -0.13076048 -0.011526171 -0.3571356 -0.046940207 -0.1082771 0.12494639 -0.05998867 0.14853223 0.03368762 0.2583833 0.17859757 -0.12572648 -0.1636276 0.1976272 -0.1521614 -0.15327875 0.1680996 0.01983124 -0.0069241924 0.06990792 -0.16683598 -0.15571062 0.48594075 0.18999866 -0.33646363 -0.28711954 0.1817729 0.35771674 -0.19708864 -0.26994106 -0.04172265 -0.15504247 0.05816085 0.040283293 -0.13130169 0.06150241 0.30335897 0.10177483 -0.14239177 -0.109212466 -0.07718516 0.037249085 0.23885421 0.21530426
21 0.0980643 0.2010922 0.046837583 -0.056402244 -0.26682216 0.09703676 0.38943702 -0.107554495 0.35569772 0.28914765 -0.38219175 0.7283113 -0.28899798 -0.07319183 0.3352984 0.52970475 0.40844938 -0.26979864 -0.32992762 0.44040862 0.13078396 -0.49412093 0.10933705 -0.47892815 0.14836365 0.2660214 0.3990192 0.3652492 0.32851067 0.50243104 -0.08227706 -0.39394087 -0.1553925 0.06780573 -0.24934374 0.22488704 0.20476864 -0.40488726 -0.10765807 -0.44687468 -0.49576384 -0.11288241 -0.31991255 0.26932412 0.010916954 -0.3385796 0.33676076 0.5183136 0.37325925 -0.16162373 0.21764526 0.25944847 -0.15827857 -0.02322611 -0.16379894 0.39948842 0.5166407 0.21880478 -0.013881732 0.15898395 0.46519324 0.36399955 0.19874395 -0.13099946
50 0.3381735 -0.04170634 0.20148098 0.25967762 0.2824773 0.040036865 0.26147762 -0.04446731 0.43938303 0.34740502 -0.32751277 0.31835613 -0.057192486 -0.343033 0.36973065 0.44992256 0.36596385 0.11116116 -0.21353737 0.59037036 -0.12083237 -0.34639862 0.0035811982 -0.23137487 -0.2065661 0.27140093 0.4851556 0.47029728 0.27678308 0.7868764 -0.0077755684 -0.28634953 -0.23079027 0.19413936 -0.23736511 -0.10393064 0.2967505 -0.66034395 -0.15326382 -0.14260858 -0.08799073 -0.22182284 -0.03941015 0.22477281 0.045349803 -0.4695456 0.4220493 0.81607366 0.69025964 -0.15524404 0.16827475 0.69484985 -0.18056604 0.0760807 0.070640996 -0.03981694 0.31561285 0.1776646 -0.17490268 -0.23491451 0.5637656 0.018981194 0.29817617 0.11069894
46 0.034678932 -0.08484579 0.018996565 0.50508225 0.1219229 -0.320894 0.32324016 0.023473356 0.50622994 0.3506852 -0.20536958 0.1906617 -0.29862818 -0.19040169 0.5407733 0.20342588 0.32893357 0.25612122 0.04835651 0.2583777 -0.08378127 -0.147543 0.081740655 -0.17070076 -0.07767261 0.36291477 0.2427578 0.1651463 0.3282852 0.7115993 0.15622951 -0.03350525 -0.05482119 0.11018248 -0.22620355 -0.12807482 0.45215258 -0.5011896 -0.25401202 -0.13885796 -0.231896 -0.3520987 -0.060436208 -0.12339786 -0.15106042 -0.5305563 0.21449277 0.7221123 0.48467338 -0.0448147 0.06694506 0.50892884 0.15855242 0.37994558 -0.035024118 0.008940115 -0.00016083197 0.056097485 -0.14172995 -0.07132186 0.29263338 0.12876877 0.5207929 -0.12689236
20 -0.021462664 -0.053108625 -0.06590196 0.42512542 -0.019257447 -0.3593109 0.50523823 -0.028641628 0.26613957 0.18327959 -0.17781682 0.55409795 -0.23215161 0.12563653 0.41360247 0.28371903 0.20281383 0.0769809 -0.004960131 0.34946454 0.06720782 -0.037873358 0.0029707612 -0.17183012 0.06962097 0.3418575 0.43779904 0.085085206 0.404574 0.62489235 0.024325587 -0.14170212 -0.13300005 0.20979616 -0.16927262 0.03971403 0.40413374 -0.61184317 -0.33253238 -0.3286717 -0.27397364 -0.2239689 -0.23626542 -0.106134124 -0.12011889 -0.39158228 -0.014908984 0.69191664 0.4345869 0.11787226 -0.058941983 0.50368464 0.085939415 0.37631908 0.12527667 0.16551495 0.08851029 -0.042001165 -0.13419619 0.084145896 0.21697506 0.23344064 0.48248875 -0.14682959
6 0.15199454 -0.14545777 0.018837344 0.14760688 -0.07119582 -0.30921575 0.09198713 0.15778434 0.27612993 0.24872962 -0.17474607 -0.017270645 -0.15935774 -0.5965222 0.10025686 0.58277935 0.11751533 0.14142215 -0.37089542 0.2597844 -0.1673436 0.30722392 -0.12742637 0.09550065 -0.11026637 -0.06022184 -0.046872303 -0.09896698 -0.088940166 -0.03425682 0.20849648 -0.1659739 -0.12575915 0.26915896 0.0063839504 -0.11461798 -0.0742506 0.074238636 0.10175966 0.13237533 -0.28911534 -0.29941696 0.4086379 -0.0032316914 -0.021606509 0.08398104 0.09026561 0.06435064 -0.3193391 -0.22508493 -0.054368347 -0.294461 0.004192721 0.091953404 -0.05671952 0.1661517 0.20338394 0.004829272 -0.38653985 0.047868226 0.14245352 -0.06342108 0.10763655 0.1617776
43 0.015105839 -0.05793019 -0.07174463 0.3682567 -0.0010687519 -0.30594876 0.48020554 -0.0113524385 0.26246414 0.15447764 -0.15153255 0.48322916 -0.21734016 0.1122361 0.3911412 0.2437282 0.20859437 0.047059722 0.040220015 0.3190141 0.022492817 -0.015587283 0.047630254 -0.14403589 0.112403296 0.32315448 0.4269949 0.039959032 0.40106222 0.52793974 0.033224463 -0.10122858 -0.11480601 0.21223758 -0.17040485 0.06654802 0.40955365 -0.56061506 -0.33157694 -0.31800735 -0.32325074 -0.25713488 -0.13672891 -0.12645772 -0.12196557 -0.35345146 -0.05999524 0.5800531 0.3915524 0.10611689 -0.07716235 0.46044803 0.089401685 0.4386033 0.11065045 0.16607963 0.08444394 -0.078127086 -0.185833 0.12036314 0.14989732 0.137717 0.45852906 -0.12795779
44 0.027430896 -0.10336069 0.04813671 0.4778858 0.06647166 -0.34306547 0.29419902 0.04314291 0.5024486 0.40191317 -0.19408111 0.13870096 -0.32211268 -0.25206155 0.44561604 0.20950729 0.34077275 0.26424438 0.044336952 0.2608214 -0.14432192 -0.17522827 0.044923432 -0.18195114 -0.12993991 0.2876362 0.25330392 0.17468217 0.34958607 0.6011089 0.2001649 0.041536998 -0.05965429 0.12054067 -0.30598608 -0.13285705 0.49499598 -0.3833002 -0.21385652 -0.17657238 -0.27188462 -0.34706575 -0.029908262 -0.12883653 -0.13249099 -0.54590005 0.19725694 0.6737985 0.48600602 -0.10552125 0.10100794 0.4780433 0.28686172 0.3523799 -0.046278242 -0.010526138 -0.07886745 0.09021977 -0.15069966 -0.063945934 0.26258907 0.15103094 0.4630356 -0.055121526
73 0.17161933 -0.60109776 -0.09482666 0.34911618 -0.05404259 -0.24847867 -0.021797268 0.22529893 0.06529579 0.49027997 -0.07766913 -0.07475195 -0.37166288 -0.63369507 0.39939862 0.4146924 0.19363233 -0.3198729 -0.36107275 0.30233657 -0.09711039 0.15974532 -0.31003135 0.20890112 -0.40966013 -0.051956914 0.2530441 0.0019037328 0.12225413 -0.14005195 0.5532264 -0.49844393 -0.36691344 0.41146132 -0.14284113 -0.15901457 -0.34662792 -0.06088072 0.08443687 0.018932715 -0.22634345 -0.069398716 0.33615705 0.20953906 -0.14437327 -0.16870737 -0.21937759 0.2567435 -0.6756818 -0.34909692 0.019665657 -0.44256833 0.003343628 0.059082124 0.019730711 0.35570928 0.32442927 -0.27908233 -0.35653606 -0.030351264 -0.13210346 0.024886642 0.39276257 -0.02775278
39 -0.0035216291 -0.033184268 -0.04975891 0.36118433 -0.030851826 -0.3408688 0.4532202 -0.023993867 0.34882674 0.2098788 -0.17315632 0.49334794 -0.24272792 0.037226416 0.395148 0.30902514 0.18149617 0.10246587 0.0768379 0.29114333 0.051853288 -0.016067967 0.019933546 -0.16220857 0.11878837 0.3557498 0.40325654 0.009917671 0.4284239 0.5461613 0.006833013 -0.11257283 -0.10166777 0.18325666 -0.15165359 0.036541045 0.4238251 -0.52718776 -0.34212944 -0.2697212 -0.3146933 -0.3083049 -0.116905764 -0.06539821 -0.14913721 -0.38949946 0.011934307 0.6348833 0.36383167 0.065516405 -0.0606936 0.42611456 0.12135813 0.38324028 0.07783344 0.10878253 0.06621438 -0.044656727 -0.17306243 0.11566198 0.18198082 0.16896433 0.42741862 -0.11429694
98 0.11079031 0.38275665 0.21995609 0.39599696 -0.46058032 -0.48411152 -0.13743171 0.07493069 0.5194656 0.0050509013 -0.28491062 -0.018184328 0.013702007 -0.42560202 -0.26097032 0.8832776 0.34243432 0.32229978 -0.9632293 0.4632366 -0.2419831 0.480676 -0.1903874 -0.3846098 0.105519116 0.037818074 0.048935346 -0.048625693 0.14193778 0.110682935 0.10736295 -0.28502744 -0.15454488 0.00089325197 -0.018050758 -0.56771 -0.043740444 -0.19309095 0.42943066 -0.122597456 -0.66674465 -0.87271506 0.6220074 -0.076985285 0.39180145 -0.148949 0.012286371 0.33528072 0.17670679 -0.05982169 -0.10260189 0.017897407 -0.10513363 0.50858945 -0.3464242 0.53032625 0.7027555 0.14912885 -0.3829353 0.19248609 0.51884335 0.071995154 0.05657495 0.5193347
12 0.10293774 -0.28477478 0.06030849 0.14115109 -0.011184376 -0.318703 0.5088065 0.05395922 0.20280936 0.5790235 -0.00437443 0.52751744 -0.34103295 -0.24379717 0.5265241 0.12684119 0.03562085 -0.054011893 0.24304716 0.042073846 -0.07485299 -0.08471295 -0.040980812 -0.32986584 0.17233428 0.37783647 0.35739332 0.18445377 0.10095957 0.69089717 0.14426576 -0.011441427 0.057831123 -0.050974187 -0.21980992 0.28052586 0.579056 -0.4003608 -0.20362617 -0.27425924 -0.25564116 -0.112500586 0.13701937 -0.021316351 -0.2181636 -0.39352888 -0.031703357 0.84527594 0.20968625 0.02176913 -0.06940124 0.2135475 0.26990658 0.088799916 -0.09977914 -0.001312389 0.17360415 -0.11731403 -0.16383144 0.0884173 0.2921501 0.057029568 0.33990535 -0.33843228
38 -0.037952513 -0.02570546 -0.021489674 0.37083343 0.017727124 -0.33419186 0.494844 0.028004332 0.37831742 0.24042457 -0.15157945 0.51598734 -0.20122369 0.040107135 0.4078199 0.31769687 0.17673112 0.13830425 -0.0012554644 0.31840864 0.05798746 -0.008082528 0.058095463 -0.17124562 0.027842807 0.29654458 0.38144717 0.06626675 0.37173048 0.5994015 0.0048258267 -0.11182951 -0.06121827 0.21502116 -0.14840531 0.01211113 0.41975752 -0.519833 -0.36048216 -0.26862657 -0.29382253 -0.29615325 -0.15118669 -0.11633595 -0.14682953 -0.37806734 0.029432248 0.6647024 0.39384922 0.08780732 -0.03774102 0.4826296 0.0806184 0.33340603 0.11266349 0.14543568 0.098747335 -0.042944133 -0.1349688 0.07023999 0.23429804 0.14659002 0.43095487 -0.10937687
24 0.19891636 0.0019790335 0.12160163 0.24222688 0.16392897 -0.039208326 0.28353783 -0.046259634 0.28517213 0.21683583 -0.24419251 0.41286847 -0.08124148 -0.16611324 0.48827758 0.4102316 0.2086217 0.042126473 -0.009867725 0.45041585 -0.024799507 -0.22493555 7.59339e-05 -0.2550076 0.0035680854 0.35803396 0.39035243 0.28979406 0.21242107 0.71849024 -0.07097988 -0.31752145 -0.17636527 0.2008846 -0.11224811 0.0066060787 0.32498038 -0.5860723 -0.21151023 -0.1262086 -0.12970898 -0.13786872 -0.049585488 0.18228963 -0.13127473 -0.35550824 0.34807298 0.71927345 0.43802628 -0.12074606 0.072443046 0.5003886 -0.12707473 0.10480633 0.059077296 0.0010650553 0.3341722 0.114570685 -0.1960433 -0.09439479 0.37324157 0.015314155 0.31433126 0.05525383
23 0.047603585 0.0042418367 -0.06679865 0.3919577 0.013810151 -0.30309188 0.4611413 -0.0012806634 0.35234055 0.18979253 -0.16394562 0.50795203 -0.24065712 -0.027167015 0.4577913 0.29512697 0.19093306 0.087685496 0.056261916 0.32021075 0.004693514 0.0031779371 0.037184022 -0.1934107 0.10047136 0.3734592 0.42462775 0.06172746 0.34609228 0.5922747 -0.011667665 -0.122341014 -0.08597003 0.1933142 -0.15803234 0.018641306 0.42768788 -0.56221575 -0.3076012 -0.32080597 -0.340654 -0.27590206 -0.09082265 -0.08785135 -0.18347697 -0.39190388 -0.020311033 0.63719285 0.39734587 0.018537046 -0.08194718 0.43996134 0.101188965 0.39858443 0.0805727 0.16483626 0.04592255 -0.04425753 -0.16251804 0.10794744 0.20094274 0.14049543 0.4613181 -0.08972174
30 0.010121388 -0.028937554 -0.061900396 0.39827797 0.021112435 -0.34583092 0.44107527 0.027588084 0.33665553 0.1853243 -0.1288106 0.41735494 -0.27550393 0.023833245 0.40210876 0.2783649 0.16631529 0.11829787 0.09794839 0.26323926 0.039744824 0.023382135 0.048365843 -0.18930145 0.11626918 0.33898655 0.35734868 -0.007895899 0.3495438 0.5915798 0.033130854 -0.074268915 -0.03586848 0.17415525 -0.1533356 0.023936564 0.40983993 -0.4961449 -0.32721734 -0.27529052 -0.32506192 -0.30070528 -0.087209806 -0.10304769 -0.16677569 -0.40769455 0.039722886 0.6306614 0.3362685 0.018931111 -0.062702395 0.3912824 0.1153162 0.39071634 0.039374243 0.11544455 0.104354255 -0.08587824 -0.17397915 0.11975863 0.19860485 0.15002026 0.45022884 -0.13361898
54 0.43979755 -0.03889146 0.27012733 0.15211691 0.32972425 0.15854801 0.28415617 -0.1041548 0.37089503 0.35217947 -0.3641649 0.39018673 -1.7501869e-05 -0.36839253 0.2588042 0.6172087 0.32127714 0.11463895 -0.28602484 0.82503456 -0.04894968 -0.40987632 -0.03369488 -0.2716105 -0.22259337 0.2299907 0.6653718 0.51942706 0.34997627 0.8350289 -0.10687212 -0.4720501 -0.304051 0.3529048 -0.18554854 -0.086515486 0.17086706 -0.7300829 -0.15726654 -0.08030606 -0.042964775 -0.24705227 -0.055483997 0.44567296 0.1097824 -0.42306516 0.6105221 0.86084825 0.7348762 -0.19374958 0.22886823 0.73462206 -0.3573775 0.03939674 0.05285123 -0.11726358 0.49215767 0.17245866 -0.26031917 -0.2709911 0.69104075 -0.018596685 0.18109836 0.2015656
37 0.13613695 0.03775504 -0.08525324 0.3748863 0.15851924 -0.2181016 0.26844677 -0.07052 0.3196662 0.32795137 -0.18048543 0.41127548 0.0035972854 0.06360423 0.43151164 0.19528143 0.15866685 -0.04650915 0.0738405 0.23945446 -0.041879274 0.050376646 0.2456904 -0.21075529 0.18537873 0.41629332 0.4640719 0.16497302 0.09780318 0.7511585 0.019752981 -0.005682999 0.040599305 0.16633002 -0.16522667 0.06445701 0.3738744 -0.5084645 -0.10687963 -0.11698933 -0.19586845 -0.30173194 -0.013942621 -0.22817235 -0.021900553 -0.3903395 0.18422636 0.5591863 0.13031773 0.01081703 0.06808772 0.4662552 -0.011112163 0.23630242 0.020934224 0.19603871 0.16486594 -0.055587042 -0.061153695 0.07400715 0.26228458 0.066561595 0.49148288 -0.28452992
40 0.027394667 -0.05281249 0.06692282 0.45507026 0.08281607 -0.31241503 0.3151551 0.06835506 0.5149991 0.32987994 -0.20276372 0.16747774 -0.30591083 -0.25145125 0.4814606 0.19856997 0.3473548 0.24808869 -0.049115967 0.28311485 -0.10152958 -0.17718361 0.09226921 -0.12265635 -0.16457273 0.301342 0.19927898 0.21332009 0.30981967 0.6245429 0.2154138 -0.066169456 -0.09300173 0.08963515 -0.23205754 -0.14919192 0.4736409 -0.45025408 -0.25378537 -0.18921457 -0.24993387 -0.30461642 -0.028421858 -0.13927202 -0.104595914 -0.47607505 0.12871306 0.65819675 0.5589044 -0.056013945 0.07795071 0.526489 0.19644153 0.3499851 -0.021418596 0.053952657 -0.011686941 0.10972178 -0.15929647 -0.097467765 0.3380215 0.1105506 0.5118971 -0.044269107
32 -0.03598738 -0.045970343 -0.060303494 0.37755597 0.015422629 -0.34112364 0.4867805 -0.031124651 0.27059326 0.23239022 -0.120479845 0.4544892 -0.28699335 0.16647154 0.42936513 0.25883168 0.21504703 0.09765648 0.07693068 0.29377058 0.015437149 -0.026334753 0.06830447 -0.17410177 0.098133884 0.25850508 0.4344002 0.10274147 0.42778158 0.60442674 0.06022727 -0.0244008 -0.07003201 0.22513402 -0.24356651 0.040694337 0.4100013 -0.5326737 -0.30636576 -0.30414766 -0.31091982 -0.24501646 -0.1500038 -0.13987976 -0.10715463 -0.4062817 -0.023641994 0.61821216 0.40705943 0.10423357 -0.009130833 0.4678803 0.11884262 0.40740794 0.13449621 0.164071 0.077137716 -0.08176836 -0.12315608 0.13390474 0.09293365 0.23340437 0.45726547 -0.21805046
56 0.032804362 -0.09595339 0.02833519 0.45958012 0.11253663 -0.2555968 0.28641203 -0.028579364 0.42536813 0.33243108 -0.20234312 0.170964 -0.2108407 -0.18504973 0.5185296 0.1787548 0.3232283 0.23465067 -0.056755863 0.27879423 -0.0986218 -0.09991594 0.035633337 -0.12661122 -0.16035557 0.29866058 0.2084467 0.22719797 0.32791513 0.63371134 0.136103 -0.042976674 -0.07162949 0.15534729 -0.2414972 -0.15210755 0.48199394 -0.48246378 -0.21465288 -0.13724975 -0.21704705 -0.30527437 -0.023195848 -0.1386383 -0.16334425 -0.49025634 0.16068111 0.6753945 0.4875097 -0.01062819 0.043663625 0.54354733 0.18038751 0.31916213 0.018418707 0.06999007 0.017691534 0.10502326 -0.116461344 -0.03878618 0.23971577 0.16736701 0.5144705 -0.05433132
29 0.01017758 -0.008872508 -0.04685667 0.35999373 -0.028696349 -0.3409607 0.38460046 -0.02086569 0.3399433 0.19040316 -0.18564966 0.45408094 -0.22984579 0.050756875 0.39380252 0.32509834 0.19612934 0.13877985 0.0042944695 0.32883602 0.022363119 0.0072717085 0.0571624 -0.19010136 0.07146527 0.35129723 0.39102042 0.06222616 0.3692156 0.5620403 0.031802714 -0.10369443 -0.11183821 0.20071371 -0.15774916 -0.0021552183 0.4457003 -0.545344 -0.31201294 -0.25679395 -0.3129051 -0.27920768 -0.09325742 -0.108600706 -0.10961399 -0.37770796 0.026820725 0.64000905 0.37785345 0.024545373 -0.018281016 0.43925074 0.12283615 0.3694875 0.07706313 0.14306358 0.100221924 -0.004497344 -0.18067542 0.13291499 0.22909224 0.22010636 0.44204745 -0.099565335
