107 64
91 0.5829121 0.037743226 -0.8112488 -0.3678903 0.52029604 0.12072299 -0.75829154 0.44214547 0.8090984 0.12421917 0.095427275 0.6431226 0.26058775 0.010665202 -0.38401315 0.87655336 0.6889855 -0.5616339 1.0563798 -0.7795766 -0.16762686 -0.5349435 0.51485515 -0.92360747 -0.41873977 -0.20188023 -0.071226254 0.26891184 0.4254467 -0.16738468 0.16326231 -0.35033226 -0.0060298634 0.32126805 -0.14070229 -0.33338216 0.4361852 -0.3149369 -0.08128128 -0.08342979 0.21737997 0.44384336 -0.024339592 0.020122666 0.11892729 -0.21463314 -0.85410845 -0.7117977 -0.26459774 0.23846479 0.3680961 -0.73386264 -0.1892429 -0.40466022 -0.2533944 0.38555452 0.026651671 0.025652166 -0.20397575 -0.64399517 0.5583491 0.6052623 -0.35481283 -0.36987075
93 0.6320583 0.08225029 -0.7848849 -0.19931161 0.39178064 0.09920829 -0.7834526 0.53074956 0.74617094 -0.0043346556 0.06326615 0.58887243 0.28785697 0.15716937 -0.32601288 0.8614226 0.7380418 -0.6345406 1.0075027 -0.7223879 -0.20418784 -0.55965334 0.5109898 -0.8974842 -0.27550822 -0.28477228 -0.095375724 0.30070344 0.46888575 -0.25599712 0.2640297 -0.28688845 0.10614372 0.12371387 -0.1684834 -0.45870447 0.47063118 -0.32150015 0.050847612 -0.103195526 0.25829145 0.39550957 -0.14713837 0.06285912 0.15918095 -0.10162321 -0.79959553 -0.6632096 -0.277372 0.34463945 0.413662 -0.68016106 0.013244288 -0.30568138 -0.28526005 0.36080527 0.1779177 -0.12007222 -0.030774696 -0.78626806 0.63631 0.53981805 -0.488864 -0.37293255
85 0.20787998 -0.99366856 -0.07534193 0.07718808 0.56168085 0.17664956 -0.13038209 1.1972234 0.924099 0.67178136 0.22692105 0.01656105 -0.11366422 -0.37892222 0.29288274 0.92142665 0.38427004 -0.5031615 0.7850599 -0.50096273 -0.428164 -0.42088196 0.7549727 -0.20613901 -0.6634044 -0.53337985 -0.0073970645 0.22555321 0.36712965 -0.47790143 1.2281232 -0.38643008 -0.047398977 0.88277155 -0.5822045 -0.04388777 -0.38779145 0.67544115 0.22899245 0.43017632 -0.35527343 0.5113882 -0.070457555 -0.016387438 -0.31509086 0.10249675 -0.34681252 -0.005744298 -0.5317438 -0.060725234 0.406172 -0.96237326 0.39142483 0.18512586 -0.52219087 0.30163708 0.7227494 0.0547517 -0.31503722 -0.7491947 -0.1331777 0.03392066 -0.052859083 -0.85852486
94 0.3264541 -0.9019648 -0.22249411 0.22082837 0.50595033 0.1276236 -0.1790481 1.1324618 0.8833556 0.64857775 0.17506607 -0.14060353 -0.04342443 -0.40183726 0.2043256 0.99528104 0.44388807 -0.44189608 0.7775498 -0.50106174 -0.4982581 -0.20128115 0.860414 -0.18879427 -0.51819634 -0.6266154 0.065916225 0.29450873 0.3198234 -0.34005138 1.2449403 -0.514653 0.12436194 0.9664846 -0.49544454 -0.024218284 -0.38701388 0.8253942 0.2747484 0.55146444 -0.21461044 0.49364623 0.06569821 0.067700274 -0.38002992 -0.0092112 -0.2988343 -0.08989827 -0.5599934 -0.05266214 0.39383712 -1.0356724 0.37068397 0.10429917 -0.621662 0.2764107 0.71601367 0.004112265 -0.2564192 -0.77633554 -0.06990673 0.08520303 -0.1365481 -0.88435626
7 0.17483564 -0.35822877 -0.022427574 0.7717192 0.62454915 -0.06584605 0.36841646 0.012348232 0.7025535 -0.45739955 -0.4870069 0.26067364 0.09100671 0.2708481 0.31523597 0.25830656 0.3929725 0.30227673 0.59083724 0.21549852 -0.10338574 0.2773788 0.3630373 -0.41630384 -0.21409865 0.51121575 0.786057 0.32285267 -0.0055124797 0.7758548 0.24610253 -0.14827627 -0.39374804 -0.20262356 -0.1440132 -0.07467992 0.33610538 -0.41100997 -0.26034573 0.311418 -0.08277466 0.011249573 -0.5432058 -0.06947998 0.19633369 -0.38919073 0.35342443 0.21644351 0.27403352 -0.16757695 -0.17931323 0.25813195 -0.3511504 0.022373322 -0.2243037 0.12668045 0.09036322 0.3191626 0.13311197 -0.06344255 0.7324926 0.30301732 0.111956045 -0.36720738
105 -0.285482 -0.62629867 -0.19912797 0.56691766 0.31086394 0.43763798 0.00783338 0.2624331 0.830343 -0.28593704 -0.48345932 0.26040655 0.042149283 0.03612376 -0.3598289 0.3182918 0.24369285 0.27519438 0.34456235 0.049992505 0.03364588 0.36653706 -0.15892634 -0.642405 0.016724128 0.35675782 0.86121404 -0.14091949 -0.0221155 0.10556584 0.52084976 0.43782207 -0.31728822 -0.53741324 0.3145459 0.5883352 -0.2107878 -0.47772825 -0.3677961 -0.10117519 0.013102705 -0.09213185 -0.047087014 -0.178711 -0.31696945 -0.06629335 0.02759411 -0.27318218 -0.029346319 -0.01764488 -0.13546228 -0.1893871 -0.54422027 0.16276841 -0.2472905 0.1490607 0.3490922 0.23795813 0.0053089717 -0.53128546 0.9000141 -0.25422513 -0.285678 0.23263171
96 -0.3183486 -0.09722132 0.6746417 0.1570373 0.4149717 0.4100525 0.18336196 0.01088173 0.6340355 0.04893438 -0.4278325 0.8224502 0.24865855 -0.3649361 0.04982126 0.30347717 -0.19504148 0.36427438 0.025828501 0.63998413 -0.33717933 0.36462787 -0.14305219 -0.6694769 0.17682327 0.398923 0.1152241 -0.48813474 -0.57552326 -0.32390577 0.22016226 0.14414525 -0.37255788 0.14554232 0.6182578 0.53402567 -0.08453858 -0.43920186 -0.047717433 -0.15348561 -0.4596773 0.059235938 -0.29164907 0.31540474 -0.15104066 0.1667027 -0.17462502 -0.7849714 -0.5743506 -0.14439118 -0.3753555 -0.77575153 -0.11599939 0.36529008 -0.48035017 -0.14393297 0.035490002 0.46637028 -0.10619026 -0.056039248 1.2226962 -0.25888032 -0.55011505 0.19248083
49 0.09125683 -0.26458666 -0.11967068 0.53699625 0.7381466 -0.12732013 0.42286003 0.085740365 0.17069705 -0.4166711 -0.38108552 0.481382 0.019854348 0.1945032 0.307436 0.2623403 0.43916017 -0.06285976 0.6961672 0.21772671 0.14784609 0.07361594 0.48491326 -0.29068658 -0.041792154 0.5036855 0.52365553 0.3783667 0.03898997 0.872155 0.26168776 -0.020562017 -0.2535126 -0.037596103 0.10633085 0.044870976 0.05623551 -0.68448824 -0.40329254 0.019090952 0.009099483 0.07607774 -0.6512056 -0.18040898 0.3326394 -0.20361431 0.049972344 -0.076427266 0.48551103 0.2734667 -0.20235184 0.3583317 -0.7208732 0.5014139 -0.037693307 0.16228369 0.13874686 0.0521634 -0.1871069 -0.24775974 0.6860786 -0.08293585 0.14304568 -0.22896358
52 -0.10940119 -0.04790391 -0.05525738 0.60282975 0.6060604 -0.14617811 0.4792493 -0.050474882 0.7674264 -0.20674375 -0.3769929 0.63463724 0.014657231 0.26537162 0.35099572 0.22276682 0.13437222 0.3046485 0.75770175 0.17052841 0.14286108 0.30777368 0.4951565 -0.58150387 -0.09863177 0.49498695 0.7020791 0.35040006 -0.12952422 0.959323 0.12047847 0.111930296 -0.13510019 -0.025596002 0.095282614 -0.048316285 0.23119332 -0.3631952 -0.26610926 0.30399686 -0.114588924 -0.2393717 -0.55778164 -0.09780919 0.09722281 -0.22086768 0.09382113 0.056158207 0.3253334 0.20633247 -0.23593426 0.22921784 -0.66581124 0.3356211 -0.26048547 0.3805749 0.042796563 0.15551941 0.22227412 -0.077926725 0.7648545 0.18142903 0.123595424 -0.39344132
1 0.2063941 -0.33922422 -0.024170348 0.50105894 0.4192919 -0.45791808 0.12520725 -0.20260519 0.48263454 -0.02245088 -0.6476085 0.07180533 -0.026669104 0.47833702 -0.029875427 0.21994796 0.26471955 0.3561264 0.5110222 -0.0010779473 0.18551773 0.068688825 0.295419 -0.4463849 -0.18078957 0.4760125 0.9255044 0.2854194 0.512362 0.72552806 0.34866264 -0.08120372 -0.44970796 -0.17127973 0.11603059 -0.012491397 0.24792969 -0.45408455 -0.15451187 0.3967548 0.24530582 -0.48034337 -0.55157655 0.03205111 0.460788 -0.3705973 0.2463962 0.010745628 0.2012874 0.09990733 0.11826151 0.14927052 -0.34731865 0.045400403 -0.008817544 0.028743528 -0.18570714 0.41129443 0.094331175 -0.20299922 0.86340266 0.4829363 0.13778462 -0.37822613
15 -0.10374909 -0.06741534 0.017895926 0.4666173 0.60730684 -0.21489874 0.3970186 0.19304155 0.49133456 -0.15474743 -0.28142038 0.5176423 -0.10477528 0.116044715 0.43235996 0.26832607 0.23091662 0.26611596 0.7283579 0.21357352 0.084822096 0.017395686 0.48505807 -0.3851748 -0.016817879 0.41039833 0.55958205 -0.014536959 0.1118364 0.6898588 0.113927774 -0.10668636 -0.283049 -0.110221826 -0.0076245563 -0.019704845 0.125462 -0.47809762 -0.18830702 0.13980132 -0.2077409 -0.064817406 -0.68452805 -0.17769015 0.31607497 -0.20018598 0.22824575 0.2517046 0.14981268 0.07400027 -0.03421986 0.2482365 -0.13949755 0.32031476 -0.11720439 0.022720378 -0.046993874 0.22632656 -0.08419941 0.020436883 0.7201278 0.15153272 0.17999834 -0.5247528
13 0.12201374 0.029087823 -0.26692575 0.19946651 0.41559857 -0.15527926 0.37166354 -0.006107041 0.3860479 -0.16857788 -0.06275238 0.4153642 -0.46047384 0.5891112 0.50214833 0.14224945 0.29297334 0.28498334 0.78063166 0.12900594 -0.03254212 0.20580584 0.74041164 -0.81344724 0.058664095 0.08638716 0.62242013 0.51463306 -0.25396496 0.58165824 0.1360452 0.33027008 -0.0676976 -0.029843831 -0.17896944 0.32044005 0.53267896 -0.6131538 -0.20216739 -0.124593034 -0.28186756 0.115685426 -0.46422458 -0.51691985 0.47322378 -0.1220494 -0.21609797 0.26342693 0.45950702 0.13220535 0.044834986 0.24859852 -0.41398653 0.354987 0.25830358 0.13823865 -0.044783235 0.10744681 0.0085493345 0.09510114 0.5168411 0.08947028 0.15138488 -0.70126325
107 0.1676049 -0.09763505 0.1543035 0.37592584 0.80747336 0.044959184 0.27362946 -0.08759622 0.014006551 -0.0033162597 -0.68717194 0.37363124 0.07640166 0.3045558 0.21960524 0.1925802 0.12343775 -0.10139928 0.67947125 0.08464243 -0.38858253 0.30003512 0.11164622 -0.76575285 0.03890269 0.47501612 0.60503596 0.29850027 -0.41232106 0.3312479 0.13467045 -0.07212439 0.047211826 0.3737949 -0.17178021 0.17504217 0.27343336 -0.33153087 -0.096469365 0.28706393 -0.1826057 -0.04831026 -0.55864024 0.23767377 -0.32114446 -0.465559 0.4133305 0.37942168 0.0036103476 0.012696382 -0.25028792 -0.30632398 -0.66893214 -0.12682714 -0.5985831 -0.24020354 -0.06468467 0.1537151 0.26346725 -0.28537303 0.8569537 -0.062083405 -0.020757653 -0.39775196
90 0.497943 0.094952494 -0.23153181 -0.37808666 0.54752827 -0.026171776 0.019774877 0.29470843 0.682563 0.51059395 -0.10655268 0.31503382 0.14051165 -0.24211784 0.26706007 0.659669 0.17479624 -0.33988148 0.5271591 -0.10785451 -0.4190416 -0.38808542 0.5505005 -0.042615324 -0.27140597 -0.4174517 -0.39532712 0.41840625 0.15685616 -0.25399086 -0.073719285 -0.18447703 0.09487032 0.7516504 -0.14702794 -0.4205182 0.34139314 0.43715602 0.17980939 0.3672508 -0.20041375 -0.053563874 -0.026462527 0.24680115 0.39343622 -0.20513275 -0.49016693 -0.6067929 -0.7876316 0.09183941 -0.20797995 -0.8848282 0.20422825 0.044137724 -0.17201918 0.16052449 -0.22787133 -0.024074256 0.13155423 -0.14162606 0.17039628 0.4176313 -0.38383204 -0.502329
51 0.04986422 -0.20621732 0.03685728 0.4694865 0.57428336 -0.09300024 0.4522146 0.030249365 0.688176 -0.059843082 -0.30831718 0.51300097 0.045948844 0.34137353 0.27406317 0.21552643 0.20600462 0.49666107 0.43422577 0.27952448 -0.0637709 0.2405227 0.4481408 -0.4986984 -0.16196798 0.2091409 0.6413603 0.20891315 0.064577594 0.63727766 0.18446496 0.09906419 -0.1899158 0.012949391 -0.014522197 0.072097294 0.2989456 -0.40667254 -0.2138296 0.22010003 -0.10648827 -0.17152049 -0.49361333 -0.25009292 0.20345344 -0.16635846 0.08353746 0.21047355 0.26323545 0.17351687 -0.12389937 0.2385742 -0.3081315 0.19694385 -0.06737806 0.13815673 0.10932677 0.2701462 0.06863435 -0.023989357 0.7399515 0.2138991 0.15070815 -0.5204505
2 -0.080427945 -0.106368475 -0.31788832 0.5828994 0.56534463 0.26159737 0.4074687 0.3215381 -0.10648345 -0.33102983 -0.18908453 0.9756825 0.39796478 0.8706271 -0.6729347 0.256369 0.13038883 0.32194927 -0.07380098 0.7371204 0.36502454 0.039587185 0.14999597 -0.58007723 -0.18408336 -0.02558274 0.536953 -0.049998946 0.3230784 0.3577783 0.015311346 0.03392778 -0.2712737 0.1033443 0.45270184 0.07800662 -0.18842837 -0.8004186 -0.099847816 -0.043315124 0.04538065 -0.11760838 -1.0260681 -0.2486433 0.49534556 0.16871458 0.00059984415 -0.29355836 -0.010626992 0.8310896 -0.1441658 -0.07327021 -0.61241245 0.36016917 -0.516312 0.15435717 0.41288832 0.24437296 -0.29517874 -0.20721775 1.5535495 0.45853028 0.19599901 -0.4554198
57 0.1561401 -0.23024945 0.085937805 0.4279517 0.59533906 -0.046329934 0.5106205 0.02028969 0.65000814 -0.04408409 -0.38331595 0.4259688 0.019393032 0.42536104 0.38696328 0.09030136 0.3369363 0.33268556 0.392007 0.12626673 0.034722798 0.13432074 0.52351284 -0.47644582 -0.02498968 0.41847563 0.53579783 0.26432854 0.21157533 0.75828385 0.20045455 0.06464757 -0.085435554 -0.11879196 0.09115468 0.07705292 0.20695697 -0.43128312 -0.28856793 0.1633594 0.0051350156 -0.35673025 -0.5517053 -0.20307988 0.16081026 -0.16586582 0.13222039 -0.13404489 0.37669554 0.34517887 -0.047016036 0.19169764 -0.43219393 0.3082018 -0.21164888 0.17048202 0.05061161 0.28321397 0.081483096 -0.16408557 0.76419115 -0.047780454 0.058904715 -0.5321398
11 -0.17434402 -0.16063638 0.18698756 0.55769885 0.6412285 -0.21671896 0.45259908 0.058916785 0.6019695 0.04729555 -0.521481 0.4711968 -0.17162187 0.13308161 0.33973724 0.22105706 0.40173987 0.5218734 0.62898767 0.24639907 -0.11310812 0.07552375 0.28484336 -0.49210402 -0.36209235 0.2901613 0.6978609 0.29409522 0.084387414 0.6703598 0.31821695 0.035696402 -0.19975202 0.07907813 -0.058349848 -0.0483807 0.28068754 -0.30454817 -0.43653807 0.18273042 -0.042965095 -0.13251744 -0.6541305 -0.11126553 0.07891076 -0.27839723 0.16227746 0.1794738 0.33606073 0.11800339 -0.07092928 0.25561327 -0.37025777 0.18666816 -0.22172244 -0.011882237 -0.048468165 0.3833152 0.1457506 -0.25328407 0.8577029 0.14126438 0.15539593 -0.42462033
10 0.11899852 -0.34781614 0.07546244 0.5775962 0.59363675 -0.25209406 0.30850378 -0.0026621933 0.5484368 -0.033740543 -0.56532496 0.22766878 -0.06281546 0.24486463 0.16128679 0.1406859 0.373864 0.35011047 0.65500575 0.035813097 0.021397544 0.04911002 0.37771043 -0.50056875 -0.24540888 0.4246674 0.755345 0.37043977 0.14199845 0.8003745 0.38304335 0.042573694 -0.28703624 -0.115332164 0.0058045797 0.055050515 0.21542983 -0.42140222 -0.36575735 0.21482088 0.08088026 -0.17000787 -0.5451899 -0.1165517 0.24137314 -0.33499956 0.27718544 0.07369425 0.4089684 0.0909065 0.009975939 0.23565693 -0.42666113 0.11584787 -0.15912172 -0.02720095 -0.07811833 0.29327798 0.093020245 -0.31399363 0.7919186 0.14750549 0.17221573 -0.4441225
8 0.13669188 -0.16690943 -0.046044413 0.65284514 0.67851686 -0.026003636 0.47617134 0.08261144 0.75145 -0.18843786 -0.29585695 0.6580128 0.3128718 0.19732133 0.17651004 0.20402639 0.10298214 0.34031853 0.48421007 0.22104496 0.1219079 0.26509255 0.39647356 -0.5023743 -0.16209534 0.3752544 0.5198651 0.17067564 0.13117498 0.9248473 -0.006123616 0.09537153 -0.076135844 -0.016621264 0.1962765 -0.17587961 0.087781236 -0.474519 -0.20167801 0.071324974 -0.13011298 -0.2942028 -0.5355814 -0.21042645 0.06930019 -0.19194996 0.11634755 -0.046926588 0.3774516 0.44883838 -0.39067885 0.22728805 -0.44719595 0.29246745 -0.12271361 0.30181566 0.091588676 0.12913544 0.091328554 -0.04658013 0.7412716 0.18242663 0.07130611 -0.4205596
9 0.3090211 -0.19220334 0.014371569 0.5633372 0.74078304 -0.0069324034 0.5994323 0.18802445 0.8543075 -0.25462145 -0.3245653 0.5912946 0.26396215 0.30002198 0.5164431 0.12854148 0.33773136 0.24647902 0.46566266 0.15544733 0.049825758 0.1624388 0.6316275 -0.33192003 0.08858379 0.5805703 0.49903834 0.021007963 0.28211978 0.80969644 -0.00770162 -0.12248984 -0.19256516 -0.26276818 0.19565853 0.012069306 0.1834244 -0.6379483 -0.2722219 0.15233225 -0.13461907 -0.4023611 -0.5213729 -0.232968 0.24417567 -0.13340281 0.11971738 -0.035940494 0.27402413 0.36380708 -0.23770414 0.30119514 -0.29938075 0.35350987 -0.12468316 0.18898608 0.051544756 0.18578851 -0.025540795 -0.018911205 0.79860884 -0.15756848 0.14779016 -0.5860169
4 0.37576953 -0.40079096 0.28436294 -0.008251087 0.9851016 0.09002282 0.89418167 0.094796196 0.18995334 -0.19230093 -0.41315106 0.64384484 0.35848147 0.86164635 -0.17421019 0.49212912 0.28591302 -0.12061113 0.051703952 0.27921504 0.05252875 0.2911739 0.35007307 -0.37730733 -0.398938 -0.09897178 0.7904284 0.4159828 0.47966483 0.4229246 0.032129686 -0.05598849 -0.3413474 0.11514521 -0.18533604 0.3756311 0.39704856 -0.6551892 -0.39550862 0.13561828 -0.12957709 -0.077243075 -0.91761464 -0.14600728 0.37416562 -0.008857411 -0.14261915 -0.29856065 0.58498293 0.6934783 -0.17489225 0.38894197 -0.91224474 -0.2524501 0.2511087 0.35819823 0.10721481 -0.2736621 -0.17038625 0.1026738 0.7005913 0.112896636 0.16645195 -0.33970878
71 0.4700867 -0.40772673 0.16421504 0.06420007 0.121587485 -0.3636382 -0.09555042 0.37112015 0.69454414 0.50987697 0.3527848 0.0727565 0.16045998 -0.44783795 0.53336203 0.35913885 0.25704262 -0.52098787 0.33453318 -0.21725576 -0.4591295 -0.025982497 0.5860323 -0.31272236 -0.7150025 -0.44474044 -0.15346639 0.48536685 0.4317066 -0.112403736 0.59347075 -0.57033795 -0.35771918 0.41783714 0.003260953 0.048203263 -0.3735524 0.20812185 0.3614774 0.21985917 0.03486605 0.23722832 -0.20558499 0.4292084 -0.14216018 0.01830399 -0.42571396 -0.26595068 -0.51765764 -0.22686437 0.4441946 -0.6176686 -0.030372111 -0.3341739 0.075746775 0.2636673 0.2023677 0.008644697 -0.10718588 -0.45988 0.3705871 0.08224322 0.061686926 -0.38294303
66 -0.01807969 -0.1282257 -0.2014788 0.02966194 0.1255596 -0.19946073 -0.6337144 0.031660262 1.3866895 0.2945186 0.04514583 0.44175574 0.13340366 -0.6652066 0.5787115 0.8839208 0.67858344 -0.265085 0.74437183 -0.261442 -0.21777584 -0.2515369 0.40827867 -0.2668618 -0.54382706 0.088593 -0.21243203 0.48161387 0.47530633 -0.15148449 0.7185702 -0.5912665 -0.20226647 0.8109694 0.19476216 -0.9574277 -0.056505807 0.3256578 0.16422859 0.17746565 0.16350006 -0.009161107 0.23168494 0.4295591 0.20519134 0.029616393 -0.9365579 -1.1426932 -0.8625944 0.0521282 0.01443152 -0.89500636 0.31710008 0.43756753 -0.10266628 0.7757464 0.49156436 0.4591339 0.06856727 -0.27107954 0.25199342 0.34640247 -0.75593525 -0.09800378
64 0.13487308 -0.15549038 0.044269625 -0.07769272 0.28467476 -0.009034415 -0.3481249 0.08634643 0.5498733 0.08825349 0.060902514 0.13570237 0.09666836 -0.2943189 0.1090511 0.42766076 0.19664183 -0.3401773 0.10337289 0.062856376 -0.52202684 0.08604938 0.31895056 -0.4169255 -0.08549033 -0.076581046 0.034126077 0.11786244 0.20743182 -0.46159247 0.4567305 -0.49478307 0.036538072 0.38575253 0.060685147 -0.36740908 0.021193547 0.12797512 0.39115673 0.28017598 0.09128869 -0.0020047124 -0.029060211 0.087642595 -0.03447168 0.17854807 -0.82602435 -0.3309198 -0.3735348 -0.022535564 0.08613766 -0.44376427 -0.032930583 0.06893559 -0.23878376 0.40799057 0.3455861 -0.10824334 -0.13965207 -0.40939155 0.09058677 -0.17114502 -0.39830267 -0.23952751
100 0.491137 0.073008105 0.28543302 0.03796573 0.27842328 0.033329397 -0.06034812 -0.12698558 1.1050609 0.38877442 0.19982807 0.72915864 0.277816 -0.6928514 0.3893626 0.5759736 0.118141435 -0.38197732 -0.022578245 0.30129385 -0.5635478 0.23777314 0.4058154 -0.54796064 0.0037843871 0.21870749 0.10927584 0.2442706 0.06301511 -0.049302287 0.40037823 -0.92972994 -0.04518623 0.7817274 0.37071693 -0.73848546 0.25206792 0.20783995 0.31394944 0.3345614 0.06892988 -0.1544157 -0.14613466 0.43095407 -0.11010576 0.44889757 -1.1728978 -0.88035065 -0.74043477 0.09331087 -0.11366769 -0.73858947 0.22657436 0.33053368 -0.086281516 0.7705801 0.16039109 0.30426034 -0.20084815 -0.31770515 0.026521709 -0.14582591 -0.5090977 -0.33083388
92 0.33685037 -0.5827561 -0.28853297 0.2518146 0.38773346 -0.20119138 -0.14876801 0.6273505 0.361405 0.03935346 0.26551065 -0.11915739 0.06472749 -0.03895154 -0.09820546 0.60927385 0.37319487 -0.40662262 0.57255924 -0.28238362 -0.17221549 -0.112962715 0.5009613 -0.28151563 -0.5028673 -0.5651077 -0.029146358 0.47148237 0.5232805 -0.094696805 0.38019714 -0.10484929 0.09915472 0.19653098 -0.06500816 -0.043476038 -0.22644423 0.054127235 0.27998415 0.16215824 0.07631122 0.33351734 -0.34225956 0.26305485 0.087792315 -0.025047831 -0.35452694 -0.46831343 -0.72142977 -0.0771655 0.50046575 -0.7095501 -0.16346104 -0.26235998 -0.11317251 -0.016391179 0.2628857 -0.23735885 -0.24532512 -0.53910744 0.4079037 0.38518456 0.060997907 -0.14348704
53 0.29271415 -0.41298175 -0.15177475 0.45388338 0.863809 0.10648146 0.64959365 0.46574524 0.34548327 -0.17219341 -0.26066613 -0.017784838 0.20824197 -0.3290419 0.12991524 0.44164625 0.39727125 0.44880894 -0.09326823 0.33269808 -0.030006763 0.5107059 0.5695397 0.16539203 -0.8039133 -0.15900101 -0.102147646 0.17532447 0.46140727 0.7495044 0.92128026 -0.34461838 0.32591274 0.085729964 -0.30836892 0.18887578 0.5944969 -0.02776757 -0.23450366 0.27509198 0.43386006 0.24289276 -0.43205073 -0.45791847 -0.43558845 -0.40186742 0.14484324 -0.0715731 0.62071234 0.021118557 -0.28288648 0.5712511 -0.26184887 0.47389317 -0.45332015 0.40971497 0.48665574 0.5467552 -0.23445699 -0.15536347 0.97550917 0.39833173 0.6808685 -0.06768918
104 0.2008503 0.36698997 0.048861615 0.141103 0.252654 0.10362739 0.21524252 0.3598567 1.0778949 -0.35709712 -0.14581877 0.66582745 0.2809751 -0.55428874 0.32673204 0.71375394 0.20951019 -0.123276785 -0.5272276 0.5816777 -0.061333988 0.2874495 0.38337812 -0.33122635 0.0836491 0.36302304 0.015354381 -0.35241762 0.20133097 -0.5593489 0.8848066 -1.0013471 -0.6644572 0.60065836 0.7408319 -0.5041233 -0.17200957 -0.048014723 -0.002657697 0.16840188 -0.48588666 0.10741776 0.35975403 0.23294568 0.07044572 0.8390416 -0.8206759 -0.5725995 -0.7833503 0.5092856 -0.3573356 -0.85602784 0.202266 0.38528633 -0.39074144 0.5971961 0.21087144 -0.21094202 -0.30932218 -0.38630185 0.69562715 -0.5081388 -0.12554792 -0.620849
98 -0.2298669 0.264399 -0.27800128 0.18072857 -0.17653252 -0.14140077 0.21152079 0.10181698 1.187402 -0.27487665 -0.23387098 0.6917915 -0.022442738 -0.3103664 0.49929753 0.49018234 0.9410576 -0.079133905 0.18799926 -0.27075946 -0.46984705 0.20357604 0.14558494 -0.46977177 -0.59022605 -0.3314966 0.30733678 0.016027214 0.6825602 -0.55802065 0.87589735 -0.79858434 -0.39976668 0.68430656 0.18142903 -0.72265995 0.021111734 0.48024827 0.30273196 -0.2996213 -0.06909507 0.060677707 0.37017658 -0.23050389 0.0686467 0.6100192 -1.002812 -0.81469804 -0.44065186 0.42010993 -0.43747282 -0.6626123 0.6043424 0.640657 0.093085095 0.91958225 0.2680014 -0.23632596 -0.27604076 0.120854266 0.38369736 -0.15375473 -0.61941075 -0.2344626
5 0.35411993 0.084742896 -0.27910903 0.53056586 0.7248864 0.45692772 0.75411975 0.5149031 0.21962906 -0.66473377 -0.018344253 0.85428566 0.25376305 0.41513363 -0.10972747 0.45569178 0.38576907 -0.110405795 -0.022309083 0.7204009 0.18718225 0.09969019 0.6773145 -0.20550948 -0.012409758 -0.1393365 0.51711136 0.29871073 0.083564706 0.578817 -0.026968008 -0.24383932 -0.013495398 0.112333976 0.19035242 0.21190313 -0.23479038 -0.7743767 -0.31394106 -0.29608497 -0.17792584 0.3311512 -0.83484286 -0.46488002 0.51529366 0.28691033 -0.31013322 0.0004585761 0.5481058 0.7565661 -0.40702015 0.25211352 -0.91412646 0.32264376 0.21521448 0.30125192 0.4649124 -0.23038435 -0.07977612 -0.27251992 0.69227207 -0.03475497 0.27356893 -0.61628205
22 0.6408114 0.38147756 0.30998158 0.6207167 -0.032873146 0.03991203 -0.16427718 1.0297273 0.094683856 -0.568836 0.34652397 -0.16655834 -0.414554 0.4922463 -0.027061127 0.034439065 0.510453 -0.074311025 -0.14682303 -0.17347214 0.2682496 0.48740134 0.2452936 -0.8467044 -0.5609559 0.009446153 0.7719911 0.32941946 -0.28084564 0.5967858 1.017155 -0.6585427 0.3911945 0.4505596 -0.33906797 -0.053264424 0.18719998 0.5598176 -0.42193183 -0.169199 -0.25285432 0.6061291 -0.84588706 0.24004835 0.30696467 0.37712505 -0.23784338 -0.5946523 0.5898457 0.9192974 0.08091293 -0.6527771 0.5469028 0.38830554 -0.66565967 0.43578467 0.35849145 -0.06284895 0.13569902 -0.2038669 0.95770323 0.16099131 0.46669617 -0.53846705
77 0.4161093 -0.25552768 -0.23092124 0.002161319 0.5299852 -0.15947695 0.013031879 0.25829458 0.6428559 0.20035566 0.09838037 0.079313755 0.044763163 -0.3937033 0.053870108 0.64267397 0.4525029 -0.42097205 0.38905525 -0.2767323 -0.1649232 -0.22340882 0.21450455 -0.21605846 -0.23880352 -0.20042184 -0.2904079 0.2917685 0.5004287 -0.038762294 0.4460712 -0.2902625 0.14247103 0.3121485 -0.18288393 -0.5344511 0.04357241 0.014183402 0.30878264 0.134259 0.20313904 0.29778203 -0.3195453 0.22346501 0.09769464 0.25717154 -0.36410537 -0.59631646 -0.9140811 -0.041382916 0.18753178 -0.70861375 0.16427399 0.08512283 0.043745533 0.19678935 0.05796564 -0.3382529 -0.47547516 -0.19716865 -0.013700059 0.285582 0.12092018 -0.3445357
68 0.49779317 0.1146304 -0.14076298 -0.11626721 0.33290866 -0.23570317 -0.14873809 0.4380494 0.6666436 0.009296307 0.24632268 0.20708172 0.1795932 -0.20598443 0.13515617 0.55475247 0.39887553 -0.33495823 0.37959954 -0.21825798 -0.25354192 -0.07797691 0.516719 -0.2705307 -0.49838236 -0.40216905 -0.3197095 0.47918886 0.46979654 -0.20341827 0.24481487 -0.3436013 -0.18917473 0.27612552 0.04227647 -0.31527555 0.047445457 0.04891778 0.124715514 0.19291437 -0.021498036 0.25174785 -0.049733903 0.31765613 0.32787693 0.14071076 -0.6846668 -0.546746 -0.7177333 0.00795415 0.26052868 -0.72731566 0.040544 -0.26781783 0.068767264 0.2013199 0.041429467 -0.16524555 -0.08635962 -0.422918 0.5576291 0.27515206 -0.102317736 -0.27933612
84 0.25094587 -0.34688705 -0.20939267 -0.043817706 0.28346232 -0.017899882 -0.27286533 0.15351534 0.7578555 0.31490898 0.23315242 0.21767293 0.076415345 -0.31486234 0.04848501 0.5562298 0.23560488 -0.50277096 0.5592511 -0.29903466 -0.20905517 -0.22543728 0.5264423 -0.34787303 -0.21704283 -0.12002083 -0.13675877 0.28827786 0.37058836 0.026639976 0.3050345 -0.38320273 0.19424143 0.50813 0.092779726 -0.37865034 -0.0074023963 0.1974615 0.18146925 0.19415581 0.10974876 0.17666845 -0.32297528 0.27787378 -0.06890462 -0.059215028 -0.6236488 -0.7163405 -0.68763787 -0.046007376 0.28115508 -0.7051256 0.013267099 -0.04880231 -0.2904223 0.1772588 0.06906069 0.14001355 -0.26539746 -0.31901038 0.056149203 0.29106516 -0.21155289 -0.1028948
106 0.34686542 -0.07651116 -0.5696501 0.555967 0.55939925 0.1965588 0.030147124 -0.009466179 -0.2804803 -0.06375238 -0.25262043 0.54469514 0.3978008 0.33360463 -0.14150614 0.20585768 0.22496651 -0.2500398 0.15403235 0.39733765 -0.030294934 -0.04485298 0.10239403 -0.1154563 0.079118185 0.20853095 0.2944305 0.36062863 0.124028325 0.40270093 -0.046848223 -0.016094206 0.1399467 0.58810455 0.11165579 -0.26987696 -0.31124166 -0.44879547 0.16435736 0.16028735 0.3385538 -0.2522375 -0.268913 -0.08919907 0.12594618 -0.27972546 0.011008023 0.40648848 -0.09248897 0.6443178 -0.47880659 -0.12969398 -0.8046195 0.38635394 -0.23590645 0.12863493 0.42269012 0.09858662 0.025991652 -0.42023653 0.5770246 0.12743779 -0.0141748665 -0.5529854
103 -0.077772096 0.029116984 -0.15306318 0.091116436 0.12813713 -0.24305375 -0.32501277 -0.06417895 1.1546321 0.11345152 -0.11765068 0.5354335 0.17241313 -0.53835356 0.6173074 0.7210896 0.62954617 -0.18664645 0.3786788 0.026202165 -0.20511602 -0.08896729 0.23251085 -0.14489907 -0.50166553 0.13773705 -0.07928092 0.43000054 0.4823295 -0.19431533 0.6143597 -0.5822806 -0.35897952 0.80445117 0.23574206 -0.8410865 -0.09983808 0.15634012 0.18997957 0.0819095 0.097830944 -0.1477816 0.3043147 0.29190242 0.28491512 0.1663524 -0.84989476 -0.89152807 -0.6744957 0.19584006 -0.27946857 -0.6618537 0.18224323 0.5731615 0.083032444 0.84356314 0.51817185 0.32884574 0.0037632952 -0.08480475 0.3565086 0.13407747 -0.62987596 -0.19432972
76 0.5382346 -0.30358672 -0.14314073 0.12349129 0.19497445 -0.1976502 -0.037141133 0.33176237 0.5323759 0.0629637 0.21909939 0.2550127 0.3253677 -0.24377988 0.1567473 0.56984204 0.2931739 -0.51022774 0.18405877 -0.015295925 -0.13450316 -0.15504539 0.4100403 -0.04831676 -0.5108832 -0.18440424 -0.15395585 0.5682385 0.6883627 0.080493905 0.13443112 -0.5052937 0.010769835 0.6084642 0.32364532 -0.4718253 -0.118773766 0.09243837 0.16023983 0.16261455 0.18615055 0.19153813 -0.17492275 0.5609044 0.12348317 0.2491608 -0.5935544 -0.8112823 -0.80435055 0.2758269 0.27363148 -0.64314985 -0.058569223 -0.04674898 0.081237294 0.19257958 0.17368607 0.105610855 -0.30304882 -0.30364063 0.30981424 0.19425341 -0.12808216 0.029130844
80 0.45409948 -0.13522741 -0.18305156 -0.04982362 0.24821614 0.018979318 -0.34568134 0.51752734 0.5720403 0.3139567 0.16800095 0.18653853 0.084670074 -0.27090093 0.1393646 0.5046194 0.4889997 -0.39537448 0.5502131 -0.5126281 -0.29218572 -0.39008504 0.32437906 -0.42317238 -0.31370568 -0.20961075 -0.12892342 0.11936087 0.20030339 -0.2691607 0.5470465 -0.47123298 -0.030547446 0.31140736 -0.32365942 -0.31243628 0.067107454 0.22350897 0.17953585 0.043660734 0.05767241 0.37483737 -0.011861515 0.086821586 -0.18413979 0.09539032 -0.34499946 -0.16586204 -0.24676605 0.049299598 0.26395205 -0.5431807 0.34934255 -0.10380216 -0.17726961 0.33277914 0.26217872 -0.115320355 -0.083499126 -0.4444586 0.01679599 0.101174675 -0.07301683 -0.56755835
17 0.186477 -0.49498293 -0.25006133 0.41462994 0.29362717 -0.21833238 0.35203704 0.20459907 0.36211398 0.18483405 0.18679932 0.42528197 0.14032428 0.1321696 0.41116738 -0.10469188 0.016827643 0.41774607 0.707197 -0.25773814 0.12297694 0.39036778 0.6167784 -0.55432904 0.18373123 0.36612317 0.24894553 0.13332134 -0.1558063 0.63997376 0.19749588 0.08858236 0.04376441 -0.28583485 0.036196534 0.1764891 0.19046673 -0.37809724 0.17130604 0.36381853 -0.31388584 -0.012948043 -0.17109843 -0.4545549 0.12048932 0.1889569 0.23180361 0.47042593 0.052819174 0.49822956 -0.032361824 -0.23268516 0.32720226 0.3220143 -0.4665672 -0.06339945 0.13954957 -0.022747913 -0.22852367 0.13217351 0.33482513 0.1369755 0.36070922 -0.9498625
59 -0.17603755 0.024322271 -0.045861933 0.508518 0.08703445 -0.1372466 0.033930484 -0.021336637 0.66195667 -0.03203342 -0.3275038 0.48418453 0.058526468 0.5624759 0.14024317 -0.035160936 -0.29464474 -0.29485905 0.6939187 -0.03210913 0.13623828 0.43161976 0.7966986 -0.6779988 0.40453702 0.63192505 1.0349226 0.15033722 -0.6569539 0.21188705 0.30994418 -0.28551465 -0.40572995 0.3273 0.21241179 0.48914933 -0.17515828 -0.28540125 0.035431035 0.3503217 -0.5902686 -0.061536293 -0.38230217 -0.26469696 0.49041915 0.2203174 0.033082593 0.03566914 -0.4291126 -0.010820608 0.09337815 -0.29502678 -0.31486815 0.21598044 -0.36362636 0.46583846 -0.11807821 -0.30750623 0.2740563 0.17971344 0.41491166 -0.11603658 0.42764705 -0.86808074
89 0.36165828 -0.33847517 -0.053940352 -0.15405324 0.3569522 -0.044891726 0.022496454 0.23029488 0.5682749 0.19964087 -0.1716188 0.01350434 0.15271917 -0.22841176 0.099948816 0.5461959 0.2814872 -0.40044034 0.007711201 -0.08623877 -0.31442043 -0.03690561 0.06438898 0.006442935 -0.36225325 -0.18749593 0.06932995 0.34319264 0.5488376 -0.27989057 0.48118058 -0.20057178 -0.20579922 0.2923905 -0.0948735 -0.1332733 0.10093212 0.17081721 0.086627804 0.2717197 0.15319996 0.004518936 0.13402021 0.25271374 0.03794786 0.11776327 -0.37867403 -0.4185024 -0.47065723 0.105011255 -0.06533738 -0.47496906 -0.084019385 -0.02609571 0.18341827 0.36717573 0.21370736 -0.08958466 -0.12096438 -0.34518495 0.17307904 -0.030756932 -0.24701148 -0.06001215
14 -0.001282214 -0.15694429 -0.2269645 0.4513243 0.38507792 -0.16840434 0.52778333 0.35127008 0.564356 -0.14318496 -0.08358933 0.56132215 -0.11587398 0.48074725 0.32230854 0.35199624 0.19970562 0.24255314 0.5786957 0.124323234 0.09814733 0.16151065 0.48925754 -0.35451114 0.026849708 0.18010962 0.539579 -0.001325208 0.34722394 0.54208523 0.051101185 -0.054852296 -0.09271054 0.09123871 -0.10538983 0.040002376 0.17956421 -0.33739161 -0.29795223 0.06513172 -0.31098825 -0.25399122 -0.49504763 -0.30530956 0.012173218 -0.1495177 0.033413295 0.43904474 0.22840506 0.3306184 -0.14928858 0.18300183 -0.18290877 0.33453128 -0.045439754 0.16713484 0.15766227 0.035781406 -0.11171699 0.14486793 0.40741625 0.17112881 0.3217684 -0.62811816
61 -0.11059896 -0.009213138 -0.1061077 0.47139302 0.16977783 -0.13277587 0.33994633 0.2599972 0.29858795 -0.35866806 -0.17391382 0.57877094 -0.20435283 0.54420674 -0.016140033 0.30465272 0.1562297 0.2435775 0.51787245 0.26439682 0.15477961 0.25808826 0.30221763 -0.65639347 0.067048654 0.23239446 0.8254264 -0.01878609 0.04160981 0.22293633 0.08505335 -0.16334434 -0.37106702 0.034267023 0.17631921 0.24566175 0.09127981 -0.5425684 -0.27896774 -0.13657069 -0.5308252 -0.06275859 -0.54982126 -0.13306732 0.23862849 0.16469939 -0.12631613 0.12650366 0.14942634 0.21278471 -0.1084703 -0.19597806 -0.2054689 0.23851103 -0.1351951 0.02470456 0.013029348 0.0016719372 -0.14895976 0.15193194 0.657781 0.2295291 0.30473274 -0.4716026
58 -0.08823871 -0.0920698 -0.110125296 0.44341725 0.21808542 -0.073797666 0.37104008 0.29372042 0.29149702 -0.32258123 -0.14597706 0.54629004 -0.16195172 0.5643497 -0.010911651 0.2909358 0.12189692 0.21079072 0.4415305 0.2444051 0.17519216 0.25543267 0.36561015 -0.59672 0.10318631 0.21777642 0.7494366 -0.056554854 0.036375687 0.30719092 0.14814736 -0.074572735 -0.29878223 0.00063730497 0.11331135 0.31663492 0.06763278 -0.48716953 -0.24468367 -0.080589935 -0.45425478 -0.023609908 -0.558905 -0.19824818 0.22197168 0.0932696 -0.046651367 0.15651968 0.18650933 0.25240204 -0.07981179 -0.11760253 -0.23062848 0.2794594 -0.16455759 0.07286105 0.0902402 -0.005709743 -0.1361416 0.11732048 0.6410293 0.21221705 0.3030519 -0.5040927
60 -0.16167915 -0.15628898 -0.06780514 0.46898186 0.16640948 -0.11865742 0.33201224 0.2766973 0.2892351 -0.30732074 -0.18201561 0.5159692 -0.18567298 0.55289334 0.017410273 0.29294094 0.111012705 0.19720054 0.4160288 0.22108307 0.13045843 0.26804525 0.30791727 -0.6143928 0.12521754 0.25803775 0.7601507 -0.0756776 -0.020326983 0.26017478 0.25794163 -0.078386314 -0.3704983 0.0775917 0.090404354 0.28727892 0.038276717 -0.4018278 -0.2340111 -0.04984208 -0.47759867 -0.0005562149 -0.5463906 -0.16512634 0.19948 0.08068774 -0.024915691 0.18520969 0.11990387 0.20757459 -0.091313094 -0.20137736 -0.16223584 0.31935146 -0.19599082 0.07208884 0.097520225 -0.018201292 -0.1541163 0.1511518 0.5820074 0.22993886 0.26728788 -0.50062394
55 0.19223626 -0.3652563 -0.18066636 0.59221697 0.4820307 0.032852173 0.66368103 0.26271486 0.61397034 -0.17498676 -0.11210283 0.5795231 0.27588424 0.43749833 0.20025623 0.3243829 0.14219935 0.3396025 0.24349414 0.28261518 0.03319317 0.34216276 0.41174173 -0.26252508 -0.13743933 0.10318283 0.4300962 0.13671443 0.40470377 0.6162451 0.029101364 -0.03236196 -0.04115671 0.16258703 0.0481598 -0.06747328 0.15494104 -0.32339516 -0.19934301 0.09374181 -0.1892155 -0.35041866 -0.3561473 -0.31392768 -0.1115041 -0.0646811 0.013137489 0.16950606 0.31079796 0.47350958 -0.39586863 0.14943925 -0.33020538 0.32710704 -0.11666701 0.3014774 0.34117666 0.07659449 -0.09412536 0.13073084 0.43347844 0.18220462 0.22771421 -0.55102605
18 -0.053642664 -0.16165836 -0.33046722 0.36308053 0.30406272 -0.135809 0.5540609 0.44387135 0.3536009 -0.21653382 0.023744142 0.54542667 -0.21741603 0.4737821 0.14543189 0.35690084 0.28637904 0.19747613 0.49820617 0.122299716 0.21594751 0.13649398 0.42062384 -0.31078154 -0.093044825 -0.0072461325 0.5709382 0.11517128 0.338701 0.46108863 0.12300394 0.03879155 -0.10834118 0.054771032 -0.10646988 0.1256502 0.12054239 -0.3364973 -0.4046674 -0.044777583 -0.2917763 -0.080932245 -0.44834515 -0.35247418 0.089919694 0.019933252 -0.10886462 0.4011871 0.43600324 0.468959 -0.13694376 0.24026017 -0.29023495 0.3966571 0.07258709 0.2056336 0.28782147 -0.06484913 -0.23867123 0.072512366 0.3368225 0.10164368 0.40482864 -0.48447886
87 0.5275882 -0.32496715 -0.21968219 0.10307803 0.3310375 -0.23754801 -0.09349888 0.44985574 0.38924715 0.20053892 0.20568018 0.004530333 0.061847143 -0.27739087 0.08480989 0.4049297 0.39455077 -0.45517564 0.3119252 -0.34096515 -0.2029928 -0.21141697 0.35273546 -0.38301906 -0.4144482 -0.29026678 -0.014343837 0.2187977 0.39027718 -0.12518124 0.49403837 -0.51416004 -0.0632311 0.18993871 -0.19246703 -0.17813186 -0.06477327 0.04286645 0.31008816 0.069030836 0.20943095 0.3708978 -0.24838363 0.14273627 -0.08750002 0.12064581 -0.31711558 -0.16590968 -0.41152373 -0.109075814 0.35353023 -0.41299418 0.13607296 -0.19778542 0.078209445 0.2574636 0.1351432 -0.31784928 -0.39981097 -0.34578347 0.020982474 0.14404324 0.3265228 -0.49256074
48 -0.028790358 -0.17328037 -0.1629976 0.52899843 0.32835367 -0.20679311 0.5382532 0.35982975 0.53053766 -0.17077428 -0.07417082 0.5683509 -0.15993361 0.41922024 0.4278726 0.30562207 0.26600453 0.29346216 0.5387895 0.20494436 0.07386428 0.17941737 0.49107516 -0.29935247 0.043762363 0.25395685 0.5295568 0.010976727 0.31860855 0.5309176 0.10450779 -0.09418215 -0.13405775 0.13234529 0.010115914 -0.0392629 0.10709765 -0.3598135 -0.31135893 -0.0156132635 -0.34759063 -0.2782551 -0.42863977 -0.2860215 0.032084245 -0.04636814 -0.019309295 0.34583038 0.2850924 0.34033993 -0.20544527 0.1274546 -0.11187871 0.52757514 -0.08586088 0.13385071 0.17986776 0.08239563 -0.17887522 0.1686007 0.37361678 0.09656156 0.30632532 -0.60550904
25 -0.29210126 -1.099343 0.15341914 0.5526052 0.39842084 -0.33710378 0.63707936 0.21901415 0.60655063 0.15484953 -0.24647754 0.47484526 0.027753973 0.63243306 0.6410011 0.34012353 0.116441615 -0.0041109975 0.027544247 0.10714068 -0.101978794 0.27832648 0.51458305 -0.22235137 0.21601643 0.3228997 0.28303468 0.041565094 0.09172431 0.7930593 1.1310014 0.3449784 -0.33548412 0.69479007 -0.39046097 0.09515336 -0.11440284 0.19214498 -0.18534794 0.32630038 -0.13109998 -0.07183428 -0.4997731 -0.48811394 -0.10767929 -0.40633026 0.14933085 0.30450922 0.25858226 0.41831043 -0.32232207 0.0041460823 -0.21337916 1.0143467 -0.22590257 0.53272355 0.6071066 -0.14397158 -0.24988365 0.21562491 -0.024426846 0.19707786 0.05079659 -0.8630854
26 -0.251394 -0.98943645 0.19164722 0.756966 0.23770969 -0.46116808 0.46112874 0.13259065 0.39982018 0.039809994 -0.32770795 0.4281211 -0.3029792 0.6486601 0.49533865 0.3674695 0.14770381 0.007977934 0.3460917 0.17606892 0.040833216 0.11319642 0.58089095 -0.26379135 0.24639684 0.5478429 0.42655483 -0.047711086 0.1467189 0.629051 1.0632522 0.1935508 -0.45027506 0.708142 -0.3314166 0.123762846 -0.09779141 0.20754147 -0.3062402 0.269709 -0.42677343 -0.02431571 -0.6872232 -0.40188915 0.069601424 -0.3934121 0.19898927 0.30176735 0.25220096 0.29737517 -0.19913977 0.03488863 -0.031204274 0.9177629 -0.27976575 0.53987795 0.45987016 -0.15047573 -0.42906496 0.2734015 -0.028197832 0.2776075 0.13423516 -0.7393224
69 0.3490564 -0.15274921 -0.39027524 -0.24060363 0.3169269 0.07082843 -0.28787348 0.27260855 0.6567681 0.22202948 0.2470734 0.21303561 0.028970232 -0.113857195 -0.11258464 0.5282 0.3466811 -0.5420595 0.53108597 -0.4166889 -0.22937715 -0.27816993 0.4221924 -0.3748553 -0.25897655 -0.18039739 -0.22210324 0.17005546 0.46305445 -0.022027593 0.4048648 -0.34764093 0.03183578 0.41675124 -0.14844975 -0.2634198 0.084596656 -0.040488265 0.08074146 0.056688946 0.03470255 0.36867955 -0.1945162 -0.0047429143 0.023307746 0.10294831 -0.49749345 -0.4202225 -0.43699527 0.08499154 0.33740544 -0.6031845 -0.0834372 -0.1713808 -0.28899014 0.18100302 0.0087508885 -0.09818895 -0.2946689 -0.34875607 0.09356405 0.20671868 -0.03975079 -0.3591491
75 0.2183812 -0.30661315 -0.20733929 -0.009680121 0.21544656 -0.11331901 -0.16968468 0.07297824 0.75853235 0.13396782 0.29633313 0.22651818 0.12510052 -0.17017896 0.08226015 0.51189995 0.2422571 -0.5149981 0.4555772 -0.19449897 -0.2233076 -0.17190921 0.50624317 -0.20740351 -0.2921087 -0.13676944 -0.10820085 0.3134525 0.552093 0.055199545 0.23456842 -0.47311065 0.09706108 0.6063542 0.3000575 -0.46612632 0.022824282 0.19029057 0.22025964 0.14079024 0.022580246 0.1052549 -0.2812913 0.30730632 0.052446503 0.088166475 -0.754694 -0.8976809 -0.7506678 0.12956996 0.20704652 -0.7494099 -0.13941747 -0.091678776 -0.24643148 0.21199629 0.00086590054 0.09944005 -0.26735637 -0.24642648 0.13373381 0.29664648 -0.27525577 0.050886676
34 0.25542212 -0.28435606 -0.31232157 0.69456345 0.079637714 -0.30609402 0.58493173 0.2432012 0.44879964 -0.15322724 -0.2755982 0.3629962 -0.11754659 0.6078947 0.2371397 0.15353137 0.2796695 0.35233 0.7935315 0.072165385 -0.078117356 0.22996889 0.4113605 -0.4396305 -0.061739866 0.12034699 0.5709251 0.39596137 0.4613645 0.38402924 -0.09678955 -0.32422146 -0.082935065 0.504308 0.2662481 -0.11441239 0.14023635 -0.5496544 -0.5463753 -0.4799404 -0.5359447 -0.6150741 0.008110207 -0.3993325 -0.32395652 0.104697 -0.14166023 -0.024182567 0.48175734 0.34215733 -0.3903008 -0.122500524 -0.22657984 0.38272476 -0.11499704 -0.040646907 0.06847254 0.075527035 -0.20188193 0.06586404 0.078457184 -0.17787 0.43642333 -0.6725201
102 0.078214 0.19585446 0.11905586 0.3298271 0.18392129 -0.25506333 0.21831842 -0.028873796 0.9127244 -0.108468354 -0.14263518 0.40076482 0.16594458 -0.3684732 0.66572 0.3958977 0.1735416 0.13330926 -0.13278228 0.5040399 0.026723336 0.25309545 0.42633688 0.013932041 -0.058552213 0.40843266 0.133009 0.062466737 0.2233439 0.10749355 0.47657478 -0.69760215 -0.48427394 0.50789607 0.45911947 -0.7450864 0.049563613 0.038544733 -0.054951575 0.32390583 -0.27201787 -0.30997384 0.1340166 0.20427534 0.26601115 0.3583091 -0.44716755 -0.29693803 -0.33943406 0.27543762 -0.30490807 -0.20484924 0.16785045 0.5390904 -0.11421069 0.5806113 0.16186368 0.18393429 0.007640708 -0.060298275 0.27780572 -0.1682699 -0.049613796 -0.4913254
62 -0.1369335 0.016870253 0.21832106 0.21005377 0.056420874 -0.27614293 -0.16683541 -0.022091258 1.0448718 0.11290269 -0.08627076 0.30221552 0.0750398 -0.4454143 0.73241115 0.40748593 0.30255127 0.17536467 0.23812899 0.14668444 -0.26371598 0.093979485 0.3826127 -0.113351166 -0.27692568 0.2932577 0.025645817 0.20278549 0.2086145 -0.007891124 0.48035774 -0.54455143 -0.25222617 0.52214295 0.17299938 -0.72315246 0.043639142 0.17995945 0.14697112 0.30115297 -0.15827155 -0.23964496 0.18699396 0.12385485 0.13202594 0.20139845 -0.5809541 -0.37942225 -0.16629471 -0.021161474 -0.12699106 -0.17895548 0.33228657 0.5266228 -0.13329914 0.6265283 0.36633587 0.35728619 0.052862853 -0.049699463 0.12208994 -0.03669827 -0.39735356 -0.33429304
74 0.14551318 -0.24130657 -0.24098419 0.05282673 0.33886224 0.1612282 0.051790684 0.59567744 0.2993078 0.13536358 0.034112386 0.1890271 -0.06098265 -0.308669 -0.3441715 0.66177964 0.3571093 -0.19472453 0.1153384 -0.39741224 0.072140455 -0.19807275 0.08013162 -0.31882915 -0.011577809 -0.23868659 0.18610726 -0.047121372 -0.039820332 -0.31346744 0.5003801 -0.24796924 0.05955564 0.22538294 -0.28034997 -0.014289941 -0.02592222 0.048420213 0.095737286 -0.19169162 -0.0651116 0.4641106 0.022545386 -0.00102707 -0.10247001 0.11860026 -0.22963871 -0.37060976 -0.39675793 0.0027508503 0.003498218 -0.6220459 0.34837615 0.13462065 -0.14378491 0.2878469 0.28709698 -0.2543333 -0.5275045 -0.037909575 -0.1403626 0.18222262 0.23583795 -0.5746391
70 0.7332685 0.08945875 -0.7196009 -0.13622837 0.7419597 -0.14549519 -0.39258558 0.47517243 0.46155068 -0.1234602 0.13570705 0.4082471 0.22989866 0.35717836 -0.40406924 0.6388946 0.65693283 -0.43358094 1.0488275 -0.681466 -0.061923385 -0.38271546 0.52895814 -0.83154625 -0.3976248 -0.32195714 -0.048784394 0.43778792 0.48447198 0.14960402 -0.051893245 -0.05606563 0.057893485 -0.12376833 -0.27273828 -0.18961981 0.5120221 -0.5548105 -0.0790387 -0.08043706 0.26792192 0.4010256 -0.43239367 -0.01276136 0.29271668 -0.29788592 -0.5190828 -0.3833935 -0.20169261 0.16448994 0.41404653 -0.4357366 -0.3805131 -0.57037544 -0.024639022 0.09887345 -0.1279847 -0.30963695 -0.18171744 -0.5746029 0.7686428 0.70564425 0.10664066 -0.45778814
99 0.02037625 0.10360801 -0.073760144 0.124177046 0.15786684 -0.24061388 -0.19145478 -0.15371795 0.83245814 0.038146697 -0.11188335 0.36559877 0.14513333 -0.3245841 0.4342651 0.4593203 0.34757376 0.028688138 0.2546078 0.13372086 -0.17225623 0.05099267 0.2535316 -0.15446068 -0.24081984 0.20544545 0.061898082 0.30415422 0.28004152 0.068778306 0.28236046 -0.4464149 -0.23015209 0.47992343 0.17203307 -0.7099454 0.1343253 0.05854038 0.099327885 0.22215992 0.07855616 -0.29433346 0.18885839 0.12957373 0.2531845 0.025746029 -0.60226697 -0.46182045 -0.26302603 0.123691596 -0.20956019 -0.21453053 0.051290203 0.41746423 0.011738245 0.62690794 0.2730881 0.29682046 0.06840765 -0.06421349 0.19446494 0.122738875 -0.40537852 -0.20107499
33 0.13587996 -0.33757406 -0.30593753 0.7555871 0.07541731 -0.32735062 0.63154614 0.26780316 0.38661703 -0.06447445 -0.21461646 0.41991076 -0.09376581 0.45964748 0.24906725 0.19241746 0.3273509 0.36760944 0.7129645 0.21196088 -0.0849244 0.28712457 0.45650738 -0.4428492 -0.21197794 0.11396326 0.5340435 0.4735747 0.4334555 0.36183524 0.02365227 -0.3358921 -0.05925448 0.45116198 0.34782076 -0.14207612 0.19916229 -0.4777453 -0.5523205 -0.4322961 -0.50762606 -0.5412411 -0.00024471906 -0.33841977 -0.38261586 0.10731051 -0.18327083 0.10212785 0.548203 0.34004498 -0.41885072 -0.16148753 -0.32531077 0.45685554 -0.20229764 -0.13931122 0.055973407 0.07335587 -0.10000197 0.10893979 0.17260195 -0.0669831 0.47417966 -0.6707617
67 0.16937533 0.12913525 0.16446324 0.109128 0.3070713 -0.13555796 0.1800247 -0.038716346 1.052974 0.15637363 -0.22135155 0.6392278 0.23004423 -0.5902127 0.5957339 0.6036938 0.29530543 -0.18698707 -0.09404153 0.4411074 -0.3643403 0.18078639 0.23200217 -0.16084047 -0.26498288 0.1751064 0.033083085 0.3159936 0.2629457 -0.2129969 0.47771654 -0.6408971 -0.36631012 0.83526355 0.39987853 -0.6013675 -0.019369187 0.14799833 0.22479787 0.19957599 -0.14191744 -0.22049017 0.14467473 0.3757897 0.24236514 0.3884277 -0.78847474 -0.84172106 -0.8484133 0.2081672 -0.48760092 -0.7755291 0.1018301 0.5661934 0.051424954 0.70759016 0.2639718 0.17351902 -0.10369848 -0.038399026 0.4673417 -0.13004363 -0.44128734 -0.33980167
82 0.26253626 -0.28554013 -0.22181255 0.029545499 0.33625662 -0.017911058 -0.14526047 0.39697495 0.5656734 0.30729622 0.0538912 0.09000776 0.00062652474 -0.34180486 -0.044403423 0.5899674 0.34111637 -0.28616756 0.41915175 -0.35879934 -0.14514862 -0.17226797 0.29609182 -0.38322034 -0.12942865 -0.2382031 -0.027580762 0.10933186 0.17096673 -0.15213576 0.47634998 -0.26928437 0.09485699 0.26304445 -0.17162703 -0.10541267 -0.014215605 0.12675148 0.15278764 0.028438235 0.11129375 0.35173595 -0.16455771 0.14682819 -0.09850602 0.022509765 -0.3046707 -0.500951 -0.5544867 -0.1721127 0.19805843 -0.64073205 0.30489388 -0.0119707165 -0.124508485 0.21761975 0.12528327 -0.1526459 -0.37655327 -0.23719019 0.03404088 0.20822309 0.043905213 -0.36707136
73 0.22586264 -0.14912948 -0.092289045 -0.030396845 0.17989814 0.08980436 -0.17517588 0.3941822 0.5172544 0.23449913 0.037564922 0.2838603 0.040142942 -0.201875 0.17003062 0.42660072 0.284062 -0.28904527 0.28943503 -0.19164169 -0.2571066 -0.20885463 0.3306367 -0.3283772 -0.28157648 -0.15425062 0.005247185 0.075133204 0.11312071 -0.2973368 0.50498825 -0.39903653 -0.13406795 0.37616104 -0.1608564 -0.16033354 -0.0429515 0.17493375 0.14283718 0.08831895 -0.09896205 0.16922858 0.0036338177 -0.0066124448 -0.04720754 0.09223308 -0.36713532 -0.15222135 -0.17600593 0.09794769 0.08211606 -0.45127195 0.1717815 0.06422256 -0.19272329 0.35420513 0.2818759 0.00705988 -0.031950213 -0.3027165 0.07373498 -0.021570915 -0.15904737 -0.51017314
79 0.24463129 -0.1329717 -0.107430615 -0.0466216 0.18468122 0.077546276 -0.18951629 0.37552658 0.54583746 0.23435521 0.050446235 0.27828553 0.058348615 -0.22490075 0.14296344 0.4409474 0.30604765 -0.29914576 0.29331896 -0.2094754 -0.26188505 -0.21658565 0.32888952 -0.35659567 -0.28606606 -0.16506141 -0.006293925 0.07943886 0.12479502 -0.29899076 0.5068777 -0.41591865 -0.14150785 0.37530684 -0.12627102 -0.17421769 -0.03947437 0.16535912 0.15520023 0.07163526 -0.07633325 0.19795974 0.020635627 0.025887802 -0.050763924 0.10892163 -0.4017533 -0.22109275 -0.24646236 0.075324886 0.09108953 -0.4994718 0.18200591 0.04260052 -0.17825222 0.3563568 0.2671091 -0.00030905413 -0.060156953 -0.31655067 0.09489163 -0.0010206057 -0.1636854 -0.47961178
3 0.19251567 0.15569398 -0.08954466 0.24145839 0.12477563 0.0034290175 0.4520945 0.24171636 0.3039228 -0.41799438 0.1658633 0.41703916 0.05470086 0.14427677 0.28518745 0.3620851 0.38087362 -0.22219977 -0.20741856 0.4565568 0.19535464 0.061379664 0.539073 0.19148867 -0.18968064 -0.13130192 0.23215358 0.45430818 0.33390513 0.3408602 0.1279777 -0.55660707 -0.1136148 0.4258741 0.109617405 -0.32990894 -0.17362583 -0.08903835 -0.18675852 -0.1603232 -0.18311399 0.08702497 -0.36208412 -0.17551357 0.55220443 0.3862695 -0.5322077 -0.31585494 0.3453436 0.5764193 -0.2892497 0.15398665 -0.2816622 0.44285673 0.38090694 0.63005227 0.47916922 -0.12623116 -0.0365369 0.119234286 -0.048279967 0.03160969 0.13077058 -0.38638046
95 0.3615779 -0.15250032 0.08623729 -0.10063823 0.26530656 -0.012091834 0.14944775 -0.06936742 0.5050481 0.16639559 -0.14086467 0.4489016 0.33433396 -0.22803126 0.036916453 0.53200114 0.16022918 -0.3212579 -0.19230181 0.23080125 -0.20251489 0.11856479 -0.030955987 -0.06680953 -0.17935084 -0.031458203 0.11404274 0.34976673 0.34060568 -0.072119094 0.065686636 -0.21289814 -0.188304 0.40520605 0.19443572 -0.13884965 0.14110078 -0.15323657 0.0034202733 0.040996064 0.14089864 -0.20392491 0.03529036 0.35871434 0.066858165 0.14139074 -0.61225593 -0.70901453 -0.36896232 0.23957606 -0.2653331 -0.38118687 -0.30765247 0.09448421 0.3100402 0.47677538 0.2168938 0.047512937 -0.1722165 -0.10784893 0.2342269 -0.0015718476 -0.342136 0.069274336
78 0.44614536 -0.1842891 -0.2817277 0.03066632 0.252407 -0.19765298 -0.3158868 0.14300467 0.5318862 0.122971594 0.19589426 0.2709029 0.18239428 -0.13937761 0.060071357 0.41793784 0.42488036 -0.4636067 0.5609186 -0.37145606 -0.09291282 -0.28371394 0.30613533 -0.4529066 -0.31682044 -0.088757366 -0.07865023 0.3317176 0.448977 0.11742119 0.16936505 -0.34802747 0.06530572 0.13620597 0.009202053 -0.41809636 0.13279967 -0.18010814 0.15715326 -0.017483503 0.32334116 0.2271682 -0.34629613 0.2532412 0.013909402 0.016984846 -0.48354134 -0.5235726 -0.36789978 0.069742605 0.35193092 -0.360652 -0.015498194 -0.1440364 0.083108716 0.23361552 0.0657452 -0.030868169 -0.24467367 -0.3205655 0.20494485 0.35709822 -0.03643364 -0.10552398
83 0.41828126 -0.15004116 -0.3875827 -0.06197456 0.36170828 -0.019416977 -0.15817507 0.4214796 0.45662895 0.15095031 0.15860479 0.05388878 0.008899453 -0.10235062 -0.23995517 0.49510324 0.3378989 -0.36838463 0.40886474 -0.39424312 -0.19323911 -0.17584816 0.35761055 -0.3902592 -0.19288208 -0.27370206 -0.057488374 0.1383042 0.3079841 -0.046103634 0.37890097 -0.31770954 0.042374358 0.27208373 -0.14823402 -0.04576464 0.092285976 -0.018320762 0.119874045 0.016236896 0.07967914 0.4123032 -0.18220821 0.04777688 0.018291913 0.03370192 -0.33257836 -0.35782963 -0.46737853 -0.064279296 0.28081983 -0.5841873 0.029538665 -0.24812618 -0.20193754 0.13720514 -0.013209038 -0.24265598 -0.38691455 -0.2766546 0.1522245 0.20660844 0.19360946 -0.45349568
101 0.12151809 0.029059013 -0.10197841 0.14153229 0.10220172 -0.30824566 -0.07954676 -0.026231188 0.81814027 0.095606 -0.013509756 0.27046007 0.11009755 -0.33214557 0.49509123 0.45846257 0.3675226 -0.038247816 0.26040578 -0.0025368857 -0.109913 -0.009674316 0.31477854 -0.0104604885 -0.3675954 0.07546191 -0.008933779 0.37358066 0.3872246 0.12539014 0.33076105 -0.48040518 -0.23159981 0.511777 0.11869337 -0.6903176 0.10206356 0.13979585 0.09424571 0.20946047 0.067010716 -0.18480258 0.17713319 0.17658624 0.21400754 0.087827645 -0.5060242 -0.45082763 -0.33079508 0.10755452 -0.099683896 -0.2651063 0.16953236 0.32949567 0.11729986 0.5587387 0.2106358 0.23176242 -0.01919171 -0.053003393 0.102943964 0.17146184 -0.24996325 -0.23885214
86 0.38424218 -0.115325876 -0.25966865 -0.19138703 0.35609052 -0.02285055 -0.18065232 0.3475318 0.5426468 0.3357372 0.09948129 0.19586852 0.052670874 -0.33172902 0.06874387 0.5227062 0.3276451 -0.4226815 0.3435872 -0.34679753 -0.25591525 -0.274939 0.33570758 -0.28754455 -0.3270441 -0.20080447 -0.110631265 0.15807399 0.27289742 -0.24252881 0.41377044 -0.4487645 -0.08443408 0.49174467 -0.19367747 -0.24273752 0.060613886 0.17690505 0.15822056 0.11268612 0.0434121 0.2635245 0.047892515 0.08147998 -0.024705708 0.029766737 -0.44930324 -0.28762653 -0.42231295 -0.030099062 0.10171283 -0.58208436 0.14273392 -0.08552193 -0.095820226 0.349928 0.08504518 -0.08841691 -0.27465373 -0.27367982 -0.021760924 0.13677584 0.011669925 -0.5174446
42 -0.33965003 0.09809917 0.091198064 0.22015443 -0.07916627 0.62015724 0.79374963 0.57300234 0.67157817 -0.015082364 -0.27999732 0.57533866 -0.3724871 -0.11850615 0.48061472 0.38647085 0.5725632 -0.28180546 -0.26420382 0.14379682 0.09654001 -0.27660638 0.8560704 -0.50986165 0.16223131 -0.038206115 0.48397514 0.093048714 0.17707552 0.049822714 0.52313334 -0.557463 0.045887735 0.32396477 -0.37066814 0.37480286 -0.6878661 0.85541284 0.13667253 -0.081769586 -1.0048275 0.29233178 -0.79877484 -0.14510685 0.020208241 0.43171924 0.37375408 -0.303118 -0.12787554 0.25639126 0.018437063 -0.7685347 0.05535958 0.34589368 -0.78446156 0.9451793 0.915803 0.24424073 0.16675167 0.20092325 0.05573058 0.09884179 0.14119405 -1.225724
65 0.2540622 0.35920003 0.0032896432 0.16106243 0.18838227 -0.12720221 0.3129918 0.09356747 1.0198888 -0.15822147 -0.09958046 0.587255 0.16739905 -0.45540738 0.51943433 0.54672587 0.3075402 -0.034819588 -0.34512264 0.41960457 -0.22616291 0.27943248 0.3684215 -0.18266627 -0.09754498 0.23429371 0.11520074 -0.049092475 0.32530957 -0.21396501 0.6316756 -0.9596811 -0.4640986 0.67581165 0.40554923 -0.75741845 0.08646782 0.15638724 0.1557309 0.25095513 -0.25904384 -0.15627629 0.3330397 0.032234386 0.14235875 0.6391585 -0.8204161 -0.4061532 -0.45622784 0.3953206 -0.41013792 -0.4435686 0.33311445 0.49624473 -0.09271511 0.7582821 0.14302307 -0.10929016 -0.23141372 -0.12450277 0.2609182 -0.3103588 -0.18107156 -0.61024475
81 0.3987328 0.03444084 -0.33900297 -0.039481536 0.2627918 -0.11120009 -0.13297477 0.20354792 0.47799918 0.0850957 0.08061373 0.18953006 0.1268735 -0.23110145 0.017375581 0.52644646 0.37887734 -0.40549323 0.1863457 -0.19826193 -0.17113887 -0.113436215 0.28659287 -0.19586 -0.23148264 -0.16817938 -0.095325455 0.25677198 0.39542294 -0.12589072 0.3440568 -0.45136264 -0.031882934 0.45676485 -0.037764713 -0.4199086 0.10428939 0.0506821 0.17237987 0.08241793 0.13536458 0.16501376 0.0569858 0.15613452 0.07728851 0.11308014 -0.5147192 -0.383726 -0.5237584 0.112387165 0.053920954 -0.5270773 0.04602106 -0.020336872 -0.032044597 0.34710878 0.105891906 -0.17049994 -0.25413477 -0.26683557 0.094227284 0.15282838 -0.043688055 -0.37465012
19 0.043309707 -0.34061155 -0.11457975 0.53619486 0.44906187 -0.02550983 0.58372444 0.39504254 0.5760044 -0.015828226 -0.10134461 0.45888418 0.08692135 0.19004151 0.37132925 0.28557968 0.19871582 0.22541554 0.3629282 0.16186501 0.0015439595 0.11068528 0.4331275 -0.0775615 -0.066173896 0.15988629 0.30324066 0.023974167 0.38299048 0.5707119 0.14927314 -0.061668847 0.032788828 0.19114074 -0.071853854 -0.09827126 -0.027635412 -0.10871384 -0.2513995 0.12549523 -0.16606955 -0.28379714 -0.3228156 -0.26124486 -0.21611293 -0.14326069 0.15953614 0.30610788 0.24406858 0.3518436 -0.25513178 0.19091615 -0.17597309 0.42861566 -0.20511174 0.18647076 0.330081 0.079903886 -0.11741711 -0.011623168 0.2653967 -0.031004747 0.24172015 -0.5587678
88 0.20902519 -0.050303005 -0.18785766 0.00020547169 0.17931752 -0.0075492826 -0.018276628 0.07055062 0.5262144 0.14877716 -0.162578 0.15333898 0.07478066 -0.4107159 0.20394976 0.3538099 0.23267928 -0.16344868 0.08321867 -0.11049066 -0.23808564 0.06356257 0.045596924 -0.07949789 -0.17710142 0.095594905 0.000655587 0.16020955 0.19542867 -0.085857764 0.42744616 -0.2343566 -0.081591986 0.3707221 -0.04764478 -0.2530007 0.097398885 0.19504787 -0.020892315 0.16365422 0.12471794 -0.06899622 0.4327342 0.12740783 -0.2886886 -0.039997265 -0.22499794 -0.07985801 -0.26621205 0.04200965 -0.1971816 -0.31390524 -0.040227175 0.14925274 -0.07815598 0.31603634 0.19017042 0.09209906 -0.06692247 -0.3085604 0.06468098 -0.15847102 -0.17389365 -0.17086968
37 0.05364409 -0.30025572 0.023016445 0.42055106 0.39116853 -0.06180011 0.45192385 0.18003981 0.8596039 0.2819838 -0.06352268 0.42756155 0.1789277 0.057709694 0.6412857 -0.07391727 -0.081211194 0.1764376 0.5263487 -0.04797494 -0.03887902 0.31218487 0.8267431 -0.2293493 0.18481985 0.4090393 0.3262399 0.06642097 -0.17724077 0.5355703 0.26826733 -0.018037304 0.050283913 0.110598974 0.017692536 0.1844934 -0.02015237 -0.11716371 -0.011641615 0.36860046 -0.3083099 -0.22111398 -0.13264401 -0.4897641 0.024476416 0.06229259 0.21702635 0.23153926 -0.0563039 0.22984962 -0.071609974 0.1147811 0.03576497 0.4356516 -0.30185586 0.2870082 0.17136008 -0.012701444 0.054574903 0.08835052 0.19099438 -0.33445486 0.29913914 -0.8756889
35 0.059296206 -0.055279408 -0.109128736 0.27721933 0.2936516 0.023098461 0.51279765 0.28767028 0.24574432 -0.12162158 0.069156975 0.5458531 0.15269847 0.25675407 0.17990333 0.22086686 0.14857419 0.09122952 0.024921928 0.33630064 0.118310235 0.08662735 0.31813002 -0.008134025 -0.1304896 -0.0053512696 0.104899436 0.07378331 0.36644402 0.30443212 -0.04294859 -0.18004356 -0.011775932 0.23478052 0.11806109 -0.17893623 -0.019935444 -0.2090494 -0.16747668 -0.036736406 -0.16047756 -0.20038842 -0.35076848 -0.20580012 0.089432895 0.14367305 -0.15906946 -0.05452081 0.18576795 0.56164026 -0.2784339 0.14938433 -0.16543254 0.4090241 -0.030743262 0.28149724 0.3147263 0.030462729 -0.20239675 0.117594205 0.30594552 -0.031548426 0.17407873 -0.37211078
16 0.06813276 -0.33701944 -0.056520328 0.45380726 0.45646763 -0.10976378 0.50781673 0.36692443 0.6348815 0.056184206 -0.12555136 0.38504115 0.04490288 0.08803294 0.45779228 0.25993344 0.20701379 0.2162084 0.46141028 0.030696303 -0.044820886 0.08012557 0.47941995 -0.11717926 -0.04324268 0.23069179 0.25358483 -0.017366342 0.3488601 0.5607072 0.21792614 -0.054509435 0.031324428 0.13014296 -0.12002762 -0.08651179 0.04711682 -0.0761527 -0.24130355 0.1681111 -0.17533171 -0.24175783 -0.28809294 -0.25703022 -0.20125102 -0.1936765 0.19844282 0.3211057 0.2219928 0.25630307 -0.18892117 0.16825666 -0.049433578 0.39030156 -0.19149424 0.13885571 0.22906628 0.100884475 -0.1215967 0.00079274067 0.232909 -0.042485468 0.22783239 -0.563004
44 -0.08074239 -0.30927616 0.06093157 0.41084573 0.51110023 -0.061584033 0.5675883 0.33794475 0.7100353 0.14573702 -0.16016233 0.3709501 -0.08652401 -0.037698004 0.538623 0.22724728 0.28795844 0.38385743 0.452891 0.10154481 -0.11458989 0.10382846 0.46002024 -0.14515327 -0.21050614 0.12313867 0.24738324 0.1340891 0.2168031 0.59510714 0.36255118 0.052493908 0.09850334 0.12732902 -0.16431677 -0.040650036 0.11524582 -0.0023025665 -0.33737046 0.17433983 -0.0863757 -0.15583447 -0.28089732 -0.29573107 -0.2708573 -0.1697641 0.1667838 0.25804368 0.33894676 0.20237544 -0.1235078 0.2966669 -0.1373972 0.41880542 -0.23679897 0.158041 0.27717236 0.20045401 -0.03436975 -0.14606743 0.31365085 -0.14591804 0.18840322 -0.4753878
72 0.15152471 -0.5313339 -0.062653765 0.10201394 0.25202444 -0.013131953 -0.09540757 0.29742613 0.64109457 0.28015515 0.20735931 0.072615266 0.012379718 -0.35748637 0.14117606 0.5589819 0.25826132 -0.40633458 0.38821113 -0.21692467 -0.081473574 -0.23514348 0.34413895 -0.14640774 -0.21018113 -0.09523819 -0.1547652 0.23574167 0.39720884 0.039135173 0.52058333 -0.29972836 0.19233716 0.3953267 -0.03996169 -0.40249 -0.17919889 0.16048598 0.21740709 0.16309914 0.10304828 0.2674077 -0.33817816 0.2319297 -0.09210851 0.22286926 -0.35775316 -0.56017476 -0.62517464 -0.0007334998 0.32054353 -0.57375425 0.20496657 0.19282128 -0.14727837 0.1635634 0.27980387 0.047651663 -0.38032106 -0.23723044 -0.16088113 0.17304064 -0.05087468 -0.13473514
38 -0.08124727 -0.2592779 -0.04100905 0.49373823 0.36659914 -0.0868627 0.57879716 0.39119196 0.6316739 0.033595797 -0.08648572 0.50356126 -0.040230684 0.21009684 0.4136458 0.2924673 0.1522201 0.3366468 0.43721774 0.18920586 -0.021552205 0.1455467 0.48712692 -0.19247718 -0.05555226 0.13612252 0.39223874 -0.015601292 0.27839336 0.47709644 0.1962311 -0.07741074 -0.02080461 0.21999924 -0.09731982 -0.019797845 0.045002233 -0.072599135 -0.25859052 0.14098336 -0.2891317 -0.22024116 -0.34571022 -0.27708954 -0.16621973 -0.06710035 0.1371757 0.3959036 0.18697639 0.26587224 -0.17658454 0.1425828 -0.069891006 0.41222608 -0.22258349 0.15798244 0.27103648 0.09906258 -0.09672947 0.071032755 0.29431263 0.016091626 0.28699583 -0.6335556
54 0.028640984 -0.39799705 0.41701123 0.29452643 0.7232794 0.20768078 0.7105253 0.39994207 0.60716647 -0.11259108 -0.19508603 0.32513362 0.082852885 -0.024453178 0.22331455 0.6474798 0.19091041 0.41403836 0.3017789 0.6441413 -0.05459732 -0.13747443 0.4932596 0.020641794 -0.32363668 -0.1888443 0.777341 0.37736955 0.35760584 0.8506565 0.4674669 -0.2184333 -0.2407531 0.44453397 -0.15210266 -0.1649602 -0.42628792 0.12789883 -0.3555022 0.47599584 0.09311116 0.02498301 -0.3096439 0.21690911 0.12511368 0.039609734 0.5578467 0.15778233 0.5137963 0.118341036 0.067244545 0.3029501 -0.53221387 0.37383345 -0.12838629 -0.03960071 0.8972175 0.27572423 -0.11666595 -0.5849026 0.39149857 -0.27425343 -0.18868072 -0.43842387
56 -0.06972537 -0.3094747 0.07434897 0.36583185 0.4923711 -0.082929045 0.5307585 0.3058877 0.7048811 0.16756545 -0.22067152 0.36130673 -0.09845207 -0.040419724 0.51087517 0.24632782 0.3075924 0.35908136 0.4752933 0.084622234 -0.13220035 0.04513187 0.41457906 -0.13666725 -0.18103318 0.16073383 0.2947172 0.08770177 0.3031527 0.51765 0.3290372 0.026893094 0.025612133 0.09674195 -0.14146826 -0.032225836 0.11764825 -0.04741921 -0.35216022 0.16891535 -0.07552447 -0.21572289 -0.25832137 -0.24191763 -0.23698229 -0.18987739 0.17358947 0.25030488 0.2644347 0.1714616 -0.09419651 0.26464567 -0.10498266 0.36635205 -0.18839774 0.081717536 0.22192992 0.24256077 -0.055254325 -0.158799 0.3391508 -0.16436417 0.14081946 -0.46227348
24 0.07642858 -0.2927677 0.13367952 0.365398 0.50026745 0.026334856 0.5454669 0.2981692 0.5292735 -0.08085785 -0.167782 0.28853124 0.027606938 0.06905779 0.37038758 0.37892672 0.17193206 0.2329192 0.42256773 0.2522299 -0.04536585 0.036710896 0.43723753 -0.08186827 -0.11196933 0.104538426 0.50236136 0.2089167 0.22987579 0.6654339 0.25804195 -0.13923807 -0.07966624 0.24444032 -0.16101265 -0.094533026 -0.111444525 0.02986077 -0.26797044 0.30280548 -0.09400816 -0.09531452 -0.26383197 0.016503705 -0.079834945 -0.12770241 0.39273378 0.2955168 0.3500628 0.12933226 -0.093173765 0.19794677 -0.28242204 0.3144939 -0.17240357 0.050374612 0.47988507 0.1574454 -0.04583949 -0.19383824 0.24209148 -0.13630389 0.040097672 -0.43970433
27 0.051820744 -0.24758328 -0.106935255 0.5116981 0.41533956 -0.0885857 0.5640405 0.3512124 0.6902636 -0.046145875 -0.09824527 0.49401167 0.042353608 0.22376902 0.45136532 0.26131985 0.17129646 0.26763198 0.45142543 0.1425294 -0.0021560555 0.14822316 0.534572 -0.17892513 -0.023498062 0.22431238 0.36799893 0.0058257584 0.33893928 0.55652016 0.091608465 -0.10551111 -0.01934886 0.13553947 -0.035833992 -0.09430157 0.0728056 -0.1751538 -0.22736017 0.117519945 -0.26722094 -0.31044495 -0.31092256 -0.2895257 -0.1128026 -0.10557757 0.11131344 0.3178196 0.2159338 0.29130465 -0.23423135 0.16897476 -0.10690069 0.4030296 -0.16030563 0.19499418 0.22108352 0.09601975 -0.08462598 0.091436304 0.28101677 0.004328435 0.2588108 -0.62145776
40 -0.06901964 -0.34030378 0.013513951 0.45172906 0.490823 -0.09281583 0.43110842 0.25416785 0.75462914 0.18482153 -0.2361571 0.3071166 -0.01831436 -0.11030098 0.5010168 0.23368792 0.29119614 0.39521486 0.4759468 0.08835816 -0.12949519 0.06017591 0.40376723 -0.09800417 -0.24107638 0.18575741 0.2415445 0.15346895 0.2931676 0.62034804 0.39074308 0.028760042 0.0672095 0.13421755 -0.11239987 -0.160051 0.09541303 0.019632962 -0.2918915 0.23381495 0.055532645 -0.23586452 -0.19388883 -0.22008826 -0.2754679 -0.26387897 0.21235198 0.21784775 0.23217095 0.12800059 -0.11694663 0.25654602 -0.1311058 0.41434392 -0.2643021 0.13040423 0.27260113 0.31465948 -0.004319284 -0.21403593 0.37442267 -0.082644895 0.11617619 -0.42038468
12 0.055948276 -0.4514819 -0.06061881 0.39724454 0.27835402 -0.20056231 0.38976637 0.29673293 0.6592398 0.2465691 0.12609233 0.30981374 -0.026061429 -0.18437682 0.7293982 -0.0076903007 0.13202645 0.34711063 0.6014485 -0.20381993 -0.036131307 0.23286629 0.63739455 -0.24270268 0.12848519 0.35387474 0.07570169 0.028326865 -0.040355004 0.58180916 0.3732614 0.00044453406 0.09349646 -0.08279468 -0.093413346 0.012736493 0.09779969 -0.023491358 0.019963453 0.29825273 -0.29312712 -0.04431053 -0.061600167 -0.4247036 -0.09234737 0.059099354 0.22318202 0.39302757 0.06697715 0.27564675 -0.07224996 -0.064071596 0.4372847 0.5036982 -0.37789872 0.08366106 0.22852147 0.060823463 -0.17341776 0.08301032 0.08621912 -0.11706525 0.24538465 -0.8176996
43 -0.06728441 -0.22893484 -0.19378227 0.428247 0.27041423 -0.08828133 0.5711849 0.45099232 0.45560533 -0.028435115 0.052591678 0.48259604 -0.08540678 0.28802887 0.34458175 0.30693907 0.19904247 0.25333133 0.37573075 0.18449792 0.07159693 0.10508796 0.47414806 -0.10435397 -0.07301731 0.012315763 0.3015701 0.024734732 0.38116586 0.4557713 0.15850334 -0.074222945 0.029346222 0.25078255 -0.09655978 -0.061762888 0.02021831 -0.08671153 -0.27708742 0.03261503 -0.25493848 -0.20881158 -0.29749364 -0.34831497 -0.14431475 -0.009448748 -0.007835644 0.36926857 0.2568225 0.396622 -0.18227167 0.18163313 -0.10406262 0.4954446 -0.12877785 0.21913807 0.35632285 0.030261377 -0.193667 0.08915964 0.17102742 0.02789195 0.33309656 -0.596296
30 0.10285588 -0.30657256 -0.100128695 0.52586097 0.46891892 -0.014375103 0.62794036 0.40695184 0.6798933 -0.06087089 -0.05402222 0.50483215 0.12301672 0.15766849 0.43944108 0.2698824 0.19878267 0.27608582 0.36408913 0.15817729 0.014413441 0.15374817 0.50841403 -0.10453741 -0.036272325 0.1959967 0.26865834 -0.035698418 0.382237 0.5970355 0.097264215 -0.08434809 0.007420442 0.0664366 -0.03502469 -0.08596404 0.033638615 -0.18437654 -0.21870391 0.10374692 -0.22174333 -0.27204344 -0.31878653 -0.3086464 -0.15057556 -0.095763534 0.12602758 0.29536754 0.26259732 0.3496732 -0.2676963 0.20788449 -0.09128387 0.424161 -0.16317348 0.19115227 0.3070805 0.092310965 -0.12819897 0.05182054 0.298739 -0.031818096 0.24113709 -0.587056
23 -0.07063698 -0.23213433 -0.06563149 0.43910652 0.36129364 -0.13880432 0.59218216 0.37384126 0.5792593 0.070979 -0.055664595 0.5216695 -0.07845711 0.24182792 0.45067114 0.304359 0.18358827 0.34599474 0.44404545 0.17715766 0.0031703813 0.105144754 0.4644581 -0.16418661 -0.08038985 0.09874431 0.32554883 0.025158139 0.36950412 0.5109668 0.15494764 -0.052857637 0.01229579 0.26449552 -0.09831249 -0.11503233 0.07049864 -0.06801189 -0.28303924 0.1112121 -0.25081223 -0.2907045 -0.35193777 -0.26849285 -0.16599011 -0.09405222 0.07745339 0.37818924 0.24525036 0.34568834 -0.18524647 0.1729934 -0.070662774 0.45788708 -0.16684309 0.15908056 0.2683316 0.11772904 -0.13076016 0.088887475 0.23774537 0.02950382 0.26081094 -0.61421686
6 0.21884874 0.037385 -0.009903263 -0.06868417 0.17172804 -0.06271709 -0.030930042 -0.01837133 0.43074802 0.19216096 -0.089728616 0.38461092 0.21104223 -0.2968836 0.19588034 0.41441643 0.19085777 -0.26050395 0.061995372 0.0355009 -0.20179696 -0.05024594 0.09238419 -0.076154366 -0.17954752 0.035705168 -0.042368054 0.2061011 0.14651519 -0.13137598 0.12515461 -0.3078726 -0.14337343 0.53351057 0.10011771 -0.26279503 0.061962858 -0.02030878 0.10265953 0.04329744 0.018677648 -0.043107618 0.1589859 0.2716416 0.06898678 0.10468516 -0.4410984 -0.42218852 -0.36787298 0.13951623 -0.1558508 -0.46689868 -0.06330421 0.10475929 0.050861854 0.3329102 0.13773265 0.1334906 -0.10043814 -0.09386017 0.15706998 0.029195916 -0.2832777 -0.16589077
31 0.010551478 -0.29135838 -0.14241098 0.47314507 0.35819077 -0.07144663 0.5637961 0.40707776 0.5184164 -0.0011514986 -0.054185085 0.45455813 0.012702194 0.24362467 0.3739688 0.28133562 0.20449176 0.19162686 0.3917971 0.13385169 0.049428284 0.088066585 0.48591414 -0.06810756 -0.01814794 0.12996797 0.33825153 0.03153406 0.39199263 0.50401187 0.14126596 -0.07920762 0.008049695 0.18353225 -0.055735502 -0.0406812 -0.037400685 -0.13209803 -0.26907742 0.07584041 -0.21423243 -0.25389257 -0.29957762 -0.31644583 -0.13170224 -0.07061556 0.08864006 0.33416805 0.24741349 0.35931617 -0.1940409 0.19254376 -0.16390255 0.43834406 -0.11244793 0.17788498 0.29833022 0.027352935 -0.14194329 0.032729834 0.17977194 -0.051015556 0.28557175 -0.6033001
28 0.11742056 -0.35055286 -0.033028584 0.44332784 0.5768483 0.027858071 0.56449544 0.328371 0.7724869 0.05277133 -0.122945465 0.44741 0.16769192 0.046966523 0.46915624 0.24347197 0.23820862 0.3242211 0.31781074 0.13769092 -0.09597903 0.13737217 0.45545894 -0.10926443 -0.1421781 0.1737952 0.21523668 0.03348676 0.3602706 0.60723054 0.17456603 0.010849097 0.06007371 0.030788064 -0.08776864 -0.11420444 0.10752273 -0.13729998 -0.1982347 0.1923143 -0.06907064 -0.27458122 -0.2607773 -0.2829816 -0.20397565 -0.17833152 0.1642456 0.22603554 0.23951782 0.29861668 -0.23669812 0.24273483 -0.10559029 0.3656403 -0.16144006 0.20964757 0.3160879 0.19741945 -0.07012777 -0.035030138 0.36750576 -0.052336406 0.13155937 -0.5091135
50 0.071820825 -0.309228 0.20313263 0.33795476 0.63320327 0.17351006 0.60708207 0.3297485 0.56565833 -0.12990867 -0.15391304 0.3270254 0.115932204 0.008743808 0.25511727 0.46101964 0.21564741 0.337618 0.28622174 0.45607778 -0.0073917643 -0.045687664 0.45100638 0.0067924783 -0.23360614 -0.0558079 0.562728 0.30313224 0.29576614 0.78017664 0.3035302 -0.10367456 -0.10417005 0.22659674 -0.102956496 -0.1412532 -0.2533955 0.007649967 -0.2969089 0.33114278 0.085840724 -0.046100482 -0.2864951 0.062978245 0.052329205 -0.028470675 0.41138417 0.14413871 0.46830466 0.17294438 -0.037442483 0.33094373 -0.45931542 0.36057025 -0.10650708 0.057458106 0.6777424 0.22944207 -0.06397516 -0.41074312 0.37239167 -0.1992623 -0.08170179 -0.37676775
45 -0.09955216 -0.26766294 0.09112607 0.3956624 0.4972119 -0.16145118 0.4801105 0.25916675 0.72526133 0.25486666 -0.23216033 0.36850917 -0.14155726 -0.0772306 0.61690414 0.20061977 0.3205421 0.36645296 0.5377149 0.056023702 -0.15630391 -0.0022045074 0.46886343 -0.13217759 -0.16606505 0.20517598 0.2465527 0.11611972 0.26362678 0.5609984 0.35432076 0.022601 0.060877383 0.17501512 -0.124345146 -0.0910178 0.11250011 -0.014335305 -0.33098996 0.18433836 -0.052438483 -0.23930056 -0.26305947 -0.24818538 -0.21029334 -0.22489491 0.15517843 0.24890463 0.24241555 0.16150796 -0.08588374 0.25387484 -0.07855165 0.4382111 -0.20131417 0.09185223 0.15539923 0.26800868 -0.026803404 -0.17334042 0.31921348 -0.15480427 0.16120781 -0.5131381
32 -0.015928043 -0.29403344 -0.08057592 0.42483187 0.466056 -0.014641695 0.6197113 0.4488963 0.5696434 0.010213819 -0.066892475 0.48933235 -0.0015060646 0.16030723 0.3858098 0.3212379 0.1975844 0.25327513 0.39719576 0.14759451 -0.015076146 0.11505245 0.47600242 -0.121170886 -0.09165161 0.07577438 0.31434375 0.009365122 0.33428988 0.5172862 0.1929085 -0.0359691 0.048827276 0.16590075 -0.13525803 -0.0080082975 0.017534444 -0.100837305 -0.29257035 0.093489 -0.21615404 -0.17244323 -0.34198576 -0.30994508 -0.21465428 -0.08817235 0.112909414 0.344041 0.29366443 0.33500147 -0.1999384 0.2170153 -0.16672197 0.4036761 -0.16519807 0.16769987 0.32374552 0.043529876 -0.13737425 0.0022375481 0.25589436 -0.05607223 0.28034243 -0.5695167
47 -0.027838854 -0.29049858 -0.10583309 0.45314685 0.30782726 -0.11886022 0.56141955 0.3833235 0.609069 0.032952722 -0.037987873 0.41970098 -0.037802182 0.21688768 0.46855688 0.28621385 0.13963239 0.25059393 0.45038855 0.09775972 -0.0075225835 0.1424561 0.5094914 -0.10517149 -0.025475433 0.13432641 0.33642516 0.024043282 0.3192144 0.51336503 0.17704518 -0.08703443 0.018860681 0.2328296 -0.13850415 -0.07189906 0.035938725 -0.013924913 -0.2276801 0.16045344 -0.2691506 -0.24774382 -0.24841128 -0.29074818 -0.19571427 -0.10045847 0.136855 0.41633794 0.20623104 0.26290366 -0.17643999 0.16779403 -0.04654808 0.4242635 -0.18220536 0.209679 0.2959099 0.057695642 -0.106006995 0.1189622 0.10435567 0.008825047 0.29028797 -0.6358358
39 -0.046222743 -0.33416364 -0.121405534 0.4686849 0.32512346 -0.07103578 0.57211185 0.43579933 0.6748585 0.010930508 -0.03132055 0.44418678 -0.024946012 0.20122617 0.3727603 0.30763525 0.21103215 0.34818268 0.35897186 0.14173841 0.038916573 0.13636358 0.4598755 -0.10309299 -0.10643545 0.08582144 0.3311124 -0.03802417 0.46070462 0.4995947 0.21064825 -0.051900487 -0.004028226 0.12984003 -0.07667878 -0.051197592 0.023806658 -0.06650449 -0.27391693 0.09392253 -0.21428661 -0.2877233 -0.260025 -0.32439086 -0.21173275 -0.049654204 0.09425676 0.29354218 0.25365576 0.3237511 -0.16761799 0.19595796 -0.027257774 0.447834 -0.16462667 0.20910805 0.34958056 0.12322857 -0.17344089 0.06506051 0.238929 0.015233116 0.2878573 -0.5571387
97 -0.15909389 0.2146466 0.20948227 0.31898314 -0.004097178 -0.04588752 0.5155125 -0.07004848 0.9065931 -0.11828869 -0.2701693 0.65785754 0.023774035 -0.31204855 0.5122725 0.2588913 0.39477822 0.24268685 -0.15342163 0.34749663 -0.38618517 0.420005 0.19718145 -0.2939968 -0.13977127 0.09242986 0.39592996 -0.13054745 0.09510465 -0.20729372 0.52593255 -0.55001384 -0.35369015 0.53142685 0.3341206 -0.40704256 0.040685322 0.29644358 0.22261086 -0.07613724 -0.37211895 -0.2379695 0.11647402 -0.14088632 0.109654374 0.49811953 -0.6002292 -0.501018 -0.19188324 0.22296335 -0.5404018 -0.31883526 0.4061083 0.7134365 -0.048347533 0.632245 0.09631272 0.09399658 -0.13523422 0.19720347 0.34492123 -0.32657227 -0.43446347 -0.22713505
20 0.008956508 -0.26254466 -0.13702321 0.48723218 0.36793882 -0.077917434 0.58805513 0.37987024 0.63945144 0.02119073 -0.0026416692 0.52072024 0.023472505 0.22827572 0.40425617 0.28271633 0.14040253 0.31767294 0.37489885 0.1759544 0.025894932 0.16357167 0.51108783 -0.1450401 -0.05619469 0.09151789 0.3213568 0.0183465 0.33712137 0.54507935 0.13192378 -0.04187366 0.033174835 0.19730282 -0.06632203 -0.084875256 0.032361668 -0.0926653 -0.18842822 0.13770436 -0.24445646 -0.28796908 -0.2995083 -0.32600248 -0.1472276 -0.0443248 0.066259384 0.35701853 0.21568051 0.37656218 -0.22601728 0.1604612 -0.08557052 0.44785762 -0.16542575 0.24550557 0.31519693 0.07181174 -0.098406635 0.08432195 0.24119094 0.050517548 0.27999535 -0.6484307
29 -0.0191047 -0.2871193 -0.10145877 0.4606208 0.39798874 -0.074323826 0.56255424 0.39078483 0.573992 0.041477073 -0.1013567 0.46307865 -0.00970382 0.23384927 0.38215184 0.28783822 0.17520262 0.24291848 0.43610966 0.11593758 -0.0065785423 0.12980579 0.45791486 -0.16127138 -0.073372185 0.13090439 0.35497385 0.034221727 0.35226837 0.51651055 0.1663468 -0.03611588 0.03244586 0.22236395 -0.10015253 -0.044411972 0.036258247 -0.07856487 -0.2758671 0.12871782 -0.21629682 -0.27316478 -0.30640718 -0.27178964 -0.23361605 -0.10966754 0.12149744 0.34924442 0.23517264 0.32859376 -0.19050743 0.16226375 -0.16308978 0.40105805 -0.20336695 0.18509363 0.27870172 0.0704694 -0.102707095 0.022222111 0.25969684 -0.023599226 0.26949042 -0.5781143
21 -0.24138974 -0.12522465 0.20211534 0.29214486 0.19854173 0.2701998 0.7293614 0.3315942 0.48780668 -0.025353402 -0.25106373 0.38808674 -0.17133965 0.0532345 0.38230532 0.33001754 0.26000592 0.14807522 0.06358716 0.32787687 0.11926734 -0.21934211 0.5448094 -0.11493576 0.06287973 0.035481766 0.59101975 0.09549289 0.34137943 0.49017757 0.2164008 -0.24838032 -0.076415904 0.23008856 -0.23474301 0.061229616 -0.5164092 0.4300701 -0.099997684 0.20062856 -0.46410725 -0.101306535 -0.507268 0.01341031 0.0118706925 0.10972201 0.61610425 0.16964708 0.20042562 0.14942008 0.0027276503 -0.058846317 -0.17325194 0.3354412 -0.3970885 0.3445426 0.689448 0.2667248 0.06310354 0.01807468 0.07739026 -0.038943984 0.052680075 -0.7602876
63 0.12847899 0.12595502 0.1414071 -0.05238482 0.11237079 -0.08685953 0.047866885 0.0986984 0.5254733 0.28081152 -0.004983749 0.37976843 0.20753919 -0.40596417 0.28885263 0.42016536 0.06365072 -0.06750745 -0.059101235 0.12667555 -0.14176661 0.015806327 0.20572154 0.030523306 -0.22331077 -0.105996504 -0.040865976 0.08648076 0.015342194 -0.2872373 0.28680944 -0.28188905 -0.4337661 0.60940266 0.04880734 -0.1119679 -0.008913351 0.07556037 0.21460567 0.097477525 -0.34254023 -0.044654693 0.26856488 0.1512302 0.18234152 0.2532812 -0.4076687 -0.40541667 -0.4113307 -0.018663723 -0.12141373 -0.4762579 0.22330777 0.27827397 0.14086992 0.44061688 0.10789329 0.22358593 -0.041927256 -0.07870848 0.055529773 0.018076748 -0.25277716 -0.38494495
41 0.083444335 0.16791159 0.1124745 0.30100906 0.07320766 0.17947051 0.49560705 0.47326493 0.07549009 -0.19381903 0.09336843 0.28058112 -0.08491094 0.23480232 0.2006405 0.08160153 0.26168615 -0.043134585 -0.28442857 0.22557552 0.19167517 0.07535133 0.33815792 -0.076046154 -0.20540117 -0.07594729 0.25782362 0.21411599 0.16370478 0.41024762 0.21901426 -0.3483722 0.22444737 0.36966047 -0.2022977 -0.10459684 -0.17133756 0.38402468 -0.20304936 -0.04327166 -0.3136546 0.076259814 -0.5543661 -0.06634037 0.090080395 0.22625633 0.089318134 -0.12789905 0.38129094 0.6571762 -0.18639514 -0.05901683 -0.0035109352 0.36545402 -0.32427856 0.466676 0.4993536 0.026548922 0.050182678 0.134047 0.20833923 0.00215695 0.30381227 -0.5341486
46 -0.04779261 -0.3057781 0.09292153 0.4139937 0.55522054 -0.14337234 0.5081547 0.23809445 0.8068627 0.22497408 -0.24516176 0.37606224 -0.05956446 -0.042580437 0.57872075 0.22750106 0.2873681 0.43835437 0.5423227 0.05253873 -0.13959794 0.049204156 0.43233716 -0.19930854 -0.22591121 0.22696163 0.29299617 0.12177838 0.28940997 0.6528708 0.30295727 0.04757621 0.04073435 0.0870583 -0.15049633 -0.13176169 0.16717708 -0.021300284 -0.2699822 0.2868262 -0.027602071 -0.28887138 -0.3043173 -0.18604718 -0.23238537 -0.26990163 0.21756908 0.25131625 0.2501286 0.1506119 -0.1015464 0.2457675 -0.104294576 0.3649719 -0.25530297 0.10656183 0.17565443 0.3031904 0.014501302 -0.15198293 0.41251194 -0.04229372 0.11746623 -0.5018755
36 0.15695848 -0.25190952 -0.17740759 0.35794172 0.44566515 0.0448984 0.6292083 0.45161507 0.3383299 -0.18684044 0.03254005 0.42273447 0.11812909 0.25650713 0.21191473 0.34393862 0.2856266 0.029927775 0.13552521 0.22878185 0.11445842 0.06806425 0.46428472 0.08511288 -0.19941081 -0.063760586 0.24902768 0.19743887 0.44897807 0.534009 0.16421948 -0.16824807 0.016454326 0.2216995 -0.11099232 -0.098313406 -0.05218555 -0.14669594 -0.30980006 0.03441235 -0.08198848 -0.08147711 -0.36337307 -0.29426125 0.027110144 0.01546286 -0.020683186 0.17391992 0.42739087 0.5280822 -0.2399943 0.33707452 -0.3261942 0.3942986 0.046500877 0.31117484 0.4688311 -0.07661959 -0.1956684 -0.024823308 0.1692145 -0.056212403 0.2928228 -0.4475431
